svm_type c_svc
kernel_type rbf
gamma 1
nr_class 2
total_sv 236
rho -0.264542
label 0 1
probA -6.15861
probB 2.35482
nr_sv 161 75
SV
3.344387037648104 1:0.986156 2:0.0107208 3:0.00312274 4:-0.890156 5:0.133484 6:0.591162 7:0.0196087 8:0.170308 9:0.0538237 10:0.0736207 11:0.176456 12:0.149571 13:0.0810178 14:0.142109 15:0 16:0 17:0 18:0 19:0 20:0 21:0 22:0.0117817 23:0.0389721 24:0.0178738 25:0.10551 26:0.416091 27:0.00445063 28:0.0293923 29:0.165529 30:0.210399 31:0.00369665 32:0.5623 33:0.0917331 34:0.0301223 35:0.0282015 36:0.253867 37:0.00694954 38:0.0163958 39:0.00673421 
0.1225181658958329 1:0.0120018 2:0.253658 3:0.73434 4:-0.965875 5:0.502755 6:0.817555 7:0.00728398 8:0.115541 9:0.146286 10:0.0891559 11:0.0317221 12:0.0396932 13:0.0116914 14:0.0558708 15:0 16:0 17:0 18:1 19:0 20:0 21:0 22:0.0219909 23:0.0412674 24:0.00488669 25:0.0108599 26:0.689282 27:0.00319477 28:0.1028 29:0.0467416 30:0.0789762 31:0.0193024 32:0.799632 33:0.0302083 34:0.0145378 35:0.0496644 36:0.00713888 37:0.0603524 38:0.00526969 39:0.0138946 
0.2800916984595712 1:0.00263026 2:0.0115081 3:0.985862 4:-0.960221 5:0.0248217 6:0.0700732 7:0.0447151 8:0.314038 9:0.112223 10:0.365554 11:0.0245522 12:0.0181563 13:0.0228724 14:0.0730671 15:0 16:0 17:0 18:1 19:0 20:0 21:1 22:0.00356096 23:0.0140686 24:0.141421 25:0.00372771 26:0.00162972 27:0.682552 28:0.0181664 29:0.0326154 30:0.102258 31:0.000940555 32:0.0414282 33:0.20399 34:0.0232276 35:0.00197311 36:0.724325 37:0.000982241 38:0.000645478 39:0.00248731 
0.005919426288034314 1:0.00367799 2:0.00607377 3:0.990248 4:-0.95483 5:0.118381 6:0.298796 7:0.0312455 8:0.251929 9:0.0711509 10:0.0926197 11:0.177791 12:0.201893 13:0.0335223 14:0.0214678 15:0 16:0 17:0 18:0 19:0 20:0 21:1 22:0.027861 23:0.790588 24:0.119129 25:0.00441829 26:0.0090082 27:0.0285378 28:0.015397 29:0.00403165 30:0.00102937 31:0.0047793 32:0.0485673 33:0.049566 34:0.00450842 35:0.00260474 36:0.85376 37:0.0137245 38:0.00513801 39:0.0173521 
0.05599891409419524 1:0.00913791 2:0.877278 3:0.113584 4:-0.962624 5:0.021726 6:0.0614341 7:0.144655 8:0.252917 9:0.0761373 10:0.22064 11:0.0884795 12:0.104805 13:0.0390736 14:0.0515668 15:0 16:0 17:0 18:0 19:0 20:0 21:0 22:0.0416345 23:0.652742 24:0.132799 25:0.00804169 26:0.0122689 27:0.10923 28:0.0316395 29:0.00773958 30:0.00390414 31:0.00724009 32:0.0531257 33:0.0337652 34:0.0097624 35:0.00428669 36:0.849281 37:0.0200979 38:0.00870349 39:0.0137372 
0.03568657134754313 1:0.000703927 2:0.0153866 3:0.983909 4:-0.958242 5:0.0476194 6:0.233974 7:0.0216646 8:0.214447 9:0.0089159 10:0.126368 11:0.420019 12:0.0987095 13:0.0390665 14:0.0231903 15:0 16:0 17:0 18:0 19:0 20:1 21:0 22:0.169637 23:0.656463 24:0.0118949 25:0.00463755 26:0.00591987 27:0.00545272 28:0.0983166 29:0.0186126 30:0.0290661 31:0.378321 32:0.371798 33:0.118613 34:0.00900137 35:0.0415628 36:0.0106877 37:0.00615917 38:0.0113216 39:0.0525357 
0.02260213865672488 1:0.000709659 2:0.0137012 3:0.985589 4:-0.963885 5:0.44955 6:0.84862 7:0.00292975 8:0.114662 9:0.142992 10:0.0302372 11:0.220591 12:0.00849182 13:0.0248829 14:0.00566401 15:0 16:0 17:0 18:0 19:0 20:0 21:1 22:0.020518 23:0.172189 24:0.0420285 25:0.618058 26:0.0294616 27:0.0712111 28:0.0288155 29:0.00517862 30:0.0125403 31:0.00901809 32:0.891232 33:0.0312617 34:0.0103669 35:0.0245968 36:0.00654469 37:0.0119239 38:0.00647309 39:0.00858303 
0.1138885739275858 1:0.0050988 2:0.0127901 3:0.982111 4:-0.968245 5:0.00842448 6:0.100556 7:0.469473 8:0.0407193 9:0.0143268 10:0.0231173 11:0.202221 12:0.0571492 13:0.0399158 14:0.144653 15:0 16:0 17:0 18:0 19:0 20:0 21:0 22:0.00373521 23:0.0840592 24:0.814442 25:0.011518 26:0.00265067 27:0.0351312 28:0.0283704 29:0.0144156 30:0.00567829 31:0.0057327 32:0.122481 33:0.743776 34:0.00401224 35:0.00528939 36:0.0736181 37:0.00643164 38:0.00417389 39:0.0344848 
0.04489412470764177 1:0.00253123 2:0.00414655 3:0.993322 4:-0.954545 5:0.0165639 6:0.0450044 7:0.0851632 8:0.181 9:0.0120232 10:0.0177057 11:0.133353 12:0.4933 13:0.0442284 14:0.0166619 15:0 16:0 17:0 18:0 19:0 20:0 21:0 22:0.453985 23:0.200038 24:0.161581 25:0.0377479 26:0.0245632 27:0.0889668 28:0.0118044 29:0.00755907 30:0.0137544 31:0.00380405 32:0.00967914 33:0.0108088 34:0.0775986 35:0.0089328 36:0.0126064 37:0.00781047 38:0.0221447 39:0.846615 
0.9085935999843231 1:0.968507 2:0.0259881 3:0.00550527 4:-0.962308 5:0.0116792 6:0.0964467 7:0.0185804 8:0.0548984 9:0.0174065 10:0.171606 11:0.0538856 12:0.373581 13:0.124354 14:0.174009 15:0 16:0 17:0 18:0 19:0 20:0 21:0 22:0.0160668 23:0.0511055 24:0.0362919 25:0.82878 26:0.0253359 27:0.020995 28:0.012959 29:0.00216686 30:0.00629905 31:0.11 32:0.11 33:0.11 34:0.11 35:0.11 36:0.11 37:0.11 38:0.11 39:0.11 
0.05526145339591725 1:0.000615604 2:0.943292 3:0.0560921 4:-0.958913 5:0.780506 6:0.809142 7:0.000267671 8:0.172109 9:0.00820611 10:0.0229389 11:0.00300909 12:0.00623674 13:0.00463454 14:0.00209176 15:0 16:0 17:0 18:0 19:0 20:0 21:0 22:0.0776234 23:0.108963 24:0.0156526 25:0.111061 26:0.0908921 27:0.135381 28:0.0323538 29:0.0907259 30:0.337347 31:0.11 32:0.11 33:0.11 34:0.11 35:0.11 36:0.11 37:0.11 38:0.11 39:0.11 
0.1239246362083623 1:0.00200694 2:0.0129807 3:0.985012 4:-0.954575 5:0.0189926 6:0.124631 7:0.0113628 8:0.182355 9:0.0393607 10:0.63609 11:0.0418592 12:0.0382275 13:0.022199 14:0.00955233 15:0 16:0 17:0 18:0 19:0 20:0 21:0 22:0.0284822 23:0.0675003 24:0.0553868 25:0.0317155 26:0.00827363 27:0.772757 28:0.024164 29:0.00734863 30:0.0043716 31:0.00440241 32:0.0382588 33:0.0750354 34:0.0153417 35:0.006354 36:0.796479 37:0.0367056 38:0.00611236 39:0.0213109 
0.2235946567070795 1:0.00110469 2:0.00416322 3:0.994732 4:-0.951695 5:0.802692 6:0.877157 7:0.00251934 8:0.116592 9:0.00394864 10:0.00971648 11:0.00475876 12:0.0216269 13:0.00624994 14:0.0318956 15:0 16:0 17:0 18:0 19:0 20:1 21:1 22:0.0617192 23:0.0745202 24:0.00572342 25:0.0319415 26:0.513403 27:0.00400734 28:0.0862379 29:0.09803 30:0.124417 31:0.914629 32:0.0671948 33:0.00985883 34:0.00382034 35:0.00280343 36:0.000382739 37:0.000335253 38:0.000155449 39:0.000819768 
0.3320346818113523 1:0.00329353 2:0.00560418 3:0.991102 4:-0.976446 5:0.0533072 6:0.32795 7:0.0113772 8:0.125966 9:0.0491978 10:0.087754 11:0.114972 12:0.00547792 13:0.0594619 14:0.492486 15:0 16:0 17:1 18:0 19:0 20:0 21:0 22:0.00527897 23:0.0156749 24:0.0490132 25:0.013747 26:0.00113895 27:0.875294 28:0.0295404 29:0.0026886 30:0.00762356 31:0.0270569 32:0.663251 33:0.092815 34:0.0832147 35:0.0180773 36:0.0354012 37:0.029018 38:0.020344 39:0.0308219 
0.267283720623414 1:0.102922 2:0.860999 3:0.0360788 4:-0.649949 5:0.0650236 6:0.31325 7:0.00738203 8:0.320273 9:0.0351402 10:0.0333051 11:0.0683278 12:0.0224123 13:0.351705 14:0.0964314 15:1 16:0 17:0 18:0 19:0 20:0 21:0 22:0.0217022 23:0.0819239 24:0.0465495 25:0.26289 26:0.159131 27:0.02252 28:0.282798 29:0.0382007 30:0.0842841 31:0.11 32:0.11 33:0.11 34:0.11 35:0.11 36:0.11 37:0.11 38:0.11 39:0.11 
0.1334315802055005 1:0.00201776 2:0.966928 3:0.0310543 4:-0.952015 5:0.0654173 6:0.105619 7:0.00525279 8:0.349635 9:0.0396828 10:0.147804 11:0.0237349 12:0.0335632 13:0.262288 14:0.0726218 15:0 16:0 17:0 18:0 19:0 20:0 21:0 22:0.0106945 23:0.0424607 24:0.0161355 25:0.833608 26:0.0496315 27:0.00387652 28:0.0213897 29:0.00696877 30:0.0152349 31:0.0219701 32:0.65519 33:0.10022 34:0.0519993 35:0.0172046 36:0.028169 37:0.0268924 38:0.0242084 39:0.0741456 
2.093005128895521 1:0.999156 2:2.50509e-06 3:0.000841473 4:0.943328 5:0.0259103 6:0.0827038 7:0.00379498 8:0.180538 9:0.214009 10:0.339038 11:0.106835 12:0.0883236 13:0.00126067 14:0.0402907 15:0 16:0 17:0 18:0 19:0 20:0 21:1 22:0.0442339 23:0.274906 24:0.138134 25:0.0617412 26:0.0118287 27:0.171552 28:0.209129 29:0.0190224 30:0.0694527 31:0.00280154 32:0.110569 33:0.831962 34:0.0022112 35:0.00181178 36:0.034018 37:0.00605985 38:0.000237636 39:0.0103286 
0.1171920962008969 1:0.896048 2:0.0225045 3:0.0814472 4:-0.961686 5:0.0276068 6:0.30078 7:0.00185128 8:0.094329 9:0.640619 10:0.182214 11:0.0300054 12:0.0079021 13:0.00407564 14:0.0113966 15:0 16:0 17:0 18:0 19:0 20:0 21:0 22:0.0216553 23:0.216154 24:0.339979 25:0.0199748 26:0.0148915 27:0.282086 28:0.0872101 29:0.00960421 30:0.00844498 31:0.00209741 32:0.030561 33:0.0835905 34:0.00178213 35:0.00572208 36:0.839337 37:0.00757783 38:0.00162171 39:0.0277106 
0.1475309959731695 1:0.00126145 2:0.00639174 3:0.992347 4:-0.946742 5:0.867151 6:0.949723 7:0.000307117 8:0.0529315 9:0.0363081 10:0.011899 11:0.00357204 12:0.0214974 13:0.000832023 14:0.00550176 15:1 16:0 17:0 18:1 19:0 20:0 21:1 22:0.683748 23:0.177605 24:0.0237495 25:0.0147122 26:0.00784562 27:0.0162099 28:0.0133362 29:0.0551553 30:0.00763838 31:0.031665 32:0.327877 33:0.287092 34:0.027512 35:0.0283537 36:0.195526 37:0.0161862 38:0.0232096 39:0.0625784 
0.2131273348698068 1:0.00420907 2:0.788305 3:0.207486 4:-0.976641 5:0.780091 6:0.876132 7:0.000985633 8:0.117586 9:0.0119296 10:0.0224202 11:0.0102704 12:0.0399112 13:0.00631306 14:0.0104926 15:1 16:0 17:0 18:1 19:0 20:0 21:1 22:0.562723 23:0.1108 24:0.0102996 25:0.146376 26:0.0747217 27:0.00821662 28:0.0136862 29:0.0596482 30:0.0135285 31:0.11 32:0.11 33:0.11 34:0.11 35:0.11 36:0.11 37:0.11 38:0.11 39:0.11 
0.009167022303271327 1:0.0932412 2:0.671263 3:0.235495 4:-0.968435 5:0.108359 6:0.133019 7:0.0021471 8:0.563727 9:0.0186005 10:0.0984694 11:0.071185 12:0.0375808 13:0.0947046 14:0.0052261 15:0 16:0 17:0 18:1 19:0 20:0 21:1 22:0.0393785 23:0.0693137 24:0.00692276 25:0.0774635 26:0.529876 27:0.00725948 28:0.0277844 29:0.0395439 30:0.202457 31:0.0445825 32:0.758621 33:0.112734 34:0.0234986 35:0.00864642 36:0.0132694 37:0.0145426 38:0.00659662 39:0.0175087 
0.1453019877473774 1:0.000486525 2:0.988447 3:0.0110661 4:-0.943749 5:0.646506 6:0.805102 7:0.000785374 8:0.167396 9:0.0531516 10:0.0237593 11:0.00887232 12:0.0721759 13:0.00635709 14:0.0209969 15:0 16:0 17:0 18:1 19:0 20:0 21:1 22:0.403129 23:0.333856 24:0.00898818 25:0.0162864 26:0.0528179 27:0.00799325 28:0.0425292 29:0.0266426 30:0.107757 31:0.0727963 32:0.657534 33:0.107831 34:0.0424909 35:0.0276023 36:0.0349039 37:0.016851 38:0.0234707 39:0.0165204 
0.1341633638610156 1:0.102159 2:0.764343 3:0.133498 4:0.57061 5:0.0153166 6:0.0711893 7:0.0127788 8:0.160945 9:0.180405 10:0.312266 11:0.113245 12:0.0160621 13:0.0401996 14:0.148782 15:0 16:0 17:0 18:0 19:0 20:0 21:0 22:0.00321207 23:0.0490063 24:0.792193 25:0.101604 26:0.01457 27:0.0184996 28:0.0130652 29:0.00384452 30:0.00400546 31:0.00337847 32:0.656926 33:0.102153 34:0.0202368 35:0.00794884 36:0.19482 37:0.00253834 38:0.00155862 39:0.0104404 
0.2325261353381149 1:0.229944 2:0.429114 3:0.340942 4:-0.876896 5:0.0893262 6:0.366419 7:0.0258454 8:0.199433 9:0.146808 10:0.151586 11:0.103506 12:0.0153159 13:0.0869029 14:0.181276 15:0 16:0 17:0 18:0 19:1 20:0 21:0 22:0.00329861 23:0.0968575 24:0.582815 25:0.204412 26:0.0162323 27:0.0212723 28:0.0258754 29:0.00315991 30:0.0460774 31:0.00239779 32:0.658353 33:0.139585 34:0.013449 35:0.00680803 36:0.129998 37:0.00751196 38:0.00120374 39:0.0406928 
0.09301204386606468 1:0.00152067 2:0.0063987 3:0.992081 4:-0.965352 5:0.0905961 6:0.187034 7:0.00099679 8:0.37346 9:0.0937727 10:0.123382 11:0.168033 12:0.131479 13:0.012981 14:0.00529883 15:1 16:0 17:0 18:0 19:0 20:0 21:1 22:0.0860941 23:0.198759 24:0.0117162 25:0.0702641 26:0.39311 27:0.0148341 28:0.0771945 29:0.0341102 30:0.113917 31:0.00265713 32:0.164707 33:0.753137 34:0.018333 35:0.00669781 36:0.0236041 37:0.00295395 38:0.00202331 39:0.0258868 
2.141506815067914 1:0.86854 2:0.0846495 3:0.0468107 4:-0.926579 5:0.0588766 6:0.330517 7:0.0223919 8:0.118422 9:0.0190609 10:0.041788 11:0.0834557 12:0.173995 13:0.258632 14:0.223377 15:0 16:0 17:0 18:0 19:0 20:0 21:1 22:0.0528869 23:0.226524 24:0.0226362 25:0.0261825 26:0.00482996 27:0.0561233 28:0.535676 29:0.0199384 30:0.0552029 31:0.0929737 32:0.661254 33:0.0929151 34:0.023864 35:0.0340455 36:0.0256395 37:0.0272266 38:0.0134272 39:0.028654 
0.2089472854172973 1:0.000716676 2:0.0142323 3:0.985051 4:-0.954875 5:0.822872 6:0.868014 7:0.000481882 8:0.120405 9:0.00997901 10:0.0171435 11:0.00666518 12:0.00238471 13:0.00600826 14:0.0140605 15:1 16:0 17:0 18:0 19:0 20:0 21:1 22:0.0639964 23:0.175067 24:0.0139349 25:0.0227529 26:0.267979 27:0.0145592 28:0.0689135 29:0.273064 30:0.0997334 31:0.0132707 32:0.929539 33:0.0220678 34:0.0125844 35:0.00857799 36:0.00327728 37:0.00454531 38:0.00191 39:0.00422708 
0.1365166980242084 1:0.0161888 2:0.0824041 3:0.901407 4:-0.944367 5:0.79679 6:0.92589 7:0.00136737 8:0.0687704 9:0.00371833 10:0.0442589 11:0.0349444 12:0.00435764 13:0.0144494 14:0.0313434 15:1 16:0 17:0 18:0 19:0 20:0 21:0 22:0.397842 23:0.0605588 24:0.00891949 25:0.0631525 26:0.241567 27:0.0116684 28:0.0099519 29:0.199089 30:0.00725115 31:0.0679241 32:0.167534 33:0.154016 34:0.111896 35:0.117819 36:0.0891533 37:0.137927 38:0.0752363 39:0.0784953 
0.4483890445893313 1:0.000559393 2:0.943128 3:0.0563127 4:-0.95353 5:0.261492 6:0.713219 7:0.00540515 8:0.183427 9:0.0249263 10:0.0605684 11:0.298185 12:0.0169302 13:0.114992 14:0.0340736 15:0 16:0 17:0 18:0 19:0 20:1 21:0 22:0.237893 23:0.197568 24:0.0135769 25:0.0481794 26:0.0795775 27:0.0544879 28:0.0793684 29:0.0464998 30:0.24285 31:0.913768 32:0.0628749 33:0.0129848 34:0.000951697 35:0.001407 36:0.000464163 37:0.000499993 38:0.00128059 39:0.0057686 
1.272471305726162 1:0.0237514 2:0.862666 3:0.113583 4:0.917181 5:0.00474576 6:0.0291635 7:0.257985 8:0.0457741 9:0.0192836 10:0.230275 11:0.101384 12:0.237976 13:0.00932495 14:0.0932517 15:0 16:0 17:0 18:0 19:0 20:0 21:0 22:0.0905282 23:0.32143 24:0.00850578 25:0.011409 26:0.0120091 27:0.0455807 28:0.259593 29:0.0286616 30:0.222283 31:0.11 32:0.11 33:0.11 34:0.11 35:0.11 36:0.11 37:0.11 38:0.11 39:0.11 
0.05986150492214422 1:0.0285666 2:0.80013 3:0.171303 4:-0.968286 5:0.0154876 6:0.282137 7:0.211727 8:0.0370752 9:0.0202809 10:0.131711 11:0.0353889 12:0.0777278 13:0.129215 14:0.341387 15:0 16:0 17:0 18:0 19:0 20:0 21:0 22:0.0405249 23:0.0914604 24:0.00734369 25:0.0202053 26:0.425726 27:0.00642184 28:0.189544 29:0.129042 30:0.0897319 31:0.030629 32:0.641735 33:0.0298223 34:0.0645538 35:0.0452109 36:0.0328308 37:0.100537 38:0.0195637 39:0.0351169 
0.3118522109336349 1:0.0106597 2:0.00601821 3:0.983322 4:0.873905 5:0.0957836 6:0.339085 7:0.00281917 8:0.214951 9:0.0208557 10:0.0274828 11:0.0220872 12:0.00528832 13:0.581052 14:0.0296801 15:0 16:0 17:0 18:0 19:0 20:0 21:0 22:0.0152536 23:0.0229873 24:0.0159762 25:0.0510353 26:0.0253054 27:0.0322778 28:0.0189074 29:0.06138 30:0.756877 31:0.11 32:0.11 33:0.11 34:0.11 35:0.11 36:0.11 37:0.11 38:0.11 39:0.11 
0.7939308585952125 1:0.00743806 2:0.00391138 3:0.988651 4:0.817454 5:0.126868 6:0.35304 7:0.00284329 8:0.246922 9:0.0226945 10:0.0439908 11:0.0250129 12:0.0129468 13:0.485538 14:0.0331844 15:0 16:0 17:0 18:0 19:0 20:0 21:0 22:0.147591 23:0.151277 24:0.273918 25:0.140118 26:0.0406985 27:0.13826 28:0.0721359 29:0.0231628 30:0.0128384 31:0.11 32:0.11 33:0.11 34:0.11 35:0.11 36:0.11 37:0.11 38:0.11 39:0.11 
3.737154105964184 1:0.995353 2:0.00261063 3:0.00203609 4:0.757052 5:0.0308384 6:0.213116 7:0.0369266 8:0.190294 9:0.156715 10:0.213399 11:0.0861184 12:0.134646 13:0.107286 14:0.0437774 15:0 16:0 17:0 18:0 19:0 20:0 21:0 22:0.178846 23:0.106951 24:0.196748 25:0.0337131 26:0.0129159 27:0.307676 28:0.0813524 29:0.0224749 30:0.059323 31:0.0137099 32:0.632403 33:0.110546 34:0.0499104 35:0.0141642 36:0.0991554 37:0.0349443 38:0.0207594 39:0.0244071 
0.06339074093220687 1:0.00482158 2:0.00960903 3:0.985569 4:-0.960823 5:0.0144339 6:0.181466 7:0.01152 8:0.105012 9:0.025012 10:0.0156986 11:0.0584131 12:0.0467643 13:0.718774 14:0.00437197 15:0 16:0 17:0 18:0 19:0 20:0 21:0 22:0.0218682 23:0.0719833 24:0.156765 25:0.57102 26:0.0162675 27:0.120866 28:0.0241598 29:0.0072331 30:0.00983694 31:0.0202363 32:0.0599448 33:0.0306449 34:0.705774 35:0.0235156 36:0.016757 37:0.0389921 38:0.0227477 39:0.0813872 
0.2062694911209626 1:0.00455434 2:0.00859415 3:0.986852 4:-0.969411 5:0.0101408 6:0.0532026 7:0.00684363 8:0.193401 9:0.0243547 10:0.0481442 11:0.128553 12:0.00468727 13:0.579872 14:0.00400394 15:0 16:0 17:1 18:0 19:0 20:0 21:0 22:0.0298286 23:0.103285 24:0.0692046 25:0.688891 26:0.0213698 27:0.0583359 28:0.0102006 29:0.00531142 30:0.0135722 31:0.0191246 32:0.66763 33:0.110075 34:0.0844981 35:0.020807 36:0.015156 37:0.0294656 38:0.015406 39:0.0378379 
0.3573257678162796 1:0.0102596 2:0.969283 3:0.0204574 4:-0.964463 5:0.294086 6:0.541507 7:0.0018571 8:0.276207 9:0.0879313 10:0.0686961 11:0.0400454 12:0.211241 13:0.00491778 14:0.0150185 15:0 16:0 17:0 18:1 19:0 20:0 21:0 22:0.106914 23:0.111869 24:0.0505299 25:0.0337938 26:0.0325516 27:0.0306855 28:0.213798 29:0.308796 30:0.111063 31:0.844098 32:0.0678665 33:0.0215518 34:0.0125277 35:0.00659482 36:0.0065596 37:0.01414 38:0.00282872 39:0.0238329 
3.393134076100323 1:0.608966 2:0.00661099 3:0.384423 4:0.861725 5:0.0205824 6:0.250522 7:0.00693906 8:0.0509226 9:0.0363291 10:0.0895259 11:0.0344607 12:0.0255211 13:0.680175 14:0.0555443 15:0 16:0 17:0 18:0 19:0 20:0 21:0 22:0.0841117 23:0.0948395 24:0.0433287 25:0.422171 26:0.0801877 27:0.0839804 28:0.0610976 29:0.0433736 30:0.0869095 31:0.11 32:0.11 33:0.11 34:0.11 35:0.11 36:0.11 37:0.11 38:0.11 39:0.11 
0.3578013813367991 1:0.492467 2:0.0295987 3:0.477934 4:-0.977036 5:0.00223453 6:0.0313702 7:0.604273 8:0.0132946 9:0.00524642 10:0.0519356 11:0.0766683 12:0.0499024 13:0.0817099 14:0.114736 15:0 16:0 17:0 18:0 19:0 20:0 21:1 22:0.75737 23:0.113019 24:0.00252449 25:0.0056095 26:0.0440884 27:0.00536946 28:0.0310316 29:0.00641561 30:0.0345721 31:0.188593 32:0.491898 33:0.185452 34:0.0203004 35:0.00816774 36:0.0110552 37:0.012625 38:0.0155229 39:0.0663868 
1.024392788764771 1:0.961423 2:0.0152007 3:0.0233761 4:0.9505 5:0.0213376 6:0.447852 7:0.00370412 8:0.0144525 9:0.00264362 10:0.0135091 11:0.0111763 12:0.00470753 13:0.0414042 14:0.887065 15:0 16:0 17:0 18:0 19:0 20:0 21:0 22:0.0158401 23:0.34154 24:0.0869741 25:0.27221 26:0.0311019 27:0.0344867 28:0.0550918 29:0.0184985 30:0.144257 31:0.00896092 32:0.759814 33:0.0746705 34:0.0305056 35:0.0112622 36:0.0191683 37:0.0190559 38:0.0082232 39:0.0683393 
0.1922783715660865 1:0.00315628 2:0.00493935 3:0.991904 4:-0.955461 5:0.00168166 6:0.0348798 7:0.521996 8:0.0218817 9:0.00299603 10:0.203775 11:0.0199741 12:0.0309197 13:0.0250342 14:0.171741 15:0 16:0 17:1 18:0 19:0 20:0 21:1 22:0.0221844 23:0.10257 24:0.0922246 25:0.38353 26:0.150533 27:0.0133616 28:0.0284112 29:0.0780972 30:0.129088 31:0.11 32:0.11 33:0.11 34:0.11 35:0.11 36:0.11 37:0.11 38:0.11 39:0.11 
0.2897375405986567 1:0.0660511 2:0.00879577 3:0.925153 4:-0.803343 5:0.0736972 6:0.548532 7:0.000581193 8:0.125554 9:0.0148928 10:0.0222078 11:0.73874 12:0.0193999 13:0.00291702 14:0.00201003 15:0 16:0 17:0 18:0 19:0 20:0 21:1 22:0.0852976 23:0.546832 24:0.0271254 25:0.00952171 26:0.00768372 27:0.0134189 28:0.295859 29:0.00758653 30:0.00667429 31:0.00459721 32:0.0888174 33:0.6989 34:0.00230335 35:0.00276348 36:0.00711933 37:0.182899 38:0.00177947 39:0.0108213 
0.345170324221464 1:0.0346323 2:0.954537 3:0.0108311 4:-0.94262 5:0.0643769 6:0.0834194 7:0.00274955 8:0.428433 9:0.0539978 10:0.0526313 11:0.163948 12:0.20982 13:0.0214003 14:0.00264311 15:0 16:0 17:1 18:0 19:0 20:0 21:1 22:0.0531013 23:0.25975 24:0.0947582 25:0.181215 26:0.0483086 27:0.0517614 28:0.0944475 29:0.139898 30:0.0767604 31:0.0128396 32:0.0600116 33:0.760397 34:0.0240316 35:0.0371686 36:0.031439 37:0.00519688 38:0.0051259 39:0.0637896 
0.14624778863844 1:0.00370974 2:0.0104546 3:0.985836 4:-0.965789 5:0.0186037 6:0.0274444 7:0.00482335 8:0.37592 9:0.126648 10:0.318369 11:0.113331 12:0.0192084 13:0.0166016 14:0.00649448 15:0 16:0 17:1 18:0 19:0 20:0 21:0 22:0.041287 23:0.359171 24:0.16032 25:0.0310728 26:0.0131545 27:0.342006 28:0.0255756 29:0.0184975 30:0.00891589 31:0.00202543 32:0.0323619 33:0.114294 34:0.00240473 35:0.00257245 36:0.815002 37:0.00957904 38:0.00357128 39:0.0181897 
0.07418727546479674 1:0.00302412 2:0.00463638 3:0.99234 4:-0.955672 5:0.171739 6:0.482695 7:0.00243578 8:0.0962741 9:0.229027 10:0.0181076 11:0.0134117 12:0.00869935 13:0.449898 14:0.0104078 15:1 16:0 17:0 18:1 19:0 20:0 21:1 22:0.0921076 23:0.193987 24:0.0109609 25:0.00798474 26:0.0048676 27:0.0137892 28:0.608069 29:0.0337376 30:0.0344963 31:0.11 32:0.11 33:0.11 34:0.11 35:0.11 36:0.11 37:0.11 38:0.11 39:0.11 
0.1378468621450941 1:0.00220437 2:0.00848878 3:0.989307 4:-0.965741 5:0.253864 6:0.280677 7:0.00224997 8:0.532982 9:0.073519 10:0.0412773 11:0.0347944 12:0.0110874 13:0.0434518 14:0.00677448 15:0 16:0 17:0 18:1 19:0 20:0 21:1 22:0.0155112 23:0.108144 24:0.016783 25:0.015419 26:0.0895237 27:0.0463726 28:0.574997 29:0.116889 30:0.0163608 31:0.728575 32:0.0761754 33:0.0180788 34:0.0289377 35:0.0105594 36:0.0331644 37:0.0350487 38:0.044941 39:0.0245198 
0.5415793834989452 1:0.013692 2:0.00781633 3:0.978492 4:0.57843 5:0.02608 6:0.0562784 7:0.00341617 8:0.328216 9:0.101218 10:0.0979992 11:0.206425 12:0.169499 13:0.0630219 14:0.00412474 15:0 16:0 17:0 18:1 19:0 20:0 21:0 22:0.0377468 23:0.282366 24:0.03613 25:0.305944 26:0.0415133 27:0.017014 28:0.186569 29:0.0363092 30:0.056407 31:0.0165411 32:0.0541336 33:0.0168712 34:0.740978 35:0.0359566 36:0.032524 37:0.0294985 38:0.0402511 39:0.0332461 
0.2340489851172451 1:0.0100202 2:0.0104368 3:0.979543 4:-0.966341 5:0.0345417 6:0.259984 7:0.0593805 8:0.0536488 9:0.23244 10:0.0354294 11:0.0421635 12:0.520233 13:0.0117156 14:0.0104475 15:0 16:0 17:0 18:0 19:0 20:0 21:1 22:0.0250646 23:0.188976 24:0.00273407 25:0.00305656 26:0.00284969 27:0.00643711 28:0.549476 29:0.180837 30:0.0405693 31:0.0117581 32:0.0491613 33:0.0130307 34:0.0229926 35:0.855313 36:0.020595 37:0.00935387 38:0.00492284 39:0.0128728 
0.03627472149026121 1:0.00176376 2:0.00518783 3:0.993048 4:-0.975521 5:0.0481237 6:0.697209 7:0.000923545 8:0.0194357 9:0.658769 10:0.0398397 11:0.00922698 12:0.215995 13:0.00435324 14:0.00333356 15:0 16:0 17:0 18:0 19:0 20:0 21:1 22:0.065523 23:0.833787 24:0.046022 25:0.0052095 26:0.0124251 27:0.0178441 28:0.00761235 29:0.00715656 30:0.00442037 31:0.04972 32:0.676767 33:0.035337 34:0.0165764 35:0.14153 36:0.015581 37:0.0422291 38:0.00958083 39:0.0126789 
0.1424331667162614 1:0.00089457 2:0.0105544 3:0.988551 4:-0.963589 5:0.0522049 6:0.112368 7:0.0148425 8:0.37123 9:0.0254186 10:0.0977833 11:0.38725 12:0.0181904 13:0.0250913 14:0.00798935 15:0 16:0 17:1 18:0 19:0 20:0 21:1 22:0.0251156 23:0.057309 24:0.0072515 25:0.0128316 26:0.527026 27:0.00556997 28:0.0714905 29:0.180728 30:0.112677 31:0.0923888 32:0.298878 33:0.0790533 34:0.109481 35:0.166486 36:0.0540463 37:0.099024 38:0.032005 39:0.0686376 
0.08517454669259623 1:0.0045097 2:0.00903582 3:0.986454 4:-0.966872 5:0.0148423 6:0.0250134 7:0.00640621 8:0.32396 9:0.0586316 10:0.274802 11:0.22734 12:0.0736625 13:0.0160955 14:0.00426011 15:0 16:0 17:0 18:0 19:0 20:0 21:1 22:3.70367e-05 23:0.00512536 24:0.0658887 25:0.000148516 26:7.27776e-05 27:0.926011 28:0.000944662 29:0.000446486 30:0.00132557 31:0.00321827 32:0.41115 33:0.281646 34:0.0241279 35:0.00664684 36:0.209744 37:0.00979859 38:0.00370964 39:0.0499596 
0.25311122219857 1:0.000781616 2:0.0115616 3:0.987657 4:-0.96922 5:0.0101143 6:0.529589 7:0.0025369 8:0.0105176 9:0.00103391 10:0.00372313 11:0.00170389 12:0.000721282 13:0.90958 14:0.0600692 15:0 16:0 17:0 18:0 19:0 20:0 21:1 22:0.0394426 23:0.642007 24:0.054302 25:0.164876 26:0.0131144 27:0.0466104 28:0.0232849 29:0.00185053 30:0.0145118 31:0.00495493 32:0.0279085 33:0.0198503 34:0.042208 35:0.660574 36:0.0198621 37:0.0503065 38:0.131633 39:0.0427023 
0.1196477199591979 1:0.000727936 2:0.0160118 3:0.98326 4:-0.952703 5:0.961899 6:0.973781 7:2.61315e-05 8:0.020138 9:0.00906262 10:0.00276975 11:0.00382456 12:0.000369202 13:0.00096786 14:0.000942443 15:0 16:0 17:0 18:1 19:0 20:0 21:0 22:0.0536735 23:0.109275 24:0.00898943 25:0.0633076 26:0.242497 27:0.00782649 28:0.0381899 29:0.214774 30:0.261467 31:0.0589082 32:0.328999 33:0.137788 34:0.129235 35:0.0279279 36:0.116999 37:0.0813957 38:0.0459933 39:0.0727541 
0.09764518704234768 1:0.00151099 2:0.00545665 3:0.993032 4:-0.951635 5:0.0102976 6:0.0398244 7:0.0841339 8:0.0991509 9:0.0176283 10:0.235608 11:0.175204 12:0.331477 13:0.00427809 14:0.0422219 15:0 16:0 17:0 18:1 19:0 20:0 21:0 22:0.154702 23:0.0713546 24:0.00500648 25:0.011935 26:0.0341284 27:0.0160054 28:0.071791 29:0.580635 30:0.0544414 31:0.0147893 32:0.692639 33:0.16322 34:0.0397038 35:0.0150098 36:0.0233104 37:0.0168176 38:0.00876925 39:0.0257418 
0.05104173759943766 1:0.00370027 2:0.944512 3:0.0517876 4:-0.954047 5:0.0156891 6:0.0680259 7:0.296433 8:0.169052 9:0.0635275 10:0.157962 11:0.0789865 12:0.116959 13:0.0191653 14:0.0822259 15:0 16:0 17:0 18:0 19:0 20:0 21:0 22:0.0816185 23:0.0619943 24:0.0058396 25:0.0187418 26:0.0267988 27:0.0113983 28:0.13337 29:0.564042 30:0.0961964 31:0.012532 32:0.715939 33:0.1563 34:0.0293743 35:0.0134694 36:0.0171836 37:0.0184497 38:0.00941463 39:0.0273381 
0.0904065520523398 1:0.0950483 2:0.459103 3:0.445849 4:-0.958182 5:0.0528193 6:0.537984 7:0.000971429 8:0.0423271 9:0.682221 10:0.0666692 11:0.0419614 12:0.100643 13:0.00754809 14:0.00483932 15:0 16:0 17:0 18:0 19:0 20:0 21:0 22:0.0557442 23:0.501814 24:0.0181763 25:0.0188544 26:0.0743686 27:0.0232968 28:0.198155 29:0.0297784 30:0.0798115 31:0.00317628 32:0.15286 33:0.00273525 34:0.00322824 35:0.818122 36:0.00215512 37:0.00645105 38:0.00103148 39:0.0102402 
0.2212360030713395 1:0.141668 2:0.0378135 3:0.820518 4:0.54835 5:0.0124288 6:0.0830262 7:0.00318507 8:0.218599 9:0.27583 10:0.308055 11:0.15302 12:0.0132591 13:0.0118738 14:0.00374798 15:0 16:0 17:0 18:0 19:0 20:0 21:0 22:0.0991843 23:0.553127 24:0.192411 25:0.0417392 26:0.014036 27:0.0239098 28:0.0509893 29:0.0142914 30:0.0103125 31:0.00100903 32:0.0299126 33:0.0822803 34:0.0018324 35:0.00486968 36:0.844452 37:0.00369334 38:0.0014372 39:0.0305132 
0.2751951917818098 1:0.376385 2:0.418038 3:0.205577 4:-0.967822 5:0.121798 6:0.451034 7:0.00595332 8:0.152194 9:0.0130664 10:0.0124376 11:0.0320616 12:0.614456 13:0.0281902 14:0.0198431 15:0 16:0 17:0 18:0 19:0 20:0 21:1 22:0.975717 23:0.0175633 24:0.000924504 25:0.000405611 26:0.00162189 27:3.97061e-05 28:0.000976231 29:0.00195453 30:0.000797681 31:0.11 32:0.11 33:0.11 34:0.11 35:0.11 36:0.11 37:0.11 38:0.11 39:0.11 
0.1597053808869936 1:0.00513626 2:0.00789921 3:0.986965 4:-0.958791 5:0.946879 6:0.956234 7:6.82352e-06 8:0.0429579 9:0.00306306 10:0.00382347 11:0.000465884 12:0.00100797 13:0.000724668 14:0.00107121 15:0 16:0 17:0 18:1 19:0 20:0 21:1 22:0.0875797 23:0.0903611 24:0.0143393 25:0.131776 26:0.405401 27:0.0082458 28:0.021429 29:0.14023 30:0.100639 31:0.0961954 32:0.812471 33:0.0255763 34:0.0151023 35:0.00934038 36:0.00811356 37:0.0188748 38:0.00255985 39:0.0117667 
0.6950521478452126 1:0.939096 2:0.0185233 3:0.0423811 4:-0.977542 5:0.0320963 6:0.0824841 7:0.0537981 8:0.21029 9:0.0344107 10:0.169938 11:0.110226 12:0.0501033 13:0.00816605 14:0.330972 15:0 16:0 17:0 18:0 19:0 20:0 21:0 22:0.082789 23:0.571675 24:0.106604 25:0.0135542 26:0.0126636 27:0.0919511 28:0.0931068 29:0.00794744 30:0.019709 31:0.04972 32:0.676767 33:0.035337 34:0.0165764 35:0.14153 36:0.015581 37:0.0422291 38:0.00958083 39:0.0126789 
0.07767661083801433 1:0.00203329 2:0.00554366 3:0.992423 4:-0.957576 5:0.855173 6:0.876382 7:6.54878e-05 8:0.117862 9:0.00272011 10:0.0115513 11:0.00101994 12:0.00393616 13:0.00277704 14:0.00489439 15:0 16:0 17:0 18:1 19:0 20:0 21:0 22:0.187108 23:0.0852638 24:0.00349158 25:0.101201 26:0.295695 27:0.0251547 28:0.0482202 29:0.199073 30:0.0547934 31:0.0882205 32:0.822017 33:0.0244508 34:0.0188996 35:0.0116723 36:0.0103961 37:0.0122409 38:0.00272863 39:0.00937369 
0.3225129076236182 1:0.00264691 2:0.985788 3:0.0115648 4:-0.96054 5:0.110232 6:0.365909 7:0.00188457 8:0.191529 9:0.0319792 10:0.0383581 11:0.0181811 12:0.00539798 13:0.575641 14:0.0267969 15:1 16:0 17:0 18:1 19:0 20:0 21:1 22:0.333146 23:0.0932371 24:0.00861394 25:0.378368 26:0.109992 27:0.0147722 28:0.0259979 29:0.0309191 30:0.00495476 31:0.11 32:0.11 33:0.11 34:0.11 35:0.11 36:0.11 37:0.11 38:0.11 39:0.11 
0.055578466833981 1:0.0334446 2:0.0251417 3:0.941414 4:-0.964419 5:0.0325017 6:0.0889636 7:0.0154422 8:0.343252 9:0.0880473 10:0.10609 11:0.0731358 12:0.0950619 13:0.0761188 14:0.170351 15:0 16:0 17:0 18:1 19:0 20:0 21:1 22:0.0467465 23:0.0974763 24:0.00863497 25:0.253813 26:0.455923 27:0.00401483 28:0.0405969 29:0.0386842 30:0.0541109 31:0.00493137 32:0.920632 33:0.0274792 34:0.0153089 35:0.0105561 36:0.00430758 37:0.00647871 38:0.00458242 39:0.00572381 
0.5352199716578763 1:0.781513 2:0.00590942 3:0.212578 4:-0.952181 5:0.34174 6:0.66554 7:0.0295818 8:0.168177 9:0.0190908 10:0.0562563 11:0.0995071 12:0.0269856 13:0.173403 14:0.0852589 15:0 16:0 17:0 18:0 19:0 20:1 21:1 22:0.0588607 23:0.0628983 24:0.0154496 25:0.0346911 26:0.633496 27:0.0214825 28:0.0649112 29:0.0630635 30:0.0451473 31:0.908381 32:0.0766397 33:0.0079822 34:0.00112721 35:0.00131424 36:0.000454923 37:0.000389663 38:0.000607676 39:0.00310366 
0.1495143622784963 1:0.00400732 2:0.00625396 3:0.989739 4:-0.955661 5:0.041933 6:0.346747 7:0.0576371 8:0.123085 9:0.0231269 10:0.0299312 11:0.0308115 12:0.00632733 13:0.0739275 14:0.61322 15:1 16:0 17:0 18:0 19:0 20:0 21:1 22:0.0741823 23:0.435322 24:0.0347855 25:0.0168904 26:0.146374 27:0.0382175 28:0.138544 29:0.0321122 30:0.0835722 31:0.0508527 32:0.736017 33:0.0196998 34:0.0121774 35:0.102912 36:0.0132715 37:0.0448484 38:0.00809327 39:0.0121275 
0.4451298430748011 1:0.00571708 2:0.916806 3:0.0774766 4:-0.963902 5:0.00173804 6:0.224117 7:0.745162 8:0.0137553 9:0.00914678 10:0.0304755 11:0.0319683 12:0.0643231 13:0.0589377 14:0.0444935 15:0 16:0 17:0 18:0 19:0 20:0 21:1 22:0.0118744 23:0.0316085 24:0.00623371 25:0.0361918 26:0.0884847 27:0.0074741 28:0.0353621 29:0.704778 30:0.077993 31:0.11 32:0.11 33:0.11 34:0.11 35:0.11 36:0.11 37:0.11 38:0.11 39:0.11 
1.771975916399989 1:0.908019 2:0.00403505 3:0.0879455 4:-0.951243 5:0.0654641 6:0.378985 7:0.0105165 8:0.0971029 9:0.174111 10:0.0783635 11:0.129359 12:0.0410566 13:0.258019 14:0.146007 15:0 16:0 17:0 18:0 19:0 20:0 21:0 22:0.185542 23:0.285793 24:0.0440584 25:0.170542 26:0.0542921 27:0.0658197 28:0.0378467 29:0.0139905 30:0.142116 31:0.11 32:0.11 33:0.11 34:0.11 35:0.11 36:0.11 37:0.11 38:0.11 39:0.11 
0.5309288547724057 1:0.841776 2:0.0660031 3:0.0922206 4:-0.966143 5:0.637033 6:0.74538 7:0.00112955 8:0.205838 9:0.0097068 10:0.0265004 11:0.0186252 12:0.00155635 13:0.0896716 14:0.00993978 15:0 16:0 17:0 18:0 19:0 20:0 21:1 22:0.0829646 23:0.117679 24:0.0114031 25:0.0196148 26:0.311732 27:0.0119587 28:0.165765 29:0.223854 30:0.055029 31:0.11 32:0.11 33:0.11 34:0.11 35:0.11 36:0.11 37:0.11 38:0.11 39:0.11 
0.002308148350900349 1:0.000848608 2:0.0172248 3:0.981927 4:-0.953863 5:0.0583656 6:0.225806 7:0.0183488 8:0.394819 9:0.188512 10:0.058745 11:0.0916445 12:0.150418 13:0.0251305 14:0.0140156 15:1 16:0 17:0 18:1 19:0 20:0 21:1 22:0.149026 23:0.813614 24:0.0100556 25:0.00118869 26:0.00859213 27:0.00165976 28:0.00463172 29:0.005517 30:0.00571527 31:0.0437744 32:0.502449 33:0.102367 34:0.0673405 35:0.024241 36:0.104541 37:0.0617694 38:0.036188 39:0.0573306 
0.1125613606125977 1:0.00703184 2:0.0122104 3:0.980758 4:-0.943178 5:0.107562 6:0.412403 7:0.0024974 8:0.166285 9:0.164055 10:0.0336343 11:0.163817 12:0.352706 13:0.00503603 14:0.00440767 15:1 16:0 17:0 18:1 19:0 20:0 21:1 22:0.146838 23:0.805013 24:0.0114817 25:0.00239901 26:0.00875432 27:0.00147019 28:0.00678584 29:0.0119603 30:0.00529727 31:0.0411422 32:0.518024 33:0.105776 34:0.0666114 35:0.0269948 36:0.0971333 37:0.0454196 38:0.0467995 39:0.0520995 
0.2899473123933842 1:0.00740392 2:0.706946 3:0.28565 4:-0.975125 5:0.0265755 6:0.148741 7:0.139986 8:0.133921 9:0.152743 10:0.13599 11:0.118871 12:0.181532 13:0.0310702 14:0.0793123 15:0 16:0 17:0 18:1 19:0 20:0 21:0 22:0.0276674 23:0.164988 24:0.0199955 25:0.103412 26:0.416949 27:0.00920147 28:0.0636905 29:0.0788196 30:0.115277 31:0.00101839 32:0.0286767 33:0.0649033 34:0.00983364 35:0.00475868 36:0.0997501 37:0.0106671 38:0.0109558 39:0.769436 
2.210973591992488 1:0.934225 2:0.0134929 3:0.0522817 4:0.693785 5:0.00501562 6:0.0457428 7:0.00792224 8:0.107034 9:0.0359314 10:0.456366 11:0.292413 12:0.0736646 13:0.00699722 14:0.0146562 15:0 16:0 17:0 18:0 19:0 20:0 21:0 22:0.0384879 23:0.0903724 24:0.721248 25:0.0175927 26:0.0094478 27:0.0479615 28:0.0539192 29:0.0170063 30:0.00396394 31:0.0176105 32:0.606633 33:0.156329 34:0.0193129 35:0.00860253 36:0.140632 37:0.0192152 38:0.0149893 39:0.0166764 
0.5591055322512039 1:0.970688 2:0.0106887 3:0.0186233 4:-0.883211 5:0.0140686 6:0.0498791 7:0.0131168 8:0.0867547 9:0.0307083 10:0.568331 11:0.0808769 12:0.0365527 13:0.0491339 14:0.120457 15:0 16:0 17:0 18:0 19:0 20:0 21:0 22:0.0252648 23:0.0645488 24:0.0712612 25:0.0225488 26:0.0063919 27:0.775668 28:0.0239863 29:0.00513559 30:0.00519488 31:0.101575 32:0.138694 33:0.166371 34:0.0206787 35:0.0239438 36:0.449068 37:0.0561423 38:0.0164963 39:0.0270299 
0.2380035759072306 1:0.0106991 2:0.00630556 3:0.982995 4:-0.955351 5:0.0161127 6:0.0548568 7:0.0695602 8:0.266006 9:0.0459329 10:0.331826 11:0.0445028 12:0.158959 13:0.02972 14:0.0373806 15:0 16:0 17:1 18:1 19:0 20:0 21:0 22:0.0533908 23:0.161004 24:0.128616 25:0.0408479 26:0.0122476 27:0.090925 28:0.375283 29:0.0436696 30:0.0940156 31:0.11 32:0.11 33:0.11 34:0.11 35:0.11 36:0.11 37:0.11 38:0.11 39:0.11 
0.176052158753379 1:0.00550589 2:0.0086974 3:0.985797 4:-0.956453 5:0.0766236 6:0.429245 7:0.00648009 8:0.188383 9:0.0575456 10:0.091423 11:0.525102 12:0.0135911 13:0.011483 14:0.0293686 15:1 16:0 17:0 18:0 19:0 20:0 21:0 22:0.0535902 23:0.0594223 24:0.0338074 25:0.0193338 26:0.224154 27:0.0351502 28:0.510306 29:0.0314026 30:0.0328339 31:0.11 32:0.11 33:0.11 34:0.11 35:0.11 36:0.11 37:0.11 38:0.11 39:0.11 
0.09645605581605468 1:0.378014 2:0.00755017 3:0.614436 4:-0.944583 5:0.0364068 6:0.0924217 7:0.00293443 8:0.193533 9:0.256365 10:0.323917 11:0.149833 12:0.00821575 13:0.00576886 14:0.0230267 15:0 16:0 17:0 18:0 19:0 20:0 21:0 22:0.100728 23:0.229472 24:0.483374 25:0.00867033 26:0.00851239 27:0.107581 28:0.0311509 29:0.0186023 30:0.0119089 31:0.00319006 32:0.00720657 33:0.00631 34:0.0296667 35:0.307508 36:0.0273118 37:0.0440838 38:0.556537 39:0.0181857 
0.4225512616115758 1:0.00316282 2:0.207544 3:0.789293 4:-0.956146 5:0.300165 6:0.380139 7:0.000371094 8:0.506459 9:0.101118 10:0.0300857 11:0.0294 12:0.0108679 13:0.0107125 14:0.0108212 15:1 16:0 17:0 18:1 19:1 20:0 21:1 22:0.22185 23:0.193094 24:0.0233612 25:0.0293397 26:0.212257 27:0.024933 28:0.139301 29:0.0215509 30:0.134312 31:0.0138714 32:0.691269 33:0.0572613 34:0.0469542 35:0.0397831 36:0.0178614 37:0.0156224 38:0.0166637 39:0.100713 
0.8139810147505895 1:0.241632 2:0.112988 3:0.64538 4:0.944862 5:0.0257431 6:0.228021 7:0.005128 8:0.0469444 9:0.0042088 10:0.221097 11:0.0138544 12:0.00303882 13:0.110908 14:0.569078 15:0 16:0 17:0 18:0 19:0 20:0 21:0 22:0.0943315 23:0.221507 24:0.189822 25:0.106116 26:0.0433671 27:0.12802 28:0.0551927 29:0.00793362 30:0.153711 31:0.11 32:0.11 33:0.11 34:0.11 35:0.11 36:0.11 37:0.11 38:0.11 39:0.11 
0.2286285899891854 1:0.00566701 2:0.790005 3:0.204328 4:-0.95321 5:0.717307 6:0.89753 7:0.000372274 8:0.0583019 9:0.184393 10:0.00928402 11:0.00885738 12:0.0172287 13:0.00159413 14:0.00266128 15:1 16:0 17:0 18:0 19:0 20:0 21:1 22:0.067767 23:0.609758 24:0.175646 25:0.0228859 26:0.0092799 27:0.0273176 28:0.0373793 29:0.0362417 30:0.0137252 31:0.0441905 32:0.475624 33:0.133022 34:0.0800126 35:0.0203178 36:0.0855804 37:0.0560165 38:0.0321827 39:0.0730533 
0.06517261511281584 1:0.00076779 2:0.0166945 3:0.982538 4:-0.954839 5:0.00266073 6:0.0221043 7:0.65766 8:0.0986747 9:0.00421814 10:0.0432699 11:0.0698048 12:0.0819759 13:0.0254837 14:0.0162518 15:0 16:0 17:0 18:0 19:0 20:0 21:1 22:0.046571 23:0.655889 24:0.211276 25:0.0119283 26:0.0159852 27:0.00973973 28:0.0390047 29:0.00413118 30:0.00547556 31:0.0146271 32:0.0589933 33:0.0415777 34:0.173154 35:0.0483151 36:0.0197863 37:0.0208243 38:0.0303913 39:0.592331 
5 1:0.998192 2:6.6372e-06 3:0.00180098 4:0.967818 5:0.0438363 6:0.0570769 7:0.0168534 8:0.465798 9:0.0318213 10:0.138908 11:0.191001 12:0.00904959 13:0.0747648 14:0.0279674 15:0 16:0 17:0 18:0 19:0 20:0 21:0 22:0.0432074 23:0.0700592 24:0.0778942 25:0.0120316 26:0.0109235 27:0.0326245 28:0.720152 29:0.0201764 30:0.0129317 31:0.014 32:0.158271 33:0.024573 34:0.0067342 35:0.00495089 36:0.0224203 37:0.735947 38:0.0191581 39:0.0139456 
0.1028943990916017 1:0.00311235 2:0.010847 3:0.986041 4:-0.971608 5:0.214672 6:0.648329 7:0.0021465 8:0.172353 9:0.224084 10:0.0554047 11:0.0546916 12:0.233293 13:0.0158811 14:0.0274741 15:1 16:0 17:0 18:0 19:0 20:0 21:1 22:0.223727 23:0.16679 24:0.0520182 25:0.0377183 26:0.0146275 27:0.122453 28:0.189433 29:0.0333583 30:0.159875 31:0.0365658 32:0.0525632 33:0.0273715 34:0.0240603 35:0.775224 36:0.0287587 37:0.0262904 38:0.00987649 39:0.0192897 
0.005010276147482211 1:0.00314594 2:0.943369 3:0.053485 4:-0.955786 5:0.11078 6:0.231756 7:0.00183981 8:0.410367 9:0.0810513 10:0.108378 11:0.0296317 12:0.0139755 13:0.0356069 14:0.208369 15:0 16:0 17:0 18:0 19:0 20:0 21:0 22:0.0723915 23:0.136588 24:0.0551585 25:0.0121699 26:0.013623 27:0.18867 28:0.278537 29:0.048778 30:0.194084 31:0.0349245 32:0.0656657 33:0.0349399 34:0.032511 35:0.735629 36:0.0384853 37:0.0304414 38:0.0101069 39:0.0172962 
0.03942641178157037 1:0.00497553 2:0.016468 3:0.978556 4:-0.967705 5:0.010429 6:0.10505 7:0.0130746 8:0.0517743 9:0.0214932 10:0.101383 11:0.0106188 12:0.037142 13:0.709924 14:0.0441611 15:0 16:0 17:0 18:1 19:0 20:0 21:1 22:0.11543 23:0.0914327 24:0.00595064 25:0.1315 26:0.368178 27:0.0142799 28:0.0530141 29:0.0771523 30:0.143062 31:0.030629 32:0.641735 33:0.0298223 34:0.0645538 35:0.0452109 36:0.0328308 37:0.100537 38:0.0195637 39:0.0351169 
0.1372391925433739 1:0.065504 2:0.0195969 3:0.914899 4:-0.9416 5:0.0150493 6:0.141761 7:0.0123184 8:0.120088 9:0.239288 10:0.253823 11:0.139568 12:0.0140915 13:0.00649588 14:0.199278 15:0 16:0 17:1 18:0 19:0 20:0 21:1 22:0.0130812 23:0.24606 24:0.625777 25:0.00974996 26:0.00398879 27:0.053694 28:0.0371947 29:0.00884806 30:0.00160616 31:0.00395141 32:0.771734 33:0.156444 34:0.0128909 35:0.0146888 36:0.00453963 37:0.016225 38:0.00382765 39:0.0156993 
0.1557074686343226 1:0.00051249 2:0.993089 3:0.00639882 4:-0.97389 5:0.732642 6:0.773064 7:0.000445192 8:0.217587 9:0.00340242 10:0.0134785 11:0.00428821 12:0.0154121 13:0.00650674 14:0.00623723 15:0 16:0 17:0 18:0 19:0 20:0 21:1 22:0.127362 23:0.133971 24:0.00886306 25:0.0339489 26:0.319645 27:0.033031 28:0.0762197 29:0.0489083 30:0.218052 31:0.0884544 32:0.781457 33:0.0504463 34:0.0204385 35:0.0100992 36:0.0109684 37:0.0117758 38:0.0166575 39:0.00970309 
0.2222945482233229 1:0.00232145 2:0.909796 3:0.0878827 4:-0.975954 5:0.0432507 6:0.0651533 7:0.000874927 8:0.86682 9:0.0299904 10:0.0249544 11:0.0117804 12:0.0049695 13:0.0156204 14:0.00173935 15:0 16:0 17:0 18:0 19:0 20:0 21:1 22:0.0457588 23:0.791475 24:0.0447934 25:0.0250876 26:0.0139528 27:0.0437297 28:0.019505 29:0.0101187 30:0.00557953 31:0.0107907 32:0.121565 33:0.811357 34:0.00878983 35:0.00385609 36:0.0137385 37:0.00607802 38:0.00702678 39:0.0167987 
0.0819332162992332 1:0.00225123 2:0.883017 3:0.114731 4:-0.971356 5:0.0581595 6:0.0845432 7:0.00256901 8:0.745002 9:0.0822025 10:0.0576707 11:0.00989816 12:0.00452216 13:0.0349121 14:0.00506369 15:0 16:0 17:0 18:1 19:0 20:0 21:1 22:0.107886 23:0.553815 24:0.118304 25:0.0833383 26:0.0226419 27:0.0588742 28:0.0334849 29:0.0127878 30:0.00886883 31:0.0107907 32:0.121565 33:0.811357 34:0.00878983 35:0.00385609 36:0.0137385 37:0.00607802 38:0.00702678 39:0.0167987 
0.07161956310139012 1:0.000566331 2:0.0123218 3:0.987112 4:-0.957453 5:0.08431 6:0.219404 7:0.00590721 8:0.478175 9:0.187834 10:0.119271 11:0.0475508 12:0.0235674 13:0.0419151 14:0.0114695 15:0 16:0 17:0 18:0 19:0 20:0 21:1 22:0.00925037 23:0.032048 24:0.0109865 25:0.0280614 26:0.0172291 27:0.020276 28:0.0469687 29:0.0329687 30:0.802211 31:0.548164 32:0.118931 33:0.185112 34:0.0382185 35:0.00855969 36:0.0309758 37:0.0291842 38:0.0139214 39:0.0269327 
0.07125712073134216 1:0.0337494 2:0.0161312 3:0.950119 4:-0.509248 5:0.023614 6:0.188303 7:0.00473735 8:0.116147 9:0.0256959 10:0.0568779 11:0.315191 12:0.420672 13:0.0338344 14:0.00323058 15:0 16:0 17:0 18:0 19:0 20:0 21:0 22:0.0192674 23:0.097893 24:0.018801 25:0.654919 26:0.0361195 27:0.0274335 28:0.0776361 29:0.0264996 30:0.0414306 31:0.0221252 32:0.0612331 33:0.0175905 34:0.718724 35:0.040728 36:0.027157 37:0.0355554 38:0.032664 39:0.0442232 
0.08333937551891722 1:0.000603649 2:0.0132481 3:0.986148 4:-0.95839 5:0.00745622 6:0.165975 7:0.522715 8:0.0599155 9:0.025714 10:0.0226405 11:0.132768 12:0.0191381 13:0.026508 14:0.183144 15:0 16:0 17:0 18:0 19:0 20:0 21:1 22:0.048424 23:0.0741276 24:0.0920504 25:0.0376557 26:0.0148771 27:0.0798166 28:0.133908 29:0.0500439 30:0.469097 31:0.0312294 32:0.0597151 33:0.0298893 34:0.637309 35:0.0215616 36:0.0502906 37:0.0811521 38:0.034041 39:0.0548124 
0.006097623134798816 1:0.00225554 2:0.00826124 3:0.989483 4:-0.965613 5:0.955212 6:0.984102 7:0.000126583 8:0.016775 9:0.00244127 10:0.00481173 11:0.00100278 12:0.0107645 13:0.00241444 14:0.00645163 15:0 16:0 17:0 18:0 19:0 20:0 21:1 22:0.0743011 23:0.0488046 24:0.00537552 25:0.170832 26:0.505721 27:0.00435302 28:0.0179678 29:0.098845 30:0.0737998 31:0.0921971 32:0.661017 33:0.0685927 34:0.0399061 35:0.0252073 36:0.0440058 37:0.0279729 38:0.0271241 39:0.0139769 
0.307247665795472 1:0.00281523 2:0.00978023 3:0.987405 4:-0.966807 5:0.861174 6:0.91075 7:9.48154e-05 8:0.0847698 9:0.00539076 10:0.0161056 11:0.0073005 12:0.0126099 13:0.00248076 14:0.0100737 15:1 16:0 17:0 18:1 19:0 20:0 21:1 22:0.271702 23:0.147528 24:0.00631952 25:0.0894947 26:0.216545 27:0.0129233 28:0.0530827 29:0.0628003 30:0.139604 31:0.0407266 32:0.0510423 33:0.0156425 34:0.085856 35:0.0111323 36:0.0101862 37:0.0144991 38:0.0212937 39:0.749621 
0.1352059145346912 1:0.0061392 2:0.0113091 3:0.982552 4:-0.964065 5:0.0155785 6:0.0439232 7:0.0100121 8:0.797563 9:0.0158025 10:0.0251409 11:0.0394825 12:0.00246052 13:0.0806793 14:0.0132803 15:0 16:0 17:1 18:0 19:0 20:0 21:0 22:0.0549022 23:0.685502 24:0.0809212 25:0.00999895 26:0.00796768 27:0.136703 28:0.0156049 29:0.00269176 30:0.00570875 31:0.0276925 32:0.6591 33:0.0750402 34:0.0749429 35:0.0185693 36:0.0389722 37:0.0368136 38:0.0208666 39:0.0480031 
0.3640125854943025 1:0.00108601 2:0.921094 3:0.0778195 4:-0.966229 5:0.023123 6:0.228492 7:0.00089317 8:0.0536679 9:0.00892823 10:0.0263816 11:0.0077363 12:0.00249433 13:0.856768 14:0.020008 15:0 16:0 17:0 18:1 19:0 20:0 21:1 22:0.0197126 23:0.1511 24:0.0082776 25:0.0961581 26:0.521525 27:0.0070381 28:0.0147777 29:0.0149773 30:0.166434 31:0.0619698 32:0.522473 33:0.0609362 34:0.0773507 35:0.0150006 36:0.0952007 37:0.0645053 38:0.0387573 39:0.063806 
0.05951410614327638 1:0.0080329 2:0.00506528 3:0.986902 4:-0.967646 5:0.333052 6:0.505598 7:0.00127324 8:0.239574 9:0.281758 10:0.0660134 11:0.0198909 12:0.0208515 13:0.0314941 14:0.00609288 15:0 16:0 17:1 18:0 19:0 20:0 21:1 22:0.0306421 23:0.0943424 24:0.0155086 25:0.012685 26:0.36639 27:0.0470871 28:0.327505 29:0.0880411 30:0.0177991 31:0.0240039 32:0.74371 33:0.0402444 34:0.0412477 35:0.0601837 36:0.0366277 37:0.020096 38:0.00598451 39:0.0279024 
0.1260747799735374 1:0.000707555 2:0.00620547 3:0.993087 4:-0.942755 5:0.807715 6:0.826621 7:5.94371e-05 8:0.168829 9:0.0116232 10:0.00387802 11:0.00170891 12:0.00257164 13:0.00224578 14:0.00136917 15:0 16:0 17:0 18:0 19:0 20:0 21:1 22:0.0970519 23:0.603039 24:0.00245399 25:0.00802116 26:0.000398303 27:0.00227238 28:0.26319 29:0.00318725 30:0.0203862 31:0.0142211 32:0.0426084 33:0.00863619 34:0.748623 35:0.0807472 36:0.0339917 37:0.0254343 38:0.0185733 39:0.0271647 
0.09670136446234928 1:0.00720143 2:0.00522464 3:0.987574 4:-0.953948 5:0.158927 6:0.859205 7:0.00754527 8:0.0792257 9:0.114069 10:0.068107 11:0.0123712 12:0.182053 13:0.0504981 14:0.327203 15:0 16:0 17:0 18:0 19:0 20:0 21:1 22:0.0956043 23:0.0343893 24:0.0112822 25:0.0741855 26:0.590985 27:0.00772505 28:0.0232982 29:0.102987 30:0.0595429 31:0.0813516 32:0.83247 33:0.0259306 34:0.0141011 35:0.00928002 36:0.0119349 37:0.00954382 38:0.00614318 39:0.00924427 
0.1887134459404221 1:0.00397527 2:0.011824 3:0.984201 4:-0.950906 5:0.0701137 6:0.0608923 7:0.004371 8:0.273702 9:0.0364475 10:0.0775942 11:0.475023 12:0.0111483 13:0.0298032 14:0.021797 15:1 16:0 17:0 18:1 19:0 20:0 21:1 22:0.238296 23:0.0746057 24:0.0151452 25:0.0466903 26:0.510699 27:0.0211448 28:0.00873887 29:0.0656603 30:0.0190202 31:0.11 32:0.11 33:0.11 34:0.11 35:0.11 36:0.11 37:0.11 38:0.11 39:0.11 
0.2101506397919364 1:0.015042 2:0.0115089 3:0.973449 4:-0.969809 5:0.0139545 6:0.0515525 7:0.00916278 8:0.231205 9:0.0411168 10:0.0330099 11:0.187377 12:0.422103 13:0.0446593 14:0.0174114 15:0 16:0 17:0 18:0 19:0 20:0 21:1 22:0.0405584 23:0.291628 24:0.0773377 25:0.0991417 26:0.0198676 27:0.0335302 28:0.0669879 29:0.194843 30:0.176105 31:0.00937467 32:0.0282219 33:0.0104479 34:0.018867 35:0.008158 36:0.0172527 37:0.0170202 38:0.861909 39:0.0287489 
0.001824139256244089 1:0.000948075 2:0.0114973 3:0.987555 4:-0.951917 5:0.0898048 6:0.15971 7:0.011354 8:0.393015 9:0.0259758 10:0.0786154 11:0.138049 12:0.0538733 13:0.172953 14:0.0363601 15:0 16:0 17:1 18:0 19:0 20:0 21:0 22:0.045284 23:0.414995 24:0.0576147 25:0.1304 26:0.016787 27:0.0199043 28:0.0637005 29:0.104626 30:0.146688 31:0.0220566 32:0.0648505 33:0.0280202 34:0.035318 35:0.0168269 36:0.0677651 37:0.0339223 38:0.668687 39:0.0625532 
0.2595904584856887 1:0.000742054 2:0.893913 3:0.105345 4:-0.959332 5:0.0428084 6:0.0775949 7:0.0013682 8:0.584917 9:0.164808 10:0.128065 11:0.0623031 12:0.00207089 13:0.00822563 14:0.00543311 15:0 16:0 17:1 18:0 19:0 20:0 21:0 22:0.106161 23:0.601909 24:0.0916055 25:0.0583371 26:0.0233322 27:0.0568201 28:0.0370197 29:0.0140963 30:0.0107187 31:0.00848005 32:0.15364 33:0.76114 34:0.00526921 35:0.00726737 36:0.00384189 37:0.0342807 38:0.00188641 39:0.0241944 
0.006436188830727142 1:0.51463 2:0.212023 3:0.273346 4:-0.96017 5:0.133811 6:0.443124 7:0.00703558 8:0.352639 9:0.0176817 10:0.0505927 11:0.00609338 12:0.0222102 13:0.337697 14:0.0722395 15:0 16:0 17:0 18:0 19:0 20:1 21:0 22:0.108655 23:0.114218 24:0.0131891 25:0.0373757 26:0.137182 27:0.060983 28:0.145473 29:0.202314 30:0.18061 31:0.290586 32:0.651492 33:0.0108801 34:0.0121182 35:0.0142239 36:0.0039023 37:0.0104764 38:0.00108275 39:0.00523829 
0.3257039485746726 1:0.00239225 2:0.00735711 3:0.990251 4:-0.951451 5:0.059773 6:0.680666 7:0.0834539 8:0.059968 9:0.00683715 10:0.0296903 11:0.00612335 12:0.0958574 13:0.0736312 14:0.584666 15:0 16:0 17:0 18:0 19:0 20:1 21:0 22:0.0340762 23:0.0458198 24:0.0111181 25:0.032852 26:0.406679 27:0.014521 28:0.0757698 29:0.0377408 30:0.341423 31:0.913047 32:0.0774572 33:0.00315272 34:0.000994538 35:0.00126328 36:0.00101996 37:0.00185279 38:0.000224706 39:0.000987776 
0.5528414712691183 1:0.0192771 2:0.0267093 3:0.954014 4:-0.951427 5:0.159843 6:0.215812 7:0.0108366 8:0.442612 9:0.00482192 10:0.0861104 11:0.0638272 12:0.0306344 13:0.0513846 14:0.149929 15:0 16:0 17:0 18:0 19:0 20:0 21:0 22:0.0169635 23:0.0393193 24:0.00432778 25:0.00194734 26:0.000296374 27:0.00859428 28:0.91709 29:0.00833548 30:0.00312545 31:0.0171947 32:0.0512572 33:0.0214922 34:0.0333571 35:0.00720123 36:0.0336852 37:0.789258 38:0.0292213 39:0.0173331 
0.3052176987315954 1:0.0185243 2:0.0087056 3:0.97277 4:-0.943763 5:0.537914 6:0.935112 7:0.00644298 8:0.0473434 9:0.0044747 10:0.0315231 11:0.00387919 12:0.0204969 13:0.239591 14:0.108335 15:0 16:0 17:0 18:0 19:0 20:0 21:0 22:0.117279 23:0.0570242 24:0.0482795 25:0.0678566 26:0.61423 27:0.0105087 28:0.0152438 29:0.0612864 30:0.00829211 31:0.977661 32:0.00425726 33:0.00211658 34:0.000673121 35:0.00341261 36:0.000544741 37:0.00171059 38:0.000377813 39:0.00924657 
0.3345262577466677 1:0.00217871 2:0.0960694 3:0.901752 4:-0.957859 5:0.134587 6:0.128055 7:0.0100047 8:0.660098 9:0.0140249 10:0.0315378 11:0.0268648 12:0.0054532 13:0.0729714 14:0.0444576 15:1 16:0 17:0 18:1 19:0 20:0 21:0 22:0.0143346 23:0.0484502 24:0.0454349 25:0.0265859 26:0.0270011 27:0.0818797 28:0.0778177 29:0.0754219 30:0.603074 31:0.11 32:0.11 33:0.11 34:0.11 35:0.11 36:0.11 37:0.11 38:0.11 39:0.11 
0.01333255769652872 1:0.145392 2:0.630976 3:0.223633 4:-0.962555 5:0.0293627 6:0.435252 7:0.00502557 8:0.107196 9:0.056568 10:0.116683 11:0.508977 12:0.027904 13:0.010903 14:0.137382 15:0 16:0 17:0 18:0 19:0 20:0 21:0 22:0.10436 23:0.832613 24:0.0145896 25:0.00313394 26:0.0109692 27:0.0171233 28:0.00734763 29:0.00675423 30:0.00310975 31:0.105543 32:0.0687606 33:0.0629184 34:0.0156795 35:0.00875392 36:0.687196 37:0.0150313 38:0.0102301 39:0.0258867 
0.3039944330884141 1:0.00369686 2:0.00613745 3:0.990166 4:-0.954756 5:0.286161 6:0.885318 7:0.00334314 8:0.0395118 9:0.00963894 10:0.021466 11:0.00447069 12:0.0226804 13:0.534647 14:0.0780813 15:0 16:0 17:0 18:0 19:0 20:1 21:1 22:0.507817 23:0.0877665 24:0.00807132 25:0.110868 26:0.158509 27:0.0243582 28:0.035678 29:0.047074 30:0.0198581 31:0.996502 32:0.00268467 33:0.000572385 34:5.03119e-05 35:1.92439e-05 36:1.13941e-05 37:1.21989e-05 38:4.8165e-06 39:0.000143144 
0.09361484754419641 1:0.00190574 2:0.0158299 3:0.982264 4:-0.963855 5:0.00287263 6:0.0478688 7:0.0357756 8:0.0521501 9:0.246247 10:0.502704 11:0.0766159 12:0.040618 13:0.0365284 14:0.00648788 15:0 16:0 17:1 18:0 19:0 20:0 21:0 22:0.0130748 23:0.165472 24:0.629668 25:0.0191175 26:0.00933445 27:0.110028 28:0.0440148 29:0.00568899 30:0.00360137 31:0.00733491 32:0.292692 33:0.659963 34:0.00606869 35:0.00432062 36:0.00483751 37:0.00549956 38:0.00723987 39:0.0120432 
0.04193329735866645 1:0.00237495 2:0.00668546 3:0.99094 4:-0.951802 5:0.14023 6:0.325634 7:0.00190095 8:0.330803 9:0.00622888 10:0.0605816 11:0.384923 12:0.0140885 13:0.0438254 14:0.0174187 15:1 16:0 17:0 18:0 19:0 20:0 21:1 22:0.0251214 23:0.0945886 24:0.0366347 25:0.0177453 26:0.0100924 27:0.0919117 28:0.657905 29:0.0478076 30:0.0181931 31:0.11 32:0.11 33:0.11 34:0.11 35:0.11 36:0.11 37:0.11 38:0.11 39:0.11 
0.09113991369561933 1:0.0176061 2:0.0304245 3:0.951969 4:-0.974913 5:0.00287908 6:0.0465492 7:0.0106908 8:0.0424648 9:0.453863 10:0.452886 11:0.0231728 12:0.00279379 13:0.00147786 14:0.00977163 15:0 16:0 17:0 18:1 19:0 20:0 21:1 22:0.184326 23:0.335804 24:0.184804 25:0.0616054 26:0.016641 27:0.0580416 28:0.090312 29:0.0267651 30:0.0417003 31:0.00389656 32:0.104673 33:0.80541 34:0.00929803 35:0.009407 36:0.0243275 37:0.0048964 38:0.00101858 39:0.0370728 
0.2514850299401649 1:0.00230448 2:0.00835388 3:0.989342 4:-0.943294 5:0.585647 6:0.895626 7:0.00258856 8:0.0982084 9:0.111334 10:0.131912 11:0.0267144 12:0.00892065 13:0.029782 14:0.00489251 15:0 16:0 17:0 18:1 19:0 20:0 21:1 22:0.0656233 23:0.0160118 24:0.0134254 25:0.00385247 26:0.00122462 27:0.870682 28:0.0171743 29:0.00909574 30:0.00291025 31:0.11 32:0.11 33:0.11 34:0.11 35:0.11 36:0.11 37:0.11 38:0.11 39:0.11 
0.01201361368940403 1:0.0300234 2:0.835609 3:0.134367 4:-0.954614 5:0.674731 6:0.835954 7:0.000484569 8:0.126964 9:0.0279661 10:0.0439976 11:0.109635 12:0.00395012 13:0.00997323 14:0.00229881 15:0 16:0 17:0 18:0 19:0 20:0 21:1 22:0.165102 23:0.0182327 24:0.255211 25:0.0124805 26:0.00438998 27:0.447499 28:0.0673397 29:0.0221464 30:0.00759818 31:0.11 32:0.11 33:0.11 34:0.11 35:0.11 36:0.11 37:0.11 38:0.11 39:0.11 
0.07402718619467913 1:0.00111167 2:0.00783818 3:0.99105 4:-0.946976 5:0.00809278 6:0.0299376 7:0.0016257 8:0.13887 9:0.561379 10:0.256722 11:0.0249645 12:0.00219662 13:0.00205139 14:0.00409799 15:0 16:0 17:0 18:0 19:0 20:0 21:0 22:0.0101003 23:0.0526007 24:0.727753 25:0.0079242 26:0.00497932 27:0.126926 28:0.05465 29:0.0105687 30:0.00449734 31:0.00524454 32:0.109975 33:0.82498 34:0.00316216 35:0.00627395 36:0.0214594 37:0.0107008 38:0.000737335 39:0.0174664 
0.07473585511437279 1:0.00250817 2:0.0048259 3:0.992666 4:-0.96681 5:0.0223959 6:0.086631 7:0.266626 8:0.193307 9:0.0686766 10:0.077967 11:0.17737 12:0.0187032 13:0.156909 14:0.0180452 15:0 16:0 17:0 18:0 19:0 20:0 21:0 22:0.0547514 23:0.571424 24:0.153716 25:0.0672358 26:0.0210105 27:0.0606039 28:0.0499042 29:0.0131281 30:0.00822682 31:0.0141197 32:0.0235004 33:0.0185832 34:0.00747676 35:0.00614946 36:0.0200082 37:0.885145 38:0.0156089 39:0.00940799 
0.003939266354068388 1:0.00358493 2:0.00601663 3:0.990398 4:-0.969224 5:0.00536587 6:0.0617667 7:0.000858001 8:0.140464 9:0.0554769 10:0.0915223 11:0.68437 12:0.0106666 13:0.00927875 14:0.00199773 15:0 16:0 17:1 18:0 19:0 20:0 21:0 22:0.00840493 23:0.21688 24:0.179222 25:0.0375548 26:0.0127966 27:0.109598 28:0.36145 29:0.0542659 30:0.0198273 31:0.0367837 32:0.593529 33:0.129407 34:0.0368951 35:0.0191726 36:0.0305768 37:0.112942 38:0.011232 39:0.0294619 
3.008788606329604 1:0.00188833 2:0.00541245 3:0.992699 4:0.606763 5:0.231123 6:0.296572 7:0.00533082 8:0.553189 9:0.0102223 10:0.0473033 11:0.0623073 12:0.0222742 13:0.0620707 14:0.00617962 15:0 16:0 17:0 18:0 19:0 20:0 21:1 22:0.1459 23:0.430757 24:0.0996316 25:0.0217453 26:0.0165395 27:0.0591237 28:0.191347 29:0.0193037 30:0.0156529 31:0.0726533 32:0.563245 33:0.105593 34:0.0480657 35:0.0223746 36:0.0786533 37:0.0272158 38:0.0208883 39:0.0613105 
0.8198550699422922 1:0.00306959 2:0.00451471 3:0.992416 4:0.546215 5:0.0139952 6:0.0311051 7:0.0453568 8:0.0312787 9:0.00821847 10:0.0780333 11:0.148697 12:0.628107 13:0.0121543 14:0.0341595 15:0 16:0 17:0 18:0 19:0 20:0 21:0 22:0.0707473 23:0.109252 24:0.444601 25:0.0148082 26:0.00444749 27:0.133304 28:0.188828 29:0.0271824 30:0.00682905 31:0.00537013 32:0.414126 33:0.35953 34:0.0137449 35:0.00992598 36:0.114069 37:0.0264233 38:0.00695047 39:0.0498611 
0.1204160472636297 1:0.000709424 2:0.0158055 3:0.983485 4:-0.958651 5:0.0524357 6:0.120123 7:0.0105763 8:0.565461 9:0.0634531 10:0.0442668 11:0.101811 12:0.00388284 13:0.124671 14:0.0334417 15:0 16:0 17:0 18:0 19:0 20:0 21:1 22:0.0283971 23:0.551626 24:0.136055 25:0.0189212 26:0.013898 27:0.0950098 28:0.145941 29:0.00507279 30:0.00507959 31:0.011331 32:0.0358891 33:0.0234686 34:0.0118143 35:0.00488083 36:0.0336962 37:0.855103 38:0.0119314 39:0.0118853 
0.2184240260133322 1:0.00175498 2:0.01358 3:0.984665 4:-0.950588 5:0.373787 6:0.553003 7:0.0107426 8:0.32709 9:0.0135766 10:0.0638036 11:0.0438687 12:0.0566903 13:0.0486563 14:0.0617847 15:0 16:0 17:1 18:0 19:0 20:0 21:0 22:0.0162181 23:0.0352197 24:0.81743 25:0.00161165 26:0.00111539 27:0.0989169 28:0.0272035 29:0.00120186 30:0.00108258 31:0.0221037 32:0.319148 33:0.0172373 34:0.0191373 35:0.00953914 36:0.0427078 37:0.0574161 38:0.104142 39:0.408569 
0.3551678812816642 1:0.00285348 2:0.00772472 3:0.989422 4:-0.952786 5:0.0717422 6:0.0863361 7:0.00237302 8:0.411192 9:0.0091262 10:0.156365 11:0.183078 12:0.0403074 13:0.108917 14:0.0168995 15:0 16:0 17:0 18:0 19:0 20:1 21:0 22:0.0420002 23:0.135068 24:0.0663579 25:0.0353853 26:0.0110079 27:0.0525571 28:0.642599 29:0.00853122 30:0.00649379 31:0.975752 32:0.0105057 33:0.00640141 34:0.00145852 35:0.00105301 36:0.00101924 37:0.000910585 38:0.000418236 39:0.00248139 
0.1878097311965251 1:0.000959225 2:0.877426 3:0.121615 4:-0.953352 5:0.0479901 6:0.215317 7:0.0143112 8:0.102526 9:0.0662591 10:0.0541987 11:0.506673 12:0.189568 13:0.00779678 14:0.0106776 15:0 16:0 17:0 18:0 19:0 20:0 21:1 22:0.0574749 23:0.46671 24:0.0973233 25:0.0215154 26:0.0280402 27:0.0163929 28:0.197228 29:0.108147 30:0.00716901 31:0.0326391 32:0.555506 33:0.0172148 34:0.00872034 35:0.016474 36:0.0138384 37:0.337575 38:0.0106336 39:0.0073988 
0.2223263241901643 1:0.0199678 2:0.0224116 3:0.957621 4:0.578546 5:0.0357283 6:0.0609375 7:0.00996227 8:0.343745 9:0.0830395 10:0.0840966 11:0.148829 12:0.023207 13:0.105982 14:0.16541 15:0 16:0 17:0 18:0 19:0 20:0 21:0 22:0.0285911 23:0.045934 24:0.107539 25:0.0134025 26:0.00909627 27:0.55875 28:0.211556 29:0.00865067 30:0.01648 31:0.00272624 32:0.0596996 33:0.707595 34:0.00382068 35:0.00513202 36:0.20229 37:0.00128914 38:0.00177501 39:0.0156725 
2.088197631961687 1:0.97138 2:0.019676 3:0.00894358 4:0.941104 5:0.0444422 6:0.14364 7:0.00331853 8:0.156049 9:0.0542116 10:0.269855 11:0.344411 12:0.0597275 13:0.0604336 14:0.00755176 15:0 16:0 17:0 18:0 19:0 20:0 21:0 22:0.113702 23:0.100249 24:0.02075 25:0.019434 26:0.00924609 27:0.169414 28:0.256986 29:0.298512 30:0.0117062 31:0.0108325 32:0.822764 33:0.021431 34:0.0277056 35:0.0217823 36:0.0113687 37:0.048443 38:0.00594275 39:0.02973 
0.08199126392684472 1:0.00174147 2:0.0145015 3:0.983757 4:-0.952666 5:0.781488 6:0.824168 7:0.000118331 8:0.161675 9:0.0180976 10:0.00790119 11:0.0138415 12:0.0129592 13:0.00214921 14:0.00177011 15:0 16:0 17:0 18:1 19:0 20:0 21:1 22:0.040911 23:0.0594467 24:0.0390721 25:0.0242096 26:0.010969 27:0.0473803 28:0.0685766 29:0.694639 30:0.0147954 31:0.0305538 32:0.622164 33:0.0313642 34:0.0558164 35:0.102627 36:0.0448647 37:0.0605787 38:0.0204845 39:0.0315467 
0.2358928756094934 1:0.00200178 2:0.148697 3:0.849301 4:-0.943328 5:0.0488912 6:0.234204 7:0.0453583 8:0.0779693 9:0.0288545 10:0.0580851 11:0.131425 12:0.335116 13:0.0615611 14:0.212739 15:0 16:0 17:0 18:0 19:0 20:0 21:1 22:0.0262399 23:0.148508 24:0.03506 25:0.0385785 26:0.0141261 27:0.0196287 28:0.664756 29:0.0474905 30:0.00561224 31:0.0142211 32:0.0426084 33:0.00863619 34:0.748623 35:0.0807472 36:0.0339917 37:0.0254343 38:0.0185733 39:0.0271647 
0.3659648815456049 1:4.24824e-06 2:4.7605e-06 3:0.999991 4:0.870979 5:0.218017 6:0.506642 7:0.00787639 8:0.191605 9:0.0112665 10:0.0285464 11:0.0645809 12:0.00620075 13:0.45849 14:0.0134167 15:0 16:0 17:0 18:0 19:0 20:0 21:0 22:0.0949558 23:0.364506 24:0.185875 25:0.156725 26:0.0348011 27:0.0999219 28:0.0455211 29:0.00947375 30:0.00821935 31:0.0160099 32:0.113786 33:0.745883 34:0.0116695 35:0.0107551 36:0.0265566 37:0.0399848 38:0.00678015 39:0.0285745 
0.1739870834628356 1:0.000829266 2:0.0180254 3:0.981145 4:-0.953468 5:0.00502405 6:0.0693424 7:0.0109359 8:0.101317 9:0.0108662 10:0.0399368 11:0.576991 12:0.239273 13:0.0128362 14:0.00281996 15:0 16:0 17:0 18:1 19:0 20:0 21:0 22:0.0914966 23:0.82135 24:0.022528 25:0.00549381 26:0.0121393 27:0.0308178 28:0.0115126 29:0.00201727 30:0.00264454 31:0.0437744 32:0.502449 33:0.102367 34:0.0673405 35:0.024241 36:0.104541 37:0.0617694 38:0.036188 39:0.0573306 
0.6471446237452825 1:0.251223 2:0.736357 3:0.0124197 4:-0.91832 5:0.0180667 6:0.129278 7:0.00212709 8:0.039332 9:0.0230939 10:0.0272501 11:0.183284 12:0.686541 13:0.0178507 14:0.00245508 15:0 16:0 17:0 18:0 19:0 20:0 21:0 22:0.0064282 23:0.0368876 24:0.707113 25:0.00754213 26:0.00218191 27:0.199162 28:0.0382826 29:0.00110723 30:0.00129541 31:0.00267044 32:0.0140706 33:0.0401117 34:0.00977805 35:0.895034 36:0.00940388 37:0.00543835 38:0.00321256 39:0.0202805 
0.1280670648825516 1:0.00147313 2:0.0295505 3:0.968976 4:-0.962491 5:0.00121921 6:0.0445141 7:0.0190766 8:0.0367101 9:0.08907 10:0.810179 11:0.0225487 12:0.00642784 13:0.00502693 14:0.00974188 15:0 16:0 17:0 18:0 19:0 20:0 21:1 22:0.0127629 23:0.437944 24:0.445388 25:0.00839661 26:0.0085025 27:0.0292317 28:0.0479458 29:0.00813663 30:0.00169184 31:0.00177512 32:0.0810364 33:0.791324 34:0.00585213 35:0.00319929 36:0.108018 37:0.00180189 38:0.00362488 39:0.00336788 
0.006845165902430535 1:0.000704625 2:0.00786847 3:0.991427 4:-0.955131 5:0.0125571 6:0.0350814 7:0.00313844 8:0.22135 9:0.296207 10:0.366047 11:0.0756858 12:0.0130973 13:0.00190142 14:0.0100159 15:0 16:0 17:1 18:0 19:0 20:0 21:1 22:0.0591609 23:0.546376 24:0.181024 25:0.0322166 26:0.0153162 27:0.107966 28:0.0418274 29:0.00960936 30:0.00650281 31:0.00512731 32:0.803259 33:0.154471 34:0.0110761 35:0.00664438 36:0.00536664 37:0.0062099 38:0.00211477 39:0.00573155 
0.0489160482253047 1:0.00135657 2:0.783947 3:0.214696 4:-0.959008 5:0.261086 6:0.706087 7:0.02216 8:0.0940653 9:0.011927 10:0.0554183 11:0.0390742 12:0.155074 13:0.116223 14:0.244972 15:0 16:0 17:0 18:0 19:0 20:0 21:1 22:0.0795045 23:0.312802 24:0.0314857 25:0.0378964 26:0.0282228 27:0.0205153 28:0.36569 29:0.115029 30:0.00885465 31:0.038761 32:0.058698 33:0.0289005 34:0.0307014 35:0.751745 36:0.0389322 37:0.0235085 38:0.00831749 39:0.0204357 
0.09736902919179101 1:0.0143334 2:0.00867111 3:0.976995 4:-0.963719 5:0.379789 6:0.703233 7:0.00479365 8:0.164548 9:0.0199828 10:0.0408502 11:0.0149488 12:0.193996 13:0.0520862 14:0.129005 15:0 16:0 17:0 18:1 19:0 20:0 21:0 22:0.118725 23:0.417226 24:0.0195045 25:0.0141595 26:0.0243475 27:0.0203032 28:0.235909 29:0.142576 30:0.00724963 31:0.0423085 32:0.0648184 33:0.0362428 34:0.0326096 35:0.724436 36:0.0336019 37:0.0350558 38:0.0100287 39:0.0208983 
0.07941929248285197 1:0.00101166 2:0.0127556 3:0.986233 4:-0.957243 5:0.0179583 6:0.261754 7:0.00373569 8:0.0393822 9:0.0325262 10:0.405877 11:0.143653 12:0.0161461 13:0.0262317 14:0.31449 15:0 16:0 17:0 18:0 19:0 20:0 21:0 22:0.099944 23:0.159975 24:0.0175131 25:0.0252377 26:0.0117528 27:0.00883897 28:0.65255 29:0.0204591 30:0.00372954 31:0.0349245 32:0.0656657 33:0.0349399 34:0.032511 35:0.735629 36:0.0384853 37:0.0304414 38:0.0101069 39:0.0172962 
0.3611909408825413 1:0.00166627 2:0.866721 3:0.131612 4:-0.977871 5:0.040801 6:0.0566709 7:0.00398582 8:0.699565 9:0.0953437 10:0.0980944 11:0.0262296 12:0.0147947 13:0.0164005 14:0.00478493 15:1 16:0 17:0 18:0 19:0 20:0 21:0 22:0.0794745 23:0.671311 24:0.0609124 25:0.0519094 26:0.0179834 27:0.0689532 28:0.0285578 29:0.0125425 30:0.00835582 31:0.0107907 32:0.121565 33:0.811357 34:0.00878983 35:0.00385609 36:0.0137385 37:0.00607802 38:0.00702678 39:0.0167987 
0.05941899991598876 1:0.00233216 2:0.762391 3:0.235276 4:-0.975352 5:0.0686564 6:0.349403 7:0.0040265 8:0.121073 9:0.440485 10:0.0888785 11:0.164136 12:0.0690787 13:0.0222481 14:0.0214176 15:0 16:0 17:0 18:0 19:0 20:0 21:0 22:0.0240655 23:0.0409848 24:0.0407339 25:0.0224528 26:0.0290535 27:0.0119178 28:0.0480594 29:0.764077 30:0.018655 31:0.11 32:0.11 33:0.11 34:0.11 35:0.11 36:0.11 37:0.11 38:0.11 39:0.11 
0.05376374515182093 1:0.00320898 2:0.010063 3:0.986728 4:-0.967577 5:0.66967 6:0.844078 7:0.000939055 8:0.135605 9:0.0156824 10:0.0489895 11:0.00866291 12:0.0585045 13:0.00831073 14:0.0536363 15:0 16:0 17:0 18:0 19:0 20:0 21:1 22:0.0258761 23:0.0962516 24:0.00380003 25:0.00744474 26:0.00493515 27:0.00855596 28:0.833567 29:0.0104359 30:0.00913405 31:0.0437025 32:0.657678 33:0.0317152 34:0.0135123 35:0.019747 36:0.0163795 37:0.195983 38:0.0105603 39:0.010722 
0.0009277754726823448 1:0.00621388 2:0.0137551 3:0.980031 4:-0.950524 5:0.258156 6:0.349682 7:0.00299879 8:0.409193 9:0.0156175 10:0.0842606 11:0.0896837 12:0.0880137 13:0.0224726 14:0.0296038 15:0 16:0 17:0 18:0 19:0 20:0 21:1 22:0.125137 23:0.0442569 24:0.0641402 25:0.0137659 26:0.00530073 27:0.627232 28:0.0135063 29:0.0962058 30:0.0104549 31:0.841888 32:0.0784628 33:0.00544054 34:0.0112467 35:0.0106817 36:0.0145783 37:0.0268879 38:0.00171312 39:0.0091015 
0.04453585182608535 1:0.00209207 2:0.00716269 3:0.990745 4:-0.945113 5:0.0114491 6:0.0795484 7:0.00145994 8:0.0493672 9:0.0263923 10:0.0376409 11:0.832972 12:0.0354011 13:0.00352402 14:0.00179363 15:0 16:0 17:0 18:0 19:0 20:0 21:1 22:0.034687 23:0.282727 24:0.523926 25:0.0109009 26:0.00793791 27:0.0819677 28:0.0464364 29:0.00768091 30:0.00373582 31:0.0760431 32:0.547403 33:0.247479 34:0.0306427 35:0.0283564 36:0.00564321 37:0.0178608 38:0.00514123 39:0.0414308 
0.009881746622640207 1:0.00505099 2:0.00843301 3:0.986516 4:-0.956879 5:0.0124553 6:0.0408527 7:0.0159574 8:0.207074 9:0.127235 10:0.342361 11:0.24211 12:0.0321221 13:0.014377 14:0.00630845 15:0 16:0 17:0 18:1 19:0 20:0 21:1 22:0.548156 23:0.34707 24:0.0217837 25:0.00903086 26:0.00604331 27:0.0184752 28:0.032414 29:0.0069823 30:0.0100441 31:0.0111224 32:0.110959 33:0.821322 34:0.00549553 35:0.00826211 36:0.0222208 37:0.0077301 38:0.00120421 39:0.0116833 
0.04707879132163199 1:0.00082685 2:0.00854215 3:0.990631 4:-0.942962 5:0.10209 6:0.291257 7:0.00231534 8:0.378794 9:0.0804658 10:0.332884 11:0.0626139 12:0.00910591 13:0.0284931 14:0.00323788 15:0 16:0 17:1 18:0 19:0 20:0 21:1 22:0.0863862 23:0.493276 24:0.167613 25:0.0364431 26:0.0164453 27:0.106972 28:0.081978 29:0.00555235 30:0.00533424 31:0.00788309 32:0.117274 33:0.80525 34:0.00629515 35:0.0111633 36:0.0399507 37:0.00524284 38:0.00224287 39:0.00469773 
0.176565958308292 1:0.00322788 2:0.763691 3:0.233081 4:-0.976112 5:0.0132827 6:0.067738 7:0.00835994 8:0.187948 9:0.413213 10:0.322307 11:0.0274235 12:0.00111105 13:0.0216869 14:0.00466749 15:0 16:0 17:0 18:0 19:0 20:0 21:0 22:0.0188533 23:0.071352 24:0.136962 25:0.014365 26:0.0054225 27:0.716839 28:0.0248337 29:0.00814097 30:0.00323152 31:0.00203124 32:0.027356 33:0.101088 34:0.00137191 35:0.00197906 36:0.812079 37:0.0100633 38:0.00156343 39:0.0424674 
0.1211532403500772 1:0.0197868 2:0.0201503 3:0.960063 4:0.887733 5:0.00195831 6:0.0136577 7:0.0157752 8:0.134444 9:0.0154538 10:0.237928 11:0.560007 12:0.0139789 13:0.0136019 14:0.00685409 15:0 16:0 17:0 18:0 19:0 20:0 21:0 22:0.0599499 23:0.55203 24:0.143133 25:0.0696378 26:0.0184556 27:0.102913 28:0.0421292 29:0.00654933 30:0.0052023 31:0.0220141 32:0.59157 33:0.0733046 34:0.0286644 35:0.0116373 36:0.205381 37:0.0266064 38:0.0178102 39:0.0230129 
0.1898052014796827 1:0.0041302 2:0.0123511 3:0.983519 4:-0.953692 5:0.209134 6:0.329951 7:0.000754046 8:0.526712 9:0.0313638 10:0.0155776 11:0.163629 12:0.0196571 13:0.0317995 14:0.00137349 15:0 16:0 17:0 18:0 19:0 20:1 21:1 22:0.0296648 23:0.124394 24:0.034462 25:0.00941777 26:0.00700401 27:0.110576 28:0.613315 29:0.0642021 30:0.00696466 31:0.11 32:0.11 33:0.11 34:0.11 35:0.11 36:0.11 37:0.11 38:0.11 39:0.11 
0.3582241219693763 1:0.233058 2:0.00718568 3:0.759756 4:-0.960164 5:0.724236 6:0.901388 7:0.00123388 8:0.0967042 9:0.0238053 10:0.0283032 11:0.0408764 12:0.0594821 13:0.00391685 14:0.0214423 15:1 16:0 17:0 18:0 19:0 20:0 21:1 22:0.0766166 23:0.267492 24:0.0305177 25:0.0187704 26:0.0177199 27:0.0111586 28:0.327333 29:0.241878 30:0.00851371 31:0.00561807 32:0.00864834 33:0.023823 34:0.0101458 35:0.0143283 36:0.0567446 37:0.777707 38:0.06545 39:0.0375347 
0.2004283283528035 1:0.00457519 2:0.00968683 3:0.985738 4:-0.96145 5:0.0225286 6:0.0811895 7:0.00409258 8:0.105707 9:0.0404167 10:0.193174 11:0.575424 12:0.037791 13:0.0158872 14:0.00497883 15:0 16:0 17:0 18:0 19:0 20:0 21:0 22:0.0166637 23:0.347351 24:0.299897 25:0.0328023 26:0.0253934 27:0.131697 28:0.128172 29:0.00631353 30:0.0117108 31:0.000986377 32:0.00289023 33:0.0101296 34:0.0361859 35:0.00203376 36:0.00384133 37:0.0125349 38:0.00948453 39:0.921913 
0.1077609861141321 1:0.0034881 2:0.0144121 3:0.9821 4:-0.967131 5:0.0172805 6:0.179391 7:0.0982928 8:0.155721 9:0.144296 10:0.30585 11:0.049207 12:0.0158361 13:0.0306671 14:0.18285 15:0 16:0 17:0 18:0 19:0 20:0 21:1 22:0.0168885 23:0.0223723 24:0.90141 25:0.00963731 26:0.00183611 27:0.0286225 28:0.0160837 29:0.00160862 30:0.00154063 31:0.0057327 32:0.122481 33:0.743776 34:0.00401224 35:0.00528939 36:0.0736181 37:0.00643164 38:0.00417389 39:0.0344848 
0.8489159921411259 1:0.00202843 2:0.00211857 3:0.995853 4:0.67217 5:0.0983102 6:0.37544 7:0.00353528 8:0.224053 9:0.0611876 10:0.0364143 11:0.0223501 12:0.00575384 13:0.519005 14:0.0293908 15:0 16:0 17:0 18:0 19:0 20:0 21:0 22:0.0700226 23:0.408188 24:0.235599 25:0.102405 26:0.0335297 27:0.0694492 28:0.0549528 29:0.0157608 30:0.0100929 31:0.0134012 32:0.0259836 33:0.0154787 34:0.00431096 35:0.00721491 36:0.0238333 37:0.884459 38:0.0128304 39:0.0124878 
0.1292674592364415 1:0.00267111 2:0.0068684 3:0.99046 4:-0.967202 5:0.0476341 6:0.0936553 7:0.00174123 8:0.643796 9:0.0284155 10:0.0606575 11:0.0895275 12:0.0885829 13:0.0291713 14:0.0104735 15:0 16:0 17:0 18:0 19:0 20:0 21:0 22:0.221932 23:0.240093 24:0.0282388 25:0.0896014 26:0.0339742 27:0.024467 28:0.0861081 29:0.217042 30:0.0585427 31:0.00937467 32:0.0282219 33:0.0104479 34:0.018867 35:0.008158 36:0.0172527 37:0.0170202 38:0.861909 39:0.0287489 
0.3872888704298671 1:0.906185 2:0.00470551 3:0.0891092 4:-0.951325 5:0.216443 6:0.247187 7:0.00273644 8:0.505824 9:0.155635 10:0.0467697 11:0.021755 12:0.0119689 13:0.027851 14:0.0110171 15:0 16:0 17:0 18:1 19:0 20:0 21:1 22:0.0370549 23:0.67193 24:0.0565496 25:0.0139304 26:0.0118773 27:0.1184 28:0.0847412 29:0.00249321 30:0.00302305 31:0.11 32:0.11 33:0.11 34:0.11 35:0.11 36:0.11 37:0.11 38:0.11 39:0.11 
0.2837784440914343 1:0.00160555 2:0.00692982 3:0.991465 4:-0.957754 5:0.00297301 6:0.0314604 7:0.00160823 8:0.142137 9:0.0196955 10:0.0559749 11:0.723156 12:0.0459339 13:0.00289547 14:0.0056259 15:0 16:0 17:0 18:0 19:0 20:0 21:1 22:0.154592 23:0.0525285 24:0.0129918 25:0.00929119 26:0.0420544 27:0.0365498 28:0.0279112 29:0.640963 30:0.0231177 31:0.0139615 32:0.687903 33:0.162272 34:0.0407656 35:0.0134576 36:0.0281241 37:0.0183918 38:0.00888128 39:0.0262437 
0.2203838526037324 1:0.000928581 2:0.030623 3:0.968448 4:-0.954371 5:0.920934 6:0.953088 7:6.45731e-05 8:0.0443792 9:0.00508416 10:0.00582825 11:0.00131427 12:0.00146547 13:0.0180786 14:0.00285127 15:0 16:0 17:0 18:0 19:0 20:0 21:0 22:0.804111 23:0.0347441 24:0.0304818 25:0.0231732 26:0.00582156 27:0.00584919 28:0.0665376 29:0.0124787 30:0.016803 31:0.11 32:0.11 33:0.11 34:0.11 35:0.11 36:0.11 37:0.11 38:0.11 39:0.11 
0.0647153446948231 1:0.00495029 2:0.00772101 3:0.987329 4:-0.956461 5:0.00303395 6:0.0677943 7:0.00381675 8:0.0883022 9:0.00398411 10:0.0369981 11:0.846951 12:0.00292636 13:0.0113025 14:0.00268548 15:0 16:0 17:0 18:0 19:0 20:0 21:0 22:0.0430019 23:0.15878 24:0.0823462 25:0.625824 26:0.00937936 27:0.0567461 28:0.0143411 29:0.00226431 30:0.00731721 31:0.0396727 32:0.559257 33:0.0735247 34:0.0878542 35:0.0170583 36:0.0759101 37:0.0509491 38:0.0297342 39:0.0660393 
0.004408374083495356 1:0.00308912 2:0.00655529 3:0.990356 4:-0.958762 5:0.036299 6:0.0609783 7:0.00205759 8:0.588772 9:0.23459 10:0.0505255 11:0.00792605 12:0.012796 13:0.0478466 14:0.0191872 15:0 16:0 17:0 18:1 19:0 20:0 21:0 22:0.138181 23:0.594914 24:0.073062 25:0.0445219 26:0.0159086 27:0.0806268 28:0.0358534 29:0.00889495 30:0.0080369 31:0.0131231 32:0.114242 33:0.800313 34:0.0099485 35:0.00659807 36:0.012378 37:0.00971035 38:0.00548983 39:0.0281969 
0.2806831533835602 1:0.0108042 2:0.151437 3:0.837759 4:-0.946536 5:0.16496 6:0.422572 7:0.00430928 8:0.482033 9:0.262387 10:0.03111 11:0.0114641 12:0.0163798 13:0.0189068 14:0.00845016 15:0 16:0 17:0 18:1 19:0 20:0 21:0 22:0.865896 23:0.034151 24:0.010104 25:0.00204559 26:0.00153801 27:0.00705628 28:0.0643703 29:0.00790597 30:0.00693307 31:0.0120115 32:0.113243 33:0.803867 34:0.00833922 35:0.00710234 36:0.0154325 37:0.00540772 38:0.00925518 39:0.0253411 
0.1995294725717402 1:0.00331401 2:0.884418 3:0.112268 4:-0.957771 5:0.244271 6:0.274995 7:0.00283326 8:0.571513 9:0.051102 10:0.0279341 11:0.0161522 12:0.00640358 13:0.0693296 14:0.010461 15:0 16:0 17:0 18:1 19:0 20:0 21:1 22:0.706901 23:0.143865 24:0.0143225 25:0.0056042 26:0.00532079 27:0.0896157 28:0.0178974 29:0.0105529 30:0.0059209 31:0.00893664 32:0.131707 33:0.80433 34:0.00832303 35:0.00507267 36:0.0128827 37:0.00474447 38:0.00495288 39:0.0190502 
0.04262242236920336 1:0.00221457 2:0.790782 3:0.207004 4:-0.971378 5:0.04771 6:0.182598 7:0.00116077 8:0.145648 9:0.743214 10:0.0410079 11:0.00207402 12:0.00301833 13:0.0136488 14:0.00251788 15:0 16:0 17:0 18:0 19:0 20:0 21:1 22:0.118866 23:0.536037 24:0.114959 25:0.0654297 26:0.0190581 27:0.0918256 28:0.0343912 29:0.0105198 30:0.00891317 31:0.0131231 32:0.114242 33:0.800313 34:0.0099485 35:0.00659807 36:0.012378 37:0.00971035 38:0.00548983 39:0.0281969 
0.1412869830970512 1:0.102186 2:0.00978399 3:0.88803 4:-0.956063 5:0.0217896 6:0.196264 7:0.00579013 8:0.0517055 9:0.220404 10:0.167249 11:0.196275 12:0.284352 13:0.0279135 14:0.0245214 15:0 16:0 17:0 18:1 19:0 20:0 21:1 22:0.741833 23:0.0378543 24:0.00736693 25:0.0113446 26:0.0113652 27:0.00556161 28:0.123734 29:0.0562927 30:0.004647 31:0.00784923 32:0.824514 33:0.028558 34:0.0455094 35:0.0268555 36:0.00969385 37:0.0411266 38:0.00496325 39:0.0109302 
0.4349309740623939 1:0.00857962 2:0.921474 3:0.069946 4:-0.949783 5:0.0119806 6:0.04037 7:0.000767633 8:0.0937219 9:0.803254 10:0.0520758 11:0.00400272 12:0.0304918 13:0.00269478 14:0.00101108 15:0 16:0 17:0 18:1 19:0 20:0 21:0 22:0.143378 23:0.661687 24:0.0544001 25:0.0300997 26:0.0144417 27:0.0604257 28:0.0218052 29:0.00692301 30:0.00683966 31:0.00524952 32:0.111406 33:0.862101 34:0.00443478 35:0.00153622 36:0.00480787 37:0.0014043 38:0.00233599 39:0.00672485 
0.3275592081153257 1:2.69904e-06 2:2.97789e-06 3:0.999994 4:0.895871 5:0.0949067 6:0.300405 7:0.00411403 8:0.330212 9:0.0323224 10:0.0338768 11:0.0471334 12:0.00812564 13:0.412616 14:0.036693 15:0 16:0 17:0 18:0 19:0 20:0 21:0 22:0.0610237 23:0.161033 24:0.371776 25:0.118159 26:0.0489934 27:0.120434 28:0.0678743 29:0.0302877 30:0.0204184 31:0.0289125 32:0.665822 33:0.0777323 34:0.0808755 35:0.0183642 36:0.0385865 37:0.0337763 38:0.0234235 39:0.0325075 
-0.7656785823197949 1:0.996565 2:0.00132567 3:0.00210973 4:0.961414 5:0.00825577 6:0.216611 7:0.039606 8:0.0765799 9:0.0356061 10:0.101615 11:0.128271 12:0.00821739 13:0.503048 14:0.098801 15:0 16:0 17:0 18:0 19:0 20:0 21:1 22:0.250173 23:0.0315183 24:0.0850991 25:0.0219803 26:0.0203589 27:0.468654 28:0.0916767 29:0.0127544 30:0.0177851 31:0.11 32:0.11 33:0.11 34:0.11 35:0.11 36:0.11 37:0.11 38:0.11 39:0.11 
-0.6666804293792562 1:0.923936 2:0.0409731 3:0.0350905 4:0.950117 5:0.0873702 6:0.333511 7:0.00352691 8:0.202168 9:0.0281421 10:0.0363047 11:0.0144803 12:0.00487964 13:0.599826 14:0.0233017 15:0 16:0 17:0 18:0 19:0 20:0 21:0 22:0.123501 23:0.122966 24:0.0312913 25:0.232401 26:0.0383824 27:0.0670669 28:0.327997 29:0.0400269 30:0.0163686 31:0.11 32:0.11 33:0.11 34:0.11 35:0.11 36:0.11 37:0.11 38:0.11 39:0.11 
-0.196728454265969 1:0.998159 2:3.75786e-06 3:0.00183718 4:0.958591 5:0.00537743 6:0.0267731 7:0.000609074 8:0.123994 9:0.00561214 10:0.0822469 11:0.744766 12:0.02203 13:0.0136153 14:0.00174867 15:0 16:1 17:0 18:0 19:0 20:0 21:0 22:0.0455327 23:0.0335904 24:0.0127846 25:0.012875 26:0.00362576 27:0.0284094 28:0.853017 29:0.0025109 30:0.00765466 31:0.000187185 32:0.000319204 33:0.000282371 34:0.000209651 35:0.000146486 36:0.00025458 37:0.995781 38:0.000279712 39:0.00253974 
-0.1188705151319679 1:0.991841 2:0.00423843 3:0.0039203 4:0.972423 5:0.0140742 6:0.341081 7:0.0016158 8:0.0221129 9:0.0218195 10:0.0255377 11:0.878885 12:0.0221026 13:0.0112518 14:0.00260108 15:0 16:0 17:0 18:0 19:0 20:0 21:1 22:0.0269963 23:0.0269459 24:0.0227221 25:0.00209308 26:0.00251122 27:0.0142078 28:0.9025 29:0.000757344 30:0.00126658 31:0.000335228 32:0.000706507 33:0.000596322 34:0.000468081 35:0.000501108 36:0.000600295 37:0.991725 38:0.000644656 39:0.00442289 
-0.6793868249153753 1:0.997464 2:0.00122356 3:0.00131245 4:0.951218 5:0.00607257 6:0.0647213 7:0.000798879 8:0.149967 9:0.389172 10:0.326174 11:0.116925 12:0.00590118 13:0.00208592 14:0.00290349 15:0 16:1 17:0 18:0 19:0 20:0 21:1 22:0.0420311 23:0.331537 24:0.410365 25:0.0197242 26:0.011098 27:0.0802091 28:0.0910773 29:0.00873573 30:0.00522234 31:0.0107028 32:0.113384 33:0.0197086 34:0.0240788 35:0.0887444 36:0.0143856 37:0.239954 38:0.0239586 39:0.465083 
-0.8459341165402574 1:0.370192 2:0.60015 3:0.0296575 4:-0.952361 5:0.220916 6:0.695431 7:0.00141178 8:0.119702 9:0.0632492 10:0.0281775 11:0.512695 12:0.0354931 13:0.0131227 14:0.0052334 15:0 16:1 17:0 18:0 19:0 20:0 21:1 22:0.239481 23:0.334105 24:0.028384 25:0.0237019 26:0.0116734 27:0.023071 28:0.332855 29:0.00136269 30:0.0053669 31:0.000422536 32:0.00461006 33:0.0253944 34:0.000401917 35:0.000793903 36:0.000633679 37:0.963408 38:0.000274336 39:0.00406115 
-0.3399484905446366 1:0.917682 2:0.00688246 3:0.0754353 4:-0.725302 5:0.0185301 6:0.652064 7:0.00148503 8:0.0401002 9:0.00428598 10:0.0236191 11:0.857139 12:0.0160689 13:0.0259641 14:0.0128072 15:0 16:1 17:0 18:0 19:0 20:0 21:1 22:0.00386791 23:0.00704113 24:0.00198834 25:0.00506163 26:0.000596905 27:0.00198942 28:0.949482 29:0.00827721 30:0.0216957 31:0.000762833 32:0.00762097 33:0.00991971 34:0.00103245 35:0.0122596 36:0.000996584 37:0.9591 38:0.00270469 39:0.00560352 
-0.8546204612752503 1:0.995845 2:0.00215745 3:0.00199707 4:0.972919 5:0.102862 6:0.540983 7:0.00377275 8:0.126335 9:0.110713 10:0.0614587 11:0.484679 12:0.063495 13:0.0249999 14:0.0216853 15:1 16:1 17:0 18:1 19:0 20:0 21:1 22:0.00756169 23:0.0273792 24:0.00353384 25:0.010287 26:0.000804847 27:0.00631746 28:0.927444 29:0.00483338 30:0.0118388 31:0.000665769 32:0.00371973 33:0.0160836 34:0.00105212 35:0.00163406 36:0.000815091 37:0.970061 38:0.00186812 39:0.00410043 
-0.7551136865586215 1:0.194025 2:0.769436 3:0.0365386 4:0.676405 5:0.0219177 6:0.121703 7:0.0301062 8:0.102848 9:0.214141 10:0.257588 11:0.141618 12:0.12015 13:0.0120487 14:0.099582 15:0 16:1 17:0 18:0 19:0 20:0 21:0 22:0.0474745 23:0.105989 24:0.0709263 25:0.0641902 26:0.0228904 27:0.0900523 28:0.582311 29:0.0101661 30:0.00600036 31:0.00414054 32:0.0174327 33:0.0158591 34:0.00846258 35:0.0386077 36:0.0091753 37:0.885172 38:0.0066424 39:0.0145076 
-0.9333878079658812 1:0.99601 2:0.00214613 3:0.00184434 4:0.97685 5:0.00118376 6:0.0189212 7:0.616706 8:0.0516128 9:0.0075753 10:0.0464259 11:0.0802311 12:0.146032 13:0.0477474 14:0.00248603 15:1 16:1 17:0 18:0 19:0 20:0 21:0 22:0.26646 23:0.0585365 24:0.0610908 25:0.0270238 26:0.0242492 27:0.154072 28:0.273624 29:0.0499099 30:0.0850332 31:0.031313 32:0.0714383 33:0.0744072 34:0.0731712 35:0.127267 36:0.0672237 37:0.170225 38:0.0469762 39:0.337978 
-2.958942063734691 1:0.0309605 2:0.0137593 3:0.95528 4:0.973329 5:0.342822 6:0.601722 7:0.00225473 8:0.265467 9:0.033772 10:0.0626581 11:0.0430065 12:0.0320597 13:0.205978 14:0.0119826 15:0 16:0 17:0 18:0 19:0 20:0 21:0 22:0.0758678 23:0.0578178 24:0.526207 25:0.00739948 26:0.00409021 27:0.245068 28:0.0600217 29:0.020296 30:0.00323198 31:0.11 32:0.11 33:0.11 34:0.11 35:0.11 36:0.11 37:0.11 38:0.11 39:0.11 
-0.06889588761957779 1:0.984536 2:0.00118642 3:0.0142773 4:0.944073 5:0.00266453 6:0.0368482 7:0.0538061 8:0.0217272 9:0.00712337 10:0.0185484 11:0.112434 12:0.72243 13:0.0302837 14:0.0309831 15:0 16:0 17:0 18:0 19:0 20:0 21:0 22:0.0144192 23:0.16374 24:0.0925886 25:0.0208371 26:0.0176512 27:0.0629346 28:0.52456 29:0.0730831 30:0.030186 31:0.00479155 32:0.013363 33:0.0102494 34:0.0454244 35:0.128101 36:0.0108126 37:0.0299059 38:0.735602 39:0.0217503 
-0.63168940998945 1:0.99564 2:0.00374911 3:0.000611302 4:0.977882 5:0.00934395 6:0.0406362 7:0.070516 8:0.0426623 9:0.00448822 10:0.017275 11:0.355874 12:0.475225 13:0.0106878 14:0.0139282 15:0 16:0 17:1 18:0 19:0 20:0 21:0 22:0.0790247 23:0.157806 24:0.138044 25:0.0246159 26:0.0192855 27:0.0238509 28:0.452098 29:0.0952905 30:0.00998441 31:0.00960053 32:0.022128 33:0.0257044 34:0.00804214 35:0.00336076 36:0.0728515 37:0.834264 38:0.00719787 39:0.0168506 
-0.8472201516888108 1:0.54658 2:0.0294341 3:0.423986 4:-0.81356 5:0.0312121 6:0.264188 7:0.00149752 8:0.127448 9:0.139715 10:0.0465774 11:0.630512 12:0.0107096 13:0.00571237 14:0.0066161 15:0 16:1 17:0 18:0 19:0 20:0 21:1 22:0.00171649 23:0.0127307 24:0.118524 25:0.00564006 26:0.000994713 27:0.846917 28:0.0109039 29:0.000468093 30:0.00210474 31:0.00230431 32:0.0258336 33:0.00176846 34:0.0254224 35:0.0213748 36:0.00258635 37:0.915068 38:0.00108077 39:0.00456124 
-0.6216897960062039 1:0.343327 2:0.39147 3:0.265203 4:-0.960205 5:0.0183797 6:0.111666 7:0.00169711 8:0.136846 9:0.0234821 10:0.123332 11:0.588792 12:0.0149162 13:0.0847381 14:0.00781758 15:0 16:1 17:0 18:0 19:0 20:0 21:0 22:0.0147555 23:0.0859637 24:0.0235994 25:0.00644647 26:0.00400554 27:0.0267568 28:0.81882 29:0.011501 30:0.00815157 31:0.000187185 32:0.000319204 33:0.000282371 34:0.000209651 35:0.000146486 36:0.00025458 37:0.995781 38:0.000279712 39:0.00253974 
-0.4681806476126448 1:0.998736 2:5.63921e-06 3:0.00125865 4:0.94393 5:0.0111985 6:0.157058 7:0.00433401 8:0.0730696 9:0.0336137 10:0.232771 11:0.447632 12:0.0341803 13:0.0555265 14:0.107674 15:0 16:0 17:0 18:0 19:0 20:0 21:0 22:0.0835729 23:0.0124112 24:0.291441 25:0.0164722 26:0.00325849 27:0.554046 28:0.0194782 29:0.0150327 30:0.00428817 31:0.11 32:0.11 33:0.11 34:0.11 35:0.11 36:0.11 37:0.11 38:0.11 39:0.11 
-0.4137545266886054 1:0.961332 2:0.00632725 3:0.0323408 4:0.769572 5:0.105867 6:0.559968 7:0.00280237 8:0.0826699 9:0.34147 10:0.131263 11:0.106572 12:0.0846948 13:0.133825 14:0.0108361 15:0 16:1 17:0 18:1 19:0 20:0 21:1 22:0.0268077 23:0.0238954 24:0.475821 25:0.0157419 26:0.0104387 27:0.197586 28:0.232768 29:0.00897615 30:0.0079641 31:1.03098e-05 32:3.00824e-05 33:2.69584e-05 34:1.21247e-05 35:9.1858e-06 36:1.39106e-05 37:0.998478 38:8.21486e-05 39:0.00133689 
-0.4543375751833779 1:0.984793 2:0.00284412 3:0.0123627 4:0.771137 5:0.00315529 6:0.0685659 7:0.146345 8:0.0225147 9:0.00932518 10:0.0429333 11:0.0857983 12:0.0118486 13:0.0354781 14:0.642602 15:0 16:0 17:0 18:0 19:0 20:0 21:0 22:0.0767965 23:0.181059 24:0.0614947 25:0.0483292 26:0.0358843 27:0.0172601 28:0.302592 29:0.266924 30:0.00966097 31:0.000154209 32:0.00104345 33:0.0011759 34:0.000476578 35:0.00215396 36:0.00922122 37:0.939491 38:0.0355149 39:0.0107692 
-0.9211589652584981 1:0.983209 2:0.00935241 3:0.00743845 4:0.945361 5:0.0327766 6:0.0963507 7:0.00280701 8:0.177584 9:0.0227786 10:0.214367 11:0.359345 12:0.155494 13:0.0195912 14:0.0152567 15:0 16:1 17:0 18:1 19:1 20:0 21:1 22:0.150707 23:0.172621 24:0.0549142 25:0.0352124 26:0.0168265 27:0.264592 28:0.0426474 29:0.243133 30:0.0193456 31:0.00125823 32:0.00360767 33:0.000557308 34:0.000987742 35:0.000403877 36:0.00111465 37:0.988722 38:0.0016266 39:0.00172154 
-0.209346116987938 1:0.979226 2:0.0172428 3:0.00353145 4:0.971157 5:0.157653 6:0.259168 7:0.0040218 8:0.264673 9:0.0787514 10:0.102055 11:0.20514 12:0.143174 13:0.0185539 14:0.0259772 15:0 16:0 17:0 18:1 19:0 20:0 21:1 22:0.0977812 23:0.342842 24:0.0122043 25:0.0161015 26:0.0112128 27:0.0735913 28:0.358742 29:0.073939 30:0.0135862 31:0.0481447 32:0.628033 33:0.131085 34:0.0236808 35:0.0316915 36:0.0182535 37:0.0817236 38:0.00793331 39:0.0294545 
-1.740093717949373 1:0.941907 2:0.0474137 3:0.0106796 4:0.968617 5:0.00989395 6:0.0831051 7:0.000905463 8:0.0690376 9:0.0299059 10:0.0541829 11:0.822024 12:0.00820627 13:0.00218131 14:0.00366276 15:0 16:0 17:0 18:0 19:0 20:0 21:0 22:0.0344981 23:0.177081 24:0.0770509 25:0.0301062 26:0.0129153 27:0.0632658 28:0.574107 29:0.0166877 30:0.0142883 31:0.0459776 32:0.619205 33:0.0808631 34:0.0334646 35:0.0148972 36:0.0429549 37:0.124165 38:0.0147837 39:0.023689 
-0.2568248944497609 1:0.996863 2:8.79726e-06 3:0.00312849 4:0.909704 5:0.127618 6:0.184054 7:0.00514344 8:0.212674 9:0.0414618 10:0.229415 11:0.177101 12:0.0499888 13:0.120794 14:0.0358035 15:0 16:0 17:0 18:0 19:0 20:0 21:0 22:0.0359395 23:0.0204617 24:0.170563 25:0.00542377 26:0.00132073 27:0.670467 28:0.088987 29:0.00481237 30:0.00202461 31:0.00411542 32:0.00342765 33:0.007149 34:0.00584628 35:0.00843175 36:0.036788 37:0.867114 38:0.0561328 39:0.0109949 
-2.270015659982397 1:0.999257 2:1.18679e-06 3:0.000741846 4:0.954445 5:0.018394 6:0.024857 7:0.0015301 8:0.310961 9:0.0458262 10:0.372901 11:0.186736 12:0.0172248 13:0.0423746 14:0.00405171 15:0 16:0 17:0 18:0 19:0 20:0 21:0 22:0.0130011 23:0.0229053 24:0.0399984 25:0.00707088 26:0.00514938 27:0.0393373 28:0.844507 29:0.0137821 30:0.0142484 31:0.00378863 32:0.00454886 33:0.00484597 34:0.00218705 35:0.00910779 36:0.0394538 37:0.866968 38:0.0580516 39:0.0110486 
-1.411321279731631 1:0.996272 2:0.00229056 3:0.00143741 4:0.964197 5:0.0121046 6:0.0252483 7:0.0342757 8:0.363532 9:0.124472 10:0.408892 11:0.025475 12:0.00547227 13:0.0157022 14:0.0100736 15:0 16:0 17:0 18:0 19:0 20:0 21:0 22:0.0417803 23:0.192361 24:0.137644 25:0.0114928 26:0.00965968 27:0.0360445 28:0.549546 29:0.0103366 30:0.0111348 31:0.014 32:0.158271 33:0.024573 34:0.0067342 35:0.00495089 36:0.0224203 37:0.735947 38:0.0191581 39:0.0139456 
-0.7903660882714186 1:0.997066 2:0.0024659 3:0.000467999 4:-0.662549 5:0.00993087 6:0.296584 7:0.00912067 8:0.0352893 9:0.00927521 10:0.372242 11:0.118053 12:0.226726 13:0.197125 14:0.0222378 15:0 16:0 17:0 18:0 19:0 20:0 21:0 22:0.0340062 23:0.0688469 24:0.0308983 25:0.0214696 26:0.0032447 27:0.0617919 28:0.699651 29:0.0309083 30:0.0491837 31:0.0138308 32:0.0475175 33:0.0656061 34:0.0238103 35:0.0330757 36:0.149021 37:0.511783 38:0.109851 39:0.0455049 
-3.069707860713907 1:0.945494 2:0.0224369 3:0.0320693 4:0.959167 5:0.00889678 6:0.395557 7:0.00853787 8:0.0124327 9:0.120969 10:0.118754 11:0.0451015 12:0.00734135 13:0.601078 14:0.0768891 15:0 16:0 17:0 18:0 19:0 20:0 21:0 22:0.0195682 23:0.116455 24:0.0518473 25:0.360334 26:0.0565854 27:0.0330399 28:0.0678939 29:0.159747 30:0.13453 31:0.0574451 32:0.344678 33:0.149739 34:0.121988 35:0.0338826 36:0.107499 37:0.0584563 38:0.0616259 39:0.0646862 
-1.660069025287217 1:0.890212 2:0.0985987 3:0.0111895 4:-0.969792 5:0.00554299 6:0.105382 7:0.0912153 8:0.0137463 9:0.106437 10:0.0430401 11:0.234487 12:0.454931 13:0.0138616 14:0.0367382 15:0 16:0 17:0 18:0 19:0 20:0 21:0 22:0.0287112 23:0.103164 24:0.0885914 25:0.0143247 26:0.0130182 27:0.143091 28:0.2302 29:0.186249 30:0.192651 31:0.00236542 32:0.00835121 33:0.00370803 34:0.00859329 35:0.29484 36:0.0174089 37:0.0459968 38:0.609205 39:0.00953118 
-2.35760218430493 1:0.988585 2:0.00774966 3:0.00366514 4:-0.909264 5:0.037305 6:0.624323 7:0.186548 8:0.0615135 9:0.0276974 10:0.0309433 11:0.290719 12:0.0465882 13:0.215098 14:0.103588 15:0 16:0 17:0 18:0 19:0 20:0 21:0 22:0.0139739 23:0.0248832 24:0.0312558 25:0.0667215 26:0.63037 27:0.00229661 28:0.00825895 29:0.182874 30:0.0393663 31:0.11 32:0.11 33:0.11 34:0.11 35:0.11 36:0.11 37:0.11 38:0.11 39:0.11 
-0.06176736532811898 1:0.998704 2:6.0848e-06 3:0.00129022 4:0.618514 5:0.00304904 6:0.431638 7:0.335312 8:0.00399107 9:0.00306099 10:0.00676938 11:0.0258397 12:0.0151282 13:0.314535 14:0.292315 15:0 16:0 17:0 18:0 19:0 20:0 21:0 22:0.00908004 23:0.0378076 24:0.0197811 25:0.0550956 26:0.0854422 27:0.0192845 28:0.0831972 29:0.235093 30:0.455219 31:0.11 32:0.11 33:0.11 34:0.11 35:0.11 36:0.11 37:0.11 38:0.11 39:0.11 
-0.08182852104156513 1:0.991098 2:0.0043943 3:0.00450769 4:0.763408 5:0.0387759 6:0.179906 7:0.011847 8:0.153963 9:0.107218 10:0.18283 11:0.279792 12:0.167243 13:0.0345036 14:0.0238278 15:0 16:0 17:0 18:1 19:0 20:0 21:1 22:0.106764 23:0.146309 24:0.144035 25:0.0711619 26:0.0474369 27:0.0862164 28:0.116988 29:0.171332 30:0.109756 31:0.0139592 32:0.0273826 33:0.0174671 34:0.0175284 35:0.00660457 36:0.0224093 37:0.836048 38:0.0466618 39:0.0119391 
-0.2130678659655 1:0.463123 2:0.502254 3:0.0346232 4:0.831318 5:0.0160269 6:0.0692709 7:0.00152642 8:0.142753 9:0.0793964 10:0.23226 11:0.25518 12:0.259366 13:0.0105674 14:0.00292494 15:0 16:1 17:0 18:0 19:0 20:0 21:1 22:0.0297798 23:0.0615925 24:0.00546792 25:0.0076019 26:0.00981142 27:0.0157192 28:0.46411 29:0.0195796 30:0.386338 31:0.000590167 32:0.00167559 33:0.00108369 34:0.000982835 35:0.000728664 36:0.00103041 37:0.985831 38:0.00159213 39:0.00648509 
-0.9146475385293682 1:0.990628 2:0.00650557 3:0.00286659 4:-0.741069 5:0.028522 6:0.57669 7:0.0675738 8:0.0210057 9:0.102532 10:0.0734974 11:0.21439 12:0.0184846 13:0.0593897 14:0.414604 15:0 16:0 17:0 18:0 19:0 20:0 21:0 22:0.111208 23:0.0675505 24:0.0367317 25:0.116528 26:0.369748 27:0.0324016 28:0.126151 29:0.117271 30:0.0224106 31:0.11 32:0.11 33:0.11 34:0.11 35:0.11 36:0.11 37:0.11 38:0.11 39:0.11 
-1.322883888753545 1:0.996566 2:0.00144903 3:0.00198546 4:0.96698 5:0.14129 6:0.198069 7:0.00107448 8:0.453776 9:0.00706494 10:0.0202246 11:0.304147 12:0.0502691 13:0.0205331 14:0.00162079 15:0 16:0 17:0 18:0 19:0 20:0 21:0 22:0.00749358 23:0.132805 24:0.0783911 25:0.0435357 26:0.00605614 27:0.115247 28:0.530366 29:0.036036 30:0.05007 31:0.0282917 32:0.31892 33:0.189219 34:0.0224339 35:0.0124609 36:0.0616243 37:0.303691 38:0.0267802 39:0.0365791 
-0.4226223700712303 1:0.968098 2:0.0185321 3:0.0133694 4:0.961682 5:0.0131445 6:0.626504 7:0.693347 8:0.0195015 9:0.0723934 10:0.0325371 11:0.00626761 12:0.00499174 13:0.101083 14:0.0567342 15:0 16:0 17:0 18:0 19:0 20:0 21:0 22:0.00962094 23:0.090412 24:0.37797 25:0.21061 26:0.0498401 27:0.0250797 28:0.137797 29:0.0282751 30:0.0703954 31:0.0256484 32:0.0760399 33:0.0154961 34:0.140286 35:0.641423 36:0.033413 37:0.0311536 38:0.012705 39:0.0238349 
-0.2779735322704205 1:0.994172 2:0.00327034 3:0.00255754 4:0.959225 5:0.00889094 6:0.0853352 7:0.00141135 8:0.0727556 9:0.00776591 10:0.0239043 11:0.844816 12:0.00302122 13:0.0072305 14:0.0302046 15:0 16:0 17:0 18:0 19:0 20:0 21:1 22:0.0172965 23:0.0359508 24:0.0275219 25:0.0152485 26:0.00455128 27:0.0595352 28:0.166209 29:0.0634321 30:0.610255 31:0.11 32:0.11 33:0.11 34:0.11 35:0.11 36:0.11 37:0.11 38:0.11 39:0.11 
-0.06447029427218748 1:0.982352 2:0.0125128 3:0.00513545 4:0.972604 5:0.0493372 6:0.357761 7:0.0116192 8:0.0640302 9:0.105816 10:0.0745132 11:0.0558937 12:0.00849497 13:0.39176 14:0.238536 15:0 16:1 17:0 18:0 19:0 20:0 21:0 22:0.0581254 23:0.576509 24:0.00399748 25:0.00854007 26:0.00254928 27:0.00661524 28:0.307667 29:0.0101965 30:0.0258003 31:0.000436874 32:0.00192588 33:0.000671636 34:0.00244776 35:0.0490426 36:0.00242357 37:0.813713 38:0.123141 39:0.00619767 
-0.01512689759344882 1:0.999871 2:1.00723e-06 3:0.000128315 4:0.97652 5:0.00755852 6:0.101087 7:0.00926243 8:0.0355231 9:0.0456642 10:0.0979064 11:0.443829 12:0.014961 13:0.283969 14:0.0613263 15:0 16:0 17:0 18:0 19:0 20:0 21:0 22:0.0168864 23:0.0268598 24:0.00462245 25:0.00486579 26:0.0212422 27:0.0117312 28:0.060168 29:0.804765 30:0.0488588 31:0.023482 32:0.0682698 33:0.0738792 34:0.0254229 35:0.0151146 36:0.0503077 37:0.683065 38:0.0185593 39:0.0418995 
-0.3380861058490486 1:0.960126 2:0.0307026 3:0.00917178 4:-0.854534 5:0.212343 6:0.420733 7:0.0094163 8:0.204439 9:0.0395818 10:0.09635 11:0.242747 12:0.0632365 13:0.076783 14:0.0551029 15:0 16:1 17:0 18:0 19:0 20:0 21:0 22:0.0534038 23:0.154201 24:0.0153317 25:0.0204552 26:0.0186518 27:0.0129917 28:0.440986 29:0.213308 30:0.0706711 31:0.00439913 32:0.0188329 33:0.00354833 34:0.00807604 35:0.0108739 36:0.00371505 37:0.918274 38:0.02697 39:0.00531106 
-0.2897432872586502 1:0.939827 2:0.0115468 3:0.0486266 4:0.892174 5:0.0361784 6:0.727149 7:0.000876576 8:0.0282145 9:0.0037206 10:0.0115509 11:0.869187 12:0.0267969 13:0.0204767 14:0.00299843 15:0 16:1 17:0 18:0 19:0 20:0 21:0 22:0.11453 23:0.127495 24:0.037743 25:0.0408939 26:0.0311112 27:0.020484 28:0.177575 29:0.0574747 30:0.392694 31:0.00198335 32:0.0172875 33:0.00265403 34:0.00330213 35:0.0109201 36:0.00353426 37:0.949468 38:0.00417896 39:0.00667146 
-0.3547477237576651 1:0.994877 2:0.00272041 3:0.0024022 4:-0.942814 5:0.00968133 6:0.0825078 7:0.158803 8:0.0461329 9:0.0350775 10:0.0327542 11:0.256628 12:0.388951 13:0.0210495 14:0.0509222 15:0 16:0 17:0 18:0 19:0 20:0 21:0 22:0.0117012 23:0.0533436 24:0.00957316 25:0.0281729 26:0.201322 27:0.0106305 28:0.200178 29:0.133144 30:0.351934 31:0.00117114 32:0.00286614 33:0.00319487 34:0.00146982 35:0.00150004 36:0.00167935 37:0.976394 38:0.00258384 39:0.00914107 
-0.6724618333600224 1:0.999757 2:8.23856e-07 3:0.000241964 4:0.527351 5:0.00716148 6:0.0708775 7:0.139337 8:0.0521554 9:0.0251471 10:0.101592 11:0.142832 12:0.430458 13:0.0267096 14:0.0746077 15:0 16:0 17:0 18:0 19:0 20:0 21:0 22:0.0941918 23:0.0663307 24:0.00535301 25:0.0660476 26:0.10505 27:0.020711 28:0.0679268 29:0.474262 30:0.100127 31:0.000625462 32:0.00645157 33:0.00286083 34:0.0494033 35:0.002699 36:0.00535425 37:0.00197735 38:0.0053825 39:0.925246 
-0.1245949267849665 1:0.854813 2:0.014042 3:0.131145 4:-0.831487 5:0.000780657 6:0.0619947 7:0.000369965 8:0.0185621 9:0.000987863 10:0.00283189 11:0.97227 12:0.00220643 13:0.00190263 14:8.82842e-05 15:0 16:1 17:0 18:0 19:0 20:0 21:0 22:0.0193866 23:0.0865113 24:0.0422633 25:0.0122819 26:0.00350546 27:0.0130566 28:0.659344 29:0.133701 30:0.0299496 31:0.000960253 32:0.00851486 33:0.00648383 34:0.00113767 35:0.000979443 36:0.00122964 37:0.971417 38:0.00147863 39:0.00779889 
-0.3464230550556531 1:0.993132 2:0.00299108 3:0.00387725 4:0.75985 5:0.00447908 6:0.0905323 7:0.000221043 8:0.0315824 9:0.00182796 10:0.0102429 11:0.933237 12:0.00663543 13:0.0112581 14:0.000516392 15:0 16:1 17:0 18:0 19:0 20:0 21:1 22:0.00576168 23:0.0317944 24:0.00722846 25:0.00177148 26:0.000298549 27:0.00204408 28:0.941369 29:0.00211743 30:0.00761487 31:0.000215542 32:0.000363408 33:0.000334015 34:0.000244999 35:0.000195328 36:0.00031262 37:0.995042 38:0.000297436 39:0.00299491 
-0.01005477515171264 1:0.997299 2:0.00232592 3:0.000375273 4:0.966066 5:0.042633 6:0.125672 7:0.0245083 8:0.415477 9:0.099808 10:0.0766123 11:0.167032 12:0.115532 13:0.0503181 14:0.00807928 15:0 16:1 17:0 18:1 19:0 20:0 21:1 22:0.188412 23:0.254462 24:0.0584422 25:0.0540441 26:0.0502209 27:0.0378877 28:0.181871 29:0.0476931 30:0.126968 31:1.03098e-05 32:3.00824e-05 33:2.69584e-05 34:1.21247e-05 35:9.1858e-06 36:1.39106e-05 37:0.998478 38:8.21486e-05 39:0.00133689 
-2.689340770348017 1:0.996488 2:0.00271256 3:0.000799521 4:-0.945818 5:0.0128891 6:0.174731 7:0.0104541 8:0.0422882 9:0.0371783 10:0.0780768 11:0.041561 12:0.0575588 13:0.100384 14:0.61961 15:0 16:0 17:0 18:0 19:0 20:0 21:0 22:0.135058 23:0.0557104 24:0.0103103 25:0.087336 26:0.390081 27:0.0100044 28:0.0448228 29:0.16759 30:0.0990872 31:0.0305538 32:0.622164 33:0.0313642 34:0.0558164 35:0.102627 36:0.0448647 37:0.0605787 38:0.0204845 39:0.0315467 
-1.754646966991918 1:0.982335 2:0.0128441 3:0.00482104 4:-0.646606 5:0.00798771 6:0.21711 7:0.0683471 8:0.0199699 9:0.0805704 10:0.14014 11:0.0361445 12:0.137064 13:0.0402671 14:0.469509 15:0 16:0 17:0 18:0 19:0 20:0 21:1 22:0.0415921 23:0.0715271 24:0.00839191 25:0.0774387 26:0.422788 27:0.00730001 28:0.0259314 29:0.120388 30:0.224642 31:0.0293541 32:0.646321 33:0.0252574 34:0.0575503 35:0.0990203 36:0.041164 37:0.0442326 38:0.0233771 39:0.033723 
-0.8173742786159746 1:0.960241 2:0.0252178 3:0.0145413 4:0.956402 5:0.110987 6:0.115783 7:0.000785086 8:0.660982 9:0.0797477 10:0.0110079 11:0.0953486 12:0.0277745 13:0.00775591 14:0.00561138 15:0 16:0 17:0 18:1 19:0 20:0 21:1 22:0.0216932 23:0.0419276 24:0.21295 25:0.0320521 26:0.0114231 27:0.0334703 28:0.54511 29:0.0389714 30:0.0624022 31:0.0438736 32:0.587022 33:0.0845358 34:0.028655 35:0.0187932 36:0.0670867 37:0.132393 38:0.0204975 39:0.0171431 
-0.04055110282683477 1:0.895531 2:0.0994529 3:0.00501591 4:0.58428 5:0.0243288 6:0.409826 7:0.0779123 8:0.0541736 9:0.0449316 10:0.0842308 11:0.0330244 12:0.150897 13:0.0575189 14:0.472983 15:0 16:1 17:0 18:0 19:0 20:0 21:0 22:0.127307 23:0.0886247 24:0.0114048 25:0.0520482 26:0.116153 27:0.0174984 28:0.0599067 29:0.395954 30:0.131103 31:0.00133251 32:0.00443194 33:0.00373938 34:0.00469568 35:0.0242714 36:0.0046527 37:0.916405 38:0.0217229 39:0.0187482 
-0.7041269634293421 1:0.996706 2:0.00165297 3:0.00164075 4:0.905231 5:0.0713992 6:0.33322 7:0.00154993 8:0.108976 9:0.161338 10:0.460913 11:0.148013 12:0.0253878 13:0.00828636 14:0.0141374 15:0 16:0 17:0 18:0 19:0 20:0 21:0 22:0.102971 23:0.10181 24:0.00913338 25:0.131369 26:0.336478 27:0.00878175 28:0.029444 29:0.0724802 30:0.207533 31:0.0581029 32:0.313034 33:0.138222 34:0.173155 35:0.0332454 36:0.103539 37:0.0582452 38:0.0618675 39:0.0605882 
-0.7651453102740486 1:0.938432 2:0.0110432 3:0.050525 4:0.704968 5:0.0407088 6:0.323626 7:0.00614157 8:0.112131 9:0.397972 10:0.0832049 11:0.139095 12:0.154474 13:0.0595205 14:0.00675212 15:0 16:1 17:0 18:1 19:0 20:0 21:0 22:0.00598011 23:0.0197827 24:0.0171475 25:0.709948 26:0.0169119 27:0.00478739 28:0.117968 29:0.0131782 30:0.0942963 31:0.00329742 32:0.0263059 33:0.00576155 34:0.0328104 35:0.0213354 36:0.00654662 37:0.88401 38:0.00759984 39:0.0123334 
-0.2951103585039483 1:0.337291 2:0.0334186 3:0.629291 4:-0.58371 5:0.0312825 6:0.097942 7:0.00203208 8:0.143078 9:0.105261 10:0.0529422 11:0.646077 12:0.00835456 13:0.00490306 14:0.00606966 15:0 16:1 17:0 18:0 19:0 20:0 21:1 22:0.0286897 23:0.150205 24:0.156731 25:0.0394492 26:0.014553 27:0.0594347 28:0.531965 29:0.00953549 30:0.00943793 31:0.00057043 32:0.0116422 33:0.00134013 34:0.000331772 35:0.000577971 36:0.000761178 37:0.983434 38:0.000249779 39:0.0010929 
-3.599412248909802 1:0.992252 2:0.00440249 3:0.0033451 4:0.938259 5:0.0147857 6:0.217187 7:0.0171561 8:0.0465409 9:0.0895823 10:0.295353 11:0.0870964 12:0.4247 13:0.0109661 14:0.0138194 15:0 16:0 17:0 18:0 19:0 20:0 21:0 22:0.0358282 23:0.0434405 24:0.527389 25:0.0396523 26:0.0362271 27:0.136792 28:0.110585 29:0.0150099 30:0.0550758 31:0.0162576 32:0.497386 33:0.148469 34:0.0388612 35:0.0734949 36:0.0657533 37:0.0108718 38:0.0174444 39:0.131462 
-0.3332631207032876 1:0.992711 2:0.00444677 3:0.00284204 4:0.863422 5:0.0245472 6:0.0393713 7:0.00391628 8:0.417191 9:0.0830692 10:0.193977 11:0.129686 12:0.0906412 13:0.0380177 14:0.0189548 15:0 16:0 17:0 18:0 19:0 20:0 21:0 22:0.0446707 23:0.070814 24:0.0324748 25:0.012399 26:0.0184927 27:0.0175131 28:0.106656 29:0.649597 30:0.0473823 31:0.00389405 32:0.00850251 33:0.00826189 34:0.00624034 35:0.00702554 36:0.053527 37:0.865087 38:0.0422775 39:0.00518426 
-0.4853728014140394 1:0.993625 2:0.00286137 3:0.00351381 4:0.938198 5:0.0437724 6:0.0686989 7:0.00184767 8:0.680196 9:0.010412 10:0.019416 11:0.182868 12:0.0413098 13:0.0175019 14:0.00267542 15:0 16:1 17:0 18:0 19:0 20:0 21:0 22:0.0573113 23:0.28706 24:0.299643 25:0.134599 26:0.0186147 27:0.0654755 28:0.1003 29:0.0082743 30:0.0287225 31:0.000281989 32:0.000300214 33:0.000344618 34:0.000214739 35:0.000992635 36:0.000271719 37:0.993411 38:0.00129957 39:0.0028836 
-1.499521016275014 1:0.547308 2:0.0261808 3:0.426512 4:-0.565847 5:0.0106117 6:0.103063 7:0.127628 8:0.0520502 9:0.0310211 10:0.0336182 11:0.479605 12:0.0846069 13:0.0264938 14:0.154365 15:0 16:0 17:0 18:0 19:0 20:0 21:1 22:0.0219781 23:0.0331554 24:0.0514073 25:0.0278349 26:0.0756455 27:0.0467648 28:0.607492 29:0.0290494 30:0.106673 31:0.11 32:0.11 33:0.11 34:0.11 35:0.11 36:0.11 37:0.11 38:0.11 39:0.11 
-0.7422264011318864 1:0.299796 2:0.675411 3:0.0247937 4:0.57599 5:0.00508254 6:0.0364235 7:0.11573 8:0.106542 9:0.108724 10:0.0952918 11:0.493413 12:0.0392901 13:0.024052 14:0.011875 15:0 16:0 17:0 18:0 19:0 20:0 21:1 22:0.0144576 23:0.0436357 24:0.0281016 25:0.020802 26:0.121004 27:0.0691189 28:0.579867 29:0.02406 30:0.0989534 31:0.11 32:0.11 33:0.11 34:0.11 35:0.11 36:0.11 37:0.11 38:0.11 39:0.11 
-0.2045324756077041 1:0.99892 2:1.94605e-06 3:0.00107778 4:0.919994 5:0.0450151 6:0.246084 7:0.0292719 8:0.118848 9:0.0338103 10:0.0836647 11:0.16179 12:0.36503 13:0.142784 14:0.019787 15:0 16:0 17:0 18:0 19:0 20:0 21:1 22:0.0134309 23:0.053592 24:0.0177987 25:0.0367569 26:0.00346841 27:0.0368519 28:0.822378 29:0.00317812 30:0.0125449 31:0.000215723 32:0.000487913 33:0.000463747 34:0.000296268 35:0.000319798 36:0.000380077 37:0.993912 38:0.000366281 39:0.00355851 
-0.3381754845076364 1:0.99242 2:0.00215146 3:0.00542843 4:0.854835 5:0.137385 6:0.696051 7:0.00310652 8:0.14358 9:0.0289781 10:0.0104882 11:0.552149 12:0.0834624 13:0.0285545 14:0.0122958 15:0 16:1 17:0 18:0 19:0 20:0 21:1 22:0.0994134 23:0.680188 24:0.0798908 25:0.0152767 26:0.0124126 27:0.00881867 28:0.0860753 29:0.0139099 30:0.00401494 31:0.000604674 32:0.00894524 33:0.0185273 34:0.000508401 35:0.00110782 36:0.000894854 37:0.963589 38:0.000442418 39:0.00538054 
-0.7487950724978839 1:0.939035 2:0.0315551 3:0.0294101 4:0.967813 5:0.464959 6:0.708555 7:0.00316756 8:0.220889 9:0.0351864 10:0.0484649 11:0.0636445 12:0.0960833 13:0.00409183 14:0.0635138 15:0 16:0 17:0 18:0 19:0 20:0 21:1 22:0.0977865 23:0.307192 24:0.011135 25:0.0265648 26:0.267493 27:0.0536309 28:0.0765163 29:0.0301196 30:0.129561 31:0.0967484 32:0.750256 33:0.0292202 34:0.0143224 35:0.0329161 36:0.0182086 37:0.0387285 38:0.00793662 39:0.011663 
-3.473457217304159 1:0.0819134 2:0.0339075 3:0.884179 4:0.59729 5:0.230588 6:0.356985 7:0.00117465 8:0.361406 9:0.00956912 10:0.103949 11:0.171474 12:0.0346607 13:0.0075975 14:0.0795815 15:0 16:0 17:0 18:0 19:0 20:0 21:1 22:0.23182 23:0.0915609 24:0.0188882 25:0.150211 26:0.291886 27:0.0830484 28:0.0690447 29:0.0530849 30:0.0104552 31:0.0417293 32:0.665106 33:0.0742523 34:0.0164992 35:0.0295106 36:0.0233044 37:0.117498 38:0.00845738 39:0.0236429 
