svm_type c_svc
kernel_type rbf
gamma 0.01
nr_class 2
total_sv 197
rho 0.433139
label 0 1
probA -5.8649
probB 0.895264
nr_sv 173 24
SV
1 1:0.5237 2:0.465296 3:0.0110042 4:0.966222 5:0.0805137 6:0.670373 7:0.0121883 8:0.0607255 9:0.304278 10:0.291525 11:0.0301226 12:0.0221035 13:0.0191128 14:0.179431 15:0 16:0 17:1 18:0 19:0 20:0 21:0 22:0.0990175 23:0.36585 24:0.0206009 25:0.0826755 26:0.113287 27:0.0143362 28:0.0944351 29:0.197826 30:0.0119717 31:0.00912783 32:0.0213093 33:0.0295064 34:0.0554405 35:0.773875 36:0.0228699 37:0.0494194 38:0.0220971 39:0.0163542 
1 1:0.281945 2:0.630387 3:0.0876686 4:-0.941925 5:0.0211818 6:0.207082 7:0.0908817 8:0.0296871 9:0.0197529 10:0.0804932 11:0.0619645 12:0.154821 13:0.0445477 14:0.49667 15:0 16:0 17:0 18:0 19:1 20:0 21:1 22:0.0157455 23:0.0458901 24:0.0114702 25:0.038756 26:0.371984 27:0.013926 28:0.12176 29:0.378973 30:0.00149549 31:0.00737105 32:0.0170261 33:0.032185 34:0.0270538 35:0.759467 36:0.0397316 37:0.0638096 38:0.0316873 39:0.0216688 
0.05730823348987506 1:0.00762288 2:0.971158 3:0.0212187 4:-0.880294 5:0.0926516 6:0.755558 7:0.00603877 8:0.0544342 9:0.0876222 10:0.0312105 11:0.00722183 12:0.0156905 13:0.376656 14:0.328474 15:0 16:0 17:0 18:0 19:0 20:0 21:0 22:0.0652439 23:0.0668156 24:0.0105523 25:0.0729315 26:0.66964 27:0.00691966 28:0.0684852 29:0.035787 30:0.0036253 31:0.00239475 32:0.0168108 33:0.040793 34:0.013443 35:0.896554 36:0.0109652 37:0.00714439 38:0.00286419 39:0.0090305 
1 1:0.00945303 2:0.0558612 3:0.934686 4:-0.960453 5:0.102724 6:0.510291 7:0.011277 8:0.142603 9:0.0268268 10:0.034211 11:0.0461556 12:0.02575 13:0.142282 14:0.468171 15:0 16:0 17:0 18:0 19:0 20:0 21:0 22:0.118905 23:0.0633428 24:0.0470226 25:0.280112 26:0.0539423 27:0.057785 28:0.0633563 29:0.0794966 30:0.236038 31:0.11 32:0.11 33:0.11 34:0.11 35:0.11 36:0.11 37:0.11 38:0.11 39:0.11 
1 1:0.523941 2:0.447237 3:0.0288221 4:-0.837295 5:0.0460987 6:0.447846 7:0.00679751 8:0.048879 9:0.00354665 10:0.0317655 11:0.0498732 12:0.0223578 13:0.108965 14:0.681717 15:0 16:0 17:0 18:0 19:0 20:0 21:0 22:0.212805 23:0.191623 24:0.00912388 25:0.0460175 26:0.148837 27:0.0115129 28:0.229039 29:0.146271 30:0.00477096 31:0.0261786 32:0.079515 33:0.0159365 34:0.0217152 35:0.729329 36:0.0224007 37:0.0720777 38:0.00715304 39:0.0256942 
1 1:0.873841 2:0.0637151 3:0.0624441 4:-0.696663 5:0.00711361 6:0.0965115 7:0.0129306 8:0.0341413 9:0.153673 10:0.30966 11:0.16117 12:0.267695 13:0.00638165 14:0.0472354 15:0 16:0 17:0 18:0 19:0 20:0 21:0 22:0.0326953 23:0.254523 24:0.0199584 25:0.0222729 26:0.496908 27:0.00470661 28:0.0978872 29:0.0672373 30:0.00381201 31:0.0196522 32:0.0784283 33:0.0274006 34:0.00927512 35:0.773296 36:0.0143249 37:0.0330637 38:0.0174068 39:0.027152 
1 1:0.935202 2:0.0505992 3:0.0141987 4:-0.673154 5:0.00183222 6:0.0427497 7:0.0486635 8:0.01974 9:0.0118145 10:0.0949382 11:0.073424 12:0.0362635 13:0.0116355 14:0.701689 15:0 16:0 17:0 18:0 19:0 20:0 21:0 22:0.273023 23:0.118187 24:0.0397621 25:0.0225374 26:0.122714 27:0.167388 28:0.211818 29:0.0392942 30:0.00527619 31:0.0156654 32:0.0250285 33:0.0190436 34:0.0538687 35:0.721911 36:0.0223446 37:0.0168897 38:0.0255202 39:0.0997282 
1 1:0.992387 2:0.00457875 3:0.00303413 4:-0.656033 5:0.00564785 6:0.0908457 7:0.167694 8:0.0204924 9:0.0421548 10:0.0891689 11:0.159688 12:0.0546116 13:0.0343168 14:0.426225 15:0 16:0 17:0 18:0 19:0 20:0 21:0 22:0.467889 23:0.0804369 24:0.0300247 25:0.0288743 26:0.0427322 27:0.16006 28:0.153404 29:0.0320111 30:0.00456776 31:0.0189038 32:0.0225447 33:0.0169306 34:0.0621611 35:0.70553 36:0.0186304 37:0.0200496 38:0.0212389 39:0.114011 
1 1:0.997505 2:0.00212623 3:0.000368764 4:0.963008 5:0.0219162 6:0.123324 7:0.00927836 8:0.188587 9:0.265976 10:0.121027 11:0.0218562 12:0.0895672 13:0.0198296 14:0.261963 15:0 16:0 17:0 18:1 19:0 20:0 21:0 22:0.037225 23:0.296655 24:0.0163774 25:0.0191912 26:0.357528 27:0.0123572 28:0.222567 29:0.0328275 30:0.00527148 31:0.0581797 32:0.680256 33:0.0284208 34:0.0172993 35:0.0959957 36:0.0225122 37:0.0491743 38:0.0129893 39:0.0351727 
1 1:0.00241547 2:0.00743534 3:0.990149 4:-0.945257 5:0.624003 6:0.913889 7:0.00297926 8:0.0781571 9:0.116175 10:0.0195035 11:0.00939059 12:0.055254 13:0.00876744 14:0.0857697 15:1 16:0 17:0 18:1 19:0 20:0 21:1 22:0.0596042 23:0.0239178 24:0.00671382 25:0.137065 26:0.419516 27:0.0169424 28:0.0327137 29:0.29451 30:0.0090171 31:0.11 32:0.11 33:0.11 34:0.11 35:0.11 36:0.11 37:0.11 38:0.11 39:0.11 
1 1:0.00516625 2:0.0129173 3:0.981916 4:-0.957108 5:0.0828226 6:0.329444 7:0.00414819 8:0.199144 9:0.0632771 10:0.0426031 11:0.00912898 12:0.0430841 13:0.0295267 14:0.526265 15:0 16:0 17:0 18:0 19:0 20:0 21:1 22:0.110279 23:0.287739 24:0.0204937 25:0.0203412 26:0.361552 27:0.0138077 28:0.122948 29:0.0588607 30:0.00397791 31:0.0187314 32:0.0460216 33:0.0288795 34:0.00607174 35:0.765202 36:0.00682752 37:0.0933342 38:0.0175463 39:0.0173857 
1 1:0.998976 2:1.94646e-06 3:0.00102216 4:-0.615947 5:0.0343093 6:0.19516 7:0.00824316 8:0.0920973 9:0.0508593 10:0.074516 11:0.196384 12:0.0458994 13:0.00705674 14:0.490634 15:0 16:0 17:0 18:0 19:0 20:0 21:0 22:0.0611626 23:0.0570985 24:0.00773449 25:0.135651 26:0.369601 27:0.0124721 28:0.0513062 29:0.301846 30:0.00312788 31:0.11 32:0.11 33:0.11 34:0.11 35:0.11 36:0.11 37:0.11 38:0.11 39:0.11 
1 1:0.996711 2:0.00280503 3:0.000483999 4:0.957751 5:0.0521652 6:0.287829 7:0.116751 8:0.208978 9:0.0716889 10:0.271643 11:0.0609514 12:0.0147901 13:0.109391 14:0.0936425 15:0 16:0 17:0 18:0 19:0 20:0 21:1 22:0.108874 23:0.0325132 24:0.00968694 25:0.125024 26:0.133536 27:0.00757783 28:0.0397772 29:0.514716 30:0.0282949 31:0.11 32:0.11 33:0.11 34:0.11 35:0.11 36:0.11 37:0.11 38:0.11 39:0.11 
1 1:0.991342 2:0.00607788 3:0.00257972 4:-0.639526 5:0.0176 6:0.308883 7:0.00175794 8:0.0698692 9:0.00149931 10:0.0387841 11:0.00647653 12:0.00778855 13:0.79702 14:0.0592049 15:0 16:0 17:0 18:0 19:0 20:0 21:0 22:0.0397289 23:0.0791703 24:0.00928513 25:0.035469 26:0.0905894 27:0.0353514 28:0.187258 29:0.520398 30:0.0027499 31:0.0152717 32:0.0599095 33:0.01087 34:0.745745 35:0.0456446 36:0.0291897 37:0.0265687 38:0.0236857 39:0.0431149 
1 1:0.746045 2:0.209236 3:0.0447194 4:-0.949914 5:0.0322062 6:0.190999 7:0.0576835 8:0.0499398 9:0.0558018 10:0.110751 11:0.100119 12:0.435116 13:0.0749615 14:0.0834213 15:0 16:0 17:1 18:0 19:0 20:0 21:0 22:0.0215375 23:0.143355 24:0.31351 25:0.0837797 26:0.102434 27:0.0314276 28:0.112785 29:0.179443 30:0.0117288 31:0.0209065 32:0.694293 33:0.168842 34:0.0333784 35:0.0193121 36:0.0178894 37:0.0185499 38:0.0145461 39:0.0122822 
1 1:0.915909 2:0.0771768 3:0.00691475 4:-0.862264 5:0.00532605 6:0.0774491 7:0.110203 8:0.0219287 9:0.0559851 10:0.240533 11:0.0436835 12:0.40054 13:0.0200531 14:0.101748 15:0 16:0 17:1 18:0 19:0 20:0 21:0 22:0.025828 23:0.111445 24:0.347688 25:0.206369 26:0.05054 27:0.0185354 28:0.0821735 29:0.149702 30:0.00771973 31:0.0169122 32:0.565314 33:0.331092 34:0.0285318 35:0.0150575 36:0.0185134 37:0.0129671 38:0.00652316 39:0.00508885 
1 1:0.978249 2:0.00493843 3:0.0168128 4:-0.510186 5:0.0215664 6:0.153772 7:0.022152 8:0.0692961 9:0.0302574 10:0.229242 11:0.245159 12:0.0537714 13:0.0892773 14:0.239278 15:0 16:0 17:0 18:0 19:0 20:0 21:0 22:0.0203828 23:0.149234 24:0.449039 25:0.0363214 26:0.0743015 27:0.0367952 28:0.087378 29:0.140482 30:0.00606574 31:0.0162419 32:0.552112 33:0.34892 34:0.0165595 35:0.021268 36:0.0108647 37:0.0197278 38:0.00590393 39:0.00840159 
1 1:0.982776 2:0.00316464 3:0.0140597 4:-0.96141 5:0.161888 6:0.839795 7:0.0206053 8:0.0360072 9:0.00973608 10:0.00607258 11:0.0491999 12:0.0337966 13:0.217052 14:0.465642 15:1 16:0 17:0 18:0 19:0 20:0 21:1 22:0.0681332 23:0.0614936 24:0.0179723 25:0.176679 26:0.409953 27:0.0100897 28:0.0304503 29:0.220095 30:0.00513498 31:0.11 32:0.11 33:0.11 34:0.11 35:0.11 36:0.11 37:0.11 38:0.11 39:0.11 
1 1:0.997828 2:6.57309e-06 3:0.0021653 4:-0.920906 5:0.040603 6:0.331268 7:0.00687196 8:0.0713092 9:0.0523759 10:0.12773 11:0.0338851 12:0.118327 13:0.121254 14:0.427644 15:0 16:0 17:0 18:0 19:0 20:0 21:1 22:0.0176092 23:0.0508858 24:0.061143 25:0.494795 26:0.259204 27:0.00602946 28:0.0229211 29:0.0843868 30:0.00302564 31:0.11 32:0.11 33:0.11 34:0.11 35:0.11 36:0.11 37:0.11 38:0.11 39:0.11 
0.6676398178393229 1:0.965796 2:0.0268007 3:0.00740341 4:0.978937 5:0.0148256 6:0.145158 7:0.0296445 8:0.084626 9:0.0103536 10:0.239894 11:0.028165 12:0.0196587 13:0.0559239 14:0.516908 15:0 16:0 17:1 18:0 19:0 20:0 21:1 22:0.0538944 23:0.0240654 24:0.0112438 25:0.0863043 26:0.529017 27:0.00253196 28:0.0310947 29:0.251225 30:0.0106234 31:0.11 32:0.11 33:0.11 34:0.11 35:0.11 36:0.11 37:0.11 38:0.11 39:0.11 
1 1:0.287655 2:0.662146 3:0.0501985 4:0.620489 5:0.100208 6:0.780291 7:0.0133421 8:0.0252276 9:0.0567665 10:0.0572524 11:0.0499548 12:0.0632758 13:0.148303 14:0.48567 15:0 16:0 17:0 18:1 19:0 20:0 21:0 22:0.171685 23:0.175434 24:0.0591263 25:0.248325 26:0.0800744 27:0.0358158 28:0.0999159 29:0.0984615 30:0.0311624 31:0.11 32:0.11 33:0.11 34:0.11 35:0.11 36:0.11 37:0.11 38:0.11 39:0.11 
1 1:0.483734 2:0.489178 3:0.0270873 4:0.607776 5:0.0193081 6:0.636812 7:0.0100506 8:0.0128779 9:0.361968 10:0.132388 11:0.0547863 12:0.118108 13:0.101996 14:0.188517 15:0 16:0 17:0 18:0 19:0 20:0 21:0 22:0.0066882 23:0.0918138 24:0.0450625 25:0.73205 26:0.0526804 27:0.0056932 28:0.0493384 29:0.00883553 30:0.00783813 31:0.11 32:0.11 33:0.11 34:0.11 35:0.11 36:0.11 37:0.11 38:0.11 39:0.11 
1 1:0.867263 2:0.11765 3:0.0150865 4:0.851203 5:0.0233514 6:0.465224 7:0.00648642 8:0.025969 9:0.254042 10:0.482221 11:0.0274162 12:0.0804279 13:0.0496054 14:0.0504809 15:0 16:0 17:0 18:0 19:0 20:0 21:0 22:0.0203838 23:0.0176364 24:0.042623 25:0.708242 26:0.19059 27:0.00435292 28:0.00333955 29:0.011012 30:0.00182118 31:0.11 32:0.11 33:0.11 34:0.11 35:0.11 36:0.11 37:0.11 38:0.11 39:0.11 
1 1:0.957257 2:0.0120443 3:0.0306987 4:-0.947061 5:0.0157322 6:0.250879 7:0.030325 8:0.0353938 9:0.0929299 10:0.0640701 11:0.206249 12:0.0232355 13:0.101469 14:0.430595 15:0 16:0 17:0 18:0 19:0 20:0 21:0 22:0.0151104 23:0.0342513 24:0.0148713 25:0.426127 26:0.427042 27:0.00103185 28:0.01704 29:0.0613716 30:0.0031543 31:0.11 32:0.11 33:0.11 34:0.11 35:0.11 36:0.11 37:0.11 38:0.11 39:0.11 
1 1:0.0257812 2:0.956865 3:0.0173541 4:-0.625116 5:0.0482362 6:0.342849 7:0.0229053 8:0.120255 9:0.104545 10:0.0600929 11:0.0682298 12:0.15183 13:0.0253109 14:0.398595 15:0 16:0 17:0 18:0 19:0 20:0 21:0 22:0.0530756 23:0.120532 24:0.0144815 25:0.0819646 26:0.528028 27:0.00969907 28:0.133418 29:0.0542854 30:0.00451547 31:0.0159149 32:0.0556971 33:0.0152553 34:0.0240141 35:0.825055 36:0.0219555 37:0.0115462 38:0.00545892 39:0.0251026 
1 1:0.996517 2:1.1733e-05 3:0.00347143 4:-0.514789 5:0.0694006 6:0.419257 7:0.158393 8:0.0633603 9:0.0183218 10:0.0390962 11:0.120551 12:0.0571192 13:0.285748 14:0.188011 15:0 16:0 17:0 18:0 19:0 20:0 21:0 22:0.0439011 23:0.116331 24:0.0514376 25:0.0689011 26:0.0663348 27:0.0400703 28:0.272168 29:0.336715 30:0.00414025 31:0.11 32:0.11 33:0.11 34:0.11 35:0.11 36:0.11 37:0.11 38:0.11 39:0.11 
1 1:0.974222 2:0.0224638 3:0.00331376 4:-0.645133 5:0.252581 6:0.533118 7:0.0187007 8:0.160899 9:0.0327227 10:0.0299846 11:0.0355067 12:0.218323 13:0.13449 14:0.116792 15:0 16:0 17:0 18:0 19:0 20:0 21:0 22:0.0361838 23:0.350768 24:0.0470197 25:0.210098 26:0.166555 27:0.0326119 28:0.0473528 29:0.107411 30:0.00199941 31:0.00300999 32:0.00775353 33:0.00355103 34:0.0180495 35:0.303865 36:0.0255574 37:0.0732629 38:0.553584 39:0.0113663 
1 1:0.0124137 2:0.0158548 3:0.971732 4:-0.771802 5:0.00189968 6:0.256743 7:0.0419584 8:0.00605091 9:0.000248386 10:0.00532258 11:0.000686181 12:0.001503 13:0.195794 14:0.746537 15:0 16:0 17:0 18:0 19:0 20:0 21:0 22:0.0684456 23:0.0344384 24:0.00810408 25:0.0827461 26:0.726214 27:0.0185351 28:0.0229999 29:0.0364082 30:0.00210878 31:0.11 32:0.11 33:0.11 34:0.11 35:0.11 36:0.11 37:0.11 38:0.11 39:0.11 
1 1:0.0302256 2:0.773737 3:0.196037 4:-0.515169 5:0.0014038 6:0.179343 7:0.0562435 8:0.00481173 9:8.95349e-05 10:0.00173495 11:0.000630155 12:0.000275478 13:0.458268 14:0.476543 15:0 16:0 17:0 18:0 19:0 20:0 21:1 22:0.0769213 23:0.038542 24:0.00650494 25:0.0452512 26:0.752596 27:0.00582854 28:0.00343338 29:0.0656161 30:0.00530708 31:0.0371386 32:0.168058 33:0.0494345 34:0.144215 35:0.090241 36:0.060691 37:0.0698462 38:0.109684 39:0.270693 
1 1:0.528858 2:0.0287995 3:0.442342 4:-0.951017 5:0.0898348 6:0.406504 7:0.00479194 8:0.164992 9:0.113095 10:0.304184 11:0.241468 12:0.0503842 13:0.014562 14:0.0166884 15:0 16:0 17:0 18:0 19:0 20:0 21:0 22:0.0785063 23:0.0529262 24:0.0139523 25:0.0952389 26:0.177833 27:0.0247867 28:0.135085 29:0.419212 30:0.00245883 31:0.00300999 32:0.00775353 33:0.00355103 34:0.0180495 35:0.303865 36:0.0255574 37:0.0732629 38:0.553584 39:0.0113663 
1 1:0.359407 2:0.012542 3:0.628051 4:-0.80726 5:0.0615026 6:0.370429 7:0.0135619 8:0.116915 9:0.0489781 10:0.11679 11:0.0274188 12:0.0413371 13:0.0183384 14:0.555158 15:0 16:0 17:0 18:1 19:0 20:0 21:1 22:0.0239588 23:0.0932606 24:0.0110809 25:0.0147187 26:0.4031 27:0.0277745 28:0.345064 29:0.062818 30:0.018224 31:0.00691093 32:0.0248061 33:0.00654435 34:0.00307089 35:0.908004 36:0.00815142 37:0.0160152 38:0.0102931 39:0.0162044 
1 1:0.795662 2:0.170306 3:0.0340319 4:-0.637658 5:0.00212549 6:0.0668022 7:0.278555 8:0.00981981 9:0.0153424 10:0.054305 11:0.0355304 12:0.017214 13:0.0842621 14:0.502846 15:0 16:0 17:0 18:0 19:1 20:0 21:1 22:0.0360415 23:0.0624622 24:0.0153 25:0.0724283 26:0.0815497 27:0.0148136 28:0.0482504 29:0.641071 30:0.0280829 31:0.018695 32:0.03006 33:0.0276301 34:0.188336 35:0.524785 36:0.0549126 37:0.0625705 38:0.065003 39:0.0280074 
0.6254895949182415 1:0.985514 2:0.00872979 3:0.00575654 4:-0.860826 5:0.0285888 6:0.585887 7:0.275969 8:0.0235951 9:0.00239821 10:0.0311447 11:0.0105545 12:0.0146007 13:0.0930949 14:0.520054 15:0 16:0 17:0 18:0 19:0 20:0 21:0 22:0.0727049 23:0.0250346 24:0.0126786 25:0.158403 26:0.345372 27:0.0281447 28:0.0161355 29:0.337192 30:0.00433504 31:0.11 32:0.11 33:0.11 34:0.11 35:0.11 36:0.11 37:0.11 38:0.11 39:0.11 
1 1:0.964217 2:0.00454073 3:0.0312425 4:-0.948556 5:0.0910825 6:0.692019 7:0.053901 8:0.0631718 9:0.0100251 10:0.0495557 11:0.0133508 12:0.0148584 13:0.286226 14:0.417829 15:0 16:0 17:0 18:0 19:0 20:0 21:0 22:0.213916 23:0.100652 24:0.0116931 25:0.0717929 26:0.136909 27:0.0198137 28:0.122765 29:0.318277 30:0.00418122 31:0.0328266 32:0.744983 33:0.0180879 34:0.0801038 35:0.038025 36:0.0109158 37:0.0516027 38:0.00956934 39:0.0138854 
1 1:0.98522 2:0.00304761 3:0.0117324 4:-0.844556 5:0.0297025 6:0.489135 7:0.00729527 8:0.0806905 9:0.0333618 10:0.174569 11:0.410126 12:0.101162 13:0.0448167 14:0.118277 15:0 16:0 17:0 18:0 19:0 20:0 21:0 22:0.053537 23:0.20209 24:0.0226679 25:0.0948615 26:0.371336 27:0.0157286 28:0.120597 29:0.113806 30:0.00537686 31:0.00202134 32:0.00595753 33:0.00458858 34:0.026415 35:0.300896 36:0.0252313 37:0.0406477 38:0.576644 39:0.0175979 
1 1:0.654194 2:0.212555 3:0.13325 4:-0.926618 5:0.205175 6:0.868372 7:0.0134592 8:0.025778 9:0.0257118 10:0.0910563 11:0.0120567 12:0.0111044 13:0.0520621 14:0.563596 15:0 16:0 17:0 18:0 19:0 20:0 21:1 22:0.0264909 23:0.0649663 24:0.0295502 25:0.430682 26:0.363113 27:0.00314665 28:0.0176362 29:0.0620858 30:0.00232943 31:0.00683378 32:0.0157569 33:0.0138253 34:0.0116536 35:0.110297 36:0.149479 37:0.0466023 38:0.629026 39:0.0165263 
1 1:0.0408704 2:0.891188 3:0.0679418 4:-0.940603 5:0.366997 6:0.704066 7:0.016909 8:0.0861312 9:0.217895 10:0.0606996 11:0.0400905 12:0.0214408 13:0.117957 14:0.0718796 15:0 16:0 17:0 18:0 19:0 20:0 21:1 22:0.0453318 23:0.125349 24:0.0248821 25:0.20077 26:0.514106 27:0.0162299 28:0.0498421 29:0.0182745 30:0.00521442 31:0.00669538 32:0.00919541 33:0.00860144 34:0.0124096 35:0.3494 36:0.0478979 37:0.0526588 38:0.491515 39:0.0216268 
1 1:0.4266 2:0.011228 3:0.562172 4:-0.873754 5:0.645279 6:0.807291 7:0.0255339 8:0.13298 9:0.00390791 10:0.0257408 11:0.00716435 12:0.024907 13:0.0897157 14:0.0447719 15:0 16:0 17:0 18:0 19:0 20:0 21:0 22:0.0317378 23:0.116598 24:0.0313561 25:0.104673 26:0.600497 27:0.00652612 28:0.0466334 29:0.0592572 30:0.00272236 31:0.11 32:0.11 33:0.11 34:0.11 35:0.11 36:0.11 37:0.11 38:0.11 39:0.11 
1 1:0.994168 2:0.0042564 3:0.00157609 4:0.972393 5:0.00475001 6:0.0160815 7:0.0523013 8:0.045252 9:0.034497 10:0.461534 11:0.132292 12:0.185238 13:0.00648223 14:0.0776538 15:0 16:0 17:0 18:0 19:0 20:0 21:0 22:0.0547302 23:0.172714 24:0.0651523 25:0.175905 26:0.158786 27:0.0249003 28:0.129804 29:0.212651 30:0.00535674 31:0.00320356 32:0.00730912 33:0.00387104 34:0.0202913 35:0.264151 36:0.0141061 37:0.0949184 38:0.572678 39:0.0194713 
1 1:0.985924 2:0.00239854 3:0.0116776 4:-0.725996 5:0.00947393 6:0.167196 7:0.0148358 8:0.0328651 9:0.0637694 10:0.256616 11:0.0686421 12:0.0536135 13:0.199938 14:0.300246 15:0 16:0 17:0 18:0 19:0 20:0 21:1 22:0.0199115 23:0.0283662 24:0.0127596 25:0.130729 26:0.353669 27:0.00961921 28:0.033958 29:0.408795 30:0.00219242 31:0.11 32:0.11 33:0.11 34:0.11 35:0.11 36:0.11 37:0.11 38:0.11 39:0.11 
1 1:0.767765 2:0.211925 3:0.0203099 4:-0.854068 5:0.0649295 6:0.698944 7:0.033769 8:0.0697951 9:0.0793524 10:0.169887 11:0.141768 12:0.197231 13:0.0565725 14:0.186696 15:0 16:0 17:0 18:0 19:0 20:0 21:0 22:0.0304133 23:0.0269994 24:0.013359 25:0.10896 26:0.589663 27:0.00959986 28:0.0400723 29:0.170188 30:0.0107452 31:0.11 32:0.11 33:0.11 34:0.11 35:0.11 36:0.11 37:0.11 38:0.11 39:0.11 
1 1:0.535059 2:0.265779 3:0.199162 4:0.868787 5:0.00488003 6:0.202534 7:0.0120866 8:0.0241309 9:0.0177346 10:0.032199 11:0.0510106 12:0.00378845 13:0.0207477 14:0.833422 15:0 16:0 17:1 18:0 19:0 20:0 21:0 22:0.0305644 23:0.0182901 24:0.0104019 25:0.0750841 26:0.167496 27:0.0108163 28:0.0352968 29:0.646224 30:0.0058267 31:0.11 32:0.11 33:0.11 34:0.11 35:0.11 36:0.11 37:0.11 38:0.11 39:0.11 
1 1:0.895389 2:0.0362151 3:0.0683963 4:0.897562 5:0.0156932 6:0.157456 7:0.0147036 8:0.0518857 9:0.0602359 10:0.13182 11:0.0548802 12:0.0146188 13:0.167943 14:0.48822 15:0 16:0 17:1 18:0 19:0 20:0 21:0 22:0.0748316 23:0.0222532 24:0.026861 25:0.120085 26:0.252385 27:0.01558 28:0.0286116 29:0.453153 30:0.00624016 31:0.11 32:0.11 33:0.11 34:0.11 35:0.11 36:0.11 37:0.11 38:0.11 39:0.11 
1 1:0.805996 2:0.0155867 3:0.178417 4:-0.965776 5:0.0166181 6:0.342487 7:0.141994 8:0.0348546 9:0.060979 10:0.11918 11:0.0509911 12:0.0730235 13:0.197275 14:0.305085 15:0 16:0 17:0 18:0 19:0 20:0 21:0 22:0.06427 23:0.0412917 24:0.0118001 25:0.101573 26:0.661092 27:0.00406336 28:0.0219776 29:0.0871973 30:0.0067349 31:0.11 32:0.11 33:0.11 34:0.11 35:0.11 36:0.11 37:0.11 38:0.11 39:0.11 
1 1:0.545976 2:0.0159025 3:0.438121 4:-0.857189 5:0.00246562 6:0.539876 7:0.0102235 8:0.00361014 9:0.0134186 10:0.0428557 11:0.0161996 12:0.0874144 13:0.386443 14:0.437369 15:0 16:0 17:0 18:0 19:0 20:0 21:0 22:0.0624108 23:0.0560051 24:0.0157822 25:0.140261 26:0.503126 27:0.0083908 28:0.0293976 29:0.179847 30:0.00477832 31:0.11 32:0.11 33:0.11 34:0.11 35:0.11 36:0.11 37:0.11 38:0.11 39:0.11 
1 1:0.998273 2:3.26938e-06 3:0.00172395 4:-0.94001 5:0.0292196 6:0.259634 7:0.0203788 8:0.102374 9:0.226219 10:0.141372 11:0.178683 12:0.0179406 13:0.0219662 14:0.261847 15:0 16:0 17:0 18:0 19:0 20:0 21:0 22:0.0565269 23:0.11687 24:0.0155898 25:0.0198128 26:0.569834 27:0.0118881 28:0.152437 29:0.0533399 30:0.00370191 31:0.0804994 32:0.727484 33:0.0264393 34:0.0139077 35:0.0934859 36:0.0148383 37:0.0283237 38:0.0068466 39:0.00817512 
1 1:0.879146 2:0.115931 3:0.00492263 4:0.943722 5:0.0169358 6:0.11543 7:0.0243824 8:0.20683 9:0.0203799 10:0.182196 11:0.0267166 12:0.0562664 13:0.338233 14:0.12806 15:0 16:0 17:0 18:0 19:0 20:0 21:0 22:0.0219756 23:0.180572 24:0.0808452 25:0.507551 26:0.0551081 27:0.024779 28:0.124576 29:0.00107795 30:0.0035149 31:0.11 32:0.11 33:0.11 34:0.11 35:0.11 36:0.11 37:0.11 38:0.11 39:0.11 
1 1:0.416197 2:0.0355884 3:0.548215 4:-0.633365 5:0.0235131 6:0.119351 7:0.0989313 8:0.132989 9:0.189045 10:0.284644 11:0.0865488 12:0.00833216 13:0.106777 14:0.0692198 15:0 16:0 17:0 18:0 19:1 20:0 21:1 22:0.0188287 23:0.0962539 24:0.0145107 25:0.0483059 26:0.564126 27:0.0177088 28:0.0186748 29:0.214464 30:0.0071277 31:0.0038354 32:0.0153822 33:0.0201573 34:0.00569679 35:0.831871 36:0.0408911 37:0.0528497 38:0.0173716 39:0.0119455 
0.08911235380712126 1:0.996221 2:0.00189733 3:0.00188175 4:-0.84853 5:0.00495796 6:0.068429 7:0.05355 8:0.0153581 9:0.260039 10:0.422391 11:0.0700541 12:0.113919 13:0.0172327 14:0.0424984 15:0 16:0 17:0 18:0 19:1 20:0 21:1 22:0.0181864 23:0.0894653 24:0.0150686 25:0.0195886 26:0.613799 27:0.00529609 28:0.0713437 29:0.165376 30:0.00187571 31:0.0041377 32:0.0139343 33:0.0222446 34:0.0206918 35:0.792687 36:0.0458791 37:0.0547139 38:0.0271298 39:0.0185823 
1 1:0.812647 2:0.0902453 3:0.0971079 4:0.92733 5:0.0567194 6:0.303322 7:0.0538171 8:0.135623 9:0.0509081 10:0.0380433 11:0.0300141 12:0.0055899 13:0.473715 14:0.15557 15:0 16:0 17:0 18:0 19:0 20:0 21:0 22:0.180477 23:0.310133 24:0.0459538 25:0.222889 26:0.0626191 27:0.0592107 28:0.0450021 29:0.028287 30:0.045428 31:0.11 32:0.11 33:0.11 34:0.11 35:0.11 36:0.11 37:0.11 38:0.11 39:0.11 
1 1:0.989518 2:0.00639254 3:0.00408956 4:-0.630725 5:0.0433814 6:0.289226 7:0.0410742 8:0.0662681 9:0.0440028 10:0.0371046 11:0.0486771 12:0.00486038 13:0.0729409 14:0.641691 15:0 16:0 17:0 18:0 19:0 20:0 21:0 22:0.186432 23:0.322922 24:0.07127 25:0.302571 26:0.0410653 27:0.0241529 28:0.0221779 29:0.00825605 30:0.0211529 31:0.00669538 32:0.00919541 33:0.00860144 34:0.0124096 35:0.3494 36:0.0478979 37:0.0526588 38:0.491515 39:0.0216268 
1 1:0.992296 2:0.00366024 3:0.00404389 4:-0.64432 5:0.0222252 6:0.485637 7:0.00789982 8:0.0118833 9:0.00471404 10:0.0112872 11:0.037798 12:0.00696085 13:0.840464 14:0.0567672 15:0 16:0 17:0 18:0 19:0 20:0 21:0 22:0.0629849 23:0.191774 24:0.0299361 25:0.232116 26:0.24632 27:0.0195548 28:0.0555912 29:0.140983 30:0.0207399 31:0.0292894 32:0.634391 33:0.0288154 34:0.0543793 35:0.100859 36:0.0454109 37:0.0587662 38:0.0201938 39:0.0278953 
1 1:0.969212 2:0.0217541 3:0.00903392 4:-0.853973 5:0.0658621 6:0.336589 7:0.0341631 8:0.0963474 9:0.031896 10:0.0632989 11:0.0227848 12:0.0113127 13:0.502841 14:0.171493 15:0 16:0 17:0 18:0 19:0 20:0 21:0 22:0.0797411 23:0.172633 24:0.141615 25:0.0579151 26:0.0975073 27:0.216802 28:0.072564 29:0.144343 30:0.0168793 31:0.11 32:0.11 33:0.11 34:0.11 35:0.11 36:0.11 37:0.11 38:0.11 39:0.11 
1 1:0.920697 2:0.0268696 3:0.0524339 4:-0.908513 5:0.0244483 6:0.235272 7:0.0315514 8:0.0661903 9:0.0291453 10:0.0639649 11:0.0732618 12:0.0340988 13:0.299952 14:0.377387 15:0 16:0 17:0 18:0 19:0 20:0 21:0 22:0.0714943 23:0.134091 24:0.302903 25:0.0665534 26:0.059558 27:0.164458 28:0.0815123 29:0.112497 30:0.00693312 31:0.0280244 32:0.63898 33:0.0260265 34:0.0815021 35:0.0444284 36:0.0378711 37:0.109175 38:0.0144219 39:0.0195705 
1 1:0.900035 2:0.0647063 3:0.0352585 4:-0.544076 5:0.00868379 6:0.119003 7:0.014634 8:0.0283227 9:0.0163756 10:0.0596983 11:0.0388794 12:0.0479933 13:0.577306 14:0.208107 15:0 16:0 17:0 18:0 19:0 20:0 21:0 22:0.0435986 23:0.0428407 24:0.030548 25:0.177859 26:0.592231 27:0.0147824 28:0.0215642 29:0.0727128 30:0.00386291 31:0.028744 32:0.676929 33:0.0258613 34:0.0545854 35:0.0431725 36:0.029672 37:0.100793 38:0.0169282 39:0.0233142 
1 1:0.876337 2:0.110462 3:0.0132017 4:-0.780463 5:0.00624916 6:0.104728 7:0.0161121 8:0.0385432 9:0.010651 10:0.0481705 11:0.0122905 12:0.00858803 13:0.497471 14:0.361925 15:0 16:0 17:0 18:0 19:0 20:0 21:0 22:0.0733862 23:0.0731276 24:0.0659425 25:0.158985 26:0.495194 27:0.0184874 28:0.0304377 29:0.0800059 30:0.00443321 31:0.0292894 32:0.634391 33:0.0288154 34:0.0543793 35:0.100859 36:0.0454109 37:0.0587662 38:0.0201938 39:0.0278953 
1 1:0.00269687 2:0.988114 3:0.00918932 4:-0.950857 5:0.00659651 6:0.078658 7:0.00377508 8:0.0496042 9:0.086073 10:0.246768 11:0.126397 12:0.391268 13:0.00611008 14:0.0834082 15:0 16:0 17:0 18:0 19:0 20:0 21:0 22:0.0134014 23:0.0113909 24:0.020809 25:0.436711 26:0.0636556 27:0.0114247 28:0.0281279 29:0.412807 30:0.001673 31:0.0126766 32:0.0197167 33:0.0201024 34:0.0533232 35:0.796477 36:0.0227923 37:0.0331169 38:0.0266151 39:0.0151798 
1 1:0.961294 2:0.00946951 3:0.0292364 4:-0.958158 5:0.00641064 6:0.189964 7:0.0741551 8:0.0102421 9:0.00572953 10:0.0105631 11:0.0390132 12:0.00790967 13:0.132744 14:0.713233 15:0 16:0 17:1 18:0 19:0 20:0 21:0 22:0.0247422 23:0.0511834 24:0.0155843 25:0.184226 26:0.375381 27:0.00414768 28:0.0153004 29:0.323923 30:0.0055123 31:0.11 32:0.11 33:0.11 34:0.11 35:0.11 36:0.11 37:0.11 38:0.11 39:0.11 
1 1:0.127208 2:0.82087 3:0.051922 4:-0.712355 5:0.00197118 6:0.166795 7:0.00241081 8:0.0170597 9:0.0473863 10:0.228472 11:0.0878968 12:0.138866 13:0.0199322 14:0.456005 15:1 16:0 17:0 18:0 19:0 20:0 21:1 22:0.0275237 23:0.0418261 24:0.0109416 25:0.0986299 26:0.659224 27:0.00821223 28:0.0300283 29:0.122414 30:0.00119971 31:0.0585807 32:0.186264 33:0.0829452 34:0.141534 35:0.145856 36:0.144408 37:0.0767665 38:0.0514897 39:0.112156 
1 1:0.995917 2:0.00144874 3:0.00263379 4:0.865578 5:0.0274723 6:0.321668 7:0.0105 8:0.100314 9:0.0212642 10:0.0932042 11:0.00864997 12:0.0138401 13:0.44676 14:0.277995 15:0 16:0 17:0 18:0 19:0 20:0 21:1 22:0.258153 23:0.142057 24:0.0273682 25:0.0492423 26:0.11016 27:0.0145856 28:0.128903 29:0.234001 30:0.0355295 31:0.11 32:0.11 33:0.11 34:0.11 35:0.11 36:0.11 37:0.11 38:0.11 39:0.11 
1 1:0.623862 2:0.288332 3:0.0878062 4:-0.717759 5:0.0308181 6:0.148308 7:0.0234843 8:0.243248 9:0.0586397 10:0.152901 11:0.0619903 12:0.0652606 13:0.0158048 14:0.347853 15:0 16:0 17:0 18:0 19:0 20:0 21:0 22:0.16706 23:0.0688469 24:0.00531292 25:0.0497547 26:0.355262 27:0.0159496 28:0.0614401 29:0.272545 30:0.00382917 31:0.054397 32:0.0603905 33:0.0382677 34:0.0471309 35:0.695668 36:0.0390723 37:0.0283919 38:0.0098849 39:0.026797 
1 1:0.00631816 2:0.0182845 3:0.975397 4:-0.967298 5:0.0123405 6:0.131256 7:0.218212 8:0.0638461 9:0.0105507 10:0.083114 11:0.0679621 12:0.0493653 13:0.0276883 14:0.466921 15:0 16:0 17:0 18:0 19:0 20:0 21:1 22:0.0250887 23:0.0333327 24:0.00299786 25:0.0844787 26:0.746539 27:0.0065217 28:0.0548998 29:0.0442517 30:0.00188977 31:0.0177193 32:0.0371519 33:0.018692 34:0.0952168 35:0.726713 36:0.0265392 37:0.0349652 38:0.00933966 39:0.0336625 
1 1:0.948048 2:0.0466093 3:0.00534255 4:-0.747697 5:0.0236369 6:0.205618 7:0.0332008 8:0.105117 9:0.0274478 10:0.122443 11:0.302436 12:0.0485697 13:0.0275396 14:0.309608 15:0 16:0 17:1 18:0 19:0 20:0 21:0 22:0.0685954 23:0.0417532 24:0.00669425 25:0.0922386 26:0.656971 27:0.0296232 28:0.0433134 29:0.0577269 30:0.0030838 31:0.0205949 32:0.0428968 33:0.0221081 34:0.109014 35:0.684924 36:0.0248714 37:0.0434245 38:0.0104683 39:0.0416981 
1 1:0.0584964 2:0.919698 3:0.0218052 4:-0.531696 5:0.073722 6:0.630746 7:0.0372609 8:0.045303 9:0.131524 10:0.142314 11:0.0584644 12:0.32407 13:0.132442 14:0.0549003 15:0 16:0 17:0 18:0 19:0 20:0 21:0 22:0.0391339 23:0.0291085 24:0.00296106 25:0.12068 26:0.634531 27:0.00110646 28:0.0283687 29:0.141865 30:0.00224497 31:0.11 32:0.11 33:0.11 34:0.11 35:0.11 36:0.11 37:0.11 38:0.11 39:0.11 
1 1:0.939977 2:0.0563629 3:0.00366031 4:-0.950633 5:0.00704183 6:0.279885 7:0.400843 8:0.0286712 9:0.0144361 10:0.0771369 11:0.0203394 12:0.033027 13:0.266843 14:0.151661 15:0 16:0 17:0 18:0 19:0 20:0 21:1 22:0.292605 23:0.259713 24:0.0094076 25:0.0526652 26:0.151457 27:0.0408202 28:0.0995644 29:0.0871333 30:0.00663432 31:0.11 32:0.11 33:0.11 34:0.11 35:0.11 36:0.11 37:0.11 38:0.11 39:0.11 
1 1:0.999234 2:3.87932e-06 3:0.000762118 4:-0.661679 5:0.426212 6:0.641376 7:0.00430286 8:0.204312 9:0.0292504 10:0.0385392 11:0.104625 12:0.0177388 13:0.0145528 14:0.160467 15:0 16:0 17:0 18:0 19:0 20:0 21:0 22:0.0480173 23:0.0618689 24:0.0161565 25:0.127727 26:0.522854 27:0.00384956 28:0.0771603 29:0.137064 30:0.00530305 31:0.11 32:0.11 33:0.11 34:0.11 35:0.11 36:0.11 37:0.11 38:0.11 39:0.11 
1 1:0.972488 2:0.0201116 3:0.00739998 4:0.85117 5:0.00234465 6:0.0944137 7:0.591916 8:0.027126 9:0.0042689 10:0.089817 11:0.0405768 12:0.00543511 13:0.168085 14:0.0704308 15:0 16:0 17:0 18:0 19:0 20:0 21:0 22:0.0194561 23:0.131345 24:0.315425 25:0.0441799 26:0.0264414 27:0.292385 28:0.100898 29:0.0247024 30:0.0451669 31:0.00320356 32:0.00730912 33:0.00387104 34:0.0202913 35:0.264151 36:0.0141061 37:0.0949184 38:0.572678 39:0.0194713 
1 1:0.992957 2:0.00125466 3:0.00578861 4:0.788194 5:0.00331578 6:0.0643781 7:0.147461 8:0.0148105 9:0.0138343 10:0.061904 11:0.0883493 12:0.623772 13:0.0154458 14:0.0311066 15:0 16:0 17:0 18:0 19:0 20:0 21:1 22:0.188634 23:0.111035 24:0.0209856 25:0.0890268 26:0.113308 27:0.0695702 28:0.0908814 29:0.307089 30:0.00947013 31:0.0341875 32:0.0847227 33:0.0651407 34:0.132005 35:0.213337 36:0.0830873 37:0.0682699 38:0.0759754 39:0.243275 
1 1:0.993197 2:0.00615435 3:0.000648245 4:-0.914237 5:0.00745286 6:0.189944 7:0.137253 8:0.0328905 9:0.00463168 10:0.0226624 11:0.017053 12:0.459345 13:0.0568811 14:0.26183 15:0 16:0 17:0 18:0 19:0 20:0 21:0 22:0.116557 23:0.150182 24:0.0094956 25:0.227785 26:0.377355 27:0.0137381 28:0.0680662 29:0.029149 30:0.00767246 31:0.0161543 32:0.0787682 33:0.0137331 34:0.525524 35:0.245823 36:0.0248718 37:0.052185 38:0.0141966 39:0.0287448 
1 1:0.902028 2:0.0555916 3:0.0423806 4:0.88628 5:0.0160943 6:0.276513 7:0.0119167 8:0.0575793 9:0.416261 10:0.373933 11:0.038157 12:0.0514705 13:0.0114865 14:0.0231016 15:1 16:0 17:0 18:1 19:0 20:0 21:1 22:0.0654269 23:0.0793735 24:0.0149181 25:0.0228848 26:0.226782 27:0.008789 28:0.177923 29:0.399034 30:0.00486847 31:0.00706821 32:0.0339641 33:0.0513505 34:0.0387388 35:0.796973 36:0.0395645 37:0.00625873 38:0.0037286 39:0.0223536 
1 1:0.982465 2:0.0144643 3:0.00307069 4:0.972108 5:0.00581316 6:0.115892 7:0.0226259 8:0.0146992 9:0.0158711 10:0.440372 11:0.0820939 12:0.341125 13:0.0208072 14:0.0565923 15:0 16:0 17:0 18:0 19:0 20:0 21:0 22:0.0883702 23:0.06747 24:0.0341652 25:0.126163 26:0.154945 27:0.0313251 28:0.283581 29:0.201556 30:0.012424 31:0.11 32:0.11 33:0.11 34:0.11 35:0.11 36:0.11 37:0.11 38:0.11 39:0.11 
1 1:0.98473 2:0.00347267 3:0.0117969 4:0.853628 5:0.0873988 6:0.45861 7:0.107095 8:0.121059 9:0.0606496 10:0.0309265 11:0.0376782 12:0.0127192 13:0.267428 14:0.275046 15:0 16:0 17:0 18:0 19:0 20:0 21:0 22:0.0964051 23:0.129046 24:0.0989269 25:0.097641 26:0.0316852 27:0.41947 28:0.0723695 29:0.0169781 30:0.0374788 31:0.11 32:0.11 33:0.11 34:0.11 35:0.11 36:0.11 37:0.11 38:0.11 39:0.11 
1 1:0.992368 2:0.00632197 3:0.00130967 4:0.940126 5:0.00632082 6:0.229358 7:0.0371387 8:0.0270512 9:0.468643 10:0.316977 11:0.0351054 12:0.05475 13:0.0139369 14:0.040077 15:0 16:0 17:0 18:0 19:0 20:0 21:1 22:0.0496299 23:0.14032 24:0.0526428 25:0.159089 26:0.0840019 27:0.0437222 28:0.18708 29:0.27912 30:0.00439509 31:0.00300999 32:0.00775353 33:0.00355103 34:0.0180495 35:0.303865 36:0.0255574 37:0.0732629 38:0.553584 39:0.0113663 
1 1:0.257136 2:0.702431 3:0.0404332 4:-0.803231 5:0.038321 6:0.346594 7:0.00626864 8:0.121825 9:0.114772 10:0.0413059 11:0.20783 12:0.00910016 13:0.0159375 14:0.444639 15:0 16:0 17:0 18:0 19:0 20:0 21:1 22:0.0467864 23:0.129814 24:0.023412 25:0.241129 26:0.437196 27:0.00708254 28:0.0123461 29:0.0986351 30:0.00359887 31:0.00965243 32:0.0349613 33:0.0286701 34:0.0128173 35:0.563697 36:0.0564918 37:0.0570722 38:0.217404 39:0.0192333 
0.5528886741149326 1:0.135084 2:0.836619 3:0.0282971 4:0.531137 5:0.0547813 6:0.176521 7:0.0277421 8:0.229977 9:0.0922582 10:0.124576 11:0.0931377 12:0.018156 13:0.0422115 14:0.31716 15:0 16:0 17:0 18:0 19:0 20:0 21:1 22:0.0542734 23:0.0140777 24:0.0219733 25:0.155827 26:0.653607 27:0.00342555 28:0.0427222 29:0.0511492 30:0.00294456 31:0.00592511 32:0.0296278 33:0.0276872 34:0.0116339 35:0.469805 36:0.0760358 37:0.0411584 38:0.323553 39:0.0145735 
1 1:0.248038 2:0.0503296 3:0.701633 4:0.939128 5:0.00307091 6:0.0353934 7:0.0206781 8:0.0192884 9:0.0142451 10:0.0211229 11:0.51613 12:0.0591937 13:0.0541559 14:0.292115 15:0 16:0 17:0 18:0 19:0 20:0 21:1 22:0.0609843 23:0.0687774 24:0.0398594 25:0.0892661 26:0.336312 27:0.0192945 28:0.273151 29:0.10689 30:0.00546574 31:0.00683378 32:0.0157569 33:0.0138253 34:0.0116536 35:0.110297 36:0.149479 37:0.0466023 38:0.629026 39:0.0165263 
1 1:0.0246409 2:0.0204539 3:0.954905 4:0.90712 5:0.0047576 6:0.0746676 7:0.0471875 8:0.0158153 9:0.0175969 10:0.0817375 11:0.278942 12:0.0471234 13:0.0111288 14:0.495711 15:0 16:0 17:0 18:0 19:0 20:0 21:1 22:0.0475798 23:0.14764 24:0.0266072 25:0.0512299 26:0.231431 27:0.0539497 28:0.267692 29:0.168895 30:0.00497586 31:0.00669538 32:0.00919541 33:0.00860144 34:0.0124096 35:0.3494 36:0.0478979 37:0.0526588 38:0.491515 39:0.0216268 
1 1:0.502852 2:0.0583469 3:0.438801 4:0.883728 5:0.0022157 6:0.0850317 7:0.00898666 8:0.0109016 9:0.0102509 10:0.0144983 11:0.0501016 12:0.0231619 13:0.0288567 14:0.851027 15:1 16:0 17:0 18:0 19:0 20:0 21:0 22:0.0305186 23:0.0786827 24:0.0138786 25:0.0255293 26:0.0957838 27:0.0891983 28:0.176939 29:0.486917 30:0.002553 31:0.00682694 32:0.0136021 33:0.0113926 34:0.00947228 35:0.0983246 36:0.125976 37:0.0551086 38:0.670192 39:0.00910487 
1 1:0.973528 2:0.00903219 3:0.0174397 4:-0.609896 5:0.0296301 6:0.428999 7:0.0343918 8:0.0332457 9:0.0570093 10:0.0665534 11:0.38115 12:0.115437 13:0.0928726 14:0.18971 15:0 16:0 17:1 18:0 19:0 20:0 21:1 22:0.047916 23:0.0627046 24:0.0156017 25:0.0180357 26:0.169364 27:0.0262531 28:0.577304 29:0.0795923 30:0.00322954 31:0.00108029 32:0.00306635 33:0.00319327 34:0.00518528 35:0.92243 36:0.00398154 37:0.0162154 38:0.0295156 39:0.0153322 
1 1:0.354007 2:0.611839 3:0.034154 4:0.883907 5:0.0104731 6:0.131844 7:0.0719381 8:0.0587505 9:0.0637462 10:0.131988 11:0.135769 12:0.170004 13:0.0727304 14:0.284602 15:0 16:0 17:1 18:1 19:0 20:0 21:0 22:0.0345238 23:0.0728288 24:0.00781327 25:0.0240413 26:0.352889 27:0.0109957 28:0.4201 29:0.0709618 30:0.00584587 31:0.00127209 32:0.00355447 33:0.0030498 34:0.011354 35:0.888127 36:0.0130825 37:0.0258121 38:0.0387141 39:0.0150341 
1 1:0.0575882 2:0.9028 3:0.039612 4:-0.904986 5:0.099282 6:0.53035 7:0.214927 8:0.139699 9:0.028191 10:0.128798 11:0.0722718 12:0.176661 13:0.0170695 14:0.123101 15:0 16:0 17:0 18:1 19:0 20:0 21:1 22:0.0412209 23:0.0443723 24:0.00990452 25:0.0396288 26:0.710203 27:0.0055437 28:0.087461 29:0.0562151 30:0.00545033 31:0.00145009 32:0.00666053 33:0.0158863 34:0.00280465 35:0.94405 36:0.0033286 37:0.0101979 38:0.00654682 39:0.00907473 
1 1:0.997557 2:0.00166004 3:0.000782579 4:-0.93786 5:0.0351858 6:0.249361 7:0.033935 8:0.0328944 9:0.0527152 10:0.0463473 11:0.151458 12:0.0325505 13:0.225186 14:0.389728 15:0 16:0 17:0 18:0 19:0 20:0 21:0 22:0.0266076 23:0.06405 24:0.0771602 25:0.181977 26:0.272216 27:0.0392496 28:0.234485 29:0.0964161 30:0.00783823 31:0.11 32:0.11 33:0.11 34:0.11 35:0.11 36:0.11 37:0.11 38:0.11 39:0.11 
1 1:0.969157 2:0.0045139 3:0.0263293 4:-0.611992 5:0.223384 6:0.742363 7:0.0223987 8:0.115581 9:0.0501266 10:0.211972 11:0.0560503 12:0.0243066 13:0.0204078 14:0.275773 15:0 16:0 17:0 18:0 19:0 20:0 21:0 22:0.0815164 23:0.0478359 24:0.00896528 25:0.0922105 26:0.491636 27:0.0559537 28:0.0364478 29:0.182504 30:0.00292978 31:0.11 32:0.11 33:0.11 34:0.11 35:0.11 36:0.11 37:0.11 38:0.11 39:0.11 
0.2271392323128248 1:0.993647 2:0.00573685 3:0.000616361 4:-0.926311 5:0.043598 6:0.290149 7:0.0411061 8:0.0967907 9:0.0249531 10:0.121641 11:0.018327 12:0.00383934 13:0.0218469 14:0.627898 15:0 16:0 17:0 18:0 19:0 20:0 21:1 22:0.0823959 23:0.0184904 24:0.00693609 25:0.22673 26:0.537876 27:0.0017049 28:0.018763 29:0.103935 30:0.0031688 31:0.11 32:0.11 33:0.11 34:0.11 35:0.11 36:0.11 37:0.11 38:0.11 39:0.11 
1 1:0.913663 2:0.0325989 3:0.0537377 4:0.929738 5:0.0467895 6:0.110344 7:0.0123651 8:0.145229 9:0.127192 10:0.584015 11:0.0212783 12:0.0137907 13:0.0402278 14:0.00911304 15:0 16:0 17:0 18:0 19:0 20:0 21:0 22:0.0525726 23:0.338052 24:0.0553182 25:0.366679 26:0.0617886 27:0.0383973 28:0.0274318 29:0.0477934 30:0.0119665 31:0.00689979 32:0.018903 33:0.0210683 34:0.0366922 35:0.744783 36:0.0259594 37:0.0382305 38:0.0829698 39:0.0244936 
1 1:0.994576 2:0.00256052 3:0.00286391 4:0.878149 5:0.0255542 6:0.1786 7:0.0777753 8:0.0538073 9:0.0205911 10:0.192996 11:0.0298221 12:0.0260576 13:0.199336 14:0.374061 15:0 16:0 17:1 18:0 19:0 20:0 21:1 22:0.0721374 23:0.0266514 24:0.0134691 25:0.077149 26:0.634947 27:0.00855937 28:0.0315717 29:0.131761 30:0.00375417 31:0.00621759 32:0.015789 33:0.0146148 34:0.0111125 35:0.0973143 36:0.193043 37:0.0615266 38:0.582667 39:0.0177155 
1 1:0.995834 2:2.41146e-05 3:0.00414152 4:-0.803935 5:0.0351815 6:0.714718 7:0.0254511 8:0.0157204 9:0.0134725 10:0.0151167 11:0.0181257 12:0.00463452 13:0.0671765 14:0.805121 15:0 16:0 17:1 18:0 19:0 20:0 21:0 22:0.0579736 23:0.158626 24:0.012393 25:0.0324505 26:0.643388 27:0.0116675 28:0.0138114 29:0.0647061 30:0.0049843 31:0.11 32:0.11 33:0.11 34:0.11 35:0.11 36:0.11 37:0.11 38:0.11 39:0.11 
1 1:0.147486 2:0.83084 3:0.0216739 4:-0.771347 5:0.00841588 6:0.398628 7:0.0256707 8:0.0204281 9:0.0038702 10:0.0827873 11:0.0227107 12:0.0461956 13:0.00781167 14:0.78211 15:0 16:0 17:0 18:0 19:0 20:0 21:1 22:0.307159 23:0.0723819 24:0.00627199 25:0.0542047 26:0.450307 27:0.0153732 28:0.00682225 29:0.0789958 30:0.0084835 31:0.0350593 32:0.0654222 33:0.0352758 34:0.0327327 35:0.725132 36:0.039613 37:0.0318978 38:0.0101697 39:0.0246976 
1 1:0.954425 2:0.0314335 3:0.0141418 4:-0.667261 5:0.058764 6:0.37386 7:0.0296165 8:0.149666 9:0.0129726 10:0.29478 11:0.0371117 12:0.0342153 13:0.130957 14:0.251917 15:0 16:0 17:0 18:0 19:0 20:1 21:1 22:0.505295 23:0.0800728 24:0.0222823 25:0.0573767 26:0.214903 27:0.0203877 28:0.00733826 29:0.0855096 30:0.00683513 31:0.0391349 32:0.057517 33:0.0308293 34:0.0255694 35:0.744841 36:0.0307772 37:0.0287051 38:0.0115816 39:0.0310449 
1 1:0.98857 2:0.00767033 3:0.00375926 4:0.803011 5:0.0291996 6:0.231552 7:0.0941264 8:0.135422 9:0.139908 10:0.27112 11:0.0843143 12:0.0183826 13:0.0428984 14:0.184628 15:0 16:0 17:0 18:0 19:0 20:0 21:0 22:0.167437 23:0.089997 24:0.0106379 25:0.0306889 26:0.280633 27:0.0297271 28:0.105254 29:0.282281 30:0.00334376 31:0.11 32:0.11 33:0.11 34:0.11 35:0.11 36:0.11 37:0.11 38:0.11 39:0.11 
1 1:0.927817 2:0.0635773 3:0.00860545 4:-0.95007 5:0.00233385 6:0.167957 7:0.290301 8:0.0147106 9:0.00202387 10:0.0927566 11:0.00504888 12:0.0238741 13:0.124536 14:0.444414 15:0 16:0 17:0 18:0 19:0 20:0 21:1 22:0.0328541 23:0.0100844 24:0.00351689 25:0.0962685 26:0.367836 27:0.00102777 28:0.017139 29:0.465397 30:0.00587651 31:0.11 32:0.11 33:0.11 34:0.11 35:0.11 36:0.11 37:0.11 38:0.11 39:0.11 
1 1:0.994831 2:0.00184233 3:0.00332706 4:-0.802291 5:0.112156 6:0.418877 7:0.0113475 8:0.114422 9:0.144319 10:0.099806 11:0.149711 12:0.00716675 13:0.0902594 14:0.270812 15:0 16:0 17:0 18:0 19:0 20:0 21:0 22:0.122582 23:0.0597177 24:0.0334005 25:0.266795 26:0.0760644 27:0.0298676 28:0.0990704 29:0.308214 30:0.00428753 31:0.11 32:0.11 33:0.11 34:0.11 35:0.11 36:0.11 37:0.11 38:0.11 39:0.11 
1 1:0.979359 2:0.0166622 3:0.00397833 4:-0.936655 5:0.00384901 6:0.0738302 7:0.00607087 8:0.0247142 9:0.0288482 10:0.152737 11:0.0221373 12:0.185963 13:0.0327181 14:0.542963 15:0 16:0 17:0 18:0 19:0 20:0 21:0 22:0.0390212 23:0.0326303 24:0.0900399 25:0.537342 26:0.145279 27:0.0209413 28:0.123984 29:0.00513051 30:0.00563143 31:0.00648524 32:0.0290603 33:0.0267912 34:0.0129323 35:0.563573 36:0.0734368 37:0.0387903 38:0.234377 39:0.0145547 
1 1:0.882478 2:0.105955 3:0.0115673 4:-0.828984 5:0.020953 6:0.127959 7:0.00349433 8:0.135806 9:0.0324685 10:0.130473 11:0.179552 12:0.0642574 13:0.0318139 14:0.401182 15:0 16:0 17:0 18:0 19:0 20:0 21:0 22:0.00628828 23:0.00799876 24:0.151331 25:0.748241 26:0.0328729 27:0.0434712 28:0.00446404 29:0.0039381 30:0.00139477 31:0.00927949 32:0.0265501 33:0.0223821 34:0.01421 35:0.620947 36:0.0644104 37:0.0279751 38:0.203531 39:0.0107153 
1 1:0.998927 2:3.0834e-06 3:0.00107023 4:-0.776623 5:0.0388033 6:0.708333 7:0.0413856 8:0.0338061 9:0.0275038 10:0.0119111 11:0.102051 12:0.0212061 13:0.214389 14:0.508943 15:0 16:0 17:0 18:0 19:0 20:0 21:0 22:0.037772 23:0.171949 24:0.036766 25:0.544931 26:0.0142971 27:0.0932979 28:0.0315267 29:0.00312743 30:0.0663321 31:0.11 32:0.11 33:0.11 34:0.11 35:0.11 36:0.11 37:0.11 38:0.11 39:0.11 
1 1:0.998505 2:2.41918e-06 3:0.00149279 4:-0.893567 5:0.0301381 6:0.127013 7:0.163997 8:0.152439 9:0.029283 10:0.107563 11:0.319963 12:0.0631248 13:0.0753919 14:0.0580996 15:0 16:0 17:0 18:0 19:0 20:0 21:0 22:0.0138452 23:0.0697644 24:0.0777109 25:0.738378 26:0.0582611 27:0.0166388 28:0.010709 29:0.00568166 30:0.00901139 31:0.00400625 32:0.0136309 33:0.00788577 34:0.0103102 35:0.448181 36:0.0216088 37:0.0488023 38:0.423745 39:0.02183 
1 1:0.982463 2:0.0141212 3:0.00341619 4:0.960661 5:0.11537 6:0.724441 7:0.0844616 8:0.0482405 9:0.0242687 10:0.297919 11:0.0710464 12:0.0284145 13:0.111639 14:0.21864 15:0 16:0 17:0 18:0 19:0 20:0 21:0 22:0.00634112 23:0.0726019 24:0.225157 25:0.0239692 26:0.0117278 27:0.510412 28:0.0960833 29:0.0185476 30:0.0351604 31:0.00486309 32:0.0117773 33:0.00774776 34:0.025067 35:0.432044 36:0.0172072 37:0.087125 38:0.393474 39:0.0206949 
1 1:0.101562 2:0.707854 3:0.190584 4:-0.843448 5:0.0122735 6:0.202813 7:0.0127776 8:0.0361727 9:0.0126682 10:0.0383657 11:0.109936 12:0.0171198 13:0.0346136 14:0.726073 15:0 16:0 17:0 18:0 19:0 20:0 21:1 22:0.0740314 23:0.0623189 24:0.00811754 25:0.0724632 26:0.0671258 27:0.015235 28:0.0580285 29:0.639026 30:0.00365356 31:0.000342238 32:0.0245351 33:0.00189584 34:0.00235847 35:0.943455 36:0.000966184 37:0.0102337 38:0.0155004 39:0.000713074 
1 1:0.132025 2:0.792868 3:0.0751073 4:-0.968385 5:0.0199169 6:0.293182 7:0.0106688 8:0.0297859 9:0.0587812 10:0.218431 11:0.0874626 12:0.0479915 13:0.0396536 14:0.487309 15:0 16:0 17:0 18:0 19:0 20:0 21:1 22:0.0198292 23:0.0287193 24:0.00373981 25:0.0421407 26:0.660097 27:0.00725321 28:0.065687 29:0.170269 30:0.00226428 31:0.000397157 32:0.00533692 33:0.00163546 34:0.00328886 35:0.954149 36:0.00399481 37:0.00992995 38:0.0148712 39:0.0063963 
1 1:0.934487 2:0.0256819 3:0.0398314 4:-0.951703 5:0.0107829 6:0.230432 7:0.408476 8:0.0298125 9:0.0157126 10:0.0555495 11:0.0686503 12:0.111927 13:0.0619337 14:0.237155 15:0 16:0 17:0 18:0 19:0 20:0 21:0 22:0.842064 23:0.0749667 24:0.00928057 25:0.0190739 26:0.0118457 27:0.0169735 28:0.0226214 29:0.00179395 30:0.00138076 31:0.00574961 32:0.00827064 33:0.0210005 34:0.0322177 35:0.0126821 36:0.0577149 37:0.790271 38:0.0628229 39:0.00927119 
1 1:0.927405 2:0.0175677 3:0.0550272 4:-0.637459 5:0.119425 6:0.564574 7:0.0495538 8:0.0822962 9:0.0149279 10:0.0215118 11:0.0193144 12:0.00645728 13:0.447605 14:0.238909 15:1 16:0 17:0 18:1 19:0 20:0 21:1 22:0.0620887 23:0.0583449 24:0.00610136 25:0.131258 26:0.58932 27:0.0143367 28:0.0574625 29:0.0777007 30:0.00338764 31:0.11 32:0.11 33:0.11 34:0.11 35:0.11 36:0.11 37:0.11 38:0.11 39:0.11 
1 1:0.995389 2:0.00170163 3:0.00290961 4:-0.782968 5:0.0516646 6:0.301527 7:0.106863 8:0.0834311 9:0.0119308 10:0.0417826 11:0.0176132 12:0.00974886 13:0.136873 14:0.540092 15:0 16:0 17:0 18:1 19:0 20:0 21:0 22:0.049362 23:0.0987248 24:0.0110338 25:0.0835569 26:0.654686 27:0.00644048 28:0.0445762 29:0.0494917 30:0.00212846 31:0.11 32:0.11 33:0.11 34:0.11 35:0.11 36:0.11 37:0.11 38:0.11 39:0.11 
1 1:0.901311 2:0.0357084 3:0.0629808 4:0.931233 5:0.6746 6:0.913394 7:0.0248271 8:0.0982324 9:0.0181377 10:0.0307877 11:0.0475717 12:0.053599 13:0.0248383 14:0.027406 15:0 16:0 17:0 18:0 19:0 20:0 21:1 22:0.429098 23:0.188501 24:0.0530891 25:0.0783932 26:0.0726838 27:0.0345747 28:0.00784113 29:0.128563 30:0.00725646 31:0.11 32:0.11 33:0.11 34:0.11 35:0.11 36:0.11 37:0.11 38:0.11 39:0.11 
1 1:0.992812 2:0.00103423 3:0.00615329 4:0.942662 5:0.718733 6:0.80491 7:0.00103732 8:0.1677 9:0.0540839 10:0.0135188 11:0.0187474 12:0.0193573 13:0.00531109 14:0.00151101 15:1 16:0 17:0 18:0 19:0 20:0 21:1 22:0.138922 23:0.303821 24:0.0176623 25:0.0552431 26:0.187344 27:0.0161877 28:0.129329 29:0.146811 30:0.00468005 31:0.11 32:0.11 33:0.11 34:0.11 35:0.11 36:0.11 37:0.11 38:0.11 39:0.11 
1 1:0.21685 2:0.70336 3:0.0797893 4:-0.800463 5:0.823433 6:0.866867 7:0.000865642 8:0.126194 9:0.0132029 10:0.0228946 11:0.00190382 12:0.00592272 13:0.00191553 14:0.00366707 15:0 16:0 17:0 18:0 19:0 20:0 21:1 22:0.14744 23:0.195582 24:0.012404 25:0.0523393 26:0.297274 27:0.0120572 28:0.0904258 29:0.188517 30:0.00396126 31:0.11 32:0.11 33:0.11 34:0.11 35:0.11 36:0.11 37:0.11 38:0.11 39:0.11 
1 1:0.00590185 2:0.00455691 3:0.989541 4:-0.954927 5:0.00732975 6:0.633266 7:0.0234835 8:0.00460721 9:0.00086658 10:0.0174495 11:0.00435474 12:0.00479238 13:0.0446578 14:0.892459 15:0 16:0 17:0 18:0 19:0 20:0 21:1 22:0.0547939 23:0.0711511 24:0.00711815 25:0.100823 26:0.574178 27:0.00593059 28:0.0390955 29:0.143573 30:0.00333667 31:0.11 32:0.11 33:0.11 34:0.11 35:0.11 36:0.11 37:0.11 38:0.11 39:0.11 
1 1:0.952397 2:0.0294558 3:0.0181474 4:-0.885571 5:0.0263546 6:0.126931 7:0.0154361 8:0.0820891 9:0.0234693 10:0.556488 11:0.0247676 12:0.0739643 13:0.11089 14:0.0865411 15:0 16:0 17:0 18:0 19:0 20:0 21:0 22:0.152988 23:0.0363066 24:0.00610586 25:0.212745 26:0.350265 27:0.013521 28:0.0212589 29:0.201844 30:0.0049651 31:0.00469475 32:0.0593593 33:0.00506955 34:0.0151634 35:0.899205 36:0.0028088 37:0.00566091 38:0.00100798 39:0.00703005 
1 1:0.981795 2:0.00359714 3:0.0146075 4:-0.949144 5:0.0445118 6:0.40485 7:0.0190707 8:0.0620976 9:0.00582555 10:0.0246535 11:0.368109 12:0.0194654 13:0.111314 14:0.344952 15:0 16:0 17:0 18:0 19:0 20:0 21:0 22:0.0742119 23:0.573001 24:0.0278707 25:0.0791939 26:0.182908 27:0.00605304 28:0.0219424 29:0.0289955 30:0.00582346 31:0.00263565 32:0.0432107 33:0.0061496 34:0.870182 35:0.0430158 36:0.00820429 37:0.00821523 38:0.0142608 39:0.00412629 
0.1685181913530468 1:0.976696 2:0.0130234 3:0.0102808 4:0.601902 5:0.0454161 6:0.18061 7:0.0155458 8:0.160274 9:0.0476613 10:0.152768 11:0.167017 12:0.300084 13:0.0631472 14:0.0480857 15:0 16:0 17:0 18:0 19:0 20:0 21:0 22:0.0704441 23:0.133224 24:0.0490245 25:0.281023 26:0.217784 27:0.0265437 28:0.0916949 29:0.123364 30:0.00689708 31:0.00438568 32:0.0150948 33:0.00394058 34:0.859942 35:0.00884411 36:0.00543261 37:0.0195635 38:0.034895 39:0.047902 
1 1:0.807996 2:0.00987625 3:0.182127 4:-0.904922 5:0.00808617 6:0.159243 7:0.108225 8:0.025394 9:0.00131355 10:0.00587682 11:0.0025778 12:0.00408333 13:0.19593 14:0.648514 15:1 16:0 17:0 18:0 19:0 20:0 21:1 22:0.0866699 23:0.0617912 24:0.0144026 25:0.284667 26:0.455258 27:0.00707404 28:0.0463893 29:0.0395785 30:0.00417005 31:0.0126635 32:0.0744882 33:0.437555 34:0.0839691 35:0.262369 36:0.0473939 37:0.0391239 38:0.0124143 39:0.0300232 
1 1:0.999198 2:2.94413e-06 3:0.000798857 4:0.861949 5:0.0812205 6:0.592041 7:0.00382721 8:0.056249 9:0.524756 10:0.139851 11:0.0137787 12:0.123827 13:0.0356397 14:0.0208514 15:0 16:0 17:0 18:0 19:0 20:0 21:0 22:0.491598 23:0.111657 24:0.0322118 25:0.0151172 26:0.0329914 27:0.0201392 28:0.0469296 29:0.246969 30:0.00238608 31:0.11 32:0.11 33:0.11 34:0.11 35:0.11 36:0.11 37:0.11 38:0.11 39:0.11 
1 1:0.923588 2:0.0282587 3:0.0481532 4:0.940945 5:0.0128125 6:0.165942 7:0.0206734 8:0.0657391 9:0.017142 10:0.555983 11:0.0287507 12:0.0158273 13:0.102635 14:0.180437 15:0 16:0 17:0 18:0 19:0 20:0 21:0 22:0.0010315 23:0.011582 24:0.0564952 25:0.868726 26:0.0416032 27:0.00404723 28:0.0134478 29:0.00183863 30:0.00122856 31:0.11 32:0.11 33:0.11 34:0.11 35:0.11 36:0.11 37:0.11 38:0.11 39:0.11 
1 1:0.996372 2:0.0011709 3:0.00245705 4:0.962699 5:0.0131872 6:0.140026 7:0.089666 8:0.130261 9:0.104406 10:0.142068 11:0.30867 12:0.0768102 13:0.0710144 14:0.0639172 15:0 16:0 17:0 18:0 19:0 20:0 21:0 22:0.0846521 23:0.043875 24:0.0221293 25:0.418264 26:0.0553722 27:0.0151019 28:0.0337601 29:0.0461477 30:0.280698 31:0.11 32:0.11 33:0.11 34:0.11 35:0.11 36:0.11 37:0.11 38:0.11 39:0.11 
1 1:0.998059 2:4.94442e-06 3:0.00193649 4:-0.507628 5:0.134508 6:0.742861 7:0.279514 8:0.100479 9:0.0111619 10:0.0225709 11:0.0207961 12:0.00906965 13:0.393399 14:0.028502 15:0 16:0 17:0 18:0 19:0 20:0 21:0 22:0.0570902 23:0.176294 24:0.0305213 25:0.390688 26:0.0498583 27:0.0179556 28:0.226361 29:0.0378861 30:0.0133465 31:0.11 32:0.11 33:0.11 34:0.11 35:0.11 36:0.11 37:0.11 38:0.11 39:0.11 
1 1:0.00521888 2:0.00794373 3:0.986837 4:0.952953 5:0.00688801 6:0.0713033 7:0.0106359 8:0.0637628 9:0.0301561 10:0.0990579 11:0.304286 12:0.0262559 13:0.397209 14:0.0617492 15:0 16:0 17:0 18:0 19:0 20:0 21:0 22:0.0315577 23:0.323737 24:0.107522 25:0.175799 26:0.129794 27:0.0393408 28:0.0793875 29:0.101811 30:0.0110512 31:0.0344471 32:0.10224 33:0.0359697 34:0.24192 35:0.187825 36:0.0579303 37:0.0711207 38:0.143701 39:0.124846 
1 1:0.000871411 2:0.0189492 3:0.980179 4:0.966245 5:0.0118342 6:0.0393659 7:0.0120081 8:0.0982497 9:0.0519344 10:0.176482 11:0.27851 12:0.0853543 13:0.157964 14:0.127664 15:0 16:0 17:0 18:0 19:0 20:0 21:0 22:0.0523917 23:0.099883 24:0.0455541 25:0.138756 26:0.253083 27:0.0209768 28:0.066749 29:0.314684 30:0.00792276 31:0.0309358 32:0.0933563 33:0.0477396 34:0.25075 35:0.194449 36:0.0755127 37:0.0501235 38:0.126692 39:0.130442 
1 1:0.964432 2:0.0150971 3:0.020471 4:0.96283 5:0.0173638 6:0.0775219 7:0.0250957 8:0.150249 9:0.126131 10:0.345675 11:0.143297 12:0.179018 13:0.00574248 14:0.00742845 15:0 16:0 17:0 18:0 19:0 20:0 21:1 22:0.0400716 23:0.0443481 24:0.0329612 25:0.204271 26:0.0243083 27:0.452301 28:0.105355 29:0.00445889 30:0.0919253 31:0.0142003 32:0.0268659 33:0.00757055 34:0.105376 35:0.779744 36:0.0120569 37:0.00930025 38:0.00267786 39:0.042208 
1 1:0.994691 2:0.00194353 3:0.00336541 4:0.961146 5:0.004153 6:0.117435 7:0.0382972 8:0.0173065 9:0.0238703 10:0.0673722 11:0.374364 12:0.312369 13:0.0496729 14:0.112594 15:0 16:0 17:0 18:0 19:0 20:0 21:0 22:0.100352 23:0.326571 24:0.0174651 25:0.0446809 26:0.0444292 27:0.0792537 28:0.357039 29:0.0213616 30:0.00884774 31:0.0249971 32:0.0525489 33:0.0334087 34:0.749527 35:0.0201517 36:0.0229787 37:0.0307178 38:0.0245867 39:0.0410832 
1 1:0.0931066 2:0.0835442 3:0.823349 4:0.958095 5:0.064006 6:0.382437 7:0.010573 8:0.0988345 9:0.154074 10:0.0661346 11:0.416948 12:0.11207 13:0.0265008 14:0.0508587 15:0 16:0 17:0 18:0 19:0 20:0 21:0 22:0.00345085 23:0.018521 24:0.016494 25:0.00221011 26:0.0151438 27:0.00836619 28:0.183061 29:0.748391 30:0.00436219 31:0.0101539 32:0.0419629 33:0.0223419 34:0.0288444 35:0.00645706 36:0.0123231 37:0.0409156 38:0.0221791 39:0.814822 
1 1:0.0930643 2:0.0204357 3:0.8865 4:0.964787 5:0.00762918 6:0.137195 7:0.174713 8:0.0493414 9:0.0105755 10:0.180957 11:0.0276304 12:0.0571697 13:0.0925928 14:0.399392 15:0 16:0 17:0 18:0 19:0 20:0 21:0 22:0.1274 23:0.0914411 24:0.0482355 25:0.0903072 26:0.145492 27:0.0831275 28:0.0149808 29:0.383822 30:0.0151944 31:0.0105836 32:0.0239381 33:0.0264627 34:0.0124482 35:0.750458 36:0.0301054 37:0.056735 38:0.0628209 39:0.0264476 
1 1:0.0612718 2:0.0214505 3:0.917278 4:0.945202 5:0.00798227 6:0.0469655 7:0.180933 8:0.0423668 9:0.0111435 10:0.158339 11:0.022683 12:0.103509 13:0.354843 14:0.118201 15:0 16:0 17:0 18:0 19:0 20:0 21:0 22:0.0117516 23:0.0378048 24:0.019736 25:0.044268 26:0.234742 27:0.0108284 28:0.0361108 29:0.603979 30:0.000779393 31:0.00816461 32:0.0253391 33:0.0308451 34:0.0331982 35:0.745368 36:0.0335857 37:0.0471451 38:0.0515673 39:0.0247868 
1 1:0.202943 2:0.0585768 3:0.73848 4:0.960043 5:0.00756999 6:0.0833505 7:0.122707 8:0.0397534 9:0.0254514 10:0.0647686 11:0.0849106 12:0.331698 13:0.0691547 14:0.253986 15:0 16:0 17:1 18:0 19:0 20:0 21:0 22:0.0247856 23:0.0419568 24:0.0377164 25:0.197017 26:0.264881 27:0.0454943 28:0.0253738 29:0.361694 30:0.00108102 31:0.0103588 32:0.0236987 33:0.0287322 34:0.028921 35:0.735483 36:0.0223747 37:0.0759107 38:0.050407 39:0.0241136 
1 1:0.0456647 2:0.039196 3:0.915139 4:0.964616 5:0.0116611 6:0.114978 7:0.0475589 8:0.0648203 9:0.0376203 10:0.221187 11:0.0506151 12:0.427487 13:0.0704719 14:0.0685787 15:0 16:0 17:1 18:0 19:0 20:0 21:0 22:0.0898176 23:0.081472 24:0.088369 25:0.215574 26:0.284828 27:0.0672755 28:0.0687332 29:0.098119 30:0.00581141 31:0.00777353 32:0.0283995 33:0.0361758 34:0.0318939 35:0.732359 36:0.0316195 37:0.0705972 38:0.0423468 39:0.0188345 
1 1:0.133177 2:0.0828207 3:0.784002 4:-0.965983 5:0.0414245 6:0.12536 7:0.164274 8:0.212209 9:0.0085093 10:0.0338646 11:0.244005 12:0.0613449 13:0.106436 14:0.127932 15:0 16:0 17:0 18:0 19:0 20:0 21:0 22:0.0592848 23:0.0542829 24:0.0190771 25:0.0870774 26:0.154649 27:0.0279333 28:0.12921 29:0.465055 30:0.0034298 31:0.0105836 32:0.0239381 33:0.0264627 34:0.0124482 35:0.750458 36:0.0301054 37:0.056735 38:0.0628209 39:0.0264476 
1 1:0.111182 2:0.0274934 3:0.861325 4:0.966595 5:0.0898226 6:0.0895781 7:0.00362784 8:0.687138 9:0.018372 10:0.0940258 11:0.0120529 12:0.00263327 13:0.0835369 14:0.00879031 15:0 16:0 17:0 18:0 19:0 20:0 21:1 22:0.041305 23:0.105253 24:0.0687131 25:0.668952 26:0.0795588 27:0.00700601 28:0.0188548 29:0.00729288 30:0.00306471 31:0.11 32:0.11 33:0.11 34:0.11 35:0.11 36:0.11 37:0.11 38:0.11 39:0.11 
1 1:0.0714396 2:0.0294733 3:0.899087 4:0.962484 5:0.083272 6:0.438458 7:0.449632 8:0.0487979 9:0.00408932 10:0.043689 11:0.0258069 12:0.022775 13:0.242709 14:0.0792292 15:0 16:0 17:0 18:0 19:0 20:0 21:0 22:0.0433525 23:0.180545 24:0.0777563 25:0.237893 26:0.222336 27:0.0278708 28:0.0394339 29:0.16392 30:0.00689255 31:0.0368636 32:0.145026 33:0.020501 34:0.164849 35:0.491133 36:0.0519438 37:0.0387345 38:0.0195234 39:0.031426 
1 1:0.000613988 2:0.0141551 3:0.985231 4:-0.703983 5:0.141096 6:0.268162 7:0.0177817 8:0.306642 9:0.00598052 10:0.0660367 11:0.00423163 12:0.00985119 13:0.343885 14:0.104494 15:0 16:0 17:0 18:0 19:0 20:0 21:1 22:0.0408175 23:0.0394495 24:0.0457305 25:0.153424 26:0.642647 27:0.0202075 28:0.0206395 29:0.0328984 30:0.00418515 31:0.0161543 32:0.0787682 33:0.0137331 34:0.525524 35:0.245823 36:0.0248718 37:0.052185 38:0.0141966 39:0.0287448 
1 1:0.00305405 2:0.444636 3:0.55231 4:-0.912043 5:0.0221032 6:0.125651 7:0.0932873 8:0.146905 9:0.0433411 10:0.304596 11:0.104042 12:0.137831 13:0.00676338 14:0.14113 15:0 16:0 17:0 18:0 19:0 20:0 21:0 22:0.015672 23:0.0368708 24:0.0971094 25:0.0144506 26:0.737173 27:0.0312364 28:0.0582536 29:0.00364309 30:0.00559109 31:0.000845862 32:0.00731066 33:0.00277564 34:0.011759 35:0.00321953 36:0.00207695 37:0.0114027 38:0.00736568 39:0.953244 
1 1:0.515077 2:0.053815 3:0.431108 4:0.941778 5:0.00551331 6:0.0432179 7:0.306725 8:0.034361 9:0.0754857 10:0.144227 11:0.108219 12:0.300633 13:0.00918906 14:0.0156461 15:0 16:0 17:0 18:0 19:0 20:0 21:1 22:0.0247475 23:0.0378995 24:0.204102 25:0.0260061 26:0.317092 27:0.259964 28:0.0971182 29:0.018609 30:0.0144622 31:0.0223191 32:0.0319979 33:0.0129221 34:0.0762142 35:0.673832 36:0.0141091 37:0.0228628 38:0.0354748 39:0.110268 
1 1:0.00545065 2:0.010439 3:0.98411 4:0.794005 5:0.161999 6:0.386727 7:0.00822601 8:0.213845 9:0.128986 10:0.124138 11:0.0954272 12:0.205891 13:0.0153694 14:0.0461193 15:0 16:0 17:0 18:0 19:0 20:0 21:0 22:0.100382 23:0.0396479 24:0.0207579 25:0.16577 26:0.363942 27:0.03573 28:0.0600013 29:0.157038 30:0.0567314 31:0.11 32:0.11 33:0.11 34:0.11 35:0.11 36:0.11 37:0.11 38:0.11 39:0.11 
1 1:0.99682 2:0.000932324 3:0.00224721 4:0.963207 5:0.0079941 6:0.0476375 7:0.246979 8:0.113356 9:0.111082 10:0.380546 11:0.0382602 12:0.0658383 13:0.00967023 14:0.0262732 15:0 16:0 17:0 18:0 19:0 20:0 21:1 22:0.0373143 23:0.0642754 24:0.189776 25:0.0387353 26:0.0266835 27:0.400729 28:0.136232 29:0.0494233 30:0.0568308 31:0.0263334 32:0.0421295 33:0.0155758 34:0.0694986 35:0.65158 36:0.0228823 37:0.0283244 38:0.0387154 39:0.104961 
1 1:0.997153 2:0.00183654 3:0.0010102 4:0.963645 5:0.00772625 6:0.125826 7:0.0218732 8:0.0473257 9:0.387206 10:0.459363 11:0.0386187 12:0.00617188 13:0.00641344 14:0.0253022 15:0 16:0 17:0 18:0 19:0 20:0 21:0 22:0.100956 23:0.226236 24:0.184128 25:0.0377945 26:0.25947 27:0.0931811 28:0.0542837 29:0.0230865 30:0.0208644 31:0.174328 32:0.224147 33:0.125771 34:0.0442023 35:0.257777 36:0.0557029 37:0.0353544 38:0.035737 39:0.0469806 
1 1:0.995488 2:0.00157198 3:0.00293958 4:0.95795 5:0.00411746 6:0.0509854 7:0.0672422 8:0.0405198 9:0.364677 10:0.454294 11:0.0382816 12:0.00711117 13:0.00395886 14:0.0197982 15:0 16:0 17:0 18:0 19:0 20:0 21:0 22:0.0510246 23:0.259749 24:0.105791 25:0.0606926 26:0.320288 27:0.11574 28:0.0464001 29:0.0235817 30:0.0167334 31:0.0529421 32:0.135995 33:0.0701341 34:0.117054 35:0.265502 36:0.0990288 37:0.0688085 38:0.10275 39:0.0877848 
1 1:0.00268183 2:0.00869597 3:0.988622 4:-0.965611 5:0.025842 6:0.115262 7:0.0131445 8:0.152053 9:0.0539147 10:0.0538469 11:0.217743 12:0.0106443 13:0.0271379 14:0.445674 15:0 16:0 17:0 18:0 19:0 20:0 21:0 22:0.0306947 23:0.316969 24:0.19824 25:0.0385317 26:0.194294 27:0.0471944 28:0.136552 29:0.0240889 30:0.0134361 31:0.0553755 32:0.12283 33:0.0536842 34:0.11226 35:0.304382 36:0.0892871 37:0.0732932 38:0.0947291 39:0.0941584 
1 1:0.976235 2:0.019473 3:0.00429242 4:0.963893 5:0.00586845 6:0.134535 7:0.0286094 8:0.0329548 9:0.0708178 10:0.245175 11:0.111025 12:0.00849099 13:0.0148717 14:0.482187 15:0 16:0 17:0 18:0 19:0 20:0 21:0 22:0.0316005 23:0.0421264 24:0.418631 25:0.0430774 26:0.224831 27:0.160861 28:0.0618975 29:0.0124636 30:0.00451115 31:0.0442686 32:0.119515 33:0.04103 34:0.10892 35:0.358911 36:0.0991361 37:0.0811024 38:0.0640991 39:0.0830185 
1 1:0.27998 2:0.56064 3:0.15938 4:0.90325 5:0.170104 6:0.293842 7:0.0378504 8:0.424807 9:0.0290701 10:0.0348467 11:0.0653248 12:0.0199211 13:0.0773055 14:0.14077 15:0 16:0 17:0 18:0 19:0 20:0 21:1 22:0.0294934 23:0.035351 24:0.227067 25:0.551869 26:0.0622125 27:0.0312897 28:0.044812 29:0.014447 30:0.00345747 31:0.11 32:0.11 33:0.11 34:0.11 35:0.11 36:0.11 37:0.11 38:0.11 39:0.11 
1 1:0.10662 2:0.684786 3:0.208594 4:0.860219 5:0.121725 6:0.147268 7:0.0174323 8:0.250865 9:0.11481 10:0.0280821 11:0.112793 12:0.0265581 13:0.0554003 14:0.272334 15:0 16:0 17:0 18:0 19:0 20:0 21:1 22:0.0081323 23:0.0715172 24:0.0640041 25:0.755669 26:0.0671062 27:0.00835169 28:0.0161335 29:0.00691328 30:0.00217279 31:0.11 32:0.11 33:0.11 34:0.11 35:0.11 36:0.11 37:0.11 38:0.11 39:0.11 
1 1:0.0297503 2:0.0430951 3:0.927155 4:0.965971 5:0.683478 6:0.91299 7:0.00928738 8:0.0621702 9:0.00664049 10:0.00790669 11:0.0030027 12:0.00759351 13:0.106484 14:0.113437 15:0 16:0 17:0 18:0 19:0 20:0 21:0 22:0.160435 23:0.107829 24:0.0411249 25:0.150138 26:0.297691 27:0.0397602 28:0.0168202 29:0.163535 30:0.0226662 31:0.0161543 32:0.0787682 33:0.0137331 34:0.525524 35:0.245823 36:0.0248718 37:0.052185 38:0.0141966 39:0.0287448 
1 1:0.118577 2:0.0375597 3:0.843863 4:0.951159 5:0.195847 6:0.75892 7:0.0704396 8:0.0978108 9:0.0810709 10:0.0552613 11:0.0264299 12:0.121483 13:0.13952 14:0.212137 15:1 16:0 17:0 18:0 19:0 20:0 21:1 22:0.0629104 23:0.0896571 24:0.0209457 25:0.185113 26:0.539022 27:0.0137879 28:0.00495159 29:0.0741763 30:0.00943585 31:0.0140615 32:0.0441389 33:0.011603 34:0.742188 35:0.0826756 36:0.0346464 37:0.0264554 38:0.0188516 39:0.02538 
1 1:0.00596317 2:0.00938165 3:0.984655 4:-0.95425 5:0.0108177 6:0.094257 7:0.0109219 8:0.0578753 9:0.0186326 10:0.139971 11:0.464774 12:0.1799 13:0.0691437 14:0.0479637 15:0 16:0 17:0 18:0 19:0 20:0 21:0 22:0.0542847 23:0.101869 24:0.0422352 25:0.103753 26:0.594659 27:0.0465726 28:0.0300696 29:0.0210799 30:0.00547732 31:0.0334966 32:0.1918 33:0.142753 34:0.12304 35:0.196515 36:0.0900748 37:0.042898 38:0.0282684 39:0.151154 
1 1:0.00102908 2:0.00342053 3:0.99555 4:0.85138 5:0.0494969 6:0.33795 7:0.0507632 8:0.0711318 9:0.00821556 10:0.0393995 11:0.0117875 12:0.299432 13:0.0896311 14:0.380142 15:0 16:0 17:0 18:0 19:0 20:0 21:0 22:0.0671768 23:0.0782116 24:0.071605 25:0.0269249 26:0.220733 27:0.209156 28:0.256261 29:0.0576863 30:0.0122459 31:0.093413 32:0.0755909 33:0.20814 34:0.0429794 35:0.380697 36:0.0944326 37:0.028372 38:0.0432319 39:0.0331431 
1 1:0.243725 2:0.02719 3:0.729085 4:0.967865 5:0.0164092 6:0.199062 7:0.0286017 8:0.0549168 9:0.00653732 10:0.03784 11:0.0256004 12:0.393016 13:0.0586575 14:0.378421 15:0 16:0 17:0 18:0 19:0 20:0 21:1 22:0.0531756 23:0.0826709 24:0.0934264 25:0.0175093 26:0.270132 27:0.100952 28:0.291899 29:0.0727108 30:0.0175242 31:0.105047 32:0.060729 33:0.283638 34:0.0366617 35:0.30783 36:0.0982337 37:0.0307835 38:0.0422098 39:0.0348679 
1 1:0.973825 2:0.0174793 3:0.00869602 4:0.953392 5:0.282288 6:0.542897 7:0.0141967 8:0.237803 9:0.0841722 10:0.115823 11:0.0515705 12:0.0298106 13:0.0974406 14:0.0868955 15:0 16:0 17:1 18:0 19:0 20:0 21:0 22:0.0791441 23:0.0773923 24:0.0114703 25:0.0807177 26:0.0843501 27:0.0106851 28:0.0861645 29:0.56819 30:0.00188587 31:0.11 32:0.11 33:0.11 34:0.11 35:0.11 36:0.11 37:0.11 38:0.11 39:0.11 
1 1:0.00462282 2:0.0154695 3:0.979908 4:-0.965522 5:0.131901 6:0.306651 7:0.00994836 8:0.27125 9:0.159336 10:0.0685734 11:0.314718 12:0.01877 13:0.00486565 14:0.0206372 15:0 16:0 17:0 18:0 19:0 20:0 21:0 22:0.274809 23:0.113966 24:0.023729 25:0.165579 26:0.283367 27:0.0291614 28:0.00718769 29:0.0886998 30:0.0135009 31:0.000355466 32:0.00332652 33:0.0155759 34:0.000841611 35:0.00137215 36:0.000543482 37:0.97543 38:0.00155592 39:0.000998837 
1 1:0.00557716 2:0.00971496 3:0.984708 4:0.640386 5:0.0114609 6:0.10209 7:0.118741 8:0.0399922 9:0.0093564 10:0.0364361 11:0.0986094 12:0.498945 13:0.0400973 14:0.146362 15:0 16:0 17:0 18:0 19:0 20:0 21:0 22:0.0153216 23:0.175091 24:0.23193 25:0.0764156 26:0.314394 27:0.077269 28:0.064946 29:0.0317906 30:0.0128427 31:0.0344471 32:0.10224 33:0.0359697 34:0.24192 35:0.187825 36:0.0579303 37:0.0711207 38:0.143701 39:0.124846 
1 1:0.000741356 2:0.0155856 3:0.983673 4:0.967649 5:0.0154209 6:0.227477 7:0.093329 8:0.0527493 9:0.00907041 10:0.0428112 11:0.118406 12:0.565547 13:0.0165292 14:0.0861368 15:0 16:0 17:0 18:0 19:0 20:0 21:0 22:0.0215404 23:0.136089 24:0.154118 25:0.0845798 26:0.504012 27:0.031086 28:0.0320216 29:0.0200499 30:0.0165036 31:0.0309358 32:0.0933563 33:0.0477396 34:0.25075 35:0.194449 36:0.0755127 37:0.0501235 38:0.126692 39:0.130442 
1 1:0.00290077 2:0.0056486 3:0.991451 4:0.949805 5:0.0474996 6:0.178804 7:0.0746678 8:0.23762 9:0.247371 10:0.201514 11:0.0550126 12:0.0229955 13:0.0241988 14:0.089121 15:0 16:0 17:0 18:0 19:0 20:0 21:0 22:0.132054 23:0.112193 24:0.0182943 25:0.0474569 26:0.127589 27:0.0371876 28:0.102062 29:0.419927 30:0.00323659 31:0.00905384 32:0.0179059 33:0.0201907 34:0.0157717 35:0.48707 36:0.0511302 37:0.0401586 38:0.33655 39:0.0221685 
1 1:0.153655 2:0.045954 3:0.800391 4:0.954267 5:0.0202973 6:0.208592 7:0.00528371 8:0.08245 9:0.429578 10:0.375049 11:0.0239627 12:0.0209248 13:0.0186768 14:0.0237781 15:0 16:0 17:0 18:0 19:0 20:0 21:0 22:0.0193275 23:0.0666309 24:0.0349286 25:0.0214704 26:0.0191553 27:0.0751293 28:0.174455 29:0.586996 30:0.00190695 31:0.00646048 32:0.0172305 33:0.0155908 34:0.00959247 35:0.356482 36:0.065292 37:0.0375225 38:0.484573 39:0.00725639 
1 1:0.348949 2:0.0717741 3:0.579276 4:0.952952 5:0.00401533 6:0.0452175 7:0.00933718 8:0.0922985 9:0.0100676 10:0.0725206 11:0.0751725 12:0.00407932 13:0.0282738 14:0.704235 15:0 16:0 17:0 18:0 19:0 20:0 21:0 22:0.0116508 23:0.0335298 24:0.0416967 25:0.0451257 26:0.027473 27:0.175119 28:0.109269 29:0.554949 30:0.00118754 31:0.00951145 32:0.0266489 33:0.0225021 34:0.0129136 35:0.423217 36:0.0602333 37:0.0669694 38:0.357758 39:0.0202465 
1 1:0.00514983 2:0.0206701 3:0.97418 4:0.954747 5:0.307192 6:0.75323 7:0.0063359 8:0.182265 9:0.0316803 10:0.0391147 11:0.00549511 12:0.0223202 13:0.0934218 14:0.312175 15:0 16:0 17:0 18:0 19:0 20:0 21:1 22:0.125397 23:0.0564353 24:0.0253068 25:0.147272 26:0.385147 27:0.0164708 28:0.0954863 29:0.0950132 30:0.053471 31:0.11 32:0.11 33:0.11 34:0.11 35:0.11 36:0.11 37:0.11 38:0.11 39:0.11 
1 1:0.859154 2:0.121024 3:0.0198224 4:-0.903011 5:0.0206388 6:0.619824 7:0.0210527 8:0.0141524 9:0.000415259 10:0.00561316 11:0.00191448 12:0.00638644 13:0.23909 14:0.690736 15:0 16:0 17:0 18:0 19:0 20:0 21:0 22:0.151901 23:0.149358 24:0.00458228 25:0.0487915 26:0.411982 27:0.0143132 28:0.103164 29:0.112111 30:0.00379678 31:0.11 32:0.11 33:0.11 34:0.11 35:0.11 36:0.11 37:0.11 38:0.11 39:0.11 
1 1:0.446732 2:0.346962 3:0.206305 4:0.946249 5:0.177711 6:0.543867 7:0.0359107 8:0.2119 9:0.0366556 10:0.0252588 11:0.173734 12:0.032768 13:0.141956 14:0.164106 15:0 16:0 17:0 18:0 19:0 20:0 21:0 22:0.0198026 23:0.189061 24:0.672808 25:0.0521442 26:0.0312788 27:0.00572908 28:0.0199882 29:0.00524003 30:0.00394757 31:0.11 32:0.11 33:0.11 34:0.11 35:0.11 36:0.11 37:0.11 38:0.11 39:0.11 
1 1:0.00107622 2:0.969383 3:0.029541 4:0.962619 5:0.0385705 6:0.459537 7:0.0120572 8:0.0382749 9:0.0223499 10:0.0435187 11:0.0435801 12:0.0087846 13:0.0845116 14:0.708353 15:0 16:0 17:0 18:0 19:0 20:0 21:0 22:0.0610977 23:0.0674134 24:0.140709 25:0.413656 26:0.232516 27:0.0440636 28:0.0198314 29:0.00630949 30:0.0144031 31:0.11 32:0.11 33:0.11 34:0.11 35:0.11 36:0.11 37:0.11 38:0.11 39:0.11 
1 1:0.0162327 2:0.327481 3:0.656286 4:-0.950257 5:0.0113706 6:0.112336 7:0.0518858 8:0.0722973 9:0.00440694 10:0.0218712 11:0.0066717 12:0.00695544 13:0.208892 14:0.615649 15:0 16:0 17:0 18:0 19:0 20:0 21:0 22:0.0330061 23:0.0982783 24:0.0180279 25:0.155447 26:0.459018 27:0.00861036 28:0.103492 29:0.11677 30:0.00735043 31:0.0187465 32:0.0362602 33:0.0224296 34:0.104946 35:0.648809 36:0.0444055 37:0.0395483 38:0.0419161 39:0.0429383 
1 1:0.018692 2:0.217705 3:0.763603 4:-0.966216 5:0.0212646 6:0.172788 7:0.036307 8:0.100384 9:0.00714866 10:0.0482109 11:0.0115354 12:0.0105388 13:0.321423 14:0.443188 15:0 16:0 17:0 18:0 19:0 20:0 21:1 22:0.0087433 23:0.0170317 24:0.0134566 25:0.0426438 26:0.745988 27:0.00462465 28:0.0165082 29:0.149039 30:0.00196441 31:0.11 32:0.11 33:0.11 34:0.11 35:0.11 36:0.11 37:0.11 38:0.11 39:0.11 
1 1:0.00475859 2:0.631552 3:0.363689 4:0.942519 5:0.00658053 6:0.073051 7:0.116488 8:0.0564406 9:0.071017 10:0.119131 11:0.176478 12:0.370444 13:0.0236506 14:0.0597714 15:0 16:0 17:0 18:0 19:0 20:0 21:0 22:0.257381 23:0.0713823 24:0.0347611 25:0.0612543 26:0.281735 27:0.0985175 28:0.108261 29:0.0748808 30:0.0118268 31:0.11 32:0.11 33:0.11 34:0.11 35:0.11 36:0.11 37:0.11 38:0.11 39:0.11 
1 1:0.00379261 2:0.0330558 3:0.963152 4:0.940031 5:0.00535511 6:0.030942 7:0.092992 8:0.0743045 9:0.161345 10:0.323333 11:0.235629 12:0.0779261 13:0.00647377 14:0.0226415 15:0 16:0 17:0 18:0 19:0 20:0 21:0 22:0.183829 23:0.0766785 24:0.0597867 25:0.126788 26:0.0803708 27:0.173147 28:0.126238 29:0.122944 30:0.050218 31:0.11 32:0.11 33:0.11 34:0.11 35:0.11 36:0.11 37:0.11 38:0.11 39:0.11 
1 1:0.00091113 2:0.0562772 3:0.942812 4:0.951365 5:0.00355741 6:0.0433829 7:0.414634 8:0.0355301 9:0.0358498 10:0.169639 11:0.126007 12:0.183286 13:0.0134946 14:0.018002 15:0 16:0 17:0 18:0 19:0 20:0 21:0 22:0.140148 23:0.0979434 24:0.0510813 25:0.0271722 26:0.396099 27:0.0353053 28:0.153801 29:0.0836896 30:0.01476 31:0.11 32:0.11 33:0.11 34:0.11 35:0.11 36:0.11 37:0.11 38:0.11 39:0.11 
1 1:0.000895095 2:0.988342 3:0.0107633 4:0.93561 5:0.00768187 6:0.102857 7:0.01989 8:0.0233349 9:0.0414008 10:0.121982 11:0.384561 12:0.269795 13:0.014347 14:0.117007 15:0 16:0 17:0 18:0 19:0 20:0 21:0 22:0.0535321 23:0.051046 24:0.0898116 25:0.0122363 26:0.561392 27:0.0969829 28:0.0938106 29:0.0358555 30:0.00533354 31:0.0199992 32:0.0407209 33:0.0165921 34:0.0785598 35:0.656494 36:0.0256771 37:0.0201084 38:0.0438536 39:0.0979952 
1 1:0.0434143 2:0.0451748 3:0.911411 4:0.962275 5:0.00276739 6:0.04576 7:0.0295595 8:0.00990203 9:0.0545404 10:0.110474 11:0.257369 12:0.488475 13:0.00908312 14:0.0378294 15:0 16:0 17:0 18:0 19:0 20:0 21:0 22:0.0889184 23:0.192509 24:0.0533919 25:0.120564 26:0.390492 27:0.0695532 28:0.0534707 29:0.021647 30:0.00945453 31:0.0147252 32:0.0282155 33:0.0108985 34:0.116826 35:0.73712 36:0.00566139 37:0.017836 38:0.00714558 39:0.0615719 
1 1:0.9788 2:0.015828 3:0.00537239 4:0.544229 5:0.0240403 6:0.416295 7:0.000964775 8:0.0142051 9:0.0969433 10:0.0146329 11:0.00794893 12:0.831359 13:0.00449186 14:0.00541426 15:0 16:0 17:0 18:0 19:0 20:0 21:1 22:0.0827135 23:0.043524 24:0.0652809 25:0.573463 26:0.0479533 27:0.0170534 28:0.079706 29:0.0869035 30:0.00340248 31:0.11 32:0.11 33:0.11 34:0.11 35:0.11 36:0.11 37:0.11 38:0.11 39:0.11 
1 1:0.0403116 2:0.931038 3:0.0286506 4:0.526235 5:0.01257 6:0.219422 7:0.0360146 8:0.0270353 9:0.0265108 10:0.0406547 11:0.169965 12:0.454297 13:0.108707 14:0.124245 15:0 16:0 17:0 18:0 19:0 20:0 21:0 22:0.00778693 23:0.0286882 24:0.0196696 25:0.865584 26:0.0440287 27:0.00202546 28:0.00920213 29:0.0210416 30:0.00197325 31:0.00759816 32:0.0149162 33:0.0155895 34:0.103264 35:0.748091 36:0.0266997 37:0.0360959 38:0.0228685 39:0.0248778 
1 1:0.0919747 2:0.0293128 3:0.878712 4:0.949326 5:0.0195698 6:0.351646 7:0.283215 8:0.0336964 9:0.0441125 10:0.11035 11:0.384002 12:0.0516867 13:0.0504921 14:0.022875 15:0 16:0 17:0 18:0 19:0 20:0 21:0 22:0.11685 23:0.0658762 24:0.0235335 25:0.424653 26:0.0505218 27:0.018003 28:0.100454 29:0.0599156 30:0.140192 31:0.00534079 32:0.010823 33:0.0111934 34:0.104691 35:0.747348 36:0.0201247 37:0.0442423 38:0.0295003 39:0.0267359 
1 1:0.0885705 2:0.0174132 3:0.894016 4:0.969544 5:0.0350801 6:0.0979633 7:0.0566247 8:0.248925 9:0.00493591 10:0.0276442 11:0.0354624 12:0.0219337 13:0.178165 14:0.391228 15:0 16:0 17:1 18:0 19:0 20:0 21:0 22:0.0821721 23:0.0399142 24:0.0183892 25:0.0699949 26:0.20985 27:0.0158173 28:0.133669 29:0.427774 30:0.00241977 31:0.11 32:0.11 33:0.11 34:0.11 35:0.11 36:0.11 37:0.11 38:0.11 39:0.11 
1 1:0.00421506 2:0.00696245 3:0.988822 4:-0.955463 5:0.0015867 6:0.292545 7:0.00694888 8:0.0030287 9:3.68266e-05 10:0.00342753 11:0.00065642 12:0.000744395 13:0.428785 14:0.554786 15:0 16:0 17:0 18:0 19:0 20:0 21:0 22:0.0807605 23:0.134633 24:0.0204717 25:0.108668 26:0.145963 27:0.0533481 28:0.0871032 29:0.363775 30:0.00527735 31:0.0156966 32:0.0273487 33:0.00978835 34:0.103553 35:0.730331 36:0.0188531 37:0.0430143 38:0.0195879 39:0.031827 
1 1:0.99986 2:2.39286e-06 3:0.000137404 4:0.966407 5:0.0021352 6:0.0349385 7:0.608333 8:0.0303063 9:0.00217674 10:0.0682269 11:0.0879764 12:0.0579424 13:0.104821 14:0.0380824 15:0 16:0 17:0 18:0 19:0 20:0 21:0 22:0.00251391 23:0.0346377 24:0.0232428 25:0.0244287 26:0.00957417 27:0.0280901 28:0.00881131 29:0.0958765 30:0.772825 31:0.0152021 32:0.0268816 33:0.0197529 34:0.775053 35:0.00997828 36:0.0559772 37:0.0260513 38:0.0195754 39:0.0515283 
1 1:0.996299 2:0.00131478 3:0.00238577 4:0.924634 5:0.0079684 6:0.0571991 7:0.0553299 8:0.0525698 9:0.0053363 10:0.065121 11:0.0705478 12:0.098158 13:0.273097 14:0.371871 15:0 16:0 17:0 18:0 19:0 20:0 21:0 22:0.0210931 23:0.0667152 24:0.101457 25:0.0352074 26:0.0233452 27:0.0388147 28:0.0295933 29:0.39352 30:0.290254 31:0.00895445 32:0.113352 33:0.247071 34:0.1883 35:0.0197562 36:0.376467 37:0.0126491 38:0.0114045 39:0.0220465 
1 1:0.765812 2:0.0875225 3:0.146665 4:0.935998 5:0.0204168 6:0.312365 7:0.175802 8:0.0253987 9:0.00697232 10:0.045999 11:0.149846 12:0.0256833 13:0.0980476 14:0.451835 15:0 16:0 17:0 18:0 19:0 20:0 21:0 22:0.0909088 23:0.176753 24:0.0838207 25:0.0744871 26:0.0243519 27:0.0400803 28:0.122042 29:0.175748 30:0.211808 31:0.11 32:0.11 33:0.11 34:0.11 35:0.11 36:0.11 37:0.11 38:0.11 39:0.11 
1 1:0.979482 2:0.00796682 3:0.0125514 4:0.966771 5:2.00796e-05 6:0.0314017 7:0.00449845 8:0.000401896 9:0.00317921 10:0.00914939 11:0.00307382 12:0.973455 13:0.0022342 14:0.00398777 15:0 16:0 17:0 18:0 19:0 20:0 21:1 22:0.0603169 23:0.121399 24:0.159279 25:0.0530234 26:0.0197792 27:0.0243052 28:0.0729601 29:0.351713 30:0.137224 31:0.11 32:0.11 33:0.11 34:0.11 35:0.11 36:0.11 37:0.11 38:0.11 39:0.11 
1 1:0.994587 2:0.00330973 3:0.00210282 4:0.917494 5:0.00889964 6:0.0351717 7:0.218049 8:0.0579849 9:0.0501148 10:0.116813 11:0.0716305 12:0.0560163 13:0.135551 14:0.284941 15:0 16:0 17:0 18:0 19:0 20:0 21:1 22:0.105976 23:0.0590186 24:0.02959 25:0.0338807 26:0.127409 27:0.0385725 28:0.0391251 29:0.386653 30:0.179775 31:0.0159367 32:0.859345 33:0.0149567 34:0.0106988 35:0.0517065 36:0.00596973 37:0.0313823 38:0.00415625 39:0.00584794 
1 1:0.996394 2:0.00311314 3:0.000493301 4:0.970669 5:0.0215743 6:0.222393 7:0.184343 8:0.0540457 9:0.0386621 10:0.159489 11:0.140531 12:0.0944114 13:0.0170433 14:0.2899 15:0 16:0 17:0 18:0 19:0 20:0 21:1 22:0.248455 23:0.0570187 24:0.0451702 25:0.0312111 26:0.146976 27:0.0323997 28:0.102418 29:0.123065 30:0.213287 31:0.0118306 32:0.788361 33:0.0132312 34:0.00951329 35:0.073303 36:0.00919768 37:0.0800007 38:0.00628811 39:0.00827446 
1 1:0.99918 2:2.42492e-06 3:0.000817942 4:0.929253 5:0.127138 6:0.433369 7:0.142196 8:0.0701688 9:0.0477455 10:0.0322918 11:0.194161 12:0.11589 13:0.185805 14:0.0846039 15:0 16:0 17:0 18:0 19:0 20:0 21:1 22:0.151286 23:0.0541116 24:0.0389548 25:0.031365 26:0.128609 27:0.0666544 28:0.0640871 29:0.163488 30:0.301443 31:0.0184145 32:0.802314 33:0.0283861 34:0.0146652 35:0.0105202 36:0.00781874 37:0.105831 38:0.00510178 39:0.00694788 
1 1:0.993419 2:0.00538968 3:0.00119103 4:0.943315 5:0.00438776 6:0.028691 7:0.481936 8:0.0165485 9:0.0168609 10:0.0631634 11:0.235418 12:0.0272641 13:0.0553952 14:0.0990263 15:0 16:0 17:0 18:0 19:0 20:0 21:0 22:0.326838 23:0.0393715 24:0.0602245 25:0.021768 26:0.0354304 27:0.138179 28:0.0741819 29:0.0677073 30:0.236299 31:0.00880628 32:0.0445447 33:0.0477507 34:0.0496678 35:0.458495 36:0.0354501 37:0.0959033 38:0.217849 39:0.0415332 
-8 1:0.943096 2:0.0212533 3:0.0356508 4:0.957026 5:0.00743593 6:0.0264437 7:0.0682233 8:0.0800361 9:0.084351 10:0.528015 11:0.0680793 12:0.107249 13:0.0200923 14:0.0365179 15:0 16:0 17:0 18:0 19:0 20:0 21:1 22:0.00631733 23:0.0275325 24:0.167213 25:0.0625926 26:0.00391905 27:0.725345 28:0.00314067 29:0.00235259 30:0.0015867 31:0.00517865 32:0.0405764 33:0.475603 34:0.00221133 35:0.00369616 36:0.454168 37:0.00667991 38:0.00569479 39:0.00619177 
-8 1:0.899107 2:0.0898388 3:0.0110546 4:-0.977324 5:0.00965277 6:0.109369 7:0.00328794 8:0.0506159 9:0.266196 10:0.472436 11:0.0893013 12:0.0478755 13:0.0138182 14:0.0468166 15:0 16:0 17:0 18:0 19:0 20:0 21:0 22:0.0239607 23:0.23078 24:0.315319 25:0.144419 26:0.0304089 27:0.15856 28:0.0761382 29:0.00580472 30:0.0146092 31:0.00239048 32:0.106662 33:0.737261 34:0.00315164 35:0.0025758 36:0.105971 37:0.00563297 38:0.00435566 39:0.0320003 
-2.789786463966462 1:0.00323421 2:0.0064835 3:0.990282 4:-0.943655 5:0.0750695 6:0.0930262 7:0.044845 8:0.385662 9:0.00546744 10:0.0286566 11:0.0131819 12:0.0162444 13:0.41264 14:0.0182329 15:0 16:0 17:0 18:0 19:0 20:0 21:0 22:0.0550191 23:0.261933 24:0.0741817 25:0.0412349 26:0.0144414 27:0.198101 28:0.188143 29:0.162319 30:0.00462695 31:0.0331358 32:0.171467 33:0.0425738 34:0.0452801 35:0.0115635 36:0.579339 37:0.0258298 38:0.0292629 39:0.0615483 
-2.434179868212778 1:0.00328141 2:0.877477 3:0.119242 4:-0.944785 5:0.0459394 6:0.0712072 7:0.0450562 8:0.354467 9:0.0952265 10:0.165355 11:0.149702 12:0.065122 13:0.0205091 14:0.0586233 15:0 16:0 17:1 18:0 19:0 20:0 21:0 22:0.0434093 23:0.29399 24:0.184211 25:0.116749 26:0.0217927 27:0.0504512 28:0.0804615 29:0.203796 30:0.00513943 31:0.0260295 32:0.646318 33:0.125265 34:0.0689306 35:0.0187922 36:0.0353475 37:0.0232118 38:0.0229527 39:0.0331531 
-8 1:0.941688 2:0.0273329 3:0.0309796 4:0.844162 5:0.0111669 6:0.30208 7:0.0276049 8:0.0230725 9:0.061623 10:0.571343 11:0.0294077 12:0.0188335 13:0.223414 14:0.0335342 15:0 16:0 17:0 18:0 19:0 20:0 21:1 22:0.405389 23:0.129835 24:0.0900678 25:0.174712 26:0.0161559 27:0.128099 28:0.0400028 29:0.00781147 30:0.00792718 31:0.00669538 32:0.00919541 33:0.00860144 34:0.0124096 35:0.3494 36:0.0478979 37:0.0526588 38:0.491515 39:0.0216268 
-8 1:0.667796 2:0.307286 3:0.0249179 4:0.726456 5:0.0248291 6:0.192941 7:0.0307397 8:0.0528126 9:0.229152 10:0.209756 11:0.0740114 12:0.101308 13:0.206954 14:0.0704374 15:1 16:0 17:0 18:0 19:0 20:0 21:1 22:0.0376985 23:0.0495358 24:0.24274 25:0.0550932 26:0.00737438 27:0.53345 28:0.0605892 29:0.0067643 30:0.00675475 31:0.0143198 32:0.029324 33:0.0253828 34:0.0212469 35:0.130359 36:0.140968 37:0.102961 38:0.505129 39:0.0303093 
-8 1:0.984795 2:0.0111301 3:0.00407505 4:-0.764002 5:0.00390363 6:0.0791521 7:0.0196804 8:0.00775439 9:0.11003 10:0.553349 11:0.193198 12:0.0566444 13:0.03827 14:0.01717 15:0 16:0 17:0 18:0 19:0 20:0 21:1 22:0.181322 23:0.196145 24:0.121489 25:0.013237 26:0.0118452 27:0.276937 28:0.164123 29:0.02506 30:0.00984187 31:0.0049776 32:0.0444428 33:0.711796 34:0.0242049 35:0.0245894 36:0.0789504 37:0.0589146 38:0.0391247 39:0.0129998 
-8 1:0.0223966 2:0.482419 3:0.495184 4:-0.973765 5:0.00685397 6:0.115037 7:0.0046727 8:0.0338965 9:0.140867 10:0.604772 11:0.052147 12:0.031653 13:0.102815 14:0.022323 15:0 16:0 17:0 18:1 19:0 20:0 21:0 22:0.0535391 23:0.101275 24:0.0170753 25:0.0418861 26:0.0887496 27:0.00880582 28:0.124881 29:0.561355 30:0.0024335 31:0.11 32:0.11 33:0.11 34:0.11 35:0.11 36:0.11 37:0.11 38:0.11 39:0.11 
-0.8933525139116737 1:0.0315717 2:0.0191151 3:0.949313 4:-0.957113 5:0.00319729 6:0.152719 7:0.00661741 8:0.011859 9:0.0264043 10:0.239022 11:0.069572 12:0.57453 13:0.0290735 14:0.0397242 15:0 16:0 17:0 18:0 19:0 20:0 21:0 22:0.211787 23:0.194609 24:0.0777168 25:0.0931903 26:0.0811597 27:0.0402049 28:0.0230709 29:0.251635 30:0.0266252 31:0.0180074 32:0.0353718 33:0.0225581 34:0.00325989 35:0.00627796 36:0.899852 37:0.00763328 38:0.00267971 39:0.00436002 
-8 1:0.931007 2:0.0200564 3:0.0489366 4:-0.945679 5:0.0257956 6:0.135943 7:0.0115672 8:0.179121 9:0.0345891 10:0.0225828 11:0.353038 12:0.126422 13:0.0959218 14:0.150963 15:0 16:0 17:0 18:0 19:0 20:0 21:0 22:0.13573 23:0.513897 24:0.141744 25:0.0921847 26:0.0104087 27:0.0621844 28:0.0339748 29:0.00675492 30:0.00312129 31:0.0546252 32:0.59837 33:0.103038 34:0.0142154 35:0.00778522 36:0.0509073 37:0.0794177 38:0.00440281 39:0.0872387 
-8 1:0.915767 2:0.0435865 3:0.0406465 4:0.860642 5:0.00721963 6:0.0401224 7:0.0355431 8:0.0479082 9:0.11651 10:0.42604 11:0.0567617 12:0.0305034 13:0.029967 14:0.249546 15:0 16:0 17:0 18:0 19:0 20:0 21:1 22:0.0127379 23:0.0311222 24:0.0575862 25:0.00859072 26:0.0141811 27:0.829521 28:0.0220347 29:0.0224922 30:0.0017342 31:0.000466297 32:0.0247765 33:0.0521151 34:0.000888827 35:0.000820524 36:0.918691 37:0.000688814 38:0.000157119 39:0.00139565 
-8 1:0.884683 2:0.0758824 3:0.0394342 4:0.803066 5:0.00340679 6:0.0311299 7:0.0138098 8:0.0693868 9:0.076104 10:0.168248 11:0.381341 12:0.131922 13:0.0202009 14:0.135582 15:0 16:0 17:1 18:0 19:0 20:0 21:0 22:0.0388799 23:0.0539271 24:0.132688 25:0.0417261 26:0.0605567 27:0.458458 28:0.112444 29:0.0948463 30:0.00647478 31:0.0139259 32:0.30927 33:0.301941 34:0.0353289 35:0.0509631 36:0.229625 37:0.0178475 38:0.00729906 39:0.0337997 
-8 1:0.150944 2:0.783721 3:0.0653351 4:-0.96056 5:0.00973355 6:0.125005 7:0.0398054 8:0.0245697 9:0.217847 10:0.310933 11:0.0514583 12:0.16077 13:0.111329 14:0.0735546 15:0 16:0 17:0 18:0 19:0 20:0 21:0 22:0.00583453 23:0.0209361 24:0.290129 25:0.00416392 26:0.00042936 27:0.648337 28:0.0240998 29:0.00416771 30:0.00190335 31:0.00669538 32:0.00919541 33:0.00860144 34:0.0124096 35:0.3494 36:0.0478979 37:0.0526588 38:0.491515 39:0.0216268 
-8 1:0.0176909 2:0.936606 3:0.0457031 4:-0.95596 5:0.954501 6:0.968935 7:0.00109114 8:0.0302911 9:0.00164397 10:0.00315805 11:0.000965291 12:0.000902646 13:0.00273512 14:0.00471149 15:1 16:0 17:1 18:0 19:0 20:0 21:1 22:0.156052 23:0.0259913 24:0.00935296 25:0.241442 26:0.401593 27:0.0055659 28:0.0230796 29:0.131305 30:0.00561817 31:0.11 32:0.11 33:0.11 34:0.11 35:0.11 36:0.11 37:0.11 38:0.11 39:0.11 
-8 1:0.817243 2:0.127147 3:0.05561 4:0.936016 5:0.00686694 6:0.0980881 7:0.029621 8:0.0183931 9:0.0215103 10:0.295593 11:0.218705 12:0.071742 13:0.0783816 14:0.259187 15:0 16:0 17:0 18:0 19:0 20:0 21:0 22:0.0119122 23:0.0473006 24:0.0906057 25:0.00593359 26:0.00272094 27:0.464785 28:0.371704 29:0.00299405 30:0.00204374 31:0.000538524 32:0.0103336 33:0.0228771 34:0.00115965 35:0.00307646 36:0.924682 37:0.0221238 38:0.00536088 39:0.00984779 
-8 1:0.000574873 2:0.0127499 3:0.986675 4:-0.954033 5:0.11286 6:0.630747 7:0.397924 8:0.0851952 9:0.0878849 10:0.14671 11:0.0263048 12:0.0304525 13:0.0959428 14:0.0167262 15:0 16:0 17:0 18:0 19:0 20:0 21:0 22:0.0548822 23:0.0324457 24:0.0212858 25:0.00711228 26:0.00460408 27:0.248151 28:0.587985 29:0.0108656 30:0.0326682 31:0.0161543 32:0.0787682 33:0.0137331 34:0.525524 35:0.245823 36:0.0248718 37:0.052185 38:0.0141966 39:0.0287448 
-8 1:0.0100248 2:0.00986638 3:0.980109 4:0.875902 5:0.0450818 6:0.201728 7:0.287264 8:0.11332 9:0.0544623 10:0.0986241 11:0.162071 12:0.0445821 13:0.10778 14:0.0868148 15:0 16:0 17:0 18:0 19:0 20:0 21:0 22:0.311755 23:0.0342319 24:0.120906 25:0.0182468 26:0.00886537 27:0.184228 28:0.291164 29:0.0116057 30:0.0189981 31:0.11 32:0.11 33:0.11 34:0.11 35:0.11 36:0.11 37:0.11 38:0.11 39:0.11 
-8 1:0.00438865 2:0.0265124 3:0.969099 4:0.920605 5:0.017167 6:0.190625 7:0.0370379 8:0.072359 9:0.0521661 10:0.259153 11:0.0674085 12:0.0269083 13:0.358487 14:0.109313 15:0 16:0 17:0 18:0 19:0 20:0 21:0 22:0.00304978 23:0.0119003 24:0.0370407 25:0.00415337 26:0.00195343 27:0.838423 28:0.0793671 29:0.00175751 30:0.0223544 31:0.11 32:0.11 33:0.11 34:0.11 35:0.11 36:0.11 37:0.11 38:0.11 39:0.11 
-8 1:0.0551539 2:0.011791 3:0.933055 4:-0.959953 5:0.0254973 6:0.151637 7:0.118289 8:0.0363002 9:0.0216479 10:0.363435 11:0.0866782 12:0.0340978 13:0.0800904 14:0.233965 15:0 16:0 17:1 18:0 19:0 20:0 21:0 22:0.166009 23:0.107418 24:0.159605 25:0.0248506 26:0.0120679 27:0.158973 28:0.120764 29:0.213475 30:0.0368386 31:0.11 32:0.11 33:0.11 34:0.11 35:0.11 36:0.11 37:0.11 38:0.11 39:0.11 
-8 1:0.303324 2:0.651041 3:0.0456353 4:0.94475 5:0.0489953 6:0.440095 7:0.0224619 8:0.087614 9:0.0121852 10:0.582804 11:0.0661341 12:0.0183724 13:0.131835 14:0.0295984 15:0 16:0 17:0 18:0 19:0 20:0 21:1 22:0.0917664 23:0.0618926 24:0.0836173 25:0.0254233 26:0.00867646 27:0.170747 28:0.0604039 29:0.443398 30:0.0540758 31:0.00706346 32:0.044345 33:0.0216124 34:0.0109337 35:0.00414695 36:0.883426 37:0.0136779 38:0.00661709 39:0.00817722 
-8 1:0.985855 2:0.00774626 3:0.00639895 4:-0.955673 5:0.0109757 6:0.0993114 7:0.0423263 8:0.112879 9:0.478308 10:0.213448 11:0.11741 12:0.00998819 13:0.00656811 14:0.00809642 15:0 16:0 17:1 18:0 19:0 20:0 21:0 22:0.0306851 23:0.371247 24:0.304554 25:0.0108735 26:0.00883029 27:0.128508 28:0.103258 29:0.00675831 30:0.035286 31:0.00779933 32:0.685481 33:0.157912 34:0.020313 35:0.0218197 36:0.0699102 37:0.0148877 38:0.0101866 39:0.0116909 
-8 1:0.00576041 2:0.00396942 3:0.99027 4:0.789826 5:0.0489347 6:0.226645 7:0.108223 8:0.0945988 9:0.047772 10:0.0175822 11:0.0258853 12:0.0101985 13:0.57246 14:0.074345 15:0 16:0 17:0 18:0 19:0 20:0 21:0 22:0.0545734 23:0.332583 24:0.420653 25:0.0466728 26:0.0163123 27:0.0617498 28:0.0477014 29:0.0159842 30:0.0037708 31:0.0208019 32:0.0634345 33:0.0821253 34:0.0524207 35:0.0148534 36:0.673891 37:0.039683 38:0.02057 39:0.0322201 
-5.624395619986938 1:0.00118875 2:0.907874 3:0.0909368 4:-0.961561 5:0.0235774 6:0.109962 7:0.0734827 8:0.170189 9:0.0868146 10:0.386334 11:0.0297074 12:0.124486 13:0.0142033 14:0.091206 15:0 16:0 17:0 18:1 19:0 20:0 21:0 22:0.0112971 23:0.0911322 24:0.286865 25:0.0588924 26:0.0191441 27:0.346492 28:0.0578573 29:0.0401994 30:0.0881204 31:0.0380937 32:0.251339 33:0.0829575 34:0.328618 35:0.115159 36:0.0301637 37:0.0980189 38:0.0197697 39:0.0358796 
-4.646381631757514 1:0.00254805 2:0.00451401 3:0.992938 4:-0.963387 5:0.0165959 6:0.278985 7:0.0169102 8:0.0303215 9:0.0133621 10:0.167849 11:0.038133 12:0.0275754 13:0.0271262 14:0.662127 15:0 16:0 17:0 18:0 19:0 20:1 21:0 22:0.460441 23:0.0139863 24:0.0369742 25:0.015143 26:0.024042 27:0.206745 28:0.024781 29:0.008552 30:0.209335 31:0.0137614 32:0.0385583 33:0.0227181 34:0.003861 35:0.0046275 36:0.897553 37:0.0139284 38:0.00183978 39:0.00315212 
