svm_type c_svc
kernel_type rbf
gamma 0.5
nr_class 2
total_sv 239
rho -0.147192
label 0 1
probA -3.23849
probB -0.119597
nr_sv 144 95
SV
0.1987688844675613 1:2.4044e-06 2:2.25382e-06 3:0.999995 4:0.516021 5:0.586779 6:0.297199 7:0.0328574 8:0.153923 9:1 10:0 11:0 12:0 13:0 14:0 15:1 16:0.316315 17:0.515202 18:0.104342 19:0.0641409 20:0.00381192 21:0.118568 22:0.857364 23:0.0202562 
0.2615616480526302 1:0.0109348 2:0.868774 3:0.120291 4:0.524223 5:0.615366 6:0.345144 7:0.0574112 8:0.0732217 9:0 10:0 11:0 12:0 13:0 14:0 15:1 16:0.336222 17:0.427506 18:0.0583759 19:0.177896 20:0.0831673 21:0.805483 22:0.0669877 23:0.0443616 
0.5 1:0.243665 2:0.434473 3:0.321862 4:0.412524 5:0.64775 6:0.194749 7:0.332306 8:0.0604218 9:1 10:0 11:0 12:0 13:0 14:0 15:0 16:0.0765374 17:0.157707 18:0.207858 19:0.557898 20:0.25 21:0.25 22:0.25 23:0.25 
0.5 1:0.000593023 2:0.402151 3:0.597256 4:0.498666 5:0.578206 6:0.329931 7:0.112305 8:0.0590973 9:0 10:0 11:0 12:0 13:0 14:0 15:0 16:0.132504 17:0.251768 18:0.138451 19:0.477277 20:0.25 21:0.25 22:0.25 23:0.25 
0.5 1:4.88105e-07 2:5.30963e-07 3:0.999999 4:0.583262 5:0.632821 6:0.345584 7:0.0021165 8:0.0690371 9:0 10:0 11:0 12:0 13:0 14:0 15:1 16:0.307805 17:0.10452 18:0.0637295 19:0.523945 20:0.119003 21:0.172805 22:0.0567425 23:0.651449 
0.5 1:0.74622 2:0.230984 3:0.0227967 4:0.00656827 5:0.223086 6:0.0242094 7:0.87428 8:0.0949425 9:0 10:0 11:0 12:0 13:0 14:0 15:0 16:0.146048 17:0.310996 18:0.445222 19:0.0977338 20:0.25 21:0.25 22:0.25 23:0.25 
0.2998106816011519 1:3.13582e-07 2:3.54568e-07 3:0.999999 4:0.357613 5:0.750127 6:0.100247 7:0.288192 8:0.253948 9:0 10:0 11:0 12:0 13:0 14:0 15:1 16:0.105293 17:0.169774 18:0.364393 19:0.36054 20:0.25 21:0.25 22:0.25 23:0.25 
0.5 1:0.932362 2:0.0266324 3:0.0410055 4:0.349283 5:0.570064 6:0.14443 7:0.446678 8:0.0596089 9:1 10:0 11:0 12:1 13:0 14:0 15:1 16:0.633012 17:0.216861 18:0.119423 19:0.0307038 20:0.25 21:0.25 22:0.25 23:0.25 
0.5 1:0.963941 2:0.0112287 3:0.0248304 4:0.193204 5:0.22974 6:0.708882 7:0.0110769 8:0.0868367 9:1 10:0 11:0 12:0 13:0 14:0 15:0 16:0.653277 17:0.173824 18:0.135473 19:0.0374265 20:0.134507 21:0.809484 22:0.0450273 23:0.010981 
0.5 1:2.79645e-07 2:2.87379e-07 3:0.999999 4:0.242516 5:0.477952 6:0.322185 7:0.0761528 8:0.359147 9:0 10:0 11:0 12:0 13:0 14:0 15:1 16:0.045295 17:0.266696 18:0.101897 19:0.586112 20:0.25 21:0.25 22:0.25 23:0.25 
0.5 1:0.379555 2:0.431058 3:0.189386 4:0.103208 5:0.204766 6:0.0986661 7:0.0202124 8:0.777913 9:0 10:0 11:0 12:0 13:0 14:0 15:0 16:0.741255 17:0.212227 18:0.0212895 19:0.0252283 20:0.25 21:0.25 22:0.25 23:0.25 
0.5 1:0.010243 2:0.936619 3:0.0531381 4:0.218779 5:0.32312 6:0.222927 7:0.119527 8:0.438767 9:0 10:0 11:0 12:0 13:0 14:0 15:0 16:0.21231 17:0.250643 18:0.0641108 19:0.472936 20:0.964226 21:0.00369947 22:0.0294115 23:0.00266291 
0.5 1:3.61546e-07 2:3.67132e-07 3:0.999999 4:0.6152 5:0.643691 6:0.315538 7:0.00411371 8:0.0651488 9:0 10:0 11:0 12:0 13:0 14:0 15:1 16:0.451305 17:0.127195 18:0.0408066 19:0.380693 20:0.140779 21:0.288188 22:0.0532383 23:0.517794 
0.3731067730652833 1:0.733321 2:0.0974582 3:0.16922 4:0.235598 5:0.396562 6:0.486047 7:0.0105727 8:0.267782 9:1 10:0 11:0 12:0 13:0 14:0 15:0 16:0.101642 17:0.224929 18:0.380167 19:0.293262 20:0.890446 21:0.0919272 22:0.0131109 23:0.00451578 
0.5 1:0.687667 2:0.166895 3:0.145438 4:0.363864 5:0.519419 6:0.354263 7:0.186467 8:0.0954064 9:0 10:0 11:0 12:0 13:0 14:0 15:0 16:0.159127 17:0.205284 18:0.0456459 19:0.589943 20:0.25 21:0.25 22:0.25 23:0.25 
0.1449541049721066 1:0.0536203 2:0.657982 3:0.288398 4:0.133286 5:0.521292 6:0.0831285 7:0.281909 8:0.501677 9:0 10:0 11:0 12:0 13:0 14:0 15:1 16:0.445033 17:0.483372 18:0.0400085 19:0.031587 20:0.25 21:0.25 22:0.25 23:0.25 
0.5 1:0.0623325 2:0.585168 3:0.3525 4:0.131042 5:0.358003 6:0.230678 7:0.0241384 8:0.614142 9:0 10:0 11:0 12:0 13:0 14:0 15:0 16:0.225415 17:0.361332 18:0.227971 19:0.185282 20:0.25 21:0.25 22:0.25 23:0.25 
0.01739770527176722 1:0.0364666 2:0.0109053 3:0.952628 4:0.283736 5:0.441107 6:0.393027 7:0.0728217 8:0.250415 9:0 10:0 11:0 12:1 13:0 14:0 15:1 16:0.490737 17:0.438554 18:0.0662486 19:0.00446075 20:0.0977957 21:0.30362 22:0.0583025 23:0.540282 
0.5 1:0.22631 2:0.0676895 3:0.706001 4:0.288504 5:0.36553 6:0.573079 7:0.0528301 8:0.0855868 9:0 10:0 11:0 12:0 13:0 14:0 15:0 16:0.113747 17:0.279411 18:0.427859 19:0.178983 20:0.25 21:0.25 22:0.25 23:0.25 
0.4210922052646925 1:0.918275 2:0.0156235 3:0.0661016 4:0.0998995 5:0.145791 6:0.71881 7:0.136908 8:0.0443826 9:0 10:0 11:0 12:0 13:0 14:0 15:0 16:0.537779 17:0.381721 18:0.050067 19:0.0304323 20:0.96888 21:0.0169767 22:0.0125101 23:0.00163293 
0.5 1:0.0378082 2:0.0262694 3:0.935922 4:0.747526 5:0.765039 6:0.223553 7:0.00344379 8:0.025477 9:0 10:0 11:0 12:0 13:0 14:0 15:1 16:0.143446 17:0.0934703 18:0.0101402 19:0.752943 20:0.25 21:0.25 22:0.25 23:0.25 
0.5 1:0.000997769 2:0.0026583 3:0.996344 4:0.0375672 5:0.355536 6:0.0798845 7:0.763382 8:0.119166 9:0 10:0 11:0 12:0 13:0 14:0 15:0 16:0.0356157 17:0.0474102 18:0.111434 19:0.80554 20:0.157676 21:0.120826 22:0.500726 23:0.220771 
0.5 1:0.350577 2:0.454053 3:0.19537 4:0.0706809 5:0.216387 6:0.151272 7:0.740894 8:0.0371528 9:0 10:0 11:0 12:0 13:0 14:0 15:0 16:0.394011 17:0.150715 18:0.0541535 19:0.401121 20:0.0909051 21:0.136735 22:0.665969 23:0.106391 
0.4316808141183717 1:0.577937 2:0.275851 3:0.146212 4:0.448038 5:0.615873 6:0.249433 7:0.222774 8:0.0797552 9:0 10:0 11:0 12:1 13:0 14:0 15:1 16:0.374035 17:0.534741 18:0.0845519 19:0.00667234 20:0.677256 21:0.129022 22:0.0931798 23:0.100542 
0.5 1:0.525134 2:0.0645468 3:0.410319 4:0.21999 5:0.24763 6:0.613697 7:0.00623782 8:0.160075 9:0 10:0 11:0 12:0 13:0 14:0 15:1 16:0.365569 17:0.296152 18:0.201399 19:0.13688 20:0.05317 21:0.296812 22:0.0506872 23:0.59933 
0.5 1:0.385313 2:0.176381 3:0.438307 4:0.214985 5:0.576234 6:0.0749524 7:0.072508 8:0.637555 9:0 10:0 11:0 12:0 13:0 14:0 15:0 16:0.598429 17:0.223804 18:0.0638796 19:0.113887 20:0.25 21:0.25 22:0.25 23:0.25 
0.5 1:1.34841e-06 2:1.73164e-06 3:0.999997 4:0.307252 5:0.562642 6:0.221552 7:0.14817 8:0.323026 9:0 10:0 11:0 12:0 13:0 14:0 15:0 16:0.0673049 17:0.150098 18:0.740717 19:0.041881 20:0.25 21:0.25 22:0.25 23:0.25 
0.5 1:5.16413e-07 2:5.13575e-07 3:0.999999 4:0.183533 5:0.215637 6:0.565488 7:0.190108 8:0.0608703 9:0 10:0 11:0 12:0 13:0 14:0 15:0 16:0.145317 17:0.208492 18:0.211034 19:0.435157 20:0.25 21:0.25 22:0.25 23:0.25 
0.5 1:9.84809e-07 2:1.12242e-06 3:0.999998 4:0.221971 5:0.315488 6:0.26971 7:0.00383312 8:0.504487 9:0 10:0 11:0 12:0 13:0 14:0 15:0 16:0.0624528 17:0.135034 18:0.0985477 19:0.703965 20:0.25 21:0.25 22:0.25 23:0.25 
0.5 1:2.0207e-07 2:2.74725e-07 3:1 4:0.315168 5:0.621177 6:0.11259 7:0.384053 8:0.188189 9:0 10:0 11:0 12:0 13:0 14:0 15:0 16:0.0753634 17:0.127414 18:0.734224 19:0.0629986 20:0.25 21:0.25 22:0.25 23:0.25 
0.5 1:0.475524 2:0.378644 3:0.145832 4:0.144396 5:0.177498 6:0.501489 7:0.182295 8:0.17182 9:0 10:0 11:0 12:0 13:0 14:0 15:1 16:0.471395 17:0.455117 18:0.0364749 19:0.0370134 20:0.05317 21:0.296812 22:0.0506872 23:0.59933 
0.5 1:0.803191 2:0.0267494 3:0.17006 4:0.0726446 5:0.0662989 6:0.843314 7:0.0121259 8:0.0719153 9:0 10:0 11:0 12:0 13:0 14:0 15:0 16:0.545278 17:0.297209 18:0.129915 19:0.0275985 20:0.121706 21:0.522639 22:0.308117 23:0.0475377 
0.5 1:0.905151 2:0.050471 3:0.0443776 4:0.0860367 5:0.0693839 6:0.61452 7:0.00233128 8:0.297112 9:0 10:0 11:0 12:0 13:0 14:0 15:0 16:0.0294135 17:0.21888 18:0.309409 19:0.442298 20:0.25 21:0.25 22:0.25 23:0.25 
0.435549131472566 1:0.0586257 2:0.0317755 3:0.909599 4:0.425379 5:0.711719 6:0.160393 7:0.039608 8:0.37462 9:0 10:0 11:1 12:0 13:0 14:0 15:1 16:0.450756 17:0.36422 18:0.069852 19:0.115171 20:0.132644 21:0.108162 22:0.0325096 23:0.726684 
0.5 1:0.0022233 2:0.968613 3:0.0291641 4:0.088786 5:0.462822 6:0.041213 7:0.765004 8:0.104997 9:0 10:0 11:0 12:0 13:0 14:0 15:0 16:0.188624 17:0.293537 18:0.444441 19:0.073398 20:0.25 21:0.25 22:0.25 23:0.25 
0.5 1:0.111612 2:0.771465 3:0.116924 4:0.110866 5:0.260841 6:0.42348 7:0.261449 8:0.204205 9:0 10:0 11:0 12:0 13:0 14:0 15:0 16:0.486896 17:0.353726 18:0.132677 19:0.026701 20:0.028403 21:0.165537 22:0.0932232 23:0.712837 
0.5 1:0.277426 2:0.449011 3:0.273563 4:0.348877 5:0.444602 6:0.416826 7:0.135003 8:0.0992937 9:0 10:0 11:0 12:0 13:0 14:1 15:0 16:0.28589 17:0.338589 18:0.203902 19:0.171619 20:0.198427 21:0.75017 22:0.039111 23:0.0122925 
0.5 1:1.76523e-06 2:1.98703e-06 3:0.999996 4:0.061977 5:0.757572 6:0.0734056 7:0.00094661 8:0.863671 9:0 10:0 11:0 12:0 13:0 14:0 15:1 16:0.57645 17:0.181979 18:0.0340545 19:0.207517 20:0.25 21:0.25 22:0.25 23:0.25 
0.5 1:0.528726 2:0.0575778 3:0.413696 4:0.374352 5:0.521149 6:0.340031 7:0.179458 8:0.106159 9:0 10:0 11:0 12:0 13:0 14:0 15:1 16:0.433451 17:0.319941 18:0.23352 19:0.0130866 20:0.25 21:0.25 22:0.25 23:0.25 
0.5 1:1.15317e-06 2:1.44594e-06 3:0.999997 4:0.122056 5:0.542951 6:0.118145 7:0.0107541 8:0.749045 9:0 10:0 11:0 12:0 13:0 14:0 15:0 16:0.0247252 17:0.0231509 18:0.00493067 19:0.947193 20:0.25 21:0.25 22:0.25 23:0.25 
0.5 1:0.00265814 2:0.000503926 3:0.996838 4:0.0841002 5:0.108239 6:0.861126 7:0.0383196 8:0.0164543 9:0 10:0 11:0 12:0 13:0 14:0 15:0 16:0.059112 17:0.146953 18:0.320529 19:0.473406 20:0.25 21:0.25 22:0.25 23:0.25 
0.4774533621663215 1:0.00963095 2:0.9777 3:0.012669 4:0.401361 5:0.5 6:0.421384 7:0.0507175 8:0.126537 9:1 10:0 11:1 12:0 13:0 14:0 15:1 16:0.480007 17:0.332749 18:0.0243805 19:0.162864 20:0.25 21:0.25 22:0.25 23:0.25 
0.5 1:3.49667e-07 2:3.8071e-07 3:0.999999 4:0.428326 5:0.80213 6:0.0753677 7:0.0159066 8:0.4804 9:0 10:0 11:0 12:1 13:0 14:0 15:0 16:0.48664 17:0.25289 18:0.0842108 19:0.17626 20:0.0346964 21:0.0750806 22:0.878823 23:0.0114001 
0.5 1:0.00902456 2:0.0329222 3:0.958053 4:0.242414 5:0.476602 6:0.194883 7:0.0251329 8:0.53757 9:0 10:0 11:1 12:0 13:0 14:0 15:0 16:0.0229843 17:0.0940444 18:0.0769088 19:0.806063 20:0.25 21:0.25 22:0.25 23:0.25 
0.5 1:0.0139378 2:0.0104662 3:0.975596 4:0.534556 5:0.691491 6:0.280213 7:0.0407581 8:0.144472 9:0 10:0 11:0 12:1 13:0 14:0 15:0 16:0.162466 17:0.296535 18:0.16877 19:0.372229 20:0.25 21:0.25 22:0.25 23:0.25 
0.5 1:0.360898 2:0.550606 3:0.0884966 4:0.255119 5:0.398805 6:0.421795 7:0.234691 8:0.0883943 9:0 10:0 11:0 12:1 13:0 14:0 15:1 16:0.386407 17:0.421148 18:0.0355312 19:0.156914 20:0.25 21:0.25 22:0.25 23:0.25 
0.5 1:0.0147836 2:0.101538 3:0.883679 4:0.0509586 5:0.35279 6:0.0919073 7:0.483833 8:0.373301 9:0 10:0 11:0 12:0 13:0 14:0 15:0 16:0.0873097 17:0.212057 18:0.324432 19:0.376202 20:0.094349 21:0.713949 22:0.104989 23:0.0867123 
0.5 1:0.000665348 2:0.0028765 3:0.996458 4:0.503252 5:0.686801 6:0.191057 7:0.240832 8:0.0648586 9:0 10:0 11:0 12:0 13:0 14:0 15:1 16:0.200064 17:0.362903 18:0.42108 19:0.0159527 20:0.0293094 21:0.0698823 22:0.0113473 23:0.889461 
0.5 1:0.275825 2:0.02364 3:0.700535 4:0.0513708 5:0.383829 6:0.0717865 7:0.129981 8:0.746861 9:0 10:0 11:1 12:0 13:0 14:0 15:0 16:0.563517 17:0.341244 18:0.0831486 19:0.0120903 20:0.25 21:0.25 22:0.25 23:0.25 
0.5 1:6.75485e-07 2:6.4263e-07 3:0.999999 4:0.177351 5:0.404493 6:0.27307 7:0.0327643 8:0.516815 9:0 10:0 11:0 12:0 13:0 14:0 15:0 16:0.180988 17:0.620747 18:0.0847731 19:0.113492 20:0.0383267 21:0.552895 22:0.102642 23:0.306136 
0.5 1:0.966931 2:0.0247595 3:0.00830971 4:0.052127 5:0.335494 6:0.071977 7:0.753744 8:0.122152 9:0 10:0 11:0 12:0 13:0 14:0 15:0 16:0.0625637 17:0.0907629 18:0.26348 19:0.583194 20:0.25 21:0.25 22:0.25 23:0.25 
0.03925286448951266 1:0.00204317 2:0.00530393 3:0.992653 4:0.111828 5:0.285998 6:0.144886 7:0.092505 8:0.650781 9:0 10:0 11:1 12:0 13:0 14:0 15:0 16:0.118508 17:0.378468 18:0.0191319 19:0.483892 20:0.958878 21:0.00489387 22:0.0305123 23:0.00571585 
0.5 1:0.169861 2:0.271927 3:0.558212 4:0.0565736 5:0.33091 6:0.0688398 7:0.580522 8:0.294065 9:0 10:0 11:0 12:0 13:0 14:0 15:0 16:0.110224 17:0.104338 18:0.007634 19:0.777804 20:0.25 21:0.25 22:0.25 23:0.25 
0.368183852911118 1:0.15454 2:0.11325 3:0.73221 4:0.526938 5:0.999415 6:0.0262547 7:0.000588985 8:0.446218 9:1 10:0 11:0 12:1 13:0 14:0 15:0 16:0.125222 17:0.107223 18:0.0374804 19:0.730075 20:0.25 21:0.25 22:0.25 23:0.25 
0.5 1:0.00162444 2:0.0192759 3:0.9791 4:0.121876 5:0.307121 6:0.531601 7:0.0191622 8:0.32736 9:0 10:0 11:0 12:0 13:0 14:0 15:1 16:0.0425681 17:0.271252 18:0.00987154 19:0.676309 20:0.698331 21:0.136868 22:0.121016 23:0.0437847 
0.5 1:0.0640189 2:0.313462 3:0.622519 4:0.0276377 5:0.999808 6:0.0549018 7:0.00448225 8:0.912978 9:1 10:0 11:0 12:1 13:0 14:0 15:1 16:0.25 17:0.25 18:0.25 19:0.25 20:0.25 21:0.25 22:0.25 23:0.25 
0.2351698480052259 1:6.02886e-06 2:7.76181e-06 3:0.999986 4:0.231007 5:0.417545 6:0.232785 7:0.27499 8:0.261218 9:0 10:0 11:0 12:0 13:0 14:0 15:0 16:0.549579 17:0.267101 18:0.13567 19:0.0476504 20:0.120564 21:0.0522782 22:0.806393 23:0.0207641 
0.07229655256420232 1:0.00254451 2:0.871675 3:0.12578 4:0.594107 5:0.995217 6:0.0172862 7:0.00180923 8:0.386797 9:1 10:0 11:0 12:1 13:0 14:0 15:1 16:0.11678 17:0.103288 18:0.0074973 19:0.772435 20:0.25 21:0.25 22:0.25 23:0.25 
0.5 1:0.375473 2:0.0183518 3:0.606175 4:0.122089 5:0.167419 6:0.483447 7:0.229055 8:0.16541 9:0 10:0 11:0 12:0 13:0 14:0 15:0 16:0.470965 17:0.223115 18:0.0698418 19:0.236078 20:0.0747144 21:0.701656 22:0.193254 23:0.0303757 
0.5 1:0.000821347 2:0.00475153 3:0.994427 4:0.3405 5:0.697044 6:0.194382 7:0.0144339 8:0.450685 9:0 10:0 11:0 12:0 13:0 14:0 15:1 16:0.744441 17:0.224401 18:0.0110802 19:0.0200774 20:0.00356613 21:0.0169637 22:0.0100084 23:0.969462 
0.4194012621696251 1:0.0619586 2:0.0611907 3:0.876851 4:0.0122549 5:0.843525 6:0.0609331 7:0.00342351 8:0.923389 9:0 10:0 11:0 12:0 13:0 14:0 15:0 16:0.401652 17:0.23284 18:0.340032 19:0.0254764 20:0.750572 21:0.147335 22:0.0476639 23:0.0544292 
0.5 1:1.41952e-06 2:2.13929e-06 3:0.999996 4:0.101905 5:0.29699 6:0.195315 7:0.000176547 8:0.702604 9:0 10:0 11:0 12:0 13:0 14:0 15:0 16:0.0634126 17:0.0904575 18:0.0395266 19:0.806603 20:0.25 21:0.25 22:0.25 23:0.25 
0.5 1:0.0435768 2:0.0137774 3:0.942646 4:0.604619 5:0.678651 6:0.277562 7:0.0430135 8:0.0748055 9:1 10:0 11:0 12:1 13:0 14:0 15:1 16:0.0866116 17:0.395987 18:0.010872 19:0.506529 20:0.132644 21:0.108162 22:0.0325096 23:0.726684 
0.04471360013597212 1:2.75934e-07 2:2.98243e-07 3:0.999999 4:0.319809 5:0.479299 6:0.312084 7:0.0577606 8:0.310347 9:0 10:0 11:0 12:0 13:0 14:1 15:0 16:0.304867 17:0.360789 18:0.0898594 19:0.244484 20:0.132654 21:0.837285 22:0.0270651 23:0.00299661 
0.02966200606274378 1:0.0268859 2:0.0885397 3:0.884574 4:0.0872032 5:0.999504 6:0.0275108 7:0.00370759 8:0.881579 9:0 10:0 11:1 12:0 13:0 14:0 15:0 16:0.5 17:0.0526658 18:0.141931 19:0.305402 20:0.965075 21:0.0100627 22:0.0226073 23:0.00225525 
0.5 1:0.634778 2:0.177901 3:0.187321 4:0.870268 5:0.875407 6:0.123876 7:0.00159496 8:0.00426113 9:0 10:0 11:0 12:0 13:0 14:0 15:1 16:0.193244 17:0.132793 18:0.0116775 19:0.662285 20:0.74609 21:0.0727068 22:0.0323145 23:0.148889 
0.5 1:0.183087 2:0.0607942 3:0.756119 4:0.213774 5:0.216206 6:0.544703 7:0.0375803 8:0.203943 9:0 10:0 11:0 12:0 13:0 14:0 15:0 16:0.0633459 17:0.0613084 18:0.0221873 19:0.853158 20:0.0730144 21:0.718407 22:0.0853526 23:0.123226 
0.04103316478388025 1:0.665746 2:0.0113229 3:0.322931 4:0.672743 5:0.781837 6:0.173641 7:0.10505 8:0.0485667 9:0 10:0 11:0 12:1 13:0 14:1 15:1 16:0.31504 17:0.147735 18:0.0595443 19:0.477681 20:0.99272 21:0.00138421 22:0.00570449 23:0.000190805 
0.4528791903251597 1:0.906235 2:0.00763217 3:0.0861327 4:0.246242 5:0.271614 6:0.685809 7:0.0329723 8:0.0349764 9:0 10:0 11:0 12:0 13:0 14:0 15:1 16:0.257885 17:0.586919 18:0.0255965 19:0.129599 20:0.99214 21:0.00290893 22:0.00274701 23:0.00220402 
0.1898998861787717 1:0.0841468 2:0.383542 3:0.532312 4:0.0980049 5:0.596295 6:0.0618246 7:0.0188726 8:0.821298 9:1 10:0 11:0 12:0 13:0 14:1 15:1 16:0.0644891 17:0.105776 18:0.809014 19:0.0207212 20:0.986867 21:0.00105957 22:0.0120346 23:3.90004e-05 
0.1063433133274201 1:0.00209456 2:0.00274066 3:0.995165 4:0.0525061 5:0.562751 6:0.0357941 7:0.767072 8:0.144628 9:0 10:0 11:1 12:0 13:0 14:0 15:1 16:0.0684421 17:0.0937152 18:0.0620834 19:0.775759 20:0.972168 21:0.0108593 22:0.0143946 23:0.00257789 
0.5 1:3.33523e-07 2:3.51025e-07 3:0.999999 4:0.570191 5:0.827671 6:0.117629 7:0.00180529 8:0.310376 9:0 10:0 11:0 12:0 13:0 14:0 15:0 16:0.115082 17:0.0598764 18:0.0185093 19:0.806532 20:0.25 21:0.25 22:0.25 23:0.25 
0.5 1:0.0792404 2:0.72567 3:0.19509 4:0.0139839 5:0.972668 6:0.0293011 7:0.0123089 8:0.944406 9:0 10:0 11:0 12:1 13:0 14:0 15:1 16:0.160277 17:0.0520414 18:0.0414142 19:0.746267 20:0.25 21:0.25 22:0.25 23:0.25 
0.07736801214922233 1:4.75745e-07 2:6.16615e-07 3:0.999999 4:0.357639 5:0.531376 6:0.423628 7:0.0107251 8:0.208007 9:1 10:0 11:0 12:0 13:0 14:1 15:0 16:0.0396837 17:0.0442252 18:0.0564627 19:0.859628 20:0.989626 21:0.00729396 22:0.00244968 23:0.000630025 
0.06789922074810066 1:0.0322414 2:0.150932 3:0.816827 4:0.0805602 5:0.780321 6:0.0300821 7:0.00126108 8:0.888097 9:0 10:0 11:0 12:0 13:0 14:1 15:0 16:0.427668 17:0.525739 18:0.0441639 19:0.00242892 20:0.987343 21:0.00920846 22:0.00279802 23:0.000650149 
0.02878252440658721 1:0.169704 2:0.239038 3:0.591258 4:0.126346 5:0.415427 6:0.0604751 7:0.0149205 8:0.798258 9:1 10:0 11:0 12:0 13:0 14:0 15:0 16:0.100275 17:0.196327 18:0.428019 19:0.275378 20:0.874202 21:0.053254 22:0.0706189 23:0.00192536 
0.5 1:0.974262 2:0.0153812 3:0.0103572 4:0.0748579 5:0.307894 6:0.127796 7:0.0861585 8:0.711188 9:0 10:0 11:0 12:0 13:0 14:0 15:1 16:0.154037 17:0.0968273 18:0.0135273 19:0.735608 20:0.677223 21:0.144299 22:0.124947 23:0.0535307 
0.1953136132293913 1:0.72926 2:0.0533954 3:0.217345 4:0.656908 5:0.735806 6:0.177259 7:0.0253848 8:0.140449 9:0 10:0 11:0 12:0 13:0 14:1 15:0 16:0.650149 17:0.227763 18:0.114841 19:0.00724699 20:0.762884 21:0.222432 22:0.0136176 23:0.00106667 
0.06459090902942501 1:0.722195 2:0.113735 3:0.16407 4:0.828961 5:0.819027 6:0.10996 7:0.00412654 8:0.0569522 9:0 10:0 11:0 12:0 13:0 14:1 15:1 16:0.395072 17:0.331458 18:0.118384 19:0.155086 20:0.759012 21:0.232886 22:0.00737956 23:0.000722473 
0.5 1:0.288299 2:0.335968 3:0.375732 4:0.507558 5:0.6948 6:0.198948 7:0.0582731 8:0.235221 9:0 10:0 11:0 12:0 13:0 14:0 15:1 16:0.0861329 17:0.185731 18:0.34888 19:0.379256 20:0.25 21:0.25 22:0.25 23:0.25 
0.5 1:0.044591 2:0.107584 3:0.847825 4:0.0503945 5:0.105151 6:0.572476 7:0.0991378 8:0.277992 9:0 10:0 11:0 12:0 13:0 14:0 15:0 16:0.0657658 17:0.064845 18:0.019203 19:0.850186 20:0.25 21:0.25 22:0.25 23:0.25 
0.5 1:0.741362 2:0.208098 3:0.0505401 4:0.245505 5:0.352798 6:0.223414 7:0.0350183 8:0.496064 9:0 10:0 11:0 12:0 13:0 14:0 15:0 16:0.102006 17:0.181086 18:0.0139848 19:0.702923 20:0.969428 21:0.0108519 22:0.016837 23:0.00288285 
0.008228093802836216 1:0.718175 2:0.0828464 3:0.198979 4:0.269877 5:0.295109 6:0.478719 7:0.00780749 8:0.243596 9:0 10:0 11:0 12:0 13:0 14:0 15:1 16:0.42955 17:0.455683 18:0.0816232 19:0.0331436 20:0.691937 21:0.118378 22:0.117852 23:0.0718332 
0.5 1:0.996951 2:0.00115016 3:0.00189873 4:0.77112 5:0.822587 6:0.100557 7:0.0189781 8:0.109345 9:1 10:0 11:0 12:0 13:0 14:0 15:0 16:0.143898 17:0.153993 18:0.0241538 19:0.677956 20:0.25 21:0.25 22:0.25 23:0.25 
0.04653811820196608 1:3.09346e-07 2:3.34506e-07 3:0.999999 4:0.126814 5:0.852725 6:0.0195705 7:0.00196297 8:0.851653 9:1 10:0 11:0 12:0 13:0 14:1 15:0 16:0.565503 17:0.361146 18:0.0556302 19:0.0177203 20:0.94942 21:0.0112608 22:0.0390706 23:0.00024835 
0.5 1:0.189224 2:0.63495 3:0.175826 4:0.169706 5:0.996415 6:0.0404294 7:0.00216334 8:0.787701 9:1 10:0 11:0 12:1 13:0 14:0 15:0 16:0.119251 17:0.0914681 18:0.00969831 19:0.779583 20:0.25 21:0.25 22:0.25 23:0.25 
0.1214321741143316 1:0.0148161 2:0.00864061 3:0.976543 4:0.18859 5:0.729463 6:0.0591462 7:0.169029 8:0.583234 9:1 10:0 11:0 12:1 13:0 14:0 15:1 16:0.0865476 17:0.197328 18:0.149558 19:0.566566 20:0.133308 21:0.696295 22:0.0814157 23:0.0889807 
0.4996341748818393 1:0.162457 2:0.052017 3:0.785526 4:0.918917 5:0.964456 6:0.0231617 7:0.00200611 8:0.055915 9:0 10:0 11:0 12:0 13:0 14:0 15:0 16:0.273916 17:0.335016 18:0.106244 19:0.284823 20:0.25 21:0.25 22:0.25 23:0.25 
0.3914863028358941 1:0.632533 2:0.196509 3:0.170958 4:0.69621 5:0.855188 6:0.088129 7:0.006372 8:0.209289 9:0 10:0 11:0 12:0 13:0 14:0 15:0 16:0.759245 17:0.214528 18:0.0219447 19:0.00428228 20:0.735113 21:0.230437 22:0.028059 23:0.00639134 
0.2133936694122298 1:0.00268833 2:0.00147937 3:0.995832 4:0.0738588 5:0.242937 6:0.213255 7:0.702251 8:0.0106347 9:0 10:0 11:0 12:0 13:0 14:0 15:0 16:0.108276 17:0.109783 18:0.767509 19:0.0144326 20:0.140134 21:0.667063 22:0.146079 23:0.0467246 
0.3693353827979862 1:0.934036 2:0.0223923 3:0.0435722 4:0.631439 5:0.847309 6:0.160484 7:0.0109369 8:0.197139 9:1 10:0 11:0 12:1 13:0 14:0 15:1 16:0.251903 17:0.412276 18:0.118534 19:0.217287 20:0.905492 21:0.0120124 22:0.074 23:0.00849605 
0.5 1:0.0706858 2:0.387467 3:0.541847 4:0.561808 5:0.806745 6:0.107637 7:0.0568805 8:0.273674 9:0 10:0 11:0 12:0 13:0 14:0 15:0 16:0.296711 17:0.19254 18:0.198737 19:0.312013 20:0.25 21:0.25 22:0.25 23:0.25 
0.5 1:0.00150168 2:0.976454 3:0.022044 4:0.582158 5:0.756641 6:0.115478 7:0.228986 8:0.0733776 9:0 10:0 11:0 12:0 13:0 14:0 15:1 16:0.157033 17:0.357116 18:0.0251015 19:0.46075 20:0.25 21:0.25 22:0.25 23:0.25 
0.5 1:0.692752 2:0.0931492 3:0.214099 4:0.377806 5:0.5 6:0.378377 7:0.173081 8:0.070736 9:1 10:0 11:0 12:1 13:0 14:1 15:1 16:0.166046 17:0.493358 18:0.0204265 19:0.32017 20:0.25 21:0.25 22:0.25 23:0.25 
0.5 1:1.26676e-06 2:1.49987e-06 3:0.999997 4:0.00920933 5:0.53659 6:0.0432713 7:0.000537721 8:0.946982 9:0 10:0 11:0 12:0 13:0 14:0 15:0 16:0.264052 17:0.569307 18:0.11571 19:0.050931 20:0.25 21:0.25 22:0.25 23:0.25 
0.2041272516815036 1:0.0472536 2:0.00330444 3:0.949442 4:0.0692176 5:0.140933 6:0.222221 7:0.278981 8:0.42958 9:0 10:0 11:0 12:0 13:0 14:0 15:0 16:0.498953 17:0.305683 18:0.142018 19:0.0533468 20:0.25 21:0.25 22:0.25 23:0.25 
0.5 1:0.109941 2:0.290283 3:0.599775 4:0.39437 5:0.892571 6:0.0472272 7:0.141319 8:0.417083 9:0 10:0 11:1 12:0 13:0 14:0 15:0 16:0.0818476 17:0.0918109 18:0.0217721 19:0.804569 20:0.25 21:0.25 22:0.25 23:0.25 
0.5 1:0.0790223 2:0.170774 3:0.750203 4:0.217391 5:0.42968 6:0.339745 7:0.180823 8:0.262042 9:0 10:0 11:0 12:0 13:0 14:0 15:0 16:0.411542 17:0.201721 18:0.185031 19:0.201706 20:0.104409 21:0.724524 22:0.0796965 23:0.0913709 
0.5 1:0.00563977 2:0.888866 3:0.105494 4:0.825755 5:0.998025 6:0.00181006 7:0.149729 8:0.0227068 9:1 10:0 11:0 12:0 13:0 14:0 15:1 16:0.114999 17:0.0462418 18:0.0443828 19:0.794377 20:0.25 21:0.25 22:0.25 23:0.25 
0.5 1:0.979491 2:0.00598212 3:0.0145273 4:0.273117 5:0.517369 6:0.194766 7:0.171887 8:0.36023 9:1 10:0 11:0 12:0 13:0 14:0 15:1 16:0.367955 17:0.303323 18:0.0911772 19:0.237544 20:0.25 21:0.25 22:0.25 23:0.25 
0.5 1:0.788564 2:0.0139067 3:0.19753 4:0.20835 5:0.275705 6:0.317448 7:0.119114 8:0.355088 9:0 10:0 11:0 12:0 13:0 14:0 15:0 16:0.527769 17:0.257243 18:0.182993 19:0.0319951 20:0.0323825 21:0.837982 22:0.0802495 23:0.0493863 
0.5 1:1.17515e-06 2:1.3362e-06 3:0.999997 4:0.135419 5:0.173592 6:0.689242 7:0.0728037 8:0.102535 9:0 10:0 11:0 12:0 13:0 14:0 15:0 16:0.115582 17:0.155901 18:0.0170923 19:0.711425 20:0.653392 21:0.155519 22:0.127256 23:0.063833 
0.5 1:0.0335232 2:0.0412028 3:0.925274 4:0.14001 5:0.352205 6:0.18856 7:0.0767421 8:0.594688 9:0 10:0 11:0 12:0 13:0 14:0 15:1 16:0.284862 17:0.189652 18:0.0706623 19:0.454824 20:0.25 21:0.25 22:0.25 23:0.25 
0.5 1:0.693171 2:0.0843201 3:0.222509 4:0.252933 5:0.588277 6:0.181222 7:0.0768423 8:0.489003 9:0 10:0 11:0 12:0 13:0 14:0 15:1 16:0.157832 17:0.494014 18:0.0465417 19:0.301612 20:0.25 21:0.25 22:0.25 23:0.25 
0.5 1:0.0053147 2:0.0796293 3:0.915056 4:0.333991 5:0.434007 6:0.253216 7:0.0364527 8:0.37634 9:0 10:0 11:0 12:1 13:0 14:0 15:1 16:0.144053 17:0.219599 18:0.0807189 19:0.555628 20:0.25 21:0.25 22:0.25 23:0.25 
0.5 1:0.000373334 2:0.00221177 3:0.997415 4:0.108968 5:0.198348 6:0.409008 7:0.304522 8:0.177502 9:0 10:0 11:0 12:0 13:0 14:0 15:0 16:0.0103105 17:0.0528549 18:0.0173112 19:0.919523 20:0.25 21:0.25 22:0.25 23:0.25 
0.06400144326208576 1:0.563374 2:0.0589403 3:0.377685 4:0.138843 5:0.0581517 6:0.615906 7:0.0469667 8:0.198284 9:0 10:0 11:0 12:0 13:0 14:0 15:0 16:0.175516 17:0.0639584 18:0.747811 19:0.0127139 20:0.677256 21:0.129022 22:0.0931798 23:0.100542 
0.5 1:0.0379269 2:0.267332 3:0.694741 4:0.201899 5:0.403688 6:0.245218 7:0.477219 8:0.075664 9:0 10:0 11:0 12:0 13:0 14:0 15:0 16:0.225745 17:0.263092 18:0.407407 19:0.103756 20:0.0581183 21:0.229095 22:0.597561 23:0.115226 
0.5 1:0.000919492 2:0.974404 3:0.0246761 4:0.228205 5:0.515002 6:0.150447 7:0.3657 8:0.255648 9:0 10:0 11:0 12:0 13:0 14:0 15:1 16:0.157749 17:0.195987 18:0.57756 19:0.0687043 20:0.119342 21:0.0263459 22:0.852987 23:0.00132486 
0.2303186619377445 1:4.47677e-07 2:4.49923e-07 3:0.999999 4:0.584184 5:0.665501 6:0.300993 7:0.0324232 8:0.0824003 9:0 10:0 11:0 12:0 13:0 14:0 15:1 16:0.190795 17:0.334772 18:0.0191608 19:0.455272 20:0.146721 21:0.662011 22:0.148777 23:0.0424903 
0.5 1:0.608124 2:0.130989 3:0.260887 4:0.0682613 5:0.398057 6:0.105526 7:0.0475927 8:0.77862 9:0 10:0 11:0 12:0 13:0 14:0 15:0 16:0.211916 17:0.604372 18:0.0177482 19:0.165963 20:0.114906 21:0.723926 22:0.0695073 23:0.0916608 
0.5 1:0.979491 2:0.00410347 3:0.0164059 4:0.204114 5:0.286793 6:0.543834 7:0.206356 8:0.0456961 9:1 10:0 11:0 12:0 13:0 14:1 15:1 16:0.411129 17:0.376473 18:0.0434785 19:0.168919 20:0.62723 21:0.154076 22:0.159591 23:0.0591023 
0.5 1:0.317851 2:0.0642494 3:0.617899 4:0.182545 5:0.24882 6:0.600772 7:0.0840348 8:0.132648 9:0 10:0 11:0 12:0 13:0 14:0 15:1 16:0.0508468 17:0.133564 18:0.705816 19:0.109773 20:0.25 21:0.25 22:0.25 23:0.25 
0.5 1:0.369482 2:0.549705 3:0.0808136 4:0.0236202 5:0.607739 6:0.0286437 7:0.00188814 8:0.945848 9:0 10:0 11:0 12:0 13:0 14:0 15:0 16:0.0877261 17:0.220199 18:0.256036 19:0.436039 20:0.716093 21:0.193605 22:0.0508479 23:0.0394543 
0.5 1:0.272861 2:0.315891 3:0.411248 4:0.214521 5:0.453196 6:0.181862 7:0.209586 8:0.39403 9:0 10:0 11:0 12:0 13:0 14:0 15:0 16:0.0599161 17:0.27338 18:0.199184 19:0.46752 20:0.25 21:0.25 22:0.25 23:0.25 
0.5 1:0.504771 2:0.0981627 3:0.397066 4:0.117899 5:0.191541 6:0.49378 7:0.179257 8:0.209064 9:0 10:0 11:0 12:0 13:0 14:0 15:0 16:0.59289 17:0.274711 18:0.108723 19:0.0236765 20:0.25 21:0.25 22:0.25 23:0.25 
0.5 1:0.0502518 2:0.708033 3:0.241716 4:0.160984 5:0.180129 6:0.785924 7:0.0191721 8:0.03392 9:0 10:0 11:0 12:0 13:0 14:0 15:0 16:0.495585 17:0.291323 18:0.103078 19:0.110014 20:0.25 21:0.25 22:0.25 23:0.25 
0.5 1:0.0820072 2:0.327362 3:0.590631 4:0.109365 5:0.727539 6:0.0344136 7:0.0200687 8:0.836153 9:0 10:0 11:0 12:0 13:0 14:0 15:0 16:0.429317 17:0.155779 18:0.180221 19:0.234682 20:0.25 21:0.25 22:0.25 23:0.25 
0.5 1:0.000172691 2:0.00809074 3:0.991737 4:0.449515 5:0.51469 6:0.423455 7:0.0615388 8:0.0654909 9:0 10:0 11:0 12:0 13:0 14:0 15:0 16:0.0613955 17:0.158171 18:0.197651 19:0.582782 20:0.25 21:0.25 22:0.25 23:0.25 
0.5 1:0.00272263 2:0.032566 3:0.964711 4:0.191309 5:0.338887 6:0.193842 7:0.148493 8:0.466356 9:0 10:0 11:0 12:0 13:0 14:0 15:0 16:0.144858 17:0.323684 18:0.200378 19:0.331079 20:0.25 21:0.25 22:0.25 23:0.25 
0.5 1:0.0711445 2:0.835189 3:0.0936666 4:0.227352 5:0.772353 6:0.0443276 7:0.545107 8:0.183214 9:0 10:0 11:0 12:0 13:0 14:0 15:0 16:0.198364 17:0.162792 18:0.466656 19:0.172188 20:0.25 21:0.25 22:0.25 23:0.25 
0.5 1:0.991582 2:0.00180122 3:0.00661696 4:0.278035 5:0.355862 6:0.426414 7:0.0892782 8:0.206273 9:1 10:0 11:0 12:0 13:0 14:0 15:1 16:0.479936 17:0.304905 18:0.162141 19:0.0530176 20:0.705078 21:0.22188 22:0.0607879 23:0.0122545 
0.5 1:0.0924744 2:0.0921481 3:0.815377 4:0.408663 5:0.538698 6:0.277568 7:0.0514862 8:0.262283 9:0 10:0 11:0 12:0 13:0 14:0 15:1 16:0.324754 17:0.168023 18:0.0846505 19:0.422573 20:0.25 21:0.25 22:0.25 23:0.25 
0.5 1:0.271759 2:0.441954 3:0.286287 4:0.238871 5:0.351977 6:0.345671 7:0.335722 8:0.0797366 9:0 10:0 11:0 12:0 13:0 14:0 15:1 16:0.180119 17:0.331333 18:0.214778 19:0.27377 20:0.132644 21:0.108162 22:0.0325096 23:0.726684 
0.5 1:0.00281075 2:0.903103 3:0.0940867 4:0.311545 5:0.34089 6:0.61565 7:0.0455235 8:0.027281 9:0 10:0 11:1 12:0 13:0 14:0 15:1 16:0.217201 17:0.663156 18:0.102571 19:0.0170724 20:0.159023 21:0.705695 22:0.1044 23:0.0308822 
0.5 1:4.9439e-06 2:5.30639e-06 3:0.99999 4:0.215299 5:0.11101 6:0.257265 7:0.0234614 8:0.503974 9:0 10:0 11:0 12:0 13:0 14:0 15:0 16:0.145068 17:0.524494 18:0.152986 19:0.177452 20:0.083627 21:0.716496 22:0.123299 23:0.0765781 
0.5 1:0.36644 2:0.491094 3:0.142465 4:0.338523 5:0.430866 6:0.492701 7:0.0835875 8:0.0851886 9:0 10:0 11:0 12:0 13:0 14:0 15:1 16:0.566368 17:0.227535 18:0.0190941 19:0.187003 20:0.25 21:0.25 22:0.25 23:0.25 
0.5 1:0.275506 2:0.0126921 3:0.711802 4:0.0922359 5:0.215257 6:0.338992 7:0.537396 8:0.0313764 9:0 10:0 11:0 12:0 13:0 14:0 15:1 16:0.353047 17:0.250952 18:0.18086 19:0.215141 20:0.0781569 21:0.314199 22:0.54705 23:0.0605942 
0.4051444805190348 1:0.0455559 2:0.872508 3:0.0819358 4:0.287567 5:0.350825 6:0.38234 7:0.194233 8:0.13586 9:1 10:0 11:0 12:1 13:0 14:0 15:0 16:0.186477 17:0.392372 18:0.0232093 19:0.397942 20:0.257171 21:0.332057 22:0.24349 23:0.167282 
0.4696232553379326 1:0.602605 2:0.229723 3:0.167672 4:0.202211 5:0.472697 6:0.270548 7:0.412188 8:0.115054 9:1 10:0 11:0 12:1 13:0 14:0 15:1 16:0.600401 17:0.212138 18:0.160649 19:0.0268121 20:0.012816 21:0.476269 22:0.4935 23:0.0174154 
0.09442256882939332 1:0.00684076 2:0.00485295 3:0.988306 4:0.705847 5:0.796597 6:0.169435 7:0.0188982 8:0.10582 9:0 10:0 11:0 12:0 13:0 14:0 15:0 16:0.0802786 17:0.0957882 18:0.02528 19:0.798653 20:0.674347 21:0.132659 22:0.146405 23:0.0465886 
0.5 1:0.497016 2:0.290573 3:0.212411 4:0.0907785 5:0.443931 6:0.127781 7:0.256366 8:0.525075 9:0 10:0 11:0 12:0 13:0 14:0 15:1 16:0.620937 17:0.342235 18:0.0277085 19:0.00911995 20:0.25 21:0.25 22:0.25 23:0.25 
0.4737856713727611 1:0.506009 2:0.0774862 3:0.416505 4:0.673688 5:0.778359 6:0.143208 7:0.0154001 8:0.167705 9:1 10:0 11:0 12:0 13:0 14:0 15:1 16:0.483391 17:0.375806 18:0.0405803 19:0.100222 20:0.25 21:0.25 22:0.25 23:0.25 
0.5 1:9.76061e-07 2:9.88659e-07 3:0.999998 4:0.020022 5:0.354814 6:0.0415608 7:0.00440365 8:0.934014 9:0 10:0 11:0 12:0 13:0 14:0 15:0 16:0.51226 17:0.303375 18:0.174797 19:0.00956721 20:0.1064 21:0.696618 22:0.140491 23:0.0564907 
0.171127682904965 1:0.0430372 2:0.289065 3:0.667898 4:0.339825 5:0.547253 6:0.186917 7:0.0149052 8:0.458352 9:0 10:0 11:0 12:0 13:0 14:1 15:1 16:0.22037 17:0.396623 18:0.0382802 19:0.344727 20:0.198427 21:0.75017 22:0.039111 23:0.0122925 
0.1103639815097671 1:0.0140677 2:0.06241 3:0.923522 4:0.155588 5:0.239183 6:0.461646 7:0.315872 8:0.0668934 9:1 10:0 11:0 12:1 13:0 14:0 15:1 16:0.429394 17:0.476559 18:0.0565916 19:0.0374556 20:0.132644 21:0.108162 22:0.0325096 23:0.726684 
0.5 1:0.54537 2:0.374392 3:0.080238 4:0.0444819 5:0.787249 6:0.00390239 7:0.943764 8:0.00785134 9:1 10:0 11:0 12:0 13:0 14:0 15:1 16:0.0388061 17:0.229484 18:0.0976583 19:0.634052 20:0.25 21:0.25 22:0.25 23:0.25 
0.5 1:0.407653 2:0.439507 3:0.15284 4:0.253248 5:0.458384 6:0.158387 7:0.100414 8:0.487951 9:0 10:0 11:0 12:0 13:0 14:0 15:1 16:0.372911 17:0.43799 18:0.053221 19:0.135878 20:0.25 21:0.25 22:0.25 23:0.25 
0.5 1:0.134506 2:0.305875 3:0.559619 4:0.439157 5:0.690214 6:0.140167 7:0.106301 8:0.314375 9:0 10:0 11:0 12:0 13:0 14:0 15:1 16:0.301943 17:0.212768 18:0.131185 19:0.354104 20:0.25 21:0.25 22:0.25 23:0.25 
0.5 1:0.0184547 2:0.0255317 3:0.956014 4:0.175942 5:0.202814 6:0.700907 7:0.00918399 8:0.113967 9:0 10:0 11:0 12:0 13:0 14:0 15:0 16:0.0151418 17:0.0362901 18:0.539764 19:0.408804 20:0.25 21:0.25 22:0.25 23:0.25 
0.5 1:0.00118047 2:0.00259037 3:0.996229 4:0.171151 5:0.354546 6:0.250983 7:0.531878 8:0.0459879 9:0 10:0 11:0 12:0 13:0 14:0 15:1 16:0.144125 17:0.228354 18:0.0460571 19:0.581464 20:0.25 21:0.25 22:0.25 23:0.25 
0.5 1:0.411308 2:0.318502 3:0.270191 4:0.289329 5:0.422189 6:0.438369 7:0.0746526 8:0.19765 9:0 10:0 11:0 12:1 13:0 14:0 15:1 16:0.250212 17:0.304879 18:0.130287 19:0.314622 20:0.25 21:0.25 22:0.25 23:0.25 
0.5 1:0.00629335 2:0.0231195 3:0.970587 4:0.551279 5:0.727492 6:0.190394 7:0.187272 8:0.071055 9:0 10:0 11:0 12:1 13:0 14:0 15:0 16:0.106343 17:0.0720946 18:0.0352872 19:0.786275 20:0.25 21:0.25 22:0.25 23:0.25 
0.2490978462226903 1:1.49011e-07 2:1.68843e-07 3:1 4:0.0637301 5:0.585508 6:0.0242526 7:0.883507 8:0.0285108 9:0 10:0 11:0 12:1 13:0 14:0 15:0 16:0.384791 17:0.469557 18:0.132891 19:0.0127609 20:0.25 21:0.25 22:0.25 23:0.25 
-0.75 1:0.676111 2:0.228199 3:0.0956906 4:0.446749 5:0.626014 6:0.269155 7:0.142765 8:0.141331 9:0 10:0 11:0 12:0 13:0 14:0 15:1 16:0.377657 17:0.470788 18:0.0456735 19:0.105881 20:0.25 21:0.25 22:0.25 23:0.25 
-0.4637323562349144 1:0.284113 2:0.698887 3:0.0170003 4:0.217993 5:0.352473 6:0.45631 7:0.216393 8:0.109304 9:0 10:0 11:0 12:1 13:0 14:0 15:1 16:0.132139 17:0.139974 18:0.00733729 19:0.720549 20:0.028965 21:0.0745591 22:0.107118 23:0.789358 
-0.75 1:0.00758217 2:0.0354209 3:0.956997 4:0.206223 5:0.339771 6:0.393999 7:0.0663535 8:0.333424 9:0 10:0 11:0 12:0 13:0 14:0 15:1 16:0.11992 17:0.084715 18:0.00941329 19:0.785951 20:0.25 21:0.25 22:0.25 23:0.25 
-0.75 1:2.0663e-07 2:2.2287e-07 3:1 4:0.44792 5:0.484197 6:0.481466 7:0.0430181 8:0.0275953 9:0 10:0 11:0 12:0 13:0 14:0 15:0 16:0.0860339 17:0.276052 18:0.159148 19:0.478766 20:0.25 21:0.25 22:0.25 23:0.25 
-0.75 1:0.572178 2:0.348429 3:0.0793929 4:0.322291 5:0.528752 6:0.210832 7:0.0314091 8:0.435468 9:1 10:0 11:0 12:1 13:0 14:0 15:1 16:0.272931 17:0.459445 18:0.0991404 19:0.168483 20:0.0460765 21:0.0471939 22:0.0311211 23:0.875609 
-0.3773597438019987 1:3.98398e-07 2:4.98806e-07 3:0.999999 4:0.00250162 5:0.409738 6:0.0139515 7:0.00104099 8:0.982506 9:0 10:0 11:0 12:0 13:0 14:0 15:1 16:0.120812 17:0.107646 18:0.0521697 19:0.719372 20:0.25 21:0.25 22:0.25 23:0.25 
-0.5624606226716908 1:6.29909e-07 2:6.93852e-07 3:0.999999 4:0.634098 5:0.971483 6:0.0123788 7:0.0281679 8:0.325355 9:0 10:0 11:0 12:0 13:0 14:0 15:0 16:0.0662883 17:0.0639629 18:0.0325235 19:0.837225 20:0.0100989 21:0.0900545 22:0.0500742 23:0.849772 
-0.75 1:1.27031e-06 2:2.05952e-06 3:0.999997 4:0.656758 5:0.703748 6:0.228411 7:0.0488779 8:0.0659531 9:0 10:0 11:0 12:0 13:0 14:0 15:1 16:0.500126 17:0.306168 18:0.160944 19:0.0327613 20:0.0224216 21:0.040289 22:0.0693622 23:0.867927 
-0.75 1:4.38931e-07 2:4.96784e-07 3:0.999999 4:0.0955005 5:0.134102 6:0.700093 7:0.0689639 8:0.135443 9:0 10:0 11:0 12:0 13:0 14:0 15:0 16:0.0339647 17:0.0384933 18:0.0290124 19:0.89853 20:0.0383893 21:0.793683 22:0.0973277 23:0.0706002 
-0.75 1:0.42446 2:0.514194 3:0.0613464 4:0.07219 5:0.182809 6:0.528671 7:0.260653 8:0.138486 9:0 10:0 11:0 12:0 13:0 14:0 15:1 16:0.558335 17:0.0657932 18:0.329409 19:0.0464632 20:0.056034 21:0.397283 22:0.099706 23:0.446977 
-0.05423288620108273 1:0.325289 2:0.647928 3:0.0267829 4:0.0255106 5:0.758178 6:0.0267954 7:0.111977 8:0.835717 9:1 10:0 11:0 12:0 13:0 14:0 15:0 16:0.112167 17:0.281179 18:0.1285 19:0.478154 20:0.0229623 21:0.0379997 22:0.0131805 23:0.925857 
-0.75 1:4.12413e-06 2:4.84842e-06 3:0.999991 4:0.00825138 5:0.520753 6:0.0395348 7:0.000140253 8:0.952074 9:0 10:0 11:0 12:0 13:0 14:0 15:0 16:0.557697 17:0.184114 18:0.0889035 19:0.169286 20:0.25 21:0.25 22:0.25 23:0.25 
-0.75 1:3.43022e-07 2:3.7351e-07 3:0.999999 4:0.235891 5:0.573707 6:0.33661 7:0.0173292 8:0.41017 9:0 10:0 11:0 12:0 13:0 14:0 15:1 16:0.215882 17:0.0973485 18:0.024158 19:0.662611 20:0.0297766 21:0.0518979 22:0.0636183 23:0.854707 
-0.75 1:0.430925 2:0.231536 3:0.337539 4:0.0985308 5:0.262053 6:0.324769 7:0.441637 8:0.135063 9:0 10:0 11:0 12:0 13:0 14:0 15:0 16:0.0522095 17:0.0628253 18:0.780685 19:0.10428 20:0.0668801 21:0.171249 22:0.247742 23:0.514129 
-0.75 1:0.992753 2:0.00484756 3:0.00239929 4:0.362432 5:0.429364 6:0.446215 7:0.0188549 8:0.172498 9:1 10:0 11:0 12:0 13:0 14:0 15:1 16:0.17697 17:0.500305 18:0.0403115 19:0.282414 20:0.25 21:0.25 22:0.25 23:0.25 
-0.75 1:0.353089 2:0.334451 3:0.31246 4:0.647673 5:0.794094 6:0.196379 7:0.0106052 8:0.145343 9:0 10:0 11:0 12:0 13:0 14:0 15:1 16:0.493001 17:0.326634 18:0.0552938 19:0.125071 20:0.0626139 21:0.61388 22:0.191173 23:0.132333 
-0.3302888321993474 1:0.891616 2:0.060404 3:0.04798 4:0.200597 5:0.280249 6:0.531561 7:0.116543 8:0.151298 9:1 10:0 11:0 12:0 13:0 14:0 15:1 16:0.29137 17:0.29548 18:0.134315 19:0.278835 20:0.0354325 21:0.294184 22:0.0377185 23:0.632665 
-0.75 1:0.917283 2:0.0503206 3:0.0323966 4:0.752252 5:0.799141 6:0.130678 7:0.0182879 8:0.098782 9:0 10:0 11:0 12:0 13:0 14:0 15:1 16:0.329294 17:0.377864 18:0.0376134 19:0.255229 20:0.25 21:0.25 22:0.25 23:0.25 
-0.75 1:0.096083 2:0.249803 3:0.654114 4:0.00970395 5:0.275051 6:0.0732489 7:0.000352599 8:0.916695 9:0 10:0 11:0 12:0 13:0 14:0 15:0 16:0.262587 17:0.224774 18:0.131373 19:0.381266 20:0.25 21:0.25 22:0.25 23:0.25 
-0.75 1:0.0716879 2:0.659365 3:0.268947 4:0.0880275 5:0.309864 6:0.128603 7:0.0401894 8:0.74318 9:0 10:0 11:0 12:0 13:0 14:0 15:0 16:0.174041 17:0.452417 18:0.179378 19:0.194165 20:0.157167 21:0.688454 22:0.0812505 23:0.0731284 
-0.3853845059115693 1:0.572377 2:0.40183 3:0.0257929 4:0.0226667 5:0.766834 6:0.0205171 7:0.0525028 8:0.904313 9:1 10:0 11:0 12:0 13:0 14:0 15:0 16:0.0717556 17:0.0364396 18:0.111862 19:0.779943 20:0.25 21:0.25 22:0.25 23:0.25 
-0.75 1:0.0676389 2:0.0235124 3:0.908849 4:0.144364 5:0.478361 6:0.0971151 7:0.00343153 8:0.755089 9:0 10:0 11:0 12:0 13:0 14:0 15:0 16:0.290496 17:0.332268 18:0.142353 19:0.234882 20:0.25 21:0.25 22:0.25 23:0.25 
-0.75 1:0.0102164 2:0.0152316 3:0.974552 4:0.342162 5:0.414902 6:0.478354 7:0.0141831 8:0.165301 9:0 10:0 11:0 12:0 13:0 14:0 15:1 16:0.0923385 17:0.144635 18:0.12207 19:0.640957 20:0.038973 21:0.0394705 22:0.0430025 23:0.878554 
-0.75 1:1.28415e-07 2:1.40479e-07 3:1 4:0.00297812 5:0.790645 6:0.0171322 7:0.000286643 8:0.979603 9:0 10:0 11:0 12:0 13:0 14:0 15:0 16:0.236356 17:0.141844 18:0.0201289 19:0.601672 20:0.25 21:0.25 22:0.25 23:0.25 
-0.75 1:0.125028 2:0.834117 3:0.0408553 4:0.00612525 5:0.279714 6:0.0126585 7:0.88507 8:0.0961459 9:0 10:0 11:0 12:0 13:0 14:0 15:1 16:0.0422062 17:0.177299 18:0.615564 19:0.164931 20:0.0229623 21:0.0379997 22:0.0131805 23:0.925857 
-0.1660443231109693 1:0.0149179 2:0.0874749 3:0.897607 4:0.0236213 5:0.376353 6:0.0260249 7:0.0248741 8:0.92548 9:0 10:0 11:0 12:1 13:0 14:0 15:0 16:0.303992 17:0.426101 18:0.0330118 19:0.236895 20:0.026523 21:0.0328327 22:0.026192 23:0.914452 
-0.75 1:0.432586 2:0.453204 3:0.11421 4:0.525846 5:0.580181 6:0.386094 7:0.00824377 8:0.0798154 9:0 10:0 11:0 12:0 13:0 14:0 15:0 16:0.189822 17:0.406911 18:0.0181885 19:0.385078 20:0.25 21:0.25 22:0.25 23:0.25 
-0.75 1:0.907388 2:0.0155037 3:0.0771078 4:0.0145155 5:0.419721 6:0.0323228 7:0.00429385 8:0.948868 9:0 10:0 11:0 12:0 13:0 14:1 15:0 16:0.10517 17:0.482458 18:0.0134875 19:0.398885 20:0.751631 21:0.219348 22:0.0284949 23:0.000525806 
-0.4530429185680246 1:2.71051e-07 2:2.94915e-07 3:0.999999 4:0.246419 5:0.5 6:0.189253 7:0.399148 8:0.165181 9:0 10:0 11:0 12:0 13:0 14:0 15:0 16:0.0557632 17:0.0610109 18:0.0377739 19:0.845452 20:0.0551552 21:0.17414 22:0.333513 23:0.437191 
-0.75 1:1.4852e-06 2:1.65812e-06 3:0.999997 4:0.559717 5:0.600046 6:0.373505 7:0.0287955 8:0.0379828 9:0 10:0 11:0 12:0 13:0 14:0 15:0 16:0.324554 17:0.275842 18:0.238731 19:0.160873 20:0.157167 21:0.688454 22:0.0812505 23:0.0731284 
-0.7214677305400082 1:0.825513 2:0.149361 3:0.0251266 4:0.399719 5:0.437045 6:0.520411 7:0.00840245 8:0.071467 9:0 10:0 11:0 12:0 13:0 14:0 15:0 16:0.315278 17:0.38911 18:0.0603123 19:0.235299 20:0.25 21:0.25 22:0.25 23:0.25 
-0.75 1:0.596587 2:0.346144 3:0.0572688 4:0.363923 5:0.536107 6:0.37974 7:0.103869 8:0.152468 9:0 10:0 11:0 12:0 13:0 14:0 15:0 16:0.384845 17:0.334642 18:0.0903638 19:0.190149 20:0.25 21:0.25 22:0.25 23:0.25 
-0.75 1:0.836047 2:0.125715 3:0.0382383 4:0.0637257 5:0.272152 6:0.138469 7:0.035866 8:0.76194 9:0 10:0 11:0 12:0 13:0 14:0 15:0 16:0.327673 17:0.285699 18:0.226438 19:0.160191 20:0.733389 21:0.0051029 22:0.256358 23:0.00515046 
-0.08111050848568901 1:0.222858 2:0.00918652 3:0.767956 4:0.29946 5:0.53492 6:0.156498 7:0.00540341 8:0.538639 9:0 10:0 11:0 12:0 13:0 14:0 15:0 16:0.212394 17:0.446541 18:0.0150712 19:0.325993 20:0.0290651 21:0.0600476 22:0.0888954 23:0.821992 
-0.3349173669233577 1:0.00193219 2:0.143144 3:0.854924 4:0.209986 5:0.397202 6:0.194375 7:0.0802718 8:0.515367 9:0 10:0 11:0 12:0 13:0 14:0 15:0 16:0.1396 17:0.1 18:0.0426108 19:0.717789 20:0.0474222 21:0.617225 22:0.10622 23:0.229134 
-0.75 1:0.0110707 2:0.0485835 3:0.940346 4:0.108703 5:0.387144 6:0.073163 7:0.249876 8:0.568257 9:0 10:0 11:0 12:0 13:0 14:0 15:0 16:0.184178 17:0.111264 18:0.0309 19:0.673658 20:0.0666693 21:0.751532 22:0.0985678 23:0.0832309 
-0.6640972547270093 1:0.852312 2:0.107129 3:0.040559 4:0.326591 5:0.388263 6:0.576932 7:0.0231708 8:0.0733055 9:0 10:0 11:0 12:0 13:0 14:0 15:1 16:0.18446 17:0.426322 18:0.0365923 19:0.352626 20:0.25 21:0.25 22:0.25 23:0.25 
-0.3836418159697566 1:0.885911 2:0.0718875 3:0.0422012 4:0.221115 5:0.400551 6:0.368148 7:0.294284 8:0.116453 9:0 10:0 11:0 12:0 13:0 14:0 15:1 16:0.0915882 17:0.173786 18:0.715527 19:0.0190982 20:0.0417432 21:0.520093 22:0.358104 23:0.0800599 
-0.75 1:0.060115 2:0.161486 3:0.778399 4:0.134964 5:0.754221 6:0.176693 7:0.0821183 8:0.606225 9:0 10:0 11:0 12:1 13:0 14:0 15:0 16:0.0516842 17:0.0404258 18:0.0297639 19:0.878126 20:0.25 21:0.25 22:0.25 23:0.25 
-0.75 1:0.183429 2:0.0745518 3:0.742019 4:0.390564 5:0.5 6:0.281476 7:0.0318493 8:0.296111 9:0 10:0 11:0 12:1 13:0 14:0 15:1 16:0.273269 17:0.567031 18:0.0517453 19:0.107955 20:0.00960736 21:0.0642732 22:0.119861 23:0.806259 
-0.7207139596074019 1:0.413697 2:0.521784 3:0.0645198 4:0.155996 5:0.55694 6:0.0878095 7:0.104502 8:0.651692 9:0 10:0 11:0 12:0 13:0 14:0 15:1 16:0.0268374 17:0.0286438 18:0.819302 19:0.125217 20:0.10808 21:0.351026 22:0.253604 23:0.287289 
-0.75 1:8.99511e-07 2:1.0431e-06 3:0.999998 4:0.149658 5:0.455894 6:0.108837 7:0.553698 8:0.187807 9:0 10:0 11:0 12:0 13:0 14:0 15:0 16:0.122202 17:0.171992 18:0.226454 19:0.479352 20:0.25 21:0.25 22:0.25 23:0.25 
-0.75 1:0.750447 2:0.0340037 3:0.21555 4:0.264879 5:0.325263 6:0.534895 7:0.0165582 8:0.183668 9:0 10:0 11:0 12:0 13:0 14:0 15:0 16:0.213578 17:0.425711 18:0.123614 19:0.237097 20:0.103983 21:0.739822 22:0.0733926 23:0.0828029 
-0.599942604557913 1:0.915642 2:0.0687914 3:0.015567 4:0.188665 5:0.296485 6:0.514333 7:0.254804 8:0.0421984 9:0 10:0 11:0 12:0 13:0 14:0 15:0 16:0.340579 17:0.205793 18:0.200863 19:0.252764 20:0.25 21:0.25 22:0.25 23:0.25 
-0.5976365936526474 1:3.12524e-06 2:2.8155e-06 3:0.999994 4:0.367367 5:0.398755 6:0.525784 7:0.0114158 8:0.095433 9:0 10:0 11:0 12:0 13:0 14:0 15:0 16:0.0201322 17:0.199626 18:0.0396394 19:0.740602 20:0.0364008 21:0.0496308 22:0.0835406 23:0.830428 
-0.75 1:6.68189e-07 2:6.85594e-07 3:0.999999 4:0.029309 5:0.295201 6:0.0529333 7:0.120841 8:0.796917 9:0 10:0 11:0 12:0 13:0 14:0 15:0 16:0.119455 17:0.109061 18:0.754983 19:0.0165014 20:0.0279234 21:0.184305 22:0.0829148 23:0.704857 
-0.75 1:0.153284 2:0.116484 3:0.730232 4:0.374507 5:0.61782 6:0.109798 7:0.045411 8:0.470283 9:1 10:0 11:0 12:0 13:0 14:0 15:1 16:0.143789 17:0.556679 18:0.114698 19:0.184834 20:0.0210976 21:0.054851 22:0.841488 23:0.0825634 
-0.75 1:1.9548e-07 2:1.97718e-07 3:1 4:0.0722535 5:0.370936 6:0.158069 7:0.232668 8:0.537009 9:0 10:0 11:0 12:0 13:0 14:0 15:0 16:0.0403451 17:0.12923 18:0.801107 19:0.0293185 20:0.0629593 21:0.235842 22:0.0917046 23:0.609494 
-0.5543670884335847 1:0.757507 2:0.1649 3:0.0775929 4:0.334039 5:0.613404 6:0.148326 7:0.233081 8:0.284554 9:1 10:0 11:0 12:1 13:0 14:0 15:1 16:0.086304 17:0.311026 18:0.011261 19:0.591409 20:0.0330105 21:0.0811903 22:0.0885286 23:0.797271 
-0.75 1:0.0458663 2:0.0318547 3:0.922279 4:0.343159 5:0.645238 6:0.120232 7:0.085512 8:0.451097 9:0 10:0 11:0 12:0 13:0 14:0 15:0 16:0.106498 17:0.082812 18:0.0308236 19:0.779866 20:0.25 21:0.25 22:0.25 23:0.25 
-0.75 1:0.29842 2:0.220457 3:0.481123 4:0.163021 5:0.453879 6:0.126299 7:0.484199 8:0.226481 9:0 10:0 11:0 12:0 13:0 14:0 15:0 16:0.185477 17:0.195386 18:0.251762 19:0.367375 20:0.0298659 21:0.0664992 22:0.850254 23:0.0533806 
-0.04389574042004852 1:0.981583 2:0.014935 3:0.00348234 4:0.0607537 5:0.871842 6:0.0131578 7:0.136659 8:0.789429 9:0 10:0 11:1 12:1 13:0 14:0 15:0 16:0.0581252 17:0.182023 18:0.0308269 19:0.729025 20:0.0309993 21:0.0250775 22:0.049013 23:0.89491 
-0.75 1:0.0591328 2:0.727421 3:0.213446 4:0.117478 5:0.346403 6:0.191412 7:0.269899 8:0.42121 9:0 10:0 11:0 12:0 13:0 14:0 15:0 16:0.0373197 17:0.18072 18:0.400767 19:0.381193 20:0.25 21:0.25 22:0.25 23:0.25 
-0.003878942184329139 1:0.662932 2:0.287848 3:0.0492207 4:0.0928465 5:0.600763 6:0.0652501 7:0.0407318 8:0.801172 9:1 10:0 11:0 12:0 13:0 14:0 15:0 16:0.237369 17:0.239245 18:0.0770577 19:0.446328 20:0.0272444 21:0.0648515 22:0.880748 23:0.0271563 
-0.75 1:0.12819 2:0.813599 3:0.0582113 4:0.534421 5:0.679529 6:0.275081 7:0.0809942 8:0.109504 9:1 10:0 11:0 12:0 13:0 14:0 15:1 16:0.156572 17:0.122313 18:0.0100776 19:0.711037 20:0.139103 21:0.0971676 22:0.131158 23:0.632571 
-0.5176292044816908 1:0.34563 2:0.620706 3:0.0336634 4:0.0461193 5:0.163574 6:0.15094 7:0.037283 8:0.765658 9:0 10:0 11:1 12:0 13:0 14:0 15:0 16:0.16734 17:0.595902 18:0.191809 19:0.044949 20:0.0367081 21:0.359258 22:0.314756 23:0.289278 
-0.75 1:0.00170778 2:0.00591977 3:0.992372 4:0.594954 5:0.714051 6:0.265986 7:0.0172343 8:0.121825 9:0 10:0 11:0 12:0 13:0 14:0 15:1 16:0.108467 17:0.0710326 18:0.0234024 19:0.797098 20:0.25 21:0.25 22:0.25 23:0.25 
-0.2861866507876088 1:0.237964 2:0.368299 3:0.393736 4:0.156195 5:0.352314 6:0.358844 7:0.123899 8:0.361061 9:0 10:0 11:0 12:0 13:0 14:0 15:0 16:0.128329 17:0.0799744 18:0.011976 19:0.77972 20:0.25 21:0.25 22:0.25 23:0.25 
-0.5264804031481425 1:0.604843 2:0.340707 3:0.0544493 4:1.56373e-05 5:0.5 6:0.00259233 7:1.38929e-05 8:0.997378 9:0 10:0 11:0 12:0 13:0 14:0 15:1 16:0.465302 17:0.339147 18:0.0785123 19:0.117039 20:0.25 21:0.25 22:0.25 23:0.25 
-0.75 1:4.54385e-07 2:4.54744e-07 3:0.999999 4:0.0168513 5:0.125717 6:0.249663 7:0.0036515 8:0.729834 9:0 10:0 11:0 12:1 13:0 14:0 15:0 16:0.0712732 17:0.0908308 18:0.179003 19:0.658893 20:0.25 21:0.25 22:0.25 23:0.25 
-0.75 1:0.474641 2:0.494694 3:0.0306646 4:0.244289 5:0.539249 6:0.110898 7:0.0789711 8:0.565842 9:0 10:0 11:0 12:0 13:0 14:0 15:1 16:0.294043 17:0.282822 18:0.124063 19:0.299072 20:0.25 21:0.25 22:0.25 23:0.25 
-0.6933390202465429 1:0.996091 2:0.00204851 3:0.00186011 4:0.18597 5:0.329953 6:0.418057 7:0.162951 8:0.233022 9:1 10:0 11:0 12:0 13:0 14:0 15:0 16:0.0747258 17:0.050882 18:0.0845258 19:0.789866 20:0.25 21:0.25 22:0.25 23:0.25 
-0.75 1:0.26165 2:0.714632 3:0.0237182 4:0.271578 5:0.43586 6:0.336752 7:0.291788 8:0.0998823 9:0 10:0 11:0 12:0 13:0 14:0 15:0 16:0.30881 17:0.121593 18:0.0229241 19:0.546673 20:0.25 21:0.25 22:0.25 23:0.25 
-0.75 1:0.986098 2:0.00530176 3:0.00860012 4:0.102575 5:0.885882 6:0.0183516 7:0.808176 8:0.0708974 9:1 10:0 11:0 12:0 13:0 14:0 15:1 16:0.0323489 17:0.186257 18:0.125688 19:0.655706 20:0.25 21:0.25 22:0.25 23:0.25 
-0.75 1:0.212992 2:0.0382718 3:0.748737 4:0.0979163 5:0.43287 6:0.0816617 7:0.668256 8:0.152166 9:0 10:0 11:0 12:0 13:0 14:0 15:0 16:0.104227 17:0.128677 18:0.721561 19:0.0455356 20:0.25 21:0.25 22:0.25 23:0.25 
-0.5066136699958852 1:0.931358 2:0.00688414 3:0.0617578 4:0.0113979 5:0.0709764 6:0.135354 7:0.781465 8:0.071784 9:0 10:0 11:0 12:0 13:0 14:0 15:1 16:0.262107 17:0.0730865 18:0.0705099 19:0.594297 20:0.25 21:0.25 22:0.25 23:0.25 
-0.75 1:0.00846237 2:0.044244 3:0.947294 4:0.222706 5:0.304038 6:0.591085 7:0.0194006 8:0.166809 9:0 10:0 11:0 12:0 13:0 14:0 15:0 16:0.104556 17:0.10272 18:0.00993958 19:0.782785 20:0.0990203 21:0.646875 22:0.0832079 23:0.170897 
-0.2405895103034275 1:0.90882 2:0.0774222 3:0.0137581 4:0.693055 5:0.949659 6:0.0233554 7:0.0854479 8:0.198142 9:0 10:0 11:0 12:1 13:0 14:0 15:1 16:0.0137605 17:0.225964 18:0.0204994 19:0.739776 20:0.25 21:0.25 22:0.25 23:0.25 
-0.75 1:0.996786 2:0.00182109 3:0.00139319 4:0.263467 5:0.468768 6:0.214982 7:0.0236648 8:0.497886 9:1 10:0 11:0 12:0 13:0 14:0 15:1 16:0.298862 17:0.427717 18:0.103857 19:0.169564 20:0.25 21:0.25 22:0.25 23:0.25 
-0.75 1:6.60022e-07 2:1.02377e-06 3:0.999998 4:0.871087 5:0.921209 6:0.0540186 7:0.0124126 8:0.062482 9:0 10:0 11:0 12:0 13:0 14:0 15:1 16:0.055264 17:0.302322 18:0.0475826 19:0.594832 20:0.25 21:0.25 22:0.25 23:0.25 
-0.75 1:0.413253 2:0.539278 3:0.0474686 4:0.353585 5:0.631421 6:0.111834 7:0.403319 8:0.131261 9:0 10:0 11:1 12:0 13:0 14:0 15:0 16:0.158239 17:0.402781 18:0.0909258 19:0.348055 20:0.25 21:0.25 22:0.25 23:0.25 
-0.75 1:0.0241462 2:0.0473462 3:0.928508 4:0.188846 5:0.395432 6:0.26866 7:0.11039 8:0.432104 9:0 10:0 11:0 12:0 13:0 14:0 15:0 16:0.268355 17:0.0812228 18:0.132579 19:0.517843 20:0.0156451 21:0.0465522 22:0.9234 23:0.0144025 
-0.2536944854653015 1:0.965047 2:0.0301518 3:0.00480085 4:0.278903 5:0.493051 6:0.247973 7:0.199462 8:0.273662 9:0 10:0 11:0 12:1 13:0 14:0 15:0 16:0.408549 17:0.462408 18:0.0215641 19:0.107479 20:0.0547772 21:0.216558 22:0.619577 23:0.109088 
-0.75 1:0.0174388 2:0.0348223 3:0.947739 4:0.0159355 5:0.691236 6:0.0679294 7:0.00102762 8:0.915107 9:0 10:0 11:0 12:0 13:0 14:0 15:1 16:0.213893 17:0.270812 18:0.151796 19:0.363499 20:0.25 21:0.25 22:0.25 23:0.25 
-0.6058636971889275 1:1.00554e-06 2:1.09431e-06 3:0.999998 4:0.0717924 5:0.209531 6:0.397923 7:0.0685731 8:0.461712 9:0 10:0 11:0 12:0 13:0 14:0 15:0 16:0.0268215 17:0.040674 18:0.0830912 19:0.849413 20:0.094349 21:0.713949 22:0.104989 23:0.0867123 
-0.75 1:0.978194 2:0.0183065 3:0.00349926 4:0.217505 5:0.32475 6:0.54736 7:0.153171 8:0.0819646 9:0 10:0 11:0 12:1 13:0 14:0 15:1 16:0.270933 17:0.354583 18:0.106214 19:0.268271 20:0.25 21:0.25 22:0.25 23:0.25 
-0.75 1:0.0589235 2:0.68997 3:0.251106 4:0.127901 5:0.567171 6:0.133085 7:0.620787 8:0.118227 9:0 10:0 11:0 12:0 13:0 14:0 15:0 16:0.32621 17:0.197014 18:0.420559 19:0.0562173 20:0.25 21:0.25 22:0.25 23:0.25 
-0.106668165775982 1:0.311464 2:0.656107 3:0.0324295 4:0.149342 5:0.390777 6:0.126339 7:0.24425 8:0.480068 9:0 10:0 11:0 12:0 13:0 14:0 15:0 16:0.33996 17:0.109299 18:0.231119 19:0.319622 20:0.017413 21:0.0673688 22:0.878135 23:0.0370827 
-0.75 1:0.424144 2:0.514974 3:0.0608817 4:9.38194e-06 5:0.401521 6:0.00249496 7:3.86639e-05 8:0.997457 9:0 10:0 11:0 12:1 13:0 14:0 15:1 16:0.432213 17:0.425463 18:0.0328024 19:0.109522 20:0.25 21:0.25 22:0.25 23:0.25 
-0.75 1:0.695119 2:0.277315 3:0.0275654 4:0.122383 5:0.341528 6:0.23979 7:0.550945 8:0.0868813 9:0 10:0 11:0 12:0 13:0 14:0 15:0 16:0.416934 17:0.253296 18:0.0980625 19:0.231708 20:0.25 21:0.25 22:0.25 23:0.25 
-0.73799990319625 1:0.321135 2:0.12823 3:0.550635 4:0.169848 5:0.521535 6:0.0994445 7:0.588103 8:0.142605 9:0 10:0 11:0 12:1 13:0 14:0 15:0 16:0.116729 17:0.385434 18:0.0807774 19:0.417059 20:0.0285884 21:0.0744377 22:0.093543 23:0.803431 
-0.75 1:0.0764034 2:0.84174 3:0.0818569 4:0.361964 5:0.433104 6:0.521875 7:0.0337592 8:0.0824018 9:0 10:0 11:1 12:0 13:0 14:0 15:0 16:0.16405 17:0.495135 18:0.0159329 19:0.324883 20:0.25 21:0.25 22:0.25 23:0.25 
-0.75 1:0.882564 2:0.0790352 3:0.0384012 4:0.171054 5:0.280065 6:0.334825 7:0.0817739 8:0.412348 9:0 10:0 11:0 12:0 13:0 14:0 15:1 16:0.486929 17:0.359792 18:0.0971869 19:0.0560925 20:0.0824489 21:0.712552 22:0.184197 23:0.0208025 
-0.4887762389612105 1:0.996624 2:0.0015206 3:0.00185587 4:0.0176043 5:0.640222 6:0.0241058 7:0.000418437 8:0.957871 9:1 10:0 11:1 12:0 13:0 14:0 15:0 16:0.259026 17:0.132233 18:0.0175486 19:0.591192 20:0.111088 21:0.464993 22:0.232801 23:0.191118 
-0.75 1:0.00216106 2:0.000702139 3:0.997137 4:0.157565 5:0.260775 6:0.469587 7:0.0756635 8:0.297185 9:0 10:0 11:0 12:0 13:0 14:0 15:1 16:0.103398 17:0.104877 18:0.011092 19:0.780634 20:0.0191162 21:0.380364 22:0.423557 23:0.176963 
-0.75 1:1.57987e-06 2:2.49039e-06 3:0.999996 4:0.149414 5:0.267295 6:0.537391 7:0.110818 8:0.202377 9:0 10:0 11:0 12:0 13:0 14:0 15:1 16:0.165668 17:0.152823 18:0.013452 19:0.668057 20:0.25 21:0.25 22:0.25 23:0.25 
-0.1288277296882669 1:0.999059 2:3.93051e-06 3:0.000936584 4:0.00296945 5:0.998701 6:0.0381359 7:0.00113807 8:0.957757 9:1 10:0 11:0 12:0 13:0 14:0 15:0 16:0.339359 17:0.0757901 18:0.031737 19:0.553114 20:0.25 21:0.25 22:0.25 23:0.25 
-0.75 1:0.00193648 2:0.00190963 3:0.996154 4:0.0362893 5:0.267532 6:0.0984938 7:0.028213 8:0.837004 9:0 10:0 11:0 12:0 13:0 14:0 15:0 16:0.359914 17:0.295846 18:0.10596 19:0.23828 20:0.377062 21:0.1541 22:0.382213 23:0.0866255 
-0.5892343952278373 1:0.855151 2:0.0822723 3:0.062577 4:0.571921 5:0.778731 6:0.131493 7:0.121636 8:0.174949 9:0 10:0 11:0 12:1 13:0 14:0 15:1 16:0.0547442 17:0.124915 18:0.244031 19:0.576309 20:0.25 21:0.25 22:0.25 23:0.25 
-0.75 1:2.30794e-07 2:2.6176e-07 3:1 4:0.157851 5:0.253848 6:0.547969 7:0.0897033 8:0.204476 9:0 10:0 11:0 12:0 13:0 14:0 15:1 16:0.132848 17:0.196241 18:0.0180373 19:0.652874 20:0.25 21:0.25 22:0.25 23:0.25 
-0.75 1:0.544148 2:0.43628 3:0.0195719 4:0.833726 5:0.870493 6:0.121529 7:0.0140816 8:0.0306632 9:0 10:0 11:0 12:0 13:0 14:0 15:0 16:0.22058 17:0.29321 18:0.0278349 19:0.458375 20:0.25 21:0.25 22:0.25 23:0.25 
-0.75 1:2.36925e-06 2:3.25927e-06 3:0.999994 4:0.186232 5:0.253631 6:0.641238 7:0.0192966 8:0.153233 9:0 10:0 11:0 12:0 13:0 14:0 15:0 16:0.139281 17:0.0855402 18:0.0240801 19:0.751099 20:0.0201149 21:0.287886 22:0.629605 23:0.0623932 
-0.75 1:0.424417 2:0.525591 3:0.049992 4:0.0721242 5:0.337806 6:0.114713 7:0.522445 8:0.290717 9:0 10:0 11:0 12:0 13:0 14:0 15:0 16:0.613994 17:0.261565 18:0.0824429 19:0.0419988 20:0.25 21:0.25 22:0.25 23:0.25 
-0.75 1:3.86963e-07 2:4.18516e-07 3:0.999999 4:0.0702736 5:0.314344 6:0.234287 7:0.384825 8:0.310614 9:0 10:0 11:0 12:0 13:0 14:0 15:0 16:0.0146708 17:0.0299499 18:0.0110253 19:0.944354 20:0.25 21:0.25 22:0.25 23:0.25 
-0.4361070219253551 1:0.560027 2:0.415128 3:0.0248452 4:0.190404 5:0.378263 6:0.212156 7:0.041036 8:0.556405 9:0 10:0 11:0 12:0 13:0 14:0 15:0 16:0.219193 17:0.30013 18:0.357371 19:0.123306 20:0.116706 21:0.734672 22:0.0605419 23:0.0880799 
