svm_type c_svc
kernel_type rbf
gamma 0.01
nr_class 2
total_sv 87
rho -0.258083
label 0 1
probA -2.35506
probB 0.233235
nr_sv 49 38
SV
20 1:0.996565 2:0.00132567 3:0.00210973 4:0.961414 5:0.00825577 6:0.216611 7:0.039606 8:0.0765799 9:0.0356061 10:0.101615 11:0.128271 12:0.00821739 13:0.503048 14:0.098801 15:0 16:0 17:0 18:0 19:0 20:0 21:1 22:0.250173 23:0.0315183 24:0.0850991 25:0.0219803 26:0.0203589 27:0.468654 28:0.0916767 29:0.0127544 30:0.0177851 31:0.11 32:0.11 33:0.11 34:0.11 35:0.11 36:0.11 37:0.11 38:0.11 39:0.11 
20 1:0.964204 2:0.0232197 3:0.0125759 4:0.811771 5:0.0769784 6:0.460505 7:0.0129234 8:0.110874 9:0.0394055 10:0.0697404 11:0.306033 12:0.0300978 13:0.307084 14:0.0468633 15:0 16:0 17:0 18:0 19:0 20:0 21:0 22:0.111416 23:0.132819 24:0.0464468 25:0.345458 26:0.0479493 27:0.0508479 28:0.171177 29:0.0582665 30:0.0356199 31:0.11 32:0.11 33:0.11 34:0.11 35:0.11 36:0.11 37:0.11 38:0.11 39:0.11 
20 1:0.923936 2:0.0409731 3:0.0350905 4:0.950117 5:0.0873702 6:0.333511 7:0.00352691 8:0.202168 9:0.0281421 10:0.0363047 11:0.0144803 12:0.00487964 13:0.599826 14:0.0233017 15:0 16:0 17:0 18:0 19:0 20:0 21:0 22:0.123501 23:0.122966 24:0.0312913 25:0.232401 26:0.0383824 27:0.0670669 28:0.327997 29:0.0400269 30:0.0163686 31:0.11 32:0.11 33:0.11 34:0.11 35:0.11 36:0.11 37:0.11 38:0.11 39:0.11 
20 1:0.993105 2:0.00165288 3:0.0052417 4:0.960554 5:0.0796006 6:0.200809 7:0.00227981 8:0.329534 9:0.125498 10:0.0221038 11:0.305818 12:0.0945496 13:0.0344332 14:0.00618208 15:0 16:0 17:0 18:0 19:0 20:0 21:0 22:0.048264 23:0.0827018 24:0.0756087 25:0.0363756 26:0.00638922 27:0.0261215 28:0.714589 29:0.00312066 30:0.00682931 31:0.11 32:0.11 33:0.11 34:0.11 35:0.11 36:0.11 37:0.11 38:0.11 39:0.11 
20 1:0.997464 2:0.00122356 3:0.00131245 4:0.951218 5:0.00607257 6:0.0647213 7:0.000798879 8:0.149967 9:0.389172 10:0.326174 11:0.116925 12:0.00590118 13:0.00208592 14:0.00290349 15:0 16:1 17:0 18:0 19:0 20:0 21:1 22:0.0420311 23:0.331537 24:0.410365 25:0.0197242 26:0.011098 27:0.0802091 28:0.0910773 29:0.00873573 30:0.00522234 31:0.0107028 32:0.113384 33:0.0197086 34:0.0240788 35:0.0887444 36:0.0143856 37:0.239954 38:0.0239586 39:0.465083 
4.062350913429201 1:0.99901 2:3.27838e-06 3:0.000986848 4:0.912989 5:0.0415051 6:0.396911 7:0.0145322 8:0.114769 9:0.0247574 10:0.137429 11:0.308159 12:0.0268802 13:0.0658787 14:0.266089 15:0 16:0 17:0 18:0 19:0 20:0 21:0 22:0.281367 23:0.0621513 24:0.0127361 25:0.0417644 26:0.0284095 27:0.0131379 28:0.0970233 29:0.444922 30:0.0184883 31:0.0149205 32:0.0140601 33:0.0127888 34:0.0235099 35:0.00756921 36:0.0226255 37:0.87435 38:0.0190654 39:0.0111105 
20 1:0.99601 2:0.00214613 3:0.00184434 4:0.97685 5:0.00118376 6:0.0189212 7:0.616706 8:0.0516128 9:0.0075753 10:0.0464259 11:0.0802311 12:0.146032 13:0.0477474 14:0.00248603 15:1 16:1 17:0 18:0 19:0 20:0 21:0 22:0.26646 23:0.0585365 24:0.0610908 25:0.0270238 26:0.0242492 27:0.154072 28:0.273624 29:0.0499099 30:0.0850332 31:0.031313 32:0.0714383 33:0.0744072 34:0.0731712 35:0.127267 36:0.0672237 37:0.170225 38:0.0469762 39:0.337978 
20 1:0.0309605 2:0.0137593 3:0.95528 4:0.973329 5:0.342822 6:0.601722 7:0.00225473 8:0.265467 9:0.033772 10:0.0626581 11:0.0430065 12:0.0320597 13:0.205978 14:0.0119826 15:0 16:0 17:0 18:0 19:0 20:0 21:0 22:0.0758678 23:0.0578178 24:0.526207 25:0.00739948 26:0.00409021 27:0.245068 28:0.0600217 29:0.020296 30:0.00323198 31:0.11 32:0.11 33:0.11 34:0.11 35:0.11 36:0.11 37:0.11 38:0.11 39:0.11 
20 1:0.984536 2:0.00118642 3:0.0142773 4:0.944073 5:0.00266453 6:0.0368482 7:0.0538061 8:0.0217272 9:0.00712337 10:0.0185484 11:0.112434 12:0.72243 13:0.0302837 14:0.0309831 15:0 16:0 17:0 18:0 19:0 20:0 21:0 22:0.0144192 23:0.16374 24:0.0925886 25:0.0208371 26:0.0176512 27:0.0629346 28:0.52456 29:0.0730831 30:0.030186 31:0.00479155 32:0.013363 33:0.0102494 34:0.0454244 35:0.128101 36:0.0108126 37:0.0299059 38:0.735602 39:0.0217503 
15.62404006563601 1:0.99564 2:0.00374911 3:0.000611302 4:0.977882 5:0.00934395 6:0.0406362 7:0.070516 8:0.0426623 9:0.00448822 10:0.017275 11:0.355874 12:0.475225 13:0.0106878 14:0.0139282 15:0 16:0 17:1 18:0 19:0 20:0 21:0 22:0.0790247 23:0.157806 24:0.138044 25:0.0246159 26:0.0192855 27:0.0238509 28:0.452098 29:0.0952905 30:0.00998441 31:0.00960053 32:0.022128 33:0.0257044 34:0.00804214 35:0.00336076 36:0.0728515 37:0.834264 38:0.00719787 39:0.0168506 
10.08410920772876 1:0.998736 2:5.63921e-06 3:0.00125865 4:0.94393 5:0.0111985 6:0.157058 7:0.00433401 8:0.0730696 9:0.0336137 10:0.232771 11:0.447632 12:0.0341803 13:0.0555265 14:0.107674 15:0 16:0 17:0 18:0 19:0 20:0 21:0 22:0.0835729 23:0.0124112 24:0.291441 25:0.0164722 26:0.00325849 27:0.554046 28:0.0194782 29:0.0150327 30:0.00428817 31:0.11 32:0.11 33:0.11 34:0.11 35:0.11 36:0.11 37:0.11 38:0.11 39:0.11 
12.89805849907062 1:0.979226 2:0.0172428 3:0.00353145 4:0.971157 5:0.157653 6:0.259168 7:0.0040218 8:0.264673 9:0.0787514 10:0.102055 11:0.20514 12:0.143174 13:0.0185539 14:0.0259772 15:0 16:0 17:0 18:1 19:0 20:0 21:1 22:0.0977812 23:0.342842 24:0.0122043 25:0.0161015 26:0.0112128 27:0.0735913 28:0.358742 29:0.073939 30:0.0135862 31:0.0481447 32:0.628033 33:0.131085 34:0.0236808 35:0.0316915 36:0.0182535 37:0.0817236 38:0.00793331 39:0.0294545 
20 1:0.995817 2:0.000885724 3:0.00329774 4:0.962442 5:0.0383237 6:0.169081 7:0.00437332 8:0.156081 9:0.16691 10:0.168596 11:0.284126 12:0.0512407 13:0.0217685 14:0.108581 15:0 16:0 17:0 18:0 19:0 20:0 21:0 22:0.0235253 23:0.0719592 24:0.0671172 25:0.00976048 26:0.0100558 27:0.0428209 28:0.727426 29:0.0310466 30:0.0162885 31:0.11 32:0.11 33:0.11 34:0.11 35:0.11 36:0.11 37:0.11 38:0.11 39:0.11 
13.36716031987353 1:0.945494 2:0.0224369 3:0.0320693 4:0.959167 5:0.00889678 6:0.395557 7:0.00853787 8:0.0124327 9:0.120969 10:0.118754 11:0.0451015 12:0.00734135 13:0.601078 14:0.0768891 15:0 16:0 17:0 18:0 19:0 20:0 21:0 22:0.0195682 23:0.116455 24:0.0518473 25:0.360334 26:0.0565854 27:0.0330399 28:0.0678939 29:0.159747 30:0.13453 31:0.0574451 32:0.344678 33:0.149739 34:0.121988 35:0.0338826 36:0.107499 37:0.0584563 38:0.0616259 39:0.0646862 
20 1:0.890212 2:0.0985987 3:0.0111895 4:-0.969792 5:0.00554299 6:0.105382 7:0.0912153 8:0.0137463 9:0.106437 10:0.0430401 11:0.234487 12:0.454931 13:0.0138616 14:0.0367382 15:0 16:0 17:0 18:0 19:0 20:0 21:0 22:0.0287112 23:0.103164 24:0.0885914 25:0.0143247 26:0.0130182 27:0.143091 28:0.2302 29:0.186249 30:0.192651 31:0.00236542 32:0.00835121 33:0.00370803 34:0.00859329 35:0.29484 36:0.0174089 37:0.0459968 38:0.609205 39:0.00953118 
20 1:0.995161 2:0.00308599 3:0.00175251 4:0.963586 5:0.0013985 6:0.358222 7:0.776829 8:0.00303408 9:0.00408651 10:0.00486653 11:0.1253 12:0.0198166 13:0.0102857 14:0.0543823 15:0 16:0 17:0 18:0 19:0 20:0 21:0 22:0.0714983 23:0.046804 24:0.0324097 25:0.243582 26:0.06482 27:0.0280606 28:0.154975 29:0.272979 30:0.0848713 31:0.11 32:0.11 33:0.11 34:0.11 35:0.11 36:0.11 37:0.11 38:0.11 39:0.11 
20 1:0.988585 2:0.00774966 3:0.00366514 4:-0.909264 5:0.037305 6:0.624323 7:0.186548 8:0.0615135 9:0.0276974 10:0.0309433 11:0.290719 12:0.0465882 13:0.215098 14:0.103588 15:0 16:0 17:0 18:0 19:0 20:0 21:0 22:0.0139739 23:0.0248832 24:0.0312558 25:0.0667215 26:0.63037 27:0.00229661 28:0.00825895 29:0.182874 30:0.0393663 31:0.11 32:0.11 33:0.11 34:0.11 35:0.11 36:0.11 37:0.11 38:0.11 39:0.11 
20 1:0.996681 2:0.00268965 3:0.000629122 4:0.888128 5:0.0235368 6:0.222399 7:0.17679 8:0.0518967 9:0.0318756 10:0.0226452 11:0.332248 12:0.117002 13:0.0486938 14:0.195312 15:0 16:0 17:0 18:0 19:0 20:0 21:0 22:0.0145691 23:0.0876638 24:0.056479 25:0.103408 26:0.0698038 27:0.0170494 28:0.15884 29:0.142878 30:0.349308 31:0.11 32:0.11 33:0.11 34:0.11 35:0.11 36:0.11 37:0.11 38:0.11 39:0.11 
20 1:0.998704 2:6.0848e-06 3:0.00129022 4:0.618514 5:0.00304904 6:0.431638 7:0.335312 8:0.00399107 9:0.00306099 10:0.00676938 11:0.0258397 12:0.0151282 13:0.314535 14:0.292315 15:0 16:0 17:0 18:0 19:0 20:0 21:0 22:0.00908004 23:0.0378076 24:0.0197811 25:0.0550956 26:0.0854422 27:0.0192845 28:0.0831972 29:0.235093 30:0.455219 31:0.11 32:0.11 33:0.11 34:0.11 35:0.11 36:0.11 37:0.11 38:0.11 39:0.11 
20 1:0.99581 2:0.00130652 3:0.0028831 4:0.947264 5:0.0230368 6:0.425904 7:0.039802 8:0.0427797 9:0.165891 10:0.105425 11:0.491398 12:0.0327217 13:0.056881 14:0.042065 15:0 16:0 17:0 18:0 19:0 20:0 21:0 22:0.0530024 23:0.0953139 24:0.0205543 25:0.0458343 26:0.109811 27:0.036599 28:0.124304 29:0.386789 30:0.127792 31:0.00495817 32:0.00939298 33:0.00978624 34:0.0226011 35:0.0645345 36:0.0210306 37:0.564641 38:0.285612 39:0.0174438 
20 1:0.998847 2:2.65798e-06 3:0.00114988 4:0.879578 5:0.0597549 6:0.57613 7:0.03624 8:0.0517709 9:0.0406165 10:0.101504 11:0.436557 12:0.0243212 13:0.0992439 14:0.149992 15:0 16:0 17:0 18:0 19:0 20:0 21:0 22:0.0359295 23:0.0508905 24:0.0238751 25:0.0831563 26:0.116182 27:0.0578286 28:0.139933 29:0.350598 30:0.141607 31:0.00499574 32:0.0100407 33:0.00852617 34:0.00896247 35:0.0597552 36:0.0173467 37:0.617184 38:0.263642 39:0.00954748 
20 1:0.990628 2:0.00650557 3:0.00286659 4:-0.741069 5:0.028522 6:0.57669 7:0.0675738 8:0.0210057 9:0.102532 10:0.0734974 11:0.21439 12:0.0184846 13:0.0593897 14:0.414604 15:0 16:0 17:0 18:0 19:0 20:0 21:0 22:0.111208 23:0.0675505 24:0.0367317 25:0.116528 26:0.369748 27:0.0324016 28:0.126151 29:0.117271 30:0.0224106 31:0.11 32:0.11 33:0.11 34:0.11 35:0.11 36:0.11 37:0.11 38:0.11 39:0.11 
20 1:0.989458 2:0.00688704 3:0.00365458 4:0.96427 5:0.0661864 6:0.198908 7:0.00523455 8:0.113148 9:0.217396 10:0.242979 11:0.0317572 12:0.296621 13:0.0121482 14:0.0145285 15:0 16:0 17:0 18:0 19:0 20:0 21:0 22:0.0451548 23:0.132773 24:0.0574688 25:0.236085 26:0.0523637 27:0.053677 28:0.130693 29:0.208748 30:0.0830374 31:0.00132626 32:0.0177937 33:0.00471709 34:0.00124217 35:0.00147335 36:0.00118637 37:0.964799 38:0.00105848 39:0.00640344 
20 1:0.990208 2:0.00684279 3:0.00294908 4:0.938586 5:0.00439155 6:0.0297408 7:0.00635886 8:0.0639782 9:0.0923759 10:0.524429 11:0.154036 12:0.14328 13:0.00898153 14:0.00216857 15:0 16:0 17:0 18:0 19:0 20:0 21:0 22:0.0111378 23:0.0607938 24:0.0577555 25:0.0291645 26:0.031545 27:0.0427714 28:0.219684 29:0.197603 30:0.349545 31:0.0380187 32:0.0921813 33:0.104595 34:0.017284 35:0.0208692 36:0.268724 37:0.410371 38:0.0103999 39:0.0375572 
13.75615771863754 1:0.968098 2:0.0185321 3:0.0133694 4:0.961682 5:0.0131445 6:0.626504 7:0.693347 8:0.0195015 9:0.0723934 10:0.0325371 11:0.00626761 12:0.00499174 13:0.101083 14:0.0567342 15:0 16:0 17:0 18:0 19:0 20:0 21:0 22:0.00962094 23:0.090412 24:0.37797 25:0.21061 26:0.0498401 27:0.0250797 28:0.137797 29:0.0282751 30:0.0703954 31:0.0256484 32:0.0760399 33:0.0154961 34:0.140286 35:0.641423 36:0.033413 37:0.0311536 38:0.012705 39:0.0238349 
20 1:0.998848 2:2.09073e-06 3:0.00114966 4:0.953622 5:0.0260349 6:0.208754 7:0.0122888 8:0.0822579 9:0.00840957 10:0.0407251 11:0.503882 12:0.0256499 13:0.0483105 14:0.252441 15:0 16:0 17:0 18:0 19:0 20:0 21:1 22:0.010954 23:0.0740399 24:0.0788177 25:0.156278 26:0.0147749 27:0.0317196 28:0.0614408 29:0.0753231 30:0.496652 31:0.11 32:0.11 33:0.11 34:0.11 35:0.11 36:0.11 37:0.11 38:0.11 39:0.11 
20 1:0.999871 2:1.00723e-06 3:0.000128315 4:0.97652 5:0.00755852 6:0.101087 7:0.00926243 8:0.0355231 9:0.0456642 10:0.0979064 11:0.443829 12:0.014961 13:0.283969 14:0.0613263 15:0 16:0 17:0 18:0 19:0 20:0 21:0 22:0.0168864 23:0.0268598 24:0.00462245 25:0.00486579 26:0.0212422 27:0.0117312 28:0.060168 29:0.804765 30:0.0488588 31:0.023482 32:0.0682698 33:0.0738792 34:0.0254229 35:0.0151146 36:0.0503077 37:0.683065 38:0.0185593 39:0.0418995 
8.65193961688219 1:0.987299 2:0.00188921 3:0.0108116 4:0.83322 5:0.00387017 6:0.0369465 7:0.0808327 8:0.0313468 9:0.0479028 10:0.101328 11:0.285392 12:0.434425 13:0.00829569 14:0.00660763 15:0 16:0 17:0 18:0 19:0 20:0 21:1 22:0.0111479 23:0.0332904 24:0.00848418 25:0.0296411 26:0.294378 27:0.00548927 28:0.217317 29:0.185601 30:0.214652 31:0.00602822 32:0.00462766 33:0.00762201 34:0.00253197 35:0.00283294 36:0.00264334 37:0.959635 38:0.00459803 39:0.00948125 
20 1:0.999757 2:8.23856e-07 3:0.000241964 4:0.527351 5:0.00716148 6:0.0708775 7:0.139337 8:0.0521554 9:0.0251471 10:0.101592 11:0.142832 12:0.430458 13:0.0267096 14:0.0746077 15:0 16:0 17:0 18:0 19:0 20:0 21:0 22:0.0941918 23:0.0663307 24:0.00535301 25:0.0660476 26:0.10505 27:0.020711 28:0.0679268 29:0.474262 30:0.100127 31:0.000625462 32:0.00645157 33:0.00286083 34:0.0494033 35:0.002699 36:0.00535425 37:0.00197735 38:0.0053825 39:0.925246 
20 1:0.982335 2:0.0128441 3:0.00482104 4:-0.646606 5:0.00798771 6:0.21711 7:0.0683471 8:0.0199699 9:0.0805704 10:0.14014 11:0.0361445 12:0.137064 13:0.0402671 14:0.469509 15:0 16:0 17:0 18:0 19:0 20:0 21:1 22:0.0415921 23:0.0715271 24:0.00839191 25:0.0774387 26:0.422788 27:0.00730001 28:0.0259314 29:0.120388 30:0.224642 31:0.0293541 32:0.646321 33:0.0252574 34:0.0575503 35:0.0990203 36:0.041164 37:0.0442326 38:0.0233771 39:0.033723 
20 1:0.996706 2:0.00165297 3:0.00164075 4:0.905231 5:0.0713992 6:0.33322 7:0.00154993 8:0.108976 9:0.161338 10:0.460913 11:0.148013 12:0.0253878 13:0.00828636 14:0.0141374 15:0 16:0 17:0 18:0 19:0 20:0 21:0 22:0.102971 23:0.10181 24:0.00913338 25:0.131369 26:0.336478 27:0.00878175 28:0.029444 29:0.0724802 30:0.207533 31:0.0581029 32:0.313034 33:0.138222 34:0.173155 35:0.0332454 36:0.103539 37:0.0582452 38:0.0618675 39:0.0605882 
20 1:0.992252 2:0.00440249 3:0.0033451 4:0.938259 5:0.0147857 6:0.217187 7:0.0171561 8:0.0465409 9:0.0895823 10:0.295353 11:0.0870964 12:0.4247 13:0.0109661 14:0.0138194 15:0 16:0 17:0 18:0 19:0 20:0 21:0 22:0.0358282 23:0.0434405 24:0.527389 25:0.0396523 26:0.0362271 27:0.136792 28:0.110585 29:0.0150099 30:0.0550758 31:0.0162576 32:0.497386 33:0.148469 34:0.0388612 35:0.0734949 36:0.0657533 37:0.0108718 38:0.0174444 39:0.131462 
20 1:0.992711 2:0.00444677 3:0.00284204 4:0.863422 5:0.0245472 6:0.0393713 7:0.00391628 8:0.417191 9:0.0830692 10:0.193977 11:0.129686 12:0.0906412 13:0.0380177 14:0.0189548 15:0 16:0 17:0 18:0 19:0 20:0 21:0 22:0.0446707 23:0.070814 24:0.0324748 25:0.012399 26:0.0184927 27:0.0175131 28:0.106656 29:0.649597 30:0.0473823 31:0.00389405 32:0.00850251 33:0.00826189 34:0.00624034 35:0.00702554 36:0.053527 37:0.865087 38:0.0422775 39:0.00518426 
20 1:0.299796 2:0.675411 3:0.0247937 4:0.57599 5:0.00508254 6:0.0364235 7:0.11573 8:0.106542 9:0.108724 10:0.0952918 11:0.493413 12:0.0392901 13:0.024052 14:0.011875 15:0 16:0 17:0 18:0 19:0 20:0 21:1 22:0.0144576 23:0.0436357 24:0.0281016 25:0.020802 26:0.121004 27:0.0691189 28:0.579867 29:0.02406 30:0.0989534 31:0.11 32:0.11 33:0.11 34:0.11 35:0.11 36:0.11 37:0.11 38:0.11 39:0.11 
20 1:0.866926 2:0.116829 3:0.0162451 4:0.892765 5:0.00151831 6:0.0407749 7:0.157168 8:0.0177108 9:0.0124479 10:0.0582902 11:0.669122 12:0.0283726 13:0.0361068 14:0.0192635 15:0 16:0 17:0 18:0 19:0 20:0 21:0 22:0.0957811 23:0.0958127 24:0.21861 25:0.0327805 26:0.0158349 27:0.133791 28:0.274746 29:0.0477373 30:0.0849063 31:0.015299 32:0.331631 33:0.0206408 34:0.0224443 35:0.0074158 36:0.0413589 37:0.0135344 38:0.0893657 39:0.45831 
20 1:0.939035 2:0.0315551 3:0.0294101 4:0.967813 5:0.464959 6:0.708555 7:0.00316756 8:0.220889 9:0.0351864 10:0.0484649 11:0.0636445 12:0.0960833 13:0.00409183 14:0.0635138 15:0 16:0 17:0 18:0 19:0 20:0 21:1 22:0.0977865 23:0.307192 24:0.011135 25:0.0265648 26:0.267493 27:0.0536309 28:0.0765163 29:0.0301196 30:0.129561 31:0.0967484 32:0.750256 33:0.0292202 34:0.0143224 35:0.0329161 36:0.0182086 37:0.0387285 38:0.00793662 39:0.011663 
20 1:0.0819134 2:0.0339075 3:0.884179 4:0.59729 5:0.230588 6:0.356985 7:0.00117465 8:0.361406 9:0.00956912 10:0.103949 11:0.171474 12:0.0346607 13:0.0075975 14:0.0795815 15:0 16:0 17:0 18:0 19:0 20:0 21:1 22:0.23182 23:0.0915609 24:0.0188882 25:0.150211 26:0.291886 27:0.0830484 28:0.0690447 29:0.0530849 30:0.0104552 31:0.0417293 32:0.665106 33:0.0742523 34:0.0164992 35:0.0295106 36:0.0233044 37:0.117498 38:0.00845738 39:0.0236429 
17.59526708647151 1:0.99585 2:1.73227e-05 3:0.00413283 4:0.966182 5:0.092665 6:0.134213 7:0.000975769 8:0.461991 9:0.0322765 10:0.0363566 11:0.355541 12:0.0117198 13:0.00299584 14:0.00547845 15:0 16:0 17:0 18:0 19:0 20:0 21:0 22:0.049248 23:0.507168 24:0.244984 25:0.0280351 26:0.0087384 27:0.039938 28:0.111296 29:0.00815172 30:0.0024413 31:0.0162798 32:0.102949 33:0.721027 34:0.00952883 35:0.0120172 36:0.0368504 37:0.0583096 38:0.0129321 39:0.0301067 
20 1:0.942008 2:0.0321996 3:0.0257925 4:0.928714 5:0.00197609 6:0.0814974 7:0.006383 8:0.0276045 9:0.21055 10:0.448841 11:0.108361 12:0.0156069 13:0.161058 14:0.0196196 15:0 16:0 17:0 18:0 19:0 20:0 21:0 22:0.0343503 23:0.147715 24:0.108283 25:0.0140437 26:0.00489898 27:0.0758215 28:0.603373 29:0.00527185 30:0.00624249 31:0.000768473 32:0.0303042 33:0.214218 34:0.00117177 35:0.00104196 36:0.734011 37:0.000826594 38:0.000215768 39:0.0174422 
20 1:0.0238777 2:0.0992867 3:0.876836 4:0.965823 5:0.0117344 6:0.14599 7:0.00868188 8:0.0773496 9:0.126773 10:0.0386168 11:0.381796 12:0.338719 13:0.00499825 14:0.0113316 15:0 16:0 17:0 18:0 19:0 20:0 21:0 22:0.0204515 23:0.0418984 24:0.249845 25:0.0153779 26:0.00967605 27:0.146826 28:0.248922 29:0.114593 30:0.15241 31:0.00520194 32:0.0137781 33:0.00967725 34:0.0234926 35:0.0754615 36:0.0100161 37:0.0469657 38:0.800269 39:0.0151375 
20 1:0.971433 2:0.00742236 3:0.0211444 4:0.958119 5:0.127912 6:0.354765 7:0.010873 8:0.197889 9:0.0417579 10:0.0488558 11:0.39575 12:0.0352534 13:0.114833 14:0.0268756 15:1 16:0 17:0 18:1 19:0 20:0 21:1 22:0.158227 23:0.219171 24:0.0103266 25:0.0859592 26:0.109379 27:0.0226925 28:0.0343985 29:0.0474812 30:0.312365 31:0.11 32:0.11 33:0.11 34:0.11 35:0.11 36:0.11 37:0.11 38:0.11 39:0.11 
3.404803558875428 1:0.966429 2:0.00573359 3:0.0278378 4:0.960438 5:0.124721 6:0.444818 7:0.0114037 8:0.166413 9:0.0781447 10:0.0462363 11:0.378937 12:0.0280014 13:0.134552 14:0.0315904 15:1 16:0 17:0 18:1 19:0 20:0 21:1 22:0.594088 23:0.0855061 24:0.00846659 25:0.102846 26:0.0367773 27:0.0148708 28:0.0118904 29:0.0270232 30:0.118531 31:0.158132 32:0.277525 33:0.0823698 34:0.0546674 35:0.0153138 36:0.311617 37:0.0412968 38:0.0337852 39:0.0252923 
20 1:0.113782 2:0.288292 3:0.597926 4:0.888281 5:0.00750653 6:0.207835 7:0.0817072 8:0.0126671 9:0.0931393 10:0.109073 11:0.111464 12:0.484061 13:0.0180294 14:0.0823523 15:0 16:0 17:0 18:0 19:0 20:0 21:0 22:0.102701 23:0.102442 24:0.0555231 25:0.038313 26:0.0533854 27:0.0758134 28:0.180909 29:0.127262 30:0.26365 31:0.00841827 32:0.0178355 33:0.0165698 34:0.00518076 35:0.00645503 36:0.0623225 37:0.857144 38:0.00913709 39:0.0169369 
20 1:0.656865 2:0.0508936 3:0.292242 4:0.95579 5:0.0027106 6:0.0924288 7:0.0505303 8:0.00928503 9:0.0713103 10:0.019236 11:0.0164636 12:0.817949 13:0.00254834 14:0.00996649 15:0 16:0 17:0 18:0 19:0 20:0 21:0 22:0.0706892 23:0.0468502 24:0.0461203 25:0.030586 26:0.0146572 27:0.453979 28:0.108965 29:0.112118 30:0.116035 31:0.0134756 32:0.0364977 33:0.0264052 34:0.0137445 35:0.00970748 36:0.061026 37:0.796759 38:0.0117052 39:0.030679 
20 1:0.97406 2:0.0192475 3:0.00669278 4:0.963004 5:0.0324171 6:0.118349 7:0.00518577 8:0.104827 9:0.0366241 10:0.159166 11:0.462168 12:0.151807 13:0.0162206 14:0.0315847 15:0 16:0 17:0 18:0 19:0 20:0 21:0 22:0.0373278 23:0.125093 24:0.0103442 25:0.00627091 26:0.126112 27:0.0679317 28:0.203549 29:0.0532172 30:0.370154 31:0.00667498 32:0.0199181 33:0.0130952 34:0.0672026 35:0.401582 36:0.0390118 37:0.113324 38:0.31694 39:0.0222505 
20 1:0.837192 2:0.0859274 3:0.0768802 4:0.96811 5:0.00577576 6:0.0677813 7:0.308632 8:0.0519604 9:0.025488 10:0.0471306 11:0.131327 12:0.318228 13:0.00711539 14:0.104342 15:0 16:0 17:0 18:0 19:0 20:0 21:0 22:0.01763 23:0.0474315 24:0.00630613 25:0.0255454 26:0.198317 27:0.00817432 28:0.0976192 29:0.518569 30:0.0804077 31:0.00319006 32:0.00720657 33:0.00631 34:0.0296667 35:0.307508 36:0.0273118 37:0.0440838 38:0.556537 39:0.0181857 
20 1:0.988957 2:0.00512675 3:0.00591623 4:0.956607 5:0.018828 6:0.0968978 7:0.110205 8:0.0233491 9:0.0830795 10:0.103049 11:0.0349016 12:0.526333 13:0.0297261 14:0.0705295 15:0 16:0 17:0 18:0 19:0 20:0 21:0 22:0.0303528 23:0.0600141 24:0.0239249 25:0.0176381 26:0.0150581 27:0.00822002 28:0.114146 29:0.609432 30:0.121215 31:0.11 32:0.11 33:0.11 34:0.11 35:0.11 36:0.11 37:0.11 38:0.11 39:0.11 
20 1:0.958413 2:0.0311369 3:0.0104499 4:0.962163 5:0.00765262 6:0.296526 7:0.336243 8:0.014962 9:0.0252669 10:0.0254925 11:0.296706 12:0.132378 13:0.0254027 14:0.135896 15:0 16:0 17:0 18:0 19:0 20:0 21:1 22:0.094022 23:0.0570015 24:0.00579502 25:0.0723778 26:0.497889 27:0.00427785 28:0.0662188 29:0.135402 30:0.0670159 31:0.00386853 32:0.00939351 33:0.00587856 34:0.0202655 35:0.305517 36:0.0274301 37:0.0746387 38:0.532516 39:0.0204926 
20 1:0.92423 2:0.058621 3:0.0171489 4:0.966463 5:0.0181898 6:0.233268 7:0.149097 8:0.0379424 9:0.0277433 10:0.0416571 11:0.443849 12:0.156283 13:0.027195 14:0.0980436 15:0 16:0 17:0 18:0 19:0 20:0 21:1 22:0.0300374 23:0.0475566 24:0.0111436 25:0.0745395 26:0.164873 27:0.00832445 28:0.0304313 29:0.135371 30:0.497722 31:0.00443504 32:0.00869361 33:0.00619569 34:0.0222227 35:0.269928 36:0.0158458 37:0.0978815 38:0.55659 39:0.0182071 
-26 1:0.973288 2:0.0179336 3:0.00877797 4:0.971585 5:0.00781053 6:0.0590565 7:0.0161323 8:0.0425471 9:0.00898259 10:0.012406 11:0.772502 12:0.124301 13:0.00468935 14:0.0106287 15:0 16:0 17:0 18:0 19:0 20:0 21:0 22:0.0180034 23:0.138247 24:0.158124 25:0.0313174 26:0.0579292 27:0.0206134 28:0.0576411 29:0.500458 30:0.0176663 31:0.11 32:0.11 33:0.11 34:0.11 35:0.11 36:0.11 37:0.11 38:0.11 39:0.11 
-26 1:0.504783 2:0.466093 3:0.0291243 4:0.966586 5:0.0312733 6:0.225617 7:0.0263648 8:0.0638385 9:0.024493 10:0.0371219 11:0.568645 12:0.134763 13:0.0768131 14:0.0366875 15:0 16:0 17:0 18:0 19:0 20:0 21:1 22:0.0532818 23:0.0557155 24:0.0520675 25:0.0187679 26:0.00822167 27:0.0680252 28:0.0506162 29:0.680232 30:0.0130717 31:0.11 32:0.11 33:0.11 34:0.11 35:0.11 36:0.11 37:0.11 38:0.11 39:0.11 
-20.55975784236074 1:0.669561 2:0.185565 3:0.144874 4:0.965619 5:0.00613568 6:0.100638 7:0.0024997 8:0.026289 9:0.0871667 10:0.037493 11:0.106696 12:0.725921 13:0.00622145 14:0.00157759 15:0 16:0 17:0 18:0 19:0 20:0 21:1 22:0.0300828 23:0.104035 24:0.138364 25:0.128079 26:0.0770582 27:0.0814018 28:0.0497074 29:0.369167 30:0.022106 31:0.11 32:0.11 33:0.11 34:0.11 35:0.11 36:0.11 37:0.11 38:0.11 39:0.11 
-26 1:0.995862 2:0.00296285 3:0.00117473 4:0.975127 5:0.00313115 6:0.0258258 7:0.0192323 8:0.0357466 9:0.00389125 10:0.0432107 11:0.782167 12:0.0720115 13:0.0177125 14:0.0228972 15:0 16:0 17:0 18:0 19:0 20:0 21:1 22:0.0965928 23:0.0459586 24:0.0456551 25:0.019789 26:0.00660936 27:0.346072 28:0.241198 29:0.187652 30:0.0104725 31:0.11 32:0.11 33:0.11 34:0.11 35:0.11 36:0.11 37:0.11 38:0.11 39:0.11 
-14.21924414409898 1:0.0057286 2:0.0091646 3:0.985107 4:-0.954035 5:0.028322 6:0.414347 7:0.13635 8:0.0394513 9:0.00658285 10:0.0174478 11:0.0205472 12:0.593692 13:0.0879562 14:0.0696508 15:0 16:0 17:0 18:0 19:0 20:0 21:0 22:0.0292226 23:0.0705654 24:0.0580551 25:0.0310098 26:0.0806035 27:0.0259169 28:0.0271443 29:0.658478 30:0.0190045 31:0.11 32:0.11 33:0.11 34:0.11 35:0.11 36:0.11 37:0.11 38:0.11 39:0.11 
-26 1:0.790265 2:0.16314 3:0.0465946 4:0.964149 5:0.0172149 6:0.0781062 7:0.00314782 8:0.0899356 9:0.107867 10:0.341118 11:0.094877 12:0.331489 13:0.00784044 14:0.00650978 15:0 16:0 17:0 18:0 19:0 20:0 21:0 22:0.0785472 23:0.101029 24:0.371714 25:0.0537852 26:0.0174953 27:0.0973488 28:0.0530345 29:0.216755 30:0.0102919 31:0.11 32:0.11 33:0.11 34:0.11 35:0.11 36:0.11 37:0.11 38:0.11 39:0.11 
-26 1:0.739518 2:0.245503 3:0.0149797 4:0.977599 5:0.047123 6:0.186058 7:0.0657093 8:0.300561 9:0.020779 10:0.0853278 11:0.108812 12:0.0684575 13:0.0739227 14:0.229307 15:0 16:0 17:0 18:0 19:0 20:0 21:0 22:0.0419001 23:0.132858 24:0.174919 25:0.024895 26:0.0582485 27:0.03262 28:0.24499 29:0.277198 30:0.0123704 31:0.0124773 32:0.344314 33:0.0183898 34:0.0245868 35:0.00656119 36:0.0342407 37:0.0308063 38:0.0244616 39:0.504163 
-26 1:0.98371 2:0.00857491 3:0.00771506 4:0.97412 5:0.00926248 6:0.0399129 7:0.102812 8:0.0313685 9:0.144462 10:0.0730264 11:0.057402 12:0.525522 13:0.00955683 14:0.0465879 15:0 16:0 17:0 18:0 19:0 20:0 21:0 22:0.116792 23:0.214387 24:0.142071 25:0.0490006 26:0.148008 27:0.0575786 28:0.142433 29:0.0778945 30:0.0518359 31:0.11 32:0.11 33:0.11 34:0.11 35:0.11 36:0.11 37:0.11 38:0.11 39:0.11 
-26 1:0.760962 2:0.0287964 3:0.210242 4:0.960579 5:0.0393865 6:0.132783 7:0.01681 8:0.136216 9:0.0143425 10:0.28006 11:0.132339 12:0.0799626 13:0.0906647 14:0.21022 15:0 16:0 17:0 18:0 19:0 20:0 21:0 22:0.0215576 23:0.119557 24:0.0138324 25:0.0152894 26:0.157495 27:0.0975772 28:0.219108 29:0.326006 30:0.0295779 31:0.11 32:0.11 33:0.11 34:0.11 35:0.11 36:0.11 37:0.11 38:0.11 39:0.11 
-26 1:0.951956 2:0.0426866 3:0.00535781 4:0.96316 5:0.0140415 6:0.229927 7:0.00607058 8:0.017266 9:0.705327 10:0.101117 11:0.022745 12:0.112449 13:0.00612186 14:0.0148624 15:0 16:0 17:0 18:0 19:0 20:0 21:0 22:0.0319535 23:0.0656734 24:0.0180516 25:0.011511 26:0.0182338 27:0.0559595 28:0.199597 29:0.531046 30:0.0679742 31:0.11 32:0.11 33:0.11 34:0.11 35:0.11 36:0.11 37:0.11 38:0.11 39:0.11 
-9.799793247458865 1:0.985726 2:0.0104946 3:0.00377917 4:0.962455 5:0.0087153 6:0.233483 7:0.0259245 8:0.029287 9:0.0701548 10:0.107954 11:0.0286636 12:0.316769 13:0.380375 14:0.0321561 15:0 16:0 17:0 18:0 19:0 20:1 21:0 22:0.0294774 23:0.0224061 24:0.0157204 25:0.16028 26:0.210123 27:0.0136634 28:0.0231535 29:0.478762 30:0.0464141 31:0.223042 32:0.0749149 33:0.123358 34:0.0147744 35:0.0336473 36:0.0103192 37:0.02265 38:0.472772 39:0.0245232 
-26 1:0.994126 2:0.00389504 3:0.00197935 4:0.970794 5:0.0454013 6:0.0766123 7:0.0520787 8:0.275007 9:0.0493129 10:0.0653966 11:0.0672947 12:0.264537 13:0.0158724 14:0.1651 15:0 16:0 17:0 18:0 19:0 20:0 21:1 22:0.0430913 23:0.144982 24:0.0145846 25:0.0234968 26:0.0702914 27:0.015077 28:0.342224 29:0.190349 30:0.155904 31:0.11 32:0.11 33:0.11 34:0.11 35:0.11 36:0.11 37:0.11 38:0.11 39:0.11 
-26 1:0.000677012 2:0.0151154 3:0.984208 4:0.956313 5:0.0269761 6:0.0960942 7:0.00655794 8:0.240671 9:0.0472514 10:0.354122 11:0.084697 12:0.0211781 13:0.161128 14:0.0574185 15:0 16:0 17:0 18:0 19:0 20:0 21:1 22:0.0396522 23:0.193395 24:0.0485438 25:0.300761 26:0.0490726 27:0.051911 28:0.147483 29:0.00363697 30:0.165545 31:0.00852669 32:0.0351031 33:0.036615 34:0.0130276 35:0.102193 36:0.188161 37:0.0547634 38:0.494833 39:0.0667774 
-15.48430839937314 1:0.994693 2:0.00410248 3:0.00120465 4:0.97076 5:0.00262421 6:0.219861 7:0.181538 8:0.00603107 9:0.0227464 10:0.036092 11:0.125332 12:0.586002 13:0.0108128 14:0.0288206 15:0 16:0 17:0 18:0 19:0 20:0 21:0 22:0.0128682 23:0.0214404 24:0.00604597 25:0.0130195 26:0.012634 27:0.00636727 28:0.0348744 29:0.102139 30:0.790612 31:0.00103647 32:0.00881522 33:0.00378642 34:0.0138871 35:0.00200371 36:0.00798882 37:0.00144059 38:0.0219785 39:0.939063 
-1.245072957414102 1:0.992844 2:0.0054922 3:0.0016635 4:0.973064 5:0.028503 6:0.201402 7:0.00804257 8:0.0445386 9:0.0275905 10:0.0583125 11:0.211419 12:0.567979 13:0.0173329 14:0.0362822 15:0 16:0 17:0 18:0 19:0 20:0 21:1 22:0.0191291 23:0.0392097 24:0.0124165 25:0.0072558 26:0.026312 27:0.0084586 28:0.0618159 29:0.0719781 30:0.753424 31:0.00137528 32:0.00505423 33:0.00456962 34:0.0205297 35:0.00133554 36:0.00509866 37:0.00519325 38:0.281674 39:0.67517 
-26 1:0.99965 2:6.76112e-07 3:0.000349492 4:0.960665 5:0.0203005 6:0.116685 7:0.0179437 8:0.0583685 9:0.0884853 10:0.179294 11:0.144717 12:0.461544 13:0.0124343 14:0.0169119 15:0 16:0 17:0 18:0 19:0 20:0 21:0 22:0.0368109 23:0.0465464 24:0.00618955 25:0.00493014 26:0.0232603 27:0.0796466 28:0.363193 29:0.0534774 30:0.385946 31:0.0161721 32:0.0465062 33:0.0394386 34:0.0241281 35:0.0150611 36:0.038812 37:0.0194257 38:0.74604 39:0.0544156 
-26 1:0.938929 2:0.00658645 3:0.0544846 4:0.940353 5:0.00534337 6:0.0666586 7:0.098694 8:0.036153 9:0.0792374 10:0.329555 11:0.105245 12:0.31726 13:0.0134072 14:0.0151041 15:0 16:0 17:0 18:0 19:0 20:0 21:1 22:0.0514905 23:0.0674376 24:0.00543653 25:0.0202064 26:0.604306 27:0.00460721 28:0.0648738 29:0.0792143 30:0.102427 31:0.0106488 32:0.0221142 33:0.0393661 34:0.0141136 35:0.295383 36:0.0754172 37:0.0579294 38:0.399781 39:0.0852465 
-26 1:0.991838 2:0.00582123 3:0.00234063 4:0.971347 5:0.0191702 6:0.0684345 7:0.00439629 8:0.121596 9:0.283122 10:0.225044 11:0.120733 12:0.215076 13:0.00368073 14:0.00718187 15:1 16:0 17:0 18:1 19:0 20:0 21:1 22:0.0123529 23:0.0342614 24:0.00666874 25:0.0130324 26:0.0250878 27:0.0622863 28:0.126475 29:0.56798 30:0.151855 31:0.11 32:0.11 33:0.11 34:0.11 35:0.11 36:0.11 37:0.11 38:0.11 39:0.11 
-26 1:0.991154 2:0.00637504 3:0.00247124 4:0.96435 5:0.022464 6:0.224686 7:0.0253488 8:0.0763442 9:0.277823 10:0.131958 11:0.0836411 12:0.337523 13:0.00537405 14:0.0395238 15:0 16:0 17:0 18:0 19:0 20:0 21:0 22:0.0509913 23:0.0384498 24:0.00718461 25:0.0283297 26:0.0871259 27:0.00630013 28:0.0964381 29:0.599435 30:0.0857454 31:0.11 32:0.11 33:0.11 34:0.11 35:0.11 36:0.11 37:0.11 38:0.11 39:0.11 
-16.70506456700699 1:0.986628 2:0.00943053 3:0.00394123 4:0.955735 5:0.00820884 6:0.20286 7:0.183927 8:0.0141144 9:0.0442574 10:0.23493 11:0.130816 12:0.167965 13:0.0264307 14:0.18935 15:0 16:0 17:0 18:0 19:0 20:0 21:0 22:0.0618974 23:0.0927574 24:0.00606638 25:0.0742252 26:0.180649 27:0.0259461 28:0.0678687 29:0.330566 30:0.160024 31:0.00606786 32:0.0196044 33:0.0147177 34:0.012388 35:0.0045626 36:0.011521 37:0.0109612 38:0.892665 39:0.0275118 
-26 1:0.147596 2:0.0293697 3:0.823035 4:0.916376 5:0.0954672 6:0.339889 7:0.00478769 8:0.200358 9:0.167386 10:0.304707 11:0.0561442 12:0.0743528 13:0.0761303 14:0.0206669 15:0 16:0 17:0 18:0 19:0 20:0 21:0 22:0.0553816 23:0.0369892 24:0.0104678 25:0.29026 26:0.166315 27:0.0168211 28:0.0308927 29:0.269754 30:0.123119 31:0.0339625 32:0.0819003 33:0.0391439 34:0.0534502 35:0.0224566 36:0.0876659 37:0.050416 38:0.547563 39:0.0834421 
-26 1:0.97239 2:0.0195347 3:0.00807561 4:0.954404 5:0.00644703 6:0.460584 7:0.497331 8:0.0146526 9:0.014808 10:0.0117324 11:0.0618885 12:0.0791454 13:0.0652481 14:0.248747 15:0 16:0 17:0 18:0 19:0 20:0 21:0 22:0.0102578 23:0.0489719 24:0.023406 25:0.0317075 26:0.140197 27:0.0473828 28:0.107405 29:0.211636 30:0.379035 31:0.00101155 32:0.0167024 33:0.00148178 34:0.00726227 35:0.0016266 36:0.0027658 37:0.0061444 38:0.920877 39:0.0421284 
-26 1:0.993493 2:0.00408811 3:0.00241866 4:0.959265 5:0.00639437 6:0.141834 7:0.286804 8:0.0318711 9:0.0589153 10:0.0640073 11:0.0215772 12:0.484858 13:0.0253012 14:0.0202709 15:0 16:0 17:0 18:0 19:0 20:0 21:0 22:0.0550237 23:0.0801791 24:0.00675356 25:0.0499153 26:0.264469 27:0.0139793 28:0.0870553 29:0.258073 30:0.184551 31:0.11 32:0.11 33:0.11 34:0.11 35:0.11 36:0.11 37:0.11 38:0.11 39:0.11 
-26 1:0.948228 2:0.0406193 3:0.0111526 4:-0.678657 5:0.000504815 6:0.0833192 7:0.787666 8:0.0108993 9:0.0084793 10:0.0087055 11:0.0661633 12:0.075895 13:0.028485 14:0.0132021 15:0 16:0 17:0 18:0 19:0 20:0 21:0 22:0.0162669 23:0.0787738 24:0.0193324 25:0.00702948 26:0.00819812 27:0.029926 28:0.713082 29:0.0545996 30:0.072792 31:0.00667498 32:0.0199181 33:0.0130952 34:0.0672026 35:0.401582 36:0.0390118 37:0.113324 38:0.31694 39:0.0222505 
-26 1:0.990532 2:0.0061917 3:0.00327655 4:0.960474 5:0.0535872 6:0.129352 7:0.00201009 8:0.490038 9:0.076809 10:0.0982304 11:0.206492 12:0.0398932 13:0.0297103 14:0.00323017 15:0 16:0 17:0 18:0 19:0 20:0 21:0 22:0.0612941 23:0.163167 24:0.115365 25:0.0214287 26:0.00794678 27:0.0246684 28:0.386384 29:0.190715 30:0.0290319 31:0.11 32:0.11 33:0.11 34:0.11 35:0.11 36:0.11 37:0.11 38:0.11 39:0.11 
-26 1:0.935465 2:0.0551535 3:0.00938105 4:0.8045 5:0.757501 6:0.79947 7:0.000754586 8:0.153654 9:0.0108907 10:0.0339213 11:0.00860071 12:0.0140953 13:0.00633311 14:0.014249 15:0 16:0 17:0 18:0 19:0 20:0 21:1 22:0.141535 23:0.100963 24:0.0143079 25:0.220239 26:0.409336 27:0.0142454 28:0.0226246 29:0.0479345 30:0.0288147 31:0.11 32:0.11 33:0.11 34:0.11 35:0.11 36:0.11 37:0.11 38:0.11 39:0.11 
-26 1:0.998083 2:0.00101289 3:0.000903689 4:0.954903 5:0.0185951 6:0.0355107 7:0.0291424 8:0.215392 9:0.0443702 10:0.135346 11:0.0470879 12:0.409744 13:0.0650538 14:0.0352686 15:0 16:0 17:0 18:0 19:0 20:0 21:0 22:0.0856333 23:0.139506 24:0.0852434 25:0.0388375 26:0.029623 27:0.0366206 28:0.205979 29:0.30554 30:0.0730167 31:0.00389405 32:0.00850251 33:0.00826189 34:0.00624034 35:0.00702554 36:0.053527 37:0.865087 38:0.0422775 39:0.00518426 
-26 1:0.989625 2:0.00160317 3:0.00877178 4:0.961148 5:0.05319 6:0.162518 7:0.024506 8:0.301877 9:0.0453883 10:0.0932901 11:0.148314 12:0.213163 13:0.0671123 14:0.053159 15:0 16:0 17:0 18:0 19:0 20:0 21:0 22:0.0186879 23:0.0888179 24:0.031634 25:0.00799116 26:0.0123728 27:0.0055822 28:0.137174 29:0.681024 30:0.016716 31:0.00330494 32:0.00408553 33:0.00575456 34:0.00341589 35:0.00746869 36:0.0438826 37:0.851455 38:0.0702461 39:0.0103866 
-26 1:0.997218 2:0.00172881 3:0.00105344 4:-0.828277 5:0.0272017 6:0.37127 7:0.027737 8:0.0875252 9:0.0139574 10:0.272039 11:0.284101 12:0.0631869 13:0.0925581 14:0.131693 15:0 16:0 17:0 18:0 19:0 20:0 21:0 22:0.0151797 23:0.0913142 24:0.0991763 25:0.0153681 26:0.00414178 27:0.199781 28:0.440516 29:0.0483439 30:0.0861796 31:0.00411542 32:0.00342765 33:0.007149 34:0.00584628 35:0.00843175 36:0.036788 37:0.867114 38:0.0561328 39:0.0109949 
-26 1:0.988402 2:0.00888872 3:0.00270924 4:0.961511 5:0.308835 6:0.706189 7:0.002246 8:0.180057 9:0.0224201 10:0.0174117 11:0.409169 12:0.0330969 13:0.023002 14:0.00376107 15:0 16:0 17:0 18:0 19:0 20:0 21:0 22:0.0709859 23:0.10063 24:0.0215267 25:0.0439319 26:0.118091 27:0.0288186 28:0.104121 29:0.246416 30:0.265479 31:0.0299765 32:0.610647 33:0.0414642 34:0.100556 35:0.0467273 36:0.0646402 37:0.0429682 38:0.0301903 39:0.032831 
-26 1:0.977214 2:0.0158674 3:0.00691904 4:0.920441 5:0.00688096 6:0.0237993 7:0.239432 8:0.018479 9:0.0260072 10:0.0595515 11:0.169935 12:0.213856 13:0.0601756 14:0.205683 15:0 16:0 17:0 18:0 19:0 20:0 21:1 22:0.0173306 23:0.028635 24:0.0249091 25:0.119305 26:0.454653 27:0.0138725 28:0.00994975 29:0.0507676 30:0.280578 31:0.00204106 32:0.0161955 33:0.0236188 34:0.012494 35:0.00200541 36:0.0233609 37:0.00583821 38:0.00507071 39:0.909375 
-26 1:0.800832 2:0.176692 3:0.0224757 4:-0.936597 5:0.31733 6:0.725328 7:0.00858117 8:0.145044 9:0.0126988 10:0.0815444 11:0.0301114 12:0.0122225 13:0.268936 14:0.123531 15:0 16:0 17:1 18:0 19:0 20:0 21:0 22:0.0431355 23:0.170764 24:0.157136 25:0.141248 26:0.16432 27:0.0190541 28:0.0245331 29:0.00729164 30:0.272518 31:0.11 32:0.11 33:0.11 34:0.11 35:0.11 36:0.11 37:0.11 38:0.11 39:0.11 
-26 1:0.996482 2:0.00295713 3:0.000561194 4:0.969624 5:0.0744418 6:0.286597 7:0.00504281 8:0.287717 9:0.134515 10:0.260459 11:0.0968876 12:0.0421948 13:0.0722682 14:0.0264738 15:0 16:0 17:0 18:0 19:0 20:0 21:0 22:0.117543 23:0.136308 24:0.218805 25:0.0118507 26:0.00806675 27:0.278192 28:0.0927466 29:0.129401 30:0.00708741 31:0.00667498 32:0.0199181 33:0.0130952 34:0.0672026 35:0.401582 36:0.0390118 37:0.113324 38:0.31694 39:0.0222505 
-26 1:0.990001 2:0.00265764 3:0.00734126 4:0.668221 5:0.171952 6:0.626306 7:0.0100469 8:0.121688 9:0.013155 10:0.0705479 11:0.207369 12:0.226633 13:0.0288576 14:0.149751 15:1 16:0 17:0 18:0 19:0 20:0 21:0 22:0.0161907 23:0.207437 24:0.0613956 25:0.0490958 26:0.0352406 27:0.396458 28:0.141648 29:0.0699414 30:0.0225925 31:0.0199648 32:0.0491167 33:0.0274152 34:0.136541 35:0.0310273 36:0.0239422 37:0.0190709 38:0.0835783 39:0.609343 
-15.43064582889198 1:0.501823 2:0.468052 3:0.0301254 4:0.920858 5:0.0562769 6:0.5 7:0.00585512 8:0.033975 9:0.0130952 10:0.0172481 11:0.221064 12:0.600488 13:0.012544 14:0.0394529 15:0 16:0 17:0 18:0 19:0 20:0 21:0 22:0.0224266 23:0.0961727 24:0.0485391 25:0.0241992 26:0.019227 27:0.036362 28:0.454007 29:0.280353 30:0.0187138 31:0.0231884 32:0.0505731 33:0.0346159 34:0.274876 35:0.0774174 36:0.0216977 37:0.02218 38:0.0837285 39:0.411723 
-26 1:0.996177 2:0.00148787 3:0.00233494 4:0.954676 5:0.00481607 6:0.0636975 7:0.320243 8:0.0408115 9:0.0123646 10:0.0306078 11:0.297997 12:0.0614999 13:0.0553307 14:0.176329 15:0 16:0 17:0 18:0 19:0 20:0 21:0 22:0.0166324 23:0.24641 24:0.184249 25:0.0281533 26:0.0099723 27:0.0124793 28:0.429405 29:0.0653332 30:0.00736612 31:0.0216609 32:0.178901 33:0.0179872 34:0.129874 35:0.0248915 36:0.0236694 37:0.0173882 38:0.0131366 39:0.572491 
-26 1:0.992361 2:0.00180586 3:0.0058331 4:0.817386 5:0.0339701 6:0.292609 7:0.0953613 8:0.107209 9:0.00558907 10:0.0331005 11:0.195734 12:0.344826 13:0.0680945 14:0.116116 15:0 16:0 17:0 18:0 19:0 20:0 21:0 22:0.137486 23:0.194094 24:0.0434212 25:0.0208686 26:0.0144001 27:0.0373734 28:0.105346 29:0.43373 30:0.0132798 31:0.0144516 32:0.0236018 33:0.0230431 34:0.0185803 35:0.128689 36:0.143658 37:0.102665 38:0.489232 39:0.0560786 
-26 1:0.994291 2:0.00137333 3:0.00433561 4:0.9628 5:0.0581299 6:0.333844 7:0.0346824 8:0.120162 9:0.0679129 10:0.0649867 11:0.0429974 12:0.430515 13:0.0832664 14:0.0973475 15:0 16:1 17:0 18:0 19:0 20:0 21:0 22:0.547709 23:0.0359556 24:0.0210443 25:0.0259943 26:0.0272416 27:0.0126206 28:0.153646 29:0.165647 30:0.0101415 31:0.00466749 32:0.0146244 33:0.0121929 34:0.0115268 35:0.0286717 36:0.0132036 37:0.622189 38:0.250162 39:0.0427623 
