svm_type c_svc
kernel_type rbf
gamma 0.5
nr_class 2
total_sv 783
rho 16.1287
label 0 1
probA -2.32218
probB 0.0289095
nr_sv 218 565
SV
26 1:0 2:0.090909091 3:0 4:0.15151515 5:0 6:0 7:0 8:0.03030303 9:0 10:0 11:0.060606061 12:0.090909091 13:0.24242424 14:0.060606061 15:0.03030303 16:0 17:0.060606061 18:0 19:0.090909091 20:0.090909091 
26 1:0 2:0.090909091 3:0 4:0.12121212 5:0 6:0 7:0 8:0.03030303 9:0 10:0 11:0.060606061 12:0.12121212 13:0.24242424 14:0.060606061 15:0.03030303 16:0 17:0.060606061 18:0 19:0.090909091 20:0.090909091 
26 1:0 2:0.060606061 3:0 4:0.15151515 5:0 6:0 7:0 8:0.03030303 9:0 10:0 11:0.060606061 12:0.12121212 13:0.24242424 14:0.060606061 15:0.03030303 16:0 17:0.060606061 18:0 19:0.090909091 20:0.090909091 
26 1:0.03030303 2:0.060606061 3:0 4:0.15151515 5:0 6:0 7:0 8:0.03030303 9:0 10:0 11:0.060606061 12:0.15151515 13:0.24242424 14:0.03030303 15:0.03030303 16:0 17:0.060606061 18:0 19:0.090909091 20:0.060606061 
26 1:0.03030303 2:0.03030303 3:0 4:0.15151515 5:0 6:0 7:0 8:0.03030303 9:0 10:0 11:0.060606061 12:0.18181818 13:0.24242424 14:0.03030303 15:0.03030303 16:0 17:0.060606061 18:0 19:0.090909091 20:0.060606061 
9.268109806035978 1:0.03030303 2:0.03030303 3:0.03030303 4:0.090909091 5:0 6:0 7:0 8:0.03030303 9:0.03030303 10:0 11:0.060606061 12:0.24242424 13:0.21212121 14:0.03030303 15:0.03030303 16:0 17:0.060606061 18:0 19:0.060606061 20:0.060606061 
16.69443499851807 1:0.04 2:0.24 3:0 4:0.12 5:0 6:0 7:0.08 8:0.04 9:0 10:0 11:0.12 12:0.04 13:0.08 14:0.04 15:0 16:0 17:0.04 18:0 19:0 20:0.16 
26 1:0.038461538 2:0.26923077 3:0 4:0.11538462 5:0 6:0 7:0.076923077 8:0.038461538 9:0 10:0 11:0.11538462 12:0.038461538 13:0.076923077 14:0.038461538 15:0 16:0 17:0.038461538 18:0 19:0 20:0.15384615 
26 1:0.037037037 2:0.25925926 3:0 4:0.14814815 5:0 6:0 7:0.074074074 8:0.037037037 9:0 10:0 11:0.11111111 12:0.037037037 13:0.074074074 14:0.037037037 15:0 16:0 17:0.037037037 18:0 19:0 20:0.14814815 
26 1:0.05 2:0.15 3:0 4:0.2 5:0 6:0 7:0.1 8:0 9:0.05 10:0 11:0 12:0.15 13:0.05 14:0.05 15:0 16:0 17:0.05 18:0 19:0.05 20:0.1 
26 1:0.060606061 2:0.060606061 3:0.060606061 4:0.12121212 5:0 6:0 7:0 8:0.060606061 9:0.060606061 10:0 11:0 12:0.24242424 13:0.03030303 14:0.03030303 15:0 16:0.060606061 17:0.060606061 18:0 19:0.03030303 20:0.12121212 
26 1:0.060606061 2:0.060606061 3:0.060606061 4:0.12121212 5:0.03030303 6:0 7:0 8:0.060606061 9:0.060606061 10:0 11:0 12:0.24242424 13:0.03030303 14:0.03030303 15:0 16:0.060606061 17:0.060606061 18:0 19:0.03030303 20:0.090909091 
26 1:0.060606061 2:0.060606061 3:0.060606061 4:0.12121212 5:0.060606061 6:0 7:0 8:0.060606061 9:0.060606061 10:0 11:0 12:0.24242424 13:0.03030303 14:0.03030303 15:0 16:0.060606061 17:0.060606061 18:0 19:0 20:0.090909091 
26 1:0.060606061 2:0.060606061 3:0.060606061 4:0.12121212 5:0.060606061 6:0 7:0 8:0.060606061 9:0.060606061 10:0 11:0 12:0.24242424 13:0.03030303 14:0.03030303 15:0 16:0.060606061 17:0.060606061 18:0 19:0 20:0.090909091 
26 1:0.090909091 2:0.060606061 3:0.060606061 4:0.12121212 5:0.060606061 6:0 7:0 8:0.060606061 9:0.03030303 10:0 11:0 12:0.24242424 13:0.03030303 14:0.03030303 15:0 16:0.060606061 17:0.060606061 18:0 19:0 20:0.090909091 
26 1:0.12121212 2:0.060606061 3:0.060606061 4:0.12121212 5:0.060606061 6:0 7:0 8:0.060606061 9:0.03030303 10:0 11:0 12:0.21212121 13:0.03030303 14:0.03030303 15:0 16:0.060606061 17:0.060606061 18:0 19:0 20:0.090909091 
26 1:0.12121212 2:0.060606061 3:0.060606061 4:0.090909091 5:0.060606061 6:0 7:0 8:0.060606061 9:0.03030303 10:0 11:0.03030303 12:0.21212121 13:0.03030303 14:0.03030303 15:0 16:0.060606061 17:0.060606061 18:0 19:0 20:0.090909091 
26 1:0.23529412 2:0 3:0.23529412 4:0 5:0.058823529 6:0 7:0.058823529 8:0.058823529 9:0 10:0 11:0 12:0.11764706 13:0 14:0.058823529 15:0.058823529 16:0 17:0 18:0 19:0.058823529 20:0.058823529 
26 1:0.22222222 2:0 3:0.22222222 4:0 5:0.055555556 6:0 7:0.055555556 8:0.055555556 9:0 10:0 11:0 12:0.16666667 13:0 14:0.055555556 15:0.055555556 16:0 17:0 18:0 19:0.055555556 20:0.055555556 
26 1:0.21052632 2:0 3:0.26315789 4:0 5:0.052631579 6:0 7:0.052631579 8:0.052631579 9:0 10:0 11:0 12:0.15789474 13:0 14:0.052631579 15:0.052631579 16:0 17:0 18:0 19:0.052631579 20:0.052631579 
26 1:0.2 2:0 3:0.25 4:0.05 5:0.05 6:0 7:0.05 8:0.05 9:0 10:0 11:0 12:0.15 13:0 14:0.05 15:0.05 16:0 17:0 18:0 19:0.05 20:0.05 
26 1:0.19047619 2:0 3:0.23809524 4:0.047619048 5:0.047619048 6:0 7:0.047619048 8:0.047619048 9:0 10:0 11:0 12:0.14285714 13:0 14:0.047619048 15:0.095238095 16:0 17:0 18:0 19:0.047619048 20:0.047619048 
26 1:0.18181818 2:0 3:0.22727273 4:0.045454545 5:0.045454545 6:0 7:0.045454545 8:0.045454545 9:0 10:0 11:0 12:0.13636364 13:0 14:0.045454545 15:0.090909091 16:0 17:0 18:0.045454545 19:0.045454545 20:0.045454545 
26 1:0.17391304 2:0 3:0.2173913 4:0.086956522 5:0.043478261 6:0 7:0.043478261 8:0.043478261 9:0 10:0 11:0 12:0.13043478 13:0 14:0.043478261 15:0.086956522 16:0 17:0 18:0.043478261 19:0.043478261 20:0.043478261 
14.45251529746596 1:0.13793103 2:0.034482759 3:0.20689655 4:0.068965517 5:0.068965517 6:0 7:0.034482759 8:0.034482759 9:0 10:0 11:0.034482759 12:0.10344828 13:0 14:0.068965517 15:0.068965517 16:0 17:0 18:0.034482759 19:0.034482759 20:0.068965517 
26 1:0.13333333 2:0.033333333 3:0.2 4:0.066666667 5:0.1 6:0 7:0.033333333 8:0.033333333 9:0 10:0 11:0.033333333 12:0.1 13:0 14:0.066666667 15:0.066666667 16:0 17:0 18:0.033333333 19:0.033333333 20:0.066666667 
26 1:0.12903226 2:0.032258065 3:0.19354839 4:0.064516129 5:0.096774194 6:0 7:0.032258065 8:0.032258065 9:0 10:0 11:0.032258065 12:0.096774194 13:0 14:0.064516129 15:0.096774194 16:0 17:0 18:0.032258065 19:0.032258065 20:0.064516129 
26 1:0.125 2:0.03125 3:0.1875 4:0.0625 5:0.09375 6:0 7:0.03125 8:0.03125 9:0 10:0 11:0.0625 12:0.09375 13:0 14:0.0625 15:0.09375 16:0 17:0 18:0.03125 19:0.03125 20:0.0625 
26 1:0.12121212 2:0.03030303 3:0.18181818 4:0.060606061 5:0.090909091 6:0 7:0.03030303 8:0.03030303 9:0 10:0 11:0.060606061 12:0.12121212 13:0 14:0.060606061 15:0.090909091 16:0 17:0 18:0.03030303 19:0.03030303 20:0.060606061 
26 1:0.12121212 2:0.03030303 3:0.21212121 4:0.060606061 5:0.090909091 6:0 7:0 8:0.060606061 9:0 10:0 11:0.060606061 12:0.12121212 13:0 14:0.060606061 15:0.060606061 16:0 17:0 18:0.03030303 19:0.03030303 20:0.060606061 
26 1:0.090909091 2:0.03030303 3:0.21212121 4:0.060606061 5:0.090909091 6:0.03030303 7:0 8:0.060606061 9:0 10:0 11:0.060606061 12:0.12121212 13:0 14:0.060606061 15:0.060606061 16:0 17:0 18:0.03030303 19:0.03030303 20:0.060606061 
26 1:0.090909091 2:0.03030303 3:0.18181818 4:0.060606061 5:0.060606061 6:0.03030303 7:0 8:0.060606061 9:0 10:0 11:0.060606061 12:0.15151515 13:0 14:0.060606061 15:0.060606061 16:0 17:0.03030303 18:0.03030303 19:0.03030303 20:0.060606061 
26 1:0.090909091 2:0.03030303 3:0.15151515 4:0.060606061 5:0.060606061 6:0.03030303 7:0 8:0.03030303 9:0 10:0 11:0.060606061 12:0.15151515 13:0.03030303 14:0.060606061 15:0.090909091 16:0 17:0.03030303 18:0.03030303 19:0.03030303 20:0.060606061 
26 1:0.060606061 2:0.03030303 3:0.15151515 4:0.060606061 5:0.060606061 6:0.03030303 7:0 8:0.03030303 9:0 10:0 11:0.090909091 12:0.15151515 13:0.03030303 14:0.060606061 15:0.090909091 16:0 17:0.03030303 18:0.03030303 19:0.03030303 20:0.060606061 
26 1:0.03030303 2:0.060606061 3:0.15151515 4:0.060606061 5:0.060606061 6:0.03030303 7:0 8:0.03030303 9:0 10:0 11:0.090909091 12:0.15151515 13:0.03030303 14:0.060606061 15:0.090909091 16:0 17:0.03030303 18:0.03030303 19:0.03030303 20:0.060606061 
26 1:0.03030303 2:0.060606061 3:0.090909091 4:0.060606061 5:0.060606061 6:0.03030303 7:0.03030303 8:0.03030303 9:0 10:0 11:0.090909091 12:0.15151515 13:0.03030303 14:0.03030303 15:0.090909091 16:0 17:0.060606061 18:0.03030303 19:0.03030303 20:0.090909091 
26 1:0.03030303 2:0.060606061 3:0.090909091 4:0.060606061 5:0.060606061 6:0.03030303 7:0.03030303 8:0.03030303 9:0 10:0 11:0.090909091 12:0.15151515 13:0.03030303 14:0.03030303 15:0.090909091 16:0 17:0.090909091 18:0.03030303 19:0 20:0.090909091 
26 1:0 2:0.060606061 3:0.090909091 4:0.060606061 5:0.060606061 6:0.03030303 7:0.03030303 8:0.03030303 9:0 10:0 11:0.090909091 12:0.18181818 13:0.03030303 14:0.03030303 15:0.090909091 16:0 17:0.090909091 18:0.03030303 19:0 20:0.090909091 
26 1:0.03030303 2:0.060606061 3:0.090909091 4:0.060606061 5:0.060606061 6:0.03030303 7:0.03030303 8:0.03030303 9:0 10:0 11:0.090909091 12:0.15151515 13:0.03030303 14:0.03030303 15:0.090909091 16:0 17:0.090909091 18:0.03030303 19:0 20:0.090909091 
26 1:0.03030303 2:0.060606061 3:0.060606061 4:0.060606061 5:0.060606061 6:0.03030303 7:0.03030303 8:0.060606061 9:0 10:0 11:0.090909091 12:0.15151515 13:0.03030303 14:0.03030303 15:0.090909091 16:0 17:0.090909091 18:0.03030303 19:0 20:0.090909091 
26 1:0.03030303 2:0.060606061 3:0.060606061 4:0.03030303 5:0.060606061 6:0.03030303 7:0.03030303 8:0.060606061 9:0 10:0 11:0.090909091 12:0.15151515 13:0.03030303 14:0.03030303 15:0.090909091 16:0 17:0.12121212 18:0.03030303 19:0 20:0.090909091 
26 1:0.03030303 2:0.060606061 3:0.060606061 4:0.03030303 5:0.060606061 6:0.03030303 7:0.03030303 8:0.060606061 9:0 10:0 11:0.090909091 12:0.18181818 13:0.03030303 14:0.03030303 15:0.060606061 16:0 17:0.12121212 18:0.03030303 19:0 20:0.090909091 
26 1:0.03030303 2:0.060606061 3:0.060606061 4:0.03030303 5:0.060606061 6:0.03030303 7:0.03030303 8:0.060606061 9:0 10:0 11:0.090909091 12:0.18181818 13:0.060606061 14:0.03030303 15:0.060606061 16:0 17:0.12121212 18:0 19:0 20:0.090909091 
26 1:0 2:0.060606061 3:0.060606061 4:0.15151515 5:0 6:0 7:0 8:0.03030303 9:0.090909091 10:0 11:0.060606061 12:0.3030303 13:0 14:0.03030303 15:0 16:0.03030303 17:0.03030303 18:0 19:0.090909091 20:0.060606061 
26 1:0 2:0.060606061 3:0.060606061 4:0.12121212 5:0 6:0 7:0 8:0.03030303 9:0.090909091 10:0 11:0.060606061 12:0.3030303 13:0 14:0.03030303 15:0 16:0.060606061 17:0.03030303 18:0 19:0.090909091 20:0.060606061 
26 1:0 2:0.060606061 3:0.060606061 4:0.12121212 5:0 6:0 7:0 8:0.03030303 9:0.090909091 10:0 11:0.060606061 12:0.3030303 13:0 14:0.03030303 15:0 16:0.060606061 17:0.03030303 18:0 19:0.12121212 20:0.03030303 
26 1:0 2:0.060606061 3:0.060606061 4:0.12121212 5:0 6:0 7:0 8:0.03030303 9:0.090909091 10:0 11:0.060606061 12:0.3030303 13:0 14:0.03030303 15:0 16:0.060606061 17:0.060606061 18:0 19:0.090909091 20:0.03030303 
26 1:0 2:0.060606061 3:0.060606061 4:0.090909091 5:0 6:0 7:0 8:0.03030303 9:0.090909091 10:0 11:0.060606061 12:0.3030303 13:0 14:0.060606061 15:0 16:0.060606061 17:0.060606061 18:0 19:0.090909091 20:0.03030303 
26 1:0 2:0.060606061 3:0.060606061 4:0.090909091 5:0 6:0 7:0 8:0.03030303 9:0.090909091 10:0 11:0.090909091 12:0.27272727 13:0 14:0.060606061 15:0 16:0.060606061 17:0.060606061 18:0 19:0.090909091 20:0.03030303 
26 1:0 2:0.060606061 3:0.060606061 4:0.090909091 5:0 6:0 7:0 8:0.03030303 9:0.090909091 10:0 11:0.090909091 12:0.24242424 13:0 14:0.060606061 15:0 16:0.060606061 17:0.060606061 18:0 19:0.090909091 20:0.060606061 
26 1:0 2:0.060606061 3:0.090909091 4:0.090909091 5:0 6:0 7:0 8:0.03030303 9:0.090909091 10:0 11:0.090909091 12:0.21212121 13:0 14:0.060606061 15:0 16:0.060606061 17:0.060606061 18:0 19:0.090909091 20:0.060606061 
26 1:0 2:0.060606061 3:0.060606061 4:0.090909091 5:0 6:0 7:0 8:0.03030303 9:0.090909091 10:0 11:0.090909091 12:0.21212121 13:0.03030303 14:0.060606061 15:0 16:0.060606061 17:0.060606061 18:0 19:0.090909091 20:0.060606061 
21.28569937340322 1:0.083333333 2:0.083333333 3:0.041666667 4:0.16666667 5:0.041666667 6:0 7:0.041666667 8:0.041666667 9:0.041666667 10:0 11:0 12:0.125 13:0 14:0 15:0.20833333 16:0 17:0 18:0 19:0.041666667 20:0.083333333 
26 1:0.071428571 2:0.10714286 3:0.035714286 4:0.14285714 5:0.071428571 6:0 7:0.035714286 8:0.035714286 9:0.035714286 10:0 11:0.035714286 12:0.10714286 13:0 14:0 15:0.17857143 16:0 17:0 18:0.035714286 19:0.035714286 20:0.071428571 
26 1:0.068965517 2:0.10344828 3:0.068965517 4:0.13793103 5:0.068965517 6:0 7:0.034482759 8:0.034482759 9:0.034482759 10:0 11:0.034482759 12:0.10344828 13:0 14:0 15:0.17241379 16:0 17:0 18:0.034482759 19:0.034482759 20:0.068965517 
26 1:0.060606061 2:0.15151515 3:0.060606061 4:0.090909091 5:0.060606061 6:0 7:0 8:0.060606061 9:0 10:0 11:0.060606061 12:0.03030303 13:0.03030303 14:0 15:0.15151515 16:0 17:0.03030303 18:0.03030303 19:0.090909091 20:0.090909091 
26 1:0.090909091 2:0.15151515 3:0.060606061 4:0.090909091 5:0.060606061 6:0 7:0 8:0.060606061 9:0 10:0 11:0.060606061 12:0.03030303 13:0.03030303 14:0 15:0.15151515 16:0 17:0.03030303 18:0.03030303 19:0.090909091 20:0.060606061 
26 1:0.090909091 2:0.15151515 3:0.060606061 4:0.090909091 5:0.060606061 6:0 7:0 8:0.060606061 9:0 10:0 11:0.060606061 12:0 13:0.03030303 14:0 15:0.15151515 16:0.03030303 17:0.03030303 18:0.03030303 19:0.090909091 20:0.060606061 
26 1:0.090909091 2:0.15151515 3:0.060606061 4:0.090909091 5:0.060606061 6:0 7:0 8:0.060606061 9:0 10:0 11:0.060606061 12:0 13:0.03030303 14:0 15:0.15151515 16:0.03030303 17:0.060606061 18:0.03030303 19:0.060606061 20:0.060606061 
26 1:0.090909091 2:0.15151515 3:0.060606061 4:0.090909091 5:0.060606061 6:0 7:0.03030303 8:0.060606061 9:0 10:0 11:0.060606061 12:0 13:0.03030303 14:0 15:0.12121212 16:0.03030303 17:0.060606061 18:0.03030303 19:0.060606061 20:0.060606061 
26 1:0.090909091 2:0.15151515 3:0.060606061 4:0.090909091 5:0.060606061 6:0 7:0.03030303 8:0.060606061 9:0 10:0 11:0.060606061 12:0 13:0.03030303 14:0 15:0.12121212 16:0.03030303 17:0.060606061 18:0.03030303 19:0.060606061 20:0.060606061 
26 1:0.090909091 2:0.15151515 3:0.060606061 4:0.090909091 5:0.060606061 6:0 7:0.03030303 8:0.060606061 9:0 10:0 11:0.060606061 12:0 13:0.03030303 14:0 15:0.090909091 16:0.03030303 17:0.060606061 18:0.03030303 19:0.090909091 20:0.060606061 
26 1:0 2:0.058823529 3:0.058823529 4:0 5:0.11764706 6:0 7:0.058823529 8:0 9:0 10:0 11:0.11764706 12:0.29411765 13:0.17647059 14:0.058823529 15:0 16:0 17:0 18:0 19:0.058823529 20:0 
26 1:0 2:0.055555556 3:0.055555556 4:0 5:0.11111111 6:0 7:0.055555556 8:0 9:0 10:0 11:0.11111111 12:0.33333333 13:0.16666667 14:0.055555556 15:0 16:0 17:0 18:0 19:0.055555556 20:0 
26 1:0 2:0.052631579 3:0.052631579 4:0 5:0.10526316 6:0.052631579 7:0.052631579 8:0 9:0 10:0 11:0.10526316 12:0.31578947 13:0.15789474 14:0.052631579 15:0 16:0 17:0 18:0 19:0.052631579 20:0 
26 1:0 2:0.05 3:0.05 4:0 5:0.1 6:0.05 7:0.05 8:0 9:0 10:0 11:0.1 12:0.35 13:0.15 14:0.05 15:0 16:0 17:0 18:0 19:0.05 20:0 
26 1:0.074074074 2:0.037037037 3:0.037037037 4:0.037037037 5:0.11111111 6:0.074074074 7:0.037037037 8:0 9:0 10:0 11:0.074074074 12:0.25925926 13:0.11111111 14:0.037037037 15:0.037037037 16:0 17:0 18:0 19:0.037037037 20:0.037037037 
26 1:0.071428571 2:0.035714286 3:0.071428571 4:0.035714286 5:0.10714286 6:0.071428571 7:0.035714286 8:0 9:0 10:0 11:0.071428571 12:0.25 13:0.10714286 14:0.035714286 15:0.035714286 16:0 17:0 18:0 19:0.035714286 20:0.035714286 
26 1:0.068965517 2:0.034482759 3:0.068965517 4:0.034482759 5:0.10344828 6:0.068965517 7:0.034482759 8:0 9:0 10:0.034482759 11:0.068965517 12:0.24137931 13:0.10344828 14:0.034482759 15:0.034482759 16:0 17:0 18:0 19:0.034482759 20:0.034482759 
26 1:0.066666667 2:0.033333333 3:0.066666667 4:0.033333333 5:0.1 6:0.066666667 7:0.033333333 8:0 9:0 10:0.033333333 11:0.1 12:0.23333333 13:0.1 14:0.033333333 15:0.033333333 16:0 17:0 18:0 19:0.033333333 20:0.033333333 
26 1:0.096774194 2:0.032258065 3:0.064516129 4:0.032258065 5:0.096774194 6:0.064516129 7:0.032258065 8:0 9:0 10:0.032258065 11:0.096774194 12:0.22580645 13:0.096774194 14:0.032258065 15:0.032258065 16:0 17:0 18:0 19:0.032258065 20:0.032258065 
26 1:0.09375 2:0.03125 3:0.0625 4:0.0625 5:0.09375 6:0.0625 7:0.03125 8:0 9:0 10:0.03125 11:0.09375 12:0.21875 13:0.09375 14:0.03125 15:0.03125 16:0 17:0 18:0 19:0.03125 20:0.03125 
23.21215656107716 1:0.12121212 2:0 3:0.060606061 4:0.18181818 5:0.060606061 6:0.090909091 7:0.03030303 8:0 9:0.03030303 10:0.03030303 11:0.060606061 12:0.15151515 13:0 14:0 15:0.060606061 16:0 17:0 18:0 19:0.03030303 20:0.090909091 
26 1:0.12121212 2:0 3:0.060606061 4:0.18181818 5:0.060606061 6:0.090909091 7:0.03030303 8:0 9:0.03030303 10:0.060606061 11:0.060606061 12:0.12121212 13:0 14:0 15:0.060606061 16:0 17:0 18:0 19:0.03030303 20:0.090909091 
26 1:0.12121212 2:0 3:0.060606061 4:0.21212121 5:0.060606061 6:0.090909091 7:0.03030303 8:0 9:0.03030303 10:0.060606061 11:0.060606061 12:0.090909091 13:0 14:0 15:0.060606061 16:0 17:0 18:0 19:0.03030303 20:0.090909091 
26 1:0.12121212 2:0 3:0.060606061 4:0.24242424 5:0.03030303 6:0.090909091 7:0.03030303 8:0 9:0.03030303 10:0.060606061 11:0.060606061 12:0.090909091 13:0 14:0 15:0.060606061 16:0 17:0 18:0 19:0.03030303 20:0.090909091 
26 1:0.12121212 2:0 3:0.060606061 4:0.24242424 5:0.03030303 6:0.090909091 7:0.03030303 8:0 9:0.03030303 10:0.060606061 11:0.03030303 12:0.12121212 13:0 14:0 15:0.060606061 16:0 17:0 18:0 19:0.03030303 20:0.090909091 
26 1:0.12121212 2:0 3:0.060606061 4:0.24242424 5:0.03030303 6:0.090909091 7:0.060606061 8:0 9:0.03030303 10:0.060606061 11:0.03030303 12:0.090909091 13:0 14:0 15:0.060606061 16:0 17:0 18:0 19:0.03030303 20:0.090909091 
26 1:0.12121212 2:0 3:0.060606061 4:0.24242424 5:0.03030303 6:0.060606061 7:0.060606061 8:0 9:0.03030303 10:0.060606061 11:0.060606061 12:0.090909091 13:0 14:0 15:0.060606061 16:0 17:0 18:0 19:0.03030303 20:0.090909091 
26 1:0.12121212 2:0 3:0.060606061 4:0.27272727 5:0.03030303 6:0.060606061 7:0.060606061 8:0 9:0.03030303 10:0.060606061 11:0.060606061 12:0.060606061 13:0 14:0 15:0.060606061 16:0 17:0 18:0 19:0.03030303 20:0.090909091 
26 1:0.12121212 2:0 3:0.060606061 4:0.27272727 5:0.03030303 6:0.060606061 7:0.060606061 8:0 9:0.03030303 10:0.060606061 11:0.060606061 12:0.060606061 13:0 14:0 15:0.060606061 16:0 17:0 18:0 19:0.060606061 20:0.060606061 
26 1:0.12121212 2:0 3:0.060606061 4:0.27272727 5:0 6:0.060606061 7:0.060606061 8:0 9:0.03030303 10:0.060606061 11:0.060606061 12:0.060606061 13:0.03030303 14:0 15:0.060606061 16:0 17:0 18:0 19:0.060606061 20:0.060606061 
26 1:0.090909091 2:0 3:0.060606061 4:0.3030303 5:0 6:0.060606061 7:0.060606061 8:0 9:0.03030303 10:0.060606061 11:0.060606061 12:0.060606061 13:0.03030303 14:0 15:0.060606061 16:0 17:0 18:0 19:0.060606061 20:0.060606061 
26 1:0.060606061 2:0 3:0.060606061 4:0.3030303 5:0 6:0.060606061 7:0.060606061 8:0 9:0.03030303 10:0.060606061 11:0.060606061 12:0.060606061 13:0.03030303 14:0 15:0.060606061 16:0 17:0 18:0 19:0.060606061 20:0.090909091 
26 1:0.090909091 2:0 3:0.060606061 4:0.3030303 5:0 6:0.060606061 7:0.060606061 8:0 9:0.03030303 10:0.060606061 11:0.060606061 12:0.060606061 13:0.03030303 14:0 15:0.03030303 16:0 17:0 18:0 19:0.060606061 20:0.090909091 
26 1:0.090909091 2:0.03030303 3:0.060606061 4:0.27272727 5:0 6:0.060606061 7:0.060606061 8:0 9:0.03030303 10:0.060606061 11:0.060606061 12:0.060606061 13:0.03030303 14:0 15:0.03030303 16:0 17:0 18:0 19:0.060606061 20:0.090909091 
10.36307215476488 1:0.060606061 2:0.03030303 3:0.03030303 4:0.27272727 5:0.03030303 6:0.03030303 7:0.060606061 8:0 9:0.03030303 10:0.03030303 11:0.03030303 12:0.060606061 13:0.060606061 14:0 15:0.03030303 16:0 17:0 18:0 19:0.12121212 20:0.12121212 
26 1:0.060606061 2:0.03030303 3:0.03030303 4:0.27272727 5:0.03030303 6:0.03030303 7:0.060606061 8:0 9:0.03030303 10:0.03030303 11:0.03030303 12:0.060606061 13:0.090909091 14:0 15:0.03030303 16:0 17:0 18:0 19:0.12121212 20:0.090909091 
26 1:0.060606061 2:0.03030303 3:0.03030303 4:0.27272727 5:0.03030303 6:0.03030303 7:0.060606061 8:0 9:0.03030303 10:0.03030303 11:0.03030303 12:0.060606061 13:0.090909091 14:0 15:0 16:0 17:0 18:0.03030303 19:0.12121212 20:0.090909091 
26 1:0.060606061 2:0.03030303 3:0.03030303 4:0.24242424 5:0.03030303 6:0.03030303 7:0.060606061 8:0.03030303 9:0.03030303 10:0.03030303 11:0.03030303 12:0.060606061 13:0.090909091 14:0 15:0 16:0 17:0 18:0.03030303 19:0.12121212 20:0.090909091 
26 1:0.060606061 2:0.03030303 3:0.03030303 4:0.24242424 5:0.03030303 6:0.03030303 7:0.060606061 8:0.03030303 9:0.03030303 10:0.03030303 11:0.03030303 12:0.060606061 13:0.090909091 14:0 15:0 16:0 17:0 18:0.03030303 19:0.12121212 20:0.090909091 
26 1:0.060606061 2:0.03030303 3:0.03030303 4:0.21212121 5:0.03030303 6:0.03030303 7:0.060606061 8:0.03030303 9:0.03030303 10:0.03030303 11:0.03030303 12:0.090909091 13:0.090909091 14:0 15:0 16:0 17:0 18:0.03030303 19:0.12121212 20:0.090909091 
26 1:0.060606061 2:0.03030303 3:0.03030303 4:0.21212121 5:0.060606061 6:0.03030303 7:0.060606061 8:0.03030303 9:0.03030303 10:0.03030303 11:0.03030303 12:0.090909091 13:0.090909091 14:0 15:0 16:0 17:0 18:0.03030303 19:0.12121212 20:0.060606061 
26 1:0.060606061 2:0.03030303 3:0.03030303 4:0.21212121 5:0.060606061 6:0.03030303 7:0.060606061 8:0.03030303 9:0.03030303 10:0.03030303 11:0.03030303 12:0.12121212 13:0.090909091 14:0 15:0 16:0 17:0 18:0.03030303 19:0.090909091 20:0.060606061 
26 1:0.060606061 2:0.03030303 3:0.03030303 4:0.21212121 5:0.060606061 6:0.03030303 7:0.060606061 8:0.03030303 9:0.03030303 10:0.03030303 11:0.03030303 12:0.090909091 13:0.090909091 14:0.03030303 15:0 16:0 17:0 18:0.03030303 19:0.090909091 20:0.060606061 
26 1:0.060606061 2:0.03030303 3:0.03030303 4:0.18181818 5:0.060606061 6:0.03030303 7:0.090909091 8:0.03030303 9:0.03030303 10:0.03030303 11:0.03030303 12:0.090909091 13:0.090909091 14:0.03030303 15:0 16:0 17:0 18:0.03030303 19:0.090909091 20:0.060606061 
26 1:0.060606061 2:0.03030303 3:0.03030303 4:0.15151515 5:0.060606061 6:0.03030303 7:0.090909091 8:0.03030303 9:0.03030303 10:0.03030303 11:0.060606061 12:0.090909091 13:0.090909091 14:0.03030303 15:0 16:0 17:0 18:0.03030303 19:0.090909091 20:0.060606061 
26 1:0.060606061 2:0.03030303 3:0.03030303 4:0.15151515 5:0.060606061 6:0.03030303 7:0.090909091 8:0.03030303 9:0 10:0.03030303 11:0.060606061 12:0.12121212 13:0.090909091 14:0.03030303 15:0 16:0 17:0 18:0.03030303 19:0.090909091 20:0.060606061 
26 1:0.060606061 2:0.03030303 3:0.03030303 4:0.15151515 5:0.060606061 6:0 7:0.03030303 8:0 9:0.03030303 10:0.03030303 11:0 12:0.12121212 13:0 14:0.090909091 15:0.12121212 16:0 17:0.060606061 18:0.03030303 19:0.060606061 20:0.090909091 
26 1:0.090909091 2:0.03030303 3:0.03030303 4:0.12121212 5:0.060606061 6:0 7:0.03030303 8:0 9:0.060606061 10:0.03030303 11:0 12:0.12121212 13:0 14:0.060606061 15:0.12121212 16:0 17:0.060606061 18:0.03030303 19:0.060606061 20:0.090909091 
26 1:0.12121212 2:0.03030303 3:0 4:0.12121212 5:0.060606061 6:0 7:0.03030303 8:0 9:0.060606061 10:0.03030303 11:0 12:0.12121212 13:0 14:0.060606061 15:0.12121212 16:0 17:0.060606061 18:0.03030303 19:0.060606061 20:0.090909091 
26 1:0.12121212 2:0.15151515 3:0.060606061 4:0.090909091 5:0.03030303 6:0.03030303 7:0 8:0.03030303 9:0 10:0.03030303 11:0 12:0.060606061 13:0.03030303 14:0 15:0.090909091 16:0.03030303 17:0.060606061 18:0 19:0.060606061 20:0.12121212 
26 1:0.090909091 2:0.15151515 3:0.060606061 4:0.12121212 5:0.03030303 6:0.03030303 7:0 8:0.03030303 9:0 10:0.03030303 11:0 12:0.060606061 13:0.03030303 14:0 15:0.090909091 16:0.03030303 17:0.060606061 18:0 19:0.060606061 20:0.12121212 
26 1:0.060606061 2:0.15151515 3:0.060606061 4:0.12121212 5:0.03030303 6:0.03030303 7:0 8:0.03030303 9:0 10:0.03030303 11:0 12:0.060606061 13:0.03030303 14:0 15:0.090909091 16:0.03030303 17:0.060606061 18:0 19:0.090909091 20:0.12121212 
26 1:0.03030303 2:0.15151515 3:0.060606061 4:0.12121212 5:0.03030303 6:0.03030303 7:0 8:0.03030303 9:0 10:0.03030303 11:0 12:0.060606061 13:0.03030303 14:0 15:0.090909091 16:0.03030303 17:0.060606061 18:0 19:0.12121212 20:0.12121212 
26 1:0.03030303 2:0.15151515 3:0.060606061 4:0.090909091 5:0.03030303 6:0.03030303 7:0 8:0.03030303 9:0 10:0.03030303 11:0 12:0.060606061 13:0.060606061 14:0 15:0.090909091 16:0.03030303 17:0.060606061 18:0 19:0.12121212 20:0.12121212 
26 1:0.03030303 2:0.18181818 3:0.060606061 4:0.090909091 5:0.03030303 6:0.03030303 7:0 8:0.03030303 9:0 10:0 11:0 12:0.060606061 13:0.060606061 14:0 15:0.090909091 16:0.03030303 17:0.060606061 18:0 19:0.12121212 20:0.12121212 
26 1:0.03030303 2:0.18181818 3:0.060606061 4:0.12121212 5:0.03030303 6:0.03030303 7:0 8:0.03030303 9:0 10:0 11:0 12:0.060606061 13:0.060606061 14:0 15:0.060606061 16:0.03030303 17:0.060606061 18:0 19:0.12121212 20:0.12121212 
26 1:0.03030303 2:0.18181818 3:0.060606061 4:0.090909091 5:0.03030303 6:0.03030303 7:0 8:0.03030303 9:0.03030303 10:0 11:0 12:0.060606061 13:0.060606061 14:0 15:0.060606061 16:0.03030303 17:0.060606061 18:0 19:0.12121212 20:0.12121212 
26 1:0 2:0.18181818 3:0.060606061 4:0.090909091 5:0.03030303 6:0.03030303 7:0 8:0.03030303 9:0.03030303 10:0 11:0 12:0.060606061 13:0.060606061 14:0 15:0.060606061 16:0.060606061 17:0.060606061 18:0 19:0.12121212 20:0.12121212 
26 1:0 2:0.18181818 3:0.060606061 4:0.090909091 5:0.03030303 6:0.03030303 7:0 8:0.060606061 9:0.03030303 10:0 11:0 12:0.060606061 13:0.060606061 14:0 15:0.03030303 16:0.060606061 17:0.060606061 18:0 19:0.12121212 20:0.12121212 
26 1:0 2:0.18181818 3:0.060606061 4:0.090909091 5:0.03030303 6:0.03030303 7:0 8:0.060606061 9:0.03030303 10:0 11:0 12:0.03030303 13:0.060606061 14:0 15:0.03030303 16:0.060606061 17:0.060606061 18:0.03030303 19:0.12121212 20:0.12121212 
26 1:0 2:0.18181818 3:0.060606061 4:0.090909091 5:0.03030303 6:0.03030303 7:0 8:0.060606061 9:0.03030303 10:0 11:0 12:0.03030303 13:0.060606061 14:0 15:0.03030303 16:0.060606061 17:0.060606061 18:0.03030303 19:0.12121212 20:0.12121212 
26 1:0 2:0.12121212 3:0.090909091 4:0.12121212 5:0 6:0 7:0 8:0.060606061 9:0 10:0 11:0.03030303 12:0.24242424 13:0.15151515 14:0 15:0 16:0.03030303 17:0.060606061 18:0 19:0.03030303 20:0.060606061 
26 1:0.060606061 2:0.24242424 3:0.060606061 4:0.060606061 5:0.03030303 6:0 7:0.03030303 8:0.03030303 9:0.03030303 10:0 11:0 12:0.090909091 13:0.090909091 14:0 15:0 16:0.060606061 17:0.03030303 18:0 19:0.03030303 20:0.15151515 
26 1:0.060606061 2:0.21212121 3:0.060606061 4:0.090909091 5:0.03030303 6:0 7:0.03030303 8:0.03030303 9:0.03030303 10:0 11:0 12:0.090909091 13:0.090909091 14:0 15:0 16:0.060606061 17:0.03030303 18:0 19:0.03030303 20:0.15151515 
26 1:0.060606061 2:0.21212121 3:0.060606061 4:0.090909091 5:0 6:0 7:0.03030303 8:0.03030303 9:0.03030303 10:0 11:0 12:0.090909091 13:0.090909091 14:0.03030303 15:0 16:0.060606061 17:0.03030303 18:0 19:0.03030303 20:0.15151515 
26 1:0.090909091 2:0.060606061 3:0 4:0.090909091 5:0.03030303 6:0.03030303 7:0 8:0.090909091 9:0 10:0.03030303 11:0.060606061 12:0.12121212 13:0.090909091 14:0.060606061 15:0.03030303 16:0 17:0.060606061 18:0.03030303 19:0.03030303 20:0.090909091 
26 1:0.090909091 2:0.090909091 3:0 4:0.090909091 5:0.03030303 6:0.03030303 7:0 8:0.090909091 9:0 10:0.03030303 11:0.03030303 12:0.12121212 13:0.090909091 14:0.060606061 15:0.03030303 16:0 17:0.060606061 18:0.03030303 19:0.03030303 20:0.090909091 
20.31946660879574 1:0.090909091 2:0.12121212 3:0 4:0.060606061 5:0.03030303 6:0.03030303 7:0 8:0.090909091 9:0 10:0.03030303 11:0.03030303 12:0.12121212 13:0.090909091 14:0.060606061 15:0.03030303 16:0 17:0.060606061 18:0.03030303 19:0.03030303 20:0.090909091 
26 1:0.090909091 2:0.15151515 3:0 4:0.060606061 5:0.03030303 6:0.03030303 7:0 8:0.060606061 9:0 10:0.03030303 11:0.03030303 12:0.12121212 13:0.090909091 14:0.060606061 15:0.03030303 16:0 17:0.090909091 18:0.03030303 19:0 20:0.090909091 
26 1:0.090909091 2:0.15151515 3:0 4:0.060606061 5:0.03030303 6:0.03030303 7:0 8:0.060606061 9:0 10:0.03030303 11:0.03030303 12:0.12121212 13:0.090909091 14:0.060606061 15:0.03030303 16:0 17:0.090909091 18:0.03030303 19:0 20:0.090909091 
26 1:0.090909091 2:0.15151515 3:0 4:0.03030303 5:0.03030303 6:0.03030303 7:0 8:0.060606061 9:0 10:0.03030303 11:0.03030303 12:0.12121212 13:0.090909091 14:0.060606061 15:0.03030303 16:0 17:0.12121212 18:0.03030303 19:0 20:0.090909091 
26 1:0.090909091 2:0.15151515 3:0 4:0.03030303 5:0.03030303 6:0.03030303 7:0 8:0.060606061 9:0 10:0.03030303 11:0.03030303 12:0.090909091 13:0.12121212 14:0.060606061 15:0.03030303 16:0 17:0.12121212 18:0.03030303 19:0 20:0.090909091 
26 1:0.090909091 2:0.15151515 3:0 4:0.03030303 5:0.03030303 6:0.03030303 7:0 8:0.060606061 9:0 10:0.03030303 11:0.03030303 12:0.090909091 13:0.12121212 14:0.060606061 15:0 16:0 17:0.12121212 18:0.03030303 19:0.03030303 20:0.090909091 
26 1:0.090909091 2:0.18181818 3:0 4:0.03030303 5:0 6:0.03030303 7:0 8:0.060606061 9:0 10:0.03030303 11:0.03030303 12:0.090909091 13:0.12121212 14:0.060606061 15:0 16:0 17:0.12121212 18:0.03030303 19:0.03030303 20:0.090909091 
26 1:0.090909091 2:0.18181818 3:0.03030303 4:0.03030303 5:0 6:0.03030303 7:0 8:0.060606061 9:0 10:0.03030303 11:0.03030303 12:0.090909091 13:0.090909091 14:0.060606061 15:0 16:0 17:0.12121212 18:0.03030303 19:0.03030303 20:0.090909091 
26 1:0.060606061 2:0.18181818 3:0.03030303 4:0.03030303 5:0 6:0.03030303 7:0 8:0.060606061 9:0 10:0.03030303 11:0.03030303 12:0.090909091 13:0.090909091 14:0.060606061 15:0 16:0 17:0.15151515 18:0.03030303 19:0.03030303 20:0.090909091 
26 1:0.060606061 2:0.18181818 3:0.03030303 4:0.03030303 5:0 6:0.03030303 7:0 8:0.060606061 9:0 10:0 11:0.03030303 12:0.12121212 13:0.090909091 14:0.060606061 15:0 16:0 17:0.15151515 18:0.03030303 19:0.03030303 20:0.090909091 
26 1:0.060606061 2:0.18181818 3:0.03030303 4:0.03030303 5:0 6:0.03030303 7:0 8:0.060606061 9:0 10:0 11:0.03030303 12:0.12121212 13:0.090909091 14:0.03030303 15:0 16:0.03030303 17:0.15151515 18:0.03030303 19:0.03030303 20:0.090909091 
26 1:0.060606061 2:0.18181818 3:0.03030303 4:0.03030303 5:0 6:0.03030303 7:0 8:0.060606061 9:0 10:0 11:0.03030303 12:0.15151515 13:0.090909091 14:0.03030303 15:0 16:0.03030303 17:0.15151515 18:0.03030303 19:0.03030303 20:0.060606061 
24.78342829577415 1:0.03030303 2:0.090909091 3:0.060606061 4:0.12121212 5:0.03030303 6:0.03030303 7:0 8:0.060606061 9:0.03030303 10:0.03030303 11:0.03030303 12:0.24242424 13:0 14:0.03030303 15:0 16:0 17:0.060606061 18:0.060606061 19:0.060606061 20:0.03030303 
22.58110487047076 1:0.060606061 2:0.03030303 3:0.060606061 4:0.03030303 5:0.060606061 6:0 7:0 8:0.060606061 9:0 10:0.03030303 11:0.090909091 12:0.12121212 13:0.090909091 14:0 15:0.060606061 16:0.060606061 17:0.03030303 18:0 19:0.03030303 20:0.18181818 
26 1:0.060606061 2:0.03030303 3:0.060606061 4:0.03030303 5:0.060606061 6:0 7:0 8:0.060606061 9:0 10:0.03030303 11:0.090909091 12:0.12121212 13:0.090909091 14:0 15:0.060606061 16:0.060606061 17:0.03030303 18:0 19:0.03030303 20:0.18181818 
26 1:0.060606061 2:0.03030303 3:0.060606061 4:0.060606061 5:0.060606061 6:0 7:0 8:0.060606061 9:0 10:0.03030303 11:0.090909091 12:0.12121212 13:0.090909091 14:0 15:0.060606061 16:0.060606061 17:0.03030303 18:0 19:0.03030303 20:0.15151515 
26 1:0.060606061 2:0.03030303 3:0.03030303 4:0.060606061 5:0.060606061 6:0 7:0 8:0.060606061 9:0 10:0.03030303 11:0.090909091 12:0.12121212 13:0.090909091 14:0 15:0.090909091 16:0.060606061 17:0.03030303 18:0 19:0.03030303 20:0.15151515 
8.700367731597419 1:0.03030303 2:0.33333333 3:0.090909091 4:0.090909091 5:0 6:0 7:0.03030303 8:0.060606061 9:0 10:0 11:0.03030303 12:0.090909091 13:0.03030303 14:0.03030303 15:0.03030303 16:0 17:0.03030303 18:0 19:0.03030303 20:0.090909091 
26 1:0.03030303 2:0.33333333 3:0.090909091 4:0.060606061 5:0 6:0 7:0 8:0.060606061 9:0 10:0 11:0.03030303 12:0.060606061 13:0.090909091 14:0.03030303 15:0.03030303 16:0.03030303 17:0.03030303 18:0 19:0.03030303 20:0.090909091 
26 1:0.03030303 2:0.36363636 3:0.090909091 4:0.060606061 5:0 6:0 7:0 8:0.060606061 9:0 10:0 11:0.03030303 12:0.03030303 13:0.090909091 14:0.03030303 15:0.03030303 16:0.03030303 17:0.03030303 18:0 19:0.03030303 20:0.090909091 
26 1:0.060606061 2:0.36363636 3:0.060606061 4:0.060606061 5:0 6:0 7:0 8:0.060606061 9:0 10:0 11:0.03030303 12:0.03030303 13:0.090909091 14:0.03030303 15:0.03030303 16:0.03030303 17:0.03030303 18:0 19:0.03030303 20:0.090909091 
26 1:0.060606061 2:0.36363636 3:0.060606061 4:0.060606061 5:0 6:0 7:0 8:0.090909091 9:0 10:0 11:0.03030303 12:0.03030303 13:0.090909091 14:0.03030303 15:0.03030303 16:0.03030303 17:0.03030303 18:0 19:0.03030303 20:0.060606061 
26 1:0.060606061 2:0.36363636 3:0.090909091 4:0.03030303 5:0 6:0 7:0 8:0.090909091 9:0 10:0 11:0.03030303 12:0.03030303 13:0.090909091 14:0.03030303 15:0.03030303 16:0.03030303 17:0.03030303 18:0 19:0.03030303 20:0.060606061 
26 1:0.060606061 2:0.33333333 3:0.090909091 4:0.03030303 5:0 6:0 7:0 8:0.090909091 9:0 10:0 11:0.03030303 12:0.060606061 13:0.090909091 14:0.03030303 15:0.03030303 16:0.03030303 17:0.03030303 18:0 19:0.03030303 20:0.060606061 
26 1:0.060606061 2:0.3030303 3:0.090909091 4:0.03030303 5:0 6:0 7:0 8:0.090909091 9:0 10:0 11:0.03030303 12:0.060606061 13:0.090909091 14:0.03030303 15:0.060606061 16:0.03030303 17:0.03030303 18:0 19:0.03030303 20:0.060606061 
14.2905003574862 1:0.10344828 2:0.068965517 3:0.068965517 4:0.20689655 5:0.068965517 6:0 7:0.034482759 8:0.034482759 9:0 10:0 11:0.034482759 12:0.034482759 13:0.034482759 14:0.068965517 15:0.068965517 16:0 17:0 18:0.034482759 19:0.034482759 20:0.10344828 
26 1:0.1 2:0.066666667 3:0.066666667 4:0.2 5:0.066666667 6:0 7:0.033333333 8:0.033333333 9:0 10:0 11:0.033333333 12:0.033333333 13:0.066666667 14:0.066666667 15:0.066666667 16:0 17:0 18:0.033333333 19:0.033333333 20:0.1 
26 1:0.096774194 2:0.064516129 3:0.064516129 4:0.19354839 5:0.096774194 6:0 7:0.032258065 8:0.032258065 9:0 10:0 11:0.032258065 12:0.032258065 13:0.064516129 14:0.064516129 15:0.064516129 16:0 17:0 18:0.032258065 19:0.032258065 20:0.096774194 
26 1:0.090909091 2:0 3:0.060606061 4:0.15151515 5:0.090909091 6:0 7:0 8:0.060606061 9:0 10:0 11:0.03030303 12:0.12121212 13:0.060606061 14:0.03030303 15:0.060606061 16:0.060606061 17:0 18:0.060606061 19:0.03030303 20:0.090909091 
26 1:0.090909091 2:0 3:0.060606061 4:0.15151515 5:0.060606061 6:0 7:0 8:0.060606061 9:0 10:0 11:0.03030303 12:0.12121212 13:0.060606061 14:0.03030303 15:0.060606061 16:0.060606061 17:0 18:0.090909091 19:0.03030303 20:0.090909091 
26 1:0.090909091 2:0 3:0.060606061 4:0.15151515 5:0.060606061 6:0 7:0 8:0.060606061 9:0 10:0 11:0.03030303 12:0.12121212 13:0.060606061 14:0.03030303 15:0.060606061 16:0.060606061 17:0 18:0.090909091 19:0.03030303 20:0.090909091 
26 1:0.090909091 2:0 3:0.060606061 4:0.15151515 5:0.060606061 6:0 7:0 8:0.060606061 9:0 10:0 11:0.03030303 12:0.15151515 13:0.060606061 14:0.03030303 15:0.060606061 16:0.060606061 17:0 18:0.090909091 19:0.03030303 20:0.060606061 
26 1:0.090909091 2:0 3:0.060606061 4:0.15151515 5:0.060606061 6:0 7:0 8:0.060606061 9:0 10:0 11:0.03030303 12:0.15151515 13:0.060606061 14:0.03030303 15:0.060606061 16:0.060606061 17:0 18:0.060606061 19:0.03030303 20:0.090909091 
26 1:0.090909091 2:0 3:0.060606061 4:0.12121212 5:0.060606061 6:0 7:0 8:0.060606061 9:0 10:0 11:0.03030303 12:0.15151515 13:0.060606061 14:0.03030303 15:0.060606061 16:0.060606061 17:0.03030303 18:0.060606061 19:0.03030303 20:0.090909091 
26 1:0.090909091 2:0.03030303 3:0.060606061 4:0.12121212 5:0.060606061 6:0 7:0 8:0.060606061 9:0 10:0 11:0.03030303 12:0.15151515 13:0.060606061 14:0.03030303 15:0.060606061 16:0.060606061 17:0.03030303 18:0.060606061 19:0.03030303 20:0.060606061 
26 1:0.090909091 2:0.03030303 3:0.060606061 4:0.12121212 5:0.060606061 6:0 7:0 8:0.060606061 9:0 10:0 11:0.03030303 12:0.15151515 13:0.060606061 14:0.03030303 15:0.060606061 16:0.060606061 17:0.03030303 18:0.060606061 19:0.03030303 20:0.060606061 
26 1:0.090909091 2:0.03030303 3:0.090909091 4:0.12121212 5:0.060606061 6:0 7:0 8:0.060606061 9:0 10:0 11:0 12:0.15151515 13:0.060606061 14:0.03030303 15:0.060606061 16:0.060606061 17:0.03030303 18:0.060606061 19:0.03030303 20:0.060606061 
26 1:0.090909091 2:0.03030303 3:0.060606061 4:0.12121212 5:0.060606061 6:0 7:0 8:0.060606061 9:0 10:0 11:0 12:0.15151515 13:0.060606061 14:0.03030303 15:0.060606061 16:0.090909091 17:0.03030303 18:0.060606061 19:0.03030303 20:0.060606061 
26 1:0.090909091 2:0.03030303 3:0.060606061 4:0.12121212 5:0.060606061 6:0 7:0 8:0.060606061 9:0 10:0 11:0 12:0.15151515 13:0.060606061 14:0.03030303 15:0.03030303 16:0.090909091 17:0.03030303 18:0.060606061 19:0.03030303 20:0.090909091 
26 1:0.090909091 2:0.03030303 3:0.090909091 4:0.12121212 5:0.060606061 6:0 7:0 8:0.060606061 9:0 10:0 11:0 12:0.15151515 13:0.03030303 14:0.03030303 15:0.03030303 16:0.090909091 17:0.03030303 18:0.060606061 19:0.03030303 20:0.090909091 
26 1:0.090909091 2:0.03030303 3:0.090909091 4:0.12121212 5:0.060606061 6:0 7:0 8:0.060606061 9:0 10:0 11:0 12:0.15151515 13:0.03030303 14:0.03030303 15:0.03030303 16:0.090909091 17:0.03030303 18:0.060606061 19:0.03030303 20:0.090909091 
26 1:0.060606061 2:0.060606061 3:0.090909091 4:0.12121212 5:0.12121212 6:0 7:0 8:0 9:0 10:0 11:0.03030303 12:0.090909091 13:0.060606061 14:0.03030303 15:0.060606061 16:0.03030303 17:0.03030303 18:0.12121212 19:0.03030303 20:0.060606061 
26 1:0.060606061 2:0.060606061 3:0.090909091 4:0.090909091 5:0.12121212 6:0 7:0 8:0 9:0 10:0 11:0.03030303 12:0.090909091 13:0.060606061 14:0.060606061 15:0.060606061 16:0.03030303 17:0.03030303 18:0.12121212 19:0.03030303 20:0.060606061 
26 1:0.060606061 2:0.060606061 3:0.090909091 4:0.060606061 5:0.12121212 6:0 7:0 8:0 9:0 10:0 11:0.03030303 12:0.090909091 13:0.060606061 14:0.060606061 15:0.060606061 16:0.03030303 17:0.03030303 18:0.12121212 19:0.060606061 20:0.060606061 
26 1:0.090909091 2:0.060606061 3:0.090909091 4:0.060606061 5:0.12121212 6:0 7:0 8:0 9:0 10:0 11:0.03030303 12:0.090909091 13:0.060606061 14:0.060606061 15:0.03030303 16:0.03030303 17:0.03030303 18:0.12121212 19:0.060606061 20:0.060606061 
26 1:0.060606061 2:0.060606061 3:0.090909091 4:0.060606061 5:0.12121212 6:0 7:0 8:0 9:0 10:0 11:0.03030303 12:0.12121212 13:0.060606061 14:0.060606061 15:0.03030303 16:0.03030303 17:0.03030303 18:0.12121212 19:0.060606061 20:0.060606061 
26 1:0.060606061 2:0.060606061 3:0.090909091 4:0.060606061 5:0.12121212 6:0 7:0 8:0.03030303 9:0 10:0 11:0.03030303 12:0.090909091 13:0.060606061 14:0.060606061 15:0.03030303 16:0.03030303 17:0.03030303 18:0.12121212 19:0.060606061 20:0.060606061 
26 1:0.060606061 2:0.060606061 3:0.090909091 4:0.060606061 5:0.15151515 6:0 7:0 8:0.03030303 9:0 10:0 11:0.03030303 12:0.090909091 13:0.060606061 14:0.060606061 15:0.03030303 16:0.03030303 17:0.03030303 18:0.090909091 19:0.060606061 20:0.060606061 
26 1:0.060606061 2:0.060606061 3:0.090909091 4:0.060606061 5:0.15151515 6:0 7:0 8:0.03030303 9:0 10:0 11:0.03030303 12:0.12121212 13:0.060606061 14:0.060606061 15:0.03030303 16:0.03030303 17:0.03030303 18:0.060606061 19:0.060606061 20:0.060606061 
26 1:0.060606061 2:0.060606061 3:0.090909091 4:0.060606061 5:0.12121212 6:0 7:0 8:0.03030303 9:0.03030303 10:0 11:0.03030303 12:0.12121212 13:0.060606061 14:0.060606061 15:0.03030303 16:0.03030303 17:0.03030303 18:0.060606061 19:0.060606061 20:0.060606061 
26 1:0.060606061 2:0.090909091 3:0.090909091 4:0.060606061 5:0.12121212 6:0 7:0 8:0.03030303 9:0.03030303 10:0 11:0.03030303 12:0.12121212 13:0.060606061 14:0.060606061 15:0.03030303 16:0.03030303 17:0 18:0.060606061 19:0.060606061 20:0.060606061 
26 1:0.060606061 2:0.090909091 3:0.090909091 4:0.060606061 5:0.12121212 6:0 7:0 8:0.03030303 9:0.03030303 10:0 11:0.03030303 12:0.15151515 13:0.060606061 14:0.060606061 15:0.03030303 16:0.03030303 17:0 18:0.060606061 19:0.03030303 20:0.060606061 
26 1:0.060606061 2:0.090909091 3:0.12121212 4:0.060606061 5:0.12121212 6:0 7:0 8:0.03030303 9:0.03030303 10:0 11:0.03030303 12:0.15151515 13:0.060606061 14:0.060606061 15:0.03030303 16:0.03030303 17:0 18:0.03030303 19:0.03030303 20:0.060606061 
26 1:0.060606061 2:0.090909091 3:0.12121212 4:0.03030303 5:0.12121212 6:0 7:0 8:0.03030303 9:0.03030303 10:0 11:0.03030303 12:0.18181818 13:0.060606061 14:0.060606061 15:0.03030303 16:0.03030303 17:0 18:0.03030303 19:0.03030303 20:0.060606061 
26 1:0.060606061 2:0.090909091 3:0.12121212 4:0.03030303 5:0.12121212 6:0 7:0 8:0.03030303 9:0.03030303 10:0 11:0.03030303 12:0.15151515 13:0.060606061 14:0.060606061 15:0.03030303 16:0.03030303 17:0 18:0.03030303 19:0.03030303 20:0.090909091 
26 1:0.060606061 2:0.090909091 3:0.12121212 4:0.03030303 5:0.12121212 6:0 7:0 8:0.03030303 9:0.03030303 10:0 11:0.03030303 12:0.15151515 13:0.060606061 14:0.060606061 15:0.03030303 16:0.060606061 17:0 18:0.03030303 19:0.03030303 20:0.060606061 
26 1:0.060606061 2:0.090909091 3:0.12121212 4:0.060606061 5:0.12121212 6:0 7:0 8:0.03030303 9:0.03030303 10:0 11:0.03030303 12:0.15151515 13:0.060606061 14:0.060606061 15:0.03030303 16:0.060606061 17:0 18:0 19:0.03030303 20:0.060606061 
26 1:0.060606061 2:0.090909091 3:0.12121212 4:0.060606061 5:0.12121212 6:0 7:0 8:0.03030303 9:0.03030303 10:0 11:0.03030303 12:0.15151515 13:0.060606061 14:0.060606061 15:0.060606061 16:0.060606061 17:0 18:0 19:0.03030303 20:0.03030303 
26 1:0.058823529 2:0.17647059 3:0.11764706 4:0.11764706 5:0 6:0 7:0.11764706 8:0.058823529 9:0 10:0 11:0 12:0.17647059 13:0 14:0 15:0 16:0 17:0.058823529 18:0 19:0.058823529 20:0.058823529 
26 1:0.055555556 2:0.16666667 3:0.11111111 4:0.11111111 5:0 6:0 7:0.11111111 8:0.055555556 9:0 10:0 11:0 12:0.16666667 13:0.055555556 14:0 15:0 16:0 17:0.055555556 18:0 19:0.055555556 20:0.055555556 
26 1:0.052631579 2:0.21052632 3:0.10526316 4:0.10526316 5:0 6:0 7:0.10526316 8:0.052631579 9:0 10:0 11:0 12:0.15789474 13:0.052631579 14:0 15:0 16:0 17:0.052631579 18:0 19:0.052631579 20:0.052631579 
26 1:0.05 2:0.2 3:0.1 4:0.1 5:0 6:0 7:0.1 8:0.05 9:0 10:0 11:0 12:0.15 13:0.05 14:0.05 15:0 16:0 17:0.05 18:0 19:0.05 20:0.05 
26 1:0.047619048 2:0.19047619 3:0.095238095 4:0.095238095 5:0 6:0 7:0.095238095 8:0.095238095 9:0 10:0 11:0 12:0.14285714 13:0.047619048 14:0.047619048 15:0 16:0 17:0.047619048 18:0 19:0.047619048 20:0.047619048 
26 1:0.045454545 2:0.18181818 3:0.090909091 4:0.090909091 5:0 6:0 7:0.090909091 8:0.090909091 9:0 10:0 11:0 12:0.13636364 13:0.045454545 14:0.045454545 15:0 16:0 17:0.045454545 18:0 19:0.045454545 20:0.090909091 
26 1:0.055555556 2:0.055555556 3:0 4:0.22222222 5:0.055555556 6:0 7:0.055555556 8:0.055555556 9:0 10:0 11:0 12:0.16666667 13:0.11111111 14:0 15:0.055555556 16:0.055555556 17:0 18:0 19:0 20:0.11111111 
26 1:0.052631579 2:0.052631579 3:0 4:0.26315789 5:0.052631579 6:0 7:0.052631579 8:0.052631579 9:0 10:0 11:0 12:0.15789474 13:0.10526316 14:0 15:0.052631579 16:0.052631579 17:0 18:0 19:0 20:0.10526316 
26 1:0.041666667 2:0.041666667 3:0.041666667 4:0.20833333 5:0.041666667 6:0 7:0.041666667 8:0.083333333 9:0 10:0 11:0 12:0.125 13:0.125 14:0.041666667 15:0.041666667 16:0.041666667 17:0 18:0 19:0 20:0.125 
26 1:0.090909091 2:0.060606061 3:0.12121212 4:0.12121212 5:0.060606061 6:0 7:0 8:0.060606061 9:0 10:0 11:0 12:0.090909091 13:0.090909091 14:0.060606061 15:0.060606061 16:0.03030303 17:0.03030303 18:0.03030303 19:0 20:0.090909091 
26 1:0.090909091 2:0.060606061 3:0.12121212 4:0.12121212 5:0.060606061 6:0 7:0 8:0.060606061 9:0 10:0 11:0.03030303 12:0.060606061 13:0.090909091 14:0.060606061 15:0.060606061 16:0.03030303 17:0.03030303 18:0.03030303 19:0 20:0.090909091 
26 1:0.090909091 2:0.03030303 3:0.12121212 4:0.12121212 5:0.060606061 6:0 7:0 8:0.060606061 9:0 10:0 11:0.03030303 12:0.060606061 13:0.090909091 14:0.090909091 15:0.060606061 16:0.03030303 17:0.03030303 18:0.03030303 19:0 20:0.090909091 
26 1:0.090909091 2:0.03030303 3:0.12121212 4:0.12121212 5:0.060606061 6:0 7:0 8:0.060606061 9:0 10:0 11:0.03030303 12:0.060606061 13:0.060606061 14:0.12121212 15:0.060606061 16:0.03030303 17:0.03030303 18:0.03030303 19:0 20:0.090909091 
26 1:0.090909091 2:0.03030303 3:0.12121212 4:0.12121212 5:0.060606061 6:0 7:0 8:0.060606061 9:0 10:0 11:0.03030303 12:0.060606061 13:0.03030303 14:0.12121212 15:0.060606061 16:0.03030303 17:0.03030303 18:0.03030303 19:0.03030303 20:0.090909091 
26 1:0.090909091 2:0.03030303 3:0.12121212 4:0.090909091 5:0.060606061 6:0 7:0 8:0.060606061 9:0 10:0 11:0.060606061 12:0.060606061 13:0.03030303 14:0.12121212 15:0.060606061 16:0.03030303 17:0.03030303 18:0.03030303 19:0.03030303 20:0.090909091 
26 1:0.090909091 2:0.03030303 3:0.12121212 4:0.12121212 5:0.060606061 6:0 7:0 8:0.03030303 9:0 10:0 11:0.060606061 12:0.060606061 13:0.03030303 14:0.12121212 15:0.060606061 16:0.03030303 17:0.03030303 18:0.03030303 19:0.03030303 20:0.090909091 
26 1:0.090909091 2:0.03030303 3:0.12121212 4:0.12121212 5:0.060606061 6:0 7:0 8:0.03030303 9:0 10:0 11:0.060606061 12:0.060606061 13:0.03030303 14:0.12121212 15:0.060606061 16:0 17:0.03030303 18:0.03030303 19:0.060606061 20:0.090909091 
26 1:0.058823529 2:0.11764706 3:0.058823529 4:0.058823529 5:0.058823529 6:0 7:0.058823529 8:0.11764706 9:0.058823529 10:0 11:0 12:0.11764706 13:0.058823529 14:0 15:0.058823529 16:0 17:0 18:0 19:0.058823529 20:0.11764706 
26 1:0 2:0.11764706 3:0 4:0.17647059 5:0.058823529 6:0 7:0.058823529 8:0 9:0.058823529 10:0 11:0 12:0.058823529 13:0.058823529 14:0 15:0.11764706 16:0.058823529 17:0 18:0.058823529 19:0.058823529 20:0.11764706 
26 1:0.090909091 2:0.060606061 3:0.03030303 4:0.090909091 5:0 6:0 7:0 8:0.060606061 9:0.060606061 10:0 11:0.03030303 12:0.15151515 13:0.18181818 14:0 15:0 16:0.03030303 17:0.060606061 18:0 19:0 20:0.15151515 
26 1:0.090909091 2:0.060606061 3:0.03030303 4:0.090909091 5:0.03030303 6:0 7:0 8:0.060606061 9:0.060606061 10:0 11:0.03030303 12:0.15151515 13:0.18181818 14:0 15:0 16:0.03030303 17:0.060606061 18:0 19:0 20:0.12121212 
26 1:0.090909091 2:0.060606061 3:0.03030303 4:0.060606061 5:0.03030303 6:0 7:0 8:0.060606061 9:0.060606061 10:0 11:0.03030303 12:0.15151515 13:0.18181818 14:0 15:0.03030303 16:0.03030303 17:0.060606061 18:0 19:0 20:0.12121212 
26 1:0.090909091 2:0.060606061 3:0.060606061 4:0.060606061 5:0.03030303 6:0 7:0 8:0.060606061 9:0.060606061 10:0 11:0.03030303 12:0.12121212 13:0.18181818 14:0 15:0.03030303 16:0.03030303 17:0.060606061 18:0 19:0 20:0.12121212 
22.67491184789814 1:0.11111111 2:0.16666667 3:0 4:0.055555556 5:0.055555556 6:0 7:0.16666667 8:0.055555556 9:0 10:0 11:0 12:0.11111111 13:0.055555556 14:0 15:0.055555556 16:0 17:0 18:0 19:0.055555556 20:0.11111111 
26 1:0.10526316 2:0.15789474 3:0 4:0.10526316 5:0.052631579 6:0 7:0.15789474 8:0.052631579 9:0 10:0 11:0 12:0.10526316 13:0.052631579 14:0 15:0.052631579 16:0 17:0 18:0 19:0.052631579 20:0.10526316 
26 1:0 2:0.12121212 3:0 4:0.12121212 5:0.060606061 6:0.03030303 7:0 8:0 9:0.03030303 10:0 11:0.03030303 12:0.18181818 13:0.060606061 14:0.090909091 15:0.03030303 16:0 17:0.060606061 18:0.03030303 19:0.090909091 20:0.060606061 
26 1:0 2:0.12121212 3:0.03030303 4:0.12121212 5:0.060606061 6:0.03030303 7:0 8:0 9:0.03030303 10:0 11:0.03030303 12:0.15151515 13:0.060606061 14:0.090909091 15:0.03030303 16:0 17:0.060606061 18:0.03030303 19:0.090909091 20:0.060606061 
26 1:0 2:0.12121212 3:0.03030303 4:0.12121212 5:0.060606061 6:0.03030303 7:0 8:0 9:0.03030303 10:0 11:0.060606061 12:0.15151515 13:0.060606061 14:0.060606061 15:0.03030303 16:0 17:0.060606061 18:0.03030303 19:0.090909091 20:0.060606061 
26 1:0 2:0.090909091 3:0.03030303 4:0.15151515 5:0.060606061 6:0.03030303 7:0 8:0 9:0.03030303 10:0 11:0.060606061 12:0.15151515 13:0.060606061 14:0.060606061 15:0.03030303 16:0 17:0.060606061 18:0.03030303 19:0.090909091 20:0.060606061 
26 1:0 2:0.090909091 3:0.03030303 4:0.15151515 5:0.060606061 6:0.03030303 7:0 8:0 9:0.03030303 10:0 11:0.060606061 12:0.15151515 13:0.090909091 14:0.060606061 15:0.03030303 16:0 17:0.060606061 18:0 19:0.090909091 20:0.060606061 
26 1:0.060606061 2:0.060606061 3:0.060606061 4:0.090909091 5:0.060606061 6:0 7:0 8:0.090909091 9:0.03030303 10:0.03030303 11:0.03030303 12:0.060606061 13:0.03030303 14:0.03030303 15:0.090909091 16:0.03030303 17:0.03030303 18:0.03030303 19:0.03030303 20:0.15151515 
26 1:0.090909091 2:0.090909091 3:0.03030303 4:0.060606061 5:0.090909091 6:0 7:0 8:0.060606061 9:0.03030303 10:0 11:0.03030303 12:0.060606061 13:0.060606061 14:0.03030303 15:0.090909091 16:0.03030303 17:0.03030303 18:0.060606061 19:0.03030303 20:0.12121212 
26 1:0.060606061 2:0.060606061 3:0.03030303 4:0.060606061 5:0 6:0.060606061 7:0 8:0.060606061 9:0 10:0 11:0.12121212 12:0.24242424 13:0.090909091 14:0 15:0.060606061 16:0.03030303 17:0.03030303 18:0.03030303 19:0 20:0.060606061 
26 1:0.060606061 2:0.090909091 3:0.03030303 4:0.060606061 5:0 6:0.060606061 7:0 8:0.060606061 9:0 10:0 11:0.12121212 12:0.24242424 13:0.090909091 14:0 15:0.060606061 16:0.03030303 17:0.03030303 18:0.03030303 19:0 20:0.03030303 
26 1:0.060606061 2:0.090909091 3:0.060606061 4:0.060606061 5:0 6:0.03030303 7:0 8:0.060606061 9:0 10:0 11:0.12121212 12:0.24242424 13:0.090909091 14:0 15:0.060606061 16:0.03030303 17:0.03030303 18:0.03030303 19:0 20:0.03030303 
26 1:0.060606061 2:0.090909091 3:0.060606061 4:0.060606061 5:0 6:0.03030303 7:0 8:0.090909091 9:0 10:0 11:0.12121212 12:0.21212121 13:0.090909091 14:0 15:0.060606061 16:0.03030303 17:0.03030303 18:0.03030303 19:0 20:0.03030303 
26 1:0.060606061 2:0.090909091 3:0.090909091 4:0.060606061 5:0 6:0.03030303 7:0 8:0.090909091 9:0 10:0 11:0.12121212 12:0.21212121 13:0.060606061 14:0 15:0.060606061 16:0.03030303 17:0.03030303 18:0.03030303 19:0 20:0.03030303 
26 1:0.03030303 2:0.090909091 3:0.090909091 4:0.060606061 5:0 6:0.03030303 7:0 8:0.090909091 9:0 10:0 11:0.12121212 12:0.21212121 13:0.060606061 14:0 15:0.060606061 16:0.060606061 17:0.03030303 18:0.03030303 19:0 20:0.03030303 
26 1:0 2:0.090909091 3:0.090909091 4:0.060606061 5:0 6:0.03030303 7:0 8:0.090909091 9:0 10:0 11:0.12121212 12:0.21212121 13:0.060606061 14:0 15:0.060606061 16:0.060606061 17:0.03030303 18:0.03030303 19:0.03030303 20:0.03030303 
26 1:0 2:0.090909091 3:0.090909091 4:0.060606061 5:0 6:0.03030303 7:0 8:0.090909091 9:0 10:0 11:0.12121212 12:0.18181818 13:0.060606061 14:0.03030303 15:0.060606061 16:0.060606061 17:0.03030303 18:0.03030303 19:0.03030303 20:0.03030303 
26 1:0 2:0.090909091 3:0.090909091 4:0.060606061 5:0 6:0.03030303 7:0 8:0.090909091 9:0 10:0 11:0.12121212 12:0.18181818 13:0.090909091 14:0.03030303 15:0.060606061 16:0.060606061 17:0 18:0.03030303 19:0.03030303 20:0.03030303 
-10 1:0.060606061 2:0 3:0.15151515 4:0.060606061 5:0.090909091 6:0 7:0.03030303 8:0 9:0 10:0 11:0.03030303 12:0.21212121 13:0.03030303 14:0.060606061 15:0.060606061 16:0 17:0.060606061 18:0 19:0.060606061 20:0.090909091 
-10 1:0.060606061 2:0 3:0.15151515 4:0.060606061 5:0.090909091 6:0 7:0.03030303 8:0 9:0 10:0 11:0.03030303 12:0.18181818 13:0.03030303 14:0.060606061 15:0.060606061 16:0 17:0.060606061 18:0 19:0.090909091 20:0.090909091 
-10 1:0.060606061 2:0 3:0.15151515 4:0.03030303 5:0.12121212 6:0 7:0.03030303 8:0 9:0 10:0 11:0.03030303 12:0.18181818 13:0.03030303 14:0.060606061 15:0.060606061 16:0 17:0.060606061 18:0 19:0.090909091 20:0.090909091 
-10 1:0.060606061 2:0 3:0.12121212 4:0.03030303 5:0.12121212 6:0 7:0.03030303 8:0 9:0 10:0 11:0.03030303 12:0.18181818 13:0.060606061 14:0.060606061 15:0.060606061 16:0 17:0.060606061 18:0 19:0.090909091 20:0.090909091 
-10 1:0.060606061 2:0 3:0.12121212 4:0.03030303 5:0.12121212 6:0 7:0.03030303 8:0 9:0 10:0 11:0.03030303 12:0.15151515 13:0.060606061 14:0.060606061 15:0.060606061 16:0 17:0.060606061 18:0 19:0.12121212 20:0.090909091 
-10 1:0.060606061 2:0.03030303 3:0.12121212 4:0.03030303 5:0.12121212 6:0 7:0.03030303 8:0 9:0 10:0 11:0 12:0.15151515 13:0.060606061 14:0.060606061 15:0.060606061 16:0 17:0.060606061 18:0 19:0.12121212 20:0.090909091 
-10 1:0.060606061 2:0.03030303 3:0.12121212 4:0.03030303 5:0.12121212 6:0 7:0.060606061 8:0 9:0 10:0 11:0 12:0.12121212 13:0.060606061 14:0.060606061 15:0.060606061 16:0 17:0.060606061 18:0 19:0.12121212 20:0.090909091 
-10 1:0.060606061 2:0.03030303 3:0.12121212 4:0.03030303 5:0.12121212 6:0 7:0.060606061 8:0 9:0 10:0 11:0 12:0.12121212 13:0.060606061 14:0.060606061 15:0.060606061 16:0 17:0.03030303 18:0 19:0.15151515 20:0.090909091 
-10 1:0.060606061 2:0.03030303 3:0.12121212 4:0.03030303 5:0.12121212 6:0 7:0.090909091 8:0 9:0 10:0 11:0 12:0.12121212 13:0.060606061 14:0.060606061 15:0.060606061 16:0 17:0 18:0 19:0.15151515 20:0.090909091 
-10 1:0.060606061 2:0.03030303 3:0.15151515 4:0.03030303 5:0.090909091 6:0 7:0.090909091 8:0 9:0 10:0 11:0 12:0.12121212 13:0.060606061 14:0.060606061 15:0.060606061 16:0 17:0 18:0 19:0.15151515 20:0.090909091 
-10 1:0.03030303 2:0.060606061 3:0.15151515 4:0.03030303 5:0.090909091 6:0 7:0.090909091 8:0 9:0 10:0 11:0 12:0.12121212 13:0.060606061 14:0.060606061 15:0.060606061 16:0 17:0 18:0 19:0.15151515 20:0.090909091 
-10 1:0.03030303 2:0.090909091 3:0.15151515 4:0 5:0.090909091 6:0 7:0.090909091 8:0 9:0 10:0 11:0 12:0.12121212 13:0.060606061 14:0.060606061 15:0.060606061 16:0 17:0 18:0 19:0.15151515 20:0.090909091 
-10 1:0.03030303 2:0.090909091 3:0.15151515 4:0 5:0.090909091 6:0 7:0.090909091 8:0 9:0 10:0 11:0 12:0.12121212 13:0.060606061 14:0.060606061 15:0.060606061 16:0 17:0 18:0 19:0.15151515 20:0.090909091 
-10 1:0 2:0.090909091 3:0.15151515 4:0 5:0.090909091 6:0 7:0.090909091 8:0 9:0 10:0 11:0 12:0.12121212 13:0.060606061 14:0.060606061 15:0.060606061 16:0 17:0 18:0 19:0.18181818 20:0.090909091 
-10 1:0 2:0.090909091 3:0.12121212 4:0.03030303 5:0.090909091 6:0 7:0.090909091 8:0 9:0 10:0 11:0 12:0.12121212 13:0.060606061 14:0.060606061 15:0.060606061 16:0 17:0 18:0 19:0.18181818 20:0.090909091 
-10 1:0.15151515 2:0.060606061 3:0.060606061 4:0.060606061 5:0.060606061 6:0 7:0 8:0.060606061 9:0.03030303 10:0 11:0.03030303 12:0.21212121 13:0.03030303 14:0.03030303 15:0 16:0.060606061 17:0.060606061 18:0 19:0 20:0.090909091 
-10 1:0.18181818 2:0.060606061 3:0.060606061 4:0.060606061 5:0.060606061 6:0 7:0 8:0.060606061 9:0.03030303 10:0 11:0.03030303 12:0.18181818 13:0.03030303 14:0.03030303 15:0 16:0.060606061 17:0.060606061 18:0 19:0 20:0.090909091 
-10 1:0.18181818 2:0.060606061 3:0.060606061 4:0.060606061 5:0.060606061 6:0 7:0 8:0.060606061 9:0.060606061 10:0 11:0.03030303 12:0.15151515 13:0.03030303 14:0.03030303 15:0 16:0.060606061 17:0.060606061 18:0 19:0 20:0.090909091 
-10 1:0.18181818 2:0.060606061 3:0.090909091 4:0.060606061 5:0.060606061 6:0 7:0 8:0.060606061 9:0.060606061 10:0 11:0.03030303 12:0.15151515 13:0.03030303 14:0.03030303 15:0 16:0.060606061 17:0.03030303 18:0 19:0 20:0.090909091 
-10 1:0.18181818 2:0.090909091 3:0.090909091 4:0.060606061 5:0.060606061 6:0 7:0 8:0.060606061 9:0.060606061 10:0 11:0.03030303 12:0.15151515 13:0 14:0.03030303 15:0 16:0.060606061 17:0.03030303 18:0 19:0 20:0.090909091 
-10 1:0.18181818 2:0.12121212 3:0.090909091 4:0.03030303 5:0.060606061 6:0 7:0 8:0.060606061 9:0.060606061 10:0 11:0.03030303 12:0.15151515 13:0 14:0.03030303 15:0 16:0.060606061 17:0.03030303 18:0 19:0 20:0.090909091 
-10 1:0.18181818 2:0.12121212 3:0.090909091 4:0.03030303 5:0.090909091 6:0 7:0 8:0.060606061 9:0.03030303 10:0 11:0.03030303 12:0.15151515 13:0 14:0.03030303 15:0 16:0.060606061 17:0.03030303 18:0 19:0.03030303 20:0.060606061 
-10 1:0.12121212 2:0.18181818 3:0.060606061 4:0.060606061 5:0.060606061 6:0 7:0 8:0.03030303 9:0 10:0 11:0.03030303 12:0.18181818 13:0.060606061 14:0.03030303 15:0.03030303 16:0.03030303 17:0.03030303 18:0 19:0.03030303 20:0.060606061 
-10 1:0.12121212 2:0.15151515 3:0.060606061 4:0.060606061 5:0.060606061 6:0 7:0 8:0.03030303 9:0 10:0 11:0.03030303 12:0.18181818 13:0.060606061 14:0.03030303 15:0.03030303 16:0.03030303 17:0.03030303 18:0 19:0.060606061 20:0.060606061 
-10 1:0.12121212 2:0.15151515 3:0.060606061 4:0.060606061 5:0.060606061 6:0 7:0 8:0.03030303 9:0 10:0 11:0.03030303 12:0.18181818 13:0.060606061 14:0.03030303 15:0.03030303 16:0.03030303 17:0.03030303 18:0 19:0.060606061 20:0.060606061 
-10 1:0.12121212 2:0.15151515 3:0.060606061 4:0.060606061 5:0.060606061 6:0 7:0 8:0.03030303 9:0 10:0 11:0.03030303 12:0.18181818 13:0.060606061 14:0 15:0.03030303 16:0.03030303 17:0.03030303 18:0 19:0.060606061 20:0.090909091 
-10 1:0.12121212 2:0.15151515 3:0.060606061 4:0.060606061 5:0.060606061 6:0 7:0 8:0.03030303 9:0 10:0 11:0.03030303 12:0.18181818 13:0.060606061 14:0 15:0.03030303 16:0.03030303 17:0.03030303 18:0 19:0.060606061 20:0.090909091 
-10 1:0.12121212 2:0.12121212 3:0.060606061 4:0.060606061 5:0.060606061 6:0 7:0 8:0.03030303 9:0 10:0.03030303 11:0.03030303 12:0.18181818 13:0.060606061 14:0 15:0.03030303 16:0.03030303 17:0.03030303 18:0 19:0.060606061 20:0.090909091 
-10 1:0.12121212 2:0.12121212 3:0.060606061 4:0.060606061 5:0.060606061 6:0 7:0 8:0.03030303 9:0 10:0.03030303 11:0.03030303 12:0.18181818 13:0.060606061 14:0 15:0.03030303 16:0.060606061 17:0.03030303 18:0 19:0.060606061 20:0.060606061 
-10 1:0.12121212 2:0.12121212 3:0.060606061 4:0.060606061 5:0.03030303 6:0 7:0 8:0.03030303 9:0 10:0.03030303 11:0.03030303 12:0.18181818 13:0.060606061 14:0 15:0.03030303 16:0.060606061 17:0.060606061 18:0 19:0.060606061 20:0.060606061 
-10 1:0.12121212 2:0.12121212 3:0.060606061 4:0.060606061 5:0.03030303 6:0 7:0 8:0.03030303 9:0 10:0.03030303 11:0.03030303 12:0.18181818 13:0.060606061 14:0 15:0.03030303 16:0.060606061 17:0.060606061 18:0 19:0.060606061 20:0.060606061 
-10 1:0.12121212 2:0.12121212 3:0.060606061 4:0.060606061 5:0.03030303 6:0 7:0 8:0.03030303 9:0 10:0.03030303 11:0.03030303 12:0.18181818 13:0.060606061 14:0 15:0.03030303 16:0.060606061 17:0.060606061 18:0 19:0.060606061 20:0.060606061 
-10 1:0.12121212 2:0.12121212 3:0.060606061 4:0.060606061 5:0.03030303 6:0 7:0 8:0.03030303 9:0 10:0.03030303 11:0.03030303 12:0.18181818 13:0.060606061 14:0 15:0.03030303 16:0.060606061 17:0.060606061 18:0 19:0.060606061 20:0.060606061 
-10 1:0.12121212 2:0.12121212 3:0.060606061 4:0.060606061 5:0.03030303 6:0 7:0 8:0.03030303 9:0 10:0.03030303 11:0.03030303 12:0.18181818 13:0.060606061 14:0 15:0.03030303 16:0.060606061 17:0.060606061 18:0 19:0.060606061 20:0.060606061 
-10 1:0.12121212 2:0.12121212 3:0.060606061 4:0.060606061 5:0.03030303 6:0 7:0 8:0.03030303 9:0 10:0.03030303 11:0.03030303 12:0.18181818 13:0.060606061 14:0 15:0.03030303 16:0.060606061 17:0.060606061 18:0 19:0.090909091 20:0.03030303 
-10 1:0.090909091 2:0.12121212 3:0.060606061 4:0.060606061 5:0.03030303 6:0 7:0 8:0.060606061 9:0 10:0.03030303 11:0.03030303 12:0.18181818 13:0.060606061 14:0 15:0.03030303 16:0.060606061 17:0.060606061 18:0 19:0.090909091 20:0.03030303 
-10 1:0.090909091 2:0.12121212 3:0.060606061 4:0.060606061 5:0.03030303 6:0 7:0 8:0.03030303 9:0 10:0.03030303 11:0.03030303 12:0.21212121 13:0.060606061 14:0 15:0.03030303 16:0.060606061 17:0.060606061 18:0 19:0.090909091 20:0.03030303 
-10 1:0.090909091 2:0.12121212 3:0.060606061 4:0.060606061 5:0.03030303 6:0 7:0 8:0.03030303 9:0 10:0.03030303 11:0.03030303 12:0.18181818 13:0.090909091 14:0 15:0.03030303 16:0.060606061 17:0.060606061 18:0 19:0.090909091 20:0.03030303 
-10 1:0.090909091 2:0.12121212 3:0.060606061 4:0.060606061 5:0.03030303 6:0 7:0 8:0.03030303 9:0 10:0.03030303 11:0.03030303 12:0.18181818 13:0.12121212 14:0 15:0.03030303 16:0.060606061 17:0.060606061 18:0 19:0.060606061 20:0.03030303 
-10 1:0.090909091 2:0.12121212 3:0.060606061 4:0.03030303 5:0.03030303 6:0 7:0 8:0.03030303 9:0 10:0.03030303 11:0.060606061 12:0.18181818 13:0.12121212 14:0 15:0.03030303 16:0.060606061 17:0.060606061 18:0 19:0.060606061 20:0.03030303 
-10 1:0.090909091 2:0.090909091 3:0.060606061 4:0.060606061 5:0.03030303 6:0 7:0 8:0.03030303 9:0 10:0.03030303 11:0.060606061 12:0.18181818 13:0.12121212 14:0 15:0.03030303 16:0.060606061 17:0.060606061 18:0 19:0.060606061 20:0.03030303 
-10 1:0.090909091 2:0.090909091 3:0.060606061 4:0.060606061 5:0.03030303 6:0 7:0 8:0.03030303 9:0 10:0.03030303 11:0.060606061 12:0.21212121 13:0.12121212 14:0 15:0.03030303 16:0.060606061 17:0.03030303 18:0 19:0.060606061 20:0.03030303 
-10 1:0.060606061 2:0.090909091 3:0.060606061 4:0.060606061 5:0.03030303 6:0 7:0 8:0.03030303 9:0 10:0.03030303 11:0.060606061 12:0.21212121 13:0.12121212 14:0 15:0.03030303 16:0.090909091 17:0.03030303 18:0 19:0.060606061 20:0.03030303 
-10 1:0.060606061 2:0.090909091 3:0.060606061 4:0.060606061 5:0.060606061 6:0 7:0 8:0.060606061 9:0 10:0.03030303 11:0.060606061 12:0.21212121 13:0.090909091 14:0 15:0.03030303 16:0.060606061 17:0.03030303 18:0 19:0.060606061 20:0.03030303 
-10 1:0.060606061 2:0.090909091 3:0.060606061 4:0.060606061 5:0.03030303 6:0 7:0 8:0.060606061 9:0 10:0.03030303 11:0.060606061 12:0.21212121 13:0.090909091 14:0 15:0.03030303 16:0.060606061 17:0.03030303 18:0 19:0.090909091 20:0.03030303 
-10 1:0.090909091 2:0.090909091 3:0.060606061 4:0.060606061 5:0.03030303 6:0 7:0 8:0.060606061 9:0 10:0.03030303 11:0.060606061 12:0.21212121 13:0.060606061 14:0 15:0.03030303 16:0.060606061 17:0.03030303 18:0 19:0.090909091 20:0.03030303 
-10 1:0.090909091 2:0.090909091 3:0.060606061 4:0.060606061 5:0.03030303 6:0 7:0 8:0.060606061 9:0 10:0.03030303 11:0.060606061 12:0.18181818 13:0.060606061 14:0 15:0.03030303 16:0.060606061 17:0.03030303 18:0 19:0.12121212 20:0.03030303 
-10 1:0.090909091 2:0.060606061 3:0.060606061 4:0.060606061 5:0.03030303 6:0 7:0 8:0.060606061 9:0 10:0.03030303 11:0.060606061 12:0.18181818 13:0.060606061 14:0 15:0.03030303 16:0.060606061 17:0.03030303 18:0 19:0.15151515 20:0.03030303 
-10 1:0.090909091 2:0.03030303 3:0.090909091 4:0.060606061 5:0.03030303 6:0 7:0 8:0.060606061 9:0 10:0.03030303 11:0.060606061 12:0.18181818 13:0.060606061 14:0 15:0.03030303 16:0.060606061 17:0.03030303 18:0 19:0.15151515 20:0.03030303 
-10 1:0.03030303 2:0.03030303 3:0.060606061 4:0.060606061 5:0.090909091 6:0.03030303 7:0.060606061 8:0 9:0.03030303 10:0 11:0.03030303 12:0.12121212 13:0 14:0.060606061 15:0.03030303 16:0 17:0.060606061 18:0.03030303 19:0.12121212 20:0.15151515 
-10 1:0.03030303 2:0.03030303 3:0.090909091 4:0.060606061 5:0.090909091 6:0.03030303 7:0.060606061 8:0 9:0.03030303 10:0 11:0.03030303 12:0.12121212 13:0 14:0.060606061 15:0.03030303 16:0 17:0.060606061 18:0.03030303 19:0.12121212 20:0.12121212 
-10 1:0.03030303 2:0.060606061 3:0.090909091 4:0.060606061 5:0.090909091 6:0.03030303 7:0.060606061 8:0 9:0.03030303 10:0 11:0.03030303 12:0.12121212 13:0 14:0.060606061 15:0.03030303 16:0 17:0.060606061 18:0.03030303 19:0.12121212 20:0.090909091 
-10 1:0.03030303 2:0.060606061 3:0.090909091 4:0.060606061 5:0.090909091 6:0.03030303 7:0.060606061 8:0 9:0.03030303 10:0 11:0.03030303 12:0.12121212 13:0 14:0.060606061 15:0.03030303 16:0 17:0.060606061 18:0.03030303 19:0.12121212 20:0.090909091 
-10 1:0.03030303 2:0.060606061 3:0.060606061 4:0.060606061 5:0.090909091 6:0.03030303 7:0.060606061 8:0 9:0.03030303 10:0 11:0.03030303 12:0.12121212 13:0 14:0.060606061 15:0.03030303 16:0 17:0.060606061 18:0.03030303 19:0.12121212 20:0.12121212 
-10 1:0.060606061 2:0.060606061 3:0.060606061 4:0.060606061 5:0.090909091 6:0.03030303 7:0.060606061 8:0 9:0.03030303 10:0 11:0.03030303 12:0.12121212 13:0 14:0.060606061 15:0.03030303 16:0 17:0.060606061 18:0.03030303 19:0.12121212 20:0.090909091 
-10 1:0.060606061 2:0.060606061 3:0.060606061 4:0.060606061 5:0.090909091 6:0.03030303 7:0.060606061 8:0 9:0.03030303 10:0 11:0.03030303 12:0.12121212 13:0 14:0.060606061 15:0.03030303 16:0 17:0.090909091 18:0.03030303 19:0.12121212 20:0.060606061 
-10 1:0.060606061 2:0.060606061 3:0.060606061 4:0.060606061 5:0.12121212 6:0.03030303 7:0.060606061 8:0 9:0.03030303 10:0 11:0.03030303 12:0.12121212 13:0 14:0.060606061 15:0.03030303 16:0 17:0.090909091 18:0.03030303 19:0.090909091 20:0.060606061 
-10 1:0.060606061 2:0.090909091 3:0.060606061 4:0.060606061 5:0.12121212 6:0.03030303 7:0.060606061 8:0 9:0.03030303 10:0 11:0.03030303 12:0.12121212 13:0 14:0.03030303 15:0.03030303 16:0 17:0.090909091 18:0.03030303 19:0.090909091 20:0.060606061 
-6.275427309450792 1:0.060606061 2:0.090909091 3:0.060606061 4:0.060606061 5:0.15151515 6:0.060606061 7:0.03030303 8:0 9:0.03030303 10:0 11:0.03030303 12:0.090909091 13:0 14:0.03030303 15:0.03030303 16:0 17:0.090909091 18:0 19:0.090909091 20:0.090909091 
-10 1:0.060606061 2:0.090909091 3:0.03030303 4:0.03030303 5:0.15151515 6:0.060606061 7:0.060606061 8:0 9:0.03030303 10:0 11:0.03030303 12:0.090909091 13:0 14:0.03030303 15:0.03030303 16:0 17:0.090909091 18:0 19:0.090909091 20:0.12121212 
-10 1:0.060606061 2:0.12121212 3:0.03030303 4:0.03030303 5:0.15151515 6:0.060606061 7:0.060606061 8:0 9:0 10:0 11:0.03030303 12:0.090909091 13:0.03030303 14:0.03030303 15:0.03030303 16:0 17:0.090909091 18:0 19:0.090909091 20:0.090909091 
-10 1:0.060606061 2:0.12121212 3:0.03030303 4:0.03030303 5:0.12121212 6:0.060606061 7:0.060606061 8:0 9:0 10:0 11:0.03030303 12:0.090909091 13:0.03030303 14:0.03030303 15:0.03030303 16:0 17:0.090909091 18:0 19:0.12121212 20:0.090909091 
-10 1:0.060606061 2:0.12121212 3:0.03030303 4:0.03030303 5:0.12121212 6:0.060606061 7:0.060606061 8:0 9:0 10:0 11:0.03030303 12:0.060606061 13:0.03030303 14:0.03030303 15:0.03030303 16:0 17:0.090909091 18:0 19:0.12121212 20:0.12121212 
-10 1:0.03030303 2:0.12121212 3:0.03030303 4:0.060606061 5:0.12121212 6:0.060606061 7:0.060606061 8:0 9:0 10:0 11:0.03030303 12:0.060606061 13:0.03030303 14:0.03030303 15:0.03030303 16:0 17:0.090909091 18:0 19:0.12121212 20:0.12121212 
-10 1:0.060606061 2:0.12121212 3:0.03030303 4:0.060606061 5:0.12121212 6:0.060606061 7:0.060606061 8:0 9:0 10:0 11:0.03030303 12:0.03030303 13:0.03030303 14:0.03030303 15:0.03030303 16:0 17:0.090909091 18:0 19:0.12121212 20:0.12121212 
-10 1:0.060606061 2:0.090909091 3:0.03030303 4:0.060606061 5:0.15151515 6:0.060606061 7:0.060606061 8:0 9:0 10:0 11:0.03030303 12:0.03030303 13:0.03030303 14:0.03030303 15:0.03030303 16:0 17:0.090909091 18:0 19:0.12121212 20:0.12121212 
-10 1:0.060606061 2:0.12121212 3:0.060606061 4:0.060606061 5:0.15151515 6:0.060606061 7:0.03030303 8:0 9:0 10:0 11:0 12:0 13:0.060606061 14:0.03030303 15:0.060606061 16:0 17:0.090909091 18:0 19:0.090909091 20:0.12121212 
-10 1:0.060606061 2:0.12121212 3:0.090909091 4:0.060606061 5:0.15151515 6:0.060606061 7:0.03030303 8:0 9:0 10:0 11:0 12:0 13:0.060606061 14:0.03030303 15:0.060606061 16:0 17:0.090909091 18:0 19:0.060606061 20:0.12121212 
-10 1:0.060606061 2:0.12121212 3:0.090909091 4:0.060606061 5:0.15151515 6:0.060606061 7:0.03030303 8:0 9:0.03030303 10:0 11:0 12:0 13:0.060606061 14:0.03030303 15:0.060606061 16:0 17:0.060606061 18:0 19:0.060606061 20:0.12121212 
-10 1:0.060606061 2:0.12121212 3:0.090909091 4:0.060606061 5:0.15151515 6:0.060606061 7:0.03030303 8:0 9:0.03030303 10:0 11:0 12:0.03030303 13:0.060606061 14:0.03030303 15:0.03030303 16:0 17:0.060606061 18:0 19:0.060606061 20:0.12121212 
-10 1:0.060606061 2:0.15151515 3:0.090909091 4:0.060606061 5:0.12121212 6:0.03030303 7:0.03030303 8:0 9:0.03030303 10:0 11:0 12:0.03030303 13:0.060606061 14:0.03030303 15:0.03030303 16:0.03030303 17:0.060606061 18:0 19:0.060606061 20:0.12121212 
-10 1:0.060606061 2:0.15151515 3:0.090909091 4:0.060606061 5:0.12121212 6:0.03030303 7:0.03030303 8:0 9:0.03030303 10:0 11:0 12:0.03030303 13:0.060606061 14:0.03030303 15:0.03030303 16:0.060606061 17:0.03030303 18:0 19:0.03030303 20:0.15151515 
-10 1:0.060606061 2:0.15151515 3:0.090909091 4:0.03030303 5:0.090909091 6:0.03030303 7:0.03030303 8:0 9:0.03030303 10:0 11:0 12:0.060606061 13:0.060606061 14:0.03030303 15:0.03030303 16:0.090909091 17:0.03030303 18:0 19:0.03030303 20:0.15151515 
-10 1:0.060606061 2:0.15151515 3:0.060606061 4:0.060606061 5:0.090909091 6:0.03030303 7:0.03030303 8:0 9:0.03030303 10:0 11:0 12:0.060606061 13:0.060606061 14:0.03030303 15:0.03030303 16:0.090909091 17:0.03030303 18:0 19:0.03030303 20:0.15151515 
-10 1:0.18181818 2:0 3:0.03030303 4:0.090909091 5:0.03030303 6:0.12121212 7:0 8:0.090909091 9:0 10:0 11:0 12:0.12121212 13:0.03030303 14:0.060606061 15:0 16:0.060606061 17:0.03030303 18:0 19:0.03030303 20:0.12121212 
-10 1:0.18181818 2:0 3:0.03030303 4:0.090909091 5:0.03030303 6:0.12121212 7:0 8:0.090909091 9:0 10:0 11:0 12:0.12121212 13:0.03030303 14:0.060606061 15:0 16:0.060606061 17:0.03030303 18:0 19:0.03030303 20:0.12121212 
-1.95850665142886 1:0.18181818 2:0 3:0.03030303 4:0.090909091 5:0.03030303 6:0.12121212 7:0 8:0.090909091 9:0 10:0 11:0 12:0.090909091 13:0.03030303 14:0.060606061 15:0.03030303 16:0.060606061 17:0.03030303 18:0 19:0.03030303 20:0.12121212 
-10 1:0 2:0.37037037 3:0.074074074 4:0.14814815 5:0 6:0.037037037 7:0.037037037 8:0 9:0 10:0 11:0.037037037 12:0.11111111 13:0.074074074 14:0 15:0.037037037 16:0 17:0.037037037 18:0.037037037 19:0 20:0 
-10 1:0 2:0.35714286 3:0.071428571 4:0.14285714 5:0 6:0.035714286 7:0.035714286 8:0 9:0 10:0 11:0.035714286 12:0.10714286 13:0.071428571 14:0 15:0.071428571 16:0 17:0.035714286 18:0.035714286 19:0 20:0 
-6.979678557514323 1:0.03030303 2:0.27272727 3:0.03030303 4:0.090909091 5:0.03030303 6:0.060606061 7:0 8:0 9:0 10:0 11:0.060606061 12:0.060606061 13:0.060606061 14:0.03030303 15:0.060606061 16:0.060606061 17:0.03030303 18:0.060606061 19:0 20:0.060606061 
-10 1:0.03030303 2:0.27272727 3:0.03030303 4:0.12121212 5:0.03030303 6:0.03030303 7:0 8:0 9:0 10:0 11:0.060606061 12:0.060606061 13:0.060606061 14:0.03030303 15:0.060606061 16:0.060606061 17:0.03030303 18:0.060606061 19:0 20:0.060606061 
-10 1:0.03030303 2:0.3030303 3:0.03030303 4:0.090909091 5:0.03030303 6:0.03030303 7:0 8:0 9:0 10:0 11:0.060606061 12:0.060606061 13:0.060606061 14:0.03030303 15:0.060606061 16:0.060606061 17:0.03030303 18:0.060606061 19:0 20:0.060606061 
-10 1:0.03030303 2:0.27272727 3:0.03030303 4:0.090909091 5:0.03030303 6:0.03030303 7:0 8:0 9:0 10:0 11:0.060606061 12:0.060606061 13:0.060606061 14:0.03030303 15:0.060606061 16:0.060606061 17:0.060606061 18:0.060606061 19:0 20:0.060606061 
-10 1:0.03030303 2:0.27272727 3:0.03030303 4:0.090909091 5:0.03030303 6:0.03030303 7:0 8:0 9:0 10:0 11:0.060606061 12:0.060606061 13:0.060606061 14:0.03030303 15:0.060606061 16:0.060606061 17:0.060606061 18:0.060606061 19:0 20:0.060606061 
-10 1:0.060606061 2:0.27272727 3:0 4:0.090909091 5:0.03030303 6:0.03030303 7:0 8:0 9:0 10:0 11:0.060606061 12:0.060606061 13:0.060606061 14:0.03030303 15:0.060606061 16:0.060606061 17:0.060606061 18:0.060606061 19:0 20:0.060606061 
-10 1:0.15151515 2:0.12121212 3:0.090909091 4:0.090909091 5:0.03030303 6:0 7:0 8:0 9:0.03030303 10:0 11:0.090909091 12:0.060606061 13:0 14:0.03030303 15:0.03030303 16:0.060606061 17:0.060606061 18:0.060606061 19:0 20:0.090909091 
-10 1:0.15151515 2:0.15151515 3:0.090909091 4:0.090909091 5:0.03030303 6:0 7:0 8:0 9:0.03030303 10:0 11:0.090909091 12:0.060606061 13:0 14:0 15:0.03030303 16:0.060606061 17:0.060606061 18:0.060606061 19:0 20:0.090909091 
-10 1:0.15151515 2:0.15151515 3:0.090909091 4:0.090909091 5:0.03030303 6:0 7:0 8:0 9:0.03030303 10:0 11:0.060606061 12:0.090909091 13:0 14:0 15:0.03030303 16:0.060606061 17:0.060606061 18:0.060606061 19:0 20:0.090909091 
-10 1:0.15151515 2:0.15151515 3:0.090909091 4:0.090909091 5:0.03030303 6:0 7:0 8:0 9:0.03030303 10:0 11:0.03030303 12:0.12121212 13:0 14:0 15:0.03030303 16:0.060606061 17:0.060606061 18:0.060606061 19:0 20:0.090909091 
-10 1:0.15151515 2:0.15151515 3:0.090909091 4:0.090909091 5:0.03030303 6:0 7:0 8:0 9:0.03030303 10:0 11:0.03030303 12:0.15151515 13:0 14:0 15:0.03030303 16:0.03030303 17:0.060606061 18:0.060606061 19:0 20:0.090909091 
-10 1:0.15151515 2:0.15151515 3:0.090909091 4:0.090909091 5:0.03030303 6:0 7:0 8:0 9:0.03030303 10:0 11:0.03030303 12:0.15151515 13:0 14:0 15:0.03030303 16:0.03030303 17:0.060606061 18:0.060606061 19:0 20:0.090909091 
-10 1:0.15151515 2:0.18181818 3:0.090909091 4:0.090909091 5:0.03030303 6:0 7:0 8:0 9:0.03030303 10:0 11:0.03030303 12:0.12121212 13:0 14:0 15:0.03030303 16:0.03030303 17:0.060606061 18:0.060606061 19:0 20:0.090909091 
-10 1:0.15151515 2:0.18181818 3:0.12121212 4:0.090909091 5:0 6:0 7:0 8:0 9:0.03030303 10:0 11:0.03030303 12:0.12121212 13:0 14:0 15:0.03030303 16:0.03030303 17:0.060606061 18:0.060606061 19:0 20:0.090909091 
-10 1:0.15151515 2:0.18181818 3:0.15151515 4:0.090909091 5:0 6:0 7:0 8:0 9:0.03030303 10:0 11:0.03030303 12:0.12121212 13:0 14:0 15:0.03030303 16:0.03030303 17:0.060606061 18:0.03030303 19:0 20:0.090909091 
-10 1:0.12121212 2:0.18181818 3:0.15151515 4:0.12121212 5:0 6:0 7:0 8:0 9:0.03030303 10:0 11:0.03030303 12:0.12121212 13:0 14:0 15:0.03030303 16:0.03030303 17:0.060606061 18:0.03030303 19:0 20:0.090909091 
-10 1:0.12121212 2:0.21212121 3:0.15151515 4:0.12121212 5:0 6:0 7:0 8:0 9:0.03030303 10:0 11:0.03030303 12:0.12121212 13:0 14:0 15:0.03030303 16:0.03030303 17:0.060606061 18:0.03030303 19:0 20:0.060606061 
-10 1:0.12121212 2:0.21212121 3:0.15151515 4:0.12121212 5:0 6:0 7:0 8:0 9:0.03030303 10:0 11:0.03030303 12:0.15151515 13:0 14:0 15:0 16:0.03030303 17:0.060606061 18:0.03030303 19:0 20:0.060606061 
-10 1:0.12121212 2:0.21212121 3:0.15151515 4:0.090909091 5:0 6:0 7:0 8:0 9:0.03030303 10:0 11:0.03030303 12:0.15151515 13:0 14:0 15:0 16:0.060606061 17:0.060606061 18:0.03030303 19:0 20:0.060606061 
-10 1:0.10714286 2:0.071428571 3:0.14285714 4:0.17857143 5:0 6:0 7:0.035714286 8:0.14285714 9:0 10:0.035714286 11:0 12:0.10714286 13:0.071428571 14:0.035714286 15:0.035714286 16:0 17:0 18:0 19:0.035714286 20:0 
-10 1:0.09375 2:0.0625 3:0.15625 4:0.15625 5:0.03125 6:0 7:0.03125 8:0.125 9:0 10:0.03125 11:0 12:0.125 13:0.09375 14:0.03125 15:0.03125 16:0 17:0 18:0 19:0.03125 20:0 
-5.685090708664476 1:0.12121212 2:0.03030303 3:0.090909091 4:0 5:0 6:0.12121212 7:0 8:0 9:0.060606061 10:0.060606061 11:0.060606061 12:0.090909091 13:0 14:0 15:0.03030303 16:0.03030303 17:0.060606061 18:0.03030303 19:0.090909091 20:0.12121212 
-10 1:0.12121212 2:0.060606061 3:0.060606061 4:0 5:0 6:0.12121212 7:0 8:0 9:0.060606061 10:0.060606061 11:0.060606061 12:0.090909091 13:0 14:0 15:0.03030303 16:0.03030303 17:0.060606061 18:0.03030303 19:0.090909091 20:0.12121212 
-10 1:0.03030303 2:0.060606061 3:0.060606061 4:0 5:0.060606061 6:0.03030303 7:0.03030303 8:0.060606061 9:0 10:0 11:0.090909091 12:0.18181818 13:0.090909091 14:0.03030303 15:0.060606061 16:0 17:0.12121212 18:0 19:0 20:0.090909091 
-10 1:0.03030303 2:0.060606061 3:0.060606061 4:0 5:0.090909091 6:0.03030303 7:0.03030303 8:0.060606061 9:0 10:0 11:0.090909091 12:0.18181818 13:0.090909091 14:0.03030303 15:0.060606061 16:0 17:0.12121212 18:0 19:0 20:0.060606061 
-10 1:0.03030303 2:0.060606061 3:0.03030303 4:0 5:0.090909091 6:0.03030303 7:0.03030303 8:0.060606061 9:0 10:0 11:0.090909091 12:0.21212121 13:0.090909091 14:0.03030303 15:0.060606061 16:0 17:0.12121212 18:0 19:0 20:0.060606061 
-10 1:0.03030303 2:0.060606061 3:0.03030303 4:0 5:0.060606061 6:0.03030303 7:0.03030303 8:0.060606061 9:0 10:0 11:0.090909091 12:0.21212121 13:0.090909091 14:0.03030303 15:0.060606061 16:0.03030303 17:0.12121212 18:0 19:0 20:0.060606061 
-10 1:0.03030303 2:0.060606061 3:0.060606061 4:0 5:0.060606061 6:0.03030303 7:0.03030303 8:0.060606061 9:0 10:0 11:0.090909091 12:0.21212121 13:0.090909091 14:0 15:0.060606061 16:0.03030303 17:0.12121212 18:0 19:0 20:0.060606061 
-10 1:0.03030303 2:0.060606061 3:0.060606061 4:0 5:0.060606061 6:0.03030303 7:0.060606061 8:0.060606061 9:0 10:0 11:0.060606061 12:0.21212121 13:0.090909091 14:0 15:0.060606061 16:0.03030303 17:0.12121212 18:0 19:0 20:0.060606061 
-10 1:0.03030303 2:0.03030303 3:0.060606061 4:0 5:0.03030303 6:0.03030303 7:0.060606061 8:0.060606061 9:0 10:0 11:0.060606061 12:0.24242424 13:0.090909091 14:0 15:0.060606061 16:0.03030303 17:0.12121212 18:0 19:0.03030303 20:0.060606061 
-10 1:0.03030303 2:0.03030303 3:0.060606061 4:0 5:0.03030303 6:0.03030303 7:0.060606061 8:0.060606061 9:0 10:0 11:0.060606061 12:0.24242424 13:0.090909091 14:0 15:0.03030303 16:0.03030303 17:0.12121212 18:0 19:0.060606061 20:0.060606061 
-10 1:0.060606061 2:0.03030303 3:0.060606061 4:0 5:0.03030303 6:0.03030303 7:0.060606061 8:0.060606061 9:0 10:0 11:0.03030303 12:0.24242424 13:0.090909091 14:0 15:0.03030303 16:0.03030303 17:0.12121212 18:0 19:0.060606061 20:0.060606061 
-10 1:0.060606061 2:0.03030303 3:0.060606061 4:0 5:0.03030303 6:0.03030303 7:0.060606061 8:0.060606061 9:0 10:0 11:0.03030303 12:0.21212121 13:0.090909091 14:0 15:0.03030303 16:0.03030303 17:0.12121212 18:0 19:0.090909091 20:0.060606061 
-10 1:0.060606061 2:0.03030303 3:0.03030303 4:0 5:0.03030303 6:0.03030303 7:0.060606061 8:0.060606061 9:0 10:0 11:0.03030303 12:0.24242424 13:0.090909091 14:0 15:0.03030303 16:0.03030303 17:0.12121212 18:0 19:0.090909091 20:0.060606061 
-10 1:0.060606061 2:0.060606061 3:0.03030303 4:0 5:0.03030303 6:0.03030303 7:0.060606061 8:0.03030303 9:0 10:0 11:0.03030303 12:0.24242424 13:0.090909091 14:0 15:0.03030303 16:0.03030303 17:0.12121212 18:0 19:0.090909091 20:0.060606061 
-10 1:0.060606061 2:0.060606061 3:0.03030303 4:0 5:0.03030303 6:0 7:0.060606061 8:0.03030303 9:0 10:0 11:0.03030303 12:0.24242424 13:0.090909091 14:0 15:0.03030303 16:0.060606061 17:0.12121212 18:0 19:0.090909091 20:0.060606061 
-10 1:0.12121212 2:0.03030303 3:0.03030303 4:0.12121212 5:0.060606061 6:0 7:0.03030303 8:0 9:0.060606061 10:0.03030303 11:0 12:0.090909091 13:0 14:0.060606061 15:0.12121212 16:0 17:0.060606061 18:0.03030303 19:0.060606061 20:0.090909091 
-10 1:0.12121212 2:0.03030303 3:0.03030303 4:0.12121212 5:0.060606061 6:0 7:0.03030303 8:0 9:0.060606061 10:0.03030303 11:0 12:0.090909091 13:0 14:0.090909091 15:0.12121212 16:0 17:0.060606061 18:0.03030303 19:0.060606061 20:0.060606061 
-10 1:0.12121212 2:0.03030303 3:0.060606061 4:0.12121212 5:0.060606061 6:0 7:0.03030303 8:0 9:0.060606061 10:0.03030303 11:0 12:0.060606061 13:0 14:0.090909091 15:0.12121212 16:0 17:0.060606061 18:0.03030303 19:0.060606061 20:0.060606061 
-10 1:0.12121212 2:0.03030303 3:0.060606061 4:0.090909091 5:0.060606061 6:0 7:0.03030303 8:0 9:0.060606061 10:0.03030303 11:0.03030303 12:0.060606061 13:0 14:0.090909091 15:0.12121212 16:0 17:0.060606061 18:0.03030303 19:0.060606061 20:0.060606061 
-10 1:0.12121212 2:0.090909091 3:0.090909091 4:0.090909091 5:0.03030303 6:0 7:0.03030303 8:0 9:0.060606061 10:0 11:0.03030303 12:0.060606061 13:0 14:0.090909091 15:0.090909091 16:0 17:0.060606061 18:0.03030303 19:0.060606061 20:0.060606061 
-10 1:0.12121212 2:0.090909091 3:0.090909091 4:0.12121212 5:0.03030303 6:0 7:0.03030303 8:0 9:0.060606061 10:0 11:0.03030303 12:0.060606061 13:0 14:0.060606061 15:0.090909091 16:0 17:0.060606061 18:0.03030303 19:0.060606061 20:0.060606061 
-10 1:0.12121212 2:0.090909091 3:0.090909091 4:0.12121212 5:0.03030303 6:0 7:0.03030303 8:0 9:0.060606061 10:0 11:0.03030303 12:0.060606061 13:0 14:0.060606061 15:0.060606061 16:0 17:0.090909091 18:0.03030303 19:0.060606061 20:0.060606061 
-0.2231232245708906 1:0.14814815 2:0.074074074 3:0.037037037 4:0.33333333 5:0 6:0.074074074 7:0.037037037 8:0.037037037 9:0 10:0 11:0 12:0.11111111 13:0 14:0.037037037 15:0.037037037 16:0 17:0 18:0.037037037 19:0.037037037 20:0 
-10 1:0.12121212 2:0.060606061 3:0.03030303 4:0.3030303 5:0 6:0.060606061 7:0 8:0.090909091 9:0 10:0.060606061 11:0 12:0.12121212 13:0 14:0.03030303 15:0.060606061 16:0 17:0.03030303 18:0.03030303 19:0 20:0 
-10 1:0.090909091 2:0.060606061 3:0.03030303 4:0.3030303 5:0 6:0.060606061 7:0 8:0.090909091 9:0 10:0.060606061 11:0 12:0.12121212 13:0 14:0.03030303 15:0.060606061 16:0 17:0.03030303 18:0.03030303 19:0.03030303 20:0 
-10 1:0.090909091 2:0.060606061 3:0.03030303 4:0.27272727 5:0 6:0.060606061 7:0 8:0.090909091 9:0 10:0.060606061 11:0 12:0.12121212 13:0 14:0.03030303 15:0.090909091 16:0 17:0.03030303 18:0.03030303 19:0.03030303 20:0 
-10 1:0.12121212 2:0.060606061 3:0.03030303 4:0.27272727 5:0 6:0.03030303 7:0 8:0.090909091 9:0 10:0.060606061 11:0 12:0.12121212 13:0 14:0.03030303 15:0.090909091 16:0 17:0.03030303 18:0.03030303 19:0.03030303 20:0 
-10 1:0.15151515 2:0.060606061 3:0.03030303 4:0.27272727 5:0 6:0 7:0 8:0.090909091 9:0 10:0.060606061 11:0 12:0.12121212 13:0 14:0.03030303 15:0.090909091 16:0 17:0.03030303 18:0.03030303 19:0.03030303 20:0 
-10 1:0.15151515 2:0.060606061 3:0.03030303 4:0.27272727 5:0 6:0 7:0 8:0.060606061 9:0 10:0.090909091 11:0 12:0.12121212 13:0 14:0.03030303 15:0.090909091 16:0 17:0.03030303 18:0.03030303 19:0.03030303 20:0 
-10 1:0.15151515 2:0.060606061 3:0.03030303 4:0.27272727 5:0 6:0 7:0 8:0.060606061 9:0.03030303 10:0.090909091 11:0 12:0.090909091 13:0 14:0.03030303 15:0.090909091 16:0 17:0.03030303 18:0.03030303 19:0.03030303 20:0 
-10 1:0.15151515 2:0.060606061 3:0.03030303 4:0.24242424 5:0 6:0 7:0 8:0.060606061 9:0.03030303 10:0.090909091 11:0 12:0.090909091 13:0 14:0.060606061 15:0.090909091 16:0 17:0.03030303 18:0.03030303 19:0.03030303 20:0 
-10 1:0.15151515 2:0.060606061 3:0.03030303 4:0.21212121 5:0 6:0 7:0.03030303 8:0.060606061 9:0.03030303 10:0.090909091 11:0 12:0.090909091 13:0 14:0.060606061 15:0.090909091 16:0 17:0.03030303 18:0.03030303 19:0.03030303 20:0 
-10 1:0.15151515 2:0.060606061 3:0.03030303 4:0.18181818 5:0 6:0 7:0.060606061 8:0.060606061 9:0.03030303 10:0.090909091 11:0 12:0.090909091 13:0 14:0.060606061 15:0.090909091 16:0 17:0.03030303 18:0.03030303 19:0.03030303 20:0 
-10 1:0.058823529 2:0.17647059 3:0.058823529 4:0.29411765 5:0.11764706 6:0 7:0.058823529 8:0 9:0 10:0 11:0 12:0.17647059 13:0 14:0.058823529 15:0 16:0 17:0 18:0 19:0 20:0 
-10 1:0.055555556 2:0.16666667 3:0.055555556 4:0.33333333 5:0.11111111 6:0 7:0.055555556 8:0 9:0 10:0 11:0 12:0.16666667 13:0 14:0.055555556 15:0 16:0 17:0 18:0 19:0 20:0 
-10 1:0.052631579 2:0.21052632 3:0.052631579 4:0.31578947 5:0.10526316 6:0 7:0.052631579 8:0 9:0 10:0 11:0 12:0.15789474 13:0 14:0.052631579 15:0 16:0 17:0 18:0 19:0 20:0 
-5.107213759506568 1:0.05 2:0.2 3:0.1 4:0.3 5:0.1 6:0 7:0.05 8:0 9:0 10:0 11:0 12:0.15 13:0 14:0.05 15:0 16:0 17:0 18:0 19:0 20:0 
-10 1:0.083333333 2:0.16666667 3:0.083333333 4:0.29166667 5:0.083333333 6:0.041666667 7:0.041666667 8:0 9:0 10:0 11:0 12:0.125 13:0 14:0.041666667 15:0 16:0 17:0 18:0.041666667 19:0 20:0 
-10 1:0 2:0 3:0.058823529 4:0.11764706 5:0.17647059 6:0 7:0.058823529 8:0.058823529 9:0 10:0 11:0 12:0.23529412 13:0 14:0 15:0 16:0.058823529 17:0 18:0 19:0.11764706 20:0.11764706 
-10 1:0 2:0 3:0.055555556 4:0.16666667 5:0.16666667 6:0 7:0.055555556 8:0.055555556 9:0 10:0 11:0 12:0.22222222 13:0 14:0 15:0 16:0.055555556 17:0 18:0 19:0.11111111 20:0.11111111 
-10 1:0 2:0 3:0.052631579 4:0.21052632 5:0.15789474 6:0 7:0.052631579 8:0.052631579 9:0 10:0 11:0 12:0.21052632 13:0 14:0 15:0 16:0.052631579 17:0 18:0 19:0.10526316 20:0.10526316 
-10 1:0 2:0 3:0.05 4:0.2 5:0.15 6:0 7:0.05 8:0.05 9:0 10:0 11:0 12:0.25 13:0 14:0 15:0 16:0.05 17:0 18:0 19:0.1 20:0.1 
-10 1:0 2:0 3:0.095238095 4:0.19047619 5:0.14285714 6:0 7:0.047619048 8:0.047619048 9:0 10:0 11:0 12:0.23809524 13:0 14:0 15:0 16:0.047619048 17:0 18:0 19:0.095238095 20:0.095238095 
-10 1:0 2:0 3:0.090909091 4:0.22727273 5:0.13636364 6:0 7:0.045454545 8:0.045454545 9:0 10:0 11:0 12:0.22727273 13:0 14:0 15:0 16:0.045454545 17:0 18:0 19:0.090909091 20:0.090909091 
-10 1:0 2:0 3:0.13043478 4:0.2173913 5:0.13043478 6:0 7:0.043478261 8:0.043478261 9:0 10:0 11:0 12:0.2173913 13:0 14:0 15:0 16:0.043478261 17:0 18:0 19:0.086956522 20:0.086956522 
-10 1:0 2:0 3:0.125 4:0.20833333 5:0.125 6:0 7:0.041666667 8:0.041666667 9:0 10:0 11:0 12:0.20833333 13:0 14:0 15:0 16:0.041666667 17:0.041666667 18:0 19:0.083333333 20:0.083333333 
-10 1:0 2:0 3:0.12 4:0.2 5:0.12 6:0 7:0.04 8:0.08 9:0 10:0 11:0 12:0.2 13:0 14:0 15:0 16:0.04 17:0.04 18:0 19:0.08 20:0.08 
-10 1:0 2:0 3:0.11538462 4:0.19230769 5:0.11538462 6:0.038461538 7:0.038461538 8:0.076923077 9:0 10:0 11:0 12:0.19230769 13:0 14:0 15:0 16:0.038461538 17:0.038461538 18:0 19:0.076923077 20:0.076923077 
-10 1:0 2:0 3:0.11111111 4:0.18518519 5:0.11111111 6:0.037037037 7:0.037037037 8:0.074074074 9:0.037037037 10:0 11:0 12:0.18518519 13:0 14:0 15:0 16:0.037037037 17:0.037037037 18:0 19:0.074074074 20:0.074074074 
-10 1:0.035714286 2:0 3:0.10714286 4:0.17857143 5:0.10714286 6:0.035714286 7:0.035714286 8:0.071428571 9:0.035714286 10:0 11:0 12:0.17857143 13:0 14:0 15:0 16:0.035714286 17:0.035714286 18:0 19:0.071428571 20:0.071428571 
-10 1:0.068965517 2:0 3:0.10344828 4:0.17241379 5:0.10344828 6:0.034482759 7:0.034482759 8:0.068965517 9:0.034482759 10:0 11:0 12:0.17241379 13:0 14:0 15:0 16:0.034482759 17:0.034482759 18:0 19:0.068965517 20:0.068965517 
-10 1:0.066666667 2:0 3:0.1 4:0.16666667 5:0.1 6:0.033333333 7:0.033333333 8:0.1 9:0.033333333 10:0 11:0 12:0.16666667 13:0 14:0 15:0 16:0.033333333 17:0.033333333 18:0 19:0.066666667 20:0.066666667 
-10 1:0.064516129 2:0 3:0.096774194 4:0.16129032 5:0.096774194 6:0.032258065 7:0.032258065 8:0.096774194 9:0.032258065 10:0 11:0 12:0.16129032 13:0.032258065 14:0 15:0 16:0.032258065 17:0.032258065 18:0 19:0.064516129 20:0.064516129 
-10 1:0.0625 2:0 3:0.09375 4:0.15625 5:0.09375 6:0.03125 7:0.03125 8:0.09375 9:0.03125 10:0 11:0 12:0.1875 13:0.03125 14:0 15:0 16:0.03125 17:0.03125 18:0 19:0.0625 20:0.0625 
-10 1:0.060606061 2:0 3:0.090909091 4:0.15151515 5:0.090909091 6:0.03030303 7:0.03030303 8:0.090909091 9:0.03030303 10:0 11:0 12:0.18181818 13:0.03030303 14:0 15:0 16:0.03030303 17:0.060606061 18:0 19:0.060606061 20:0.060606061 
-1.926580406937416 1:0.060606061 2:0 3:0.090909091 4:0.15151515 5:0.090909091 6:0.03030303 7:0 8:0.090909091 9:0.060606061 10:0 11:0 12:0.18181818 13:0.03030303 14:0 15:0 16:0.03030303 17:0.060606061 18:0 19:0.060606061 20:0.060606061 
-10 1:0 2:0.10526316 3:0.15789474 4:0.26315789 5:0.052631579 6:0 7:0.052631579 8:0.052631579 9:0 10:0 11:0 12:0.15789474 13:0.15789474 14:0 15:0 16:0 17:0 18:0 19:0 20:0 
-10 1:0 2:0.1 3:0.15 4:0.25 5:0.05 6:0 7:0.05 8:0.05 9:0 10:0 11:0 12:0.15 13:0.15 14:0 15:0.05 16:0 17:0 18:0 19:0 20:0 
-10 1:0 2:0.095238095 3:0.14285714 4:0.23809524 5:0.047619048 6:0 7:0.047619048 8:0.047619048 9:0 10:0 11:0 12:0.19047619 13:0.14285714 14:0 15:0.047619048 16:0 17:0 18:0 19:0 20:0 
-10 1:0 2:0.090909091 3:0.13636364 4:0.22727273 5:0.045454545 6:0 7:0.045454545 8:0.045454545 9:0 10:0 11:0 12:0.18181818 13:0.18181818 14:0 15:0.045454545 16:0 17:0 18:0 19:0 20:0 
-10 1:0 2:0.13043478 3:0.13043478 4:0.2173913 5:0.043478261 6:0 7:0.043478261 8:0.043478261 9:0 10:0 11:0 12:0.17391304 13:0.17391304 14:0 15:0.043478261 16:0 17:0 18:0 19:0 20:0 
-10 1:0 2:0.125 3:0.125 4:0.20833333 5:0.041666667 6:0 7:0.041666667 8:0.041666667 9:0 10:0 11:0 12:0.16666667 13:0.16666667 14:0.041666667 15:0.041666667 16:0 17:0 18:0 19:0 20:0 
-10 1:0 2:0.12 3:0.12 4:0.2 5:0.04 6:0 7:0.04 8:0.04 9:0.04 10:0 11:0 12:0.16 13:0.16 14:0.04 15:0.04 16:0 17:0 18:0 19:0 20:0 
-10 1:0 2:0.11538462 3:0.11538462 4:0.19230769 5:0.038461538 6:0 7:0.038461538 8:0.076923077 9:0.038461538 10:0 11:0 12:0.15384615 13:0.15384615 14:0.038461538 15:0.038461538 16:0 17:0 18:0 19:0 20:0 
-10 1:0 2:0.10714286 3:0.10714286 4:0.17857143 5:0.035714286 6:0 7:0.035714286 8:0.071428571 9:0.071428571 10:0 11:0 12:0.17857143 13:0.14285714 14:0.035714286 15:0.035714286 16:0 17:0 18:0 19:0 20:0 
-10 1:0 2:0.10344828 3:0.10344828 4:0.17241379 5:0.034482759 6:0 7:0.034482759 8:0.068965517 9:0.068965517 10:0 11:0 12:0.20689655 13:0.13793103 14:0.034482759 15:0.034482759 16:0 17:0 18:0 19:0 20:0 
-10 1:0 2:0.1 3:0.1 4:0.16666667 5:0.033333333 6:0 7:0.033333333 8:0.066666667 9:0.066666667 10:0 11:0.033333333 12:0.2 13:0.13333333 14:0.033333333 15:0.033333333 16:0 17:0 18:0 19:0 20:0 
-10 1:0 2:0.096774194 3:0.096774194 4:0.16129032 5:0.032258065 6:0 7:0.032258065 8:0.064516129 9:0.064516129 10:0 11:0.064516129 12:0.19354839 13:0.12903226 14:0.032258065 15:0.032258065 16:0 17:0 18:0 19:0 20:0 
-10 1:0 2:0.09375 3:0.09375 4:0.15625 5:0.03125 6:0 7:0.03125 8:0.0625 9:0.0625 10:0 11:0.09375 12:0.1875 13:0.125 14:0.03125 15:0.03125 16:0 17:0 18:0 19:0 20:0 
-10 1:0 2:0.090909091 3:0.12121212 4:0.15151515 5:0.03030303 6:0 7:0 8:0.060606061 9:0.060606061 10:0 11:0.12121212 12:0.18181818 13:0.12121212 14:0.03030303 15:0.03030303 16:0 17:0 18:0 19:0 20:0 
-10 1:0 2:0.060606061 3:0.12121212 4:0.15151515 5:0.03030303 6:0 7:0 8:0.060606061 9:0.060606061 10:0 11:0.12121212 12:0.18181818 13:0.12121212 14:0.03030303 15:0.03030303 16:0 17:0 18:0 19:0.03030303 20:0 
-10 1:0 2:0.21212121 3:0.060606061 4:0.090909091 5:0.03030303 6:0.03030303 7:0 8:0.060606061 9:0.03030303 10:0 11:0 12:0.03030303 13:0.03030303 14:0 15:0.03030303 16:0.060606061 17:0.060606061 18:0.03030303 19:0.12121212 20:0.12121212 
-10 1:0 2:0.15151515 3:0.090909091 4:0.060606061 5:0 6:0 7:0 8:0.060606061 9:0 10:0.03030303 11:0.03030303 12:0.21212121 13:0.15151515 14:0 15:0 16:0.03030303 17:0.060606061 18:0 19:0.060606061 20:0.060606061 
-10 1:0 2:0.15151515 3:0.090909091 4:0.060606061 5:0 6:0 7:0 8:0.060606061 9:0 10:0.03030303 11:0.03030303 12:0.21212121 13:0.15151515 14:0 15:0 16:0.03030303 17:0.060606061 18:0 19:0.090909091 20:0.03030303 
-10 1:0 2:0.15151515 3:0.12121212 4:0.060606061 5:0 6:0 7:0 8:0.060606061 9:0 10:0.03030303 11:0.03030303 12:0.18181818 13:0.15151515 14:0 15:0 16:0.03030303 17:0.060606061 18:0 19:0.090909091 20:0.03030303 
-10 1:0 2:0.18181818 3:0.090909091 4:0.060606061 5:0 6:0 7:0 8:0.060606061 9:0 10:0.03030303 11:0.03030303 12:0.18181818 13:0.15151515 14:0 15:0 16:0.03030303 17:0.060606061 18:0 19:0.090909091 20:0.03030303 
-10 1:0 2:0.15151515 3:0.090909091 4:0.060606061 5:0 6:0 7:0 8:0.060606061 9:0 10:0.03030303 11:0.060606061 12:0.18181818 13:0.15151515 14:0 15:0 16:0.03030303 17:0.060606061 18:0 19:0.090909091 20:0.03030303 
-10 1:0 2:0.12121212 3:0.090909091 4:0.060606061 5:0 6:0 7:0 8:0.060606061 9:0 10:0.03030303 11:0.060606061 12:0.18181818 13:0.15151515 14:0.03030303 15:0 16:0.03030303 17:0.060606061 18:0 19:0.090909091 20:0.03030303 
-10 1:0 2:0.090909091 3:0.090909091 4:0.060606061 5:0 6:0 7:0.03030303 8:0.060606061 9:0 10:0.03030303 11:0.060606061 12:0.18181818 13:0.15151515 14:0.03030303 15:0 16:0.03030303 17:0.060606061 18:0 19:0.090909091 20:0.03030303 
-10 1:0.03030303 2:0.21212121 3:0.060606061 4:0.090909091 5:0.03030303 6:0 7:0.03030303 8:0.03030303 9:0.03030303 10:0 11:0 12:0.12121212 13:0.090909091 14:0.03030303 15:0 16:0.03030303 17:0.03030303 18:0 19:0.03030303 20:0.15151515 
-10 1:0.03030303 2:0.21212121 3:0.060606061 4:0.090909091 5:0.03030303 6:0 7:0.03030303 8:0.03030303 9:0.03030303 10:0 11:0 12:0.090909091 13:0.090909091 14:0.03030303 15:0 16:0.060606061 17:0.03030303 18:0 19:0.03030303 20:0.15151515 
-10 1:0.03030303 2:0.21212121 3:0.060606061 4:0.090909091 5:0.03030303 6:0 7:0.03030303 8:0.03030303 9:0.03030303 10:0 11:0 12:0.090909091 13:0.060606061 14:0.03030303 15:0 16:0.060606061 17:0.060606061 18:0 19:0.03030303 20:0.15151515 
-10 1:0.03030303 2:0.21212121 3:0.060606061 4:0.060606061 5:0.03030303 6:0 7:0.03030303 8:0.03030303 9:0.03030303 10:0 11:0 12:0.090909091 13:0.060606061 14:0.03030303 15:0 16:0.060606061 17:0.090909091 18:0 19:0.03030303 20:0.15151515 
-10 1:0.03030303 2:0.21212121 3:0.060606061 4:0.060606061 5:0.03030303 6:0 7:0.060606061 8:0.03030303 9:0.03030303 10:0 11:0 12:0.090909091 13:0.060606061 14:0.03030303 15:0 16:0.060606061 17:0.090909091 18:0 19:0.03030303 20:0.12121212 
-10 1:0.03030303 2:0.21212121 3:0.060606061 4:0.060606061 5:0.03030303 6:0 7:0.060606061 8:0.03030303 9:0.03030303 10:0 11:0 12:0.12121212 13:0.060606061 14:0.03030303 15:0 16:0.060606061 17:0.090909091 18:0 19:0.03030303 20:0.090909091 
-10 1:0.03030303 2:0.24242424 3:0.060606061 4:0.060606061 5:0.03030303 6:0 7:0.060606061 8:0.03030303 9:0.03030303 10:0 11:0 12:0.12121212 13:0.03030303 14:0.03030303 15:0 16:0.060606061 17:0.090909091 18:0 19:0.03030303 20:0.090909091 
-10 1:0.03030303 2:0.090909091 3:0.060606061 4:0.12121212 5:0.03030303 6:0.03030303 7:0 8:0.060606061 9:0.03030303 10:0.03030303 11:0.03030303 12:0.21212121 13:0 14:0.03030303 15:0 16:0 17:0.060606061 18:0.060606061 19:0.090909091 20:0.03030303 
-10 1:0.03030303 2:0.060606061 3:0.060606061 4:0.12121212 5:0.03030303 6:0.03030303 7:0 8:0.060606061 9:0.03030303 10:0.03030303 11:0.03030303 12:0.21212121 13:0 14:0.03030303 15:0 16:0 17:0.060606061 18:0.090909091 19:0.090909091 20:0.03030303 
-10 1:0.03030303 2:0.060606061 3:0.060606061 4:0.12121212 5:0.03030303 6:0.03030303 7:0 8:0.060606061 9:0.03030303 10:0.03030303 11:0.03030303 12:0.18181818 13:0 14:0.03030303 15:0 16:0 17:0.090909091 18:0.090909091 19:0.090909091 20:0.03030303 
-10 1:0.060606061 2:0.060606061 3:0.060606061 4:0.12121212 5:0.03030303 6:0.03030303 7:0 8:0.060606061 9:0.03030303 10:0.03030303 11:0.03030303 12:0.18181818 13:0 14:0.03030303 15:0 16:0 17:0.090909091 18:0.090909091 19:0.060606061 20:0.03030303 
-10 1:0.060606061 2:0.060606061 3:0.060606061 4:0.12121212 5:0.03030303 6:0.03030303 7:0 8:0.060606061 9:0.03030303 10:0.03030303 11:0.03030303 12:0.18181818 13:0 14:0.03030303 15:0 16:0 17:0.090909091 18:0.090909091 19:0.060606061 20:0.03030303 
-10 1:0.060606061 2:0.060606061 3:0.090909091 4:0.12121212 5:0.03030303 6:0.03030303 7:0 8:0.060606061 9:0.03030303 10:0.03030303 11:0.03030303 12:0.18181818 13:0 14:0.03030303 15:0 16:0 17:0.090909091 18:0.060606061 19:0.060606061 20:0.03030303 
-10 1:0.060606061 2:0.090909091 3:0.090909091 4:0.090909091 5:0.03030303 6:0.03030303 7:0 8:0.060606061 9:0.03030303 10:0.03030303 11:0.03030303 12:0.18181818 13:0 14:0.03030303 15:0 16:0 17:0.090909091 18:0.060606061 19:0.060606061 20:0.03030303 
-10 1:0.060606061 2:0.090909091 3:0.090909091 4:0.060606061 5:0.03030303 6:0.03030303 7:0 8:0.060606061 9:0.03030303 10:0.03030303 11:0.03030303 12:0.18181818 13:0.03030303 14:0.03030303 15:0 16:0 17:0.090909091 18:0.060606061 19:0.060606061 20:0.03030303 
-10 1:0.060606061 2:0.090909091 3:0.090909091 4:0.060606061 5:0.060606061 6:0.03030303 7:0 8:0.060606061 9:0.03030303 10:0.03030303 11:0 12:0.18181818 13:0.03030303 14:0.03030303 15:0 16:0 17:0.090909091 18:0.060606061 19:0.060606061 20:0.03030303 
-10 1:0.090909091 2:0.060606061 3:0.090909091 4:0.060606061 5:0.060606061 6:0.03030303 7:0 8:0.060606061 9:0.03030303 10:0.03030303 11:0 12:0.18181818 13:0.03030303 14:0.03030303 15:0 16:0 17:0.090909091 18:0.060606061 19:0.060606061 20:0.03030303 
-10 1:0.090909091 2:0.060606061 3:0.090909091 4:0.060606061 5:0.090909091 6:0.03030303 7:0 8:0.03030303 9:0.03030303 10:0.03030303 11:0 12:0.18181818 13:0.03030303 14:0.03030303 15:0 16:0 17:0.090909091 18:0.060606061 19:0.060606061 20:0.03030303 
-10 1:0.090909091 2:0.060606061 3:0.090909091 4:0.060606061 5:0.090909091 6:0.03030303 7:0 8:0.03030303 9:0.03030303 10:0.03030303 11:0 12:0.15151515 13:0.060606061 14:0.03030303 15:0 16:0 17:0.090909091 18:0.060606061 19:0.060606061 20:0.03030303 
-10 1:0.090909091 2:0.060606061 3:0.090909091 4:0.060606061 5:0.060606061 6:0.03030303 7:0 8:0.03030303 9:0.03030303 10:0.03030303 11:0 12:0.15151515 13:0.060606061 14:0.03030303 15:0 16:0.03030303 17:0.090909091 18:0.060606061 19:0.060606061 20:0.03030303 
-10 1:0.090909091 2:0.060606061 3:0.090909091 4:0.060606061 5:0.060606061 6:0.03030303 7:0 8:0.03030303 9:0.03030303 10:0.03030303 11:0 12:0.12121212 13:0.060606061 14:0.03030303 15:0 16:0.03030303 17:0.090909091 18:0.090909091 19:0.060606061 20:0.03030303 
-10 1:0.034482759 2:0.17241379 3:0.13793103 4:0.17241379 5:0.068965517 6:0 7:0.10344828 8:0.034482759 9:0.034482759 10:0 11:0 12:0.17241379 13:0 14:0 15:0 16:0 17:0 18:0 19:0.068965517 20:0 
-10 1:0.090909091 2:0.12121212 3:0.12121212 4:0.15151515 5:0.090909091 6:0.03030303 7:0.060606061 8:0.03030303 9:0.03030303 10:0 11:0 12:0.15151515 13:0 14:0.03030303 15:0 16:0 17:0 18:0 19:0.090909091 20:0 
-10 1:0.090909091 2:0.12121212 3:0.12121212 4:0.15151515 5:0.090909091 6:0.03030303 7:0.060606061 8:0.03030303 9:0.03030303 10:0 11:0 12:0.15151515 13:0 14:0.03030303 15:0 16:0 17:0 18:0 19:0.060606061 20:0.03030303 
-10 1:0.090909091 2:0.12121212 3:0.090909091 4:0.15151515 5:0.090909091 6:0.060606061 7:0.060606061 8:0.03030303 9:0.03030303 10:0 11:0 12:0.15151515 13:0 14:0.03030303 15:0 16:0 17:0 18:0 19:0.060606061 20:0.03030303 
-10 1:0.090909091 2:0.12121212 3:0.090909091 4:0.15151515 5:0.090909091 6:0.060606061 7:0.060606061 8:0.03030303 9:0.03030303 10:0 11:0 12:0.12121212 13:0 14:0.060606061 15:0 16:0 17:0 18:0 19:0.060606061 20:0.03030303 
-10 1:0.090909091 2:0.12121212 3:0.090909091 4:0.15151515 5:0.090909091 6:0.060606061 7:0.060606061 8:0.03030303 9:0.03030303 10:0 11:0 12:0.12121212 13:0 14:0.060606061 15:0 16:0 17:0 18:0 19:0.060606061 20:0.03030303 
-10 1:0.090909091 2:0.15151515 3:0.090909091 4:0.15151515 5:0.090909091 6:0.060606061 7:0.060606061 8:0.03030303 9:0 10:0 11:0 12:0.12121212 13:0 14:0.060606061 15:0 16:0 17:0 18:0 19:0.060606061 20:0.03030303 
-10 1:0.12121212 2:0.15151515 3:0.090909091 4:0.12121212 5:0.090909091 6:0.060606061 7:0.060606061 8:0.03030303 9:0 10:0 11:0 12:0.12121212 13:0 14:0.060606061 15:0 16:0 17:0 18:0 19:0.060606061 20:0.03030303 
-10 1:0.12121212 2:0.15151515 3:0.090909091 4:0.12121212 5:0.090909091 6:0.060606061 7:0.060606061 8:0.03030303 9:0 10:0 11:0.03030303 12:0.12121212 13:0 14:0.060606061 15:0 16:0 17:0 18:0 19:0.03030303 20:0.03030303 
-10 1:0.12121212 2:0.15151515 3:0.090909091 4:0.12121212 5:0.090909091 6:0.060606061 7:0.060606061 8:0 9:0 10:0 11:0.060606061 12:0.12121212 13:0 14:0.060606061 15:0 16:0 17:0 18:0 19:0.03030303 20:0.03030303 
-10 1:0.12121212 2:0.12121212 3:0.090909091 4:0.12121212 5:0.090909091 6:0.060606061 7:0.060606061 8:0 9:0.03030303 10:0 11:0.060606061 12:0.12121212 13:0 14:0.060606061 15:0 16:0 17:0 18:0 19:0.03030303 20:0.03030303 
-10 1:0.12121212 2:0.12121212 3:0.060606061 4:0.090909091 5:0.090909091 6:0.12121212 7:0.03030303 8:0 9:0.03030303 10:0 11:0.060606061 12:0.15151515 13:0 14:0.060606061 15:0 16:0 17:0 18:0 19:0.03030303 20:0.03030303 
-10 1:0.12121212 2:0.12121212 3:0.060606061 4:0.090909091 5:0.060606061 6:0.12121212 7:0.03030303 8:0 9:0.03030303 10:0 11:0.060606061 12:0.18181818 13:0 14:0.060606061 15:0 16:0 17:0 18:0 19:0.03030303 20:0.03030303 
-10 1:0.12121212 2:0.12121212 3:0.060606061 4:0.060606061 5:0.060606061 6:0.12121212 7:0.03030303 8:0 9:0.060606061 10:0 11:0.060606061 12:0.18181818 13:0 14:0.060606061 15:0 16:0 17:0 18:0 19:0.03030303 20:0.03030303 
-10 1:0.090909091 2:0.12121212 3:0.090909091 4:0.03030303 5:0.03030303 6:0.03030303 7:0.12121212 8:0.03030303 9:0.03030303 10:0.03030303 11:0.03030303 12:0.12121212 13:0.03030303 14:0.090909091 15:0 16:0 17:0.060606061 18:0 19:0 20:0.060606061 
-10 1:0.090909091 2:0.12121212 3:0.060606061 4:0.03030303 5:0.03030303 6:0.03030303 7:0.12121212 8:0.03030303 9:0.03030303 10:0.03030303 11:0.03030303 12:0.12121212 13:0.03030303 14:0.090909091 15:0 16:0 17:0.060606061 18:0 19:0.03030303 20:0.060606061 
-10 1:0.090909091 2:0.12121212 3:0.060606061 4:0.03030303 5:0.03030303 6:0.060606061 7:0.090909091 8:0.03030303 9:0.03030303 10:0.03030303 11:0.03030303 12:0.12121212 13:0.03030303 14:0.090909091 15:0 16:0 17:0.060606061 18:0 19:0.03030303 20:0.060606061 
-10 1:0.12121212 2:0.12121212 3:0.060606061 4:0.03030303 5:0.03030303 6:0.060606061 7:0.060606061 8:0.03030303 9:0.03030303 10:0.03030303 11:0.03030303 12:0.12121212 13:0.03030303 14:0.090909091 15:0 16:0 17:0.060606061 18:0 19:0.03030303 20:0.060606061 
-10 1:0.12121212 2:0.12121212 3:0.060606061 4:0 5:0 6:0.090909091 7:0.060606061 8:0.03030303 9:0.03030303 10:0.03030303 11:0.03030303 12:0.15151515 13:0.03030303 14:0.090909091 15:0 16:0 17:0.060606061 18:0 19:0.03030303 20:0.060606061 
-10 1:0.12121212 2:0.12121212 3:0.060606061 4:0 5:0 6:0.090909091 7:0.060606061 8:0.03030303 9:0.03030303 10:0.03030303 11:0.03030303 12:0.15151515 13:0.03030303 14:0.090909091 15:0 16:0 17:0.060606061 18:0 19:0.03030303 20:0.060606061 
-10 1:0.12121212 2:0.12121212 3:0.060606061 4:0 5:0.03030303 6:0.090909091 7:0.03030303 8:0.03030303 9:0.03030303 10:0.03030303 11:0.03030303 12:0.15151515 13:0.03030303 14:0.090909091 15:0 16:0 17:0.060606061 18:0 19:0.03030303 20:0.060606061 
-10 1:0.12121212 2:0.090909091 3:0.060606061 4:0 5:0.03030303 6:0.090909091 7:0.03030303 8:0.03030303 9:0.03030303 10:0.03030303 11:0.03030303 12:0.15151515 13:0.03030303 14:0.090909091 15:0 16:0 17:0.060606061 18:0.03030303 19:0.03030303 20:0.060606061 
-10 1:0.12121212 2:0.090909091 3:0.060606061 4:0 5:0.03030303 6:0.090909091 7:0.03030303 8:0.03030303 9:0.03030303 10:0.03030303 11:0.03030303 12:0.12121212 13:0.03030303 14:0.090909091 15:0.03030303 16:0 17:0.060606061 18:0.03030303 19:0.03030303 20:0.060606061 
-10 1:0.12121212 2:0.090909091 3:0.060606061 4:0 5:0.03030303 6:0.090909091 7:0.03030303 8:0.03030303 9:0.03030303 10:0.03030303 11:0.03030303 12:0.12121212 13:0.03030303 14:0.090909091 15:0.03030303 16:0 17:0.03030303 18:0.03030303 19:0.060606061 20:0.060606061 
-10 1:0.15151515 2:0.090909091 3:0.060606061 4:0 5:0.03030303 6:0.090909091 7:0 8:0.03030303 9:0.03030303 10:0.03030303 11:0.03030303 12:0.12121212 13:0.03030303 14:0.090909091 15:0.03030303 16:0 17:0.03030303 18:0.03030303 19:0.060606061 20:0.060606061 
-10 1:0.18181818 2:0.090909091 3:0.03030303 4:0 5:0.03030303 6:0.090909091 7:0 8:0.03030303 9:0.03030303 10:0.03030303 11:0.03030303 12:0.12121212 13:0.03030303 14:0.090909091 15:0.03030303 16:0 17:0.03030303 18:0.03030303 19:0.060606061 20:0.060606061 
