svm_type c_svc
kernel_type rbf
gamma 100
nr_class 2
total_sv 139
rho -0.244342
label 0 1
probA -1.07378
probB 0.00854211
nr_sv 70 69
SV
5 1:0.09352518 2:0.11990408 3:0.059952038 4:0.067146283 5:0.069544365 6:0.014388489 7:0.026378897 8:0.040767386 9:0.028776978 10:0.0095923261 11:0.040767386 12:0.069544365 13:0.057553957 14:0.043165468 15:0.040767386 16:0.043165468 17:0.057553957 18:0.0095923261 19:0.064748201 20:0.043165468 
4.933701092266304 1:0.10869565 2:0.10869565 3:0.059782609 4:0.10326087 5:0.043478261 6:0.027173913 7:0.02173913 8:0.016304348 9:0.010869565 10:0.0054347826 11:0.016304348 12:0.097826087 13:0.065217391 14:0.032608696 15:0.010869565 16:0.081521739 17:0.054347826 18:0.027173913 19:0.032608696 20:0.076086957 
4.779448436269991 1:0.095588235 2:0.13235294 3:0.066176471 4:0.10294118 5:0.073529412 6:0.022058824 7:0.029411765 8:0.080882353 9:0.022058824 10:0 11:0.044117647 12:0.11029412 13:0.044117647 14:0.029411765 15:0.044117647 16:0.014705882 17:0.014705882 18:0 19:0.022058824 20:0.051470588 
3.506920216156737 1:0.051643192 2:0.084507042 3:0.11267606 4:0.10798122 5:0.046948357 6:0.0093896714 7:0.028169014 8:0.023474178 9:0.023474178 10:0 11:0.046948357 12:0.098591549 13:0.061032864 14:0.03286385 15:0.042253521 16:0.014084507 17:0.0657277 18:0.0046948357 19:0.084507042 20:0.061032864 
0.9158853870280459 1:0.032258065 2:0.19354839 3:0.032258065 4:0.12903226 5:0.032258065 6:0.032258065 7:0.032258065 8:0.032258065 9:0.032258065 10:0.064516129 11:0.096774194 12:0.096774194 13:0 14:0 15:0.032258065 16:0 17:0 18:0 19:0.032258065 20:0.12903226 
1.145263482482036 1:0.047318612 2:0.047318612 3:0.072555205 4:0.10410095 5:0.034700315 6:0.018927445 7:0.018927445 8:0.050473186 9:0.028391167 10:0.028391167 11:0.075709779 12:0.072555205 13:0.056782334 14:0.03785489 15:0.034700315 16:0.056782334 17:0.056782334 18:0.041009464 19:0.063091483 20:0.05362776 
4.37069403849861 1:0.10852713 2:0.13953488 3:0.054263566 4:0.093023256 5:0.031007752 6:0.031007752 7:0.031007752 8:0.007751938 9:0.015503876 10:0.015503876 11:0.062015504 12:0.062015504 13:0.03875969 14:0.031007752 15:0.03875969 16:0.031007752 17:0.062015504 18:0.023255814 19:0.046511628 20:0.07751938 
3.811152594014762 1:0.041420118 2:0.094674556 3:0.065088757 4:0.071005917 5:0.041420118 6:0.0059171598 7:0.047337278 8:0.047337278 9:0.041420118 10:0.035502959 11:0.035502959 12:0.082840237 13:0.047337278 14:0.029585799 15:0.029585799 16:0.065088757 17:0.053254438 18:0.017751479 19:0.088757396 20:0.059171598 
2.806355067439792 1:0.065743945 2:0.096885813 3:0.065743945 4:0.12456747 5:0.048442907 6:0.017301038 7:0.034602076 8:0.027681661 9:0.027681661 10:0.01384083 11:0.041522491 12:0.065743945 13:0.041522491 14:0.048442907 15:0.027681661 16:0.044982699 17:0.062283737 18:0.020761246 19:0.065743945 20:0.058823529 
0.6036824688157748 1:0.095310136 2:0.10438729 3:0.068078669 4:0.077155825 5:0.051437216 6:0.015128593 7:0.027231467 8:0.031770045 9:0.034795764 10:0.0090771558 11:0.039334342 12:0.049924357 13:0.055975794 14:0.039334342 15:0.042360061 16:0.063540091 17:0.051437216 18:0.034795764 19:0.049924357 20:0.059001513 
1.755441908850788 1:0.11394892 2:0.094302554 3:0.088408644 4:0.070726916 5:0.074656189 6:0.019646365 7:0.021611002 8:0.031434185 9:0.021611002 10:0.0058939096 11:0.033398821 12:0.055009823 13:0.060903733 14:0.041257367 15:0.029469548 16:0.043222004 17:0.060903733 18:0.027504912 19:0.072691552 20:0.033398821 
0.6861193374648275 1:0.079310345 2:0.13448276 3:0.05862069 4:0.086206897 5:0.062068966 6:0.027586207 7:0.031034483 8:0.044827586 9:0.017241379 10:0.0068965517 11:0.037931034 12:0.044827586 13:0.044827586 14:0.037931034 15:0.04137931 16:0.044827586 17:0.068965517 18:0.0068965517 19:0.082758621 20:0.04137931 
1.26078152738517 1:0.080952381 2:0.080952381 3:0.047619048 4:0.13333333 5:0.019047619 6:0.0095238095 7:0.0095238095 8:0.019047619 9:0.038095238 10:0.023809524 11:0.052380952 12:0.09047619 13:0.080952381 14:0.033333333 15:0.033333333 16:0.061904762 17:0.047619048 18:0.014285714 19:0.061904762 20:0.061904762 
5 1:0.073170732 2:0.085365854 3:0.073170732 4:0.12804878 5:0.048780488 6:0.018292683 7:0.018292683 8:0.018292683 9:0.030487805 10:0.018292683 11:0.054878049 12:0.073170732 13:0.042682927 14:0.036585366 15:0.018292683 16:0.06097561 17:0.085365854 18:0.006097561 19:0.06097561 20:0.048780488 
5 1:0.077694236 2:0.095238095 3:0.065162907 4:0.07518797 5:0.047619048 6:0.01754386 7:0.010025063 8:0.030075188 9:0.042606516 10:0.020050125 11:0.05764411 12:0.052631579 13:0.055137845 14:0.045112782 15:0.040100251 16:0.062656642 17:0.062656642 18:0.012531328 19:0.052631579 20:0.077694236 
0.4251250046163608 1:0.08490566 2:0.11320755 3:0.047169811 4:0.056603774 5:0.047169811 6:0 7:0.028301887 8:0.028301887 9:0.0094339623 10:0.018867925 11:0 12:0.037735849 13:0.028301887 14:0.0094339623 15:0.066037736 16:0.037735849 17:0.13207547 18:0.056603774 19:0.094339623 20:0.10377358 
3.562974950833511 1:0.077922078 2:0.1012987 3:0.093506494 4:0.085714286 5:0.049350649 6:0.012987013 7:0.041558442 8:0.031168831 9:0.031168831 10:0.0051948052 11:0.033766234 12:0.067532468 13:0.044155844 14:0.041558442 15:0.031168831 16:0.033766234 17:0.07012987 18:0.033766234 19:0.064935065 20:0.049350649 
1.838852650847006 1:0.076372315 2:0.052505967 3:0.069212411 4:0.097852029 5:0.054892601 6:0.021479714 7:0.023866348 8:0.035799523 9:0.031026253 10:0.011933174 11:0.052505967 12:0.047732697 13:0.057279236 14:0.040572792 15:0.033412888 16:0.066825776 17:0.064439141 18:0.021479714 19:0.059665871 20:0.081145585 
2.540205896091426 1:0.095842956 2:0.062355658 3:0.071593533 4:0.098152425 5:0.050808314 6:0.0080831409 7:0.021939954 8:0.032332564 9:0.042725173 10:0.018475751 11:0.057736721 12:0.053117783 13:0.053117783 14:0.034642032 15:0.042725173 16:0.042725173 17:0.073903002 18:0.023094688 19:0.065819861 20:0.050808314 
0.6527547641860439 1:0.078393881 2:0.10707457 3:0.07456979 4:0.07456979 5:0.057361377 6:0.015296367 7:0.034416826 8:0.040152964 9:0.013384321 10:0.013384321 11:0.061185468 12:0.051625239 13:0.06500956 14:0.06500956 15:0.049713193 16:0.036328872 17:0.055449331 18:0.013384321 19:0.063097514 20:0.030592734 
5 1:0.065439673 2:0.09406953 3:0.061349693 4:0.10633947 5:0.057259714 6:0.026584867 7:0.026584867 8:0.026584867 9:0.028629857 10:0.014314928 11:0.030674847 12:0.067484663 13:0.067484663 14:0.044989775 15:0.030674847 16:0.044989775 17:0.071574642 18:0.026584867 19:0.038854806 20:0.069529652 
2.027977043354011 1:0.075268817 2:0.059139785 3:0.075268817 4:0.059139785 5:0.010752688 6:0.010752688 7:0.064516129 8:0.02688172 9:0.075268817 10:0.037634409 11:0.10752688 12:0.037634409 13:0.02688172 14:0.037634409 15:0.037634409 16:0.064516129 17:0.053763441 18:0.032258065 19:0.032258065 20:0.075268817 
5 1:0.10773481 2:0.1160221 3:0.078268877 4:0.10957643 5:0.064456722 6:0.011970534 7:0.032228361 8:0.033149171 9:0.032228361 10:0.0036832413 11:0.049723757 12:0.057090239 13:0.065377532 14:0.036832413 15:0.032228361 16:0.034990792 17:0.039594843 18:0.014732965 19:0.057090239 20:0.022099448 
1.488878702795834 1:0.051597052 2:0.073710074 3:0.071253071 4:0.088452088 5:0.049140049 6:0.014742015 7:0.029484029 8:0.044226044 9:0.061425061 10:0.012285012 11:0.051597052 12:0.056511057 13:0.031941032 14:0.039312039 15:0.049140049 16:0.073710074 17:0.058968059 18:0.014742015 19:0.066339066 20:0.061425061 
3.579450713142855 1:0.066312997 2:0.071618037 3:0.10079576 4:0.076923077 5:0.061007958 6:0.0053050398 7:0.021220159 8:0.061007958 9:0.029177719 10:0.015915119 11:0.058355438 12:0.074270557 13:0.050397878 14:0.029177719 15:0.018567639 16:0.045092838 17:0.047745358 18:0.037135279 19:0.053050398 20:0.076923077 
5 1:0.066390041 2:0.066390041 3:0.078838174 4:0.087136929 5:0.074688797 6:0.014522822 7:0.026970954 8:0.043568465 9:0.029045643 10:0.0082987552 11:0.058091286 12:0.064315353 13:0.060165975 14:0.039419087 15:0.033195021 16:0.049792531 17:0.058091286 18:0.020746888 19:0.085062241 20:0.03526971 
5 1:0.073852295 2:0.089820359 3:0.075848303 4:0.089820359 5:0.069860279 6:0.0079840319 7:0.011976048 8:0.025948104 9:0.0079840319 10:0.015968064 11:0.085828343 12:0.073852295 13:0.057884232 14:0.025948104 15:0.031936128 16:0.057884232 17:0.05988024 18:0.0099800399 19:0.073852295 20:0.053892216 
5 1:0.071123755 2:0.086770982 3:0.095305832 4:0.081081081 5:0.06116643 6:0.015647226 7:0.031294452 8:0.031294452 9:0.025604552 10:0.0071123755 11:0.034139403 12:0.075391181 13:0.045519203 14:0.038406828 15:0.034139403 16:0.056899004 17:0.06685633 18:0.022759602 19:0.06401138 20:0.055476529 
5 1:0.06640625 2:0.1015625 3:0.08984375 4:0.1015625 5:0.0390625 6:0.0234375 7:0.0078125 8:0.0546875 9:0.0234375 10:0.01171875 11:0.0546875 12:0.09375 13:0.0546875 14:0.04296875 15:0.0234375 16:0.046875 17:0.0390625 18:0.03515625 19:0.05078125 20:0.0390625 
5 1:0.059790732 2:0.065769806 3:0.061285501 4:0.083707025 5:0.056801196 6:0.013452915 7:0.035874439 8:0.038863976 9:0.041853513 10:0.0029895366 11:0.040358744 12:0.077727952 13:0.055306428 14:0.037369208 15:0.044843049 16:0.052316891 17:0.073243647 18:0.014947683 19:0.070254111 20:0.073243647 
0.5446362279105548 1:0.024390244 2:0.12682927 3:0.073170732 4:0.097560976 5:0.019512195 6:0.0048780488 7:0.024390244 8:0.019512195 9:0.014634146 10:0.014634146 11:0.043902439 12:0.024390244 13:0.024390244 14:0.034146341 15:0.068292683 16:0.024390244 17:0.12682927 18:0.024390244 19:0.048780488 20:0.16097561 
0.2755532388858802 1:0.059907834 2:0.078341014 3:0.036866359 4:0.10599078 5:0.059907834 6:0.01843318 7:0.0092165899 8:0.032258065 9:0.032258065 10:0.032258065 11:0.055299539 12:0.055299539 13:0.046082949 14:0.055299539 15:0.055299539 16:0.041474654 17:0.069124424 18:0.036866359 19:0.092165899 20:0.02764977 
0.7727481425885899 1:0.091407678 2:0.091407678 3:0.074954296 4:0.089579525 5:0.065813528 6:0.0073126143 7:0.020109689 8:0.032906764 9:0.02559415 10:0.0018281536 11:0.054844607 12:0.058500914 13:0.074954296 14:0.023765996 15:0.043875686 16:0.0511883 17:0.071297989 18:0.012797075 19:0.0511883 20:0.056672761 
2.436135440941898 1:0.045685279 2:0.096446701 3:0.096446701 4:0.081218274 5:0.050761421 6:0 7:0.010152284 8:0.050761421 9:0.010152284 10:0.0050761421 11:0.07106599 12:0.086294416 13:0.11167513 14:0.035532995 15:0.035532995 16:0.050761421 17:0.050761421 18:0.010152284 19:0.050761421 20:0.050761421 
0.04049134342359477 1:0.064615385 2:0.08 3:0.076923077 4:0.08 5:0.043076923 6:0.0092307692 7:0.049230769 8:0.036923077 9:0.043076923 10:0.027692308 11:0.046153846 12:0.046153846 13:0.052307692 14:0.030769231 15:0.018461538 16:0.04 17:0.083076923 18:0.04 19:0.070769231 20:0.061538462 
5 1:0.052795031 2:0.090062112 3:0.052795031 4:0.10248447 5:0.062111801 6:0.01242236 7:0.02173913 8:0.037267081 9:0.01863354 10:0.01552795 11:0.049689441 12:0.11801242 13:0.074534161 14:0.031055901 15:0.02173913 16:0.052795031 17:0.049689441 18:0.02484472 19:0.052795031 20:0.059006211 
5 1:0.0969163 2:0.068281938 3:0.0969163 4:0.079295154 5:0.063876652 6:0.0088105727 7:0.030837004 8:0.037444934 9:0.024229075 10:0.0022026432 11:0.050660793 12:0.061674009 13:0.063876652 14:0.024229075 15:0.026431718 16:0.057268722 17:0.068281938 18:0.022026432 19:0.063876652 20:0.052863436 
5 1:0.085889571 2:0.10429448 3:0.085889571 4:0.09202454 5:0.024539877 6:0.018404908 7:0.024539877 8:0.024539877 9:0.018404908 10:0.018404908 11:0.055214724 12:0.14110429 13:0.036809816 14:0.030674847 15:0.0061349693 16:0.036809816 17:0.085889571 18:0.036809816 19:0.061349693 20:0.012269939 
5 1:0.094527363 2:0.11442786 3:0.084577114 4:0.099502488 5:0.029850746 6:0.0099502488 7:0.014925373 8:0.059701493 9:0.024875622 10:0.0049751244 11:0.044776119 12:0.069651741 13:0.059701493 14:0.074626866 15:0.014925373 16:0.049751244 17:0.024875622 18:0.0049751244 19:0.064676617 20:0.054726368 
5 1:0.081481481 2:0.10074074 3:0.068148148 4:0.082962963 5:0.065185185 6:0.0044444444 7:0.016296296 8:0.031111111 9:0.013333333 10:0.0014814815 11:0.037037037 12:0.084444444 13:0.068148148 14:0.044444444 15:0.041481481 16:0.059259259 17:0.071111111 18:0.0059259259 19:0.075555556 20:0.047407407 
5 1:0.08985025 2:0.091514143 3:0.076539101 4:0.099833611 5:0.056572379 6:0.0099833611 7:0.03327787 8:0.043261231 9:0.024958403 10:0.011647255 11:0.049916805 12:0.049916805 13:0.036605657 14:0.039933444 15:0.031613977 16:0.064891847 17:0.058236273 18:0.023294509 19:0.044925125 20:0.063227953 
5 1:0.092436975 2:0.1092437 3:0.054621849 4:0.071428571 5:0.079831933 6:0.0084033613 7:0.016806723 8:0.046218487 9:0.025210084 10:0.016806723 11:0.042016807 12:0.11344538 13:0.029411765 14:0.025210084 15:0.029411765 16:0.046218487 17:0.054621849 18:0.012605042 19:0.071428571 20:0.054621849 
5 1:0.094527363 2:0.10447761 3:0.07960199 4:0.074626866 5:0.059701493 6:0.0099502488 7:0.0099502488 8:0.049751244 9:0.019900498 10:0.014925373 11:0.034825871 12:0.11940299 13:0.029850746 14:0.024875622 15:0.019900498 16:0.064676617 17:0.044776119 18:0.014925373 19:0.094527363 20:0.034825871 
5 1:0.076923077 2:0.091575092 3:0.095238095 4:0.095238095 5:0.032967033 6:0.014652015 7:0.0073260073 8:0.047619048 9:0.025641026 10:0.014652015 11:0.080586081 12:0.091575092 13:0.032967033 14:0.032967033 15:0.010989011 16:0.062271062 17:0.043956044 18:0.018315018 19:0.04029304 20:0.084249084 
3.255551249465346 1:0.024 2:0.08 3:0.088 4:0.064 5:0.088 6:0.008 7:0.024 8:0.04 9:0.024 10:0 11:0.032 12:0.12 13:0.04 14:0.056 15:0.04 16:0.096 17:0.056 18:0.008 19:0.048 20:0.064 
0.2438698014653484 1:0.089552239 2:0.083955224 3:0.085820896 4:0.10447761 5:0.061567164 6:0.01119403 7:0.020522388 8:0.027985075 9:0.029850746 10:0.0037313433 11:0.046641791 12:0.072761194 13:0.042910448 14:0.02238806 15:0.044776119 16:0.042910448 17:0.067164179 18:0.01119403 19:0.059701493 20:0.070895522 
3.898618410893599 1:0.05625 2:0.0875 3:0.10625 4:0.0875 5:0.05 6:0.00625 7:0.03125 8:0.03125 9:0.03125 10:0 11:0.05625 12:0.1 13:0.025 14:0.03125 15:0.0625 16:0.0375 17:0.08125 18:0.0125 19:0.075 20:0.03125 
1.619686623191746 1:0.061320755 2:0.099056604 3:0.08490566 4:0.13207547 5:0.047169811 6:0.0047169811 7:0.0047169811 8:0.037735849 9:0.014150943 10:0 11:0.037735849 12:0.094339623 13:0.04245283 14:0.061320755 15:0.023584906 16:0.047169811 17:0.051886792 18:0.014150943 19:0.10849057 20:0.033018868 
5 1:0.075055188 2:0.090507726 3:0.066225166 4:0.079470199 5:0.055187638 6:0.0088300221 7:0.026490066 8:0.048565121 9:0.028697572 10:0.0022075055 11:0.072847682 12:0.090507726 13:0.072847682 14:0.055187638 15:0.030905077 16:0.04415011 17:0.046357616 18:0.01986755 19:0.035320088 20:0.050772627 
5 1:0.079268293 2:0.073170732 3:0.06097561 4:0.091463415 5:0.030487805 6:0.018292683 7:0.042682927 8:0.024390244 9:0.030487805 10:0.006097561 11:0.054878049 12:0.097560976 13:0.048780488 14:0.036585366 15:0.024390244 16:0.06097561 17:0.06097561 18:0.024390244 19:0.048780488 20:0.085365854 
5 1:0.071197411 2:0.11650485 3:0.051779935 4:0.080906149 5:0.03236246 6:0.012944984 7:0.019417476 8:0.038834951 9:0.045307443 10:0.019417476 11:0.071197411 12:0.071197411 13:0.064724919 14:0.035598706 15:0.022653722 16:0.048543689 17:0.058252427 18:0.025889968 19:0.061488673 20:0.051779935 
3.280833752135169 1:0.082851638 2:0.094412331 3:0.092485549 4:0.073217726 5:0.05973025 6:0.013487476 7:0.015414258 8:0.044315992 9:0.030828516 10:0.0096339114 11:0.040462428 12:0.061657033 13:0.063583815 14:0.044315992 15:0.030828516 16:0.053949904 17:0.052023121 18:0.015414258 19:0.078998073 20:0.04238921 
0.2256223491518216 1:0.02173913 2:0.039130435 3:0.07826087 4:0.10869565 5:0.052173913 6:0.0043478261 7:0.0086956522 8:0.056521739 9:0.0086956522 10:0 11:0.043478261 12:0.069565217 13:0.069565217 14:0.065217391 15:0.039130435 16:0.056521739 17:0.069565217 18:0.0086956522 19:0.15217391 20:0.047826087 
5 1:0.071895425 2:0.074074074 3:0.071895425 4:0.078431373 5:0.043572985 6:0.0065359477 7:0.019607843 8:0.061002179 9:0.050108932 10:0.015250545 11:0.050108932 12:0.08496732 13:0.058823529 14:0.043572985 15:0.032679739 16:0.045751634 17:0.039215686 18:0.02832244 19:0.078431373 20:0.045751634 
0.9225512623833723 1:0.058823529 2:0.058823529 3:0.035294118 4:0.094117647 5:0.023529412 6:0 7:0.023529412 8:0.047058824 9:0.011764706 10:0 11:0.023529412 12:0.10588235 13:0.047058824 14:0.011764706 15:0.070588235 16:0.047058824 17:0.10588235 18:0.011764706 19:0.094117647 20:0.12941176 
5 1:0.073369565 2:0.08423913 3:0.089673913 4:0.092391304 5:0.070652174 6:0.0081521739 7:0.010869565 8:0.029891304 9:0.027173913 10:0.0027173913 11:0.048913043 12:0.089673913 13:0.070652174 14:0.046195652 15:0.024456522 16:0.048913043 17:0.054347826 18:0.02173913 19:0.067934783 20:0.038043478 
1.05942267745699 1:0.074738416 2:0.089686099 3:0.083707025 4:0.089686099 5:0.058295964 6:0.0059790732 7:0.028400598 8:0.046337818 9:0.01793722 10:0.0089686099 11:0.053811659 12:0.071748879 13:0.061285501 14:0.032884903 15:0.032884903 16:0.047832586 17:0.050822123 18:0.025411061 19:0.068759342 20:0.050822123 
5 1:0.026315789 2:0.078947368 3:0.07518797 4:0.078947368 5:0.041353383 6:0.0037593985 7:0.018796992 8:0.063909774 9:0.030075188 10:0.007518797 11:0.041353383 12:0.10150376 13:0.052631579 14:0.078947368 15:0.030075188 16:0.04887218 17:0.12030075 18:0.011278195 19:0.04887218 20:0.041353383 
5 1:0.087136929 2:0.064315353 3:0.058091286 4:0.10788382 5:0.047717842 6:0.012448133 7:0.029045643 8:0.039419087 9:0.041493776 10:0.0062240664 11:0.047717842 12:0.078838174 13:0.049792531 14:0.056016598 15:0.041493776 16:0.039419087 17:0.072614108 18:0.022821577 19:0.058091286 20:0.039419087 
1.128638978960206 1:0.064327485 2:0.079922027 3:0.056530214 4:0.10916179 5:0.066276803 6:0 7:0.011695906 8:0.054580897 9:0.035087719 10:0.007797271 11:0.050682261 12:0.070175439 13:0.06042885 14:0.056530214 15:0.029239766 16:0.038986355 17:0.06042885 18:0.021442495 19:0.083820663 20:0.04288499 
1.352291526438264 1:0.056 2:0.072 3:0.074666667 4:0.058666667 5:0.074666667 6:0.0053333333 7:0.024 8:0.045333333 9:0.042666667 10:0.008 11:0.048 12:0.050666667 13:0.064 14:0.045333333 15:0.029333333 16:0.058666667 17:0.077333333 18:0.029333333 19:0.050666667 20:0.085333333 
5 1:0.057971014 2:0.12008282 3:0.074534161 4:0.072463768 5:0.062111801 6:0.0062111801 7:0.037267081 8:0.022774327 9:0.022774327 10:0.0020703934 11:0.060041408 12:0.070393375 13:0.066252588 14:0.049689441 15:0.026915114 16:0.053830228 17:0.062111801 18:0.01242236 19:0.076604555 20:0.043478261 
5 1:0.078378378 2:0.11621622 3:0.081081081 4:0.081081081 5:0.045945946 6:0.0081081081 7:0.02972973 8:0.037837838 9:0.013513514 10:0.010810811 11:0.059459459 12:0.078378378 13:0.051351351 14:0.027027027 15:0.024324324 16:0.040540541 17:0.067567568 18:0.035135135 19:0.062162162 20:0.051351351 
5 1:0.072 2:0.05 3:0.074 4:0.096 5:0.042 6:0.01 7:0.028 8:0.066 9:0.026 10:0.016 11:0.044 12:0.086 13:0.052 14:0.056 15:0.034 16:0.042 17:0.06 18:0.024 19:0.064 20:0.058 
5 1:0.042704626 2:0.060498221 3:0.053380783 4:0.099644128 5:0.053380783 6:0 7:0.014234875 8:0.049822064 9:0.03202847 10:0.017793594 11:0.046263345 12:0.085409253 13:0.053380783 14:0.049822064 15:0.028469751 16:0.06405694 17:0.074733096 18:0.017793594 19:0.11032028 20:0.046263345 
2.396886927549276 1:0.03649635 2:0.02189781 3:0.065693431 4:0.094890511 5:0.087591241 6:0.0072992701 7:0.04379562 8:0.03649635 9:0.02189781 10:0.0072992701 11:0.058394161 12:0.051094891 13:0.04379562 14:0.058394161 15:0.051094891 16:0.051094891 17:0.065693431 18:0.04379562 19:0.10218978 20:0.051094891 
2.380691685528469 1:0.070707071 2:0.090909091 3:0.035353535 4:0.16666667 5:0.060606061 6:0 7:0.025252525 8:0.050505051 9:0.045454545 10:0.02020202 11:0.025252525 12:0.095959596 13:0.080808081 14:0.035353535 15:0.025252525 16:0.0050505051 17:0.03030303 18:0.025252525 19:0.065656566 20:0.045454545 
5 1:0.067404427 2:0.094567404 3:0.072434608 4:0.09054326 5:0.03722334 6:0.011066398 7:0.019114688 8:0.035211268 9:0.027162978 10:0.022132797 11:0.062374245 12:0.078470825 13:0.055331992 14:0.027162978 15:0.033199195 16:0.049295775 17:0.07444668 18:0.02917505 19:0.070422535 20:0.043259557 
5 1:0.081871345 2:0.10233918 3:0.067251462 4:0.067251462 5:0.076023392 6:0.011695906 7:0.029239766 8:0.040935673 9:0.026315789 10:0.0058479532 11:0.040935673 12:0.076023392 13:0.070175439 14:0.040935673 15:0.026315789 16:0.040935673 17:0.070175439 18:0.020467836 19:0.058479532 20:0.046783626 
1.366346535910238 1:0.054347826 2:0.095108696 3:0.089673913 4:0.12771739 5:0.032608696 6:0.0027173913 7:0.0027173913 8:0.048913043 9:0.04076087 10:0 11:0.032608696 12:0.086956522 13:0.051630435 14:0.048913043 15:0.024456522 16:0.067934783 17:0.057065217 18:0.0081521739 19:0.08423913 20:0.043478261 
-5.5 1:0.086859688 2:0.082405345 3:0.066815145 4:0.10022272 5:0.062360802 6:0.008908686 7:0.026726058 8:0.033407572 9:0.033407572 10:0.008908686 11:0.048997773 12:0.086859688 13:0.064587973 14:0.033407572 15:0.033407572 16:0.04454343 17:0.040089087 18:0.028953229 19:0.055679287 20:0.053452116 
-0.8097195898571108 1:0.057142857 2:0.11428571 3:0.078571429 4:0.092857143 5:0.057142857 6:0.021428571 7:0.021428571 8:0.035714286 9:0 10:0 11:0.042857143 12:0.17142857 13:0.021428571 14:0.0071428571 15:0.035714286 16:0.042857143 17:0.078571429 18:0.0071428571 19:0.085714286 20:0.028571429 
-5.5 1:0.067391304 2:0.1076087 3:0.079347826 4:0.091304348 5:0.059782609 6:0.014130435 7:0.02173913 8:0.035869565 9:0.023913043 10:0.011956522 11:0.040217391 12:0.081521739 13:0.059782609 14:0.035869565 15:0.026086957 16:0.057608696 17:0.05326087 18:0.022826087 19:0.05 20:0.059782609 
-2.380013424896806 1:0.082692308 2:0.082692308 3:0.088461538 4:0.096153846 5:0.053846154 6:0.021153846 7:0.032692308 8:0.021153846 9:0.023076923 10:0.0076923077 11:0.048076923 12:0.092307692 13:0.065384615 14:0.038461538 15:0.021153846 16:0.053846154 17:0.055769231 18:0.0096153846 19:0.057692308 20:0.048076923 
-5.5 1:0.068493151 2:0.082191781 3:0.082191781 4:0.085616438 5:0.047945205 6:0.01369863 7:0.023972603 8:0.02739726 9:0.037671233 10:0.01369863 11:0.034246575 12:0.089041096 13:0.044520548 14:0.037671233 15:0.037671233 16:0.051369863 17:0.061643836 18:0.023972603 19:0.058219178 20:0.078767123 
-5.5 1:0.043824701 2:0.083665339 3:0.059760956 4:0.11952191 5:0.071713147 6:0 7:0.015936255 8:0.047808765 9:0.019920319 10:0 11:0.03187251 12:0.091633466 13:0.09561753 14:0.035856574 15:0.035856574 16:0.059760956 17:0.035856574 18:0.027888446 19:0.087649402 20:0.035856574 
-5.5 1:0.042553191 2:0.074468085 3:0.079787234 4:0.1143617 5:0.061170213 6:0.021276596 7:0.013297872 8:0.037234043 9:0.018617021 10:0.0026595745 11:0.050531915 12:0.095744681 13:0.058510638 14:0.04787234 15:0.037234043 16:0.053191489 17:0.071808511 18:0.0026595745 19:0.063829787 20:0.053191489 
-5.5 1:0.087628866 2:0.085051546 3:0.090206186 4:0.092783505 5:0.046391753 6:0.010309278 7:0.025773196 8:0.025773196 9:0.054123711 10:0.0077319588 11:0.048969072 12:0.056701031 13:0.059278351 14:0.043814433 15:0.033505155 16:0.046391753 17:0.059278351 18:0.010309278 19:0.072164948 20:0.043814433 
-0.2497342427950546 1:0.097560976 2:0.10569106 3:0.052845528 4:0.093495935 5:0.056910569 6:0.016260163 7:0.032520325 8:0.048780488 9:0.028455285 10:0.024390244 11:0.085365854 12:0.069105691 13:0.032520325 14:0.036585366 15:0.028455285 16:0.036585366 17:0.056910569 18:0.016260163 19:0.056910569 20:0.024390244 
-2.016236112449256 1:0.12313433 2:0.11567164 3:0.074626866 4:0.10074627 5:0.03358209 6:0.0037313433 7:0.026119403 8:0.070895522 9:0.026119403 10:0.02238806 11:0.059701493 12:0.048507463 13:0.03358209 14:0.044776119 15:0.029850746 16:0.055970149 17:0.044776119 18:0.01119403 19:0.037313433 20:0.037313433 
-0.573992846306841 1:0.093283582 2:0.089552239 3:0.063432836 4:0.1119403 5:0.052238806 6:0.014925373 7:0.026119403 8:0.055970149 9:0.03358209 10:0.018656716 11:0.052238806 12:0.085820896 13:0.048507463 14:0.041044776 15:0.014925373 16:0.03358209 17:0.055970149 18:0.018656716 19:0.052238806 20:0.037313433 
-1.058062822389589 1:0.049751244 2:0.087064677 3:0.11442786 4:0.10945274 5:0.054726368 6:0.0049751244 7:0.032338308 8:0.059701493 9:0.02238806 10:0.014925373 11:0.067164179 12:0.12189055 13:0.059701493 14:0.042288557 15:0.024875622 16:0.012437811 17:0.019900498 18:0.014925373 19:0.054726368 20:0.032338308 
-5.5 1:0.064356436 2:0.099009901 3:0.091584158 4:0.10148515 5:0.071782178 6:0.012376238 7:0.027227723 8:0.069306931 9:0.034653465 10:0.014851485 11:0.04950495 12:0.089108911 13:0.061881188 14:0.034653465 15:0.022277228 16:0.014851485 17:0.032178218 18:0.017326733 19:0.056930693 20:0.034653465 
-5.5 1:0.086734694 2:0.10969388 3:0.06377551 4:0.091836735 5:0.079081633 6:0.012755102 7:0.022959184 8:0.030612245 9:0.020408163 10:0.0025510204 11:0.053571429 12:0.089285714 13:0.053571429 14:0.028061224 15:0.033163265 16:0.025510204 17:0.079081633 18:0.0076530612 19:0.071428571 20:0.038265306 
-2.514804739224868 1:0.087628866 2:0.06185567 3:0.082474227 4:0.082474227 5:0.054123711 6:0.012886598 7:0.025773196 8:0.036082474 9:0.030927835 10:0.010309278 11:0.082474227 12:0.082474227 13:0.059278351 14:0.043814433 15:0.018041237 16:0.041237113 17:0.056701031 18:0.036082474 19:0.041237113 20:0.054123711 
-0.8226172780648402 1:0.071180556 2:0.071180556 3:0.046875 4:0.09375 5:0.069444444 6:0.0052083333 7:0.015625 8:0.052083333 9:0.026041667 10:0.03125 11:0.071180556 12:0.074652778 13:0.036458333 14:0.041666667 15:0.038194444 16:0.072916667 17:0.059027778 18:0.017361111 19:0.053819444 20:0.052083333 
-0.3108372107212393 1:0.11377246 2:0.17964072 3:0.05988024 4:0.095808383 5:0.041916168 6:0 7:0.05988024 8:0.035928144 9:0.005988024 10:0.017964072 11:0.065868263 12:0.071856287 13:0.05988024 14:0.041916168 15:0.023952096 16:0.011976048 17:0.041916168 18:0 19:0.011976048 20:0.05988024 
-5.5 1:0.10359408 2:0.10782241 3:0.059196617 4:0.071881607 5:0.067653277 6:0.019027484 7:0.025369979 8:0.040169133 9:0.021141649 10:0.0042283298 11:0.044397463 12:0.084566596 13:0.044397463 14:0.050739958 15:0.027484144 16:0.050739958 17:0.048625793 18:0.023255814 19:0.050739958 20:0.054968288 
-4.682296953107382 1:0.044742729 2:0.073825503 3:0.053691275 4:0.080536913 5:0.082774049 6:0.013422819 7:0.029082774 8:0.042505593 9:0.033557047 10:0.040268456 11:0.067114094 12:0.071588367 13:0.062639821 14:0.042505593 15:0.033557047 16:0.035794183 17:0.040268456 18:0.044742729 19:0.062639821 20:0.044742729 
-4.62272231311225 1:0.076923077 2:0.053050398 3:0.079575597 4:0.071618037 5:0.039787798 6:0.018567639 7:0.029177719 8:0.037135279 9:0.045092838 10:0.015915119 11:0.071618037 12:0.076923077 13:0.039787798 14:0.058355438 15:0.021220159 16:0.050397878 17:0.061007958 18:0.023872679 19:0.082228117 20:0.047745358 
-3.493777851283295 1:0.05019305 2:0.065637066 3:0.081081081 4:0.12741313 5:0.030888031 6:0.0038610039 7:0.023166023 8:0.046332046 9:0.034749035 10:0.0038610039 11:0.019305019 12:0.12741313 13:0.027027027 14:0.05019305 15:0.027027027 16:0.038610039 17:0.092664093 18:0.034749035 19:0.081081081 20:0.034749035 
-5.5 1:0.046875 2:0.08203125 3:0.07421875 4:0.1171875 5:0.03515625 6:0.0078125 7:0.0234375 8:0.04296875 9:0.03515625 10:0.00390625 11:0.03125 12:0.078125 13:0.03125 14:0.0546875 15:0.0390625 16:0.046875 17:0.10546875 18:0.03125 19:0.078125 20:0.03515625 
-2.291317016996615 1:0.027777778 2:0.090277778 3:0.055555556 4:0.048611111 5:0.041666667 6:0.055555556 7:0.041666667 8:0.055555556 9:0.020833333 10:0.0069444444 11:0.0625 12:0.083333333 13:0.048611111 14:0.020833333 15:0.034722222 16:0.076388889 17:0.0625 18:0.020833333 19:0.069444444 20:0.076388889 
-5.5 1:0.080536913 2:0.10514541 3:0.10961969 4:0.07606264 5:0.055928412 6:0.017897092 7:0.020134228 8:0.029082774 9:0.015659955 10:0.011185682 11:0.044742729 12:0.073825503 13:0.058165548 14:0.040268456 15:0.020134228 16:0.06935123 17:0.044742729 18:0.020134228 19:0.064876957 20:0.042505593 
-2.212356881448922 1:0.091364205 2:0.068836045 3:0.067584481 4:0.067584481 5:0.042553191 6:0.010012516 7:0.032540676 8:0.060075094 9:0.050062578 10:0.017521902 11:0.050062578 12:0.062578223 13:0.043804756 14:0.038798498 15:0.023779725 16:0.072590738 17:0.056320401 18:0.042553191 19:0.038798498 20:0.062578223 
-5.5 1:0.090965347 2:0.096534653 3:0.074257426 4:0.095915842 5:0.053217822 6:0.016089109 7:0.023514851 8:0.030940594 9:0.025371287 10:0.011138614 11:0.05259901 12:0.070544554 13:0.047029703 14:0.038366337 15:0.038985149 16:0.050123762 17:0.0625 18:0.016707921 19:0.048267327 20:0.056930693 
-1.964611100946134 1:0.046610169 2:0.055084746 3:0.063559322 4:0.063559322 5:0.046610169 6:0.012711864 7:0.012711864 8:0.11016949 9:0.021186441 10:0.0042372881 11:0.063559322 12:0.11440678 13:0.06779661 14:0.055084746 15:0.042372881 16:0.046610169 17:0.042372881 18:0.0042372881 19:0.1059322 20:0.021186441 
-5.5 1:0.083657588 2:0.064202335 3:0.070038911 4:0.10505837 5:0.029182879 6:0.013618677 7:0.040856031 8:0.044747082 9:0.036964981 10:0.017509728 11:0.052529183 12:0.054474708 13:0.06614786 14:0.029182879 15:0.031128405 16:0.050583658 17:0.075875486 18:0.015564202 19:0.058365759 20:0.060311284 
-2.174321524754479 1:0.07183908 2:0.094827586 3:0.057471264 4:0.086206897 5:0.057471264 6:0.020114943 7:0.025862069 8:0.037356322 9:0.020114943 10:0.025862069 11:0.040229885 12:0.11206897 13:0.051724138 14:0.022988506 15:0.031609195 16:0.048850575 17:0.063218391 18:0.022988506 19:0.07183908 20:0.037356322 
-5.5 1:0.063106796 2:0.11650485 3:0.075242718 4:0.082524272 5:0.046116505 6:0.012135922 7:0.031553398 8:0.031553398 9:0.038834951 10:0.0024271845 11:0.084951456 12:0.075242718 13:0.029126214 14:0.031553398 15:0.029126214 16:0.060679612 17:0.058252427 18:0.014563107 19:0.041262136 20:0.075242718 
-5.5 1:0.058823529 2:0.12333966 3:0.089184061 4:0.092979127 5:0.05313093 6:0.017077799 7:0.034155598 8:0.018975332 9:0.011385199 10:0.009487666 11:0.022770398 12:0.077798861 13:0.041745731 14:0.030360531 15:0.022770398 16:0.045540797 17:0.087286528 18:0.018975332 19:0.072106262 20:0.072106262 
-1.352867607541323 1:0.068541301 2:0.086115993 3:0.059753954 4:0.091388401 5:0.059753954 6:0.012302285 7:0.019332162 8:0.049209139 9:0.019332162 10:0.012302285 11:0.052724077 12:0.10369069 13:0.050966608 14:0.038664323 15:0.042179262 16:0.050966608 17:0.066783831 18:0.010544815 19:0.040421793 20:0.065026362 
-5.5 1:0.088669951 2:0.10098522 3:0.071428571 4:0.098522167 5:0.068965517 6:0.0098522167 7:0.02955665 8:0.034482759 9:0.024630542 10:0.0049261084 11:0.051724138 12:0.054187192 13:0.041871921 14:0.041871921 15:0.024630542 16:0.0591133 17:0.068965517 18:0.012315271 19:0.061576355 20:0.051724138 
-1.10035034679736 1:0.098194946 2:0.18194946 3:0.051263538 4:0.10108303 5:0.01299639 6:0.0079422383 7:0.019494585 8:0.014440433 9:0.015884477 10:0.01299639 11:0.067870036 12:0.092418773 13:0.028880866 14:0.024548736 15:0.038267148 16:0.05198556 17:0.053429603 18:0.02166065 19:0.018050542 20:0.086642599 
-0.7699412361069699 1:0.090909091 2:0.2020202 3:0.090909091 4:0.050505051 5:0.015151515 6:0.01010101 7:0.01010101 8:0.050505051 9:0.01010101 10:0.0050505051 11:0.080808081 12:0.060606061 13:0.045454545 14:0.03030303 15:0.03030303 16:0.035353535 17:0.04040404 18:0.0050505051 19:0.090909091 20:0.045454545 
-5.5 1:0.059006211 2:0.078674948 3:0.064182195 4:0.077639752 5:0.065217391 6:0.011387164 7:0.016563147 8:0.049689441 9:0.036231884 10:0.017598344 11:0.038302277 12:0.063146998 13:0.055900621 14:0.049689441 15:0.025879917 16:0.055900621 17:0.092132505 18:0.022774327 19:0.073498965 20:0.046583851 
-1.054560732120147 1:0.077380952 2:0.1547619 3:0.095238095 4:0.053571429 5:0.053571429 6:0.005952381 7:0.035714286 8:0.047619048 9:0.011904762 10:0 11:0.047619048 12:0.14880952 13:0.035714286 14:0.047619048 15:0.005952381 16:0.047619048 17:0.047619048 18:0.011904762 19:0.06547619 20:0.005952381 
-1.201943954014014 1:0.058315335 2:0.086393089 3:0.058315335 4:0.084233261 5:0.05399568 6:0.012958963 7:0.028077754 8:0.047516199 9:0.028077754 10:0.0086393089 11:0.079913607 12:0.11231102 13:0.041036717 14:0.043196544 15:0.036717063 16:0.041036717 17:0.060475162 18:0.034557235 19:0.03887689 20:0.045356371 
-5.5 1:0.090241343 2:0.084994753 3:0.07660021 4:0.090241343 5:0.051416579 6:0.014690451 7:0.0409234 8:0.03567681 9:0.018887723 10:0.0083945435 11:0.050367261 12:0.061909759 13:0.053515215 14:0.038824764 15:0.03567681 16:0.055613851 17:0.068205666 18:0.017838405 19:0.049317943 20:0.056663169 
-5.5 1:0.081012658 2:0.13924051 3:0.06835443 4:0.10126582 5:0.032911392 6:0.010126582 7:0.020253165 8:0.037974684 9:0.025316456 10:0.010126582 11:0.040506329 12:0.083544304 13:0.063291139 14:0.035443038 15:0.02278481 16:0.040506329 17:0.053164557 18:0.017721519 19:0.065822785 20:0.050632911 
-5.5 1:0.096715328 2:0.074817518 3:0.078467153 4:0.098540146 5:0.045620438 6:0.012773723 7:0.020072993 8:0.038321168 9:0.02919708 10:0.010948905 11:0.072992701 12:0.089416058 13:0.052919708 14:0.03649635 15:0.023722628 16:0.041970803 17:0.051094891 18:0.010948905 19:0.056569343 20:0.058394161 
-3.448472101231233 1:0.054455446 2:0.047854785 3:0.064356436 4:0.084158416 5:0.067656766 6:0.01320132 7:0.0099009901 8:0.044554455 9:0.03960396 10:0.01320132 11:0.069306931 12:0.077557756 13:0.047854785 14:0.072607261 15:0.03630363 16:0.064356436 17:0.051155116 18:0.028052805 19:0.072607261 20:0.041254125 
-1.737746530520012 1:0.0875 2:0.08125 3:0.05625 4:0.10625 5:0.05625 6:0 7:0.00625 8:0.06875 9:0.025 10:0.00625 11:0.05 12:0.15625 13:0.05625 14:0.05 15:0.01875 16:0.03125 17:0.03125 18:0.025 19:0.04375 20:0.04375 
-2.058603130095034 1:0.13846154 2:0.13076923 3:0.053846154 4:0.11538462 5:0.053846154 6:0.015384615 7:0.046153846 8:0.038461538 9:0 10:0 11:0.038461538 12:0.061538462 13:0.1 14:0.038461538 15:0.030769231 16:0.030769231 17:0.0076923077 18:0.0076923077 19:0.038461538 20:0.053846154 
-3.601770545641937 1:0.095384615 2:0.11076923 3:0.067692308 4:0.067692308 5:0.030769231 6:0.012307692 7:0.021538462 8:0.046153846 9:0.021538462 10:0.0030769231 11:0.055384615 12:0.08 13:0.076923077 14:0.021538462 15:0.033846154 16:0.046153846 17:0.073846154 18:0.0030769231 19:0.076923077 20:0.055384615 
-5.5 1:0.083018868 2:0.10943396 3:0.056603774 4:0.071698113 5:0.037735849 6:0.011320755 7:0.0075471698 8:0.045283019 9:0.030188679 10:0.0075471698 11:0.041509434 12:0.094339623 13:0.079245283 14:0.041509434 15:0.037735849 16:0.060377358 17:0.052830189 18:0.022641509 19:0.067924528 20:0.041509434 
-1.139330999873001 1:0.073593074 2:0.11688312 3:0.047619048 4:0.10822511 5:0.038961039 6:0 7:0.025974026 8:0.025974026 9:0.025974026 10:0 11:0.051948052 12:0.12121212 13:0.025974026 14:0.03030303 15:0.077922078 16:0.047619048 17:0.047619048 18:0.0043290043 19:0.073593074 20:0.056277056 
-0.5423805020702829 1:0.12318841 2:0.079710145 3:0.094202899 4:0.10144928 5:0.036231884 6:0 7:0.02173913 8:0.014492754 9:0.057971014 10:0.014492754 11:0.043478261 12:0.12318841 13:0.072463768 14:0.028985507 15:0.014492754 16:0.050724638 17:0.014492754 18:0 19:0.086956522 20:0.02173913 
-1.604517915507228 1:0.070351759 2:0.13567839 3:0.045226131 4:0.16582915 5:0.065326633 6:0.0050251256 7:0.030150754 8:0.025125628 9:0 10:0.010050251 11:0.070351759 12:0.075376884 13:0.08040201 14:0.065326633 15:0.040201005 16:0.020100503 17:0.025125628 18:0 19:0.045226131 20:0.025125628 
-4.698677950269607 1:0.071748879 2:0.13004484 3:0.062780269 4:0.10762332 5:0.044843049 6:0 7:0.0089686099 8:0.01793722 9:0.031390135 10:0.0044843049 11:0.058295964 12:0.10313901 13:0.035874439 14:0.035874439 15:0.035874439 16:0.062780269 17:0.040358744 18:0.0044843049 19:0.085201794 20:0.058295964 
-5.5 1:0.058252427 2:0.084951456 3:0.072815534 4:0.089805825 5:0.048543689 6:0.012135922 7:0.031553398 8:0.038834951 9:0.038834951 10:0.014563107 11:0.04368932 12:0.072815534 13:0.050970874 14:0.050970874 15:0.024271845 16:0.060679612 17:0.063106796 18:0.0048543689 19:0.048543689 20:0.089805825 
-2.596867904905586 1:0.032967033 2:0.087912088 3:0.06043956 4:0.065934066 5:0.043956044 6:0.032967033 7:0.049450549 8:0.054945055 9:0.032967033 10:0.021978022 11:0.065934066 12:0.065934066 13:0.076923077 14:0.054945055 15:0.054945055 16:0.049450549 17:0.038461538 18:0.0054945055 19:0.054945055 20:0.049450549 
-1.381268068984762 1:0.061452514 2:0.10055866 3:0.094972067 4:0.078212291 5:0.033519553 6:0.033519553 7:0.033519553 8:0.05027933 9:0.033519553 10:0.022346369 11:0.067039106 12:0.089385475 13:0.055865922 14:0.027932961 15:0.039106145 16:0.022346369 17:0.055865922 18:0 19:0.061452514 20:0.039106145 
-5.5 1:0.092009685 2:0.065375303 3:0.075060533 4:0.075060533 5:0.062953995 6:0.00968523 7:0.036319613 8:0.046004843 9:0.031476998 10:0.00968523 11:0.046004843 12:0.04842615 13:0.06779661 14:0.065375303 15:0.033898305 16:0.062953995 17:0.050847458 18:0.004842615 19:0.062953995 20:0.053268765 
-2.25062063635526 1:0.042328042 2:0.14814815 3:0.068783069 4:0.10582011 5:0.042328042 6:0 7:0.010582011 8:0.026455026 9:0 10:0.0052910053 11:0.079365079 12:0.084656085 13:0.084656085 14:0.021164021 15:0.031746032 16:0.047619048 17:0.079365079 18:0.010582011 19:0.074074074 20:0.037037037 
-5.483732845843138 1:0.057591623 2:0.047120419 3:0.089005236 4:0.073298429 5:0.089005236 6:0.010471204 7:0.020942408 8:0.020942408 9:0.0052356021 10:0.010471204 11:0.031413613 12:0.089005236 13:0.052356021 14:0.031413613 15:0.036649215 16:0.036649215 17:0.078534031 18:0.041884817 19:0.13089005 20:0.047120419 
-2.402740184219332 1:0.075085324 2:0.058020478 3:0.051194539 4:0.10580205 5:0.037542662 6:0 7:0.013651877 8:0.051194539 9:0.010238908 10:0.0068259386 11:0.058020478 12:0.10921502 13:0.064846416 14:0.040955631 15:0.023890785 16:0.037542662 17:0.10238908 18:0.010238908 19:0.075085324 20:0.068259386 
-1.322973401972864 1:0.084249084 2:0.065934066 3:0.080586081 4:0.084249084 5:0.018315018 6:0.0073260073 7:0.010989011 8:0.06959707 9:0.018315018 10:0.0036630037 11:0.051282051 12:0.14652015 13:0.036630037 14:0.043956044 15:0.029304029 16:0.065934066 17:0.076923077 18:0.0036630037 19:0.029304029 20:0.073260073 
-2.768205998928232 1:0.069343066 2:0.10948905 3:0.12773723 4:0.065693431 5:0.072992701 6:0.010948905 7:0.01459854 8:0.03649635 9:0.01459854 10:0.0072992701 11:0.065693431 12:0.098540146 13:0.02919708 14:0.032846715 15:0.02189781 16:0.054744526 17:0.040145985 18:0.018248175 19:0.062043796 20:0.047445255 
-2.088743371548215 1:0.033519553 2:0.061452514 3:0.055865922 4:0.11731844 5:0.078212291 6:0 7:0.033519553 8:0.044692737 9:0.016759777 10:0.033519553 11:0.089385475 12:0.078212291 13:0.027932961 14:0.067039106 15:0.05027933 16:0.05027933 17:0.039106145 18:0.0055865922 19:0.10614525 20:0.011173184 
-1.317866527656378 1:0.11981567 2:0.082949309 3:0.096774194 4:0.10138249 5:0.036866359 6:0.0092165899 7:0.0092165899 8:0.032258065 9:0.013824885 10:0 11:0.050691244 12:0.082949309 13:0.10599078 14:0.073732719 15:0.013824885 16:0.046082949 17:0.032258065 18:0.041474654 19:0.032258065 20:0.01843318 
-0.6813470887197058 1:0.10810811 2:0.09009009 3:0.085585586 4:0.094594595 5:0.031531532 6:0.009009009 7:0.009009009 8:0.031531532 9:0 10:0 11:0.063063063 12:0.10810811 13:0.11261261 14:0.04954955 15:0.018018018 16:0.045045045 17:0.040540541 18:0.045045045 19:0.040540541 20:0.018018018 
-5.5 1:0.063131313 2:0.085858586 3:0.045454545 4:0.093434343 5:0.047979798 6:0.0075757576 7:0.027777778 8:0.047979798 9:0.03030303 10:0.02020202 11:0.045454545 12:0.068181818 13:0.075757576 14:0.03030303 15:0.027777778 16:0.068181818 17:0.073232323 18:0.017676768 19:0.063131313 20:0.060606061 
-5.5 1:0.072881356 2:0.079661017 3:0.1 4:0.076271186 5:0.06779661 6:0.013559322 7:0.030508475 8:0.047457627 9:0.030508475 10:0.006779661 11:0.050847458 12:0.066101695 13:0.052542373 14:0.040677966 15:0.018644068 16:0.050847458 17:0.057627119 18:0.027118644 19:0.054237288 20:0.055932203 
-1.26856450680973 1:0.038674033 2:0.071823204 3:0.11049724 4:0.066298343 5:0.055248619 6:0.022099448 7:0.011049724 8:0.038674033 9:0.027624309 10:0.016574586 11:0.066298343 12:0.14364641 13:0.044198895 14:0.033149171 15:0.027624309 16:0.033149171 17:0.066298343 18:0.016574586 19:0.077348066 20:0.033149171 
-5.5 1:0.090418354 2:0.10391363 3:0.0634278 4:0.075573549 5:0.055330634 6:0.0094466937 7:0.020242915 8:0.041835358 9:0.029689609 10:0.014844804 11:0.049932524 12:0.090418354 13:0.056680162 14:0.037786775 15:0.02294197 16:0.043184885 17:0.070175439 18:0.028340081 19:0.060728745 20:0.035087719 
-2.941889595690081 1:0.098412698 2:0.1047619 3:0.1047619 4:0.06031746 5:0.057142857 6:0.012698413 7:0.0063492063 8:0.041269841 9:0.012698413 10:0.019047619 11:0.031746032 12:0.11746032 13:0.038095238 14:0.031746032 15:0.025396825 16:0.047619048 17:0.06031746 18:0.019047619 19:0.073015873 20:0.038095238 
-2.398835865044127 1:0.11165049 2:0.1407767 3:0.072815534 4:0.09223301 5:0.033980583 6:0.024271845 7:0.024271845 8:0.024271845 9:0.019417476 10:0.024271845 11:0.058252427 12:0.072815534 13:0.058252427 14:0.033980583 15:0.014563107 16:0.038834951 17:0.038834951 18:0.019417476 19:0.048543689 20:0.048543689 
-5.5 1:0.066666667 2:0.062601626 3:0.070731707 4:0.080487805 5:0.05203252 6:0.012195122 7:0.016260163 8:0.045528455 9:0.027642276 10:0.019512195 11:0.043089431 12:0.074796748 13:0.048780488 14:0.04796748 15:0.034146341 16:0.064227642 17:0.079674797 18:0.030894309 19:0.070731707 20:0.05203252 
