svm_type c_svc
kernel_type rbf
gamma 100
nr_class 2
total_sv 49
rho 0.261295
label 0 1
probA -0.271084
probB -0.0797621
nr_sv 13 36
SV
1.55 1:0.084200568 2:0.098391675 3:0.061494797 4:0.08230842 5:0.055818354 6:0.013245033 7:0.035950804 8:0.036896878 9:0.030274361 10:0.0075685904 11:0.057710501 12:0.069063387 13:0.065279092 14:0.044465468 15:0.031220435 16:0.04730369 17:0.052034059 18:0.028382214 19:0.057710501 20:0.040681173 
1.55 1:0.082524272 2:0.048543689 3:0.11650485 4:0.053398058 5:0.077669903 6:0.0097087379 7:0.04368932 8:0.014563107 9:0.019417476 10:0.0097087379 11:0.029126214 12:0.087378641 13:0.067961165 14:0.029126214 15:0.053398058 16:0.048543689 17:0.058252427 18:0.024271845 19:0.063106796 20:0.063106796 
1.55 1:0.11764706 2:0.078431373 3:0.06372549 4:0.090686275 5:0.056372549 6:0.019607843 7:0.022058824 8:0.039215686 9:0.029411765 10:0.0098039216 11:0.044117647 12:0.053921569 13:0.051470588 14:0.029411765 15:0.026960784 16:0.051470588 17:0.06127451 18:0.026960784 19:0.078431373 20:0.049019608 
1.55 1:0.041666667 2:0.0625 3:0.078125 4:0.13020833 5:0.083333333 6:0.036458333 7:0.03125 8:0.057291667 9:0.015625 10:0 11:0.020833333 12:0.083333333 13:0.052083333 14:0.041666667 15:0.046875 16:0.020833333 17:0.0625 18:0 19:0.057291667 20:0.078125 
0.8272867200333286 1:0.079207921 2:0.04950495 3:0.069306931 4:0.069306931 5:0.089108911 6:0.04950495 7:0.01980198 8:0.059405941 9:0.03960396 10:0 11:0.03960396 12:0.04950495 13:0.03960396 14:0.02970297 15:0.059405941 16:0.0099009901 17:0.04950495 18:0.02970297 19:0.13861386 20:0.02970297 
1.195724432695776 1:0.052173913 2:0.065217391 3:0.043478261 4:0.10434783 5:0.069565217 6:0.034782609 7:0.02173913 8:0.030434783 9:0.034782609 10:0.017391304 11:0.02173913 12:0.091304348 13:0.039130435 14:0.047826087 15:0.02173913 16:0.030434783 17:0.047826087 18:0.030434783 19:0.095652174 20:0.1 
1.431365527935373 1:0.025974026 2:0.034632035 3:0.038961039 4:0.0995671 5:0.060606061 6:0.025974026 7:0.03030303 8:0.038961039 9:0.064935065 10:0.0043290043 11:0.017316017 12:0.11688312 13:0.086580087 14:0.086580087 15:0.043290043 16:0.034632035 17:0.043290043 18:0.0086580087 19:0.11255411 20:0.025974026 
1.55 1:0.10562181 2:0.090289608 3:0.06132879 4:0.074957411 5:0.078364566 6:0.018739353 7:0.02725724 8:0.044293015 9:0.028960818 10:0.0068143101 11:0.045996593 12:0.06132879 13:0.045996593 14:0.035775128 15:0.030664395 16:0.044293015 17:0.063032368 18:0.015332198 19:0.056218058 20:0.064735945 
1.55 1:0.041916168 2:0.077844311 3:0.053892216 4:0.05988024 5:0.05988024 6:0 7:0.011976048 8:0.041916168 9:0.047904192 10:0.017964072 11:0.035928144 12:0.053892216 13:0.041916168 14:0.023952096 15:0.02994012 16:0.095808383 17:0.11976048 18:0.005988024 19:0.13173653 20:0.047904192 
1.55 1:0.090680101 2:0.088161209 3:0.052896725 4:0.088161209 5:0.037783375 6:0.020151134 7:0.0302267 8:0.042821159 9:0.040302267 10:0.0050377834 11:0.042821159 12:0.085642317 13:0.060453401 14:0.0302267 15:0.017632242 16:0.062972292 17:0.055415617 18:0.025188917 19:0.062972292 20:0.060453401 
0.595548335743961 1:0.086486486 2:0.075675676 3:0.059459459 4:0.07027027 5:0.048648649 6:0.027027027 7:0.032432432 8:0.032432432 9:0.037837838 10:0.016216216 11:0.037837838 12:0.086486486 13:0.054054054 14:0.016216216 15:0.037837838 16:0.021621622 17:0.032432432 18:0.016216216 19:0.081081081 20:0.12972973 
0.8216175424319608 1:0.11038961 2:0.051948052 3:0.071428571 4:0.11038961 5:0.045454545 6:0.019480519 7:0.0064935065 8:0.012987013 9:0.012987013 10:0 11:0.025974026 12:0.045454545 13:0.058441558 14:0.038961039 15:0.051948052 16:0.032467532 17:0.051948052 18:0.045454545 19:0.077922078 20:0.12987013 
1.55 1:0.081300813 2:0.10162602 3:0.075203252 4:0.089430894 5:0.048780488 6:0.018292683 7:0.024390244 8:0.034552846 9:0.016260163 10:0.0040650407 11:0.042682927 12:0.069105691 13:0.075203252 14:0.054878049 15:0.032520325 16:0.030487805 17:0.071138211 18:0.024390244 19:0.056910569 20:0.048780488 
-0.5 1:0.091133005 2:0.1182266 3:0.081280788 4:0.10591133 5:0.051724138 6:0.0073891626 7:0.022167488 8:0.027093596 9:0.022167488 10:0.0049261084 11:0.051724138 12:0.061576355 13:0.04679803 14:0.034482759 15:0.027093596 16:0.051724138 17:0.068965517 18:0.012315271 19:0.061576355 20:0.051724138 
-0.5 1:0.06779661 2:0.075772682 3:0.068793619 4:0.074775673 5:0.060817547 6:0.0099700897 7:0.019940179 8:0.043868395 9:0.035892323 10:0.016949153 11:0.037886341 12:0.065802592 13:0.046859422 14:0.044865404 15:0.029910269 16:0.052841476 17:0.098703888 18:0.014955135 19:0.076769691 20:0.056829511 
-0.5 1:0.082692308 2:0.082692308 3:0.088461538 4:0.096153846 5:0.053846154 6:0.021153846 7:0.032692308 8:0.021153846 9:0.023076923 10:0.0076923077 11:0.048076923 12:0.092307692 13:0.065384615 14:0.038461538 15:0.021153846 16:0.053846154 17:0.055769231 18:0.0096153846 19:0.057692308 20:0.048076923 
-0.5 1:0.075055188 2:0.099337748 3:0.066225166 4:0.086092715 5:0.059602649 6:0.0066225166 7:0.035320088 8:0.04415011 9:0.033112583 10:0.013245033 11:0.046357616 12:0.079470199 13:0.04415011 14:0.04415011 15:0.024282561 16:0.050772627 17:0.059602649 18:0.017660044 19:0.072847682 20:0.041942605 
-0.5 1:0.071278826 2:0.098532495 3:0.081761006 4:0.094339623 5:0.067085954 6:0.012578616 7:0.018867925 8:0.029350105 9:0.018867925 10:0.016771488 11:0.067085954 12:0.067085954 13:0.044025157 14:0.035639413 15:0.033542977 16:0.050314465 17:0.062893082 18:0.020964361 19:0.064989518 20:0.044025157 
-0.5 1:0.068181818 2:0.066115702 3:0.076446281 4:0.11983471 5:0.047520661 6:0.01446281 7:0.024793388 8:0.039256198 9:0.030991736 10:0.0082644628 11:0.047520661 12:0.097107438 13:0.051652893 14:0.02892562 15:0.02892562 16:0.053719008 17:0.066115702 18:0.020661157 19:0.061983471 20:0.047520661 
-0.5 1:0.05952381 2:0.023809524 3:0.05952381 4:0.10714286 5:0.11904762 6:0.023809524 7:0.035714286 8:0.011904762 9:0.047619048 10:0 11:0.023809524 12:0.071428571 13:0.035714286 14:0.071428571 15:0.011904762 16:0.05952381 17:0.047619048 18:0.011904762 19:0.083333333 20:0.095238095 
-0.5 1:0.076923077 2:0.078895464 3:0.029585799 4:0.14595661 5:0.14003945 6:0.0078895464 7:0.045364892 8:0.067061144 9:0.053254438 10:0.015779093 11:0.035502959 12:0.061143984 13:0.043392505 14:0.041420118 15:0.021696252 16:0.027613412 17:0.033530572 18:0.015779093 19:0.033530572 20:0.025641026 
-0.5 1:0.06779661 2:0.063559322 3:0.063559322 4:0.072033898 5:0.050847458 6:0.012711864 7:0.012711864 8:0.097457627 9:0.025423729 10:0.0042372881 11:0.055084746 12:0.11440678 13:0.063559322 14:0.059322034 15:0.029661017 16:0.033898305 17:0.046610169 18:0.0084745763 19:0.093220339 20:0.025423729 
-0.5 1:0.090965347 2:0.096534653 3:0.074257426 4:0.095915842 5:0.053217822 6:0.016089109 7:0.023514851 8:0.030940594 9:0.025371287 10:0.011138614 11:0.05259901 12:0.070544554 13:0.047029703 14:0.038366337 15:0.038985149 16:0.050123762 17:0.0625 18:0.016707921 19:0.048267327 20:0.056930693 
-0.4342828792768512 1:0.06185567 2:0.12371134 3:0.15463918 4:0.051546392 5:0.020618557 6:0.010309278 7:0.010309278 8:0.072164948 9:0.020618557 10:0.010309278 11:0.06185567 12:0.010309278 13:0.020618557 14:0.010309278 15:0.030927835 16:0.06185567 17:0.10309278 18:0.020618557 19:0.072164948 20:0.072164948 
-0.5 1:0.088105727 2:0.10572687 3:0.088105727 4:0.092511013 5:0.052863436 6:0.022026432 7:0.013215859 8:0.044052863 9:0.013215859 10:0.0044052863 11:0.026431718 12:0.12334802 13:0.04845815 14:0.044052863 15:0.022026432 16:0.022026432 17:0.061674009 18:0.030837004 19:0.04845815 20:0.04845815 
-0.5 1:0.098039216 2:0.078431373 3:0.091503268 4:0.052287582 5:0.08496732 6:0 7:0.0065359477 8:0.045751634 9:0.039215686 10:0.026143791 11:0.058823529 12:0.045751634 13:0.032679739 14:0.032679739 15:0.019607843 16:0.052287582 17:0.078431373 18:0.019607843 19:0.08496732 20:0.052287582 
-0.3653458355083586 1:0.075085324 2:0.058020478 3:0.051194539 4:0.10580205 5:0.037542662 6:0 7:0.013651877 8:0.051194539 9:0.010238908 10:0.0068259386 11:0.058020478 12:0.10921502 13:0.064846416 14:0.040955631 15:0.023890785 16:0.037542662 17:0.10238908 18:0.010238908 19:0.075085324 20:0.068259386 
-0.5 1:0.11226611 2:0.1039501 3:0.056133056 4:0.072765073 5:0.064449064 6:0.012474012 7:0.033264033 8:0.051975052 9:0.024948025 10:0.0062370062 11:0.056133056 12:0.064449064 13:0.064449064 14:0.024948025 15:0.020790021 16:0.043659044 17:0.064449064 18:0.018711019 19:0.064449064 20:0.03950104 
-0.4248154233994916 1:0.083661417 2:0.10137795 3:0.1023622 4:0.066929134 5:0.053149606 6:0.0078740157 7:0.020669291 8:0.020669291 9:0.011811024 10:0.0059055118 11:0.051181102 12:0.086614173 13:0.033464567 14:0.033464567 15:0.027559055 16:0.067913386 17:0.073818898 18:0.0098425197 19:0.085629921 20:0.056102362 
-0.5 1:0.050239234 2:0.044258373 3:0.05861244 4:0.12440191 5:0.045454545 6:0.017942584 7:0.011961722 8:0.06937799 9:0.031100478 10:0.015550239 11:0.055023923 12:0.082535885 13:0.052631579 14:0.031100478 15:0.045454545 16:0.027511962 17:0.057416268 18:0.0215311 19:0.092105263 20:0.065789474 
-0.5 1:0.091364205 2:0.068836045 3:0.067584481 4:0.067584481 5:0.042553191 6:0.010012516 7:0.032540676 8:0.060075094 9:0.050062578 10:0.017521902 11:0.050062578 12:0.062578223 13:0.043804756 14:0.038798498 15:0.023779725 16:0.072590738 17:0.056320401 18:0.042553191 19:0.038798498 20:0.062578223 
-0.5 1:0.064814815 2:0.064814815 3:0.069444444 4:0.078703704 5:0.087962963 6:0.013888889 7:0.055555556 8:0.050925926 9:0.041666667 10:0.023148148 11:0.055555556 12:0.041666667 13:0.060185185 14:0.018518519 15:0.013888889 16:0.069444444 17:0.083333333 18:0.023148148 19:0.027777778 20:0.055555556 
-0.5 1:0.067391304 2:0.1076087 3:0.079347826 4:0.091304348 5:0.059782609 6:0.014130435 7:0.02173913 8:0.035869565 9:0.023913043 10:0.011956522 11:0.040217391 12:0.081521739 13:0.059782609 14:0.035869565 15:0.026086957 16:0.057608696 17:0.05326087 18:0.022826087 19:0.05 20:0.059782609 
-0.5 1:0.092105263 2:0.085526316 3:0.032894737 4:0.11842105 5:0.019736842 6:0.026315789 7:0.013157895 8:0.039473684 9:0 10:0 11:0.026315789 12:0.17763158 13:0.11184211 14:0.039473684 15:0 16:0.013157895 17:0 18:0.013157895 19:0.059210526 20:0.13157895 
-0.5 1:0.06 2:0.056666667 3:0.1 4:0.10666667 5:0.05 6:0.023333333 7:0.02 8:0.026666667 9:0.016666667 10:0.013333333 11:0.026666667 12:0.083333333 13:0.06 14:0.033333333 15:0.03 16:0.036666667 17:0.093333333 18:0.03 19:0.06 20:0.073333333 
-0.08325882577016241 1:0.065989848 2:0.063451777 3:0.098984772 4:0.093908629 5:0.058375635 6:0.0076142132 7:0.015228426 8:0.045685279 9:0.025380711 10:0.010152284 11:0.055837563 12:0.098984772 13:0.053299492 14:0.027918782 15:0.040609137 16:0.045685279 17:0.063451777 18:0.015228426 19:0.053299492 20:0.060913706 
-0.5 1:0.015748031 2:0.070866142 3:0.023622047 4:0.078740157 5:0.14173228 6:0 7:0.0078740157 8:0.062992126 9:0.05511811 10:0.0078740157 11:0 12:0.062992126 13:0.039370079 14:0.078740157 15:0.039370079 16:0.023622047 17:0.039370079 18:0.0078740157 19:0.094488189 20:0.1496063 
-0.4638395948855359 1:0.068965517 2:0.073275862 3:0.056034483 4:0.060344828 5:0.073275862 6:0.0043103448 7:0.017241379 8:0.043103448 9:0.025862069 10:0.0043103448 11:0.094827586 12:0.11206897 13:0.056034483 14:0.030172414 15:0.030172414 16:0.021551724 17:0.086206897 18:0.012931034 19:0.051724138 20:0.077586207 
-0.5 1:0.084233261 2:0.080993521 3:0.070194384 4:0.098272138 5:0.070194384 6:0.0075593952 7:0.024838013 8:0.030237581 9:0.017278618 10:0.0010799136 11:0.035637149 12:0.055075594 13:0.05075594 14:0.031317495 15:0.029157667 16:0.049676026 17:0.10259179 18:0.016198704 19:0.06587473 20:0.078833693 
-0.5 1:0.098393574 2:0.086345382 3:0.062248996 4:0.092369478 5:0.044176707 6:0.016064257 7:0.014056225 8:0.044176707 9:0.036144578 10:0.016064257 11:0.048192771 12:0.036144578 13:0.062248996 14:0.032128514 15:0.030120482 16:0.068273092 17:0.064257028 18:0.02811245 19:0.0562249 20:0.064257028 
-0.5 1:0.052763819 2:0.09798995 3:0.075376884 4:0.090452261 5:0.037688442 6:0.01758794 7:0.030150754 8:0.032663317 9:0.055276382 10:0.01758794 11:0.037688442 12:0.070351759 13:0.052763819 14:0.032663317 15:0.020100503 16:0.06281407 17:0.060301508 18:0.0050251256 19:0.070351759 20:0.08040201 
-0.5 1:0.04587156 2:0.059633028 3:0.077981651 4:0.11926606 5:0.050458716 6:0 7:0.0091743119 8:0.064220183 9:0.02293578 10:0.004587156 11:0.032110092 12:0.059633028 13:0.036697248 14:0.068807339 15:0.059633028 16:0.04587156 17:0.077981651 18:0.013761468 19:0.11926606 20:0.032110092 
-0.5 1:0.098765432 2:0.10864198 3:0.071604938 4:0.088888889 5:0.056790123 6:0.02962963 7:0.014814815 8:0.039506173 9:0.0098765432 10:0.012345679 11:0.037037037 12:0.11604938 13:0.041975309 14:0.051851852 15:0.024691358 16:0.056790123 17:0.037037037 18:0.017283951 19:0.032098765 20:0.054320988 
-0.5 1:0.037267081 2:0.062111801 3:0.049689441 4:0.086956522 5:0.037267081 6:0.02484472 7:0.01863354 8:0.01863354 9:0.043478261 10:0.01242236 11:0.099378882 12:0.16770186 13:0.086956522 14:0.0062111801 15:0.01863354 16:0.055900621 17:0.031055901 18:0.02484472 19:0.01863354 20:0.099378882 
-0.5 1:0.093306288 2:0.11359026 3:0.07505071 4:0.079107505 5:0.056795132 6:0.010141988 7:0.012170385 8:0.046653144 9:0.034482759 10:0.012170385 11:0.054766734 12:0.070993915 13:0.056795132 14:0.022312373 15:0.028397566 16:0.044624746 17:0.062880325 18:0.014198783 19:0.056795132 20:0.054766734 
-0.5 1:0.065046462 2:0.065046462 3:0.073624017 4:0.10793424 5:0.050750536 6:0.0071479628 7:0.016440315 8:0.030021444 9:0.032165833 10:0.014295926 11:0.04431737 12:0.08077198 13:0.04431737 14:0.045032166 15:0.03645461 16:0.069335239 17:0.074338813 18:0.016440315 19:0.075768406 20:0.050750536 
-0.5 1:0.044776119 2:0.049751244 3:0.044776119 4:0.10116086 5:0.067993367 6:0.008291874 7:0.016583748 8:0.033167496 9:0.053067993 10:0.008291874 11:0.054726368 12:0.074626866 13:0.087893864 14:0.077943615 15:0.051409619 16:0.0099502488 17:0.043117745 18:0.014925373 19:0.12769486 20:0.029850746 
-0.5 1:0.028901734 2:0.10982659 3:0.057803468 4:0.075144509 5:0.046242775 6:0 7:0.034682081 8:0.028901734 9:0 10:0.0057803468 11:0.046242775 12:0.12716763 13:0.052023121 14:0.0057803468 15:0.046242775 16:0.01734104 17:0.098265896 18:0.011560694 19:0.10982659 20:0.098265896 
-0.5 1:0.11151079 2:0.061151079 3:0.061151079 4:0.079136691 5:0.079136691 6:0.0071942446 7:0.010791367 8:0.017985612 9:0.025179856 10:0.010791367 11:0.061151079 12:0.050359712 13:0.053956835 14:0.061151079 15:0.025179856 16:0.032374101 17:0.043165468 18:0.025179856 19:0.068345324 20:0.11510791 
