svm_type c_svc
kernel_type rbf
gamma 0.1
nr_class 2
total_sv 388
rho 0.305213
label 0 1
probA -2.44199
probB 0.0519185
nr_sv 153 235
SV
1.5 1:0.999517 2:2.24127e-07 3:2.20632e-07 4:0.000482971 5:0.955393 6:0.0323375 7:0.477992 8:0.867834 9:0.0231833 10:0.0445823 11:0.00439511 12:0.0183687 13:0.060118 14:0.0218653 15:0.0269114 16:0.472502 17:0.295737 18:0 19:0 20:0 21:0 22:0 23:0 24:1 25:0.14193 26:0.0383261 27:0.00991482 28:0.147441 29:0.583266 30:0.0055694 31:0.0500024 32:0.0142994 33:0.00628702 34:0.00296422 35:0.1 36:0.1 37:0.1 38:0.1 39:0.1 40:0.1 41:0.1 42:0.1 43:0.1 44:0.1 
1.5 1:0.994674 2:0.000967252 3:0.00016884 4:0.00418999 5:0.929927 6:0.00700424 7:0.0419192 8:-0.574761 9:0.0123318 10:0.206733 11:0.0231084 12:0.00461078 13:0.029892 14:0.035605 15:0.0054768 16:0.660418 17:0.0148198 18:0 19:0 20:0 21:0 22:0 23:0 24:1 25:0.0401245 26:0.10465 27:0.105409 28:0.191705 29:0.189727 30:0.12643 31:0.0738405 32:0.159175 33:0.00474027 34:0.0041985 35:0.0366932 36:0.140936 37:0.0203148 38:0.16338 39:0.48462 40:0.0515761 41:0.0383576 42:0.0194338 43:0.0286026 44:0.0160854 
0.4839186132097651 1:0.997219 2:0.00214864 3:6.07563e-05 4:0.000571542 5:0.948317 6:0.0261618 7:0.210679 8:0.763689 9:0.041724 10:0.0582579 11:0.0059508 12:0.0323804 13:0.062784 14:0.017777 15:0.00927666 16:0.388913 17:0.356775 18:0 19:0 20:0 21:0 22:0 23:0 24:0 25:0.0373932 26:0.141292 27:0.00708915 28:0.159243 29:0.595771 30:0.005807 31:0.0250775 32:0.0242474 33:0.00281409 34:0.00126442 35:0.0412573 36:0.0526629 37:0.0215774 38:0.681868 39:0.0602178 40:0.028588 41:0.0254003 42:0.027074 43:0.0375526 44:0.023802 
1.5 1:0.574167 2:0.00251082 3:0.00480006 4:0.418522 5:0.698135 6:0.10055 7:0.358476 8:0.908585 9:0.121403 10:0.149817 11:0.037148 12:0.0218226 13:0.0265973 14:0.0268577 15:0.00669184 16:0.480336 17:0.0287774 18:0 19:0 20:0 21:0 22:0 23:0 24:0 25:0.11797 26:0.279799 27:0.0612993 28:0.159359 29:0.0313479 30:0.122917 31:0.0348283 32:0.0143218 33:0.0373145 34:0.140842 35:0.1 36:0.1 37:0.1 38:0.1 39:0.1 40:0.1 41:0.1 42:0.1 43:0.1 44:0.1 
1.5 1:0.993187 2:0.00295892 3:0.000445682 4:0.00340818 5:0.942684 6:0.0102563 7:0.21054 8:0.913709 9:0.349842 10:0.028402 11:0.00620075 12:0.00486968 13:0.0525639 14:0.045169 15:0.00566414 16:0.143412 17:0.35362 18:0 19:0 20:1 21:0 22:0 23:0 24:0 25:0.0563027 26:0.0263509 27:0.00153101 28:0.141101 29:0.630502 30:0.000668803 31:0.0375159 32:0.101868 33:0.00288546 34:0.00127353 35:0.039642 36:0.165189 37:0.135841 38:0.0640322 39:0.0320528 40:0.0308639 41:0.085717 42:0.0108493 43:0.0776286 44:0.358184 
1.5 1:0.957387 2:0.00185906 3:0.00629354 4:0.0344607 5:0.85883 6:0.00788203 7:0.518949 8:-0.620142 9:0.00353859 10:0.00727003 11:0.00254693 12:0.000783275 13:0.0236865 14:0.000834795 15:0.0223194 16:0.790072 17:0.141066 18:0 19:0 20:0 21:0 22:0 23:0 24:0 25:0.121359 26:0.144282 27:0.00740041 28:0.100722 29:0.221208 30:0.029435 31:0.0826084 32:0.288228 33:0.00275039 34:0.0020062 35:0.00237452 36:0.0321028 37:0.00125405 38:0.00572729 39:0.950575 40:0.000770464 41:0.00472127 42:0.000575713 43:0.0014468 44:0.000451936 
1.5 1:0.981017 2:0.00968287 3:0.00209423 4:0.0072058 5:0.954188 6:0.0360889 7:0.726051 8:0.588867 9:0.00596181 10:0.0111363 11:0.0145594 12:0.0407691 13:0.0378066 14:0.00418977 15:0.00380275 16:0.837802 17:0.0078833 18:0 19:0 20:0 21:0 22:0 23:0 24:0 25:0.00382984 26:0.0343075 27:0.0668504 28:0.847925 29:0.0260013 30:0.00406768 31:0.0102747 32:0.00160904 33:0.00411637 34:0.0010178 35:0.000608931 36:0.00242227 37:0.00237792 38:0.0166018 39:0.907255 40:0.00527132 41:0.0127038 42:0.0333783 43:0.0165684 44:0.00281196 
1.5 1:0.999486 2:3.96244e-07 3:3.22931e-07 4:0.000513428 5:0.951699 6:0.0509324 7:0.168507 8:0.978433 9:0.165468 10:0.16093 11:0.00555601 12:0.0289169 13:0.0495573 14:0.0841426 15:0.0520764 16:0.167966 17:0.234454 18:0 19:0 20:0 21:0 22:0 23:0 24:0 25:0.0961398 26:0.053386 27:0.0260827 28:0.321727 29:0.0607936 30:0.0369279 31:0.0316476 32:0.0478343 33:0.228602 34:0.0968594 35:0.1 36:0.1 37:0.1 38:0.1 39:0.1 40:0.1 41:0.1 42:0.1 43:0.1 44:0.1 
1.5 1:0.902572 2:0.0445642 3:0.0147739 4:0.03809 5:0.938189 6:0.377667 7:0.839806 8:0.700245 9:0.0220082 10:0.140016 11:0.0892941 12:0.111094 13:0.0278857 14:0.0130861 15:0.0143093 16:0.18196 17:0.0226787 18:0 19:0 20:0 21:0 22:0 23:0 24:0 25:0.043569 26:0.281085 27:0.125285 28:0.169967 29:0.079419 30:0.0715855 31:0.0386489 32:0.020499 33:0.109184 34:0.060757 35:0.1 36:0.1 37:0.1 38:0.1 39:0.1 40:0.1 41:0.1 42:0.1 43:0.1 44:0.1 
1.5 1:0.989649 2:0.00495979 3:0.000731532 4:0.00465945 5:0.966566 6:0.295875 7:0.64723 8:0.603695 9:0.0496061 10:0.180037 11:0.0410244 12:0.0551125 13:0.045901 14:0.0145966 15:0.0107314 16:0.290219 17:0.0168962 18:0 19:0 20:0 21:0 22:0 23:0 24:1 25:0.0550486 26:0.0373638 27:0.0353208 28:0.366615 29:0.158081 30:0.0972167 31:0.0620816 32:0.123943 33:0.0412357 34:0.0230933 35:0.1 36:0.1 37:0.1 38:0.1 39:0.1 40:0.1 41:0.1 42:0.1 43:0.1 44:0.1 
1.5 1:0.000596561 2:0.0129965 3:0.00134695 4:0.98506 5:-0.95055 6:0.0620132 7:0.154791 8:-0.994683 9:0.0510746 10:0.237433 11:0.0225021 12:0.0256016 13:0.038968 14:0.027915 15:0.0065884 16:0.500157 17:0.0277475 18:0 19:0 20:0 21:1 22:0 23:0 24:0 25:0.0245653 26:0.0620627 27:0.0689909 28:0.15026 29:0.0106573 30:0.160506 31:0.0200879 32:0.00620755 33:0.43568 34:0.0609822 35:0.1 36:0.1 37:0.1 38:0.1 39:0.1 40:0.1 41:0.1 42:0.1 43:0.1 44:0.1 
1.5 1:0.999807 2:1.5117e-07 3:1.61537e-07 4:0.000192764 5:0.688144 6:0.77359 7:0.962299 8:0.6288 9:0.0714174 10:0.0335372 11:0.00653419 12:0.00318034 13:0.00759946 14:0.0148331 15:0.0359731 16:0.0457076 17:0.00762807 18:0 19:0 20:0 21:0 22:0 23:0 24:1 25:0.104189 26:0.0352042 27:0.00632345 28:0.0706602 29:0.365665 30:0.00987705 31:0.055246 32:0.332756 33:0.0174297 34:0.00264876 35:0.0307468 36:0.560388 37:0.0335999 38:0.0742503 39:0.0586042 40:0.0440491 41:0.0448803 42:0.0782657 43:0.0463042 44:0.0289118 
1.5 1:0.987715 2:0.00607971 3:0.000395445 4:0.00580946 5:0.891225 6:0.100663 7:0.641499 8:0.943017 9:0.279526 10:0.0780325 11:0.0103175 12:0.0086986 13:0.0171429 14:0.0288655 15:0.0079921 16:0.458543 17:0.0102188 18:0 19:0 20:0 21:0 22:0 23:0 24:1 25:0.187872 26:0.0384421 27:0.0058797 28:0.128699 29:0.202974 30:0.0581825 31:0.0284303 32:0.34474 33:0.00325383 34:0.00152609 35:0.1 36:0.1 37:0.1 38:0.1 39:0.1 40:0.1 41:0.1 42:0.1 43:0.1 44:0.1 
1.5 1:0.97686 2:0.00468322 3:0.000946143 4:0.0175102 5:0.974872 6:0.248052 7:0.256223 8:0.716554 9:0.0896345 10:0.330616 11:0.0443182 12:0.0150438 13:0.0498122 14:0.0501683 15:0.0203492 16:0.130353 17:0.0216521 18:0 19:0 20:0 21:0 22:0 23:0 24:1 25:0.260247 26:0.104478 27:0.0108777 28:0.0862903 29:0.153106 30:0.0352007 31:0.0975078 32:0.244685 33:0.00461586 34:0.00299264 35:0.1 36:0.1 37:0.1 38:0.1 39:0.1 40:0.1 41:0.1 42:0.1 43:0.1 44:0.1 
1.5 1:0.989373 2:0.0087007 3:0.000240319 4:0.00168614 5:0.920469 6:0.0183932 7:0.135201 8:0.712766 9:0.0093828 10:0.0665794 11:0.0244759 12:0.00537117 13:0.0445235 14:0.200888 15:0.136941 16:0.285785 17:0.20766 18:0 19:0 20:0 21:0 22:0 23:0 24:0 25:0.0143516 26:0.0403599 27:0.0602358 28:0.145626 29:0.392012 30:0.0171428 31:0.0978601 32:0.220897 33:0.0073528 34:0.00416177 35:0.1 36:0.1 37:0.1 38:0.1 39:0.1 40:0.1 41:0.1 42:0.1 43:0.1 44:0.1 
1.280676252007461 1:0.96101 2:0.0156742 3:0.00412468 4:0.0191912 5:0.958532 6:0.017066 7:0.333426 8:-0.94982 9:0.00993388 10:0.0450241 11:0.00981924 12:0.00349255 13:0.0648135 14:0.119083 15:0.0230771 16:0.662018 17:0.0456723 18:0 19:0 20:0 21:0 22:0 23:0 24:0 25:0.0140081 26:0.0269912 27:0.043752 28:0.215396 29:0.13903 30:0.0174288 31:0.144928 32:0.393956 33:0.00355952 34:0.000951024 35:0.1 36:0.1 37:0.1 38:0.1 39:0.1 40:0.1 41:0.1 42:0.1 43:0.1 44:0.1 
1.5 1:0.994501 2:0.00424055 3:0.000181133 4:0.00107741 5:-0.58806 6:0.0156476 7:0.517723 8:-0.683745 9:0.00715436 10:0.0320639 11:0.00194621 12:0.00126729 13:0.00593235 14:0.000970242 15:0.00443524 16:0.488356 17:0.442227 18:1 19:0 20:0 21:1 22:0 23:0 24:0 25:0.0827066 26:0.131859 27:0.0198182 28:0.0724497 29:0.167022 30:0.0179478 31:0.149563 32:0.322587 33:0.0257693 34:0.0102769 35:0.0126673 36:0.820461 37:0.0201275 38:0.0167432 39:0.0606207 40:0.0176591 41:0.022966 42:0.0169146 43:0.00765093 44:0.00418955 
1.5 1:0.981551 2:0.00761535 3:0.00169087 4:0.00914302 5:0.732302 6:0.0882048 7:0.482811 8:0.659524 9:0.136854 10:0.0724881 11:0.0259416 12:0.0178176 13:0.0350861 14:0.0283823 15:0.036791 16:0.534551 17:0.023883 18:0 19:0 20:0 21:0 22:0 23:0 24:1 25:0.0363551 26:0.0424579 27:0.011967 28:0.133427 29:0.625244 30:0.00539766 31:0.022233 32:0.119107 33:0.0025098 34:0.001302 35:0.1 36:0.1 37:0.1 38:0.1 39:0.1 40:0.1 41:0.1 42:0.1 43:0.1 44:0.1 
1.5 1:0.995941 2:0.00109054 3:0.000111517 4:0.00285698 5:-0.627007 6:0.11377 7:0.606761 8:0.716576 9:0.225718 10:0.0766934 11:0.0388861 12:0.0193726 13:0.0415201 14:0.0267396 15:0.0271819 16:0.416308 17:0.01381 18:0 19:0 20:0 21:0 22:0 23:0 24:1 25:0.171959 26:0.0440548 27:0.0036302 28:0.076718 29:0.359533 30:0.0114036 31:0.0352596 32:0.287472 33:0.00787734 34:0.00209271 35:0.1 36:0.1 37:0.1 38:0.1 39:0.1 40:0.1 41:0.1 42:0.1 43:0.1 44:0.1 
1.5 1:0.995544 2:1.57011e-05 3:1.66209e-05 4:0.00442392 5:-0.674205 6:0.0138174 7:0.303339 8:0.531474 9:0.633695 10:0.0151916 11:0.00350623 12:0.0127453 13:0.015818 14:0.0948697 15:0.139094 16:0.0446052 17:0.0266575 18:0 19:0 20:0 21:0 22:0 23:0 24:0 25:0.0396235 26:0.0271871 27:0.0323318 28:0.601643 29:0.108892 30:0.0098359 31:0.0191741 32:0.152097 33:0.00566312 34:0.00355275 35:0.1 36:0.1 37:0.1 38:0.1 39:0.1 40:0.1 41:0.1 42:0.1 43:0.1 44:0.1 
1.5 1:0.999329 2:3.87996e-07 3:3.95048e-07 4:0.000670239 5:-0.811619 6:0.005791 7:0.0125887 8:0.601207 9:0.237861 10:0.016207 11:0.0158738 12:0.0209009 13:0.114102 14:0.320732 15:0.106286 16:0.0200855 17:0.142161 18:0 19:0 20:0 21:0 22:0 23:0 24:0 25:0.034134 26:0.0348619 27:0.0291246 28:0.323529 29:0.416967 30:0.00991864 31:0.0442261 32:0.102276 33:0.00278057 34:0.00218198 35:0.1 36:0.1 37:0.1 38:0.1 39:0.1 40:0.1 41:0.1 42:0.1 43:0.1 44:0.1 
0.184294579930085 1:0.9998 2:1.12307e-07 3:8.92574e-08 4:0.000200159 5:0.948506 6:0.00125386 7:0.353768 8:0.745933 9:0.0426578 10:0.00245701 11:0.000656391 12:0.00324244 13:0.00136996 14:0.000831964 15:0.000358919 16:0.932624 17:0.0145472 18:0 19:0 20:0 21:0 22:0 23:0 24:0 25:0.142426 26:0.0863803 27:0.0212925 28:0.212787 29:0.041305 30:0.0446174 31:0.0519966 32:0.0885728 33:0.294703 34:0.0159193 35:0.00244168 36:0.0197871 37:0.0131478 38:0.0318047 39:0.731333 40:0.0129672 41:0.0375942 42:0.125579 43:0.00910657 44:0.0162386 
1.5 1:0.998479 2:0.0012672 3:1.41204e-05 4:0.000240091 5:0.949278 6:0.385083 7:0.77883 8:0.913384 9:0.0215665 10:0.063867 11:0.026862 12:0.0271253 13:0.0501842 14:0.0130198 15:0.0143571 16:0.240218 17:0.157717 18:0 19:0 20:0 21:0 22:0 23:0 24:1 25:0.0672218 26:0.0743138 27:0.0309684 28:0.237283 29:0.00714931 30:0.0395732 31:0.0199926 32:0.0123217 33:0.488521 34:0.0226551 35:0.1 36:0.1 37:0.1 38:0.1 39:0.1 40:0.1 41:0.1 42:0.1 43:0.1 44:0.1 
1.5 1:0.769932 2:0.0254799 3:0.00537702 4:0.199211 5:-0.913204 6:0.00688189 7:0.5 8:-0.837492 9:0.0902123 10:0.0136907 11:0.00865262 12:0.00592523 13:0.0329189 14:0.0553771 15:0.0239574 16:0.306741 17:0.455643 18:0 19:0 20:0 21:0 22:0 23:0 24:0 25:0.0132928 26:0.0246642 27:0.00619011 28:0.0887513 29:0.753786 30:0.00133586 31:0.0190556 32:0.0907015 33:0.00151596 34:0.00070716 35:0.1 36:0.1 37:0.1 38:0.1 39:0.1 40:0.1 41:0.1 42:0.1 43:0.1 44:0.1 
1.5 1:0.995227 2:0.000781621 3:0.00016873 4:0.00382304 5:0.935846 6:0.0101749 7:0.0863721 8:0.909107 9:0.00494461 10:0.0536645 11:0.00171262 12:0.00142966 13:0.0343196 14:0.0021879 15:0.00283842 16:0.241389 17:0.647339 18:0 19:0 20:0 21:0 22:0 23:0 24:0 25:0.00275116 26:0.04561 27:0.0196025 28:0.840492 29:0.0458854 30:0.00385549 31:0.00553037 32:0.00264145 33:0.0207076 34:0.0129237 35:0.016348 36:0.0785328 37:0.0130021 38:0.520918 39:0.244779 40:0.0249072 41:0.0520542 42:0.012522 43:0.0251376 44:0.0117993 
1.5 1:0.824336 2:0.163153 3:0.00554221 4:0.00696875 5:0.966504 6:0.0147672 7:0.40572 8:0.98943 9:0.0481546 10:0.018547 11:0.00107239 12:0.00611659 13:0.00953959 14:0.00424983 15:0.00458313 16:0.142778 17:0.750191 18:0 19:0 20:0 21:0 22:0 23:0 24:1 25:0.0671422 26:0.0843047 27:0.00529723 28:0.0775624 29:0.457642 30:0.0134177 31:0.0837902 32:0.206842 33:0.0025668 34:0.00143519 35:0.00433542 36:0.015004 37:0.00395826 38:0.858337 39:0.00882076 40:0.00522138 41:0.0195142 42:0.0348167 43:0.0478133 44:0.00217941 
1.5 1:0.93425 2:0.000689175 3:0.00102032 4:0.0640401 5:0.779771 6:0.09676 7:0.353462 8:0.525968 9:0.0871714 10:0.179405 11:0.0214089 12:0.0211793 13:0.0279016 14:0.0248661 15:0.00661504 16:0.509852 17:0.0248403 18:0 19:0 20:0 21:0 22:0 23:0 24:0 25:0.0356419 26:0.338965 27:0.278121 28:0.157282 29:0.0350937 30:0.060047 31:0.0529695 32:0.0150543 33:0.00844529 34:0.0183807 35:0.00539626 36:0.0124846 37:0.0122701 38:0.0143374 39:0.806434 40:0.0656097 41:0.0193439 42:0.0457801 43:0.00801643 44:0.0103275 
1.5 1:0.998039 2:4.18821e-06 3:3.24085e-06 4:0.00195396 5:0.871312 6:0.00644127 7:0.0985652 8:0.846627 9:0.00469052 10:0.0471779 11:0.153636 12:0.0189815 13:0.197207 14:0.402695 15:0.0856537 16:0.0275463 17:0.0559707 18:0 19:0 20:0 21:0 22:0 23:0 24:0 25:0.0309215 26:0.0455497 27:0.00451969 28:0.0198243 29:0.0263122 30:0.00851913 31:0.0634766 32:0.798091 33:0.00229821 34:0.000487886 35:0.0223898 36:0.0535484 37:0.0212722 38:0.657757 39:0.0164876 40:0.0417052 41:0.0539998 42:0.0300348 43:0.0704626 44:0.0323426 
1.5 1:0.988945 2:0.00356626 3:0.000515006 4:0.00697376 5:0.917904 6:0.00286727 7:0.054539 8:-0.550472 9:0.0102533 10:0.0157864 11:0.164444 12:0.0205236 13:0.23165 14:0.0414517 15:0.492433 16:0.0168183 17:0.00377287 18:0 19:0 20:0 21:0 22:0 23:0 24:0 25:0.0132064 26:0.0881496 27:0.126836 28:0.0196617 29:0.00749708 30:0.0260413 31:0.674632 32:0.0404379 33:0.00221307 34:0.0013244 35:0.0368174 36:0.460365 37:0.0345862 38:0.0337223 39:0.0150987 40:0.0674401 41:0.103212 42:0.186038 43:0.0476328 44:0.0150878 
1.5 1:0.999764 2:1.95211e-06 3:1.12298e-06 4:0.000233238 5:0.849199 6:0.0290204 7:0.119546 8:0.915173 9:0.0225164 10:0.198262 11:0.0257671 12:0.0204519 13:0.0501313 14:0.0244695 15:0.0502873 16:0.343493 17:0.235601 18:0 19:0 20:0 21:0 22:0 23:0 24:0 25:0.12177 26:0.144618 27:0.0135668 28:0.344375 29:0.234979 30:0.00565936 31:0.0427218 32:0.0715579 33:0.0169652 34:0.00378628 35:0.0246553 36:0.0156303 37:0.0121133 38:0.0452326 39:0.232691 40:0.0242118 41:0.0565833 42:0.554102 43:0.0220886 44:0.0126922 
1.007943059587889 1:0.99872 2:2.0037e-06 3:1.64345e-06 4:0.00127677 5:0.952842 6:0.0526219 7:0.245739 8:0.967552 9:0.107094 10:0.113681 11:0.118395 12:0.0675516 13:0.233344 14:0.0346465 15:0.0481921 16:0.145791 17:0.0786825 18:0 19:0 20:0 21:0 22:0 23:0 24:0 25:0.0495407 26:0.0285613 27:0.0305422 28:0.793837 29:0.070549 30:0.00732061 31:0.0131563 32:0.0039613 33:0.00171268 34:0.00081863 35:0.0286671 36:0.672143 37:0.0257737 38:0.0543427 39:0.0429411 40:0.0294533 41:0.100093 42:0.0168187 43:0.020826 44:0.00894208 
1.5 1:0.998927 2:8.65256e-07 3:8.44067e-07 4:0.00107151 5:0.951856 6:0.329453 7:0.607113 8:0.918272 9:0.0156562 10:0.25147 11:0.0297834 12:0.0160504 13:0.0503978 14:0.0420448 15:0.00544464 16:0.225825 17:0.0338748 18:0 19:0 20:0 21:0 22:0 23:0 24:0 25:0.161307 26:0.159543 27:0.120008 28:0.333397 29:0.0838116 30:0.0368853 31:0.0685112 32:0.028892 33:0.00472622 34:0.00291831 35:0.0292025 36:0.627123 37:0.0286282 38:0.0539905 39:0.100027 40:0.045015 41:0.0581974 42:0.0199375 43:0.0256429 44:0.0122362 
1.5 1:0.996159 2:0.0024781 3:0.000346008 4:0.00101648 5:0.868047 6:0.0037465 7:0.258158 8:0.969751 9:0.0936923 10:0.00457315 11:0.00470561 12:0.00469809 13:0.00802931 14:0.0047134 15:0.0889921 16:0.286687 17:0.500163 18:0 19:0 20:0 21:0 22:0 23:0 24:0 25:0.0164292 26:0.0732014 27:0.13221 28:0.612414 29:0.0595334 30:0.0372255 31:0.0393162 32:0.0236383 33:0.00364277 34:0.00238933 35:0.0258648 36:0.0764367 37:0.0176 38:0.142849 39:0.629155 40:0.0338092 41:0.0307635 42:0.012394 43:0.0202071 44:0.0109202 
1.5 1:0.99235 2:0.00256075 3:0.000826589 4:0.00426267 5:0.956138 6:0.00359899 7:0.0214969 8:0.667637 9:0.0448301 10:0.0325223 11:0.0313352 12:0.00408046 13:0.0643983 14:0.0433736 15:0.745982 16:0.0169618 17:0.0129169 18:0 19:0 20:0 21:0 22:0 23:0 24:0 25:0.0531703 26:0.195392 27:0.0690586 28:0.109061 29:0.199455 30:0.0646043 31:0.159865 32:0.129568 33:0.0103748 34:0.00945199 35:0.0433066 36:0.504543 37:0.0992351 38:0.04261 39:0.0198118 40:0.13093 41:0.0276391 42:0.0127339 43:0.0285945 44:0.0905961 
1.5 1:0.956219 2:0.0412604 3:0.000779996 4:0.00174038 5:0.940437 6:0.0720636 7:0.828552 8:0.931539 9:0.00303869 10:0.0327437 11:0.54168 12:0.00300524 13:0.0351968 14:0.0144165 15:0.138227 16:0.146315 17:0.0133142 18:0 19:0 20:0 21:1 22:0 23:0 24:0 25:0.0156707 26:0.0359911 27:0.014841 28:0.318794 29:0.525427 30:0.0013332 31:0.0374505 32:0.0481313 33:0.00201903 34:0.000342458 35:0.0236664 36:0.178017 37:0.111024 38:0.490021 39:0.0567325 40:0.0431077 41:0.0192153 42:0.0121433 43:0.0188229 44:0.0472495 
1.5 1:0.986113 2:0.00159944 3:0.000190926 4:0.0120968 5:0.905243 6:0.0626586 7:0.406643 8:-0.818408 9:0.0450296 10:0.11315 11:0.177924 12:0.0409548 13:0.13211 14:0.0756424 15:0.114475 16:0.172151 17:0.0659043 18:0 19:0 20:0 21:0 22:0 23:0 24:0 25:0.148386 26:0.0525759 27:0.00835573 28:0.090341 29:0.262806 30:0.0100276 31:0.036142 32:0.369805 33:0.0183525 34:0.00320753 35:0.1 36:0.1 37:0.1 38:0.1 39:0.1 40:0.1 41:0.1 42:0.1 43:0.1 44:0.1 
1.5 1:0.983033 2:0.00624346 3:0.00201653 4:0.00870684 5:-0.636665 6:0.00643549 7:0.161118 8:0.99925 9:0.0419878 10:0.0225509 11:0.0894308 12:0.280111 13:0.076961 14:0.222609 15:0.0159084 16:0.10879 17:0.135216 18:0 19:0 20:0 21:0 22:0 23:0 24:0 25:0.128596 26:0.138221 27:0.01412 28:0.105483 29:0.216029 30:0.0222789 31:0.323593 32:0.0331366 33:0.0147954 34:0.00374696 35:0.00141558 36:0.0114547 37:0.00706458 38:0.165127 39:0.00631592 40:0.00850085 41:0.00255198 42:0.00181554 43:0.791321 44:0.00443351 
0.5879147047147554 1:0.992936 2:0.00388471 3:0.000661595 4:0.00251729 5:0.886432 6:0.0144728 7:0.0548971 8:0.887772 9:0.0461464 10:0.0436208 11:0.00811934 12:0.156552 13:0.101779 14:0.0173005 15:0.0150032 16:0.385108 17:0.211898 18:0 19:0 20:0 21:0 22:0 23:0 24:0 25:0.0186036 26:0.234213 27:0.132822 28:0.526535 29:0.0303092 30:0.0120524 31:0.0332889 32:0.00837951 33:0.00238821 34:0.00140848 35:0.1 36:0.1 37:0.1 38:0.1 39:0.1 40:0.1 41:0.1 42:0.1 43:0.1 44:0.1 
1.5 1:0.393706 2:0.46998 3:0.0426632 4:0.0936508 5:0.947462 6:0.0630685 7:0.302066 8:0.580405 9:0.0421317 10:0.219063 11:0.0603817 12:0.0420438 13:0.0491775 14:0.0562984 15:0.0451353 16:0.308498 17:0.114202 18:0 19:0 20:0 21:0 22:0 23:0 24:0 25:0.0689413 26:0.159789 27:0.263486 28:0.175167 29:0.0504455 30:0.0570826 31:0.17033 32:0.0123456 33:0.0212259 34:0.0211864 35:0.1 36:0.1 37:0.1 38:0.1 39:0.1 40:0.1 41:0.1 42:0.1 43:0.1 44:0.1 
1.5 1:0.935094 2:0.0482775 3:0.00462772 4:0.0120006 5:0.970088 6:0.0455859 7:0.529943 8:0.669721 9:0.0218143 10:0.0563691 11:0.0620345 12:0.0237223 13:0.100851 14:0.0350275 15:0.0482085 16:0.258713 17:0.347673 18:0 19:0 20:0 21:0 22:0 23:0 24:0 25:0.00518748 26:0.0554851 27:0.0583014 28:0.801633 29:0.057501 30:0.00784756 31:0.00613894 32:0.000721517 33:0.00562235 34:0.00156126 35:0.1 36:0.1 37:0.1 38:0.1 39:0.1 40:0.1 41:0.1 42:0.1 43:0.1 44:0.1 
1.5 1:0.954398 2:0.0140742 3:0.00343893 4:0.0280892 5:0.961832 6:0.0188462 7:0.412545 8:-0.794708 9:0.0356891 10:0.017562 11:0.00319921 12:0.00641674 13:0.0178512 14:0.013273 15:0.0228435 16:0.506655 17:0.357664 18:0 19:0 20:0 21:0 22:0 23:0 24:0 25:0.049103 26:0.0825356 27:0.00570287 28:0.097362 29:0.637676 30:0.00878258 31:0.0740398 32:0.0399616 33:0.00329928 34:0.00153708 35:0.0067511 36:0.0605925 37:0.0327737 38:0.0336239 39:0.598896 40:0.0119514 41:0.0490571 42:0.141577 43:0.0208275 44:0.0439501 
1.5 1:0.999499 2:1.41884e-06 3:8.36164e-07 4:0.000498875 5:-0.597875 6:0.0871504 7:0.475076 8:0.964953 9:0.0546887 10:0.117972 11:0.00880054 12:0.00771745 13:0.0186402 14:0.044187 15:0.00391353 16:0.367283 17:0.289646 18:0 19:0 20:0 21:0 22:0 23:0 24:0 25:0.0221827 26:0.0611696 27:0.0649911 28:0.406121 29:0.0326021 30:0.0643149 31:0.281929 32:0.0615321 33:0.00316441 34:0.00199292 35:0.1 36:0.1 37:0.1 38:0.1 39:0.1 40:0.1 41:0.1 42:0.1 43:0.1 44:0.1 
1.5 1:0.990617 2:0.00627157 3:0.000715655 4:0.00239572 5:0.649372 6:0.0136663 7:0.171556 8:0.635186 9:0.24101 10:0.0837086 11:0.145482 12:0.17175 13:0.176259 14:0.0613249 15:0.0346559 16:0.0507201 17:0.021424 18:0 19:0 20:0 21:0 22:0 23:0 24:1 25:0.0436395 26:0.0621916 27:0.43169 28:0.0762078 29:0.0312739 30:0.0769056 31:0.109857 32:0.150642 33:0.00887855 34:0.00871325 35:0.00195643 36:0.0244104 37:0.0014199 38:0.02113 39:0.00261205 40:0.00159682 41:0.004393 42:0.000793178 43:0.937542 44:0.00414671 
1.5 1:0.71408 2:0.179974 3:0.0388869 4:0.0670593 5:0.946861 6:0.0405082 7:0.477927 8:0.714309 9:0.0212404 10:0.0775001 11:0.0689895 12:0.0173201 13:0.0562738 14:0.00706616 15:0.00418927 16:0.608744 17:0.0981681 18:0 19:0 20:0 21:0 22:0 23:0 24:1 25:0.0855946 26:0.170502 27:0.00885973 28:0.0796495 29:0.297759 30:0.010398 31:0.129196 32:0.212717 33:0.00317258 34:0.00215112 35:0.1 36:0.1 37:0.1 38:0.1 39:0.1 40:0.1 41:0.1 42:0.1 43:0.1 44:0.1 
0.9189159911925405 1:0.999549 2:2.56783e-07 3:2.47464e-07 4:0.00045084 5:0.93918 6:0.0333016 7:0.416387 8:0.99317 9:0.286286 10:0.0223481 11:0.0053114 12:0.0274139 13:0.0146983 14:0.0203973 15:0.0856029 16:0.469588 17:0.0350531 18:0 19:0 20:0 21:0 22:0 23:0 24:0 25:0.075838 26:0.136902 27:0.0349646 28:0.606275 29:0.0100759 30:0.0341997 31:0.0481612 32:0.00415451 33:0.0425284 34:0.00690059 35:0.0310889 36:0.13263 37:0.0138046 38:0.133792 39:0.553018 40:0.0576249 41:0.0317445 42:0.0118046 43:0.0200073 44:0.014485 
1.5 1:0.999397 2:8.42235e-07 3:5.66965e-07 4:0.000601742 5:0.950097 6:0.00259989 7:0.199345 8:0.989788 9:0.0134383 10:0.00774116 11:0.00032277 12:0.00172801 13:0.00488963 14:0.00877736 15:0.0274585 16:0.722868 17:0.210177 18:0 19:0 20:0 21:0 22:0 23:0 24:0 25:0.0182248 26:0.0827032 27:0.0173639 28:0.795665 29:0.0154005 30:0.0224298 31:0.0130821 32:0.0036056 33:0.0289406 34:0.00258416 35:0.00100556 36:0.010951 37:0.0014554 38:0.107884 39:0.868438 40:0.00187176 41:0.00431669 42:0.00145008 43:0.00177042 44:0.000856543 
1.5 1:0.965978 2:0.0211938 3:0.00107876 4:0.0117491 5:0.7882 6:0.0698789 7:0.410786 8:0.954374 9:0.312505 10:0.0746213 11:0.00810624 12:0.0183791 13:0.0316578 14:0.0507967 15:0.162959 16:0.0668053 17:0.20429 18:0 19:0 20:0 21:0 22:0 23:0 24:0 25:0.140047 26:0.0647483 27:0.0197817 28:0.472977 29:0.057442 30:0.0127668 31:0.0165879 32:0.0461259 33:0.133924 34:0.0355992 35:0.1 36:0.1 37:0.1 38:0.1 39:0.1 40:0.1 41:0.1 42:0.1 43:0.1 44:0.1 
1.5 1:0.981574 2:0.0175555 3:0.000306634 4:0.000563807 5:0.936621 6:0.0238924 7:0.206748 8:0.875406 9:0.138719 10:0.0880169 11:0.172688 12:0.0664242 13:0.197445 14:0.0385997 15:0.0371813 16:0.167434 17:0.0695987 18:0 19:0 20:0 21:0 22:0 23:0 24:0 25:0.0219386 26:0.0368114 27:0.123507 28:0.609056 29:0.134056 30:0.0109748 31:0.0376922 32:0.0226665 33:0.00207293 34:0.00122459 35:0.1 36:0.1 37:0.1 38:0.1 39:0.1 40:0.1 41:0.1 42:0.1 43:0.1 44:0.1 
1.5 1:0.996407 2:0.00267524 3:0.000172775 4:0.000745406 5:0.809694 6:0.00303003 7:0.178444 8:0.80746 9:0.00514749 10:0.00705991 11:0.104694 12:0.00186219 13:0.115192 14:0.157585 15:0.57854 16:0.00883512 17:0.0180531 18:0 19:0 20:0 21:0 22:0 23:0 24:1 25:0.317983 26:0.0668246 27:0.0149316 28:0.0586972 29:0.0753177 30:0.0119181 31:0.0554513 32:0.388255 33:0.00676421 34:0.00385663 35:0.000603379 36:0.00885973 37:0.00230408 38:0.0057026 39:0.00137665 40:0.00409333 41:0.00401994 42:0.969273 43:0.00131553 44:0.002452 
1.5 1:0.541754 2:0.0421751 3:0.0145936 4:0.401478 5:-0.812752 6:0.0144799 7:0.192474 8:0.762582 9:0.539978 10:0.0498768 11:0.00238082 12:0.00303848 13:0.0253459 14:0.00675135 15:0.0198097 16:0.0911332 17:0.247206 18:0 19:0 20:0 21:0 22:0 23:0 24:0 25:0.0192782 26:0.0920207 27:0.0677729 28:0.621763 29:0.0954044 30:0.0101828 31:0.0351542 32:0.048261 33:0.00569671 34:0.00446569 35:0.1 36:0.1 37:0.1 38:0.1 39:0.1 40:0.1 41:0.1 42:0.1 43:0.1 44:0.1 
1.053593371285693 1:0.0701289 2:0.898262 3:0.0205964 4:0.0110125 5:-0.939419 6:0.148554 7:0.698084 8:0.788725 9:0.026482 10:0.0429655 11:0.00365457 12:0.00615371 13:0.0109597 14:0.00440446 15:0.00338455 16:0.677098 17:0.076344 18:0 19:0 20:0 21:0 22:0 23:0 24:1 25:0.00781935 26:0.0651029 27:0.00858007 28:0.0793293 29:0.166076 30:0.0187617 31:0.147014 32:0.5019 33:0.00358297 34:0.00183362 35:0.0131159 36:0.066757 37:0.0504008 38:0.685293 39:0.0348737 40:0.042193 41:0.0231649 42:0.011477 43:0.0465983 44:0.0261269 
1.5 1:0.996439 2:1.26405e-05 3:1.17455e-05 4:0.00353685 5:0.965686 6:0.0146795 7:0.573732 8:0.878156 9:0.0313971 10:0.0196277 11:0.000493688 12:0.00124041 13:0.00260635 14:0.000773023 15:0.00122339 16:0.470068 17:0.457891 18:0 19:0 20:0 21:0 22:0 23:0 24:0 25:0.0306391 26:0.044737 27:0.0127474 28:0.0212451 29:0.80057 30:0.00674924 31:0.0142562 32:0.0636994 33:0.00380474 34:0.00155211 35:0.0116568 36:0.0377123 37:0.0104898 38:0.761567 39:0.010505 40:0.032364 41:0.0364646 42:0.0234318 43:0.0591188 44:0.0166901 
1.5 1:0.932012 2:0.0508885 3:0.00467462 4:0.0124249 5:-0.935534 6:0.00435404 7:0.375815 8:0.699904 9:0.00329878 10:0.0132102 11:0.000961529 12:0.000315462 13:0.00397819 14:0.00210605 15:0.00513976 16:0.0991049 17:0.867531 18:0 19:0 20:0 21:0 22:0 23:0 24:0 25:0.0393842 26:0.0525146 27:0.0136543 28:0.259672 29:0.376324 30:0.0611183 31:0.104925 32:0.0815818 33:0.00659649 34:0.00422971 35:0.0253817 36:0.11159 37:0.0965228 38:0.292689 39:0.271764 40:0.0305386 41:0.0262876 42:0.018789 43:0.0418628 44:0.0845754 
1.5 1:0.924604 2:0.057915 3:0.00518769 4:0.0122934 5:0.71532 6:0.0599531 7:0.591143 8:0.904441 9:0.016839 10:0.100135 11:0.00477843 12:0.00576747 13:0.0127952 14:0.00432477 15:0.0126518 16:0.130558 17:0.652197 18:0 19:0 20:0 21:0 22:0 23:0 24:1 25:0.0651098 26:0.0642368 27:0.00941082 28:0.154677 29:0.599607 30:0.0121937 31:0.0610936 32:0.0261281 33:0.00558347 34:0.00196018 35:0.0042842 36:0.0223056 37:0.0176564 38:0.881954 39:0.0119452 40:0.00947984 41:0.00551751 42:0.00315957 43:0.0214927 44:0.0222054 
1.5 1:0.733559 2:0.239067 3:0.0107991 4:0.0165756 5:0.564939 6:0.0118275 7:0.391648 8:0.598864 9:0.0170481 10:0.0182259 11:0.00102178 12:0.00436257 13:0.0209107 14:0.00122786 15:0.00319323 16:0.100792 17:0.82139 18:0 19:0 20:0 21:0 22:0 23:0 24:1 25:0.034143 26:0.103546 27:0.0104675 28:0.203678 29:0.499175 30:0.00882863 31:0.0735957 32:0.0608533 33:0.00359009 34:0.00212196 35:0.00821735 36:0.0400086 37:0.0268572 38:0.814416 39:0.0234032 40:0.0145382 41:0.00986454 42:0.00656859 43:0.02865 44:0.0274761 
1.5 1:0.681378 2:0.304283 3:0.00712038 4:0.00721873 5:0.979698 6:0.0100083 7:0.457098 8:0.903008 9:0.00678318 10:0.0178296 11:0.00155652 12:0.00125028 13:0.0100959 14:0.00190106 15:0.00311536 16:0.208913 17:0.738547 18:0 19:0 20:0 21:0 22:0 23:0 24:1 25:0.0477768 26:0.041546 27:0.0111324 28:0.358981 29:0.326229 30:0.0168601 31:0.129684 32:0.0556066 33:0.0074863 34:0.00469735 35:0.00390581 36:0.0264451 37:0.0173242 38:0.888102 39:0.0107678 40:0.0125284 41:0.00888628 42:0.00248428 43:0.0126129 44:0.0169435 
1.5 1:0.946298 2:0.0318641 3:0.00673849 4:0.0150996 5:0.962234 6:0.00658991 7:0.0934724 8:-0.8349 9:0.0135514 10:0.0423799 11:0.0941605 12:0.0246186 13:0.460245 14:0.0489109 15:0.112466 16:0.0405101 17:0.156568 18:0 19:0 20:0 21:0 22:0 23:0 24:1 25:0.097281 26:0.196174 27:0.016685 28:0.239605 29:0.252207 30:0.0142574 31:0.0660252 32:0.111067 33:0.00366908 34:0.00302912 35:0.0117078 36:0.0361892 37:0.0176956 38:0.769069 39:0.0172503 40:0.0680982 41:0.0140044 42:0.0112711 43:0.0317947 44:0.0229193 
0.5069400859570526 1:0.997417 2:0.00182088 3:0.000214094 4:0.000547902 5:0.959348 6:0.0152629 7:0.145284 8:0.988235 9:0.0395163 10:0.153562 11:0.00404497 12:0.00669644 13:0.0058369 14:0.0218476 15:0.097721 16:0.626992 17:0.0285203 18:0 19:0 20:1 21:1 22:0 23:0 24:0 25:0.0300052 26:0.13216 27:0.0352009 28:0.699833 29:0.0224177 30:0.0186177 31:0.0196907 32:0.00506401 33:0.0329305 34:0.00407985 35:0.0258648 36:0.0764367 37:0.0176 38:0.142849 39:0.629155 40:0.0338092 41:0.0307635 42:0.012394 43:0.0202071 44:0.0109202 
1.5 1:0.997339 2:0.00199213 3:2.52072e-05 4:0.000644079 5:0.954169 6:0.0256507 7:0.158961 8:-0.861626 9:0.203107 10:0.0769992 11:0.171293 12:0.0272812 13:0.103226 14:0.0107915 15:0.0136395 16:0.219595 17:0.148416 18:0 19:0 20:0 21:0 22:0 23:0 24:0 25:0.018331 26:0.186354 27:0.07514 28:0.520479 29:0.0592633 30:0.0157167 31:0.060935 32:0.0557777 33:0.00462849 34:0.00337548 35:0.1 36:0.1 37:0.1 38:0.1 39:0.1 40:0.1 41:0.1 42:0.1 43:0.1 44:0.1 
1.5 1:0.992386 2:4.2718e-05 3:4.1238e-05 4:0.00753034 5:-0.59282 6:0.0421588 7:0.549879 8:0.736072 9:0.0200289 10:0.0323353 11:0.00490003 12:0.0390284 13:0.0541776 14:0.00827395 15:0.023932 16:0.294979 17:0.480186 18:0 19:0 20:0 21:0 22:0 23:0 24:0 25:0.0615152 26:0.0225614 27:0.00870525 28:0.179466 29:0.489098 30:0.00957509 31:0.0280711 32:0.196563 33:0.00322422 34:0.00122026 35:0.000547553 36:0.0111923 37:0.00102441 38:0.942556 39:0.000872134 40:0.00179212 41:0.0029083 42:0.000655948 43:0.0373951 44:0.00105624 
1.5 1:0.950956 2:0.045327 3:0.000939708 4:0.002777 5:0.819642 6:0.00789446 7:0.10196 8:0.97518 9:0.390308 10:0.0236094 11:0.00158099 12:0.00914977 13:0.0328618 14:0.0579393 15:0.00912237 16:0.441706 17:0.025828 18:0 19:0 20:0 21:0 22:0 23:0 24:0 25:0.0268989 26:0.132765 27:0.064601 28:0.542515 29:0.0250432 30:0.0901148 31:0.0325463 32:0.00848339 33:0.0661169 34:0.0109159 35:0.0258648 36:0.0764367 37:0.0176 38:0.142849 39:0.629155 40:0.0338092 41:0.0307635 42:0.012394 43:0.0202071 44:0.0109202 
1.5 1:0.995169 2:0.00224315 3:0.000307299 4:0.00228056 5:0.968498 6:0.0968689 7:0.868198 8:0.902838 9:0.086753 10:0.0481188 11:0.00787675 12:0.0396417 13:0.0471931 14:0.0238364 15:0.0615874 16:0.0773176 17:0.510806 18:0 19:0 20:0 21:0 22:0 23:0 24:1 25:0.0508862 26:0.0685178 27:0.0120735 28:0.200274 29:0.293752 30:0.00666767 31:0.0384027 32:0.325414 33:0.00251731 34:0.00149493 35:0.00454151 36:0.0154711 37:0.0101857 38:0.0114909 39:0.73698 40:0.0288846 41:0.0570607 42:0.0994376 43:0.0261836 44:0.00976406 
1.5 1:0.984226 2:0.00792705 3:0.00184845 4:0.00599891 5:0.960539 6:0.000455112 7:0.0614907 8:0.672296 9:0.00240873 10:0.0040662 11:0.00342264 12:0.000294365 13:0.00770469 14:0.0549771 15:0.00439171 16:0.118148 17:0.804132 18:0 19:0 20:0 21:0 22:0 23:0 24:0 25:0.00756045 26:0.0152064 27:0.146107 28:0.533564 29:0.201643 30:0.0120817 31:0.02527 32:0.0533866 33:0.00302416 34:0.00215672 35:0.1 36:0.1 37:0.1 38:0.1 39:0.1 40:0.1 41:0.1 42:0.1 43:0.1 44:0.1 
1.5 1:0.991577 2:0.00645892 3:0.000451498 4:0.00151283 5:0.954326 6:0.0200707 7:0.309654 8:0.919716 9:0.0159092 10:0.0313503 11:0.0469604 12:0.00992042 13:0.0288782 14:0.365752 15:0.0235568 16:0.0900455 17:0.367557 18:0 19:0 20:0 21:0 22:0 23:0 24:0 25:0.21362 26:0.138805 27:0.0298072 28:0.176931 29:0.315009 30:0.0243506 31:0.0433709 32:0.0406387 33:0.0111816 34:0.00628574 35:0.1 36:0.1 37:0.1 38:0.1 39:0.1 40:0.1 41:0.1 42:0.1 43:0.1 44:0.1 
1.5 1:0.991497 2:0.00440995 3:0.000857749 4:0.00323526 5:-0.641508 6:0.00501691 7:0.577063 8:0.894543 9:0.0201861 10:0.00501415 11:0.00173481 12:0.00221355 13:0.00600937 14:0.00231335 15:0.012484 16:0.0342526 17:0.910775 18:1 19:0 20:0 21:0 22:0 23:0 24:0 25:0.0360224 26:0.109519 27:0.0167402 28:0.0882967 29:0.519954 30:0.0109921 31:0.116033 32:0.0960406 33:0.0040452 34:0.00235669 35:0.00025898 36:0.00182782 37:0.000395584 38:0.944483 39:0.00605943 40:0.0024427 41:0.00328604 42:0.000829894 43:0.0399677 44:0.000448607 
1.5 1:0.993956 2:2.70243e-05 3:2.74792e-05 4:0.00598918 5:0.615778 6:0.0342614 7:0.134062 8:0.514199 9:0.0514813 10:0.525043 11:0.0308818 12:0.0737406 13:0.139635 14:0.0185498 15:0.012173 16:0.0251124 17:0.0891223 18:0 19:0 20:0 21:0 22:0 23:0 24:0 25:0.0983666 26:0.0441984 27:0.0140377 28:0.143923 29:0.282557 30:0.0189501 31:0.0221969 32:0.324943 33:0.0442629 34:0.00656492 35:0.1 36:0.1 37:0.1 38:0.1 39:0.1 40:0.1 41:0.1 42:0.1 43:0.1 44:0.1 
1.5 1:0.999868 2:4.02169e-07 3:2.16985e-07 4:0.00013167 5:0.957189 6:0.00116791 7:0.369542 8:0.875834 9:0.00406181 10:0.00216427 11:0.000150104 12:0.000398286 13:0.00143443 14:0.000764503 15:0.00395471 16:0.162691 17:0.823213 18:0 19:0 20:0 21:0 22:0 23:0 24:0 25:0.0646302 26:0.0520372 27:0.00719019 28:0.234574 29:0.232732 30:0.0374541 31:0.0318775 32:0.335856 33:0.00229918 34:0.00134992 35:0.1 36:0.1 37:0.1 38:0.1 39:0.1 40:0.1 41:0.1 42:0.1 43:0.1 44:0.1 
1.5 1:0.336514 2:0.0284192 3:0.002947 4:0.63212 5:-0.817856 6:0.00756766 7:0.0185016 8:0.938856 9:0.00948803 10:0.0993321 11:0.0458225 12:0.0132805 13:0.0912948 14:0.560651 15:0.0757206 16:0.0943307 17:0.00251189 18:0 19:0 20:0 21:0 22:0 23:0 24:0 25:0.0264763 26:0.237648 27:0.105185 28:0.239706 29:0.0222728 30:0.0983153 31:0.053952 32:0.0141739 33:0.151657 34:0.0506134 35:0.0272701 36:0.565992 37:0.0782615 38:0.0898632 39:0.0259758 40:0.0239765 41:0.0402714 42:0.027288 43:0.0418996 44:0.0792023 
1.5 1:0.993923 2:0.00284989 3:0.000122238 4:0.00310511 5:-0.548898 6:0.150709 7:0.575083 8:0.993533 9:0.0823016 10:0.062236 11:0.0040528 12:0.00539802 13:0.0152295 14:0.0103257 15:0.00673412 16:0.573172 17:0.0898409 18:0 19:0 20:0 21:0 22:0 23:0 24:0 25:0.12653 26:0.07161 27:0.0224675 28:0.0699816 29:0.102086 30:0.0516663 31:0.0859692 32:0.463436 33:0.00381839 34:0.00243539 35:0.022064 36:0.567296 37:0.0350626 38:0.0639589 39:0.070256 40:0.04911 41:0.049073 42:0.0749207 43:0.0412061 44:0.0270523 
1.5 1:0.991948 2:0.00681004 3:0.000274459 4:0.000967495 5:-0.888373 6:0.00685699 7:0.429685 8:0.974237 9:0.0324538 10:0.0131841 11:0.00131919 12:0.0038021 13:0.00266893 14:0.00265743 15:0.00191228 16:0.562504 17:0.372641 18:0 19:0 20:0 21:0 22:0 23:0 24:1 25:0.303479 26:0.142237 27:0.0180337 28:0.0692365 29:0.0497198 30:0.0335531 31:0.112597 32:0.257031 33:0.00641073 34:0.00770149 35:0.0366932 36:0.140936 37:0.0203148 38:0.16338 39:0.48462 40:0.0515761 41:0.0383576 42:0.0194338 43:0.0286026 44:0.0160854 
1.210603176602008 1:0.998208 2:2.40675e-06 3:2.38612e-06 4:0.0017872 5:0.951769 6:0.0339544 7:0.061902 8:0.592071 9:0.0167539 10:0.392523 11:0.0245467 12:0.00537499 13:0.0918102 14:0.379992 15:0.0169568 16:0.0357028 17:0.00238522 18:0 19:0 20:1 21:0 22:0 23:0 24:1 25:0.259076 26:0.128798 27:0.0088626 28:0.435424 29:0.0158066 30:0.0203388 31:0.0161004 32:0.00747716 33:0.0840309 34:0.0240859 35:0.010624 36:0.0854533 37:0.0556544 38:0.0404465 39:0.0137268 40:0.0436877 41:0.0126363 42:0.00472265 43:0.010238 44:0.72281 
1.5 1:0.996633 2:8.53711e-06 3:8.91386e-06 4:0.00334982 5:0.759901 6:0.00820312 7:0.103354 8:0.663556 9:0.170661 10:0.043789 11:0.0116109 12:0.0426173 13:0.0472906 14:0.342135 15:0.109927 16:0.0415801 17:0.182186 18:0 19:0 20:0 21:0 22:0 23:0 24:0 25:0.0342348 26:0.0284534 27:0.052236 28:0.517775 29:0.151249 30:0.0092432 31:0.0180684 32:0.175172 33:0.00770452 34:0.00586314 35:0.1 36:0.1 37:0.1 38:0.1 39:0.1 40:0.1 41:0.1 42:0.1 43:0.1 44:0.1 
1.5 1:0.989815 2:0.00248235 3:0.00146981 4:0.00623322 5:0.822628 6:0.0901727 7:0.170325 8:-0.861468 9:0.106458 10:0.167655 11:0.0266601 12:0.0105291 13:0.0941408 14:0.395633 15:0.0715154 16:0.0201267 17:0.0171089 18:0 19:0 20:0 21:0 22:0 23:0 24:0 25:0.130498 26:0.193486 27:0.0145279 28:0.21554 29:0.021364 30:0.02428 31:0.0432484 32:0.0287445 33:0.311217 34:0.0170939 35:0.00893095 36:0.0778327 37:0.0535509 38:0.0430635 39:0.0140011 40:0.0410545 41:0.0179655 42:0.00559276 43:0.0213147 44:0.716693 
1.5 1:0.454206 2:0.451795 3:0.0780506 4:0.0159486 5:-0.749704 6:0.0226446 7:0.559134 8:0.943606 9:0.0491584 10:0.0183098 11:0.0039596 12:0.0155225 13:0.0335899 14:0.0104541 15:0.00435268 16:0.313506 17:0.528502 18:0 19:0 20:0 21:1 22:0 23:0 24:0 25:0.0490329 26:0.0617491 27:0.00334606 28:0.177966 29:0.638312 30:0.0051157 31:0.0378697 32:0.0210015 33:0.00362439 34:0.0019831 35:0.0209493 36:0.0748413 37:0.147214 38:0.0791662 39:0.0272925 40:0.205384 41:0.037133 42:0.0353227 43:0.123744 44:0.248952 
1.5 1:0.997117 2:0.00183675 3:0.000126941 4:0.000918852 5:0.960643 6:0.0989798 7:0.389567 8:0.791816 9:0.0110302 10:0.179073 11:0.238545 12:0.0103242 13:0.118913 14:0.00659744 15:0.0383862 16:0.255797 17:0.0423533 18:0 19:0 20:0 21:0 22:0 23:0 24:1 25:0.0323301 26:0.0985571 27:0.0541608 28:0.0826445 29:0.0532095 30:0.0956585 31:0.234803 32:0.345036 33:0.00207358 34:0.00152688 35:0.264151 36:0.114788 37:0.0676134 38:0.150873 39:0.0246228 40:0.111858 41:0.0820455 42:0.0639984 43:0.0687651 44:0.0512839 
1.5 1:0.99528 2:0.00345557 3:0.000139304 4:0.00112529 5:0.980254 6:0.0666174 7:0.313419 8:0.68404 9:0.0719359 10:0.0840859 11:0.021515 12:0.0139008 13:0.0477199 14:0.0185151 15:0.0203352 16:0.18738 17:0.467995 18:0 19:0 20:0 21:0 22:0 23:0 24:1 25:0.00963263 26:0.0244018 27:0.018169 28:0.883993 29:0.0451827 30:0.00243664 31:0.00202432 32:0.00864835 33:0.00464034 34:0.000870866 35:0.1 36:0.1 37:0.1 38:0.1 39:0.1 40:0.1 41:0.1 42:0.1 43:0.1 44:0.1 
1.5 1:0.999814 2:1.00261e-06 3:5.16944e-07 4:0.000184671 5:0.961974 6:0.124571 7:0.588343 8:0.792648 9:0.0443606 10:0.105908 11:0.0465181 12:0.0132576 13:0.0773276 14:0.0800475 15:0.447416 16:0.0157129 17:0.044881 18:0 19:0 20:0 21:0 22:0 23:0 24:1 25:0.0667057 26:0.0756931 27:0.00650363 28:0.239643 29:0.562609 30:0.00536401 31:0.0231643 32:0.0165723 33:0.00280361 34:0.000941525 35:0.0244937 36:0.0952867 37:0.0652945 38:0.357805 39:0.151082 40:0.126639 41:0.0291282 42:0.0263772 43:0.0428772 44:0.0810161 
1.5 1:0.999235 2:1.58002e-06 3:1.55119e-06 4:0.000761653 5:0.916772 6:0.00247534 7:0.0295509 8:0.989271 9:0.279779 10:0.0222089 11:0.0204103 12:0.0534551 13:0.0491531 14:0.101753 15:0.440031 16:0.0151263 17:0.0156084 18:0 19:0 20:0 21:0 22:0 23:0 24:0 25:0.151459 26:0.0623997 27:0.0802312 28:0.132063 29:0.262229 30:0.12081 31:0.0253607 32:0.141974 33:0.0145061 34:0.00896721 35:0.1 36:0.1 37:0.1 38:0.1 39:0.1 40:0.1 41:0.1 42:0.1 43:0.1 44:0.1 
1.5 1:0.997474 2:5.87565e-06 3:5.75292e-06 4:0.00251477 5:0.933921 6:0.00891624 7:0.112393 8:0.815096 9:0.492205 10:0.0550714 11:0.0210038 12:0.0441333 13:0.0875923 14:0.125516 15:0.131034 16:0.0161218 17:0.018406 18:0 19:0 20:0 21:0 22:0 23:0 24:0 25:0.122481 26:0.043645 27:0.0504809 28:0.253638 29:0.289085 30:0.0814547 31:0.0151949 32:0.132586 33:0.00871842 34:0.00271613 35:0.1 36:0.1 37:0.1 38:0.1 39:0.1 40:0.1 41:0.1 42:0.1 43:0.1 44:0.1 
1.5 1:0.611249 2:0.143102 3:0.0566229 4:0.189027 5:0.915204 6:0.350292 7:0.690048 8:-0.713049 9:0.306264 10:0.14928 11:0.00883674 12:0.0217123 13:0.0322423 14:0.0263766 15:0.00922441 16:0.0713192 17:0.0244536 18:0 19:0 20:0 21:0 22:0 23:0 24:0 25:0.152976 26:0.0647751 27:0.00543253 28:0.19503 29:0.461966 30:0.0112602 31:0.0339674 32:0.0647517 33:0.00618684 34:0.0036549 35:0.1 36:0.1 37:0.1 38:0.1 39:0.1 40:0.1 41:0.1 42:0.1 43:0.1 44:0.1 
1.5 1:0.997054 2:0.00106776 3:0.000175208 4:0.00170301 5:0.923268 6:0.0102659 7:0.341688 8:0.70195 9:0.0111447 10:0.0164374 11:0.00742385 12:0.00427642 13:0.0684915 14:0.00839595 15:0.0221095 16:0.386425 17:0.46503 18:0 19:0 20:0 21:0 22:0 23:0 24:0 25:0.0427481 26:0.0272466 27:0.0457526 28:0.176656 29:0.392064 30:0.161201 31:0.0383711 32:0.103599 33:0.00636435 34:0.0059987 35:0.0173268 36:0.0886248 37:0.00828492 38:0.0865966 39:0.733065 40:0.030396 41:0.0143341 42:0.00322208 43:0.00983407 44:0.0083158 
1.5 1:0.997229 2:6.52987e-06 3:6.75291e-06 4:0.00275745 5:0.960492 6:0.0739533 7:0.416812 8:0.766139 9:0.128619 10:0.142976 11:0.0167736 12:0.0216401 13:0.0281208 14:0.035502 15:0.0150105 16:0.503284 17:0.0341201 18:0 19:0 20:0 21:0 22:0 23:0 24:0 25:0.229291 26:0.0524788 27:0.0169806 28:0.0544253 29:0.504233 30:0.0603587 31:0.0104051 32:0.0649376 33:0.00541772 34:0.00147219 35:0.1 36:0.1 37:0.1 38:0.1 39:0.1 40:0.1 41:0.1 42:0.1 43:0.1 44:0.1 
1.5 1:0.821044 2:0.0799282 3:0.0205368 4:0.0784912 5:-0.882986 6:0.00796116 7:0.142917 8:-0.985282 9:0.051665 10:0.0190568 11:0.153824 12:0.443367 13:0.105639 14:0.0215422 15:0.0732393 16:0.0227586 17:0.100947 18:0 19:0 20:0 21:0 22:0 23:0 24:0 25:0.00146723 26:0.00965343 27:0.0593531 28:0.0131873 29:0.00334505 30:0.891362 31:0.00498666 32:0.00477574 33:0.00859008 34:0.00327945 35:0.00737969 36:0.0298243 37:0.0661212 38:0.0117531 39:0.00489481 40:0.823327 41:0.0170691 42:0.00576926 43:0.0110741 44:0.0227872 
0.3721384438566627 1:0.998823 2:1.27225e-06 3:1.21072e-06 4:0.00117456 5:0.968171 6:0.0789781 7:0.0821129 8:0.732843 9:0.0128199 10:0.40707 11:0.020539 12:0.00611808 13:0.154194 14:0.0473057 15:0.063397 16:0.0904413 17:0.119137 18:0 19:0 20:0 21:0 22:0 23:1 24:0 25:0.00801512 26:0.0176244 27:0.0595591 28:0.786669 29:0.0962158 30:0.00154936 31:0.00958904 32:0.0170447 33:0.00198949 34:0.00174436 35:0.471808 36:0.110613 37:0.0710282 38:0.188636 39:0.011076 40:0.0335834 41:0.0302784 42:0.0132327 43:0.0230432 44:0.046701 
1.5 1:0.00077907 2:0.00616732 3:0.000690617 4:0.992363 5:-0.964189 6:0.00392886 7:0.0614632 8:0.550622 9:0.177738 10:0.01747 11:0.0315041 12:0.111019 13:0.0681307 14:0.0349333 15:0.00453053 16:0.393551 17:0.157195 18:0 19:0 20:0 21:0 22:0 23:0 24:0 25:0.0284996 26:0.0275586 27:0.0168584 28:0.227608 29:0.340077 30:0.006449 31:0.0375876 32:0.30737 33:0.00469147 34:0.00330135 35:0.0102059 36:0.028301 37:0.00967662 38:0.770596 39:0.0438474 40:0.0192037 41:0.00882364 42:0.00261799 43:0.0631732 44:0.0435542 
1.5 1:0.996683 2:0.00157853 3:0.000209381 4:0.00152921 5:0.643097 6:0.00318662 7:0.105757 8:0.944051 9:0.196103 10:0.0127091 11:0.00377183 12:0.00481426 13:0.11827 14:0.0727629 15:0.35093 16:0.0721428 17:0.16531 18:0 19:0 20:0 21:0 22:0 23:0 24:0 25:0.0510341 26:0.0441747 27:0.0195333 28:0.595756 29:0.0715077 30:0.0173397 31:0.0551308 32:0.110863 33:0.0311496 34:0.00351087 35:0.1 36:0.1 37:0.1 38:0.1 39:0.1 40:0.1 41:0.1 42:0.1 43:0.1 44:0.1 
1.5 1:0.978766 2:0.00624759 3:0.000840639 4:0.0141458 5:-0.901171 6:0.00280207 7:0.149284 8:0.757309 9:0.64317 10:0.0073882 11:0.00570203 12:0.00885613 13:0.0221672 14:0.12199 15:0.0971867 16:0.0601358 17:0.0306018 18:0 19:0 20:0 21:0 22:0 23:0 24:0 25:0.0276082 26:0.0374472 27:0.0365147 28:0.517267 29:0.118345 30:0.00814003 31:0.0265297 32:0.219042 33:0.00559957 34:0.00350613 35:0.1 36:0.1 37:0.1 38:0.1 39:0.1 40:0.1 41:0.1 42:0.1 43:0.1 44:0.1 
1.5 1:0.996855 2:0.00170231 3:0.000238861 4:0.00120336 5:0.817198 6:0.00385849 7:0.0789533 8:0.645749 9:0.582435 10:0.0167027 11:0.00708563 12:0.0263491 13:0.0758326 14:0.138774 15:0.0780928 16:0.0522787 17:0.0185909 18:0 19:0 20:0 21:0 22:0 23:0 24:0 25:0.030753 26:0.045324 27:0.0319888 28:0.170794 29:0.220971 30:0.00903161 31:0.0951313 32:0.389644 33:0.00434365 34:0.00201843 35:0.1 36:0.1 37:0.1 38:0.1 39:0.1 40:0.1 41:0.1 42:0.1 43:0.1 44:0.1 
1.5 1:0.830237 2:0.0369298 3:0.0483484 4:0.0844845 5:0.555613 6:0.0093933 7:0.214875 8:-0.521612 9:0.186157 10:0.0222852 11:0.0113461 12:0.108727 13:0.065652 14:0.218959 15:0.0665331 16:0.152496 17:0.158451 18:0 19:0 20:0 21:0 22:0 23:0 24:0 25:0.028786 26:0.0827849 27:0.0609326 28:0.280027 29:0.221016 30:0.0328063 31:0.0653169 32:0.22064 33:0.0040059 34:0.00368474 35:0.1 36:0.1 37:0.1 38:0.1 39:0.1 40:0.1 41:0.1 42:0.1 43:0.1 44:0.1 
1.214546429298766 1:0.0803152 2:0.0890504 3:0.783339 4:0.0472951 5:-0.695734 6:0.0137862 7:0.219214 8:-0.843278 9:0.0120015 10:0.0868059 11:0.0860797 12:0.0311633 13:0.435937 14:0.159756 15:0.0685352 16:0.0499538 17:0.0559805 18:0 19:0 20:0 21:0 22:0 23:0 24:0 25:0.0105022 26:0.0682252 27:0.1397 28:0.185709 29:0.233459 30:0.0999707 31:0.193863 32:0.0570595 33:0.00611647 34:0.00539482 35:0.00521289 36:0.0456327 37:0.0147195 38:0.800966 39:0.00454283 40:0.0562839 41:0.0274077 42:0.00526295 43:0.017313 44:0.022658 
1.5 1:0.920031 2:0.0375037 3:0.00926819 4:0.0331969 5:0.893406 6:0.0493527 7:0.42169 8:0.557379 9:0.014368 10:0.0587742 11:0.0254164 12:0.0300063 13:0.0338418 14:0.032177 15:0.234785 16:0.0312632 17:0.490015 18:0 19:0 20:0 21:0 22:0 23:0 24:0 25:0.0961428 26:0.0714795 27:0.00669108 28:0.0835563 29:0.506023 30:0.0302668 31:0.0959453 32:0.102709 33:0.00480695 34:0.00237937 35:0.00503044 36:0.0113369 37:0.00770598 38:0.883912 39:0.0126073 40:0.0184019 41:0.00498421 42:0.00183129 43:0.049506 44:0.00468426 
1.5 1:0.966753 2:0.0130052 3:0.00531461 4:0.0149274 5:0.923752 6:0.0225675 7:0.422383 8:0.939436 9:0.0255294 10:0.0276901 11:0.015713 12:0.0542907 13:0.0145846 14:0.0179087 15:0.135092 16:0.0962294 17:0.590395 18:0 19:0 20:0 21:0 22:0 23:0 24:0 25:0.05479 26:0.041718 27:0.00470498 28:0.136777 29:0.640632 30:0.0161486 31:0.0445915 32:0.0573184 33:0.00213375 34:0.00118554 35:0.00166924 36:0.0117618 37:0.00535851 38:0.918875 39:0.00723828 40:0.0141225 41:0.00135156 42:0.000635629 43:0.0356175 44:0.0033704 
1.5 1:0.966001 2:0.0267034 3:0.00281378 4:0.00448205 5:0.917511 6:0.0835071 7:0.117207 8:0.86735 9:0.188084 10:0.115817 11:0.0154223 12:0.00999012 13:0.178044 14:0.0210962 15:0.00800795 16:0.362134 17:0.017897 18:0 19:0 20:0 21:0 22:0 23:0 24:0 25:0.155276 26:0.109682 27:0.0456562 28:0.143949 29:0.207458 30:0.0465748 31:0.114414 32:0.158136 33:0.0122055 34:0.00664923 35:0.1 36:0.1 37:0.1 38:0.1 39:0.1 40:0.1 41:0.1 42:0.1 43:0.1 44:0.1 
1.5 1:0.995813 2:0.00215026 3:0.000277453 4:0.00175882 5:0.924803 6:0.0545215 7:0.406117 8:0.937981 9:0.106279 10:0.0717205 11:0.0236052 12:0.0100114 13:0.0597878 14:0.0215161 15:0.00795321 16:0.630511 17:0.0140936 18:0 19:0 20:0 21:0 22:0 23:0 24:0 25:0.0631445 26:0.0726889 27:0.0221336 28:0.157244 29:0.53216 30:0.00742303 31:0.049629 32:0.0898658 33:0.00396301 34:0.00174799 35:0.1 36:0.1 37:0.1 38:0.1 39:0.1 40:0.1 41:0.1 42:0.1 43:0.1 44:0.1 
1.5 1:0.995388 2:0.00295082 3:9.1859e-05 4:0.00156918 5:0.943552 6:0.047535 7:0.15596 8:0.907427 9:0.0479539 10:0.183539 11:0.0112394 12:0.0106624 13:0.0319806 14:0.0148962 15:0.0167588 16:0.614074 17:0.0213615 18:0 19:0 20:0 21:0 22:0 23:0 24:0 25:0.131748 26:0.0884092 27:0.0139392 28:0.0969266 29:0.486955 30:0.0062641 31:0.0699725 32:0.0980691 33:0.00590522 34:0.00181117 35:0.1 36:0.1 37:0.1 38:0.1 39:0.1 40:0.1 41:0.1 42:0.1 43:0.1 44:0.1 
0.5908000785201681 1:0.982872 2:0.0016593 3:0.00084698 4:0.0146219 5:0.792317 6:0.502815 7:0.647801 8:-0.675682 9:0.00387726 10:0.268386 11:0.00757245 12:0.00192619 13:0.0204467 14:0.00839755 15:0.0323057 16:0.141314 17:0.0129591 18:0 19:0 20:0 21:1 22:0 23:0 24:1 25:0.103223 26:0.0574428 27:0.0116051 28:0.195972 29:0.19566 30:0.0392218 31:0.0723464 32:0.3189 33:0.00367451 34:0.00195564 35:0.0294687 36:0.0619141 37:0.0248702 38:0.629863 39:0.018356 40:0.0448412 41:0.0561065 42:0.0432158 43:0.0680801 44:0.0232841 
1.5 1:0.999492 2:2.27994e-07 3:2.09481e-07 4:0.000507767 5:0.95277 6:0.00261923 7:0.0606653 8:0.755663 9:0.0483871 10:0.0150241 11:0.000529055 12:0.000710111 13:0.00624355 14:0.00164088 15:0.00472472 16:0.463863 17:0.456258 18:0 19:0 20:0 21:0 22:0 23:0 24:0 25:0.0394525 26:0.0245515 27:0.00619254 28:0.154746 29:0.645945 30:0.00688005 31:0.0173899 32:0.102675 33:0.00145062 34:0.000715925 35:0.00329287 36:0.00868186 37:0.00932234 38:0.0773701 39:0.817057 40:0.0081495 41:0.0159423 42:0.0158321 43:0.0304128 44:0.013939 
1.5 1:0.999343 2:3.2947e-07 3:3.27037e-07 4:0.000655868 5:0.824437 6:0.0384381 7:0.421433 8:0.983839 9:0.270994 10:0.0249635 11:0.00566804 12:0.0141453 13:0.0178457 14:0.00740069 15:0.0101157 16:0.265516 17:0.344913 18:0 19:0 20:0 21:1 22:0 23:0 24:1 25:0.043029 26:0.0897784 27:0.00752808 28:0.181694 29:0.616346 30:0.00487892 31:0.0358034 32:0.0151027 33:0.00430551 34:0.00153423 35:0.1 36:0.1 37:0.1 38:0.1 39:0.1 40:0.1 41:0.1 42:0.1 43:0.1 44:0.1 
1.5 1:0.952447 2:0.0302696 3:0.00617242 4:0.0111105 5:-0.646967 6:0.0147997 7:0.171374 8:-0.620592 9:0.072289 10:0.0241081 11:0.0107908 12:0.00796986 13:0.114429 14:0.416834 15:0.0408512 16:0.080848 17:0.21708 18:0 19:0 20:0 21:0 22:0 23:0 24:0 25:0.0890138 26:0.0309574 27:0.00289369 28:0.165109 29:0.512456 30:0.00205629 31:0.0837367 32:0.104232 33:0.00627122 34:0.00327336 35:0.0278612 36:0.0607051 37:0.0221521 38:0.663693 39:0.0175791 40:0.0384402 41:0.0440272 42:0.0418364 43:0.0620835 44:0.0216219 
1.5 1:0.992366 2:0.00702928 3:0.000154002 4:0.000450265 5:0.897423 6:0.00722207 7:0.352951 8:0.715459 9:0.0149013 10:0.0288055 11:0.00260389 12:0.000950047 13:0.004659 14:0.00638722 15:0.000655539 16:0.824414 17:0.109402 18:0 19:0 20:0 21:0 22:0 23:0 24:0 25:0.163715 26:0.165472 27:0.0215445 28:0.242484 29:0.300162 30:0.00986002 31:0.038055 32:0.0537846 33:0.00269286 34:0.00222975 35:0.0034244 36:0.00789822 37:0.00657307 38:0.0166896 39:0.57144 40:0.025116 41:0.0602478 42:0.289366 43:0.0125164 44:0.00672862 
1.5 1:0.998421 2:3.15271e-06 3:3.465e-06 4:0.00157228 5:0.960035 6:0.0179132 7:0.132183 8:-0.836851 9:0.0245658 10:0.0374063 11:0.0610914 12:0.0135447 13:0.0765776 14:0.0952209 15:0.595619 16:0.0323927 17:0.0456684 18:0 19:0 20:0 21:0 22:0 23:0 24:0 25:0.0200758 26:0.0657636 27:0.0169334 28:0.00925785 29:0.0204962 30:0.0384606 31:0.499707 32:0.325126 33:0.00271939 34:0.00145994 35:0.0230224 36:0.0330923 37:0.0157472 38:0.118733 39:0.704643 40:0.0166145 41:0.0184528 42:0.0076478 43:0.0493482 44:0.0126989 
1.5 1:0.997065 2:0.00110474 3:4.14853e-05 4:0.00178905 5:0.801595 6:0.0231127 7:0.246091 8:0.786692 9:0.0657333 10:0.0486698 11:0.20957 12:0.026345 13:0.214193 14:0.0545356 15:0.318528 16:0.00914193 17:0.0301707 18:0 19:0 20:0 21:0 22:0 23:0 24:0 25:0.0762705 26:0.064641 27:0.480429 28:0.019805 29:0.0287501 30:0.287183 31:0.031211 32:0.00661808 33:0.00275159 34:0.00234068 35:0.0147127 36:0.0286077 37:0.0168686 38:0.113665 39:0.746295 40:0.0172467 41:0.0121016 42:0.00715886 43:0.031839 44:0.0115051 
1.5 1:0.968012 2:0.0112582 3:0.000530735 4:0.0201988 5:0.732622 6:0.1159 7:0.54102 8:0.942727 9:0.192688 10:0.129974 11:0.0178449 12:0.0153877 13:0.0798119 14:0.081742 15:0.21979 16:0.0512215 17:0.0956412 18:0 19:0 20:0 21:0 22:0 23:0 24:1 25:0.0196192 26:0.17573 27:0.254753 28:0.283646 29:0.0906512 30:0.0238339 31:0.0861941 32:0.0456896 33:0.0120881 34:0.00779448 35:0.0174356 36:0.502179 37:0.341899 38:0.0200015 39:0.0255556 40:0.0126172 41:0.0191467 42:0.00685637 43:0.00928611 44:0.0450225 
1.5 1:0.988819 2:0.00128894 3:0.000349958 4:0.00954231 5:0.594883 6:0.025405 7:0.235998 8:0.930833 9:0.0931763 10:0.047481 11:0.0471072 12:0.00322285 13:0.175272 14:0.0667172 15:0.407293 16:0.0904194 17:0.0439065 18:0 19:0 20:0 21:0 22:0 23:0 24:1 25:0.038716 26:0.311045 27:0.0931515 28:0.167002 29:0.0855416 30:0.0123271 31:0.145945 32:0.122695 33:0.0181946 34:0.00538266 35:0.0229505 36:0.607578 37:0.177644 38:0.0258882 39:0.039014 40:0.0197772 41:0.0191049 42:0.0143804 43:0.019763 44:0.0538998 
1.5 1:0.993357 2:0.00308311 3:0.000214852 4:0.00334462 5:0.93311 6:0.00280055 7:0.0100533 8:0.889251 9:0.0546226 10:0.0635953 11:0.00531621 12:0.00748432 13:0.0981639 14:0.159236 15:0.381294 16:0.076996 17:0.15049 18:0 19:0 20:0 21:0 22:0 23:0 24:0 25:0.164918 26:0.248087 27:0.013767 28:0.110246 29:0.165798 30:0.0142533 31:0.0613534 32:0.213201 33:0.0058061 34:0.00257063 35:0.0324936 36:0.536292 37:0.073487 38:0.049669 39:0.0209 40:0.0442143 41:0.0441036 42:0.0278594 43:0.0690082 44:0.101972 
1.5 1:0.742398 2:0.226508 3:0.0145728 4:0.0165217 5:0.526009 6:0.0231071 7:0.141442 8:0.912255 9:0.00917876 10:0.159584 11:0.504631 12:0.024588 13:0.0990268 14:0.0732484 15:0.0112172 16:0.0680372 17:0.0273814 18:0 19:0 20:0 21:0 22:0 23:0 24:1 25:0.0209021 26:0.064285 27:0.0132211 28:0.0746594 29:0.209314 30:0.00904088 31:0.377184 32:0.222186 33:0.00589272 34:0.00331488 35:0.1 36:0.1 37:0.1 38:0.1 39:0.1 40:0.1 41:0.1 42:0.1 43:0.1 44:0.1 
1.5 1:0.997329 2:0.0022386 3:0.000120516 4:0.000312004 5:0.957505 6:0.010652 7:0.32639 8:0.920679 9:0.00310205 10:0.0215752 11:0.020962 12:0.0066093 13:0.183763 14:0.0158612 15:0.0799478 16:0.0316599 17:0.625867 18:0 19:0 20:0 21:0 22:0 23:0 24:0 25:0.00524079 26:0.0717066 27:0.0800419 28:0.792236 29:0.0306915 30:0.00687866 31:0.00861967 32:0.00317056 33:0.00107666 34:0.00033767 35:0.1 36:0.1 37:0.1 38:0.1 39:0.1 40:0.1 41:0.1 42:0.1 43:0.1 44:0.1 
1.5 1:0.980276 2:0.0143381 3:0.00196937 4:0.00341686 5:0.865428 6:0.0822883 7:0.325067 8:0.883507 9:0.0427138 10:0.0803926 11:0.0454783 12:0.0548673 13:0.118235 14:0.231939 15:0.288578 16:0.0303971 17:0.0251102 18:0 19:0 20:0 21:0 22:0 23:0 24:0 25:0.00769807 26:0.0576624 27:0.0798193 28:0.766006 29:0.0606745 30:0.00655945 31:0.0142366 32:0.00484786 33:0.00179494 34:0.000700868 35:0.1 36:0.1 37:0.1 38:0.1 39:0.1 40:0.1 41:0.1 42:0.1 43:0.1 44:0.1 
1.5 1:0.996189 2:0.00253114 3:6.94692e-05 4:0.00121085 5:0.937812 6:0.145807 7:0.315281 8:0.985565 9:0.0149581 10:0.160313 11:0.0816839 12:0.0112854 13:0.0432812 14:0.115765 15:0.37575 16:0.0414906 17:0.00966635 18:0 19:0 20:0 21:0 22:0 23:0 24:0 25:0.0190307 26:0.0760559 27:0.0412702 28:0.816295 29:0.031513 30:0.0070175 31:0.00436442 32:0.000693163 33:0.00304161 34:0.000718901 35:0.1 36:0.1 37:0.1 38:0.1 39:0.1 40:0.1 41:0.1 42:0.1 43:0.1 44:0.1 
1.5 1:0.994323 2:2.26526e-05 3:2.91661e-05 4:0.00562502 5:-0.710069 6:0.00603053 7:0.140566 8:-0.561892 9:0.0321518 10:0.0172096 11:0.00267639 12:0.0108401 13:0.0132021 14:0.0177876 15:0.00790374 16:0.129002 17:0.763196 18:0 19:0 20:0 21:0 22:0 23:0 24:0 25:0.0190869 26:0.0543587 27:0.023303 28:0.772948 29:0.0241142 30:0.0187894 31:0.0101586 32:0.00215178 33:0.068549 34:0.00654055 35:0.0294571 36:0.0619133 37:0.0248661 38:0.629891 39:0.0183527 40:0.0448449 41:0.0561049 42:0.0432209 43:0.0680718 44:0.0232771 
1.5 1:0.837351 2:0.0767069 3:0.0342472 4:0.0516954 5:0.763677 6:0.00568575 7:0.114869 8:-0.821717 9:0.015448 10:0.0626106 11:0.0348831 12:0.0135522 13:0.116226 14:0.28753 15:0.37721 16:0.028282 17:0.0585728 18:0 19:0 20:0 21:0 22:0 23:0 24:0 25:0.0495202 26:0.125869 27:0.0432852 28:0.0226442 29:0.588519 30:0.0496533 31:0.0629574 32:0.0351545 33:0.0132802 34:0.00911724 35:0.0149011 36:0.0452476 37:0.0239938 38:0.0295596 39:0.796673 40:0.0125198 41:0.00779139 42:0.00669482 43:0.0527411 44:0.00987734 
1.5 1:0.991848 2:0.0041599 3:0.000192265 4:0.00379978 5:0.579985 6:0.0182267 7:0.17172 8:0.967139 9:0.00925033 10:0.108002 11:0.0248597 12:0.00577289 13:0.0262707 14:0.0462638 15:0.0820006 16:0.522025 17:0.157329 18:0 19:0 20:0 21:0 22:0 23:0 24:0 25:0.160768 26:0.270102 27:0.0767723 28:0.122733 29:0.0756295 30:0.026129 31:0.112079 32:0.14348 33:0.00639659 34:0.00591036 35:0.1 36:0.1 37:0.1 38:0.1 39:0.1 40:0.1 41:0.1 42:0.1 43:0.1 44:0.1 
1.5 1:0.99909 2:1.76629e-06 3:1.90748e-06 4:0.000906445 5:0.926347 6:0.0107214 7:0.255202 8:-0.74734 9:0.0505729 10:0.0130415 11:0.00460176 12:0.0628632 13:0.0314408 14:0.00479279 15:0.00817023 16:0.489278 17:0.324517 18:0 19:0 20:0 21:0 22:0 23:0 24:0 25:0.0807218 26:0.0676182 27:0.00882312 28:0.137069 29:0.366068 30:0.026386 31:0.0975964 32:0.206921 33:0.00540929 34:0.00338734 35:0.1 36:0.1 37:0.1 38:0.1 39:0.1 40:0.1 41:0.1 42:0.1 43:0.1 44:0.1 
1.334011022439304 1:0.998621 2:1.49868e-06 3:1.43128e-06 4:0.00137607 5:0.904862 6:0.007882 7:0.14602 8:0.906832 9:0.05292 10:0.0338566 11:0.00586908 12:0.0271537 13:0.0497783 14:0.0167819 15:0.014739 16:0.447619 17:0.3434 18:0 19:0 20:0 21:0 22:0 23:0 24:0 25:0.0441098 26:0.208025 27:0.213225 28:0.274329 29:0.0781384 30:0.0685742 31:0.0590507 32:0.0194544 33:0.0236277 34:0.0114658 35:0.0135015 36:0.562287 37:0.0838651 38:0.0959003 39:0.0210272 40:0.055788 41:0.0450546 42:0.0146859 43:0.0361201 44:0.0717707 
1.5 1:0.998158 2:0.00140654 3:3.82552e-05 4:0.000396839 5:0.977458 6:0.0338977 7:0.148231 8:-0.521225 9:0.00538603 10:0.15749 11:0.0675507 12:0.00464203 13:0.0234664 14:0.0132198 15:0.00561512 16:0.408213 17:0.28052 18:0 19:0 20:0 21:0 22:0 23:0 24:1 25:0.0727615 26:0.0682065 27:0.0233264 28:0.403414 29:0.305803 30:0.0128254 31:0.0276439 32:0.068099 33:0.0139133 34:0.0040065 35:0.1 36:0.1 37:0.1 38:0.1 39:0.1 40:0.1 41:0.1 42:0.1 43:0.1 44:0.1 
1.5 1:0.0988229 2:0.0135122 3:0.0126321 4:0.875033 5:0.978606 6:0.0403399 7:0.204494 8:-0.821445 9:0.0401215 10:0.10525 11:0.0776172 12:0.0085126 13:0.39049 14:0.169816 15:0.130112 16:0.0292894 17:0.00845113 18:0 19:0 20:0 21:0 22:0 23:0 24:1 25:0.150456 26:0.107332 27:0.0132268 28:0.145978 29:0.458086 30:0.00771164 31:0.0422791 32:0.0593903 33:0.00931876 34:0.00622219 35:0.0571213 36:0.266793 37:0.116087 38:0.151155 39:0.0307298 40:0.0907301 41:0.0580192 42:0.0592335 43:0.0655528 44:0.104578 
1.067864221413521 1:0.820942 2:0.0418111 3:0.00204606 4:0.135201 5:-0.968451 6:0.278992 7:0.517048 8:0.909981 9:0.037705 10:0.213002 11:0.0310131 12:0.0169961 13:0.0297377 14:0.0120446 15:0.00481325 16:0.297123 17:0.0785726 18:0 19:0 20:0 21:1 22:0 23:0 24:0 25:0.0116316 26:0.0644929 27:0.0225174 28:0.822788 29:0.00766471 30:0.0371558 31:0.00673171 32:0.000663515 33:0.00838376 34:0.0179709 35:0.1 36:0.1 37:0.1 38:0.1 39:0.1 40:0.1 41:0.1 42:0.1 43:0.1 44:0.1 
1.5 1:0.756899 2:0.149112 3:0.030313 4:0.0636757 5:0.958409 6:0.00511705 7:0.125158 8:-0.872646 9:0.00339562 10:0.0563475 11:0.0444876 12:0.00582609 13:0.0688263 14:0.452611 15:0.00904542 16:0.32796 17:0.0263835 18:0 19:0 20:0 21:0 22:0 23:0 24:0 25:0.0119638 26:0.01261 27:0.0163148 28:0.128788 29:0.628966 30:0.00586888 31:0.0355816 32:0.154155 33:0.00324271 34:0.00251013 35:0.0168693 36:0.0517147 37:0.0106521 38:0.749089 39:0.0376803 40:0.0213309 41:0.0316766 42:0.0295085 43:0.0366051 44:0.0148737 
1.5 1:0.908219 2:0.0728703 3:0.00223688 4:0.0166743 5:0.841997 6:0.0018787 7:0.0421818 8:0.975201 9:0.442152 10:0.0152098 11:0.00295053 12:0.022598 13:0.0358022 14:0.0291472 15:0.0199248 16:0.407532 17:0.0228047 18:0 19:0 20:1 21:0 22:0 23:0 24:0 25:0.0339984 26:0.0940086 27:0.00932705 28:0.0231215 29:0.297519 30:0.016738 31:0.375434 32:0.143074 33:0.00367079 34:0.00310921 35:0.0249046 36:0.105541 37:0.0394743 38:0.144472 39:0.168113 40:0.0866669 41:0.0427507 42:0.0990142 43:0.122945 44:0.166118 
1.5 1:0.996081 2:0.00334195 3:3.58387e-05 4:0.000540781 5:0.964348 6:0.00433124 7:0.0677995 8:0.918345 9:0.0175857 10:0.0309522 11:0.00728601 12:0.00250416 13:0.0551903 14:0.0168551 15:0.00869754 16:0.203145 17:0.653452 18:0 19:0 20:0 21:0 22:0 23:0 24:0 25:0.366381 26:0.217595 27:0.0348553 28:0.128771 29:0.118109 30:0.0137323 31:0.0445586 32:0.0687552 33:0.00450638 34:0.00273621 35:0.0292025 36:0.627123 37:0.0286282 38:0.0539905 39:0.100027 40:0.045015 41:0.0581974 42:0.0199375 43:0.0256429 44:0.0122362 
1.5 1:0.996516 2:0.00282971 3:3.20079e-05 4:0.000622597 5:0.960797 6:0.0215149 7:0.120358 8:0.979128 9:0.0263356 10:0.235027 11:0.0171348 12:0.0102173 13:0.0911803 14:0.0286929 15:0.0190777 16:0.292446 17:0.258374 18:0 19:0 20:0 21:0 22:0 23:0 24:0 25:0.0976217 26:0.320913 27:0.0405422 28:0.141242 29:0.213728 30:0.0115165 31:0.0836049 32:0.0844709 33:0.00346249 34:0.00289904 35:0.0275591 36:0.649123 37:0.0257692 38:0.0550128 39:0.0956436 40:0.0453036 41:0.0418404 42:0.0245161 43:0.0245505 44:0.0106817 
1.5 1:0.0698062 2:0.911571 3:0.010794 4:0.00782825 5:0.761459 6:0.443562 7:0.589158 8:0.932165 9:0.00543043 10:0.327185 11:0.00243803 12:0.00667016 13:0.0158716 14:0.00691389 15:0.0137313 16:0.141556 17:0.036641 18:0 19:0 20:0 21:0 22:0 23:0 24:0 25:0.121187 26:0.0275995 27:0.00877823 28:0.232186 29:0.408086 30:0.0392772 31:0.0264033 32:0.125939 33:0.00804767 34:0.00249653 35:0.0106119 36:0.0428417 37:0.0219914 38:0.748989 39:0.00359154 40:0.0170707 41:0.0668445 42:0.0321225 43:0.0390852 44:0.0168515 
1.5 1:0.999825 2:1.80554e-07 3:1.22348e-07 4:0.00017442 5:0.959567 6:0.191784 7:0.726205 8:0.989671 9:0.041361 10:0.160442 11:0.0151658 12:0.0492441 13:0.0574388 14:0.0489697 15:0.0231618 16:0.0944134 17:0.318019 18:0 19:0 20:0 21:0 22:0 23:0 24:1 25:0.078957 26:0.108887 27:0.034488 28:0.437476 29:0.0589824 30:0.0364263 31:0.039405 32:0.0780541 33:0.119886 34:0.00743789 35:0.0103851 36:0.0411577 37:0.114942 38:0.0634081 39:0.0626488 40:0.0955479 41:0.427293 42:0.0855932 43:0.0357208 44:0.0633038 
1.5 1:0.35295 2:0.549398 3:0.0476838 4:0.0499683 5:0.956024 6:0.0055591 7:0.155904 8:0.823214 9:0.0104797 10:0.0263249 11:0.00325665 12:0.00151605 13:0.0126644 14:0.0137211 15:0.0166235 16:0.782246 17:0.127609 18:0 19:0 20:0 21:0 22:0 23:0 24:0 25:0.116031 26:0.0542155 27:0.0883808 28:0.307155 29:0.358913 30:0.01323 31:0.0138717 32:0.0430516 33:0.00272432 34:0.00242758 35:0.0286671 36:0.672143 37:0.0257737 38:0.0543427 39:0.0429411 40:0.0294533 41:0.100093 42:0.0168187 43:0.020826 44:0.00894208 
1.5 1:0.998111 2:0.000705574 3:5.44732e-05 4:0.00112853 5:0.945906 6:0.00944485 7:0.132998 8:0.97786 9:0.00375069 10:0.0314161 11:0.0134471 12:0.00238229 13:0.0676669 14:0.189474 15:0.0392026 16:0.0212873 17:0.621928 18:0 19:0 20:0 21:0 22:0 23:0 24:0 25:0.0391349 26:0.0495174 27:0.00951187 28:0.0900311 29:0.640103 30:0.00379149 31:0.0432831 32:0.118867 33:0.0036409 34:0.00211958 35:0.1 36:0.1 37:0.1 38:0.1 39:0.1 40:0.1 41:0.1 42:0.1 43:0.1 44:0.1 
1.5 1:0.986868 2:0.00310701 3:0.00113902 4:0.00888552 5:0.611312 6:0.0528298 7:0.114236 8:0.596913 9:0.00430136 10:0.600159 11:0.0174008 12:0.00378267 13:0.0443473 14:0.111574 15:0.0122445 16:0.151311 17:0.00204915 18:0 19:0 20:0 21:0 22:0 23:0 24:1 25:0.0201098 26:0.0358843 27:0.019198 28:0.486812 29:0.335064 30:0.00653582 31:0.0154256 32:0.0752984 33:0.00336264 34:0.00230971 35:0.0310889 36:0.13263 37:0.0138046 38:0.133792 39:0.553018 40:0.0576249 41:0.0317445 42:0.0118046 43:0.0200073 44:0.014485 
1.5 1:0.993971 2:2.61891e-05 3:2.7659e-05 4:0.00597545 5:-0.568247 6:0.0228869 7:0.03683 8:0.620696 9:0.00208715 10:0.723884 11:0.0126939 12:0.00080048 13:0.0318895 14:0.126608 15:0.0495179 16:0.0277697 17:0.00186194 18:0 19:0 20:0 21:0 22:0 23:0 24:1 25:0.0184813 26:0.0469655 27:0.0416939 28:0.572839 29:0.27369 30:0.00709305 31:0.00890074 32:0.0253848 33:0.0036535 34:0.0012983 35:0.0258648 36:0.0764367 37:0.0176 38:0.142849 39:0.629155 40:0.0338092 41:0.0307635 42:0.012394 43:0.0202071 44:0.0109202 
0.5187487513245226 1:0.936345 2:0.0604413 3:0.00209379 4:0.00111964 5:0.836808 6:0.287604 7:0.736812 8:0.761402 9:0.0320252 10:0.126193 11:0.0509695 12:0.023886 13:0.0280771 14:0.360068 15:0.0345669 16:0.0285544 17:0.0280558 18:0 19:0 20:0 21:1 22:0 23:0 24:0 25:0.0523997 26:0.139587 27:0.0380048 28:0.0615571 29:0.0356736 30:0.044166 31:0.377558 32:0.24589 33:0.00339144 34:0.001772 35:0.0283461 36:0.113559 37:0.0695432 38:0.543572 39:0.0211587 40:0.0517213 41:0.0439092 42:0.0340892 43:0.0565517 44:0.0375492 
1.5 1:0.824916 2:0.0852747 3:0.037589 4:0.0522201 5:-0.957917 6:0.152677 7:0.632308 8:0.846603 9:0.12535 10:0.128371 11:0.0182819 12:0.0387861 13:0.0198548 14:0.0278621 15:0.00557187 16:0.403805 17:0.0794407 18:0 19:0 20:0 21:0 22:0 23:0 24:0 25:0.650532 26:0.297798 27:0.0102066 28:0.0105134 29:0.00723684 30:0.00588027 31:0.00222488 32:0.00692629 33:0.00507165 34:0.00361037 35:0.1 36:0.1 37:0.1 38:0.1 39:0.1 40:0.1 41:0.1 42:0.1 43:0.1 44:0.1 
1.5 1:0.981396 2:0.00360095 3:0.000798511 4:0.0142044 5:-0.526996 6:0.00133262 7:0.118347 8:-0.742508 9:0.883685 10:0.00392064 11:0.00367222 12:0.0120364 13:0.0233365 14:0.0255325 15:0.0257955 16:0.0168009 17:0.00388774 18:0 19:0 20:0 21:0 22:0 23:0 24:0 25:0.0577007 26:0.0585137 27:0.0871518 28:0.091625 29:0.0238761 30:0.303957 31:0.161969 32:0.023971 33:0.179817 34:0.0114195 35:0.00191234 36:0.00992746 37:0.00439383 38:0.0062903 39:0.0779544 40:0.0041275 41:0.038576 42:0.847989 43:0.00496264 44:0.00386677 
1.5 1:0.175218 2:0.806646 3:0.0107455 4:0.00738997 5:-0.852145 6:0.00148482 7:0.240879 8:0.636269 9:0.720572 10:0.00457165 11:0.00108898 12:0.00378783 13:0.00810218 14:0.00327621 15:0.00360703 16:0.243365 17:0.0101445 18:0 19:0 20:0 21:0 22:0 23:0 24:0 25:0.107839 26:0.0521647 27:0.0233518 28:0.34014 29:0.108465 30:0.0378046 31:0.038136 32:0.0471319 33:0.12138 34:0.123587 35:0.0255607 36:0.609429 37:0.0308927 38:0.0677974 39:0.0560877 40:0.0411836 41:0.0492208 42:0.0619685 43:0.0324068 44:0.0254527 
1.5 1:0.204065 2:0.183513 3:0.152204 4:0.460218 5:-0.954636 6:0.303939 7:0.691408 8:-0.658423 9:0.0408016 10:0.118434 11:0.0275712 12:0.0393439 13:0.0285379 14:0.0180964 15:0.0039082 16:0.396739 17:0.0226285 18:0 19:0 20:0 21:0 22:0 23:0 24:0 25:0.0117742 26:0.0263937 27:0.2368 28:0.0122454 29:0.00471657 30:0.290435 31:0.0132623 32:0.0390621 33:0.362738 34:0.00257285 35:0.1 36:0.1 37:0.1 38:0.1 39:0.1 40:0.1 41:0.1 42:0.1 43:0.1 44:0.1 
1.5 1:0.50188 2:0.0672813 3:0.389372 4:0.0414664 5:0.729413 6:0.0162842 7:0.509197 8:-0.681375 9:0.529246 10:0.0121437 11:0.00637959 12:0.0525982 13:0.0461281 14:0.00414558 15:0.00799881 16:0.259467 17:0.0656092 18:0 19:0 20:0 21:0 22:0 23:0 24:0 25:0.0746502 26:0.0429305 27:0.0443427 28:0.228227 29:0.0937093 30:0.0243661 31:0.054297 32:0.041313 33:0.146748 34:0.249416 35:0.00713494 36:0.378623 37:0.0162958 38:0.089824 39:0.416178 40:0.0173265 41:0.0179405 42:0.0297981 43:0.0181231 44:0.00875612 
1.5 1:0.835104 2:0.0836959 3:0.0553469 4:0.0258534 5:-0.923187 6:0.0559507 7:0.5655 8:-0.894282 9:0.0724647 10:0.0284294 11:0.176096 12:0.517341 13:0.0558774 14:0.005564 15:0.00568511 16:0.0663633 17:0.0162292 18:0 19:0 20:0 21:0 22:0 23:0 24:0 25:0.0326219 26:0.0710727 27:0.02965 28:0.283274 29:0.007598 30:0.039853 31:0.0221869 32:0.00799074 33:0.468228 34:0.0375244 35:0.0172076 36:0.333093 37:0.154447 38:0.157229 39:0.0336399 40:0.0485795 41:0.0706986 42:0.0750988 43:0.0219727 44:0.0880339 
1.5 1:0.998356 2:0.000705095 3:5.0656e-05 4:0.000888086 5:0.966242 6:0.0250081 7:0.571914 8:-0.829001 9:0.070263 10:0.0116344 11:0.00377592 12:0.0332445 13:0.0265376 14:0.0197086 15:0.0349088 16:0.139264 17:0.635655 18:0 19:0 20:0 21:0 22:0 23:0 24:0 25:0.0347366 26:0.0375046 27:0.033655 28:0.00909501 29:0.0043722 30:0.318412 31:0.370958 32:0.103096 33:0.0858295 34:0.00234141 35:0.00226008 36:0.0140843 37:0.00329497 38:0.0197628 39:0.007732 40:0.00260835 41:0.00637644 42:0.00573764 43:0.932029 44:0.00611447 
1.5 1:0.26191 2:0.323327 3:0.248729 4:0.166034 5:0.908077 6:0.0821996 7:0.42212 8:-0.692769 9:0.0404859 10:0.0882288 11:0.0968713 12:0.252853 13:0.0544711 14:0.0236783 15:0.0258296 16:0.29353 17:0.0418526 18:0 19:0 20:0 21:0 22:0 23:0 24:0 25:0.0892255 26:0.016336 27:0.00796452 28:0.0106446 29:0.0039596 30:0.00363324 31:0.0272433 32:0.0139131 33:0.642492 34:0.184588 35:0.00737004 36:0.0147503 37:0.00962368 38:0.19609 39:0.0253288 40:0.0129085 41:0.68883 42:0.0119711 43:0.0213628 44:0.0117647 
1.427213500660585 1:0.750164 2:0.00913599 3:0.00377778 4:0.236922 5:-0.554912 6:0.00669744 7:0.0419004 8:-0.755404 9:0.0659431 10:0.0782742 11:0.0536149 12:0.143767 13:0.414309 14:0.0579229 15:0.00846228 16:0.160406 17:0.0106035 18:0 19:0 20:0 21:0 22:0 23:0 24:0 25:0.0122851 26:0.00365416 27:0.00670918 28:0.0046392 29:0.000519011 30:0.00174162 31:0.0124626 32:0.000485172 33:0.0178951 34:0.939609 35:0.0146368 36:0.0655679 37:0.0677827 38:0.103944 39:0.0165508 40:0.0532101 41:0.100099 42:0.0131784 43:0.522241 44:0.0427901 
1.5 1:0.997956 2:0.00123469 3:3.15475e-05 4:0.000777592 5:0.960028 6:0.00323549 7:0.344448 8:0.881134 9:0.246474 10:0.00562836 11:0.00601087 12:0.00748249 13:0.0308493 14:0.0117422 15:0.0714481 16:0.101857 17:0.515272 18:0 19:0 20:0 21:0 22:0 23:0 24:0 25:0.255902 26:0.0215665 27:0.00533735 28:0.0232544 29:0.00228544 30:0.0032922 31:0.0296798 32:0.0137074 33:0.635331 34:0.0096438 35:0.0300538 36:0.345865 37:0.0343181 38:0.0851454 39:0.281041 40:0.0548018 41:0.0405238 42:0.0519164 43:0.0500882 44:0.026246 
1.5 1:0.963771 2:0.0134744 3:0.00736263 4:0.0153923 5:0.791385 6:0.0060444 7:0.151224 8:-0.671668 9:0.0123451 10:0.0302026 11:0.204171 12:0.282303 13:0.232128 14:0.157284 15:0.0187631 16:0.0424883 17:0.01427 18:0 19:0 20:0 21:0 22:0 23:0 24:0 25:0.0581106 26:0.0344703 27:0.0244616 28:0.040165 29:0.00748996 30:0.057494 31:0.0503135 32:0.00554939 33:0.617455 34:0.104491 35:0.0473115 36:0.452742 37:0.0268469 38:0.0378839 39:0.0143334 40:0.0616769 41:0.154721 42:0.114663 43:0.0606244 44:0.0291969 
1.5 1:0.520658 2:0.404803 3:0.0425711 4:0.0319673 5:0.964592 6:0.00716227 7:0.410585 8:-0.533356 9:0.11366 10:0.00884178 11:0.0824564 12:0.0447575 13:0.100505 14:0.044468 15:0.114958 16:0.131855 17:0.351336 18:0 19:0 20:0 21:0 22:0 23:0 24:0 25:0.0582775 26:0.0201795 27:0.0291952 28:0.0561805 29:0.0209508 30:0.203995 31:0.0886135 32:0.00747646 33:0.460578 34:0.0545533 35:0.00431415 36:0.0132341 37:0.00233304 38:0.0308216 39:0.00701687 40:0.00247865 41:0.00665266 42:0.0104544 43:0.917869 44:0.00482575 
1.5 1:0.994149 2:0.0011862 3:0.000382157 4:0.00428232 5:0.953908 6:0.0136771 7:0.363538 8:-0.931583 9:0.0151149 10:0.0479758 11:0.000970606 12:0.00425238 13:0.0171961 14:0.00766886 15:0.0109563 16:0.0769613 17:0.805227 18:0 19:0 20:0 21:0 22:0 23:0 24:1 25:0.0616335 26:0.105834 27:0.00576758 28:0.153007 29:0.586319 30:0.0105948 31:0.0565742 32:0.0148187 33:0.00384356 34:0.00160692 35:0.1 36:0.1 37:0.1 38:0.1 39:0.1 40:0.1 41:0.1 42:0.1 43:0.1 44:0.1 
1.5 1:0.874881 2:0.0560621 3:0.0156579 4:0.0533993 5:0.968937 6:0.0177772 7:0.742155 8:0.611992 9:0.0121729 10:0.00593707 11:0.0216396 12:0.00356106 13:0.0274165 14:0.150999 15:0.0301287 16:0.708499 17:0.0218698 18:0 19:0 20:0 21:0 22:0 23:0 24:0 25:0.0714883 26:0.136048 27:0.177293 28:0.363143 29:0.0935394 30:0.100802 31:0.037324 32:0.0116974 33:0.00473975 34:0.00392543 35:0.00426512 36:0.0101546 37:0.0118791 38:0.0968812 39:0.773515 40:0.0148066 41:0.0485114 42:0.0168849 43:0.0139932 44:0.00910917 
1.5 1:0.829393 2:0.0882846 3:0.0164923 4:0.0658301 5:0.968687 6:0.0205549 7:0.65722 8:0.990364 9:0.0151566 10:0.0199671 11:0.0546232 12:0.0122933 13:0.197309 14:0.0944637 15:0.0276184 16:0.474929 17:0.0830842 18:0 19:0 20:0 21:0 22:0 23:0 24:0 25:0.0479023 26:0.0793049 27:0.0792221 28:0.378796 29:0.230062 30:0.0177362 31:0.0817655 32:0.0754551 33:0.0053904 34:0.00436503 35:0.00689774 36:0.0130702 37:0.0146707 38:0.103341 39:0.746727 40:0.0234252 41:0.0358156 42:0.0232517 43:0.0216217 44:0.011179 
1.5 1:0.964796 2:0.0188513 3:0.00365507 4:0.0126981 5:0.957133 6:0.0193089 7:0.460976 8:0.94429 9:0.0273831 10:0.0201529 11:0.0122738 12:0.00501737 13:0.0653609 14:0.247344 15:0.0793274 16:0.459852 17:0.0639792 18:0 19:0 20:0 21:0 22:0 23:0 24:0 25:0.00775353 26:0.0193195 27:0.0320308 28:0.877073 29:0.0203415 30:0.00285446 31:0.00490826 32:0.031788 33:0.00271579 34:0.00121533 35:0.00483488 36:0.0106731 37:0.010749 38:0.104417 39:0.74537 40:0.0182312 41:0.0437156 42:0.0297585 43:0.023442 44:0.00880915 
1.5 1:0.994372 2:0.00487034 3:8.63978e-05 4:0.000671626 5:0.970607 6:0.042505 7:0.314207 8:0.783516 9:0.0163557 10:0.0568404 11:0.0112145 12:0.00274303 13:0.0153828 14:0.0239454 15:0.0395225 16:0.207649 17:0.583842 18:0 19:0 20:0 21:0 22:0 23:0 24:0 25:0.0607264 26:0.0159755 27:0.00440382 28:0.139454 29:0.272129 30:0.000744592 31:0.00231937 32:0.501531 33:0.00202528 34:0.000690947 35:0.0234782 36:0.0435268 37:0.0160062 38:0.0951656 39:0.646332 40:0.0305479 41:0.0509819 42:0.0332964 43:0.0418986 44:0.0187665 
1.5 1:0.999819 2:6.0248e-07 3:3.42864e-07 4:0.000179975 5:0.913168 6:0.0570019 7:0.2933 8:0.647601 9:0.133581 10:0.175158 11:0.0215212 12:0.170646 13:0.0911888 14:0.025297 15:0.0216299 16:0.269204 17:0.034772 18:0 19:0 20:0 21:0 22:0 23:0 24:0 25:0.100727 26:0.0235816 27:0.00812627 28:0.19258 29:0.406048 30:0.0127413 31:0.0193214 32:0.227006 33:0.00778913 34:0.00207898 35:0.00861131 36:0.0363935 37:0.264217 38:0.0275634 39:0.0291398 40:0.00650397 41:0.00478055 42:0.00933777 43:0.00944113 44:0.604011 
1.5 1:0.999687 2:7.73013e-07 3:4.52501e-07 4:0.000311931 5:0.941533 6:0.0112721 7:0.159504 8:0.938307 9:0.0374878 10:0.0902927 11:0.189439 12:0.341412 13:0.08214 14:0.114731 15:0.019548 16:0.0363131 17:0.0773635 18:0 19:0 20:0 21:0 22:0 23:0 24:0 25:0.0122633 26:0.105156 27:0.282059 28:0.092545 29:0.00989873 30:0.405099 31:0.0631052 32:0.0202248 33:0.00517944 34:0.00446998 35:0.0174062 36:0.164912 37:0.0650398 38:0.351153 39:0.00771068 40:0.0414862 41:0.200693 42:0.0605017 43:0.059172 44:0.0319262 
1.5 1:0.995012 2:0.00412045 3:0.0001653 4:0.000701786 5:0.959593 6:0.00165996 7:0.0509693 8:0.837547 9:0.0242001 10:0.0118346 11:0.000592875 12:0.0010909 13:0.00217656 14:0.0025344 15:0.00137664 16:0.429145 17:0.525389 18:0 19:0 20:0 21:0 22:0 23:0 24:0 25:0.0249561 26:0.0313405 27:0.0734899 28:0.730584 29:0.0145435 30:0.0604386 31:0.00851749 32:0.00302283 33:0.0187728 34:0.0343346 35:0.1 36:0.1 37:0.1 38:0.1 39:0.1 40:0.1 41:0.1 42:0.1 43:0.1 44:0.1 
1.5 1:0.994742 2:0.00206829 3:0.00023967 4:0.00295004 5:0.934579 6:0.000752245 7:0.100432 8:-0.932492 9:0.00506168 10:0.0086553 11:0.000638148 12:0.000347241 13:0.0014016 14:0.00076083 15:0.000603353 16:0.647916 17:0.333863 18:0 19:0 20:0 21:0 22:0 23:0 24:0 25:0.0346749 26:0.14763 27:0.0128527 28:0.189746 29:0.361194 30:0.0092043 31:0.0325116 32:0.205693 33:0.00487086 34:0.00162249 35:0.0490543 36:0.26581 37:0.107666 38:0.122268 39:0.0278147 40:0.10512 41:0.07796 42:0.037485 43:0.0952668 44:0.111556 
1.5 1:0.999785 2:1.11746e-07 3:7.11178e-08 4:0.000215302 5:0.861154 6:0.00204151 7:0.196854 8:0.551245 9:0.0357331 10:0.00191456 11:0.000389669 12:0.00398562 13:0.00151564 14:0.00135877 15:0.00165945 16:0.645111 17:0.306291 18:0 19:0 20:0 21:0 22:0 23:0 24:0 25:0.20537 26:0.114826 27:0.00535317 28:0.0881385 29:0.265797 30:0.0182219 31:0.098809 32:0.196288 33:0.00404311 34:0.00315375 35:0.0307468 36:0.560388 37:0.0335999 38:0.0742503 39:0.0586042 40:0.0440491 41:0.0448803 42:0.0782657 43:0.0463042 44:0.0289118 
1.5 1:0.995567 2:0.00365339 3:3.15421e-05 4:0.000747697 5:0.842133 6:0.150645 7:0.561667 8:0.82204 9:0.0359148 10:0.269953 11:0.0236692 12:0.011735 13:0.017321 14:0.00686365 15:0.0223745 16:0.252116 17:0.209407 18:1 19:0 20:0 21:1 22:0 23:0 24:1 25:0.0759274 26:0.106765 27:0.0514749 28:0.193956 29:0.105338 30:0.0185001 31:0.0298995 32:0.41339 33:0.00271154 34:0.0020371 35:0.0174328 36:0.0104374 37:0.0129342 38:0.292661 39:0.109987 40:0.0235919 41:0.049739 42:0.447974 43:0.0207692 44:0.014474 
1.5 1:0.997388 2:0.00135276 3:8.96966e-05 4:0.00116928 5:0.787094 6:0.00432009 7:0.288051 8:-0.643329 9:0.0271888 10:0.00826048 11:0.000927099 12:0.00230299 13:0.00337361 14:0.00144394 15:0.00250052 16:0.831389 17:0.118294 18:0 19:0 20:0 21:0 22:0 23:0 24:0 25:0.127579 26:0.147745 27:0.00817662 28:0.0483262 29:0.184786 30:0.0194319 31:0.0742281 32:0.384306 33:0.00300038 34:0.00242031 35:0.0246553 36:0.0156303 37:0.0121133 38:0.0452326 39:0.232691 40:0.0242118 41:0.0565833 42:0.554102 43:0.0220886 44:0.0126922 
1.5 1:0.965803 2:0.00158001 3:0.00118043 4:0.0314369 5:0.951146 6:0.214814 7:0.671963 8:0.557329 9:0.0799526 10:0.0685508 11:0.0944798 12:0.0508776 13:0.0736567 14:0.0113034 15:0.0533407 16:0.185199 17:0.167825 18:0 19:0 20:0 21:0 22:0 23:0 24:0 25:0.298817 26:0.0520962 27:0.0227824 28:0.0277143 29:0.248825 30:0.0126068 31:0.0136438 32:0.318578 33:0.00361564 34:0.00132126 35:0.0440462 36:0.133748 37:0.062566 38:0.485485 39:0.0391523 40:0.0490634 41:0.0262808 42:0.0144845 43:0.107159 44:0.0380152 
-0.2979526847744173 1:0.99964 2:1.58631e-07 3:1.54684e-07 4:0.000359279 5:0.937003 6:0.91818 7:0.976351 8:0.985462 9:0.00465104 10:0.0237341 11:0.00249939 12:0.00273287 13:0.00997692 14:0.0233065 15:0.00602254 16:0.00644092 17:0.0024557 18:0 19:0 20:1 21:1 22:0 23:0 24:1 25:0.0290033 26:0.101336 27:0.0163314 28:0.0136191 29:0.362605 30:0.0371067 31:0.371314 32:0.0489543 33:0.016059 34:0.00367109 35:0.00207654 36:0.00648932 37:0.00188012 38:0.00155104 39:0.825142 40:0.100694 41:0.00873482 42:0.0515918 43:0.000566277 44:0.00127346 
-0.1290042967522777 1:0.997846 2:0.00101671 3:0.000131012 4:0.00100601 5:0.962038 6:0.180449 7:0.46488 8:0.639144 9:0.0348676 10:0.190057 11:0.00963095 12:0.0179609 13:0.0760486 14:0.00858027 15:0.0432689 16:0.240254 17:0.198883 18:0 19:0 20:0 21:0 22:0 23:0 24:1 25:0.479044 26:0.0846224 27:0.0259012 28:0.119797 29:0.207221 30:0.0129579 31:0.00612324 32:0.0591423 33:0.00328026 34:0.00190978 35:0.00297703 36:0.0174628 37:0.0342 38:0.0116333 39:0.888148 40:0.00464127 41:0.0159539 42:0.00349818 43:0.0168692 44:0.00461649 
-1 1:0.973159 2:0.00673922 3:0.00233885 4:0.0177626 5:0.972416 6:0.0666819 7:0.422982 8:0.828645 9:0.0401647 10:0.0740674 11:0.000564122 12:0.00463437 13:0.00719719 14:0.00626187 15:0.00426137 16:0.646679 17:0.149488 18:0 19:0 20:0 21:0 22:0 23:0 24:0 25:0.0595182 26:0.0620453 27:0.00463047 28:0.0398372 29:0.786241 30:0.00652194 31:0.0137051 32:0.0230577 33:0.00325834 34:0.0011845 35:0.00296056 36:0.0163365 37:0.0251648 38:0.00895844 39:0.916182 40:0.00885586 41:0.00720296 42:0.00133337 43:0.00927082 44:0.00373457 
-0.6516777475929572 1:0.999311 2:1.13211e-06 3:8.00206e-07 4:0.000687287 5:0.938652 6:0.0232497 7:0.586803 8:0.894887 9:0.0185759 10:0.0246549 11:0.00248278 12:0.00404287 13:0.0092574 14:0.00204741 15:0.016374 16:0.614468 17:0.284847 18:1 19:0 20:0 21:1 22:0 23:0 24:0 25:0.164648 26:0.108777 27:0.00562942 28:0.071753 29:0.560297 30:0.007404 31:0.0595006 32:0.0194325 33:0.00177528 34:0.000783348 35:0.00296056 36:0.0163365 37:0.0251648 38:0.00895844 39:0.916182 40:0.00885586 41:0.00720296 42:0.00133337 43:0.00927082 44:0.00373457 
-1 1:0.0305764 2:0.104999 3:0.0358435 4:0.828581 5:-0.958517 6:0.101183 7:0.510291 8:0.744778 9:0.00965178 10:0.136741 11:0.025366 12:0.0383615 13:0.0288229 14:0.0388924 15:0.0248236 16:0.13624 17:0.459917 18:0 19:0 20:0 21:0 22:0 23:0 24:0 25:0.117864 26:0.0630968 27:0.0463332 28:0.277179 29:0.0526758 30:0.0573877 31:0.0628362 32:0.0686579 33:0.233445 34:0.020524 35:0.1 36:0.1 37:0.1 38:0.1 39:0.1 40:0.1 41:0.1 42:0.1 43:0.1 44:0.1 
-1 1:0.999809 2:3.4012e-07 3:1.81111e-07 4:0.000190486 5:0.960434 6:0.0144147 7:0.0860706 8:0.996911 9:0.0356599 10:0.138988 11:0.0897605 12:0.0644306 13:0.16773 14:0.067766 15:0.027016 16:0.0590731 17:0.335161 18:0 19:0 20:0 21:0 22:0 23:0 24:0 25:0.0172293 26:0.0293716 27:0.0116144 28:0.161111 29:0.348109 30:0.0267584 31:0.0825202 32:0.31969 33:0.00220032 34:0.00139549 35:0.1 36:0.1 37:0.1 38:0.1 39:0.1 40:0.1 41:0.1 42:0.1 43:0.1 44:0.1 
-1 1:0.952687 2:0.0448671 3:0.00110989 4:0.00133647 5:0.939937 6:0.0193987 7:0.208427 8:0.996562 9:0.0157924 10:0.128681 11:0.0167224 12:0.0101037 13:0.0322317 14:0.137088 15:0.0320666 16:0.15697 17:0.450946 18:0 19:0 20:0 21:0 22:0 23:0 24:0 25:0.0367221 26:0.0669594 27:0.0284757 28:0.07145 29:0.185044 30:0.123478 31:0.0848403 32:0.395527 33:0.00512019 34:0.0023829 35:0.1 36:0.1 37:0.1 38:0.1 39:0.1 40:0.1 41:0.1 42:0.1 43:0.1 44:0.1 
-0.04219989557028014 1:0.995417 2:0.0013976 3:0.000116173 4:0.00306943 5:0.957635 6:0.0118544 7:0.158705 8:-0.597118 9:0.253504 10:0.132045 11:0.0647531 12:0.42331 13:0.0426063 14:0.010363 15:0.00439528 16:0.0261343 17:0.0310345 18:1 19:0 20:0 21:0 22:0 23:0 24:1 25:0.0536568 26:0.0427587 27:0.0219894 28:0.34455 29:0.338849 30:0.00449442 31:0.0297136 32:0.150539 33:0.0120231 34:0.00142578 35:0.00195938 36:0.00524633 37:0.0043417 38:0.025759 39:0.30087 40:0.0243401 41:0.0403904 42:0.577311 43:0.0149777 44:0.00480411 
-1 1:0.966017 2:0.0287576 3:0.00160678 4:0.00361905 5:0.936157 6:0.00918035 7:0.177152 8:0.983379 9:0.0749062 10:0.0994029 11:0.105135 12:0.156567 13:0.139817 14:0.308151 15:0.00632359 16:0.0564282 17:0.0440893 18:0 19:0 20:0 21:0 22:0 23:0 24:1 25:0.0353667 26:0.0236906 27:0.034098 28:0.347204 29:0.466956 30:0.00314601 31:0.0128675 32:0.0741579 33:0.00192984 34:0.000583842 35:0.00309628 36:0.00721814 37:0.00384466 38:0.0200429 39:0.263833 40:0.0138182 41:0.0946876 42:0.572478 43:0.0164964 44:0.00448456 
-1 1:0.999582 2:8.54029e-07 3:4.38155e-07 4:0.00041622 5:0.956153 6:0.0202834 7:0.123324 8:0.979508 9:0.00891424 10:0.130177 11:0.182043 12:0.200793 13:0.0986365 14:0.0187653 15:0.0672168 16:0.017691 17:0.25548 18:0 19:0 20:0 21:1 22:0 23:0 24:0 25:0.0371659 26:0.296064 27:0.0163486 28:0.0191549 29:0.356829 30:0.0123365 31:0.22212 32:0.032766 33:0.00494444 34:0.00226957 35:0.0614416 36:0.640273 37:0.0280352 38:0.0151583 39:0.100337 40:0.0192685 41:0.0517155 42:0.0120874 43:0.030381 44:0.0413025 
-1 1:0.99871 2:2.80452e-06 3:2.26616e-06 4:0.00128511 5:-0.532595 6:0.0290558 7:0.19516 8:-0.553698 9:0.00660417 10:0.0796222 11:0.0479404 12:0.112719 13:0.0621681 14:0.159415 15:0.0431964 16:0.00702795 17:0.452251 18:0 19:0 20:0 21:0 22:0 23:0 24:0 25:0.0610198 26:0.0569928 27:0.0077289 28:0.135402 29:0.368934 30:0.0124519 31:0.0512096 32:0.301296 33:0.00294374 34:0.00202163 35:0.1 36:0.1 37:0.1 38:0.1 39:0.1 40:0.1 41:0.1 42:0.1 43:0.1 44:0.1 
-1 1:0.576259 2:0.317489 3:0.074 4:0.0322517 5:0.893957 6:0.238228 7:0.654225 8:0.885705 9:0.0836903 10:0.208985 11:0.0195164 12:0.0376836 13:0.0370367 14:0.0198003 15:0.012597 16:0.172423 17:0.17004 18:0 19:0 20:0 21:0 22:0 23:0 24:0 25:0.077346 26:0.0831638 27:0.0134064 28:0.0567544 29:0.674693 30:0.00561018 31:0.00805466 32:0.0764262 33:0.00350614 34:0.00103938 35:0.1 36:0.1 37:0.1 38:0.1 39:0.1 40:0.1 41:0.1 42:0.1 43:0.1 44:0.1 
-1 1:0.997975 2:0.00145041 3:4.13409e-05 4:0.000532917 5:0.947644 6:0.0502883 7:0.287829 8:-0.763301 9:0.113319 10:0.163297 11:0.0607652 12:0.0968832 13:0.249688 14:0.0590818 15:0.0147129 16:0.10119 17:0.0907731 18:0 19:0 20:0 21:0 22:0 23:0 24:1 25:0.108893 26:0.0323411 27:0.00966925 28:0.124848 29:0.133792 30:0.00760469 31:0.0397534 32:0.515136 33:0.0248832 34:0.00307933 35:0.1 36:0.1 37:0.1 38:0.1 39:0.1 40:0.1 41:0.1 42:0.1 43:0.1 44:0.1 
-1 1:0.987226 2:0.0102814 3:0.000634718 4:0.00185784 5:-0.717877 6:0.0175864 7:0.308883 8:0.910891 9:0.00157679 10:0.069823 11:0.00150297 12:0.000757752 13:0.0386885 14:0.00647195 15:0.00776822 16:0.796655 17:0.0591697 18:0 19:0 20:0 21:0 22:0 23:0 24:0 25:0.0396826 26:0.0790695 27:0.00927454 28:0.0354255 29:0.0904757 30:0.0353091 31:0.187011 32:0.519747 33:0.00258517 34:0.00142038 35:0.0156646 36:0.0592702 37:0.0110844 38:0.730259 39:0.0451751 40:0.0291937 41:0.0267025 42:0.0238376 43:0.039215 44:0.0195984 
-1 1:0.437687 2:0.528168 3:0.0244181 4:0.00972679 5:-0.952034 6:0.0316758 7:0.190999 8:0.921994 9:0.0565488 10:0.0494647 11:0.0549673 12:0.0140401 13:0.108189 14:0.0989942 15:0.429526 16:0.0741071 17:0.082487 18:0 19:0 20:1 21:0 22:0 23:0 24:0 25:0.021472 26:0.141794 27:0.309899 28:0.0827336 29:0.101189 30:0.0310637 31:0.11148 32:0.177335 33:0.0110403 34:0.0119924 35:0.0227527 36:0.625374 37:0.176059 38:0.0388125 39:0.0230668 40:0.0191372 41:0.0190871 42:0.0153697 43:0.0137608 44:0.0465803 
-1 1:0.52514 2:0.458088 3:0.0129748 4:0.00379778 5:-0.578262 6:0.00470986 7:0.0774491 8:0.826611 9:0.108224 10:0.0203708 11:0.0545536 12:0.0251155 13:0.234814 14:0.043445 15:0.388484 16:0.0200011 17:0.100282 18:0 19:0 20:1 21:0 22:0 23:0 24:0 25:0.0257409 26:0.110876 27:0.345639 28:0.205243 29:0.0502622 30:0.0184313 31:0.0817322 32:0.148875 33:0.00734297 34:0.00585855 35:0.019438 36:0.501421 37:0.324711 38:0.0345889 39:0.019243 40:0.0202151 41:0.0138719 42:0.0083759 43:0.00730167 44:0.0508335 
-1 1:0.990026 2:0.0012787 3:0.000678735 4:0.00801665 5:0.806756 6:0.021512 7:0.153772 8:-0.571774 9:0.0220986 10:0.0690862 11:0.0301782 12:0.00291125 13:0.228577 14:0.244434 15:0.0536165 16:0.0890101 17:0.238576 18:0 19:0 20:0 21:0 22:0 23:0 24:0 25:0.0203055 26:0.148386 27:0.446385 28:0.0360804 29:0.073844 30:0.036573 31:0.0868751 32:0.139648 33:0.0058711 34:0.0060326 35:0.0174356 36:0.502179 37:0.341899 38:0.0200015 39:0.0255556 40:0.0126172 41:0.0191467 42:0.00685637 43:0.00928611 44:0.0450225 
-1 1:0.998931 2:1.91637e-06 3:2.3211e-06 4:0.00106463 5:0.921346 6:0.0123169 7:0.127925 8:-0.590863 9:0.0525741 10:0.0533334 11:0.0476497 12:0.0094657 13:0.0842974 14:0.20073 15:0.419947 16:0.0472269 17:0.0724585 18:0 19:0 20:0 21:1 22:0 23:0 24:0 25:0.101511 26:0.0495412 27:0.0110619 28:0.0758328 29:0.389283 30:0.00634586 31:0.0145381 32:0.340459 33:0.00777379 34:0.00365424 35:0.0187536 36:0.0309578 37:0.0165232 38:0.73295 39:0.0761173 40:0.0145823 41:0.0104936 42:0.0192025 43:0.0617444 44:0.0186755 
-1 1:0.693514 2:0.291554 3:0.00631495 4:0.00861717 5:0.691226 6:0.0225913 7:0.209435 8:0.857109 9:0.105102 10:0.0893511 11:0.0372451 12:0.152694 13:0.0754138 14:0.13897 15:0.113024 16:0.0265025 17:0.239107 18:0 19:0 20:0 21:0 22:0 23:0 24:1 25:0.0592476 26:0.0730891 27:0.008485 28:0.0326838 29:0.49919 30:0.00668597 31:0.231908 32:0.0772878 33:0.00683696 34:0.00458647 35:0.020858 36:0.0317598 37:0.0141813 38:0.720377 39:0.0910288 40:0.0131355 41:0.0139935 42:0.0171244 43:0.0649383 44:0.0126031 
-0.9683210149835247 1:0.997129 2:6.88066e-06 3:7.31387e-06 4:0.00285728 5:-0.95243 6:0.161766 7:0.839795 8:0.631475 9:0.0183459 10:0.0358627 11:0.00968773 12:0.00390206 13:0.00580038 14:0.049052 15:0.0333496 16:0.216851 17:0.465382 18:1 19:0 20:0 21:0 22:0 23:0 24:1 25:0.067885 26:0.0612525 27:0.0179147 28:0.176008 29:0.40836 30:0.0100532 31:0.0303336 32:0.219241 33:0.00494155 34:0.00401048 35:0.1 36:0.1 37:0.1 38:0.1 39:0.1 40:0.1 41:0.1 42:0.1 43:0.1 44:0.1 
-1 1:0.991649 2:0.00493851 3:0.000130169 4:0.00328262 5:-0.840382 6:0.0282387 7:0.353061 8:0.798725 9:0.212038 10:0.0307015 11:0.0353633 12:0.0809847 13:0.0704219 14:0.0273192 15:0.154163 16:0.21844 17:0.14233 18:0 19:0 20:0 21:0 22:0 23:0 24:1 25:0.0368132 26:0.0381409 27:0.0353026 28:0.593203 29:0.135109 30:0.00742226 31:0.023574 32:0.122442 33:0.00486953 34:0.00312366 35:0.00589393 36:0.00935422 37:0.0101944 38:0.0742336 39:0.73064 40:0.0286583 41:0.0416892 42:0.0688845 43:0.0208863 44:0.00956539 
-0.4799315587627655 1:0.996481 2:0.00129178 3:0.000191572 4:0.00203573 5:0.814367 6:0.00326746 7:0.638235 8:0.64903 9:0.00324693 10:0.00352975 11:0.0026664 12:0.00146605 13:0.00969776 14:0.00740879 15:0.00987141 16:0.241542 17:0.717303 18:0 19:0 20:0 21:0 22:0 23:0 24:0 25:0.0110549 26:0.00811138 27:0.00227964 28:0.0184109 29:0.0197265 30:0.00175879 31:0.00194015 32:0.931256 33:0.00513474 34:0.00032672 35:0.1 36:0.1 37:0.1 38:0.1 39:0.1 40:0.1 41:0.1 42:0.1 43:0.1 44:0.1 
-1 1:0.98665 2:0.00168131 3:0.000168901 4:0.0114997 5:-0.727261 6:0.0809223 7:0.292846 8:-0.771622 9:0.0148476 10:0.191566 11:0.0524933 12:0.00653063 13:0.07275 14:0.0118498 15:0.00726344 16:0.273673 17:0.288104 18:0 19:0 20:0 21:0 22:0 23:0 24:0 25:0.00820705 26:0.0376368 27:0.0233777 28:0.904623 29:0.0153942 30:0.00155208 31:0.00286598 32:0.0034942 33:0.00253945 34:0.000309416 35:0.00555666 36:0.0166815 37:0.0167957 38:0.0093582 39:0.79991 40:0.0269799 41:0.0460531 42:0.0406834 43:0.0247423 44:0.0132393 
-1 1:0.996552 2:0.00101786 3:0.000274281 4:0.00215574 5:0.970548 6:0.0469703 7:0.140747 8:0.764115 9:0.135429 10:0.175056 11:0.158303 12:0.0106325 13:0.0954833 14:0.0545562 15:0.058284 16:0.186155 17:0.0791311 18:0 19:0 20:0 21:0 22:0 23:0 24:0 25:0.0259465 26:0.0437243 27:0.0615055 28:0.722632 29:0.0735518 30:0.00896992 31:0.0213884 32:0.0387975 33:0.00206303 34:0.00142057 35:0.00579555 36:0.0126408 37:0.0132271 38:0.016673 39:0.833427 40:0.0175546 41:0.0471363 42:0.0268097 43:0.0152545 44:0.0114818 
-0.2848588996120965 1:0.994961 2:0.00419833 3:9.46002e-05 4:0.000746344 5:0.855882 6:0.0457992 7:0.438051 8:0.929394 9:0.165162 10:0.0657248 11:0.0786629 12:0.00711466 13:0.167685 14:0.038652 15:0.0233291 16:0.129234 17:0.278636 18:0 19:0 20:0 21:0 22:0 23:0 24:0 25:0.0287335 26:0.0970426 27:0.0693035 28:0.537334 29:0.148191 30:0.0180761 31:0.037581 32:0.0567263 33:0.00425839 34:0.00275315 35:0.00581685 36:0.0161443 37:0.0167088 38:0.016265 39:0.784816 40:0.0133398 41:0.0755237 42:0.0379638 43:0.0213287 44:0.0120932 
-1 1:0.902604 2:0.0323244 3:0.008296 4:0.0567759 5:0.946909 6:0.298282 7:0.628143 8:0.648166 9:0.00378761 10:0.101839 11:0.462955 12:0.00404098 13:0.0353684 14:0.0142 15:0.0420642 16:0.0295781 17:0.00788469 18:0 19:0 20:0 21:0 22:0 23:0 24:0 25:0.00879053 26:0.0526322 27:0.0354671 28:0.801642 29:0.0683789 30:0.00368754 31:0.00843513 32:0.0183307 33:0.00216362 34:0.000472182 35:0.00401044 36:0.0121387 37:0.0175514 38:0.0174508 39:0.82698 40:0.018443 41:0.0371932 42:0.0327322 43:0.0208291 44:0.0126709 
-1 1:0.999654 2:7.58738e-07 3:4.10494e-07 4:0.000344874 5:0.873054 6:0.0111423 7:0.0828422 8:0.662592 9:0.21283 10:0.0479785 11:0.027312 12:0.0280155 13:0.172935 14:0.073542 15:0.0133843 16:0.0805642 17:0.332296 18:0 19:0 20:0 21:0 22:0 23:0 24:0 25:0.0135142 26:0.0474867 27:0.0195211 28:0.291556 29:0.4953 30:0.00431876 31:0.0161749 32:0.110132 33:0.00160415 34:0.000392067 35:0.1 36:0.1 37:0.1 38:0.1 39:0.1 40:0.1 41:0.1 42:0.1 43:0.1 44:0.1 
-1 1:0.998092 2:3.72072e-06 3:3.4414e-06 4:0.00190035 5:-0.79047 6:0.0404649 7:0.331268 8:0.848804 9:0.00606125 10:0.0710701 11:0.0521931 12:0.00446746 13:0.126998 14:0.0337909 15:0.117924 16:0.120829 17:0.426201 18:0 19:0 20:0 21:0 22:0 23:0 24:1 25:0.0175911 26:0.0508125 27:0.0610556 28:0.494093 29:0.258839 30:0.00602136 31:0.0228891 32:0.0842666 33:0.00284378 34:0.00158833 35:0.1 36:0.1 37:0.1 38:0.1 39:0.1 40:0.1 41:0.1 42:0.1 43:0.1 44:0.1 
-0.8654681538620589 1:0.985298 2:0.00217148 3:0.000365333 4:0.0121648 5:0.971534 6:0.209217 7:0.801316 8:-0.663747 9:0.0183371 10:0.0570417 11:0.0123382 12:0.0100309 13:0.090794 14:0.0136943 15:0.0374815 16:0.179948 17:0.371118 18:0 19:0 20:0 21:0 22:0 23:0 24:1 25:0.0152771 26:0.0441718 27:0.0131064 28:0.121561 29:0.672957 30:0.00202845 31:0.0205566 32:0.108497 33:0.00115624 34:0.000689538 35:0.1 36:0.1 37:0.1 38:0.1 39:0.1 40:0.1 41:0.1 42:0.1 43:0.1 44:0.1 
-1 1:0.993063 2:0.00149015 3:0.000414419 4:0.00503215 5:0.972957 6:0.0466219 7:0.346432 8:0.585556 9:0.0214414 10:0.04083 11:0.0129992 12:0.0138977 13:0.157815 14:0.0261864 15:0.0321538 16:0.285188 17:0.362866 18:0 19:0 20:0 21:0 22:0 23:0 24:0 25:0.0167333 26:0.0219353 27:0.0167497 28:0.0557467 29:0.810141 30:0.00646372 31:0.00463277 32:0.0658297 33:0.00144174 34:0.000325716 35:0.1 36:0.1 37:0.1 38:0.1 39:0.1 40:0.1 41:0.1 42:0.1 43:0.1 44:0.1 
-1 1:0.989981 2:0.00530546 3:0.000434293 4:0.00427907 5:0.962898 6:0.0264104 7:0.783108 8:-0.868552 9:0.00969006 10:0.00872488 11:0.0309424 12:0.0203518 13:0.153547 14:0.021815 15:0.0491675 16:0.282154 17:0.397197 18:1 19:0 20:0 21:0 22:0 23:0 24:0 25:0.0415027 26:0.0390739 27:0.0617607 28:0.610335 29:0.111769 30:0.00912585 31:0.0772008 32:0.0356095 33:0.010868 34:0.00275448 35:0.1 36:0.1 37:0.1 38:0.1 39:0.1 40:0.1 41:0.1 42:0.1 43:0.1 44:0.1 
-1 1:0.351761 2:0.521229 3:0.0556895 4:0.0713204 5:0.814127 6:0.0987662 7:0.780291 8:0.633 9:0.0116563 10:0.0234724 11:0.0566471 12:0.0319811 13:0.0509294 14:0.0441131 15:0.05726 16:0.146854 17:0.478321 18:0 19:0 20:0 21:1 22:0 23:0 24:0 25:0.168851 26:0.173523 27:0.0586607 28:0.246149 29:0.0794749 30:0.0355139 31:0.0989332 32:0.0974801 33:0.0290473 34:0.0123671 35:0.1 36:0.1 37:0.1 38:0.1 39:0.1 40:0.1 41:0.1 42:0.1 43:0.1 44:0.1 
-1 1:0.834372 2:0.0779228 3:0.0389848 4:0.0487203 5:0.88148 6:0.0359016 7:0.552092 8:-0.785179 9:0.00632675 10:0.0307668 11:0.0120905 12:0.00900235 13:0.094424 14:0.0990937 15:0.0551321 16:0.0973558 17:0.559906 18:0 19:0 20:0 21:0 22:0 23:0 24:0 25:0.0316485 26:0.0756335 27:0.0745924 28:0.341349 29:0.241207 30:0.00962104 31:0.185292 32:0.0246291 33:0.0121798 34:0.00384685 35:0.1 36:0.1 37:0.1 38:0.1 39:0.1 40:0.1 41:0.1 42:0.1 43:0.1 44:0.1 
-1 1:0.987926 2:0.00707987 3:0.00107362 4:0.00392064 5:0.923556 6:0.0139794 7:0.520493 8:0.51395 9:0.00903737 10:0.0153935 11:0.0203678 12:0.00749455 13:0.0250702 14:0.132829 15:0.480732 16:0.113114 17:0.181982 18:0 19:0 20:0 21:0 22:0 23:0 24:0 25:0.0486142 26:0.0396071 27:0.0665978 28:0.1265 29:0.643089 30:0.00802785 31:0.00626742 32:0.0557906 33:0.00288318 34:0.00262319 35:0.1 36:0.1 37:0.1 38:0.1 39:0.1 40:0.1 41:0.1 42:0.1 43:0.1 44:0.1 
-1 1:0.99671 2:0.00201613 3:3.52863e-05 4:0.00123907 5:0.959114 6:0.00869718 7:0.613683 8:0.763814 9:0.0209037 10:0.00791048 11:0.003272 12:0.00918747 13:0.017025 14:0.00415008 15:0.00651968 16:0.137811 17:0.784523 18:0 19:0 20:0 21:0 22:0 23:0 24:0 25:0.0597754 26:0.0901209 27:0.0358236 28:0.408029 29:0.206299 30:0.0148057 31:0.0267163 32:0.142666 33:0.0110963 34:0.00466768 35:0.1 36:0.1 37:0.1 38:0.1 39:0.1 40:0.1 41:0.1 42:0.1 43:0.1 44:0.1 
-1 1:0.540071 2:0.428933 3:0.0169998 4:0.0139956 5:0.782176 6:0.019245 7:0.636812 8:0.839737 9:0.00884239 10:0.0129371 11:0.358148 12:0.0134792 13:0.128489 14:0.0544217 15:0.116738 16:0.100895 17:0.186805 18:0 19:0 20:0 21:0 22:0 23:0 24:0 25:0.00670485 26:0.0916177 27:0.0449186 28:0.730857 29:0.052587 30:0.00568373 31:0.0492337 32:0.00879738 33:0.00724997 34:0.00235 35:0.1 36:0.1 37:0.1 38:0.1 39:0.1 40:0.1 41:0.1 42:0.1 43:0.1 44:0.1 
-1 1:0.931963 2:0.0616341 3:0.00335782 4:0.00304467 5:0.776835 6:0.0129917 7:0.767377 8:0.951848 9:0.00897863 10:0.00752149 11:0.0538088 12:0.0506728 13:0.0747886 14:0.0157588 15:0.0930779 16:0.137831 17:0.54457 18:0 19:0 20:0 21:0 22:0 23:0 24:1 25:0.00543736 26:0.0178813 27:0.0114007 28:0.690006 29:0.24235 30:0.00222888 31:0.0108926 32:0.0181019 33:0.00133805 34:0.000363351 35:0.1 36:0.1 37:0.1 38:0.1 39:0.1 40:0.1 41:0.1 42:0.1 43:0.1 44:0.1 
-1 1:0.77549 2:0.193072 3:0.0120781 4:0.0193604 5:0.882225 6:0.0241161 7:0.465224 8:0.99451 9:0.00594468 10:0.0260284 11:0.24759 12:0.0230738 13:0.46167 14:0.0286968 15:0.0812526 16:0.0503532 17:0.0512749 18:0 19:0 20:0 21:0 22:0 23:0 24:0 25:0.0203703 26:0.0176227 27:0.042591 28:0.707693 29:0.190443 30:0.00434998 31:0.00333926 32:0.0110026 33:0.00174567 34:0.000843059 35:0.1 36:0.1 37:0.1 38:0.1 39:0.1 40:0.1 41:0.1 42:0.1 43:0.1 44:0.1 
-1 1:0.847866 2:0.137802 3:0.006334 4:0.00799741 5:0.91234 6:0.00417564 7:0.692948 8:0.967246 9:0.00459439 10:0.00403679 11:0.0618109 12:0.0129684 13:0.0391491 14:0.00818936 15:0.0210084 16:0.772464 17:0.0716024 18:0 19:0 20:0 21:0 22:0 23:0 24:0 25:0.00971076 26:0.00728953 27:0.0124894 28:0.792521 29:0.150506 30:0.00143017 31:0.0128153 32:0.00971519 33:0.00279961 34:0.000723796 35:0.1 36:0.1 37:0.1 38:0.1 39:0.1 40:0.1 41:0.1 42:0.1 43:0.1 44:0.1 
-1 1:0.911129 2:0.0287938 3:0.00768815 4:0.0523895 5:-0.64641 6:0.0312693 7:0.132461 8:-0.730243 9:0.258317 10:0.0963973 11:0.0116487 12:0.0364868 13:0.0232689 14:0.0240259 15:0.0207464 16:0.116891 17:0.380949 18:0 19:0 20:0 21:0 22:0 23:0 24:0 25:0.0426127 26:0.0140012 27:0.0105134 28:0.0332215 29:0.820803 30:0.00565443 31:0.0117065 32:0.0590495 33:0.00201903 34:0.000418676 35:0.1 36:0.1 37:0.1 38:0.1 39:0.1 40:0.1 41:0.1 42:0.1 43:0.1 44:0.1 
-1 1:0.907817 2:0.0261375 3:0.00850052 4:0.0575451 5:-0.954452 6:0.014533 7:0.250879 8:-0.963463 9:0.0262816 10:0.0352771 11:0.091614 12:0.0258392 13:0.0627825 14:0.202284 15:0.0222602 16:0.0990648 17:0.420064 18:0 19:0 20:0 21:0 22:0 23:0 24:0 25:0.0151728 26:0.0342687 27:0.0148783 28:0.425936 29:0.426939 30:0.00103322 31:0.0170455 32:0.0613535 33:0.00293807 34:0.000435174 35:0.1 36:0.1 37:0.1 38:0.1 39:0.1 40:0.1 41:0.1 42:0.1 43:0.1 44:0.1 
-1 1:0.932936 2:0.0646882 3:0.00104866 4:0.00132716 5:0.941012 6:0.00197996 7:0.211326 8:0.916858 9:0.0692045 10:0.00501014 11:0.00102418 12:0.00147593 13:0.00571839 14:0.00236622 15:0.0132789 16:0.105389 17:0.794553 18:0 19:0 20:0 21:0 22:0 23:0 24:0 25:0.133136 26:0.0893472 27:0.0227936 28:0.0564791 29:0.0353714 30:0.0558627 31:0.13344 32:0.470748 33:0.00142938 34:0.00139287 35:0.0142746 36:0.0446097 37:0.0114371 38:0.734989 39:0.0829522 40:0.0349673 41:0.0265151 42:0.0169308 43:0.0223987 44:0.0109254 
-1 1:0.997164 2:6.57345e-06 3:6.56345e-06 4:0.00282312 5:0.663415 6:0.0624557 7:0.419257 8:0.940604 9:0.150906 10:0.0617487 11:0.0180573 12:0.0432076 13:0.0381454 14:0.114171 15:0.0540504 16:0.275229 17:0.182029 18:0 19:0 20:0 21:0 22:0 23:0 24:0 25:0.0437859 26:0.115995 27:0.0512957 28:0.0686982 29:0.0661421 30:0.0399565 31:0.271378 32:0.335732 33:0.00390569 34:0.00311048 35:0.1 36:0.1 37:0.1 38:0.1 39:0.1 40:0.1 41:0.1 42:0.1 43:0.1 44:0.1 
-0.07007277474193532 1:0.619805 2:0.357674 3:0.0124569 4:0.0100649 5:-0.814262 6:0.244625 7:0.533118 8:0.59364 9:0.0153825 10:0.154437 11:0.0282496 12:0.0484073 13:0.0285566 14:0.0336288 15:0.207583 16:0.124901 17:0.114229 18:0 19:0 20:0 21:0 22:0 23:0 24:0 25:0.0361454 26:0.350252 27:0.0469544 28:0.209809 29:0.166331 30:0.0325707 31:0.0472916 32:0.10726 33:0.00189061 34:0.00149492 35:0.00275019 36:0.00712273 37:0.00347943 38:0.0176312 39:0.303279 40:0.0250422 41:0.0729884 42:0.55277 43:0.0100396 44:0.00489706 
-1 1:0.997243 2:0.00173542 3:0.000141028 4:0.000880705 5:0.975335 6:0.00931708 7:0.0751065 8:0.746902 9:0.0299441 10:0.0521389 11:0.0131281 12:0.0289443 13:0.0245308 14:0.0517183 15:0.117703 16:0.0972503 17:0.575326 18:0 19:0 20:0 21:0 22:0 23:0 24:0 25:0.0432841 26:0.0543123 27:0.0240016 28:0.0734613 29:0.0874225 30:0.0476534 31:0.323498 32:0.342073 33:0.00254619 34:0.00174797 35:0.1 36:0.1 37:0.1 38:0.1 39:0.1 40:0.1 41:0.1 42:0.1 43:0.1 44:0.1 
-1 1:0.662454 2:0.137927 3:0.0393102 4:0.160309 5:0.958703 6:0.0197027 7:0.343465 8:-0.990671 9:0.131044 10:0.0272144 11:0.00339513 12:0.020427 13:0.00980246 14:0.0058048 15:0.00922154 16:0.0693744 17:0.704014 18:0 19:0 20:0 21:0 22:0 23:0 24:0 25:0.135049 26:0.113502 27:0.0186894 28:0.658802 29:0.0222119 30:0.0045149 31:0.00507306 32:0.032515 33:0.0057354 34:0.0039073 35:0.1 36:0.1 37:0.1 38:0.1 39:0.1 40:0.1 41:0.1 42:0.1 43:0.1 44:0.1 
-0.1526318863769454 1:0.0044311 2:0.0245598 3:0.725647 4:0.245362 5:0.63245 6:0.00142311 7:0.179343 8:-0.681011 9:0.0560495 10:0.0048128 11:0.000103891 12:0.000981004 13:0.0017098 14:0.000569525 15:0.000274731 16:0.457904 17:0.476172 18:0 19:0 20:0 21:0 22:0 23:0 24:1 25:0.0768472 26:0.0384683 27:0.00649759 28:0.0451933 29:0.751836 30:0.00582319 31:0.00338249 32:0.0655447 33:0.00484845 34:0.0015585 35:0.0362045 36:0.162395 37:0.0486612 38:0.14078 39:0.0880042 40:0.0567404 41:0.0680896 42:0.106446 43:0.263095 44:0.029584 
-1 1:0.933956 2:0.0207586 3:0.00818747 4:0.0370984 5:0.94684 6:0.00514666 7:0.182989 8:0.911701 9:0.0454752 10:0.0109478 11:0.0143445 12:0.00831079 13:0.0820045 14:0.0535452 15:0.592601 16:0.0987423 17:0.0888825 18:0 19:0 20:0 21:0 22:0 23:0 24:1 25:0.0838541 26:0.200161 27:0.00496374 28:0.0931616 29:0.517556 30:0.0063319 31:0.0548927 32:0.0329482 33:0.00377128 34:0.00235871 35:0.0167058 36:0.0240452 37:0.0105875 38:0.26978 39:0.634585 40:0.010659 41:0.00507297 42:0.00386862 43:0.0165487 44:0.00814684 
-1 1:0.654553 2:0.312103 3:0.0153676 4:0.0179758 5:0.970115 6:0.00647871 7:0.252074 8:0.892521 9:0.673413 10:0.0173665 11:0.00252007 12:0.00507216 13:0.0284276 14:0.00686494 15:0.0422641 16:0.0765652 17:0.141027 18:0 19:0 20:0 21:0 22:0 23:0 24:1 25:0.0623277 26:0.170488 27:0.00562168 28:0.0661896 29:0.617189 30:0.00336852 31:0.036482 32:0.0333413 33:0.00322512 34:0.00176693 35:0.0322194 36:0.0502681 37:0.0570909 38:0.249577 39:0.371381 40:0.0325536 41:0.0283655 42:0.0179577 43:0.120915 44:0.0396712 
-1 1:0.997133 2:6.66843e-06 3:6.19432e-06 4:0.00285395 5:0.955881 6:0.297068 7:0.676917 8:0.803464 9:0.0108287 10:0.0688464 11:0.0289636 12:0.422882 13:0.0328596 14:0.00599629 15:0.0110101 16:0.00985229 17:0.111693 18:0 19:0 20:0 21:0 22:0 23:0 24:1 25:0.0860495 26:0.0356604 27:0.0123206 28:0.0795254 29:0.248471 30:0.0199099 31:0.149012 32:0.366018 33:0.00196621 34:0.00106739 35:0.1 36:0.1 37:0.1 38:0.1 39:0.1 40:0.1 41:0.1 42:0.1 43:0.1 44:0.1 
-1 1:0.991966 2:0.00184057 3:0.000140518 4:0.00605329 5:0.942474 6:0.0123691 7:0.242903 8:0.613952 9:0.0549634 10:0.0191347 11:0.00595247 12:0.0206251 13:0.017933 14:0.00718173 15:0.0046262 16:0.782061 17:0.0751535 18:0 19:0 20:0 21:0 22:0 23:0 24:0 25:0.0837223 26:0.0860869 27:0.0113977 28:0.558939 29:0.147664 30:0.019294 31:0.0278188 32:0.045619 33:0.0132067 34:0.00625156 35:0.1 36:0.1 37:0.1 38:0.1 39:0.1 40:0.1 41:0.1 42:0.1 43:0.1 44:0.1 
-1 1:0.984185 2:0.0066099 3:0.00104713 4:0.00815752 5:0.97372 6:0.152983 7:0.273777 8:0.98915 9:0.0074631 10:0.467483 11:0.0145161 12:0.0362637 13:0.0660322 14:0.0433012 15:0.0245903 16:0.0108929 17:0.176474 18:0 19:0 20:0 21:0 22:0 23:0 24:1 25:0.0300836 26:0.131404 27:0.0348293 28:0.0178744 29:0.145081 30:0.0957124 31:0.470482 32:0.0489912 33:0.0204622 34:0.0050791 35:0.0522934 36:0.0992293 37:0.0379743 38:0.0151453 39:0.334429 40:0.0148963 41:0.327141 42:0.0479638 43:0.0226968 44:0.0482312 
-1 1:0.998966 2:1.19193e-06 3:1.11657e-06 4:0.00103199 5:0.961137 6:0.00126139 7:0.0914378 8:0.68602 9:0.0264076 10:0.00472796 11:0.000293083 12:0.000470488 13:0.00110069 14:0.000717867 15:0.000593643 16:0.0995565 17:0.864871 18:0 19:0 20:0 21:0 22:0 23:0 24:0 25:0.0975172 26:0.19519 27:0.0218109 28:0.083401 29:0.30074 30:0.0192329 31:0.136436 32:0.140391 33:0.0030712 34:0.00220937 35:0.0294246 36:0.564703 37:0.0365556 38:0.113089 39:0.0540702 40:0.0610791 41:0.0468922 42:0.0333526 43:0.028209 44:0.0326242 
