svm_type c_svc
kernel_type rbf
gamma 2
nr_class 2
total_sv 228
rho -0.361359
label 0 1
probA -28.3648
probB 10.5359
nr_sv 159 69
SV
0.04979746270292786 1:0.00228119 2:0.991214 3:0.00650495 4:-0.965329 5:0.00406207 6:0.0474494 7:0.016956 8:0.025098 9:0.549067 10:0.362109 11:0.024904 12:0.0103316 13:0.00462277 14:0.0028499 15:0 16:0 17:0 18:0 19:0 20:0 21:0 22:0.037974 23:0.637524 24:0.191753 25:0.0265573 26:0.0118114 27:0.0433963 28:0.0334405 29:0.00744367 30:0.0100999 31:0.00783399 32:0.269902 33:0.641483 34:0.00725642 35:0.00378831 36:0.00930186 37:0.00624922 38:0.00705764 39:0.0471283 
0.08394818659260909 1:0.00560281 2:0.971205 3:0.0231922 4:-0.949802 5:0.00782505 6:0.0786612 7:0.0541331 8:0.0643117 9:0.326368 10:0.503044 11:0.017099 12:0.00536113 13:0.00731073 14:0.0145476 15:0 16:0 17:0 18:1 19:0 20:0 21:0 22:0.0579334 23:0.384087 24:0.293094 25:0.0730191 26:0.0182551 27:0.0992842 28:0.0518042 29:0.011317 30:0.0112066 31:0.0198571 32:0.584958 33:0.162417 34:0.0170253 35:0.0181797 36:0.13704 37:0.0159192 38:0.0192039 39:0.0253995 
0.2624447366814064 1:0.000254013 2:0.991812 3:0.00793441 4:-0.968313 5:0.100749 6:0.340091 7:0.00537359 8:0.144356 9:0.128326 10:0.0681275 11:0.0673057 12:0.420071 13:0.0320583 14:0.033632 15:0 16:0 17:0 18:0 19:0 20:0 21:0 22:0.0122128 23:0.0559299 24:0.0152602 25:0.00468211 26:0.00566248 27:0.848739 28:0.0305501 29:0.0257924 30:0.00117065 31:0.11 32:0.11 33:0.11 34:0.11 35:0.11 36:0.11 37:0.11 38:0.11 39:0.11 
0.06126481836581164 1:0.00260019 2:0.976438 3:0.0209622 4:-0.952487 5:0.0130042 6:0.118598 7:0.10717 8:0.112013 9:0.203258 10:0.450467 11:0.0785296 12:0.0113986 13:0.00965749 14:0.0145029 15:0 16:0 17:0 18:0 19:0 20:0 21:0 22:0.0128597 23:0.0456852 24:0.820192 25:0.0156739 26:0.00831472 27:0.02737 28:0.0495602 29:0.0152693 30:0.00507469 31:0.000715555 32:0.0341376 33:0.85975 34:0.00508387 35:0.0010912 36:0.0948419 37:0.000848817 38:0.000763391 39:0.0027679 
0.631475666669433 1:0.230157 2:0.7536 3:0.0162423 4:0.965259 5:0.0115679 6:0.226036 7:0.00206149 8:0.0344835 9:0.730312 10:0.189138 11:0.0182587 12:0.00634028 13:0.00131389 14:0.00652434 15:0 16:0 17:1 18:0 19:0 20:0 21:1 22:0.0388827 23:0.0887558 24:0.274132 25:0.0376572 26:0.00937309 27:0.168712 28:0.303552 29:0.00633933 30:0.0725956 31:0.00050426 32:0.0593889 33:0.195283 34:0.00172774 35:0.00245417 36:0.739499 37:0.000625987 38:0.000178713 39:0.000337586 
0.8872667401240756 1:0.998786 2:6.3576e-06 3:0.00120765 4:0.94724 5:0.215455 6:0.485886 7:0.0101762 8:0.149858 9:0.0398754 10:0.0414014 11:0.0298165 12:0.0057482 13:0.00854419 14:0.499126 15:0 16:0 17:0 18:0 19:0 20:0 21:1 22:0.0299862 23:0.050973 24:0.0046741 25:0.0903216 26:0.713279 27:0.00424406 28:0.0383459 29:0.0659139 30:0.00226225 31:0.601212 32:0.230834 33:0.112428 34:0.00935382 35:0.00445967 36:0.00764145 37:0.00957287 38:0.0132482 39:0.0112494 
0.2837385684861973 1:0.94879 2:0.0456542 3:0.00555614 4:0.952081 5:0.0674473 6:0.53803 7:0.0100238 8:0.0285975 9:0.0079248 10:0.0164125 11:0.0172246 12:0.00151194 13:0.0045112 14:0.846346 15:0 16:0 17:0 18:0 19:0 20:0 21:1 22:0.0939704 23:0.0184973 24:0.00373513 25:0.0863205 26:0.650677 27:0.0223865 28:0.0352951 29:0.0866969 30:0.00242134 31:0.467862 32:0.298319 33:0.131534 34:0.0223325 35:0.018448 36:0.0165727 37:0.0154486 38:0.0134712 39:0.0160129 
0.5784455321691946 1:0.852898 2:0.0369344 3:0.110168 4:-0.946955 5:0.0886077 6:0.230081 7:0.00586829 8:0.285464 9:0.152002 10:0.0805777 11:0.0189835 12:0.0417843 13:0.289216 14:0.0374963 15:0 16:0 17:0 18:0 19:0 20:0 21:0 22:0.0375135 23:0.13359 24:0.21158 25:0.262283 26:0.0824293 27:0.0175546 28:0.0346023 29:0.214932 30:0.00551483 31:0.11 32:0.11 33:0.11 34:0.11 35:0.11 36:0.11 37:0.11 38:0.11 39:0.11 
0.4736933018196066 1:0.913174 2:0.0678701 3:0.0189558 4:-0.912285 5:0.063609 6:0.483149 7:0.010427 8:0.124587 9:0.688651 10:0.0663658 11:0.00525052 12:0.00527741 13:0.026629 14:0.00920286 15:0 16:0 17:0 18:0 19:0 20:0 21:1 22:0.00222722 23:0.0744823 24:0.22401 25:0.00589808 26:0.00238033 27:0.662417 28:0.0246086 29:0.00161082 30:0.00236559 31:0.00208404 32:0.0386294 33:0.286608 34:0.00148026 35:0.00213288 36:0.660445 37:0.00323053 38:0.00369103 39:0.00169824 
0.5436702770019581 1:0.906346 2:0.0841419 3:0.00951222 4:-0.913598 5:0.0043648 6:0.107594 7:0.0104361 8:0.0306572 9:0.0927069 10:0.0897796 11:0.200655 12:0.318487 13:0.0740463 14:0.178867 15:0 16:0 17:0 18:0 19:0 20:0 21:0 22:0.0278762 23:0.621392 24:0.163202 25:0.0262217 26:0.0112268 27:0.088806 28:0.0335396 29:0.0181683 30:0.00956707 31:0.00271485 32:0.0259486 33:0.101295 34:0.00151339 35:0.0025895 36:0.848789 37:0.0125869 38:0.00179015 39:0.00277241 
0.4472841548744382 1:0.00997469 2:0.979288 3:0.0107374 4:0.805212 5:0.052734 6:0.445077 7:0.0339975 8:0.119878 9:0.0529528 10:0.0272086 11:0.0220664 12:0.0104147 13:0.647932 14:0.0328158 15:0 16:0 17:0 18:0 19:0 20:0 21:0 22:0.0299027 23:0.246962 24:0.368324 25:0.163212 26:0.023666 27:0.0575141 28:0.0899926 29:0.00940215 30:0.0110252 31:0.11 32:0.11 33:0.11 34:0.11 35:0.11 36:0.11 37:0.11 38:0.11 39:0.11 
0.337440288197235 1:0.511195 2:0.472118 3:0.0166877 4:-0.952784 5:0.0299717 6:0.162685 7:0.00406033 8:0.062623 9:0.477751 10:0.274368 11:0.0364539 12:0.105095 13:0.0054042 14:0.00427357 15:0 16:0 17:0 18:0 19:0 20:0 21:0 22:0.00719731 23:0.00850428 24:0.0769276 25:0.000403659 26:0.00023901 27:0.88071 28:0.0250309 29:0.000587338 30:0.000400001 31:0.011049 32:0.106481 33:0.809633 34:0.00914808 35:0.00743195 36:0.0110326 37:0.0284655 38:0.00431661 39:0.0124426 
0.2547018804760242 1:0.00229814 2:0.982932 3:0.0147696 4:-0.973021 5:0.03753 6:0.694104 7:0.0311323 8:0.0181418 9:0.480019 10:0.176731 11:0.0235701 12:0.121024 13:0.0148772 14:0.0969753 15:0 16:0 17:0 18:0 19:0 20:0 21:0 22:0.00511567 23:0.13471 24:0.269082 25:0.0591238 26:0.00856498 27:0.0730998 28:0.434863 29:0.0107634 30:0.00467811 31:0.000594601 32:0.0310165 33:0.11592 34:0.000658226 35:0.000854532 36:0.84944 37:0.000753524 38:0.000186829 39:0.000575039 
0.1105288148076639 1:0.0049115 2:0.976654 3:0.0184343 4:-0.953537 5:0.00237411 6:0.0648041 7:0.0044145 8:0.0126602 9:0.153357 10:0.039631 11:0.139443 12:0.641533 13:0.00351871 14:0.00306822 15:0 16:0 17:0 18:0 19:0 20:0 21:1 22:0.0210869 23:0.0432114 24:0.603798 25:0.0293212 26:0.044508 27:0.0717815 28:0.147511 29:0.0327136 30:0.0060682 31:0.00747991 32:0.0973647 33:0.792195 34:0.0177828 35:0.00895079 36:0.0231641 37:0.0322628 38:0.00708149 39:0.0137185 
0.1491612259873949 1:0.00436857 2:0.986693 3:0.00893879 4:-0.961209 5:0.00456445 6:0.189485 7:0.00273849 8:0.0243789 9:0.0231956 10:0.0160753 11:0.11084 12:0.790731 13:0.0111104 14:0.0163664 15:0 16:0 17:0 18:0 19:0 20:0 21:0 22:0.016457 23:0.178578 24:0.151653 25:0.0479063 26:0.0902893 27:0.0568144 28:0.312082 29:0.13848 30:0.0077403 31:0.0212421 32:0.694631 33:0.165843 34:0.0196517 35:0.0315568 36:0.0173693 37:0.0179874 38:0.0131333 39:0.0185846 
0.2957742170540388 1:0.00481495 2:0.988006 3:0.00717855 4:-0.967414 5:0.00961381 6:0.37068 7:0.00335726 8:0.00897301 9:0.0191728 10:0.0295142 11:0.0475776 12:0.848537 13:0.0132871 14:0.0199673 15:0 16:0 17:0 18:0 19:0 20:0 21:0 22:0.0169513 23:0.294825 24:0.207143 25:0.132979 26:0.0767801 27:0.0199192 28:0.14963 29:0.0902088 30:0.011564 31:0.0209065 32:0.694293 33:0.168842 34:0.0333784 35:0.0193121 36:0.0178894 37:0.0185499 38:0.0145461 39:0.0122822 
0.4535945586191181 1:0.769489 2:0.204983 3:0.0255272 4:-0.953359 5:0.0192639 6:0.0820205 7:0.00186016 8:0.291324 9:0.171057 10:0.100801 11:0.368432 12:0.0437058 13:0.00264818 14:0.000907435 15:0 16:0 17:0 18:0 19:0 20:0 21:1 22:0.0193049 23:0.050672 24:0.374036 25:0.0247005 26:0.00736492 27:0.310234 28:0.118821 29:0.0926649 30:0.00220167 31:0.570943 32:0.168048 33:0.114245 34:0.0315818 35:0.0113846 36:0.0435124 37:0.0190053 38:0.0180311 39:0.0232483 
0.2928913407093233 1:0.00161545 2:0.0138096 3:0.984575 4:-0.766599 5:0.0223763 6:0.423111 7:0.122782 8:0.0259986 9:0.226149 10:0.156215 11:0.0172601 12:0.020575 13:0.370604 14:0.038041 15:0 16:0 17:0 18:0 19:0 20:0 21:0 22:0.0150655 23:0.230836 24:0.153452 25:0.414405 26:0.0424416 27:0.0419968 28:0.0841655 29:0.0145399 30:0.0030978 31:0.0117309 32:0.0981654 33:0.755603 34:0.0287559 35:0.0120815 36:0.0515841 37:0.0168888 38:0.00762963 39:0.0175605 
0.3276511665956602 1:0.101617 2:0.784117 3:0.114266 4:-0.644156 5:0.00519729 6:0.168968 7:0.00384665 8:0.0378019 9:0.629947 10:0.195597 11:0.0198042 12:0.0279533 13:0.0769967 14:0.00285555 15:0 16:0 17:0 18:0 19:0 20:0 21:0 22:0.00530745 23:0.072338 24:0.0726806 25:0.773303 26:0.0633122 27:0.0032959 28:0.00633002 29:0.00142112 30:0.00201184 31:0.00744164 32:0.109779 33:0.805461 34:0.0132405 35:0.00942769 36:0.0310807 37:0.00994992 38:0.00421987 39:0.00939927 
0.2970146604780828 1:0.000685895 2:0.97293 3:0.0263846 4:-0.962398 5:0.561543 6:0.929441 7:0.00214439 8:0.0395707 9:0.280746 10:0.0390308 11:0.00857865 12:0.00202618 13:0.053634 14:0.0127259 15:0 16:0 17:0 18:0 19:0 20:0 21:0 22:0.0330146 23:0.0602872 24:0.226111 25:0.00630257 26:0.00100853 27:0.622355 28:0.0442938 29:0.00155688 30:0.00507068 31:0.00362673 32:0.0263963 33:0.924357 34:0.00740388 35:0.00215994 36:0.00884064 37:0.0102468 38:0.0026389 39:0.0143295 
0.02947993158904396 1:0.154417 2:0.8116 3:0.0339838 4:0.892023 5:0.0159752 6:0.23142 7:0.0124627 8:0.0313473 9:0.660109 10:0.0208118 11:0.109591 12:0.0490029 13:0.0897574 14:0.0109428 15:0 16:0 17:0 18:0 19:0 20:0 21:0 22:0.0196553 23:0.0816932 24:0.674983 25:0.0250331 26:0.0053088 27:0.109364 28:0.0688745 29:0.00825522 30:0.00683316 31:0.00410847 32:0.032449 33:0.923334 34:0.00784865 35:0.00241113 36:0.00662338 37:0.0108689 38:0.00268456 39:0.00967218 
0.07619823222022039 1:0.0190558 2:0.944967 3:0.0359773 4:-0.587754 5:0.0231656 6:0.629322 7:0.00443119 8:0.0348451 9:0.808247 10:0.0175062 11:0.0146063 12:0.0142734 13:0.0779476 14:0.00497746 15:0 16:0 17:0 18:0 19:0 20:0 21:0 22:0.0413701 23:0.123559 24:0.549325 25:0.0540376 26:0.0091657 27:0.125382 28:0.0829522 29:0.00483394 30:0.00937404 31:0.00201764 32:0.0280491 33:0.945311 34:0.00525669 35:0.00147664 36:0.00683946 37:0.005268 38:0.00135275 39:0.0044288 
0.4109865544111471 1:0.0261691 2:0.941486 3:0.0323453 4:0.900975 5:0.0895055 6:0.776258 7:0.0030629 8:0.0256047 9:0.815745 10:0.01094 11:0.0152332 12:0.0116171 13:0.0263793 14:0.00191244 15:0 16:0 17:0 18:0 19:0 20:0 21:0 22:0.0658758 23:0.103493 24:0.531311 25:0.0433801 26:0.0102949 27:0.117348 28:0.0991104 29:0.00567372 30:0.0235134 31:0.00362673 32:0.0263963 33:0.924357 34:0.00740388 35:0.00215994 36:0.00884064 37:0.0102468 38:0.0026389 39:0.0143295 
0.3112937130621477 1:0.266755 2:0.257097 3:0.476148 4:0.74766 5:0.00559923 6:0.27594 7:0.00646295 8:0.0109939 9:0.670259 10:0.0340003 11:0.0266237 12:0.172241 13:0.0665553 14:0.00726439 15:0 16:0 17:0 18:0 19:0 20:0 21:0 22:0.00400207 23:0.124272 24:0.76549 25:0.00924611 26:0.00585769 27:0.073151 28:0.0103967 29:0.0047479 30:0.00283661 31:0.0109047 32:0.0896631 33:0.71331 34:0.0212012 35:0.0105039 36:0.0876255 37:0.033389 38:0.0130387 39:0.0203637 
0.2455904679798906 1:0.063424 2:0.867975 3:0.0686007 4:0.854844 5:0.114831 6:0.86103 7:0.0268842 8:0.0347717 9:0.225896 10:0.0617646 11:0.0800583 12:0.0246917 13:0.397516 14:0.0335862 15:0 16:0 17:0 18:0 19:0 20:0 21:0 22:0.0111062 23:0.110191 24:0.40566 25:0.365709 26:0.0284636 27:0.0346884 28:0.00679144 29:0.00496101 30:0.0324301 31:0.0146926 32:0.0950348 33:0.706825 34:0.0272517 35:0.00925412 36:0.0661262 37:0.0455625 38:0.0120045 39:0.0232489 
0.04376622044618104 1:0.000950844 2:0.978811 3:0.0202381 4:-0.754341 5:0.0038038 6:0.06888 7:0.00179523 8:0.0535095 9:0.184483 10:0.167728 11:0.19412 12:0.380376 13:0.00546585 14:0.00871727 15:0 16:0 17:0 18:0 19:0 20:0 21:1 22:0.0107949 23:0.0416537 24:0.781239 25:0.0134799 26:0.0234431 27:0.0361696 28:0.0800565 29:0.0086362 30:0.00452707 31:0.00731216 32:0.0954903 33:0.788732 34:0.0187858 35:0.00768551 36:0.0165226 37:0.0436475 38:0.005629 39:0.0161952 
0.1892218581039159 1:0.068095 2:0.895728 3:0.0361766 4:-0.953015 5:0.00567922 6:0.123791 7:0.0013645 8:0.0189933 9:0.153324 10:0.0799941 11:0.0397954 12:0.671125 13:0.0207225 14:0.00900257 15:0 16:0 17:0 18:0 19:0 20:0 21:0 22:0.0106532 23:0.0405337 24:0.63443 25:0.0255286 26:0.0522281 27:0.0572206 28:0.135806 29:0.0403707 30:0.00322969 31:0.00219283 32:0.0491869 33:0.922896 34:0.00816537 35:0.00265614 36:0.00719895 37:0.00293573 38:0.00126834 39:0.00349951 
0.07370282188194593 1:0.00033953 2:0.993983 3:0.00567725 4:-0.964814 5:0.0111371 6:0.0515874 7:0.0577999 8:0.245602 9:0.182208 10:0.349901 11:0.0835114 12:0.0322198 13:0.0063531 14:0.0312671 15:0 16:0 17:0 18:0 19:0 20:0 21:1 22:0.0273571 23:0.519817 24:0.271352 25:0.0321588 26:0.016542 27:0.050236 28:0.0663942 29:0.0101829 30:0.0059602 31:0.00639476 32:0.358147 33:0.551203 34:0.0103755 35:0.0051598 36:0.0358218 37:0.0180751 38:0.00297662 39:0.0118468 
0.3318477599202255 1:0.0318165 2:0.95167 3:0.0165136 4:-0.957361 5:0.0122447 6:0.274601 7:0.0123538 8:0.0289137 9:0.0725779 10:0.0881598 11:0.123417 12:0.638862 13:0.0163631 14:0.00710765 15:0 16:0 17:0 18:0 19:0 20:0 21:1 22:0.0573914 23:0.105388 24:0.215779 25:0.0430819 26:0.0361537 27:0.207174 28:0.193632 29:0.12667 30:0.014731 31:0.0129997 32:0.0320195 33:0.0366643 34:0.0218813 35:0.00532812 36:0.830769 37:0.0207107 38:0.0213691 39:0.018258 
0.0436311985965496 1:0.276381 2:0.702959 3:0.0206591 4:-0.963601 5:0.00649486 6:0.0285961 7:0.0193899 8:0.196464 9:0.13687 10:0.514187 11:0.10396 12:0.0104349 13:0.00613307 14:0.00606671 15:0 16:0 17:0 18:0 19:0 20:0 21:0 22:0.0273074 23:0.0750249 24:0.707553 25:0.025281 26:0.0114999 27:0.0882959 28:0.0461115 29:0.00720253 30:0.0117238 31:0.00125367 32:0.0457016 33:0.229287 34:0.00220874 35:0.00216105 36:0.701501 37:0.00773329 38:0.00404936 39:0.00610421 
0.2262831323597258 1:0.00244933 2:0.986278 3:0.0112726 4:-0.973786 5:0.171696 6:0.823989 7:0.0189182 8:0.0278799 9:0.0891567 10:0.0299672 11:0.00394685 12:0.0127458 13:0.592516 14:0.0531736 15:0 16:0 17:0 18:0 19:0 20:0 21:0 22:0.0539882 23:0.156726 24:0.536387 25:0.0431319 26:0.0183369 27:0.106253 28:0.0444078 29:0.0236773 30:0.0170921 31:0.00801022 32:0.417914 33:0.375654 34:0.0370449 35:0.010637 36:0.110169 37:0.0125929 38:0.00776114 39:0.0202167 
0.3661341374138911 1:0.136801 2:0.85311 3:0.0100893 4:0.878882 5:0.0211342 6:0.253269 7:0.0178406 8:0.0747408 9:0.152364 10:0.0951015 11:0.0760902 12:0.010249 13:0.455098 14:0.0973807 15:0 16:0 17:0 18:0 19:0 20:0 21:0 22:0.00373395 23:0.00825468 24:0.251983 25:0.0834758 26:0.0169837 27:0.506757 28:0.107321 29:0.0182521 30:0.00323885 31:0.00138376 32:0.0172686 33:0.922347 34:0.00297296 35:0.00947938 36:0.00482953 37:0.0267914 38:0.0100828 39:0.00484473 
0.1405946166074848 1:0.000708391 2:0.9084 3:0.0908916 4:-0.944288 5:0.145538 6:0.567794 7:0.00578254 8:0.129102 9:0.210464 10:0.0750882 11:0.0613875 12:0.315784 13:0.00951539 14:0.0473378 15:0 16:0 17:0 18:1 19:0 20:0 21:1 22:0.0306975 23:0.057506 24:0.0593463 25:0.0266008 26:0.0449032 27:0.552063 28:0.183122 29:0.0101395 30:0.0356215 31:0.537244 32:0.165935 33:0.149774 34:0.043343 35:0.0172381 36:0.0221051 37:0.0134682 38:0.0122179 39:0.0386748 
0.214836087328901 1:0.00215444 2:0.988444 3:0.00940118 4:-0.945081 5:0.0347403 6:0.125291 7:0.00888422 8:0.133134 9:0.55487 10:0.197186 11:0.0589329 12:0.00613196 13:0.0033826 14:0.00273786 15:0 16:0 17:0 18:1 19:0 20:0 21:1 22:0.00256561 23:0.0514225 24:0.281463 25:0.00979163 26:0.00229811 27:0.608982 28:0.0372938 29:0.00488762 30:0.00129609 31:0.017473 32:0.167621 33:0.430912 34:0.0414433 35:0.033876 36:0.280745 37:0.00609119 38:0.00578658 39:0.016052 
0.2280763764579829 1:0.00653194 2:0.950612 3:0.0428562 4:-0.969573 5:0.00201904 6:0.223573 7:0.00216289 8:0.00483405 9:0.908132 10:0.0674217 11:0.00864386 12:0.00157378 13:0.00475609 14:0.000456341 15:0 16:0 17:0 18:0 19:0 20:0 21:0 22:0.00920678 23:0.0491237 24:0.708852 25:0.0210485 26:0.00598475 27:0.160906 28:0.0192366 29:0.016176 30:0.0094651 31:0.00271485 32:0.0259486 33:0.101295 34:0.00151339 35:0.0025895 36:0.848789 37:0.0125869 38:0.00179015 39:0.00277241 
0.2093358944580631 1:0.984856 2:0.00966639 3:0.00547735 4:-0.67736 5:0.0200886 6:0.0907992 7:0.00186228 8:0.240539 9:0.545972 10:0.0887342 11:0.0838112 12:0.00843681 13:0.00863991 14:0.00191499 15:0 16:0 17:0 18:0 19:0 20:0 21:0 22:0.0458007 23:0.225307 24:0.474249 25:0.0541981 26:0.0164801 27:0.0936059 28:0.057476 29:0.0211416 30:0.0117424 31:0.0100586 32:0.121174 33:0.837906 34:0.00570848 35:0.00196196 36:0.00555039 37:0.00579717 38:0.004473 39:0.00737054 
0.2465782044378654 1:0.00834566 2:0.963638 3:0.0280162 4:-0.954446 5:0.0147115 6:0.111206 7:0.0122365 8:0.272359 9:0.623391 10:0.0492344 11:0.0151305 12:0.0010853 13:0.00988737 14:0.00196408 15:0 16:0 17:0 18:0 19:0 20:0 21:0 22:0.00372863 23:0.0311108 24:0.015066 25:0.695095 26:0.115676 27:0.00526572 28:0.0690521 29:0.0606852 30:0.00432037 31:0.11 32:0.11 33:0.11 34:0.11 35:0.11 36:0.11 37:0.11 38:0.11 39:0.11 
0.1035876383020575 1:0.691427 2:0.298255 3:0.0103178 4:-0.859698 5:0.0083056 6:0.0287581 7:0.062218 8:0.238255 9:0.183218 10:0.311966 11:0.0844385 12:0.0449275 13:0.0367886 14:0.0298826 15:0 16:0 17:0 18:0 19:0 20:0 21:0 22:0.0210697 23:0.16008 24:0.666496 25:0.0361508 26:0.00927279 27:0.0358497 28:0.0371971 29:0.0176499 30:0.0162346 31:0.00812058 32:0.121604 33:0.219402 34:0.0121824 35:0.00739104 36:0.592417 37:0.0167094 38:0.00688821 39:0.015285 
0.003803962458002152 1:0.00189983 2:0.958194 3:0.0399057 4:-0.953615 5:0.0102775 6:0.126898 7:0.0125795 8:0.0606413 9:0.160729 10:0.457399 11:0.0164618 12:0.19539 13:0.00522653 14:0.0812954 15:0 16:0 17:0 18:0 19:0 20:0 21:0 22:0.0826958 23:0.461343 24:0.0129304 25:0.0707896 26:0.129001 27:0.057239 28:0.0607744 29:0.120062 30:0.00516496 31:0.0131701 32:0.644294 33:0.0799754 34:0.0752179 35:0.0110564 36:0.102603 37:0.0311761 38:0.0132745 39:0.0292328 
0.4947732027886608 1:0.00287936 2:0.987663 3:0.00945794 4:-0.961225 5:0.00702043 6:0.0944114 7:0.0213811 8:0.1226 9:0.317369 10:0.346148 11:0.160112 12:0.00876434 13:0.0142002 14:0.00240507 15:0 16:0 17:0 18:1 19:0 20:0 21:0 22:0.0145608 23:0.0709652 24:0.781774 25:0.0201607 26:0.00869195 27:0.0441083 28:0.0397489 29:0.00680733 30:0.0131831 31:0.000977922 32:0.0304668 33:0.0820911 34:0.00185044 35:0.00461947 36:0.872749 37:0.00248107 38:0.000666677 39:0.00409771 
0.5662096016541449 1:0.00496117 2:0.00614233 3:0.988897 4:-0.964289 5:0.180435 6:0.43734 7:0.0145118 8:0.356468 9:0.122179 10:0.0817697 11:0.0804891 12:0.131098 13:0.0191881 14:0.0138615 15:0 16:0 17:0 18:1 19:0 20:0 21:0 22:0.0415555 23:0.379893 24:0.311999 25:0.0460667 26:0.0195901 27:0.120459 28:0.0543555 29:0.00823138 30:0.017851 31:0.0430611 32:0.506357 33:0.0845722 34:0.0706948 35:0.0213277 36:0.0983932 37:0.0588537 38:0.0350973 39:0.0816435 
0.09616676482059795 1:0.00055465 2:0.993355 3:0.00608989 4:-0.950895 5:0.0286573 6:0.541709 7:0.0582886 8:0.0277499 9:0.151438 10:0.301765 11:0.0470079 12:0.232111 13:0.0630305 14:0.0899514 15:0 16:0 17:0 18:0 19:0 20:0 21:1 22:0.121373 23:0.442599 24:0.0525934 25:0.0350217 26:0.0194326 27:0.140631 28:0.0317926 29:0.125822 30:0.030735 31:0.0103527 32:0.623552 33:0.130766 34:0.0137156 35:0.0116339 36:0.171622 37:0.00960766 38:0.0115707 39:0.0171789 
0.4075785043993441 1:0.00226922 2:0.966257 3:0.0314735 4:-0.968201 5:0.0108192 6:0.134544 7:0.0532028 8:0.0502983 9:0.64999 10:0.167789 11:0.0221625 12:0.00246716 13:0.0278284 14:0.0154426 15:0 16:0 17:1 18:0 19:0 20:0 21:1 22:0.0307152 23:0.216414 24:0.483367 25:0.0486964 26:0.0161747 27:0.113033 28:0.0384807 29:0.0138362 30:0.0392823 31:0.00472414 32:0.0644072 33:0.292508 34:0.00325596 35:0.00290839 36:0.609056 37:0.00886609 38:0.00421876 39:0.010055 
0.2821675271970457 1:0.939371 2:0.0492211 3:0.0114081 4:-0.942729 5:0.0063377 6:0.0523911 7:0.00986853 8:0.0907994 9:0.787666 10:0.0742638 11:0.00513426 12:0.00943816 13:0.0113767 14:0.00511528 15:0 16:0 17:0 18:0 19:0 20:0 21:0 22:0.0457116 23:0.130926 24:0.418672 25:0.0309203 26:0.011943 27:0.292349 28:0.0389292 29:0.0162605 30:0.0142886 31:0.0030023 32:0.0569361 33:0.903472 34:0.00673584 35:0.00357358 36:0.00967974 37:0.00316623 38:0.00449808 39:0.00893574 
0.154005927383436 1:0.000517846 2:0.983892 3:0.0155906 4:-0.973591 5:0.00909047 6:0.0255861 7:0.0322998 8:0.150269 9:0.294684 10:0.418954 11:0.029033 12:0.0421787 13:0.0142695 14:0.00922198 15:0 16:0 17:0 18:0 19:0 20:0 21:1 22:0.026872 23:0.318824 24:0.189098 25:0.0260473 26:0.0118546 27:0.360204 28:0.0259961 29:0.0236351 30:0.0174684 31:0.00234667 32:0.0312401 33:0.114275 34:0.00239834 35:0.00194786 36:0.827881 37:0.0101422 38:0.00390298 39:0.0058653 
0.1487472768168065 1:0.391176 2:0.374352 3:0.234472 4:-0.954348 5:0.0314394 6:0.0748051 7:0.00427728 8:0.34687 9:0.292078 10:0.1105 11:0.188127 12:0.0167108 13:0.00578616 14:0.00421033 15:0 16:0 17:0 18:0 19:0 20:0 21:1 22:0.00743384 23:0.105678 24:0.787124 25:0.0111386 26:0.00525823 27:0.0177428 28:0.0567085 29:0.00687318 30:0.0020431 31:0.0385825 32:0.467996 33:0.249281 34:0.0195281 35:0.00585276 36:0.200511 37:0.0063444 38:0.00490396 39:0.00700002 
0.4538222998318449 1:0.284729 2:0.693862 3:0.0214097 4:0.5 5:0.0413027 6:0.470101 7:0.0035592 8:0.0325847 9:0.585569 10:0.137267 11:0.0309868 12:0.151287 13:0.00407423 14:0.0133701 15:0 16:0 17:0 18:0 19:0 20:0 21:0 22:0.0320755 23:0.502622 24:0.168168 25:0.0363888 26:0.0408485 27:0.0198767 28:0.118176 29:0.0734432 30:0.00840127 31:0.0256731 32:0.498009 33:0.285237 34:0.0154693 35:0.0125373 36:0.095271 37:0.0182894 38:0.0165661 39:0.032947 
0.4073805859567159 1:0.028815 2:0.913774 3:0.0574108 4:-0.978494 5:0.0100231 6:0.330818 7:0.000755452 8:0.00645077 9:0.138161 10:0.0185662 11:0.0133135 12:0.79233 13:0.0154178 14:0.00498198 15:0 16:0 17:0 18:0 19:0 20:0 21:1 22:0.0714598 23:0.0962017 24:0.0675729 25:0.0258637 26:0.0126318 27:0.0339739 28:0.106909 29:0.575713 30:0.00967434 31:0.0309401 32:0.104295 33:0.775946 34:0.00570888 35:0.00399231 36:0.0159166 37:0.0430905 38:0.00396859 39:0.0161421 
0.2506555468706244 1:0.863174 2:0.103165 3:0.0336612 4:-0.960451 5:0.0278427 6:0.318908 7:0.0219092 8:0.0536723 9:0.115331 10:0.41541 11:0.0123467 12:0.0924327 13:0.153537 14:0.107519 15:0 16:0 17:0 18:0 19:0 20:0 21:0 22:0.0609286 23:0.252522 24:0.421316 25:0.0257975 26:0.00708407 27:0.130152 28:0.0914365 29:0.00889274 30:0.00187103 31:0.0761468 32:0.393347 33:0.0741798 34:0.0600151 35:0.0171577 36:0.276488 37:0.0484678 38:0.0174333 39:0.0367641 
0.08913105057647995 1:0.0127827 2:0.428179 3:0.559038 4:-0.809944 5:0.0182547 6:0.337824 7:0.109891 8:0.03485 9:0.273575 10:0.376606 11:0.0256795 12:0.0117213 13:0.0826228 14:0.0668 15:0 16:0 17:0 18:0 19:0 20:0 21:0 22:0.063618 23:0.0531853 24:0.598525 25:0.0440569 26:0.0111045 27:0.0136271 28:0.113687 29:0.071216 30:0.0309793 31:0.0138134 32:0.0254205 33:0.0621859 34:0.0297559 35:0.0503721 36:0.591021 37:0.101636 38:0.108836 39:0.0169596 
0.03677160930494039 1:0.612776 2:0.339789 3:0.0474351 4:-0.944919 5:0.00666518 6:0.0363215 7:0.000959452 8:0.11288 9:0.829788 10:0.0430355 11:0.00224957 12:0.00104996 13:0.00178402 14:0.00158861 15:0 16:0 17:0 18:0 19:0 20:0 21:0 22:0.0226819 23:0.138714 24:0.607833 25:0.038695 26:0.0147605 27:0.0645993 28:0.0672703 29:0.0140647 30:0.0313809 31:0.00736675 32:0.0996005 33:0.718633 34:0.00580961 35:0.0127556 36:0.137342 37:0.0107733 38:0.00206488 39:0.00565472 
0.04917877377701609 1:0.00244748 2:0.989161 3:0.00839123 4:-0.965119 5:0.0122315 6:0.122688 7:0.00695062 8:0.0571311 9:0.300218 10:0.273806 11:0.166063 12:0.149693 13:0.00571108 14:0.0281965 15:0 16:0 17:0 18:0 19:0 20:0 21:0 22:0.0583882 23:0.108613 24:0.0147714 25:0.0723397 26:0.129904 27:0.195024 28:0.114 29:0.300269 30:0.00669003 31:0.00684132 32:0.0560213 33:0.025914 34:0.0106765 35:0.00774832 36:0.850171 37:0.0126263 38:0.0178171 39:0.0121837 
0.05059534465294575 1:0.0301723 2:0.842139 3:0.127688 4:-0.954935 5:0.0407346 6:0.459555 7:0.0508144 8:0.0659659 9:0.196396 10:0.371513 11:0.0331413 12:0.0254021 13:0.152041 14:0.0639912 15:0 16:0 17:0 18:0 19:0 20:0 21:1 22:0.115314 23:0.033798 24:0.00948762 25:0.162736 26:0.145912 27:0.00944493 28:0.0296576 29:0.491986 30:0.00166304 31:0.11 32:0.11 33:0.11 34:0.11 35:0.11 36:0.11 37:0.11 38:0.11 39:0.11 
0.05134505905039765 1:0.0046225 2:0.981716 3:0.0136618 4:0.947464 5:0.0689277 6:0.328419 7:0.0116907 8:0.137882 9:0.331803 10:0.0415638 11:0.148347 12:0.134101 13:0.0554512 14:0.0702323 15:0 16:0 17:0 18:0 19:0 20:0 21:0 22:0.00797139 23:0.0768111 24:0.0956768 25:0.723213 26:0.0298233 27:0.0160872 28:0.0383856 29:0.0108413 30:0.00119086 31:0.11 32:0.11 33:0.11 34:0.11 35:0.11 36:0.11 37:0.11 38:0.11 39:0.11 
0.5314295319095542 1:0.00161964 2:0.990378 3:0.00800252 4:0.903095 5:0.0581433 6:0.408554 7:0.0422521 8:0.0593583 9:0.438472 10:0.131321 11:0.0377162 12:0.142492 13:0.0660803 14:0.024164 15:0 16:0 17:0 18:0 19:0 20:0 21:1 22:0.019747 23:0.0536512 24:0.0498583 25:0.806306 26:0.0427088 27:0.00442226 28:0.0146482 29:0.00723467 30:0.00142363 31:0.11 32:0.11 33:0.11 34:0.11 35:0.11 36:0.11 37:0.11 38:0.11 39:0.11 
0.1411749609968748 1:0.00293434 2:0.972711 3:0.0243548 4:-0.966771 5:0.0232518 6:0.260624 7:0.0166532 8:0.0927032 9:0.0960763 10:0.0218834 11:0.0335818 12:0.0226481 13:0.655206 14:0.0379965 15:0 16:0 17:0 18:0 19:0 20:0 21:0 22:0.0222179 23:0.213385 24:0.204193 25:0.267196 26:0.0776355 27:0.0862678 28:0.087192 29:0.0328243 30:0.00908917 31:0.00849446 32:0.0746738 33:0.805017 34:0.0208672 35:0.00680055 36:0.0308067 37:0.0184623 38:0.00648136 39:0.0283969 
0.2361205741625981 1:0.028413 2:0.940958 3:0.0306295 4:0.732848 5:0.0122742 6:0.351825 7:0.00667853 8:0.0119758 9:0.234139 10:0.0660698 11:0.0653898 12:0.522896 13:0.0630376 14:0.0175389 15:0 16:0 17:0 18:0 19:0 20:0 21:0 22:0.00480944 23:0.0206178 24:0.14641 25:0.783871 26:0.0260369 27:0.00642136 28:0.00434138 29:0.00150487 30:0.0059875 31:0.11 32:0.11 33:0.11 34:0.11 35:0.11 36:0.11 37:0.11 38:0.11 39:0.11 
0.1549210942020371 1:0.0776452 2:0.8232 3:0.099155 4:0.681701 5:0.0225324 6:0.23904 7:0.00696816 8:0.0385851 9:0.246298 10:0.0641826 11:0.0542658 12:0.439862 13:0.100057 14:0.0272494 15:0 16:0 17:0 18:0 19:0 20:0 21:0 22:0.0157033 23:0.0421141 24:0.078771 25:0.690047 26:0.0604243 27:0.0534548 28:0.0399376 29:0.0112893 30:0.00825815 31:0.11 32:0.11 33:0.11 34:0.11 35:0.11 36:0.11 37:0.11 38:0.11 39:0.11 
0.3474566719087912 1:0.0140888 2:0.962502 3:0.0234088 4:0.945045 5:0.00889103 6:0.0898739 7:0.00430627 8:0.0385283 9:0.439951 10:0.17354 11:0.00894485 12:0.319986 13:0.00132127 14:0.0045321 15:0 16:0 17:0 18:0 19:0 20:0 21:0 22:0.0191223 23:0.0746579 24:0.124051 25:0.426146 26:0.0836341 27:0.0548806 28:0.127901 29:0.0861889 30:0.00341838 31:0.11 32:0.11 33:0.11 34:0.11 35:0.11 36:0.11 37:0.11 38:0.11 39:0.11 
0.5003251444881265 1:0.979627 2:0.0155375 3:0.00483523 4:-0.96296 5:0.00723257 6:0.0716459 7:0.0621653 8:0.0651286 9:0.516637 10:0.22269 11:0.049996 12:0.00364339 13:0.0546896 14:0.0178173 15:0 16:0 17:0 18:0 19:0 20:0 21:1 22:0.0022529 23:0.0858254 24:0.0503923 25:0.00303326 26:0.00265833 27:0.133392 28:0.715589 29:0.00199472 30:0.00486221 31:0.00410864 32:0.144004 33:0.5362 34:0.0205323 35:0.0120173 36:0.254799 37:0.00530177 38:0.00258814 39:0.0204492 
0.3705147375993997 1:0.161003 2:0.796423 3:0.0425739 4:-0.969905 5:0.0402051 6:0.607795 7:0.00626791 8:0.0189965 9:0.521971 10:0.14897 11:0.0192494 12:0.191171 13:0.0240148 14:0.0291549 15:0 16:0 17:0 18:0 19:0 20:0 21:0 22:0.0066539 23:0.0796939 24:0.856471 25:0.0206467 26:0.00215765 27:0.011278 28:0.0110893 29:0.0107473 30:0.00126184 31:0.715705 32:0.0481539 33:0.0237483 34:0.0283543 35:0.0866966 36:0.0130106 37:0.0259286 38:0.024057 39:0.0343457 
0.1531289956275975 1:0.00477979 2:0.983277 3:0.0119429 4:-0.930985 5:0.0380281 6:0.109695 7:0.018975 8:0.222335 9:0.0925114 10:0.11089 11:0.072976 12:0.401749 13:0.0135828 14:0.0289533 15:0 16:0 17:0 18:0 19:0 20:0 21:0 22:0.0632027 23:0.0784793 24:0.0136529 25:0.0652488 26:0.4991 27:0.0289372 28:0.0065789 29:0.23833 30:0.00647002 31:0.030245 32:0.0959464 33:0.781394 34:0.00564425 35:0.00392566 36:0.0139709 37:0.043076 38:0.00407248 39:0.0217256 
0.4777200817660777 1:0.00063074 2:0.981445 3:0.0179247 4:-0.967987 5:0.884453 6:0.937576 7:0.00251289 8:0.0619847 9:0.00740875 10:0.00824169 11:0.00185957 12:0.0165399 13:0.0106404 14:0.00635929 15:0 16:0 17:0 18:0 19:0 20:0 21:0 22:0.0328404 23:0.417837 24:0.0514644 25:0.353833 26:0.0782589 27:0.0186887 28:0.0180393 29:0.0179637 30:0.0110751 31:0.11 32:0.11 33:0.11 34:0.11 35:0.11 36:0.11 37:0.11 38:0.11 39:0.11 
0.317562193797812 1:0.00384659 2:0.981885 3:0.0142684 4:-0.960462 5:0.134233 6:0.72437 7:0.0193886 8:0.0814603 9:0.511554 10:0.058921 11:0.0156418 12:0.0587997 13:0.0482575 14:0.0717434 15:0 16:0 17:0 18:0 19:0 20:0 21:1 22:0.000477231 23:0.0045778 24:0.113721 25:0.000374991 26:0.000190046 27:0.869581 28:0.0075403 29:0.00298693 30:0.000550235 31:0.0112907 32:0.119939 33:0.683998 34:0.019426 35:0.00732919 36:0.097499 37:0.0343651 38:0.0095175 39:0.0166361 
0.120521188273423 1:0.000840544 2:0.987819 3:0.0113402 4:-0.96783 5:0.016748 6:0.0811157 7:0.0969115 8:0.109314 9:0.0545933 10:0.570553 11:0.0324574 12:0.0200855 13:0.0286522 14:0.0706852 15:0 16:0 17:0 18:0 19:0 20:0 21:0 22:0.0346255 23:0.195602 24:0.617246 25:0.022262 26:0.0134417 27:0.0384979 28:0.0473342 29:0.0176306 30:0.0133596 31:0.0032426 32:0.0351094 33:0.2311 34:0.00141556 35:0.00161363 36:0.712282 37:0.00768228 38:0.00341712 39:0.00413723 
0.04610460056743799 1:0.00478612 2:0.96998 3:0.0252338 4:-0.927855 5:0.0240865 6:0.0804038 7:0.00224398 8:0.0483575 9:0.860667 10:0.0559804 11:0.00377435 12:0.00144538 13:0.00136952 14:0.00207492 15:0 16:0 17:0 18:0 19:0 20:0 21:0 22:0.00759254 23:0.0409544 24:0.840248 25:0.00809491 26:0.00415724 27:0.0287652 28:0.043979 29:0.0128934 30:0.0133153 31:0.00365583 32:0.0692462 33:0.64061 34:0.0138931 35:0.00617947 36:0.239798 37:0.007403 38:0.0036305 39:0.0155842 
0.5660967940722891 1:0.75015 2:0.205477 3:0.0443729 4:-0.78875 5:0.0156545 6:0.062447 7:0.261526 8:0.168751 9:0.134721 10:0.327581 11:0.0123033 12:0.00877059 13:0.0531823 14:0.0175101 15:0 16:0 17:0 18:1 19:0 20:0 21:1 22:0.0215368 23:0.0952808 24:0.74921 25:0.00876836 26:0.00561106 27:0.0387343 28:0.0504885 29:0.0112137 30:0.0191566 31:0.00800988 32:0.105404 33:0.73024 34:0.0126617 35:0.0119821 36:0.0770874 37:0.0198417 38:0.017659 39:0.017114 
0.2890900352537208 1:0.000847287 2:0.975876 3:0.0232768 4:-0.947345 5:0.0264956 6:0.643343 7:0.00615151 8:0.0303851 9:0.489078 10:0.134654 11:0.0676396 12:0.0620071 13:0.15207 14:0.03152 15:1 16:0 17:0 18:0 19:0 20:0 21:1 22:0.024761 23:0.0591593 24:0.533464 25:0.0478376 26:0.016634 27:0.23865 28:0.0530855 29:0.011836 30:0.014572 31:0.0122725 32:0.102408 33:0.811732 34:0.0150544 35:0.00839539 36:0.00874343 37:0.0139434 38:0.00994116 39:0.017509 
0.3228960472628474 1:0.00564048 2:0.968655 3:0.0257043 4:-0.974006 5:0.0310262 6:0.0780881 7:0.0191015 8:0.111404 9:0.153531 10:0.114499 11:0.279032 12:0.189251 13:0.0350835 14:0.0670728 15:0 16:0 17:0 18:0 19:0 20:0 21:0 22:0.00516397 23:0.0604487 24:0.072527 25:0.0104468 26:0.00350432 27:0.027025 28:0.790063 29:0.015473 30:0.0153482 31:0.00833984 32:0.115584 33:0.824829 34:0.00694219 35:0.00385618 36:0.00719493 37:0.018945 38:0.00230439 39:0.0120045 
0.2289543259393164 1:0.309712 2:0.0947061 3:0.595582 4:-0.948487 5:0.0198667 6:0.169388 7:0.00922937 8:0.0611358 9:0.0617789 10:0.181319 11:0.137525 12:0.486082 13:0.0121227 14:0.0309397 15:0 16:0 17:0 18:0 19:0 20:0 21:0 22:0.170323 23:0.12604 24:0.0800753 25:0.0169062 26:0.0321094 27:0.462786 28:0.0941901 29:0.0141662 30:0.0034028 31:0.00959497 32:0.0983768 33:0.744216 34:0.011973 35:0.00777241 36:0.100603 37:0.0130736 38:0.00398301 39:0.0104069 
0.2930011446319296 1:0.0111951 2:0.906242 3:0.0825632 4:-0.957218 5:0.058338 6:0.239304 7:0.00877522 8:0.0968501 9:0.183601 10:0.124138 11:0.177895 12:0.129868 13:0.109607 14:0.110927 15:0 16:0 17:0 18:1 19:0 20:0 21:0 22:0.0478372 23:0.101812 24:0.134678 25:0.0133858 26:0.0253321 27:0.581569 28:0.0769718 29:0.0145521 30:0.00386243 31:0.0174179 32:0.104415 33:0.74503 34:0.0149677 35:0.0143063 36:0.0585921 37:0.0273355 38:0.00548999 39:0.0124461 
0.5772765758750132 1:0.00540788 2:0.977735 3:0.0168576 4:-0.958146 5:0.0514344 6:0.27124 7:0.00443288 8:0.0969255 9:0.213394 10:0.0749697 11:0.0946 12:0.442014 13:0.0148962 14:0.00733354 15:1 16:0 17:0 18:1 19:0 20:0 21:1 22:0.00758112 23:0.0709614 24:0.378129 25:0.0103427 26:0.00409836 27:0.312421 28:0.210923 29:0.00247708 30:0.00306624 31:0.00259364 32:0.0133924 33:0.0380723 34:0.00928367 35:0.904201 36:0.0103254 37:0.00512008 38:0.00272685 39:0.0142842 
0.3638504211967269 1:0.0312035 2:0.955277 3:0.013519 4:-0.965837 5:0.0235254 6:0.413517 7:0.556609 8:0.056095 9:0.109031 10:0.0473653 11:0.0125827 12:0.0187272 13:0.132339 14:0.0437257 15:0 16:0 17:0 18:0 19:0 20:0 21:0 22:0.0492902 23:0.437067 24:0.0888266 25:0.0205931 26:0.0115342 27:0.0702293 28:0.30705 29:0.0105186 30:0.00489015 31:0.0162516 32:0.0397984 33:0.0284326 34:0.00829779 35:0.00935364 36:0.0273396 37:0.843565 38:0.0173177 39:0.00964317 
0.2968501856222002 1:0.00561144 2:0.972626 3:0.0217627 4:-0.960921 5:0.413376 6:0.683766 7:0.0101363 8:0.143221 9:0.23269 10:0.127783 11:0.016028 12:0.0452278 13:0.00188009 14:0.00965778 15:0 16:0 17:0 18:1 19:0 20:0 21:1 22:0.0577347 23:0.156271 24:0.0283337 25:0.0354262 26:0.14276 27:0.0565975 28:0.110862 29:0.401705 30:0.0103096 31:0.0197947 32:0.101423 33:0.69672 34:0.027493 35:0.0109625 36:0.0547413 37:0.0311452 38:0.0234256 39:0.0342957 
0.7508899234680253 1:0.750612 2:0.162559 3:0.0868292 4:0.644971 5:0.00701906 6:0.151133 7:0.00417356 8:0.0341084 9:0.624624 10:0.235178 11:0.0516714 12:0.00775735 13:0.00333078 14:0.0321374 15:0 16:0 17:0 18:0 19:0 20:0 21:0 22:0.043561 23:0.227535 24:0.426411 25:0.0196057 26:0.0118394 27:0.172755 28:0.0842392 29:0.0100539 30:0.00399998 31:0.00979682 32:0.101709 33:0.578293 34:0.0191292 35:0.12237 36:0.0714181 37:0.0171001 38:0.0651013 39:0.015083 
0.2024765203799386 1:0.00896562 2:0.975341 3:0.0156938 4:-0.935622 5:0.0804428 6:0.364941 7:0.0108154 8:0.183523 9:0.527603 10:0.017232 11:0.0187601 12:0.01978 13:0.129703 14:0.0121415 15:1 16:0 17:0 18:0 19:0 20:0 21:1 22:0.048024 23:0.0763763 24:0.095744 25:0.402291 26:0.0838441 27:0.0343036 28:0.165529 29:0.0856291 30:0.00825853 31:0.11 32:0.11 33:0.11 34:0.11 35:0.11 36:0.11 37:0.11 38:0.11 39:0.11 
0.2882647678366388 1:0.00361225 2:0.984724 3:0.0116637 4:-0.973673 5:0.385285 6:0.729639 7:0.00613467 8:0.111254 9:0.455179 10:0.00763546 11:0.00254594 12:0.0144239 13:0.0142245 14:0.00331673 15:1 16:0 17:0 18:0 19:0 20:0 21:1 22:0.0601727 23:0.192269 24:0.0700109 25:0.493489 26:0.0555485 27:0.0220821 28:0.0653146 29:0.0371082 30:0.00400443 31:0.11 32:0.11 33:0.11 34:0.11 35:0.11 36:0.11 37:0.11 38:0.11 39:0.11 
0.5204142955157487 1:0.000814426 2:0.974466 3:0.0247194 4:-0.962941 5:0.0447511 6:0.203816 7:0.00149291 8:0.101904 9:0.205556 10:0.139293 11:0.0182356 12:0.458042 13:0.0237115 14:0.00701497 15:0 16:0 17:0 18:1 19:0 20:0 21:1 22:0.110109 23:0.0568005 24:0.601298 25:0.0182461 26:0.0471788 27:0.0979901 28:0.0512553 29:0.0100374 30:0.00708507 31:0.945139 32:0.0136086 33:0.00906509 34:0.00660969 35:0.00372549 36:0.00499423 37:0.0115686 38:0.0019651 39:0.0033244 
0.2520248799637637 1:0.0077811 2:0.938955 3:0.0532641 4:-0.959308 5:0.0179289 6:0.161783 7:0.00278413 8:0.0487107 9:0.833028 10:0.0202194 11:0.00407087 12:0.0169996 13:0.0349545 14:0.0213041 15:0 16:0 17:0 18:0 19:0 20:0 21:1 22:0.0321315 23:0.110593 24:0.614716 25:0.025828 26:0.011008 27:0.109476 28:0.0507654 29:0.0142744 30:0.0312083 31:0.0180265 32:0.740596 33:0.15503 34:0.020138 35:0.0124785 36:0.0191645 37:0.0164057 38:0.00848646 39:0.00967491 
0.1273511778210647 1:0.879814 2:0.0970284 3:0.023158 4:-0.955564 5:0.0448673 6:0.359001 7:0.0232441 8:0.0434243 9:0.267841 10:0.0470263 11:0.0418157 12:0.0902728 13:0.222872 14:0.218636 15:0 16:0 17:0 18:0 19:0 20:0 21:0 22:0.0244749 23:0.120896 24:0.647127 25:0.0406726 26:0.0116032 27:0.081188 28:0.0490407 29:0.00776093 30:0.0172374 31:0.00812095 32:0.403007 33:0.522026 34:0.0114736 35:0.00877917 36:0.0131437 37:0.00813963 38:0.00996134 39:0.0153494 
0.1953307835227993 1:0.00822183 2:0.967148 3:0.0246304 4:-0.86248 5:0.0528447 6:0.620295 7:0.00225624 8:0.0656982 9:0.707454 10:0.0174851 11:0.00558391 12:0.132195 13:0.0127616 14:0.00372162 15:0 16:0 17:0 18:0 19:0 20:0 21:1 22:0.0116067 23:0.142059 24:0.228035 25:0.488134 26:0.0595016 27:0.00772898 28:0.0419362 29:0.0172939 30:0.00370476 31:0.00826728 32:0.110095 33:0.840807 34:0.0052542 35:0.00460503 36:0.0130658 37:0.00349101 38:0.00662896 39:0.00778572 
0.1683755522822196 1:0.0080253 2:0.963871 3:0.0281041 4:-0.969072 5:0.464966 6:0.780223 7:0.00211608 8:0.0865422 9:0.408633 10:0.00562234 11:0.00377413 12:0.00954907 13:0.0156802 14:0.00311701 15:1 16:0 17:0 18:0 19:0 20:0 21:1 22:0.0128512 23:0.166748 24:0.368781 25:0.36069 26:0.0359926 27:0.00570857 28:0.0356871 29:0.00655525 30:0.00698583 31:0.0094011 32:0.120784 33:0.826771 34:0.00736106 35:0.00287249 36:0.0127851 37:0.00529175 38:0.00601503 39:0.00871818 
0.1591550634042481 1:0.00465682 2:0.974536 3:0.0208068 4:-0.954813 5:0.0380832 6:0.815699 7:0.00139432 8:0.0105971 9:0.816744 10:0.0283102 11:0.00634183 12:0.0536553 13:0.0395615 14:0.00531233 15:0 16:0 17:0 18:0 19:0 20:0 21:1 22:0.00457119 23:0.0186726 24:0.859506 25:0.0191314 26:0.00296618 27:0.0358498 28:0.0479618 29:0.00872481 30:0.00261593 31:0.00629548 32:0.131335 33:0.830413 34:0.00630996 35:0.00319531 36:0.0112792 37:0.00377924 38:0.00354176 39:0.00385156 
0.3278183915889436 1:0.0105964 2:0.972026 3:0.0173781 4:-0.969991 5:0.147294 6:0.834554 7:0.00982496 8:0.0720281 9:0.638144 10:0.0348621 11:0.03504 12:0.0524736 13:0.00572335 14:0.00461008 15:0 16:0 17:0 18:1 19:0 20:0 21:1 22:0.151637 23:0.066656 24:0.0144264 25:0.0956874 26:0.225647 27:0.00970618 28:0.0197279 29:0.411619 30:0.004893 31:0.11 32:0.11 33:0.11 34:0.11 35:0.11 36:0.11 37:0.11 38:0.11 39:0.11 
0.2317567405422329 1:0.000458644 2:0.0209735 3:0.978568 4:-0.957639 5:0.0734599 6:0.321072 7:0.0330564 8:0.120116 9:0.282702 10:0.157271 11:0.0485665 12:0.213355 13:0.0538618 14:0.0176125 15:0 16:0 17:0 18:0 19:0 20:0 21:0 22:0.0401475 23:0.0538162 24:0.735806 25:0.0214551 26:0.0122215 27:0.0568234 28:0.0443747 29:0.00901734 30:0.0263383 31:0.0122703 32:0.111455 33:0.749439 34:0.0190682 35:0.00774934 36:0.038292 37:0.0233481 38:0.0120265 39:0.0263511 
0.009048357583553161 1:0.151704 2:0.114983 3:0.733313 4:-0.966455 5:0.0110486 6:0.056055 7:0.0173955 8:0.115354 9:0.583649 10:0.155776 11:0.0325791 12:0.0184822 13:0.0599404 14:0.0057751 15:0 16:0 17:0 18:0 19:0 20:0 21:0 22:0.0424506 23:0.0846191 24:0.584514 25:0.0422193 26:0.0173297 27:0.124768 28:0.0512554 29:0.0151887 30:0.0376558 31:0.0130543 32:0.120513 33:0.748452 34:0.0213513 35:0.00780039 36:0.0362934 37:0.0223751 38:0.0107531 39:0.0194073 
0.4939628888457831 1:0.078248 2:0.0370522 3:0.8847 4:-0.941182 5:0.00726897 6:0.110204 7:0.0186702 8:0.0536349 9:0.0720939 10:0.127109 11:0.21544 12:0.0243371 13:0.0311014 14:0.450345 15:0 16:0 17:0 18:0 19:0 20:0 21:0 22:0.00434049 23:0.0258013 24:0.0192048 25:0.0043879 26:0.00188986 27:0.0336402 28:0.66673 29:0.241166 30:0.00283936 31:0.0211997 32:0.410227 33:0.239206 34:0.0633911 35:0.0206914 36:0.126085 37:0.0737557 38:0.0174652 39:0.0279785 
0.5044476893459546 1:0.0179587 2:0.964979 3:0.0170626 4:-0.936492 5:0.256582 6:0.921824 7:0.00686095 8:0.0610967 9:0.630357 10:0.00701692 11:0.00377655 12:0.00754754 13:0.0133285 14:0.0134338 15:0 16:0 17:0 18:1 19:0 20:0 21:1 22:0.425998 23:0.297081 24:0.027544 25:0.130996 26:0.021939 27:0.0373161 28:0.050441 29:0.0037525 30:0.00493315 31:0.869852 32:0.0563759 33:0.0136175 34:0.0173678 35:0.00207734 36:0.010747 37:0.014605 38:0.00408794 39:0.01127 
0.05938770347414062 1:0.0109879 2:0.941391 3:0.0476212 4:-0.907702 5:0.00272496 6:0.0665388 7:0.00890729 8:0.0191707 9:0.921946 10:0.038868 11:0.00357799 12:0.00048171 13:0.00253842 14:0.00178506 15:0 16:0 17:0 18:0 19:0 20:0 21:0 22:0.0236607 23:0.0989211 24:0.712916 25:0.0212566 26:0.0168126 27:0.0412826 28:0.0432918 29:0.0188085 30:0.02305 31:0.0032426 32:0.0351094 33:0.2311 34:0.00141556 35:0.00161363 36:0.712282 37:0.00768228 38:0.00341712 39:0.00413723 
0.4688768283802378 1:0.00184759 2:0.834838 3:0.163314 4:-0.874665 5:0.00142285 6:0.0660999 7:0.00339091 8:0.00869151 9:0.648756 10:0.323542 11:0.00640791 12:0.00421269 13:0.00245494 14:0.00112173 15:0 16:0 17:0 18:0 19:0 20:0 21:0 22:0.018636 23:0.018653 24:0.0262466 25:0.00355899 26:0.01253 27:0.00511614 28:0.0191343 29:0.889377 30:0.00674802 31:0.0049776 32:0.0444428 33:0.711796 34:0.0242049 35:0.0245894 36:0.0789504 37:0.0589146 38:0.0391247 39:0.0129998 
0.3117942454908186 1:0.00231098 2:0.00633117 3:0.991358 4:-0.889682 5:0.0996142 6:0.42217 7:0.131795 8:0.178093 9:0.0259216 10:0.0231458 11:0.0258398 12:0.0068812 13:0.477501 14:0.0312085 15:0 16:0 17:0 18:0 19:0 20:0 21:0 22:0.0339275 23:0.258099 24:0.410397 25:0.010994 26:0.00325462 27:0.155666 28:0.11321 29:0.0110335 30:0.00341832 31:0.0802487 32:0.3155 33:0.136743 34:0.135502 35:0.0277103 36:0.0947689 37:0.0779701 38:0.0340357 39:0.0975217 
0.3048849683187188 1:0.00989168 2:0.563665 3:0.426444 4:-0.9596 5:0.000809544 6:0.0409232 7:0.448748 8:0.0109236 9:0.337868 10:0.154312 11:0.00994141 12:0.00342063 13:0.0321773 14:0.00179958 15:0 16:0 17:0 18:0 19:0 20:0 21:1 22:0.0569372 23:0.124892 24:0.531275 25:0.0158537 26:0.0162975 27:0.0706177 28:0.0541641 29:0.0127908 30:0.117173 31:0.00412858 32:0.0231721 33:0.10753 34:0.0120938 35:0.0183191 36:0.76274 37:0.0184753 38:0.0500249 39:0.00351648 
0.1756167579723804 1:0.00649765 2:0.972893 3:0.0206092 4:-0.965585 5:0.0349609 6:0.14273 7:0.0116762 8:0.15559 9:0.419753 10:0.320658 11:0.0365717 12:0.00336775 13:0.00308627 14:0.0143365 15:0 16:0 17:0 18:1 19:0 20:0 21:1 22:0.041032 23:0.0726195 24:0.652524 25:0.0565902 26:0.0149286 27:0.095717 28:0.0478662 29:0.00937245 30:0.00935038 31:0.00467861 32:0.0368383 33:0.816606 34:0.0069732 35:0.0524758 36:0.0156309 37:0.00817908 38:0.0382451 39:0.0203732 
0.05909916498423776 1:0.0181989 2:0.959934 3:0.0218675 4:-0.946087 5:0.0261777 6:0.491592 7:0.00944583 8:0.0333017 9:0.834553 10:0.0718416 11:0.0126185 12:0.00405034 13:0.00315641 14:0.00485482 15:0 16:0 17:0 18:0 19:0 20:0 21:0 22:0.00898241 23:0.0360216 24:0.866241 25:0.00574152 26:0.00242969 27:0.0112049 28:0.049968 29:0.00631585 30:0.0130951 31:0.00321712 32:0.020012 33:0.896562 34:0.00601985 35:0.0157405 36:0.0107206 37:0.0179017 38:0.0202994 39:0.00952706 
0.07349328452934129 1:0.00544317 2:0.965151 3:0.0294059 4:-0.967876 5:0.0752613 6:0.808636 7:0.0180674 8:0.0615744 9:0.688059 10:0.0877052 11:0.0502203 12:0.00652857 13:0.00494174 14:0.00764173 15:0 16:0 17:0 18:0 19:0 20:0 21:0 22:0.00762181 23:0.0423532 24:0.852783 25:0.00440426 26:0.00201581 27:0.0218149 28:0.0394874 29:0.00523342 30:0.0242866 31:0.00298463 32:0.025169 33:0.894533 34:0.00692576 35:0.0134342 36:0.0120531 37:0.0162423 38:0.0154639 39:0.0131941 
0.211712473370893 1:0.000561128 2:0.975773 3:0.0236659 4:-0.946172 5:0.163683 6:0.187526 7:0.0047301 8:0.648159 9:0.04281 10:0.00670247 11:0.0719028 12:0.00720763 13:0.0519733 14:0.00283206 15:0 16:0 17:0 18:0 19:0 20:0 21:0 22:0.513453 23:0.0419653 24:0.0498213 25:0.017227 26:0.0274611 27:0.122429 28:0.0911758 29:0.01313 30:0.123337 31:0.11 32:0.11 33:0.11 34:0.11 35:0.11 36:0.11 37:0.11 38:0.11 39:0.11 
0.3405173824834886 1:0.00577107 2:0.00812856 3:0.9861 4:-0.553454 5:0.0298045 6:0.374738 7:0.0642409 8:0.0362803 9:0.45636 10:0.310091 11:0.0244958 12:0.0502178 13:0.0168259 14:0.0116843 15:0 16:0 17:0 18:0 19:0 20:0 21:1 22:0.0540075 23:0.104143 24:0.585179 25:0.0103341 26:0.00748582 27:0.0571753 28:0.0843751 29:0.00942382 30:0.087876 31:0.00704287 32:0.100992 33:0.796905 34:0.0199524 35:0.0113402 36:0.0201727 37:0.0243911 38:0.0064164 39:0.0127879 
0.186726282116029 1:0.00641432 2:0.968946 3:0.0246401 4:-0.966981 5:0.0986473 6:0.631211 7:0.260433 8:0.0721682 9:0.260693 10:0.125085 11:0.0525442 12:0.028069 13:0.0582202 14:0.0441401 15:0 16:0 17:0 18:1 19:0 20:0 21:0 22:0.0136775 23:0.0841792 24:0.691709 25:0.0277719 26:0.00626782 27:0.0948126 28:0.0326427 29:0.00598887 30:0.0429507 31:0.0039506 32:0.116718 33:0.836376 34:0.0088546 35:0.00421059 36:0.0177284 37:0.0046399 38:0.000937417 39:0.00658432 
0.09948101411173864 1:0.000820156 2:0.976494 3:0.0226861 4:-0.976545 5:0.0156545 6:0.106835 7:0.166218 8:0.110926 9:0.0437148 10:0.0996906 11:0.0894145 12:0.0452506 13:0.0426697 14:0.386461 15:0 16:0 17:0 18:0 19:0 20:0 21:0 22:0.308457 23:0.0493949 24:0.106024 25:0.038695 26:0.178537 27:0.0602979 28:0.0335891 29:0.0122597 30:0.212745 31:0.0409182 32:0.515629 33:0.0473437 34:0.0820004 35:0.0161117 36:0.0900723 37:0.0694338 38:0.0417146 39:0.0967766 
0.1689274732726412 1:0.000586848 2:0.973759 3:0.0256539 4:-0.944761 5:0.0173564 6:0.065105 7:0.0236631 8:0.106816 9:0.618889 10:0.19277 11:0.0235117 12:0.00800017 13:0.00501328 14:0.00397991 15:0 16:0 17:0 18:0 19:0 20:0 21:1 22:0.0259554 23:0.0459568 24:0.680618 25:0.00699672 26:0.00428862 27:0.169804 28:0.0481978 29:0.00547026 30:0.0127122 31:0.0025403 32:0.0272542 33:0.079317 34:0.00143931 35:0.00345204 36:0.879048 37:0.00282727 38:0.000782488 39:0.00333933 
0.09914746774375408 1:0.67353 2:0.309709 3:0.0167608 4:-0.959577 5:0.128376 6:0.692827 7:0.063851 8:0.125256 9:0.267813 10:0.0516742 11:0.164521 12:0.0148046 13:0.0917814 14:0.0919234 15:0 16:0 17:0 18:0 19:0 20:0 21:0 22:0.0449466 23:0.093466 24:0.473084 25:0.0275222 26:0.0118851 27:0.254109 28:0.0533603 29:0.00947182 30:0.0321548 31:0.0178359 32:0.0973303 33:0.703876 34:0.029118 35:0.00907892 36:0.0573036 37:0.0332293 38:0.0162167 39:0.036011 
0.2895325785342199 1:0.368951 2:0.223947 3:0.407102 4:-0.905425 5:0.167535 6:0.53575 7:0.0142427 8:0.108173 9:0.222384 10:0.102238 11:0.0348444 12:0.0869184 13:0.0257926 14:0.237873 15:0 16:0 17:0 18:0 19:0 20:0 21:0 22:0.0210003 23:0.187651 24:0.700665 25:0.00671484 26:0.00312533 27:0.0265845 28:0.0484765 29:0.00361548 30:0.00216744 31:0.0829561 32:0.698139 33:0.0580438 34:0.0323705 35:0.0189678 36:0.0355349 37:0.0345196 38:0.0286303 39:0.0108382 
0.313378334898062 1:0.000637371 2:0.984135 3:0.0152274 4:-0.973147 5:0.0057215 6:0.0618069 7:0.31577 8:0.0270482 9:0.223035 10:0.244011 11:0.0434503 12:0.0108091 13:0.118684 14:0.0114703 15:0 16:0 17:0 18:1 19:0 20:0 21:0 22:0.0677059 23:0.510756 24:0.133166 25:0.062925 26:0.0135567 27:0.0768943 28:0.0622123 29:0.00516076 30:0.0676239 31:0.0264248 32:0.498708 33:0.0444425 34:0.120915 35:0.0218106 36:0.0939976 37:0.0790917 38:0.0289131 39:0.0856969 
0.43288694297821 1:0.0404887 2:0.866037 3:0.0934739 4:-0.955693 5:0.32625 6:0.604186 7:0.0766817 8:0.202482 9:0.0258588 10:0.0380136 11:0.0380346 12:0.00781667 13:0.226718 14:0.0581446 15:0 16:0 17:0 18:0 19:0 20:0 21:0 22:0.438761 23:0.214834 24:0.224371 25:0.00702076 26:0.00558111 27:0.0497356 28:0.050598 29:0.00485168 30:0.00424712 31:0.876061 32:0.0602101 33:0.0119495 34:0.00897188 35:0.00784565 36:0.0141023 37:0.0102666 38:0.00360895 39:0.00698412 
0.5123759648280215 1:0.000196776 2:0.988009 3:0.011794 4:-0.958025 5:0.0117365 6:0.111882 7:0.0450238 8:0.0546099 9:0.569218 10:0.29826 11:0.0101454 12:0.00388858 13:0.00227521 14:0.00484299 15:1 16:0 17:0 18:1 19:0 20:0 21:1 22:0.0361385 23:0.27959 24:0.460353 25:0.0580503 26:0.014386 27:0.068263 28:0.0575962 29:0.0161039 30:0.00951898 31:0.0511405 32:0.33677 33:0.0553684 34:0.162154 35:0.0231998 36:0.116512 37:0.0994118 38:0.0420902 39:0.113353 
0.1968384118535514 1:0.00339627 2:0.946064 3:0.0505394 4:-0.95363 5:0.0488809 6:0.0426793 7:0.00409499 8:0.67419 9:0.0268961 10:0.0179464 11:0.116193 12:0.00781462 13:0.0656547 14:0.0383296 15:0 16:0 17:0 18:0 19:0 20:0 21:0 22:0.228293 23:0.104264 24:0.0900751 25:0.0209322 26:0.0108541 27:0.32341 28:0.138019 29:0.00675894 30:0.0773947 31:0.00936668 32:0.0672554 33:0.790209 34:0.0182097 35:0.00845491 36:0.0623366 37:0.0182911 38:0.00732426 39:0.018552 
0.3693543930691238 1:0.00166012 2:0.984043 3:0.0142971 4:-0.952672 5:0.592885 6:0.733706 7:0.0210787 8:0.20428 9:0.0386928 10:0.018873 11:0.0911167 12:0.0208466 13:0.00384313 14:0.00838457 15:1 16:0 17:0 18:0 19:0 20:0 21:1 22:0.16098 23:0.0436959 24:0.307889 25:0.0315918 26:0.0229979 27:0.0261259 28:0.163235 29:0.014561 30:0.228924 31:0.0083544 32:0.264288 33:0.701722 34:0.00884837 35:0.00300712 36:0.00552065 37:0.00272872 38:0.00238539 39:0.00314543 
0.1021486646738833 1:0.0047076 2:0.25821 3:0.737083 4:-0.948793 5:0.173151 6:0.260646 7:0.0178088 8:0.429055 9:0.115416 10:0.149855 11:0.0205989 12:0.00832835 13:0.0119612 14:0.0738258 15:0 16:0 17:0 18:0 19:0 20:0 21:0 22:0.107421 23:0.148927 24:0.0847043 25:0.0144661 26:0.00775845 27:0.368326 28:0.219337 29:0.00429137 30:0.0447691 31:0.11 32:0.11 33:0.11 34:0.11 35:0.11 36:0.11 37:0.11 38:0.11 39:0.11 
0.1497970831667029 1:0.0030715 2:0.978104 3:0.018825 4:-0.968099 5:0.0873528 6:0.524449 7:0.0168756 8:0.0584511 9:0.676011 10:0.119385 11:0.0320603 12:0.00609512 13:0.0013666 14:0.00240291 15:0 16:0 17:0 18:0 19:0 20:0 21:0 22:0.508117 23:0.018127 24:0.043422 25:0.00773174 26:0.0139782 27:0.0117683 28:0.0675856 29:0.0360617 30:0.293208 31:0.11 32:0.11 33:0.11 34:0.11 35:0.11 36:0.11 37:0.11 38:0.11 39:0.11 
0.03116639751000562 1:0.000671868 2:0.967709 3:0.0316189 4:-0.957301 5:0.00727402 6:0.0544126 7:0.306935 8:0.0858194 9:0.266211 10:0.249062 11:0.0607158 12:0.00430097 13:0.0115635 14:0.00811808 15:0 16:0 17:0 18:0 19:0 20:0 21:0 22:0.0149738 23:0.102934 24:0.673901 25:0.0227687 26:0.0108164 27:0.103502 28:0.0485058 29:0.0119237 30:0.0106751 31:0.00598232 32:0.656738 33:0.145353 34:0.0104891 35:0.00685475 36:0.170999 37:0.00174858 38:0.00105114 39:0.000782878 
0.01384271045754563 1:0.00181055 2:0.816132 3:0.182057 4:-0.956463 5:0.0194286 6:0.113805 7:0.00634618 8:0.117639 9:0.125438 10:0.0501208 11:0.0931873 12:0.576895 13:0.00380326 14:0.00714234 15:0 16:0 17:0 18:0 19:0 20:0 21:1 22:0.00073732 23:0.00817143 24:0.627518 25:0.00977722 26:0.000716798 27:0.317761 28:0.00817007 29:0.00164852 30:0.0254994 31:0.0173472 32:0.0988042 33:0.755708 34:0.0235798 35:0.00792172 36:0.0242609 37:0.0381063 38:0.0113581 39:0.0229137 
0.2832470576955721 1:0.00102646 2:0.984481 3:0.0144923 4:-0.948741 5:0.0519846 6:0.375472 7:0.0151411 8:0.0504795 9:0.225125 10:0.118346 11:0.158167 12:0.344185 13:0.0261296 14:0.0104427 15:0 16:0 17:0 18:1 19:0 20:0 21:1 22:0.0797038 23:0.0266891 24:0.044779 25:0.00979928 26:0.00406281 27:0.737583 28:0.0304565 29:0.0301907 30:0.0367355 31:0.11 32:0.11 33:0.11 34:0.11 35:0.11 36:0.11 37:0.11 38:0.11 39:0.11 
0.05311090451598199 1:0.00152025 2:0.978095 3:0.0203843 4:-0.953352 5:0.0235637 6:0.357902 7:0.0172284 8:0.0578119 9:0.666371 10:0.19357 11:0.0275616 12:0.00354989 13:0.00179512 14:0.00854834 15:0 16:0 17:0 18:0 19:0 20:0 21:0 22:0.0584209 23:0.142424 24:0.0794165 25:0.147965 26:0.0129526 27:0.16866 28:0.048904 29:0.0103528 30:0.330905 31:0.000516606 32:0.0410655 33:0.0896467 34:0.000941036 35:0.00225074 36:0.865014 37:0.000234862 38:0.000128664 39:0.000202056 
0.2883702789686733 1:0.000724646 2:0.991385 3:0.00789022 4:-0.958468 5:0.00774443 6:0.0517094 7:0.0134338 8:0.158321 9:0.62487 10:0.175482 11:0.0138546 12:0.00355095 13:0.00100429 14:0.00173941 15:0 16:0 17:0 18:0 19:0 20:0 21:0 22:0.020099 23:0.585184 24:0.189129 25:0.0111719 26:0.00982971 27:0.116236 28:0.0403619 29:0.00743026 30:0.0205585 31:0.0125059 32:0.755095 33:0.156336 34:0.0113297 35:0.0145966 36:0.0231266 37:0.0191665 38:0.00192142 39:0.00592213 
0.2780078432409708 1:0.00699958 2:0.968036 3:0.0249646 4:-0.971694 5:0.00678576 6:0.0723346 7:0.480081 8:0.0379746 9:0.0501779 10:0.117089 11:0.0839013 12:0.113227 13:0.103931 14:0.00683216 15:0 16:0 17:0 18:0 19:0 20:0 21:0 22:0.00699663 23:0.0212228 24:0.59996 25:0.0341704 26:0.00873177 27:0.155067 28:0.0102685 29:0.00610167 30:0.157482 31:0.00866862 32:0.0141837 33:0.00928077 34:0.196494 35:0.0254101 36:0.0151056 37:0.691629 38:0.0139722 39:0.0252558 
0.1674276160431021 1:0.000762254 2:0.977916 3:0.0213221 4:-0.959383 5:0.00928356 6:0.115391 7:0.0122304 8:0.0467859 9:0.352591 10:0.2773 11:0.21422 12:0.0611041 13:0.0214543 14:0.00503109 15:0 16:0 17:1 18:0 19:0 20:0 21:1 22:0.0199275 23:0.0433938 24:0.591011 25:0.0107695 26:0.0057667 27:0.262574 28:0.0236764 29:0.0109221 30:0.0319598 31:0.00957742 32:0.0521574 33:0.772613 34:0.00975883 35:0.00435207 36:0.109946 37:0.0138926 38:0.00855016 39:0.0191531 
0.3802764809141347 1:0.00606275 2:0.975086 3:0.0188512 4:-0.92668 5:0.00391231 6:0.216012 7:0.0330782 8:0.00618527 9:0.394765 10:0.303061 11:0.0398865 12:0.0708587 13:0.0526397 14:0.0956138 15:0 16:0 17:0 18:0 19:0 20:0 21:0 22:0.0039969 23:0.105878 24:0.732612 25:0.00434184 26:0.00273831 27:0.111094 28:0.0344979 29:0.00179873 30:0.00304352 31:0.00413603 32:0.0186478 33:0.0194543 34:0.00630076 35:0.0658281 36:0.0577862 37:0.0316603 38:0.767312 39:0.0288745 
0.2495493790164824 1:0.000486867 2:0.986363 3:0.01315 4:-0.953647 5:0.723552 6:0.966359 7:0.00152182 8:0.0253067 9:0.195619 10:0.00990542 11:0.00373912 12:0.0306271 13:0.00549836 14:0.00423071 15:0 16:0 17:0 18:0 19:0 20:0 21:0 22:0.027504 23:0.183927 24:0.482758 25:0.0135011 26:0.0138916 27:0.00905633 28:0.1452 29:0.0326075 30:0.091554 31:0.00362673 32:0.0263963 33:0.924357 34:0.00740388 35:0.00215994 36:0.00884064 37:0.0102468 38:0.0026389 39:0.0143295 
0.2906686660226199 1:0.000609478 2:0.976313 3:0.0230774 4:-0.94757 5:0.063639 6:0.387051 7:0.00928803 8:0.0668036 9:0.0690979 10:0.0418916 11:0.0221211 12:0.0452067 13:0.0164113 14:0.665541 15:0 16:0 17:0 18:0 19:0 20:0 21:0 22:0.0571441 23:0.119997 24:0.603446 25:0.00755953 26:0.00868363 27:0.0456669 28:0.117044 29:0.0189449 30:0.0215141 31:0.0034605 32:0.0281 33:0.93157 34:0.00704499 35:0.00280541 36:0.00792461 37:0.00696957 38:0.00289874 39:0.00922623 
0.3908366392210086 1:0.00771388 2:0.618414 3:0.373873 4:0.624275 5:0.0343442 6:0.0969849 7:0.020888 8:0.296135 9:0.171098 10:0.192421 11:0.0776239 12:0.0998877 13:0.0961923 14:0.0114103 15:0 16:0 17:0 18:0 19:0 20:0 21:0 22:0.0262523 23:0.0554348 24:0.399396 25:0.0128706 26:0.00955758 27:0.0713701 28:0.362156 29:0.00769712 30:0.0552655 31:0.00362673 32:0.0263963 33:0.924357 34:0.00740388 35:0.00215994 36:0.00884064 37:0.0102468 38:0.0026389 39:0.0143295 
0.1401899877303222 1:0.000424782 2:0.976624 3:0.0229511 4:-0.944846 5:0.00263953 6:0.1557 7:0.0523053 8:0.00479999 9:0.239123 10:0.230937 11:0.0121798 12:0.383589 13:0.0424828 14:0.0319447 15:0 16:0 17:0 18:0 19:0 20:0 21:1 22:0.00829457 23:0.0340515 24:0.247565 25:0.00791096 26:0.00495341 27:0.558015 28:0.0992008 29:0.00746527 30:0.0325434 31:0.0108379 32:0.0423473 33:0.194101 34:0.0172477 35:0.0767723 36:0.10753 37:0.0369627 38:0.490718 39:0.0234828 
0.2689734983858017 1:0.000462499 2:0.983531 3:0.0160063 4:-0.952938 5:0.0216505 6:0.051009 7:0.133156 8:0.29756 9:0.0649597 10:0.189851 11:0.244199 12:0.0104033 13:0.0283904 14:0.00982981 15:0 16:0 17:0 18:0 19:0 20:0 21:0 22:0.0440165 23:0.400293 24:0.213421 25:0.0398598 26:0.0178799 27:0.0730123 28:0.190948 29:0.0159476 30:0.004622 31:0.0135562 32:0.025243 33:0.014778 34:0.00391886 35:0.00643316 36:0.0231949 37:0.893947 38:0.0124121 39:0.006517 
0.3686275788237637 1:0.00240425 2:0.00921357 3:0.988382 4:-0.965854 5:0.0155789 6:0.0555219 7:0.0824502 8:0.267128 9:0.0752131 10:0.353983 11:0.14108 12:0.0310209 13:0.00764304 14:0.0259031 15:0 16:0 17:0 18:0 19:0 20:0 21:0 22:0.0240046 23:0.187073 24:0.387349 25:0.0254047 26:0.0113092 27:0.282356 28:0.0466876 29:0.00970594 30:0.0261096 31:0.000482545 32:0.0365143 33:0.268681 34:0.00102663 35:0.000688521 36:0.683477 37:0.00522273 38:0.00172993 39:0.00217788 
0.08937808616839944 1:0.00121159 2:0.970311 3:0.0284775 4:-0.963647 5:0.0021912 6:0.0635887 7:0.257472 8:0.00897594 9:0.0917721 10:0.400191 11:0.0229077 12:0.193694 13:0.0167297 14:0.00606623 15:0 16:0 17:0 18:0 19:0 20:0 21:0 22:0.0612981 23:0.0768043 24:0.102508 25:0.069652 26:0.0360643 27:0.0267156 28:0.588825 29:0.0128283 30:0.0253042 31:0.11 32:0.11 33:0.11 34:0.11 35:0.11 36:0.11 37:0.11 38:0.11 39:0.11 
0.1889520460539932 1:0.00112164 2:0.975958 3:0.0229205 4:-0.968067 5:0.0149601 6:0.0274606 7:0.0270715 8:0.185812 9:0.247944 10:0.457882 11:0.0339809 12:0.00834774 13:0.0131558 14:0.0108458 15:0 16:0 17:0 18:0 19:0 20:0 21:0 22:0.0100336 23:0.0357824 24:0.147128 25:0.0111534 26:0.00468968 27:0.740725 28:0.0112547 29:0.0101186 30:0.0291142 31:0.00234667 32:0.0312401 33:0.114275 34:0.00239834 35:0.00194786 36:0.827881 37:0.0101422 38:0.00390298 39:0.0058653 
0.2896126432199401 1:0.000808201 2:0.964537 3:0.0346551 4:-0.952285 5:0.00527489 6:0.0441968 7:0.0417238 8:0.0744603 9:0.601295 10:0.232598 11:0.0304522 12:0.00403542 13:0.0052042 14:0.00495613 15:0 16:0 17:1 18:0 19:0 20:0 21:1 22:0.0609674 23:0.0968212 24:0.641558 25:0.0246458 26:0.0132384 27:0.0805931 28:0.056685 29:0.0188617 30:0.00662952 31:0.00268887 32:0.0527519 33:0.915342 34:0.00561314 35:0.00220086 36:0.0137993 37:0.00160878 38:0.00197732 39:0.00401823 
0.486885579505254 1:0.00139462 2:0.967586 3:0.0310197 4:-0.967665 5:0.12061 6:0.411056 7:0.0931565 8:0.223762 9:0.0680711 10:0.131811 11:0.0708139 12:0.226911 13:0.0286151 14:0.0362491 15:0 16:0 17:0 18:0 19:0 20:0 21:1 22:0.806239 23:0.0653806 24:0.00956089 25:0.00471108 26:0.00498692 27:0.0182481 28:0.0624605 29:0.0222832 30:0.00612988 31:0.0135424 32:0.744236 33:0.101829 34:0.0408438 35:0.00637242 36:0.042445 37:0.0243573 38:0.00980733 39:0.0165669 
0.10736521059224 1:0.00103176 2:0.97292 3:0.0260483 4:-0.956682 5:0.371857 6:0.66596 7:0.00828702 8:0.204722 9:0.114901 10:0.0769242 11:0.190932 12:0.0248704 13:0.00182327 14:0.0056826 15:0 16:0 17:0 18:1 19:0 20:0 21:1 22:0.0208841 23:0.119407 24:0.730117 25:0.0170983 26:0.00723884 27:0.0343071 28:0.0270157 29:0.00758221 30:0.0363493 31:0.0120451 32:0.107221 33:0.779485 34:0.0145887 35:0.0121279 36:0.0204296 37:0.0265399 38:0.00297801 39:0.0245842 
0.2741940075629663 1:0.00970086 2:0.891834 3:0.0984648 4:-0.949434 5:0.00721576 6:0.0425971 7:0.00930449 8:0.1334 9:0.635028 10:0.166805 11:0.0406313 12:0.00316355 13:0.00240376 14:0.00204727 15:0 16:0 17:0 18:0 19:0 20:0 21:0 22:0.0187005 23:0.0555063 24:0.0790049 25:0.0102585 26:0.00438744 27:0.778795 28:0.024334 29:0.00550767 30:0.0235055 31:0.0007221 32:0.0273217 33:0.0795688 34:0.00134629 35:0.0027221 36:0.88109 37:0.00270992 38:0.00095599 39:0.00356317 
0.5135178109058963 1:0.00172963 2:0.97191 3:0.0263601 4:-0.970946 5:0.0305004 6:0.0787388 7:0.124665 8:0.408517 9:0.172102 10:0.153861 11:0.0224025 12:0.00506688 13:0.0749349 14:0.00794953 15:0 16:0 17:0 18:0 19:0 20:0 21:1 22:0.00517053 23:0.0456916 24:0.877514 25:0.00420353 26:0.00140261 27:0.0120746 28:0.0491811 29:0.000571916 30:0.00418963 31:0.0162661 32:0.0287601 33:0.0248095 34:0.00969666 35:0.00695675 36:0.0232021 37:0.85039 38:0.0165308 39:0.0233884 
0.5653435483617075 1:0.0020038 2:0.0169717 3:0.981024 4:-0.950533 5:0.476243 6:0.829594 7:0.0253758 8:0.107637 9:0.0430471 10:0.146899 11:0.0922619 12:0.00615068 13:0.0954892 14:0.00689651 15:0 16:0 17:0 18:0 19:0 20:0 21:1 22:0.0966598 23:0.0262009 24:0.097135 25:0.00902087 26:0.00236725 27:0.688287 28:0.025664 29:0.0298429 30:0.0248225 31:0.11 32:0.11 33:0.11 34:0.11 35:0.11 36:0.11 37:0.11 38:0.11 39:0.11 
0.4232685755322431 1:0.00100522 2:0.960652 3:0.0383425 4:-0.963663 5:0.0726702 6:0.838875 7:0.00377048 8:0.0311389 9:0.75988 10:0.0255163 11:0.0395316 12:0.0594812 13:0.00476623 14:0.00324453 15:0 16:0 17:0 18:1 19:0 20:0 21:0 22:0.0189984 23:0.0484166 24:0.255494 25:0.036389 26:0.0110447 27:0.228748 28:0.0487166 29:0.151777 30:0.200416 31:0.341399 32:0.387851 33:0.199969 34:0.0194286 35:0.00433363 36:0.0124967 37:0.0153968 38:0.00617156 39:0.0129539 
0.4419724519892371 1:0.000634563 2:0.97598 3:0.0233856 4:-0.944396 5:0.0125466 6:0.362607 7:0.0262054 8:0.0264738 9:0.693371 10:0.207455 11:0.015693 12:0.0106239 13:0.00238775 14:0.00524362 15:1 16:0 17:0 18:0 19:0 20:0 21:1 22:0.110212 23:0.330433 24:0.340624 25:0.040065 26:0.0154193 27:0.055622 28:0.0906455 29:0.0110692 30:0.00590941 31:0.00252537 32:0.0491198 33:0.136077 34:0.00333546 35:0.00334276 36:0.757969 37:0.00703864 38:0.00548609 39:0.0351051 
0.5682520528828479 1:0.00504512 2:0.0342569 3:0.960698 4:-0.967668 5:0.0899346 6:0.25822 7:0.00602448 8:0.290331 9:0.277842 10:0.101278 11:0.029844 12:0.0942718 13:0.0237351 14:0.0867391 15:0 16:0 17:0 18:0 19:0 20:0 21:1 22:0.366102 23:0.0326748 24:0.0359234 25:0.00621025 26:0.00276366 27:0.468174 28:0.0799831 29:0.00265063 30:0.00551793 31:0.942456 32:0.012303 33:0.0106031 34:0.00382926 35:0.00362675 36:0.00461927 37:0.00261814 38:0.00205298 39:0.0178918 
0.0792145786176317 1:0.000736739 2:0.985857 3:0.0134067 4:-0.569755 5:0.167813 6:0.716766 7:0.0438865 8:0.0524045 9:0.510312 10:0.0794447 11:0.0392173 12:0.0298019 13:0.0671009 14:0.0100185 15:0 16:0 17:0 18:0 19:0 20:0 21:0 22:0.0779399 23:0.110748 24:0.0680047 25:0.432881 26:0.0176294 27:0.0443704 28:0.0290328 29:0.0119235 30:0.20747 31:0.11 32:0.11 33:0.11 34:0.11 35:0.11 36:0.11 37:0.11 38:0.11 39:0.11 
0.05357768704884795 1:0.00348528 2:0.985093 3:0.011422 4:-0.961809 5:0.00813915 6:0.0528238 7:0.00496184 8:0.116137 9:0.729788 10:0.113344 11:0.0240394 12:0.000484852 13:0.00111981 14:0.00198584 15:0 16:0 17:0 18:0 19:0 20:0 21:1 22:0.00403963 23:0.0528567 24:0.813533 25:0.00386526 26:0.00202445 27:0.0772963 28:0.0295466 29:0.00587869 30:0.0109594 31:0.00327474 32:0.0883956 33:0.81195 34:0.00638152 35:0.00862436 36:0.0629348 37:0.0113679 38:0.00106756 39:0.00600331 
0.473883111743052 1:0.000587171 2:0.982318 3:0.0170947 4:-0.963927 5:0.0919858 6:0.325321 7:0.0579665 8:0.113011 9:0.0592079 10:0.106384 11:0.070704 12:0.403191 13:0.0731583 14:0.0243916 15:0 16:0 17:0 18:0 19:0 20:0 21:1 22:0.0132736 23:0.189557 24:0.319525 25:0.0100675 26:0.00932683 27:0.146302 28:0.193075 29:0.0152956 30:0.103577 31:0.00284281 32:0.0163602 33:0.025302 34:0.00893497 35:0.91741 36:0.0102917 37:0.00811803 38:0.00148685 39:0.00925308 
0.6114307528776446 1:0.0125474 2:0.955423 3:0.0320297 4:0.862479 5:0.00771486 6:0.199508 7:0.0818822 8:0.0266937 9:0.0615619 10:0.0887587 11:0.1463 12:0.543221 13:0.0231593 14:0.0207082 15:0 16:0 17:0 18:0 19:0 20:0 21:1 22:0.0325189 23:0.0930754 24:0.0587962 25:0.0116246 26:0.0129216 27:0.0979423 28:0.108167 29:0.0106239 30:0.57433 31:0.0533421 32:0.312062 33:0.111945 34:0.132036 35:0.0250762 36:0.118335 37:0.0838556 38:0.045569 39:0.117779 
0.2379303625834323 1:0.00621689 2:0.0507649 3:0.943018 4:-0.973485 5:0.0304411 6:0.0557426 7:0.0298032 8:0.239489 9:0.0405264 10:0.1158 11:0.122971 12:0.134947 13:0.267221 14:0.0188015 15:0 16:0 17:0 18:0 19:0 20:0 21:0 22:0.114332 23:0.0554792 24:0.0329856 25:0.209999 26:0.0156373 27:0.174015 28:0.0381852 29:0.028186 30:0.331181 31:0.00944116 32:0.0647004 33:0.749749 34:0.00961694 35:0.00448566 36:0.11796 37:0.0181588 38:0.00943647 39:0.0164514 
0.1844487818369656 1:0.0139271 2:0.443987 3:0.542086 4:-0.969497 5:0.0229761 6:0.434385 7:0.00120327 8:0.0367513 9:0.733784 10:0.0694716 11:0.00607514 12:0.0464953 13:0.0787293 14:0.00451403 15:0 16:0 17:0 18:0 19:0 20:0 21:0 22:0.256294 23:0.0314201 24:0.0682632 25:0.0112533 26:0.00606184 27:0.452237 28:0.146084 29:0.0094293 30:0.018957 31:0.00932602 32:0.0693124 33:0.770979 34:0.00960132 35:0.00521811 36:0.105462 37:0.015789 38:0.00542543 39:0.00888603 
0.502461326629246 1:0.00258843 2:0.952427 3:0.0449847 4:-0.955755 5:0.113196 6:0.906645 7:0.00266897 8:0.032874 9:0.784241 10:0.0259211 11:0.0243031 12:0.00579811 13:0.00926572 14:0.00173258 15:0 16:0 17:1 18:0 19:0 20:0 21:0 22:0.00909254 23:0.0612741 24:0.748788 25:0.0628955 26:0.00960549 27:0.0331723 28:0.0288693 29:0.00665657 30:0.0396464 31:0.0084155 32:0.113178 33:0.820496 34:0.00754251 35:0.00495684 36:0.0157114 37:0.00787838 38:0.0071469 39:0.0146748 
0.458509825169418 1:0.0292736 2:0.851429 3:0.119297 4:-0.935299 5:0.204363 6:0.964257 7:0.00609115 8:0.0320744 9:0.604178 10:0.0191476 11:0.0315354 12:0.0883964 13:0.0108269 14:0.00338675 15:0 16:0 17:1 18:0 19:0 20:0 21:1 22:0.000424043 23:0.0011427 24:0.975367 25:0.00208595 26:0.000594382 27:0.00935971 28:0.00773087 29:0.000623716 30:0.00267162 31:0.00826728 32:0.110095 33:0.840807 34:0.0052542 35:0.00460503 36:0.0130658 37:0.00349101 38:0.00662896 39:0.00778572 
0.3268552392272022 1:0.00037779 2:0.984671 3:0.0149516 4:-0.961801 5:0.0236878 6:0.265764 7:0.0139617 8:0.0593335 9:0.801534 10:0.0709739 11:0.00729253 12:0.0149178 13:0.00423171 14:0.00406725 15:0 16:0 17:0 18:1 19:0 20:0 21:0 22:0.0143027 23:0.1532 24:0.778909 25:0.0062181 26:0.0032934 27:0.0175291 28:0.0194379 29:0.00628377 30:0.000825666 31:0.00629548 32:0.131335 33:0.830413 34:0.00630996 35:0.00319531 36:0.0112792 37:0.00377924 38:0.00354176 39:0.00385156 
0.3072148685541134 1:0.0125115 2:0.968082 3:0.0194069 4:-0.954656 5:0.777335 6:0.924476 7:0.00328482 8:0.0563498 9:0.0965847 10:0.0375184 11:0.00541924 12:0.0144485 13:0.00647433 14:0.00258515 15:0 16:0 17:0 18:0 19:0 20:0 21:1 22:0.0599742 23:0.0183918 24:0.353114 25:0.0161654 26:0.00245027 27:0.440731 28:0.0610381 29:0.0258782 30:0.0222571 31:0.11 32:0.11 33:0.11 34:0.11 35:0.11 36:0.11 37:0.11 38:0.11 39:0.11 
0.3553482358426097 1:0.00902628 2:0.401162 3:0.589812 4:-0.956858 5:0.0259891 6:0.431095 7:0.00362253 8:0.0343855 9:0.890477 10:0.016634 11:0.00456354 12:0.0190276 13:0.00397459 14:0.00132605 15:0 16:0 17:0 18:0 19:0 20:0 21:1 22:0.000369379 23:0.00568018 24:0.978611 25:0.00240425 26:0.00122506 27:0.00728006 28:0.00314254 29:0.000147747 30:0.00113966 31:0.0084155 32:0.113178 33:0.820496 34:0.00754251 35:0.00495684 36:0.0157114 37:0.00787838 38:0.0071469 39:0.0146748 
0.2194618518368595 1:0.00502549 2:0.117967 3:0.877007 4:-0.952864 5:0.0757285 6:0.375285 7:0.0575297 8:0.136187 9:0.513914 10:0.0493477 11:0.020989 12:0.0348249 13:0.0703293 14:0.0411503 15:0 16:0 17:0 18:0 19:0 20:0 21:1 22:0.0146757 23:0.00735616 24:0.743242 25:0.00483554 26:0.00219128 27:0.128347 28:0.0773252 29:0.00164508 30:0.0203824 31:0.11 32:0.11 33:0.11 34:0.11 35:0.11 36:0.11 37:0.11 38:0.11 39:0.11 
0.1442171816556735 1:0.00900739 2:0.910297 3:0.0806952 4:-0.954703 5:0.0821926 6:0.933798 7:0.00560036 8:0.0277347 9:0.660883 10:0.0350505 11:0.00697231 12:0.0214842 13:0.126151 14:0.0339315 15:0 16:0 17:0 18:0 19:0 20:0 21:1 22:0.00988369 23:0.0244426 24:0.294794 25:0.015938 26:0.00507417 27:0.379846 28:0.226531 29:0.0053578 30:0.0381331 31:0.11 32:0.11 33:0.11 34:0.11 35:0.11 36:0.11 37:0.11 38:0.11 39:0.11 
0.3031011484383657 1:0.820068 2:0.142688 3:0.037244 4:-0.862153 5:0.195059 6:0.624903 7:0.00329524 8:0.0645622 9:0.642322 10:0.00984969 11:0.00816069 12:0.0241164 13:0.0364848 14:0.0161503 15:0 16:0 17:0 18:0 19:0 20:0 21:1 22:0.0204562 23:0.0109821 24:0.449979 25:0.00558286 26:0.00152626 27:0.26172 28:0.237842 29:0.00367194 30:0.00824045 31:0.0137938 32:0.116647 33:0.73871 34:0.0225452 35:0.0130733 36:0.0539139 37:0.0146649 38:0.00986587 39:0.0167852 
0.2372764944437463 1:0.000630934 2:0.971797 3:0.0275724 4:-0.948538 5:0.055719 6:0.202309 7:0.258119 8:0.107449 9:0.029805 10:0.291134 11:0.086987 12:0.0637009 13:0.0908169 14:0.0162679 15:0 16:0 17:0 18:0 19:0 20:0 21:1 22:0.0709344 23:0.119717 24:0.0257942 25:0.0139505 26:0.00944456 27:0.0457048 28:0.0726426 29:0.606341 30:0.0354714 31:0.11 32:0.11 33:0.11 34:0.11 35:0.11 36:0.11 37:0.11 38:0.11 39:0.11 
0.3669525458220843 1:0.0073582 2:0.9784 3:0.0142415 4:-0.95434 5:0.367395 6:0.779415 7:0.00210835 8:0.109166 9:0.489729 10:0.0185634 11:0.00365202 12:0.00461661 13:0.00446966 14:0.000299332 15:0 16:0 17:0 18:1 19:0 20:0 21:1 22:0.00210381 23:0.00575721 24:0.918849 25:0.00196124 26:0.000627091 27:0.0349216 28:0.0281594 29:0.000583063 30:0.00703796 31:0.00107738 32:0.0347314 33:0.940932 34:0.00687173 35:0.00093406 36:0.0116319 37:0.000395362 38:0.000720409 39:0.00270542 
0.550311271380704 1:0.00119077 2:0.932145 3:0.0666641 4:-0.956574 5:0.00782298 6:0.0572924 7:0.151035 8:0.127106 9:0.16664 10:0.313543 11:0.0669665 12:0.0242446 13:0.131228 14:0.0114146 15:0 16:0 17:1 18:1 19:0 20:0 21:0 22:0.0368878 23:0.139752 24:0.57486 25:0.015602 26:0.0103293 27:0.162684 28:0.0469538 29:0.00564245 30:0.00728899 31:0.0122703 32:0.111455 33:0.749439 34:0.0190682 35:0.00774934 36:0.038292 37:0.0233481 38:0.0120265 39:0.0263511 
0.4571055026132304 1:0.000355289 2:0.988316 3:0.011329 4:-0.816421 5:0.964756 6:0.992757 7:0.0103693 8:0.00804887 9:0.00501987 10:0.00399985 11:0.00146921 12:0.00129243 13:0.00376523 14:0.0012789 15:0 16:0 17:0 18:0 19:0 20:0 21:1 22:0.0262909 23:0.157311 24:0.760888 25:0.00569892 26:0.00379507 27:0.0165838 28:0.0260912 29:0.00176139 30:0.00158023 31:0.0201201 32:0.100582 33:0.719992 34:0.0308693 35:0.0134078 36:0.0512529 37:0.0228465 38:0.0177147 39:0.0232142 
0.6401083624910824 1:0.250185 2:0.667245 3:0.0825705 4:0.653623 5:0.0965552 6:0.483084 7:0.0300067 8:0.0874343 9:0.17106 10:0.0977109 11:0.0929466 12:0.398958 13:0.0112649 14:0.0140631 15:0 16:0 17:0 18:0 19:0 20:0 21:1 22:0.0337941 23:0.148961 24:0.0867099 25:0.015955 26:0.0100511 27:0.104528 28:0.417677 29:0.0296715 30:0.152653 31:0.688357 32:0.0894537 33:0.0373347 34:0.0113353 35:0.012931 36:0.0109284 37:0.122483 38:0.00734381 39:0.019833 
0.2926214926860994 1:0.00315306 2:0.175142 3:0.821705 4:-0.972192 5:0.0564366 6:0.445327 7:0.07558 8:0.0892503 9:0.112531 10:0.0967862 11:0.0583022 12:0.42185 13:0.0340021 14:0.0552622 15:0 16:0 17:0 18:0 19:0 20:0 21:1 22:0.0217944 23:0.200897 24:0.592409 25:0.0249226 26:0.013242 27:0.0563097 28:0.0452006 29:0.0182484 30:0.0269764 31:0.035392 32:0.495277 33:0.330629 34:0.017682 35:0.0100385 36:0.0686946 37:0.0259842 38:0.00290293 39:0.0133995 
0.1227586635225739 1:0.000537254 2:0.979437 3:0.0200254 4:-0.960775 5:0.0263033 6:0.146632 7:0.0020595 8:0.065342 9:0.838772 10:0.052263 11:0.00758329 12:0.00546059 13:0.000669475 14:0.00154673 15:0 16:0 17:0 18:0 19:0 20:0 21:1 22:0.0128173 23:0.0185187 24:0.323098 25:0.132619 26:0.00958237 27:0.269135 28:0.0246204 29:0.0101138 30:0.199496 31:0.0316847 32:0.65572 33:0.158379 34:0.019409 35:0.0464969 36:0.0427611 37:0.0274435 38:0.00425238 39:0.0138533 
0.1082938731920763 1:0.000908439 2:0.984972 3:0.0141195 4:-0.955856 5:0.0139288 6:0.126816 7:0.0547766 8:0.083453 9:0.430919 10:0.367136 11:0.0263604 12:0.00621681 13:0.00528578 14:0.0119239 15:0 16:0 17:0 18:1 19:0 20:0 21:0 22:0.0737621 23:0.509178 24:0.148718 25:0.0686912 26:0.0175252 27:0.134778 28:0.0335419 29:0.00639306 30:0.00741358 31:0.00508529 32:0.609292 33:0.142232 34:0.0207016 35:0.00730609 36:0.174564 37:0.0120726 38:0.00799951 39:0.0207468 
0.2468151106689518 1:0.00473339 2:0.966486 3:0.0287805 4:-0.964593 5:0.00917231 6:0.134594 7:0.0788581 8:0.0338492 9:0.0755615 10:0.171018 11:0.552966 12:0.0161771 13:0.0577136 14:0.00468427 15:0 16:0 17:0 18:0 19:0 20:0 21:1 22:0.0398241 23:0.0640268 24:0.285129 25:0.0118224 26:0.0119121 27:0.139859 28:0.145309 29:0.0433406 30:0.258777 31:0.013373 32:0.0862986 33:0.807488 34:0.00975227 35:0.0324543 36:0.0278867 37:0.00349907 38:0.00379633 39:0.0154516 
0.59241926413012 1:0.000799688 2:0.91773 3:0.0814699 4:-0.951894 5:0.874444 6:0.933995 7:0.00263555 8:0.055143 9:0.058706 10:0.00248616 11:0.00304044 12:0.000937517 13:0.00158613 14:0.00102129 15:1 16:0 17:0 18:1 19:0 20:0 21:1 22:0.0906597 23:0.0426023 24:0.0899901 25:0.0123652 26:0.00262476 27:0.638729 28:0.024162 29:0.051174 30:0.0476928 31:0.11 32:0.11 33:0.11 34:0.11 35:0.11 36:0.11 37:0.11 38:0.11 39:0.11 
0.4305638382511117 1:0.00362996 2:0.00468038 3:0.99169 4:-0.858263 5:0.00766582 6:0.101343 7:0.0712006 8:0.0508756 9:0.115857 10:0.331921 11:0.179089 12:0.0557821 13:0.034251 14:0.153357 15:0 16:0 17:0 18:0 19:0 20:0 21:1 22:0.0278897 23:0.052339 24:0.124081 25:0.0320463 26:0.0122521 27:0.0340863 28:0.453358 29:0.0503845 30:0.213563 31:0.0178026 32:0.0329784 33:0.400174 34:0.0340106 35:0.10603 36:0.142015 37:0.115401 38:0.129963 39:0.021625 
-0.5836477511552111 1:0.973288 2:0.0179336 3:0.00877797 4:0.971585 5:0.00755495 6:0.0590565 7:0.0102882 8:0.0434137 9:0.00903565 10:0.0134605 11:0.771686 12:0.129362 13:0.00459191 14:0.0106062 15:0 16:0 17:0 18:0 19:0 20:0 21:0 22:0.0110823 23:0.0642091 24:0.0945713 25:0.0178549 26:0.0345197 27:0.0122386 28:0.0324296 29:0.485577 30:0.247518 31:0.11 32:0.11 33:0.11 34:0.11 35:0.11 36:0.11 37:0.11 38:0.11 39:0.11 
-0.8064862150865475 1:0.504783 2:0.466093 3:0.0291243 4:0.966586 5:0.0277092 6:0.225617 7:0.239723 8:0.0585523 9:0.0197689 10:0.0336485 11:0.385407 12:0.141948 13:0.0578837 14:0.0353584 15:0 16:0 17:0 18:0 19:0 20:0 21:1 22:0.0514317 23:0.045571 24:0.0499964 25:0.0169754 26:0.00662372 27:0.0651683 28:0.047394 29:0.682409 30:0.0344308 31:0.11 32:0.11 33:0.11 34:0.11 35:0.11 36:0.11 37:0.11 38:0.11 39:0.11 
-0.1350948350395918 1:0.669561 2:0.185565 3:0.144874 4:0.965619 5:0.00628236 6:0.100638 7:0.00827161 8:0.0262769 9:0.0864788 10:0.0373947 11:0.105914 12:0.721301 13:0.00636092 14:0.00171943 15:0 16:0 17:0 18:0 19:0 20:0 21:1 22:0.0261451 23:0.0637719 24:0.0813643 25:0.075438 26:0.0549306 27:0.0572425 28:0.0357211 29:0.431715 30:0.173671 31:0.11 32:0.11 33:0.11 34:0.11 35:0.11 36:0.11 37:0.11 38:0.11 39:0.11 
-0.6813182170447332 1:0.995862 2:0.00296285 3:0.00117473 4:0.975127 5:0.0040799 6:0.0258258 7:0.161973 8:0.0350697 9:0.00500011 10:0.0521191 11:0.601576 12:0.0951294 13:0.0253465 14:0.0197069 15:0 16:0 17:0 18:0 19:0 20:0 21:1 22:0.091598 23:0.0409931 24:0.0459202 25:0.0204865 26:0.0059146 27:0.341626 28:0.236428 29:0.186676 30:0.030357 31:0.11 32:0.11 33:0.11 34:0.11 35:0.11 36:0.11 37:0.11 38:0.11 39:0.11 
-0.7954295237459696 1:0.0903618 2:0.755518 3:0.15412 4:0.919523 5:0.0113368 6:0.0723772 7:0.199162 8:0.0476022 9:0.0797927 10:0.395633 11:0.100616 12:0.142457 13:0.0160716 14:0.00732898 15:0 16:0 17:0 18:0 19:0 20:0 21:0 22:0.0661702 23:0.0644971 24:0.0519135 25:0.0288422 26:0.0113022 27:0.0870487 28:0.1084 29:0.503857 30:0.0779691 31:0.000346732 32:0.000820661 33:0.00080983 34:0.000291809 35:0.000968557 36:0.00694968 37:0.0101363 38:0.977649 39:0.00202759 
-0.8283314108526919 1:0.955128 2:0.0246166 3:0.0202551 4:0.953568 5:0.00811749 6:0.0744281 7:0.0824362 8:0.0534627 9:0.0148945 10:0.0309836 11:0.0838099 12:0.582921 13:0.0982168 14:0.0451576 15:0 16:0 17:0 18:1 19:0 20:0 21:0 22:0.0517565 23:0.0381307 24:0.0173401 25:0.0090411 26:0.0162176 27:0.00751853 28:0.0436551 29:0.730974 30:0.085366 31:0.000242038 32:0.00401045 33:0.00102604 34:0.0018637 35:0.00477163 36:0.0013723 37:0.0199935 38:0.963774 39:0.00294662 
-1.295302922012112 1:0.0057286 2:0.0091646 3:0.985107 4:-0.954035 5:0.0116268 6:0.414347 7:0.850525 8:0.012543 9:0.00174135 10:0.0150806 11:0.00496609 12:0.0315739 13:0.0614968 14:0.0104467 15:0 16:0 17:0 18:0 19:0 20:0 21:0 22:0.0162364 23:0.0332765 24:0.0181116 25:0.0134931 26:0.0400298 27:0.00956152 28:0.0118299 29:0.572215 30:0.285246 31:0.11 32:0.11 33:0.11 34:0.11 35:0.11 36:0.11 37:0.11 38:0.11 39:0.11 
-1.282999580004393 1:0.00128338 2:0.0186266 3:0.98009 4:-0.95296 5:0.0573983 6:0.668827 7:0.766658 8:0.0390712 9:0.00268867 10:0.00954089 11:0.0126147 12:0.0336774 13:0.0681131 14:0.0102383 15:0 16:0 17:0 18:0 19:0 20:0 21:1 22:0.00485042 23:0.0308147 24:0.00690615 25:0.0152911 26:0.00803955 27:0.00597127 28:0.00454183 29:0.615383 30:0.308202 31:0.11 32:0.11 33:0.11 34:0.11 35:0.11 36:0.11 37:0.11 38:0.11 39:0.11 
-0.1881603283442787 1:0.967957 2:0.0275267 3:0.00451608 4:0.961513 5:0.00768889 6:0.130977 7:0.454154 8:0.023889 9:0.00601583 10:0.0436872 11:0.121577 12:0.290396 13:0.0435829 14:0.00900808 15:0 16:0 17:0 18:0 19:0 20:0 21:1 22:0.0270177 23:0.0897793 24:0.0175972 25:0.00631164 26:0.013306 27:0.0114466 28:0.0180936 29:0.753143 30:0.0633045 31:0.000344389 32:0.00403085 33:0.00152582 34:0.00341944 35:0.00585694 36:0.00352303 37:0.0218255 38:0.955964 39:0.00351029 
-0.8968294917993166 1:0.378086 2:0.591496 3:0.0304175 4:0.968128 5:0.00216384 6:0.0419129 7:0.532128 8:0.0283966 9:0.0096933 10:0.200803 11:0.0508918 12:0.108077 13:0.040699 14:0.0271473 15:0 16:0 17:0 18:0 19:0 20:0 21:1 22:0.043112 23:0.0625612 24:0.0258318 25:0.0172978 26:0.0492729 27:0.0188773 28:0.0146523 29:0.645677 30:0.122718 31:0.000242038 32:0.00401045 33:0.00102604 34:0.0018637 35:0.00477163 36:0.0013723 37:0.0199935 38:0.963774 39:0.00294662 
-0.4358085328837779 1:0.790265 2:0.16314 3:0.0465946 4:0.964149 5:0.0170894 6:0.0781062 7:0.0267993 8:0.0891193 9:0.104019 10:0.335155 11:0.0947128 12:0.31728 13:0.00878721 14:0.00703772 15:0 16:0 17:0 18:0 19:0 20:0 21:0 22:0.0317872 23:0.039742 24:0.0795395 25:0.0205851 26:0.00771424 27:0.0326582 28:0.0526285 29:0.109397 30:0.625948 31:0.11 32:0.11 33:0.11 34:0.11 35:0.11 36:0.11 37:0.11 38:0.11 39:0.11 
-0.5633038669226208 1:0.739518 2:0.245503 3:0.0149797 4:0.977599 5:0.0306934 6:0.186058 7:0.230113 8:0.239406 9:0.0205798 10:0.0791087 11:0.0908972 12:0.0535591 13:0.0501848 14:0.205458 15:0 16:0 17:0 18:0 19:0 20:0 21:0 22:0.0295874 23:0.0862049 24:0.0657103 25:0.0132063 26:0.023625 27:0.0182637 28:0.14438 29:0.0956563 30:0.523366 31:0.0292549 32:0.538742 33:0.0333474 34:0.0978754 35:0.0142376 36:0.0636171 37:0.114079 38:0.0269601 39:0.0818865 
-1.087421588089438 1:0.99125 2:0.00150353 3:0.0072462 4:0.966807 5:0.0644026 6:0.205859 7:0.0108901 8:0.195594 9:0.12818 10:0.161959 11:0.105504 12:0.293106 13:0.0101845 14:0.0301799 15:0 16:0 17:1 18:0 19:0 20:0 21:0 22:0.0711556 23:0.0447639 24:0.0168635 25:0.0140659 26:0.078012 27:0.0723754 28:0.177899 29:0.517276 30:0.00758864 31:0.0112324 32:0.034392 33:0.0108149 34:0.0226316 35:0.0121127 36:0.0576248 37:0.023553 38:0.794635 39:0.0330034 
-0.1776644384712888 1:0.951956 2:0.0426866 3:0.00535781 4:0.96316 5:0.0146668 6:0.229927 7:0.00203571 8:0.017288 9:0.707119 10:0.101257 11:0.0227914 12:0.11315 13:0.00684014 14:0.0148513 15:0 16:0 17:0 18:0 19:0 20:0 21:0 22:0.0296815 23:0.0697178 24:0.0183298 25:0.00916341 26:0.0165478 27:0.0833784 28:0.210751 29:0.561119 30:0.00131143 31:0.11 32:0.11 33:0.11 34:0.11 35:0.11 36:0.11 37:0.11 38:0.11 39:0.11 
-0.6803434622415695 1:0.999845 2:7.81395e-07 3:0.000154362 4:0.975912 5:0.0198952 6:0.108633 7:0.000722535 8:0.0469111 9:0.707461 10:0.0411876 11:0.0190748 12:0.159027 13:0.00300962 14:0.0027107 15:0 16:0 17:0 18:0 19:0 20:0 21:0 22:0.00471978 23:0.0334622 24:0.0165419 25:0.00784548 26:0.0203113 27:0.0308349 28:0.128289 29:0.756796 30:0.00119935 31:0.11 32:0.11 33:0.11 34:0.11 35:0.11 36:0.11 37:0.11 38:0.11 39:0.11 
-0.05082197949778076 1:0.990345 2:0.00384269 3:0.00581205 4:0.971585 5:0.00785189 6:0.106893 7:0.0299491 8:0.0165892 9:0.237362 10:0.444832 11:0.0411088 12:0.152907 13:0.0194481 14:0.0499517 15:0 16:0 17:0 18:0 19:0 20:0 21:0 22:0.0552875 23:0.0475984 24:0.00589209 25:0.0105884 26:0.0304712 27:0.0213783 28:0.124862 29:0.702387 30:0.0015347 31:0.00359352 32:0.0141901 33:0.00863098 34:0.0102439 35:0.00293077 36:0.00684434 37:0.0431447 38:0.902427 39:0.00799423 
-0.6196173957855996 1:0.750577 2:0.236047 3:0.0133756 4:0.963028 5:0.000786226 6:0.164735 7:0.012697 8:0.00230902 9:0.0453715 10:0.0442953 11:0.0143966 12:0.775627 13:0.0192038 14:0.0853136 15:1 16:0 17:0 18:0 19:0 20:0 21:0 22:0.0819197 23:0.100319 24:0.0105095 25:0.0205663 26:0.0499947 27:0.0200437 28:0.0523894 29:0.660791 30:0.00346672 31:0.00144732 32:0.011158 33:0.00378071 34:0.00392233 35:0.000831273 36:0.004536 37:0.0119135 38:0.958534 39:0.00387688 
-0.179636549056601 1:0.971726 2:0.0225848 3:0.00568924 4:0.975312 5:0.101671 6:0.67022 7:0.0158246 8:0.10415 9:0.121423 10:0.160049 11:0.060555 12:0.282663 13:0.102066 14:0.0515989 15:0 16:0 17:0 18:0 19:0 20:0 21:0 22:0.0388503 23:0.0620183 24:0.0129164 25:0.0437501 26:0.0714324 27:0.00732924 28:0.0733232 29:0.688948 30:0.00143204 31:0.00261517 32:0.015219 33:0.00638207 34:0.00814594 35:0.00200447 36:0.00583265 37:0.0237641 38:0.930765 39:0.00527195 
-0.2945011909179857 1:0.984978 2:0.00701892 3:0.00800308 4:0.973184 5:0.00793827 6:0.0380698 7:0.136784 8:0.030135 9:0.0287107 10:0.225133 11:0.0203033 12:0.105104 13:0.25228 14:0.193612 15:0 16:0 17:0 18:0 19:0 20:0 21:1 22:0.0944594 23:0.0604986 24:0.00954846 25:0.0415005 26:0.0324027 27:0.0108498 28:0.142326 29:0.605346 30:0.00306774 31:0.00274508 32:0.0126986 33:0.00577876 34:0.00912605 35:0.00151563 36:0.0038685 37:0.0226492 38:0.936253 39:0.00536478 
-0.8895963515381526 1:0.987457 2:0.00889402 3:0.00364942 4:0.970085 5:0.0189664 6:0.51234 7:0.00160889 8:0.0148295 9:0.144764 10:0.0737366 11:0.0267536 12:0.713349 13:0.00374949 14:0.00224263 15:0 16:0 17:0 18:1 19:0 20:0 21:0 22:0.0815193 23:0.0895908 24:0.0158162 25:0.0762493 26:0.379249 27:0.0362855 28:0.0763595 29:0.240024 30:0.0049062 31:0.00274508 32:0.0126986 33:0.00577876 34:0.00912605 35:0.00151563 36:0.0038685 37:0.0226492 38:0.936253 39:0.00536478 
-0.6859214081221058 1:0.964339 2:0.0223423 3:0.013319 4:0.963806 5:0.0229364 6:0.608808 7:0.00183786 8:0.031287 9:0.357395 10:0.0877502 11:0.027183 12:0.448669 13:0.0131186 14:0.00982305 15:0 16:0 17:0 18:0 19:0 20:0 21:0 22:0.0444071 23:0.120542 24:0.0121917 25:0.118654 26:0.536517 27:0.00794622 28:0.0368494 29:0.120518 30:0.00237483 31:0.00221977 32:0.00998322 33:0.0045788 34:0.00552088 35:0.00154345 36:0.00621163 37:0.0213995 38:0.945709 39:0.0028334 
-0.2001626837085331 1:0.995764 2:0.00368669 3:0.000549388 4:0.982128 5:0.00791394 6:0.119336 7:0.00431031 8:0.0192943 9:0.317811 10:0.211176 11:0.0622872 12:0.367475 13:0.00445006 14:0.00528206 15:0 16:0 17:0 18:0 19:0 20:0 21:1 22:0.036119 23:0.0278064 24:0.0075529 25:0.016599 26:0.024778 27:0.025303 28:0.0564851 29:0.802908 30:0.00244859 31:0.00144732 32:0.011158 33:0.00378071 34:0.00392233 35:0.000831273 36:0.004536 37:0.0119135 38:0.958534 39:0.00387688 
-0.2603133701354723 1:0.951963 2:0.0243019 3:0.0237355 4:0.966137 5:0.00219385 6:0.0762157 7:0.0359482 8:0.00895122 9:0.00940459 10:0.139046 11:0.0273033 12:0.625992 13:0.0173167 14:0.133844 15:1 16:0 17:0 18:0 19:0 20:0 21:0 22:0.0888116 23:0.0574397 24:0.0161585 25:0.0907175 26:0.026471 27:0.00654942 28:0.0724983 29:0.636265 30:0.00508913 31:0.00221977 32:0.00998322 33:0.0045788 34:0.00552088 35:0.00154345 36:0.00621163 37:0.0213995 38:0.945709 39:0.0028334 
-1.156277992777055 1:0.985726 2:0.0104946 3:0.00377917 4:0.962455 5:0.00934755 6:0.233483 7:0.00708324 8:0.0290988 9:0.0702978 10:0.108626 11:0.0309485 12:0.321069 13:0.391981 14:0.0315479 15:0 16:0 17:0 18:0 19:0 20:1 21:0 22:0.033372 23:0.0234176 24:0.0177994 25:0.163604 26:0.214375 27:0.0166845 28:0.0268191 29:0.493125 30:0.0108028 31:0.224795 32:0.0757235 33:0.12478 34:0.0143899 35:0.0367805 36:0.010506 37:0.0239847 38:0.476709 39:0.0123321 
-0.3951836946640066 1:0.994126 2:0.00389504 3:0.00197935 4:0.970794 5:0.0453142 6:0.0766123 7:0.00951649 8:0.289122 9:0.0598493 10:0.0672889 11:0.0702474 12:0.274129 13:0.0163737 14:0.168159 15:0 16:0 17:0 18:0 19:0 20:0 21:1 22:0.0385688 23:0.192282 24:0.0153748 25:0.0247006 26:0.0661448 27:0.0184243 28:0.43698 29:0.204707 30:0.00281722 31:0.11 32:0.11 33:0.11 34:0.11 35:0.11 36:0.11 37:0.11 38:0.11 39:0.11 
-1.208813426065486 1:0.000677012 2:0.0151154 3:0.984208 4:0.956313 5:0.0271759 6:0.0960942 7:0.0212789 8:0.238515 9:0.045066 10:0.345732 11:0.0842253 12:0.0212746 13:0.159231 14:0.0575022 15:0 16:0 17:0 18:0 19:0 20:0 21:1 22:0.0421535 23:0.237351 24:0.0487756 25:0.383727 26:0.0472989 27:0.0497167 28:0.181356 29:0.00429615 30:0.00532504 31:0.00816686 32:0.0329041 33:0.0347216 34:0.0116968 35:0.109076 36:0.188852 37:0.0549941 38:0.53245 39:0.0271385 
-0.8388433403040161 1:0.993436 2:0.00397023 3:0.00259362 4:0.968379 5:0.0150308 6:0.172367 7:0.00894695 8:0.0483435 9:0.0677277 10:0.0691804 11:0.182411 12:0.580169 13:0.00867108 14:0.0195187 15:1 16:0 17:0 18:0 19:0 20:0 21:1 22:0.0170393 23:0.0336356 24:0.0476765 25:0.0162622 26:0.0677361 27:0.0176627 28:0.0170032 29:0.770284 30:0.0127008 31:0.00161127 32:0.0141774 33:0.00766688 34:0.0573157 35:0.0147473 36:0.0046581 37:0.00649273 38:0.885818 39:0.00751249 
-0.3431838739555684 1:0.96277 2:0.0234328 3:0.0137974 4:0.967108 5:0.00304467 6:0.132532 7:0.0059488 8:0.014502 9:0.0754487 10:0.0861378 11:0.0865045 12:0.717255 13:0.00390488 14:0.00725354 15:1 16:0 17:0 18:0 19:0 20:0 21:0 22:0.0142114 23:0.0280517 24:0.0201864 25:0.00647244 26:0.0053027 27:0.0372617 28:0.227369 29:0.646652 30:0.0144929 31:0.00502186 32:0.0136357 33:0.00933343 34:0.023129 35:0.0755101 36:0.00971617 37:0.0464717 38:0.807574 39:0.00960793 
-0.1917045429054499 1:0.966361 2:0.026337 3:0.00730176 4:0.947569 5:0.00329792 6:0.139499 7:0.00141165 8:0.00769019 9:0.0498646 10:0.0519972 11:0.051232 12:0.826736 13:0.00457558 14:0.00319512 15:0 16:0 17:0 18:0 19:0 20:0 21:1 22:0.0337111 23:0.0952158 24:0.00407071 25:0.0496706 26:0.150531 27:0.02797 28:0.140117 29:0.496211 30:0.00250228 31:0.0526522 32:0.310896 33:0.0978013 34:0.119104 35:0.0204385 36:0.091451 37:0.0653827 38:0.165955 39:0.0763199 
-0.8091178528678429 1:0.981718 2:0.013828 3:0.00445364 4:0.943683 5:0.0266069 6:0.0972707 7:0.0171794 8:0.153065 9:0.0604514 10:0.122669 11:0.0500411 12:0.488199 13:0.0373357 14:0.0444524 15:1 16:0 17:0 18:0 19:0 20:0 21:1 22:0.0176069 23:0.07826 24:0.00496029 25:0.0478361 26:0.051709 27:0.0499528 28:0.141943 29:0.605298 30:0.00243418 31:0.11 32:0.11 33:0.11 34:0.11 35:0.11 36:0.11 37:0.11 38:0.11 39:0.11 
-0.3958121618324472 1:0.99965 2:6.76112e-07 3:0.000349492 4:0.960665 5:0.0250827 6:0.116685 7:0.0678624 8:0.0691309 9:0.0896401 10:0.186669 11:0.146905 12:0.374961 13:0.0170756 14:0.0226734 15:0 16:0 17:0 18:0 19:0 20:0 21:0 22:0.0677621 23:0.0604718 24:0.011021 25:0.0109039 26:0.0293394 27:0.151488 28:0.559109 29:0.0781173 30:0.0317869 31:0.00822331 32:0.0293215 33:0.0256156 34:0.0144621 35:0.00857784 36:0.0304292 37:0.0125756 38:0.837473 39:0.0333214 
-0.6248298757882969 1:0.938929 2:0.00658645 3:0.0544846 4:0.940353 5:0.00326063 6:0.0666586 7:0.259816 8:0.0266184 9:0.0752627 10:0.270253 11:0.0782633 12:0.26819 13:0.00870468 14:0.00963191 15:0 16:0 17:0 18:0 19:0 20:0 21:1 22:0.0532114 23:0.0822685 24:0.0065128 25:0.0251954 26:0.67784 27:0.0048557 28:0.0670604 29:0.0794117 30:0.00364387 31:0.0120227 32:0.0265309 33:0.0366028 34:0.0158465 35:0.330125 36:0.0727588 37:0.0556092 38:0.418327 39:0.0321772 
-0.8896724446012946 1:0.109673 2:0.111766 3:0.778561 4:0.955126 5:0.00162501 6:0.0100618 7:0.00954762 8:0.027919 9:0.0104653 10:0.0238253 11:0.139262 12:0.768725 13:0.00622905 14:0.0124016 15:0 16:0 17:0 18:0 19:0 20:0 21:0 22:0.0256487 23:0.0443057 24:0.00914874 25:0.0298769 26:0.433234 27:0.0348884 28:0.00827809 29:0.411102 30:0.00351735 31:5.8911e-06 32:0.00010611 33:2.43259e-05 34:8.64618e-05 35:0.000291142 36:7.40001e-05 37:0.00260431 38:0.99528 39:0.00152801 
-0.3849075627707804 1:0.960338 2:0.0306349 3:0.00902688 4:0.960465 5:0.00709709 6:0.0968757 7:0.00314771 8:0.0197289 9:0.0365687 10:0.0405824 11:0.0515658 12:0.818613 13:0.00905202 14:0.0136446 15:0 16:0 17:0 18:0 19:0 20:0 21:1 22:0.0143316 23:0.0376966 24:0.00878235 25:0.0298155 26:0.0479173 27:0.015526 28:0.0834776 29:0.759889 30:0.00256429 31:0.00695231 32:0.0321886 33:0.0227063 34:0.0627116 35:0.393832 36:0.0398676 37:0.105756 38:0.298791 39:0.0371939 
-0.1473954431421327 1:0.995843 2:0.00224788 3:0.00190937 4:0.973825 5:0.0211319 6:0.459795 7:0.0892445 8:0.0181415 9:0.0229249 10:0.0856308 11:0.0423595 12:0.630303 13:0.0402272 14:0.0500369 15:0 16:0 17:0 18:0 19:0 20:0 21:1 22:0.256384 23:0.172609 24:0.0766255 25:0.0774757 26:0.121096 27:0.034131 28:0.0106313 29:0.239642 30:0.0114054 31:0.000241861 32:0.0040101 33:0.00102539 34:0.00186337 35:0.00476641 36:0.00137115 37:0.0199691 38:0.963807 39:0.00294523 
-0.1698144253582063 1:0.976465 2:0.0151713 3:0.0083641 4:0.968644 5:0.151432 6:0.5 7:0.0419647 8:0.129679 9:0.0595153 10:0.142 11:0.035697 12:0.334521 13:0.0354618 14:0.0697284 15:0 16:0 17:0 18:0 19:0 20:0 21:1 22:0.0843286 23:0.061069 24:0.022752 25:0.0333843 26:0.341602 27:0.0423422 28:0.016442 29:0.385836 30:0.0122436 31:0.000227851 32:0.00269104 33:0.000841156 34:0.00190977 35:0.00411672 36:0.00273303 37:0.018806 38:0.967706 39:0.000968684 
-1.233806946075972 1:0.991838 2:0.00582123 3:0.00234063 4:0.971347 5:0.019554 6:0.0684345 7:0.0112736 8:0.121387 9:0.281687 10:0.218983 11:0.120834 12:0.214577 13:0.00429819 14:0.00740527 15:1 16:0 17:0 18:1 19:0 20:0 21:1 22:0.0122188 23:0.0401594 24:0.00708116 25:0.0148963 26:0.0224419 27:0.100686 28:0.185218 29:0.616242 30:0.00105648 31:0.11 32:0.11 33:0.11 34:0.11 35:0.11 36:0.11 37:0.11 38:0.11 39:0.11 
-0.2120889167617601 1:0.966681 2:0.0174018 3:0.0159169 4:0.963758 5:0.000206009 6:0.307853 7:0.00156401 8:0.000357435 9:0.00959434 10:0.0130782 11:0.00848342 12:0.959824 13:0.00494063 14:0.00195176 15:0 16:0 17:0 18:0 19:0 20:0 21:0 22:0.0103698 23:0.0724467 24:0.0811169 25:0.0266559 26:0.0175878 27:0.0214793 28:0.126448 29:0.641709 30:0.00218664 31:0.000241861 32:0.0040101 33:0.00102539 34:0.00186337 35:0.00476641 36:0.00137115 37:0.0199691 38:0.963807 39:0.00294523 
-0.4867108204952815 1:0.0593134 2:0.753741 3:0.186945 4:0.877058 5:0.00336003 6:0.449463 7:0.00327517 8:0.00324832 9:0.0420058 10:0.0427796 11:0.010127 12:0.863571 13:0.0187553 14:0.012878 15:0 16:0 17:0 18:0 19:0 20:0 21:0 22:0.0157955 23:0.0315353 24:0.0571991 25:0.134506 26:0.157017 27:0.0390148 28:0.0962189 29:0.465709 30:0.00300435 31:0.000442333 32:0.00263959 33:0.00187189 34:0.00254286 35:0.00974913 36:0.0014701 37:0.0416632 38:0.935196 39:0.0044247 
-0.2282315575465574 1:0.972728 2:0.0162592 3:0.0110128 4:0.972019 5:0.000344229 6:0.0516521 7:0.00142639 8:0.00828232 9:0.0140836 10:0.0301203 11:0.17277 12:0.73609 13:0.00766765 14:0.0292158 15:0 16:0 17:0 18:0 19:0 20:0 21:0 22:0.00546353 23:0.0110628 24:0.00280753 25:0.0368347 26:0.0213088 27:0.00347492 28:0.0311806 29:0.886658 30:0.00120906 31:9.55761e-05 32:0.0065955 33:0.00103387 34:0.0025911 35:0.00156589 36:0.000741698 37:0.00367413 38:0.981285 39:0.00241687 
-0.9849323081176511 1:0.147596 2:0.0293697 3:0.823035 4:0.916376 5:0.0952015 6:0.339889 7:0.0156104 8:0.196886 9:0.166505 10:0.298732 11:0.0560884 12:0.0741929 13:0.0758228 14:0.0209617 15:0 16:0 17:0 18:0 19:0 20:0 21:0 22:0.0642718 23:0.0384523 24:0.0114914 25:0.359091 26:0.178143 27:0.0204667 28:0.0376668 29:0.288017 30:0.00239918 31:0.0233235 32:0.0675151 33:0.02376 34:0.0454499 35:0.0190411 36:0.0742694 37:0.0439465 38:0.604788 39:0.0979067 
-0.4481410052704338 1:0.994486 2:0.00374862 3:0.00176501 4:0.973051 5:0.000772891 6:0.0374914 7:0.033594 8:0.00530114 9:0.00592641 10:0.0980792 11:0.0596147 12:0.765178 13:0.00583615 14:0.0256974 15:0 16:0 17:0 18:0 19:0 20:0 21:0 22:0.0107094 23:0.0101777 24:0.00695858 25:0.0271623 26:0.0322817 27:0.00351578 28:0.0489168 29:0.85892 30:0.00135825 31:0.00695231 32:0.0321886 33:0.0227063 34:0.0627116 35:0.393832 36:0.0398676 37:0.105756 38:0.298791 39:0.0371939 
-0.8228423579654223 1:0.14965 2:0.777211 3:0.0731389 4:0.794033 5:0.00338813 6:0.0693448 7:0.0440983 8:0.0113561 9:0.025341 10:0.125307 11:0.0368092 12:0.558404 13:0.038186 14:0.15711 15:0 16:0 17:0 18:0 19:0 20:0 21:0 22:0.0618738 23:0.0298833 24:0.0130174 25:0.15106 26:0.555197 27:0.00833238 28:0.0535316 29:0.101808 30:0.0252966 31:0.00102082 32:0.0103667 33:0.00111159 34:0.00936765 35:0.0015942 36:0.00299997 37:0.00737603 38:0.962199 39:0.00396432 
-0.2256569896950235 1:0.590988 2:0.346603 3:0.0624089 4:0.96222 5:0.00216979 6:0.12848 7:0.00195171 8:0.00390804 9:0.0192839 10:0.0311979 11:0.044121 12:0.890724 13:0.00354295 14:0.00310062 15:0 16:0 17:0 18:0 19:0 20:0 21:1 22:0.0326799 23:0.129829 24:0.0503456 25:0.0674412 26:0.119642 27:0.0656909 28:0.0968274 29:0.433147 30:0.00439664 31:0.00144714 32:0.0137102 33:0.00215104 34:0.0213678 35:0.00372319 36:0.00344541 37:0.0185823 38:0.922279 39:0.0132944 
-0.09597759865866076 1:0.936026 2:0.0392653 3:0.0247089 4:0.969442 5:0.00236566 6:0.168719 7:0.00236682 8:0.0167855 9:0.0158153 10:0.0278203 11:0.0602754 12:0.827743 13:0.0255149 14:0.0213132 15:0 16:0 17:0 18:1 19:0 20:0 21:0 22:0.110903 23:0.0664431 24:0.0188275 25:0.107698 26:0.0645792 27:0.00677348 28:0.0911059 29:0.530773 30:0.00289693 31:7.02334e-05 32:0.000215104 33:0.000333237 34:0.000337891 35:0.00239065 36:0.00135158 37:0.0106637 38:0.9831 39:0.00153771 
-0.4137669933292017 1:0.993493 2:0.00408811 3:0.00241866 4:0.959265 5:0.00570867 6:0.141834 7:0.00398866 8:0.019054 9:0.0542789 10:0.036359 11:0.0145245 12:0.82494 13:0.0261261 14:0.01502 15:0 16:0 17:0 18:0 19:0 20:0 21:0 22:0.0662209 23:0.0929557 24:0.00762531 25:0.0599124 26:0.37186 27:0.0151989 28:0.10318 29:0.28127 30:0.00177644 31:0.11 32:0.11 33:0.11 34:0.11 35:0.11 36:0.11 37:0.11 38:0.11 39:0.11 
-0.4263288461054321 1:0.989538 2:0.00847048 3:0.0019915 4:0.703977 5:0.00215605 6:0.0801808 7:0.00306321 8:0.0237827 9:0.0145144 10:0.0235326 11:0.020776 12:0.793261 13:0.105694 14:0.0132207 15:0 16:0 17:0 18:0 19:0 20:0 21:1 22:0.177392 23:0.110101 24:0.0627649 25:0.0672621 26:0.0776914 27:0.0172185 28:0.245522 29:0.235607 30:0.00644028 31:0.000114996 32:0.000296111 33:0.000557476 34:0.000265106 35:0.00393954 36:0.000463659 37:0.0192653 38:0.973671 39:0.00142651 
-0.1980244919039522 1:0.997188 2:0.00254106 3:0.000270489 4:0.976329 5:0.00101481 6:0.0739075 7:0.00286829 8:0.00666946 9:0.0102322 10:0.0246165 11:0.016841 12:0.909733 13:0.00868047 14:0.0193444 15:0 16:0 17:0 18:0 19:0 20:0 21:1 22:0.0385647 23:0.0862413 24:0.0284556 25:0.0348734 26:0.0158423 27:0.0190197 28:0.0918657 29:0.681369 30:0.00376794 31:2.67006e-05 32:8.02198e-05 33:0.00020337 34:7.64307e-05 35:0.00142616 36:0.00024682 37:0.00708954 38:0.990207 39:0.000644113 
-0.3970404030827415 1:0.962842 2:0.0194814 3:0.0176764 4:0.963252 5:0.00357268 6:0.126282 7:0.00750454 8:0.0226241 9:0.02307 10:0.224418 11:0.1239 12:0.0877707 13:0.0477599 14:0.45938 15:0 16:0 17:0 18:0 19:0 20:0 21:0 22:0.108947 23:0.194944 24:0.0356464 25:0.0602699 26:0.0197842 27:0.028916 28:0.100711 29:0.447303 30:0.0034777 31:0.000542993 32:0.00468296 33:0.00739319 34:0.0208028 35:0.00725967 36:0.00370024 37:0.0141283 38:0.939211 39:0.00227922 
-1.342312081171291 1:0.948228 2:0.0406193 3:0.0111526 4:-0.678657 5:0.0037439 6:0.0833192 7:0.0896641 8:0.0404792 9:0.053821 10:0.0512832 11:0.249207 12:0.367486 13:0.0999322 14:0.0443835 15:0 16:0 17:0 18:0 19:0 20:0 21:0 22:0.0240049 23:0.0808517 24:0.0179834 25:0.00692947 26:0.01107 27:0.0330015 28:0.742728 29:0.0778181 30:0.00561293 31:0.00572557 32:0.0200029 33:0.0103292 34:0.0660804 35:0.398168 36:0.0383393 37:0.110279 38:0.323967 39:0.0271084 
-0.08532233875148616 1:0.990532 2:0.0061917 3:0.00327655 4:0.960474 5:0.0534702 6:0.129352 7:0.00512639 8:0.488319 9:0.0766191 10:0.0978489 11:0.205891 12:0.0398166 13:0.0296723 14:0.0032363 15:0 16:0 17:0 18:0 19:0 20:0 21:0 22:0.0609568 23:0.164058 24:0.116317 25:0.0213689 26:0.00900271 27:0.0274068 28:0.391265 29:0.200495 30:0.00912954 31:0.11 32:0.11 33:0.11 34:0.11 35:0.11 36:0.11 37:0.11 38:0.11 39:0.11 
-1.309052284738344 1:0.935465 2:0.0551535 3:0.00938105 4:0.8045 5:0.744581 6:0.79947 7:0.0236584 8:0.148355 9:0.0106987 10:0.0304788 11:0.00907845 12:0.0113677 13:0.00713115 14:0.0146504 15:0 16:0 17:0 18:0 19:0 20:0 21:1 22:0.132252 23:0.102319 24:0.0154031 25:0.223899 26:0.417639 27:0.0162986 28:0.0235121 29:0.0484964 30:0.020182 31:0.11 32:0.11 33:0.11 34:0.11 35:0.11 36:0.11 37:0.11 38:0.11 39:0.11 
-0.3762316332891544 1:0.998083 2:0.00101289 3:0.000903689 4:0.954903 5:0.0300498 6:0.0355107 7:0.0553724 8:0.265572 9:0.0455797 10:0.167901 11:0.0639559 12:0.245198 13:0.0778603 14:0.0485107 15:0 16:0 17:0 18:0 19:0 20:0 21:0 22:0.081626 23:0.1101 24:0.0704806 25:0.0291952 26:0.0345578 27:0.0263284 28:0.183958 29:0.444853 30:0.018901 31:0.0037715 32:0.00776041 33:0.0081629 34:0.00627529 35:0.00693724 36:0.0535022 37:0.867186 38:0.0421441 39:0.00426021 
-0.5830600967760322 1:0.989625 2:0.00160317 3:0.00877178 4:0.961148 5:0.0580052 6:0.162518 7:0.0417427 8:0.301004 9:0.0452555 10:0.0929616 11:0.148055 12:0.189473 13:0.069276 14:0.0542261 15:0 16:0 17:0 18:0 19:0 20:0 21:0 22:0.0192423 23:0.0881542 24:0.0310413 25:0.00805558 26:0.0139044 27:0.00475781 28:0.136672 29:0.687078 30:0.0110944 31:0.00336864 32:0.00455273 33:0.00552698 34:0.00372085 35:0.0071178 36:0.0436307 37:0.858245 38:0.0706198 39:0.00321764 
-1.3234643436163 1:0.997218 2:0.00172881 3:0.00105344 4:-0.828277 5:0.0292344 6:0.37127 7:0.0531695 8:0.0895102 9:0.0145413 10:0.21254 11:0.294722 12:0.0704466 13:0.0982216 14:0.137615 15:0 16:0 17:0 18:0 19:0 20:0 21:0 22:0.0117008 23:0.0957605 24:0.102436 25:0.0106372 26:0.00394153 27:0.251744 28:0.474918 29:0.045256 30:0.00360624 31:0.00423437 32:0.0036411 33:0.00701138 34:0.00672843 35:0.00816152 36:0.0392547 37:0.869547 38:0.0561584 39:0.00526332 
-0.9073811367629951 1:0.988402 2:0.00888872 3:0.00270924 4:0.961511 5:0.306354 6:0.706189 7:0.0110124 8:0.178309 9:0.0220555 10:0.0174877 11:0.405853 12:0.0318975 13:0.0231388 14:0.00389206 15:0 16:0 17:0 18:0 19:0 20:0 21:0 22:0.103171 23:0.137801 24:0.0335252 25:0.0629839 26:0.16113 27:0.0421925 28:0.155365 29:0.301379 30:0.00245315 31:0.0272214 32:0.624803 33:0.0350187 34:0.104411 35:0.048788 36:0.0595089 37:0.0434474 38:0.0302462 39:0.0265558 
-1.199549915746781 1:0.977214 2:0.0158674 3:0.00691904 4:0.920441 5:0.00165348 6:0.0237993 7:0.00652517 8:0.014078 9:0.0271588 10:0.0655818 11:0.380896 12:0.190767 13:0.0726472 14:0.240692 15:0 16:0 17:0 18:0 19:0 20:0 21:1 22:0.00151278 23:0.00352232 24:0.00884438 25:0.0446876 26:0.92998 27:0.00442038 28:0.000720488 29:0.00595037 30:0.000361533 31:0.00984347 32:0.225627 33:0.393911 34:0.0244167 35:0.0121762 36:0.24931 37:0.0385764 38:0.0108368 39:0.0353029 
-1.416765425676002 1:0.800832 2:0.176692 3:0.0224757 4:-0.936597 5:0.304858 6:0.725328 7:0.0768687 8:0.1303 9:0.0106606 10:0.0577235 11:0.0298336 12:0.0105846 13:0.260553 14:0.118619 15:0 16:0 17:1 18:0 19:0 20:0 21:0 22:0.0457328 23:0.218551 24:0.225761 25:0.212031 26:0.220731 27:0.0240858 28:0.0311156 29:0.0112504 30:0.0107416 31:0.11 32:0.11 33:0.11 34:0.11 35:0.11 36:0.11 37:0.11 38:0.11 39:0.11 
-0.2992857806736732 1:0.996482 2:0.00295713 3:0.000561194 4:0.969624 5:0.0733388 6:0.286597 7:0.065259 8:0.276544 9:0.115327 10:0.242266 11:0.0900033 12:0.0382765 13:0.0712427 14:0.0277422 15:0 16:0 17:0 18:0 19:0 20:0 21:0 22:0.114795 23:0.117214 24:0.211518 25:0.0104782 26:0.00670303 27:0.266618 28:0.0881139 29:0.124587 30:0.0599731 31:0.00572557 32:0.0200029 33:0.0103292 34:0.0660804 35:0.398168 36:0.0383393 37:0.110279 38:0.323967 39:0.0271084 
-1.232945660767879 1:0.990001 2:0.00265764 3:0.00734126 4:0.668221 5:0.131217 6:0.626306 7:0.355276 8:0.0917337 9:0.0105091 10:0.0545069 11:0.0936643 12:0.0965138 13:0.0296512 14:0.136928 15:1 16:0 17:0 18:0 19:0 20:0 21:0 22:0.0131352 23:0.10328 24:0.0437368 25:0.0510006 26:0.0231532 27:0.334806 28:0.0737679 29:0.0705418 30:0.286578 31:0.0276584 32:0.0694973 33:0.0246473 34:0.184246 35:0.0475516 36:0.0281614 37:0.0271297 38:0.0782588 39:0.512849 
-1.078309802684924 1:0.501823 2:0.468052 3:0.0301254 4:0.920858 5:0.0293205 6:0.5 7:0.763447 8:0.0228726 9:0.00560463 10:0.0210108 11:0.0465722 12:0.0519905 13:0.0144817 14:0.0446999 15:0 16:0 17:0 18:0 19:0 20:0 21:0 22:0.0190678 23:0.0894114 24:0.0305964 25:0.014186 26:0.0100772 27:0.0219755 28:0.208645 29:0.178797 30:0.427244 31:0.0300527 32:0.0505501 33:0.0347629 34:0.333328 35:0.0744779 36:0.0278934 37:0.0268207 38:0.0961532 39:0.325961 
-1.051838709103919 1:0.996177 2:0.00148787 3:0.00233494 4:0.954676 5:0.0104891 6:0.0636975 7:0.276915 8:0.0619303 9:0.0234869 10:0.0587319 11:0.174963 12:0.0995765 13:0.074464 14:0.219444 15:0 16:0 17:0 18:0 19:0 20:0 21:0 22:0.0278681 23:0.221636 24:0.136865 25:0.0277338 26:0.0108135 27:0.0147014 28:0.29336 29:0.0788369 30:0.188186 31:0.00183839 32:0.0252963 33:0.00144261 34:0.021108 35:0.00245952 36:0.00172712 37:0.00453677 38:0.000768575 39:0.940823 
-0.09112101745487675 1:0.992361 2:0.00180586 3:0.0058331 4:0.817386 5:0.0238319 6:0.292609 7:0.561905 8:0.0777033 9:0.00365199 10:0.032072 11:0.109506 12:0.0756443 13:0.0523601 14:0.0633247 15:0 16:0 17:0 18:0 19:0 20:0 21:0 22:0.134211 23:0.142178 24:0.0396863 25:0.0211712 26:0.0124684 27:0.0338731 28:0.101923 29:0.437392 30:0.0770975 31:0.0143198 32:0.029324 33:0.0253828 34:0.0212469 35:0.130359 36:0.140968 37:0.102961 38:0.505129 39:0.0303093 
