svm_type c_svc
kernel_type rbf
gamma 0.01
nr_class 3
total_sv 48
rho 0.0316183 0.22395 0.100378
label 0 1 2
probA -30.6068 -9.42016 -4.43149
probB 2.816 3.72069 0.637104
nr_sv 19 15 14
SV
0.480892834519014 0.733486283730491 1:-0.751153 2:0.998268 3:-0.987594 4:0.999751 5:-0.566092 6:0.999073 7:-0.96175 8:0.999905 9:-0.855938 10:0.99456 11:-0.992287 12:0.999538 13:-0.908236 14:0.994876 15:-0.996672 16:0.999354 17:-0.815161 18:0.988763 19:-0.990592 20:0.999099 21:-0.679569 22:0.988074 23:-0.975469 24:0.998876 25:-0.677148 26:0.971854 27:-0.981026 28:0.997937 29:-0.751608 30:0.988501 31:-0.979267 32:0.99947 33:-0.682088 34:0.977367 35:-0.967592 36:0.999218 37:-0.844076 38:0.978615 39:-0.987927 40:0.998907 41:-0.904186 42:0.936116 43:-0.992518 44:0.996634 45:-0.90679 46:0.958858 47:-0.994023 48:0.998217 49:-0.951009 50:0.961447 51:-0.999987 52:0.997537 53:-0.972623 54:0.975015 55:-0.999998 56:0.99859 57:-0.959 58:0.976009 59:-0.999994 60:0.998007 61:-0.974083 62:0.976783 63:-0.999996 64:0.997135 65:-0.959541 66:0.97738 67:-0.999989 68:0.995836 69:-0.937261 70:0.988329 71:-0.996169 72:0.99667 73:-0.958419 74:0.995422 75:-0.99999 76:0.997834 77:-0.96683 78:0.983241 79:-0.999994 80:0.989334 81:-0.96616 82:0.983466 83:-0.999991 84:0.988043 85:-0.946701 86:0.938358 87:-0.996477 88:0.939591 89:-0.959133 90:0.841643 91:-0.997183 92:0.757012 93:-0.959133 94:0.876068 95:-0.997183 96:0.863917 97:-0.984471 98:0.878142 99:-0.999995 100:0.846549 101:-0.947757 102:0.944141 103:-0.994839 104:0.927309 105:-0.949245 106:0.905776 107:-0.990773 108:0.765131 109:-0.953594 110:0.92806 111:-0.991418 112:0.844433 113:-0.970524 114:0.94645 115:-0.995823 116:0.931225 117:-0.953594 118:0.956495 119:-0.991418 120:0.958483 121:-0.946084 122:0.986315 123:-0.994279 124:0.990038 125:-0.974528 126:0.939201 127:-0.996008 128:0.921303 129:-0.950774 130:0.933687 131:-0.992152 132:0.908339 133:-0.912518 134:0.942621 135:-0.987195 136:0.938304 137:-0.914882 138:0.942621 139:-0.985022 140:0.938304 141:-0.914882 142:0.976821 143:-0.985022 144:0.966971 145:-0.910016 146:0.982189 147:-0.97776 148:0.977275 149:-0.875621 150:0.982019 151:-0.960716 152:0.978718 153:-0.859115 154:0.989432 155:-0.970618 156:0.988475 157:-0.859115 158:0.990553 159:-0.970618 160:0.986296 161:-0.807479 162:0.983954 163:-0.947352 164:0.956685 165:-0.807479 166:0.99464 167:-0.947352 168:0.988962 169:-0.802521 170:0.995223 171:-0.957146 172:0.991473 173:-0.781303 174:0.999002 175:-0.954014 176:0.998768 177:-0.593463 178:0.998757 179:-0.876369 180:0.997851 181:0.569751 182:0.999088 183:-0.773658 184:0.999 185:-0.529599 186:0.998047 187:-0.867168 188:0.998114 189:0.527954 190:0.996356 191:-0.85262 192:0.997745 193:-0.724717 194:0.980454 195:-0.956218 196:0.991003 197:-0.682481 198:0.966636 199:-0.949926 200:0.99139 201:-0.738566 202:0.941806 203:-0.968013 204:0.991055 205:-0.833955 206:0.943458 207:-0.982663 208:0.9916 209:-0.943246 210:0.977931 211:-0.992328 212:0.996431 213:-0.963378 214:0.985644 215:-0.993096 216:0.998756 217:-0.949992 218:0.99554 219:-0.99404 220:0.999695 221:-0.95941 222:0.997495 223:-0.995839 224:0.999789 225:-0.951581 226:0.996574 227:-0.993937 228:0.999635 229:-0.951581 230:0.995831 231:-0.993937 232:0.999508 233:-0.951581 234:0.990165 235:-0.993937 236:0.99881 237:-0.945358 238:0.991879 239:-0.995592 240:0.999104 
0 0.7319357168012848 1:-0.779965 2:0.739331 3:-0.790789 4:0.606216 5:-0.789437 6:0.878381 7:-0.867493 8:0.83754 9:-0.685289 10:0.878105 11:-0.784524 12:0.797873 13:-0.580399 14:0.919393 15:-0.684558 16:0.815845 17:-0.775234 18:0.913137 19:-0.862147 20:0.81236 21:-0.852697 22:0.949581 23:-0.900847 24:0.904581 25:-0.82772 26:0.963732 27:-0.894668 28:0.900013 29:-0.760168 30:0.986529 31:-0.839499 32:0.980224 33:-0.613075 34:0.984812 35:-0.733129 36:0.971707 37:-0.786146 38:0.974052 39:-0.875675 40:0.956817 41:-0.819516 42:0.949633 43:-0.918389 44:0.938635 45:-0.710862 46:0.91106 47:-0.85901 48:0.911305 49:-0.871089 50:0.910787 51:-0.966097 52:0.908372 53:-0.710209 54:0.868213 55:-0.898945 56:0.870149 57:0.55731 58:0.867001 59:-0.748673 60:0.864204 61:-0.533685 62:0.787594 63:-0.862077 64:0.804757 65:-0.813846 66:0.860118 67:-0.954609 68:0.889705 69:-0.684389 70:0.919121 71:-0.89081 72:0.921317 73:-0.533468 74:0.887363 75:-0.786034 76:0.890116 77:-0.757932 78:0.818688 79:-0.925627 80:0.821718 81:-0.878184 82:0.878484 83:-0.962246 84:0.913174 85:-0.878184 86:0.954928 87:-0.962246 88:0.979989 89:-0.786428 90:0.940527 91:-0.930891 92:0.963751 93:-0.650115 94:0.806633 95:-0.860424 96:0.865177 97:-0.606536 98:0.909641 99:-0.769838 100:0.945928 101:-0.656573 102:0.914319 103:-0.837325 104:0.944667 105:-0.811358 106:0.864433 107:-0.946602 108:0.897928 109:-0.669357 110:0.763046 111:-0.89396 112:0.8564 113:-0.581023 114:0.746976 115:-0.831821 116:0.862232 117:-0.581023 118:0.909567 119:-0.831821 120:0.96118 121:-0.652469 122:0.840294 123:-0.890262 124:0.943969 125:-0.853812 126:0.668851 127:-0.961934 128:0.898792 129:-0.840537 130:0.565295 131:-0.94721 132:0.814375 133:-0.775699 134:0.627542 135:-0.922658 136:0.890716 137:-0.902539 138:0.565295 139:-0.978043 140:0.814375 141:-0.801954 142:-0.5454 143:-0.921818 144:0.763721 145:-0.849059 146:-0.782848 147:-0.923755 148:0.558191 149:-0.921831 150:-0.695498 151:-0.94874 152:0.71826 153:-0.926325 154:-0.759614 155:-0.947077 156:0.560571 157:-0.917953 158:-0.775896 159:-0.947405 160:-0.520285 161:-0.910888 162:-0.91502 163:-0.91302 164:-0.842339 165:-0.957481 166:-0.882661 167:-0.943623 168:-0.729948 169:-0.921057 170:-0.962303 171:-0.909029 172:-0.90101 173:-0.872563 174:-0.939809 175:-0.895252 176:-0.89725 177:-0.882192 178:-0.944991 179:-0.896918 180:-0.906424 181:-0.842959 182:-0.968424 183:-0.857822 184:-0.932168 185:-0.886106 186:-0.935743 187:-0.922717 188:-0.84378 189:-0.931528 190:-0.953753 191:-0.94156 192:-0.862044 193:-0.904048 194:-0.91385 195:-0.90689 196:-0.819154 197:-0.805341 198:-0.962741 199:-0.703363 200:-0.911669 201:-0.899252 202:-0.947269 203:-0.832709 204:-0.845589 205:-0.883936 206:-0.91019 207:-0.886345 208:-0.747175 209:-0.943654 210:-0.968829 211:-0.942756 212:-0.896272 213:-0.957243 214:-0.977232 215:-0.944991 216:-0.945138 217:-0.957416 218:-0.983726 219:-0.947576 220:-0.971926 221:-0.911159 222:-0.99335 223:-0.926485 224:-0.984105 225:-0.911159 226:-0.979658 227:-0.926485 228:-0.956566 229:-0.903298 230:-0.991725 231:-0.851584 232:-0.976151 233:-0.949996 234:-0.99533 235:-0.92714 236:-0.984258 237:-0.939125 238:-0.99441 239:-0.946291 240:-0.986389 
0.06466253967258469 0 1:-0.995057 2:0.99929 3:-0.994739 4:0.998204 5:-0.988771 6:0.999155 7:-0.989423 8:0.997743 9:-0.988122 10:0.998875 11:-0.989531 12:0.996381 13:-0.992786 14:0.998714 15:-0.99666 16:0.995523 17:-0.995078 18:0.993572 19:-0.999995 20:0.981878 21:-0.985888 22:0.985563 23:-0.995822 24:0.977532 25:-0.978446 26:0.968454 27:-0.993264 28:0.96995 29:-0.987967 30:0.964806 31:-0.9963 32:0.961295 33:-0.981241 34:0.93664 35:-0.993925 36:0.939725 37:-0.981943 38:0.938977 39:-0.992565 40:0.939323 41:-0.991205 42:0.97454 43:-0.996965 44:0.985528 45:-0.995401 46:0.98902 47:-0.999994 48:0.996152 49:-0.995757 50:0.980562 51:-0.999996 52:0.990797 53:-0.986863 54:0.971287 55:-0.99522 56:0.985948 57:-0.976025 58:0.972095 59:-0.992426 60:0.984704 61:-0.976998 62:0.980997 63:-0.995629 64:0.991531 65:-0.976726 66:0.950705 67:-0.997259 68:0.979113 69:-0.983372 70:0.974797 71:-0.999986 72:0.987369 73:-0.955929 74:0.78828 75:-0.993378 76:0.818603 77:-0.9065 78:0.811022 79:-0.985455 80:0.83173 81:-0.942753 82:0.707429 83:-0.993658 84:0.826486 85:-0.916438 86:0.571705 87:-0.989459 88:0.810696 89:-0.829213 90:0.535899 91:-0.977936 92:0.793556 93:-0.89998 94:0.670888 95:-0.976491 96:0.796994 97:-0.87619 98:0.719204 99:-0.968328 100:0.792407 101:-0.945053 102:-0.52606 103:-0.985838 104:0.609558 105:-0.962018 106:-0.855371 107:-0.987856 108:-0.756127 109:-0.939118 110:-0.890962 111:-0.976705 112:-0.813925 113:-0.952151 114:-0.894561 115:-0.984304 116:-0.834801 117:-0.939118 118:-0.894561 119:-0.976705 120:-0.834801 121:-0.946751 122:-0.891134 123:-0.974438 124:-0.815926 125:-0.975445 126:-0.966512 127:-0.981357 128:-0.950722 129:-0.957249 130:-0.983413 131:-0.972004 132:-0.987486 133:-0.921572 134:-0.985771 135:-0.954231 136:-0.988049 137:-0.789697 138:-0.99244 139:-0.848369 140:-0.990374 141:-0.802681 142:-0.99595 143:-0.868063 144:-0.994711 145:-0.883112 146:-0.996655 147:-0.937911 148:-0.995762 149:-0.939756 150:-0.995463 151:-0.965034 152:-0.993827 153:-0.936637 154:-0.99455 155:-0.941442 156:-0.994684 157:-0.950872 158:-0.99002 159:-0.943559 160:-0.993637 161:-0.942445 162:-0.988889 163:-0.933221 164:-0.993328 165:-0.941856 166:-0.988733 167:-0.935567 168:-0.990583 169:-0.971338 170:-0.984382 171:-0.961089 172:-0.98161 173:-0.964113 174:-0.996125 175:-0.932395 176:-0.997197 177:-0.954467 178:-0.999997 179:-0.931624 180:-0.999999 181:-0.974648 182:-0.999997 183:-0.957946 184:-0.999999 185:-0.976856 186:-0.999995 187:-0.97116 188:-0.999997 189:-0.984899 190:-0.999999 191:-0.986328 192:-1 193:-0.952109 194:-1 195:-0.943656 196:-1 197:-0.940042 198:-1 199:-0.906543 200:-1 201:-0.888587 202:-1 203:-0.823052 204:-1 205:-0.949124 206:-0.999999 207:-0.91499 208:-0.999999 209:-0.983799 210:-1 211:-0.967949 212:-1 213:-0.985144 214:-1 215:-0.978311 216:-1 217:-0.985144 218:-1 219:-0.978311 220:-1 221:-0.987978 222:-1 223:-0.986943 224:-1 225:-0.973624 226:-1 227:-0.96355 228:-1 229:-0.973206 230:-1 231:-0.957032 232:-1 233:-0.985866 234:-1 235:-0.963947 236:-1 237:-0.982612 238:-0.999998 239:-0.950262 240:-0.99999 
0 0.09973620749208403 1:0.80094 2:0.993371 3:-0.678371 4:0.996829 5:0.796544 6:0.996754 7:-0.719501 8:0.998715 9:0.521882 10:0.991339 11:-0.910228 12:0.996572 13:-0.547939 14:0.989747 15:-0.896843 16:0.995873 17:0.637243 18:0.987675 19:-0.787897 20:0.99445 21:0.593136 22:0.973122 23:-0.820511 24:0.993768 25:0.607343 26:0.989963 27:-0.833424 28:0.998665 29:0.767417 30:0.979361 31:-0.676434 32:0.996974 33:0.571437 34:0.991346 35:-0.834179 36:0.999186 37:-0.629054 38:0.981126 39:-0.915057 40:0.998431 41:-0.780399 42:0.983133 43:-0.954619 44:0.998153 45:-0.847148 46:0.983545 47:-0.978069 48:0.997295 49:-0.797089 50:0.901101 51:-0.971147 52:0.979776 53:-0.912361 54:0.936273 55:-0.991836 56:0.988964 57:-0.919379 58:0.967783 59:-0.987592 60:0.996263 61:-0.97189 62:0.940634 63:-0.99569 64:0.993345 65:-0.984131 66:0.76207 67:-0.999987 68:0.960776 69:-0.984642 70:0.766388 71:-0.997432 72:0.960762 73:-0.974524 74:0.642649 75:-0.994719 76:0.937768 77:-0.974524 78:0.642649 79:-0.994719 80:0.937768 81:-0.988624 82:0.749678 83:-0.997194 84:0.94552 85:-0.994655 86:0.61712 87:-0.999989 88:0.908404 89:-0.996821 90:0.740816 91:-0.999992 92:0.964822 93:-0.996472 94:0.61712 95:-0.997416 96:0.908404 97:-0.999983 98:-0.507787 99:-0.999994 100:0.797734 101:-0.994938 102:-0.527573 103:-0.997207 104:0.792924 105:-0.991896 106:-0.649747 107:-0.996101 108:0.770333 109:-0.996335 110:-0.705444 111:-0.999995 112:0.623429 113:-0.999983 114:-0.798547 115:-0.999997 116:-0.536568 117:-0.99608 118:-0.900645 119:-0.999989 120:-0.797007 121:-0.999996 122:-0.844118 123:-0.999999 124:-0.771428 125:-0.999998 126:-0.664255 127:-1 128:-0.626571 129:-0.999997 130:-0.788299 131:-0.999999 132:-0.747062 133:-0.997103 134:-0.765037 135:-0.999992 136:-0.656262 137:-0.995296 138:-0.898716 139:-0.996032 140:-0.870218 141:-0.997107 142:-0.967317 143:-0.999983 144:-0.961461 145:-0.997134 146:-0.964855 147:-0.996423 148:-0.964134 149:-0.990463 150:-0.964751 151:-0.990321 152:-0.964778 153:-0.974948 154:-0.988828 155:-0.97523 156:-0.993565 157:-0.984436 158:-0.988828 159:-0.978423 160:-0.993565 161:-0.984436 162:-0.989929 163:-0.978423 164:-0.992647 165:-0.989669 166:-0.992798 167:-0.982942 168:-0.995293 169:-0.97974 170:-0.994536 171:-0.955355 172:-0.996315 173:-0.977864 174:-0.994588 175:-0.948202 176:-0.995185 177:-0.978065 178:-0.996659 179:-0.970781 180:-0.996287 181:-0.964186 182:-0.975193 183:-0.969522 184:-0.961662 185:-0.973679 186:-0.975193 187:-0.983376 188:-0.961662 189:-0.958321 190:-0.992863 191:-0.95301 192:-0.990421 193:-0.951137 194:-0.980744 195:-0.941717 196:-0.970944 197:-0.951137 198:-0.936735 199:-0.941717 200:-0.897413 201:-0.913617 202:-0.882086 203:-0.879478 204:-0.838748 205:-0.868222 206:-0.902539 207:-0.856283 208:-0.842778 209:-0.917892 210:-0.980061 211:-0.931441 212:-0.977519 213:-0.832367 214:-0.980572 215:-0.872166 216:-0.978024 217:-0.554389 218:-0.981197 219:-0.58112 220:-0.976874 221:0.564781 222:-0.989116 223:-0.526652 224:-0.993566 225:0.567764 226:-0.984225 227:-0.511294 228:-0.985864 229:0.562135 230:-0.994821 231:0.522873 232:-0.993982 233:-0.639354 234:-0.99345 235:-0.636661 236:-0.994122 237:0.623673 238:-0.978045 239:0.611858 240:-0.974716 
0.1703058926289195 0 1:0.846642 2:0.954274 3:0.559169 4:0.920861 5:0.58521 6:0.965149 7:-0.580713 8:0.89372 9:0.778582 10:0.972086 11:0.612359 12:0.849014 13:0.769169 14:0.991414 15:0.52173 16:0.979415 17:0.539369 18:0.979128 19:-0.720997 20:0.970734 21:0.537237 22:0.979612 23:-0.768175 24:0.96212 25:0.690781 26:0.979802 27:-0.592301 28:0.947125 29:0.80044 30:0.962981 31:0.593823 32:0.902234 33:0.694045 34:0.977817 35:-0.652182 36:0.944429 37:0.639594 38:0.980894 39:-0.776891 40:0.942096 41:0.702258 42:0.983275 43:-0.698806 44:0.928048 45:0.678285 46:0.992634 47:-0.731616 48:0.982573 49:0.705196 50:0.992238 51:-0.691684 52:0.97772 53:0.518521 54:0.991349 55:-0.87677 56:0.9745 57:0.518521 58:0.992012 59:-0.87677 60:0.972326 61:0.518521 62:0.986411 63:-0.87677 64:0.959173 65:0.518521 66:0.993129 67:-0.87677 68:0.987628 69:0.693706 70:0.996245 71:-0.681932 72:0.991222 73:0.534412 74:0.996079 75:-0.778946 76:0.99181 77:-0.626819 78:0.992562 79:-0.8502 80:0.990354 81:0.553327 82:0.991798 83:-0.714185 84:0.991532 85:-0.546403 86:0.957773 87:-0.830149 88:0.938662 89:-0.617541 90:0.916132 91:-0.866691 92:0.792385 93:-0.771719 94:0.795602 95:-0.939617 96:0.567561 97:-0.699849 98:0.685994 99:-0.950103 100:-0.505526 101:-0.799592 102:0.542386 103:-0.972309 104:-0.522111 105:-0.799932 106:-0.596063 107:-0.961179 108:0.5 109:-0.613457 110:-0.760355 111:-0.898555 112:-0.59703 113:-0.732685 114:-0.645992 115:-0.919018 116:-0.511441 117:-0.829554 118:0.623331 119:-0.962606 120:0.800756 121:-0.89067 122:0.732976 123:-0.980636 124:0.815163 125:-0.909929 126:0.642423 127:-0.980095 128:0.642169 129:-0.945821 130:0.682157 131:-0.983875 132:0.634302 133:-0.931881 134:0.569453 135:-0.980222 136:-0.559835 137:-0.96786 138:-0.700962 139:-0.991056 140:-0.739708 141:-0.976923 142:-0.749179 143:-0.994784 144:-0.770634 145:-0.981838 146:-0.938605 147:-0.993986 148:-0.970549 149:-0.95631 150:-0.893712 151:-0.987034 152:-0.965765 153:-0.986138 154:-0.925592 155:-0.99624 156:-0.969836 157:-0.974371 158:-0.927883 159:-0.986964 160:-0.969217 161:-0.974371 162:-0.814325 163:-0.986964 164:-0.86968 165:-0.975981 166:-0.757157 167:-0.984207 168:-0.757844 169:-0.975981 170:-0.847482 171:-0.984207 172:-0.757202 173:-0.975981 174:-0.804387 175:-0.984207 176:-0.619148 177:-0.968948 178:-0.851762 179:-0.967037 180:-0.768251 181:-0.988141 182:-0.845577 183:-0.991474 184:-0.757144 185:-0.990345 186:-0.851762 187:-0.995762 188:-0.768251 189:-0.995853 190:-0.828365 191:-0.999988 192:-0.715566 193:-0.995948 194:-0.829368 195:-0.999989 196:-0.776988 197:-0.996509 198:-0.874385 199:-0.999997 200:-0.88889 201:-0.999995 202:-0.843376 203:-1 204:-0.872116 205:-0.99699 206:-0.843376 207:-0.999999 208:-0.872116 209:-0.994704 210:-0.830154 211:-0.999994 212:-0.871295 213:-0.993426 214:-0.822921 215:-0.997351 216:-0.898016 217:-0.987818 218:-0.754039 219:-0.995602 220:-0.830537 221:-0.964947 222:-0.837122 223:-0.989292 224:-0.847398 225:-0.985403 226:-0.696562 227:-0.995189 228:-0.78312 229:-0.938892 230:-0.562312 231:-0.977241 232:-0.716375 233:-0.938892 234:0.742677 235:-0.977241 236:0.659804 237:-0.923094 238:-0.506969 239:-0.980197 240:-0.675007 
0.3652786917614599 0.5346386048413519 1:-0.779055 2:0.987617 3:-0.966566 4:0.986648 5:-0.590517 6:0.97931 7:-0.903838 8:0.97975 9:0.526742 10:0.981462 11:-0.834722 12:0.976052 13:0.62813 14:0.989699 15:-0.740829 16:0.991601 17:0.712852 18:0.967377 19:-0.632793 20:0.978329 21:0.55642 22:0.970481 23:-0.737314 24:0.971767 25:0.592828 26:0.922557 27:-0.659621 28:0.931872 29:0.60256 30:0.936088 31:-0.696218 32:0.926551 33:0.572631 34:0.885279 35:-0.786698 36:0.908339 37:-0.570383 38:0.896927 39:-0.839954 40:0.893243 41:-0.558185 42:0.912118 43:-0.853744 44:0.878838 45:-0.675464 46:0.960274 47:-0.885836 48:0.968 49:-0.640288 50:0.974957 51:-0.854498 52:0.985011 53:-0.736056 54:0.983591 55:-0.923508 56:0.992384 57:-0.737194 58:0.985191 59:-0.92933 60:0.990479 61:-0.694909 62:0.984131 63:-0.900254 64:0.98758 65:-0.824492 66:0.989153 67:-0.964085 68:0.993159 69:-0.896689 70:0.9883 71:-0.986282 72:0.993062 73:-0.85883 74:0.991886 75:-0.978587 76:0.996806 77:-0.69507 78:0.989404 79:-0.913216 80:0.996126 81:-0.597489 82:0.972669 83:-0.889776 84:0.992545 85:0.517663 86:0.952608 87:-0.888822 88:0.989694 89:0.5 90:0.951068 91:-0.823399 92:0.98939 93:0.605231 94:0.919077 95:-0.726966 96:0.96252 97:-0.562416 98:0.894133 99:-0.830884 100:0.93415 101:-0.667496 102:0.956587 103:-0.83172 104:0.963692 105:-0.565679 106:0.953548 107:-0.72649 108:0.962669 109:-0.715424 110:0.953548 111:-0.780195 112:0.962669 113:0.537606 114:0.940305 115:-0.606921 116:0.931064 117:-0.539999 118:0.897329 119:-0.743363 120:0.913671 121:-0.619371 122:0.929424 123:-0.753268 124:0.951211 125:-0.525116 126:0.931342 127:-0.639892 128:0.943105 129:-0.513905 130:0.922533 131:-0.76053 132:0.940996 133:0.514236 134:0.956875 135:-0.756441 136:0.958132 137:0.803712 138:0.973251 139:0.5 140:0.967486 141:0.723731 142:0.986289 143:-0.637571 144:0.992346 145:0.711411 146:0.965476 147:-0.588946 148:0.983747 149:0.5 150:0.990372 151:-0.73532 152:0.996822 153:-0.526777 154:0.980845 155:-0.745661 156:0.995504 157:0.701483 158:0.982861 159:0.567063 160:0.996351 161:0.550118 162:0.986528 163:-0.652749 164:0.997933 165:0.530561 166:0.991864 167:-0.716629 168:0.997904 169:-0.724417 170:0.986368 171:-0.909188 172:0.997237 173:-0.722625 174:0.97243 175:-0.895711 176:0.996514 177:-0.846309 178:0.925675 179:-0.948668 180:0.983903 181:-0.733702 182:0.876997 183:-0.927313 184:0.970113 185:-0.67984 186:0.727529 187:-0.892371 188:0.933472 189:-0.808326 190:0.59106 191:-0.959026 192:0.893019 193:-0.824217 194:0.605234 195:-0.976899 196:0.888262 197:-0.824217 198:-0.648014 199:-0.976899 200:0.756921 201:-0.863126 202:-0.507004 203:-0.98507 204:0.835486 205:-0.952679 206:-0.760057 207:-0.995091 208:0.601984 209:-0.920639 210:-0.678694 211:-0.989719 212:0.722664 213:-0.889898 214:-0.603174 215:-0.988125 216:0.767756 217:-0.955489 218:-0.506285 219:-0.996347 220:0.808875 221:-0.920411 222:-0.520845 223:-0.992726 224:0.82232 225:-0.904938 226:-0.569998 227:-0.98803 228:0.813476 229:-0.97347 230:-0.569998 231:-0.997079 232:0.813476 233:-0.967872 234:-0.720406 235:-0.995048 236:0.752076 237:-0.952415 238:-0.657678 239:-0.989893 240:0.811154 
0.460987108270975 0.3529338355144286 1:0.945492 2:0.867099 3:0.701907 4:0.937968 5:0.938556 6:0.93243 7:0.567182 8:0.973207 9:0.956175 10:0.979234 11:0.739262 12:0.996911 13:0.928995 14:0.944382 15:0.537656 16:0.994265 17:0.794357 18:0.95993 19:-0.752814 20:0.992856 21:0.797905 22:0.926102 23:-0.794293 24:0.984925 25:0.799675 26:0.953815 27:-0.824662 28:0.991949 29:0.647727 30:0.957841 31:-0.931996 32:0.990151 33:-0.544253 34:0.973227 35:-0.950451 36:0.994252 37:0.588567 38:0.982188 39:-0.907486 40:0.996388 41:0.663812 42:0.985581 43:-0.845562 44:0.995403 45:0.669354 46:0.963899 47:-0.86218 48:0.986103 49:0.629877 50:0.919002 51:-0.905086 52:0.958648 53:0.605555 54:0.878062 55:-0.922587 56:0.949753 57:0.534706 58:0.916777 59:-0.957027 60:0.968732 61:0.628925 62:0.939457 63:-0.926051 64:0.97962 65:-0.6065 66:0.951063 67:-0.968795 68:0.976804 69:-0.758794 70:0.953562 71:-0.978891 72:0.98238 73:-0.900799 74:0.80046 75:-0.993325 76:0.92509 77:-0.818341 78:0.75524 79:-0.984804 80:0.911526 81:-0.705311 82:0.75524 83:-0.97329 84:0.911526 85:-0.705311 86:0.859219 87:-0.97329 88:0.936379 89:-0.84464 90:0.729371 91:-0.980203 92:0.854923 93:-0.908433 94:-0.699782 95:-0.981051 96:0.549657 97:-0.931413 98:-0.87836 99:-0.978116 100:-0.78321 101:-0.94622 102:-0.920679 103:-0.986536 104:-0.861433 105:-0.915523 106:-0.958615 107:-0.967512 108:-0.875038 109:-0.915453 110:-0.984597 111:-0.955743 112:-0.945255 113:-0.954013 114:-0.980402 115:-0.956214 116:-0.897176 117:-0.979277 118:-0.987286 119:-0.978155 120:-0.948017 121:-0.97118 122:-0.986979 123:-0.943211 124:-0.946486 125:-0.950089 126:-0.987029 127:-0.945517 128:-0.937696 129:-0.981601 130:-0.988855 131:-0.974579 132:-0.952536 133:-0.99281 134:-0.995491 135:-0.993514 136:-0.978216 137:-0.991 138:-0.997384 139:-0.989495 140:-0.988675 141:-0.993013 142:-0.999993 143:-0.991338 144:-0.996703 145:-0.997136 146:-0.999991 147:-0.995348 148:-0.995671 149:-0.999994 150:-0.999985 151:-0.996347 152:-0.991904 153:-0.999999 154:-0.999989 155:-0.999997 156:-0.992379 157:-0.999999 158:-0.999994 159:-0.999998 160:-0.995934 161:-0.999995 162:-0.999999 163:-0.999988 164:-0.999991 165:-0.997129 166:-1 167:-0.996402 168:-0.999998 169:-0.997129 170:-1 171:-0.996402 172:-1 173:-0.999992 174:-1 175:-0.99694 176:-1 177:-0.999992 178:-1 179:-0.99694 180:-1 181:-0.999981 182:-1 183:-0.994548 184:-1 185:-0.993745 186:-1 187:-0.990727 188:-1 189:-0.986782 190:-1 191:-0.986579 192:-1 193:-0.993485 194:-1 195:-0.989275 196:-1 197:-0.997322 198:-1 199:-0.994384 200:-1 201:-0.994755 202:-1 203:-0.986791 204:-1 205:-0.98212 206:-1 207:-0.969352 208:-1 209:-0.951449 210:-1 211:-0.925411 212:-1 213:-0.969305 214:-1 215:-0.951706 216:-1 217:-0.940714 218:-1 219:-0.883517 220:-1 221:-0.830387 222:-1 223:-0.736192 224:-1 225:-0.755041 226:-1 227:0.541529 228:-1 229:-0.773351 230:-1 231:0.535482 232:-1 233:-0.790722 234:-1 235:0.642168 236:-0.999999 237:-0.80657 238:-1 239:0.570964 240:-0.999998 
0.5968807647656225 0.6544567976850032 1:0.973086 2:0.998503 3:0.810155 4:0.998389 5:0.920746 6:0.998023 7:0.681973 8:0.996872 9:0.727163 10:0.995459 11:-0.718533 12:0.993035 13:0.697933 14:0.994293 15:-0.761732 16:0.992183 17:0.61377 18:0.994148 19:-0.871976 20:0.989483 21:0.610639 22:0.992861 23:-0.90205 24:0.982916 25:0.687645 26:0.997321 27:-0.834347 28:0.997131 29:0.756049 30:0.997141 31:-0.737527 32:0.996039 33:0.565488 34:0.994791 35:-0.864691 36:0.992594 37:0.615074 38:0.994678 39:-0.83359 40:0.990377 41:0.668637 42:0.994544 43:-0.766782 44:0.987369 45:0.53005 46:0.983507 47:-0.891689 48:0.971244 49:-0.520205 50:0.965111 51:-0.917367 52:0.954577 53:-0.58885 54:0.966669 55:-0.936198 56:0.945362 57:-0.542429 58:0.967979 59:-0.901495 60:0.936862 61:0.512332 62:0.969084 63:-0.838403 64:0.923875 65:-0.552596 66:0.970022 67:-0.865443 68:0.908264 69:-0.549952 70:0.984711 71:-0.79691 72:0.938143 73:-0.61622 74:0.983805 75:-0.862004 76:0.938122 77:-0.61622 78:0.896093 79:-0.862004 80:0.640681 81:-0.61622 82:0.858306 83:-0.862004 84:-0.561833 85:-0.67092 86:0.878161 87:-0.907904 88:-0.527581 89:-0.509925 90:0.716489 91:-0.815904 92:-0.845511 93:-0.556554 94:0.658152 95:-0.864676 96:-0.854731 97:-0.559985 98:0.730093 99:-0.843846 100:-0.726367 101:0.729793 102:0.710994 103:-0.593741 104:-0.692252 105:0.563376 106:0.650799 107:-0.669896 108:-0.720208 109:0.628936 110:-0.65836 111:-0.524512 112:-0.930642 113:0.681108 114:-0.668149 115:0.615012 116:-0.934125 117:0.628936 118:-0.798044 119:-0.524512 120:-0.952611 121:-0.532644 122:-0.72596 123:-0.722482 124:-0.95901 125:0.629492 126:-0.760132 127:-0.555513 128:-0.960265 129:0.684826 130:-0.907168 131:-0.521056 132:-0.990303 133:-0.507685 134:-0.943927 135:-0.672564 136:-0.996169 137:0.520311 138:-0.873026 139:-0.542623 140:-0.981943 141:0.511955 142:-0.873026 143:-0.538831 144:-0.981943 145:0.532917 146:-0.97099 147:-0.551854 148:-0.996609 149:-0.666933 150:-0.971796 151:-0.66122 152:-0.99668 153:-0.663768 154:-0.986554 155:-0.647588 156:-0.999987 157:-0.797165 158:-0.992881 159:-0.856497 160:-0.999999 161:-0.661197 162:-0.9965 163:-0.736593 164:-1 165:-0.797354 166:-0.99251 167:-0.805097 168:-0.999998 169:-0.881559 170:-0.995569 171:-0.871422 172:-0.999999 173:-0.885189 174:-0.995085 175:-0.840592 176:-0.999999 177:-0.838 178:-0.981049 179:-0.736293 180:-0.997291 181:-0.890631 182:-0.964318 183:-0.78068 184:-0.995898 185:-0.868399 186:-0.959873 187:-0.75188 188:-0.996078 189:-0.67662 190:-0.983886 191:-0.528502 192:-0.999989 193:-0.569884 194:-0.984771 195:0.630618 196:-0.999992 197:0.545663 198:-0.985222 199:0.709525 200:-0.999992 201:0.5 202:-0.984589 203:0.58893 204:-0.999988 205:0.541757 206:-0.978011 207:0.653352 208:-0.995935 209:0.509386 210:-0.934629 211:0.708878 212:-0.982087 213:0.755403 214:-0.935565 215:0.883639 216:-0.984655 217:0.509386 218:-0.881542 219:0.708878 220:-0.943546 221:-0.738913 222:-0.810007 223:-0.542078 224:-0.926635 225:-0.706601 226:-0.810007 227:-0.570371 228:-0.926635 229:-0.579723 230:-0.853743 231:-0.55395 232:-0.966903 233:-0.579723 234:-0.939742 235:-0.55395 236:-0.986316 237:-0.773976 238:-0.939742 239:-0.812006 240:-0.986316 
0.1717004175986128 0.4699992001986439 1:-0.687867 2:0.952001 3:-0.771663 4:0.934115 5:-0.623624 6:0.986657 7:-0.712568 8:0.991226 9:-0.605978 10:0.987415 11:-0.757924 12:0.98657 13:-0.616697 14:0.995631 15:-0.810801 16:0.997525 17:0.574351 18:0.991797 19:-0.625391 20:0.9949 21:-0.579316 22:0.991863 23:-0.835891 24:0.994114 25:-0.699327 26:0.992834 27:-0.929482 28:0.992471 29:-0.702808 30:0.992077 31:-0.939282 32:0.9899 33:-0.784898 34:0.995028 35:-0.970885 36:0.995257 37:-0.725463 38:0.994848 39:-0.947227 40:0.99417 41:-0.678285 42:0.997609 43:-0.933821 44:0.998392 45:-0.545245 46:0.998334 47:-0.872125 48:0.999098 49:-0.562021 50:0.995139 51:-0.883511 52:0.996899 53:-0.695276 54:0.99501 55:-0.948858 56:0.996217 57:-0.529755 58:0.994868 59:-0.917483 60:0.995316 61:-0.749073 62:0.994938 63:-0.974738 64:0.994419 65:-0.842802 66:0.994763 67:-0.989922 68:0.993092 69:-0.88021 70:0.995533 71:-0.988055 72:0.995679 73:-0.768035 74:0.987393 75:-0.974341 76:0.992073 77:-0.624385 78:0.975495 79:-0.934622 80:0.988087 81:-0.784293 82:0.986768 83:-0.961352 84:0.990901 85:-0.838523 86:0.983243 87:-0.970339 88:0.989268 89:-0.867975 90:0.983243 91:-0.986295 92:0.989268 93:-0.811982 94:0.923504 95:-0.980762 96:0.943599 97:-0.791781 98:0.862746 99:-0.975499 100:0.831417 101:-0.792629 102:0.873539 103:-0.971906 104:0.835867 105:-0.753386 106:0.878043 107:-0.956579 108:0.862096 109:-0.899054 110:0.981967 111:-0.990092 112:0.983397 113:-0.906736 114:0.982001 115:-0.981543 116:0.983149 117:-0.815583 118:0.96749 119:-0.948043 120:0.977977 121:-0.721901 122:0.79857 123:-0.887325 124:0.825149 125:-0.631439 126:0.600713 127:-0.824057 128:0.730185 129:-0.681398 130:-0.655029 131:-0.900143 132:0.577654 133:-0.681398 134:-0.881981 135:-0.900143 136:-0.817472 137:-0.66125 138:-0.911235 139:-0.911927 140:-0.894864 141:-0.82923 142:-0.909367 143:-0.946117 144:-0.889828 145:-0.850066 146:-0.990694 147:-0.921735 148:-0.993588 149:-0.886014 150:-0.992941 151:-0.917636 152:-0.994191 153:-0.757889 154:-0.995991 155:-0.728311 156:-0.994483 157:-0.757889 158:-0.996822 159:-0.728311 160:-0.995402 161:-0.537048 162:-0.999983 163:-0.574145 164:-0.995758 165:-0.729967 166:-0.999994 167:-0.64518 168:-0.99999 169:-0.849303 170:-0.999999 171:-0.737677 172:-0.999997 173:-0.897766 174:-1 175:-0.844777 176:-1 177:-0.875277 178:-1 179:-0.792968 180:-1 181:-0.688913 182:-1 183:0.50659 184:-1 185:-0.584003 186:-1 187:0.529285 188:-1 189:-0.584003 190:-1 191:0.529285 192:-1 193:-0.655143 194:-1 195:0.5 196:-1 197:-0.747578 198:-1 199:-0.51893 200:-1 201:-0.634571 202:-1 203:0.770794 204:-1 205:0.617469 206:-1 207:0.858027 208:-1 209:0.5 210:-1 211:0.822212 212:-1 213:-0.75015 214:-1 215:0.587279 216:-1 217:-0.873456 218:-1 219:-0.509264 220:-1 221:-0.939303 222:-1 223:-0.676757 224:-1 225:-0.962094 226:-1 227:-0.73969 228:-1 229:-0.977797 230:-1 231:-0.85068 232:-1 233:-0.981744 234:-1 235:-0.8859 236:-1 237:-0.991596 238:-1 239:-0.963375 240:-1 
0.01446185235313 0 1:0.825848 2:0.997305 3:-0.811689 4:0.999528 5:0.664224 6:0.990576 7:-0.938057 8:0.998643 9:0.64029 10:0.991271 11:-0.952293 12:0.998439 13:-0.65772 14:0.982351 15:-0.976729 16:0.995896 17:-0.770699 18:0.99003 19:-0.98994 20:0.998287 21:-0.615869 22:0.971965 23:-0.97503 24:0.995608 25:-0.756486 26:0.972055 27:-0.980812 28:0.993897 29:-0.6935 30:0.976335 31:-0.973229 32:0.993332 33:-0.608734 34:0.942082 35:-0.943991 36:0.98392 37:-0.609886 38:0.878138 39:-0.952659 40:0.960855 41:-0.734148 42:0.889838 43:-0.962849 44:0.946506 45:-0.690403 46:0.893001 47:-0.947122 48:0.937461 49:-0.832342 50:0.901151 51:-0.975011 52:0.915093 53:-0.911676 54:0.908267 55:-0.983326 56:0.916358 57:-0.946532 58:0.939344 59:-0.985786 60:0.957239 61:-0.919847 62:0.942687 63:-0.973599 64:0.941218 65:-0.943072 66:0.94588 67:-0.981418 68:0.940205 69:-0.965802 70:0.969282 71:-0.990933 72:0.955526 73:-0.932678 74:0.966624 75:-0.978656 76:0.944734 77:-0.935289 78:0.935958 79:-0.979428 80:0.926367 81:-0.930083 82:0.744088 83:-0.975008 84:0.652469 85:-0.927487 86:0.61395 87:-0.982221 88:0.561921 89:-0.95547 90:0.61395 91:-0.987924 92:0.561921 93:-0.911976 94:0.556016 95:-0.962555 96:-0.554567 97:-0.907614 98:-0.56304 99:-0.934014 100:-0.59993 101:-0.908108 102:0.578242 103:-0.906457 104:-0.578985 105:-0.717239 106:0.667987 107:-0.768037 108:0.542753 109:0.548863 110:0.752731 111:0.613345 112:0.62544 113:-0.592339 114:0.595626 115:-0.605701 116:-0.673696 117:0.593292 118:-0.739035 119:0.578627 120:-0.934363 121:-0.583086 122:-0.915984 123:-0.516996 124:-0.984281 125:-0.768795 126:-0.900523 127:-0.770939 128:-0.979236 129:-0.858372 130:-0.974573 131:-0.855766 132:-0.997216 133:-0.729513 134:-0.974573 135:-0.784908 136:-0.997216 137:-0.853196 138:-0.929327 139:-0.873426 140:-0.990649 141:-0.791315 142:-0.900303 143:-0.794608 144:-0.985185 145:-0.791315 146:-0.922844 147:-0.794608 148:-0.990011 149:-0.791315 150:-0.968798 151:-0.794608 152:-0.995817 153:-0.711104 154:-0.968798 155:-0.65078 156:-0.995817 157:-0.787082 158:-0.966373 159:-0.778195 160:-0.996398 161:-0.807636 162:-0.986941 163:-0.81247 164:-0.99999 165:-0.90644 166:-0.975125 167:-0.871087 168:-0.996292 169:-0.956079 170:-0.928658 171:-0.936326 172:-0.98456 173:-0.972671 174:-0.902423 175:-0.944335 176:-0.968992 177:-0.979722 178:-0.978181 179:-0.9562 180:-0.992592 181:-0.98676 182:-0.977738 183:-0.956876 184:-0.991494 185:-0.994434 186:-0.97481 187:-0.981301 188:-0.991764 189:-0.991915 190:-0.99665 191:-0.980837 192:-0.999998 193:-0.991116 194:-0.99623 195:-0.988019 196:-0.999997 197:-0.997307 198:-0.994374 199:-0.994538 200:-0.999989 201:-0.999995 202:-0.999996 203:-0.997397 204:-1 205:-0.999987 206:-0.999997 207:-0.995036 208:-1 209:-0.999997 210:-0.999987 211:-0.996902 212:-0.999998 213:-0.999988 214:-0.989453 215:-0.993496 216:-0.993802 217:-0.996635 218:-0.980569 219:-0.989907 220:-0.992112 221:-0.99623 222:-0.989142 223:-0.982394 224:-0.99437 225:-0.999993 226:-0.989142 227:-0.992405 228:-0.99437 229:-0.996929 230:-0.976917 231:-0.989075 232:-0.984217 233:-0.997473 234:-0.986193 235:-0.995851 236:-0.98705 237:-0.994043 238:-0.992356 239:-0.991333 240:-0.991936 
0.1100535298250652 0.08375763239267345 1:0.942834 2:0.9862 3:0.573905 4:0.98978 5:0.949565 6:0.986099 7:0.6217 8:0.98422 9:0.971056 10:0.963373 11:0.790703 12:0.975448 13:0.929553 14:0.981034 15:-0.534042 16:0.990098 17:0.925467 18:0.981512 19:-0.606073 20:0.985539 21:0.933322 22:0.993337 23:-0.550291 24:0.997801 25:0.938042 26:0.984364 27:0.510259 28:0.995297 29:0.912745 30:0.985744 31:-0.653669 32:0.994784 33:0.906969 34:0.985172 35:-0.716758 36:0.993049 37:0.916614 38:0.991014 39:-0.667308 40:0.99635 41:0.854668 42:0.994243 43:-0.830483 44:0.997912 45:0.901021 46:0.997269 47:-0.740529 48:0.99945 49:0.796345 50:0.997281 51:-0.848321 52:0.999325 53:0.82296 54:0.995394 55:-0.807879 56:0.998813 57:0.77229 58:0.996717 59:-0.886523 60:0.999217 61:0.77229 62:0.994399 63:-0.886523 64:0.998968 65:0.532519 66:0.994993 67:-0.969902 68:0.998667 69:-0.720064 70:0.997397 71:-0.987237 72:0.999122 73:0.519015 74:0.993348 75:-0.954538 76:0.998437 77:-0.618652 78:0.996648 79:-0.979358 80:0.998967 81:-0.654093 82:0.995357 83:-0.979858 84:0.998147 85:0.524636 86:0.985713 87:-0.943478 88:0.993724 89:-0.591425 90:0.972308 91:-0.968115 92:0.991818 93:-0.620924 94:0.983901 95:-0.957871 96:0.992141 97:-0.754506 98:0.987451 99:-0.968905 100:0.995823 101:-0.851062 102:0.975705 103:-0.985681 104:0.984387 105:-0.841815 106:0.985603 107:-0.970556 108:0.985236 109:-0.748942 110:0.969334 111:-0.937395 112:0.980401 113:-0.778707 114:0.955489 115:-0.948567 116:0.959022 117:-0.78225 118:0.95334 119:-0.950368 120:0.958181 121:-0.75531 122:0.963452 123:-0.935405 124:0.976238 125:-0.745036 126:0.939352 127:-0.929211 128:0.921084 129:-0.851023 130:0.904968 131:-0.948592 132:0.872322 133:-0.840264 134:0.849006 135:-0.908828 136:0.860653 137:-0.881857 138:0.849006 139:-0.931295 140:0.860653 141:-0.814692 142:0.948324 143:-0.921389 144:0.961401 145:-0.782092 146:0.948324 147:-0.900599 148:0.961401 149:-0.881191 150:0.917323 151:-0.941627 152:0.961874 153:-0.944315 154:0.5 155:-0.972124 156:0.579264 157:-0.89143 158:-0.614275 159:-0.926843 160:-0.532287 161:-0.897324 162:-0.614275 163:-0.958989 164:-0.532287 165:-0.917011 166:-0.614275 167:-0.976153 168:-0.532287 169:-0.958745 170:-0.614275 171:-0.985289 172:-0.532287 173:-0.947402 174:-0.614275 175:-0.968485 176:-0.532287 177:-0.969891 178:-0.849462 179:-0.979471 180:-0.840492 181:-0.984174 182:-0.89909 183:-0.985851 184:-0.868092 185:-0.976476 186:-0.794692 187:-0.984459 188:-0.715654 189:-0.96176 190:-0.845876 191:-0.981827 192:-0.840574 193:-0.955517 194:-0.75637 195:-0.979912 196:-0.841385 197:-0.964892 198:-0.871534 199:-0.989821 200:-0.894251 201:-0.97575 202:-0.857439 203:-0.992377 204:-0.893503 205:-0.970199 206:-0.616732 207:-0.991475 208:-0.674285 209:-0.97575 210:-0.900885 211:-0.992377 212:-0.909061 213:-0.981319 214:-0.936403 215:-0.993836 216:-0.919874 217:-0.991318 218:-0.814376 219:-0.995634 220:-0.765831 221:-0.973221 222:-0.823603 223:-0.988904 224:-0.737935 225:-0.95449 226:-0.822697 227:-0.986214 228:-0.723859 229:-0.980042 230:-0.920657 231:-0.992057 232:-0.854928 233:-0.964268 234:-0.953848 235:-0.982313 236:-0.893813 237:-0.966777 238:-0.956078 239:-0.982172 240:-0.912051 
0.1203581066980972 0.4573190153497489 1:0.5 2:0.582603 3:-0.878124 4:0.59869 5:-0.526521 6:0.772985 7:-0.920248 8:0.816472 9:-0.5223 10:0.595375 11:-0.928013 12:0.634954 13:-0.517234 14:0.760483 15:-0.933363 16:0.818007 17:0.713098 18:0.90823 19:-0.81109 20:0.96585 21:0.516972 22:0.85481 23:-0.864308 24:0.934611 25:0.519431 26:0.878193 27:-0.872887 28:0.930896 29:0.526328 30:0.893601 31:-0.84669 32:0.920908 33:0.525524 34:0.875807 35:-0.858879 36:0.915496 37:-0.629482 38:0.901957 39:-0.938946 40:0.927251 41:0.552411 42:0.832348 43:-0.862138 44:0.85285 45:-0.569226 46:0.847659 47:-0.889396 48:0.841002 49:-0.743028 50:0.765722 51:-0.945012 52:0.838201 53:-0.771439 54:0.639557 55:-0.963588 56:0.756214 57:-0.735711 58:0.678 59:-0.961679 60:0.737515 61:-0.835944 62:0.731677 63:-0.977764 64:0.759996 65:-0.787637 66:0.855558 67:-0.962034 68:0.916853 69:-0.786678 70:0.910792 71:-0.954785 72:0.943139 73:-0.888194 74:0.955798 75:-0.965426 76:0.965504 77:-0.921563 78:0.927054 79:-0.96868 80:0.938751 81:-0.865801 82:0.957007 83:-0.93927 84:0.957815 85:-0.913337 86:0.969469 87:-0.969129 88:0.977708 89:-0.952448 90:0.969469 91:-0.981723 92:0.977708 93:-0.916812 94:0.978396 95:-0.963917 96:0.987675 97:-0.894306 98:0.974106 99:-0.929628 100:0.977596 101:-0.819237 102:0.968234 103:-0.863581 104:0.956096 105:-0.873058 106:0.929867 107:-0.924827 108:0.917176 109:-0.966621 110:0.933181 111:-0.983545 112:0.922279 113:-0.944379 114:0.933139 115:-0.980726 116:0.927488 117:-0.900354 118:0.927683 119:-0.958771 120:0.908237 121:-0.852179 122:0.841722 123:-0.943296 124:0.842101 125:-0.925528 126:0.81311 127:-0.963962 128:0.717397 129:-0.916621 130:0.89465 131:-0.934396 132:0.75652 133:-0.938791 134:0.957204 135:-0.945965 136:0.892627 137:-0.892852 138:0.894795 139:-0.903502 140:0.728343 141:-0.924391 142:0.881961 143:-0.936318 144:0.787304 145:-0.768563 146:0.857702 147:-0.786857 148:0.611931 149:-0.768563 150:0.645968 151:-0.786857 152:-0.724388 153:-0.792796 154:0.748517 155:-0.854826 156:-0.701764 157:-0.804171 158:0.768296 159:-0.860735 160:-0.729336 161:-0.7837 162:0.862163 163:-0.811963 164:0.598198 165:-0.529607 166:0.878001 167:-0.620682 168:0.59943 169:-0.632266 170:0.853384 171:-0.770274 172:0.621236 173:-0.760244 174:0.948545 175:-0.870594 176:0.920941 177:-0.53245 178:0.927066 179:-0.591017 180:0.92813 181:0.536715 182:0.951643 183:-0.633302 184:0.911527 185:-0.679413 186:0.978037 187:-0.797183 188:0.922497 189:-0.670864 190:0.962407 191:-0.803388 192:0.918506 193:-0.854674 194:0.929352 195:-0.951224 196:0.908328 197:-0.884247 198:0.863546 199:-0.951139 200:0.686352 201:-0.795512 202:0.90334 203:-0.897256 204:0.773392 205:-0.699724 206:0.840294 207:-0.792686 208:0.729868 209:-0.900918 210:0.840294 211:-0.950824 212:0.729868 213:-0.898084 214:0.870545 215:-0.956874 216:0.856632 217:-0.815292 218:0.656985 219:-0.934661 220:0.518837 221:-0.793198 222:0.829126 223:-0.947403 224:0.70979 225:-0.792812 226:0.645151 227:-0.9451 228:0.509664 229:-0.803544 230:-0.548872 231:-0.949419 232:-0.599232 233:-0.648773 234:-0.733845 235:-0.915706 236:-0.678308 237:-0.646802 238:0.565017 239:-0.922798 240:0.703158 
0.04993066302933998 0.112795106009138 1:0.876582 2:0.993983 3:-0.556095 4:0.988105 5:0.77241 6:0.993182 7:-0.770297 8:0.979661 9:0.649856 10:0.996235 11:-0.878125 12:0.992071 13:0.800139 14:0.998719 15:-0.729284 16:0.998929 17:0.754183 18:0.998446 19:-0.775762 20:0.998035 21:0.558702 22:0.998075 23:-0.844707 24:0.99638 25:0.638385 26:0.998184 27:-0.752542 28:0.99613 29:0.635223 30:0.998828 31:-0.78883 32:0.998024 33:-0.520373 34:0.999197 35:-0.913205 36:0.998885 37:0.549573 38:0.99802 39:-0.863552 40:0.997834 41:0.609502 42:0.997716 43:-0.799591 44:0.996568 45:0.5 46:0.992323 47:-0.843604 48:0.990273 49:-0.581599 50:0.994896 51:-0.910878 52:0.994456 53:-0.706327 54:0.989379 55:-0.955877 56:0.990081 57:-0.70352 58:0.990774 59:-0.939153 60:0.988442 61:-0.771483 62:0.984187 63:-0.95353 64:0.980022 65:-0.81589 66:0.974021 67:-0.960684 68:0.975071 69:-0.791912 70:0.986662 71:-0.956984 72:0.985115 73:-0.875788 74:0.986662 75:-0.966896 76:0.985115 77:-0.805993 78:0.994408 79:-0.937305 80:0.992742 81:-0.802797 82:0.992649 83:-0.909951 84:0.993435 85:-0.89072 86:0.993286 87:-0.950759 88:0.994449 89:-0.783855 90:0.993286 91:-0.880492 92:0.994449 93:-0.736159 94:0.99087 95:-0.851832 96:0.990008 97:-0.682578 98:0.976827 99:-0.808177 100:0.981675 101:-0.780961 102:0.962459 103:-0.856472 104:0.979209 105:-0.741735 106:0.971576 107:-0.830443 108:0.988657 109:-0.741735 110:0.971576 111:-0.830443 112:0.988657 113:-0.70041 114:0.981798 115:-0.817634 116:0.995014 117:-0.868056 118:0.974498 119:-0.928427 120:0.989879 121:-0.880144 122:0.975135 123:-0.944611 124:0.990777 125:-0.880144 126:0.975135 127:-0.944611 128:0.990777 129:-0.946622 130:0.976475 131:-0.984127 132:0.992149 133:-0.958756 134:0.991248 135:-0.989931 136:0.996998 137:-0.940396 138:0.995626 139:-0.988853 140:0.99922 141:-0.940396 142:0.993746 143:-0.988853 144:0.998668 145:-0.907266 146:0.980079 147:-0.978599 148:0.993037 149:-0.893921 150:0.968142 151:-0.977421 152:0.98993 153:-0.935326 154:0.94616 155:-0.989947 156:0.982997 157:-0.951222 158:0.958076 159:-0.996064 160:0.991096 161:-0.941 162:0.870132 163:-0.994905 164:0.965971 165:-0.867402 166:0.710294 167:-0.988248 168:0.909537 169:-0.886634 170:0.832683 171:-0.988622 172:0.930868 173:-0.906421 174:0.744832 175:-0.991515 176:0.922692 177:-0.821771 178:0.887928 179:-0.982574 180:0.957336 181:-0.8651 182:0.687851 183:-0.980828 184:0.847987 185:-0.949853 186:0.820036 187:-0.991616 188:0.903851 189:-0.949667 190:0.808623 191:-0.991471 192:0.908215 193:-0.911726 194:0.87407 195:-0.987667 196:0.939401 197:-0.969322 198:0.82108 199:-0.994969 200:0.887198 201:-0.969352 202:0.82108 203:-0.992119 204:0.887198 205:-0.942285 206:0.615572 207:-0.989189 208:0.771888 209:-0.866027 210:0.547613 211:-0.977444 212:0.58977 213:-0.833889 214:-0.570908 215:-0.96717 216:0.55978 217:-0.7661 218:0.581529 219:-0.908057 220:0.653391 221:-0.589176 222:0.539393 223:-0.775164 224:0.664023 225:-0.59662 226:-0.685308 227:-0.653832 228:0.519098 229:-0.59662 230:0.53565 231:-0.653832 232:0.683493 233:-0.775511 234:-0.725826 235:-0.794923 236:-0.653034 237:-0.798407 238:-0.789734 239:-0.846 240:-0.784871 
0.258649717906912 0.348140204337483 1:-0.590374 2:0.989782 3:-0.792895 4:0.970445 5:-0.634514 6:0.990672 7:-0.871974 8:0.947036 9:-0.807191 10:0.990068 11:-0.967267 12:0.945867 13:-0.601993 14:0.990018 15:-0.916779 16:0.947252 17:-0.758482 18:0.989509 19:-0.972103 20:0.943686 21:-0.839053 22:0.989115 23:-0.975924 24:0.939815 25:-0.837696 26:0.988707 27:-0.977746 28:0.937619 29:-0.793046 30:0.995624 31:-0.970716 32:0.986798 33:-0.877182 34:0.994737 35:-0.984403 36:0.983071 37:-0.83767 38:0.994373 39:-0.978345 40:0.975303 41:-0.898222 42:0.996524 43:-0.98715 44:0.989402 45:-0.863383 46:0.996906 47:-0.981743 48:0.988838 49:-0.935511 50:0.997187 51:-0.994851 52:0.987476 53:-0.881731 54:0.99691 55:-0.991458 56:0.985706 57:-0.927537 58:0.996706 59:-0.992918 60:0.98039 61:-0.96005 62:0.997716 63:-0.997007 64:0.989979 65:-0.892478 66:0.998311 67:-0.99235 68:0.993116 69:-0.741829 70:0.99937 71:-0.966688 72:0.997214 73:-0.868778 74:0.998962 75:-0.985214 76:0.996932 77:-0.951912 78:0.997199 79:-0.99352 80:0.994589 81:-0.95072 82:0.994525 83:-0.992446 84:0.994023 85:-0.954774 86:0.996092 87:-0.994148 88:0.996687 89:-0.965537 90:0.993063 91:-0.996663 92:0.988052 93:-0.90572 94:0.99546 95:-0.992379 96:0.994098 97:-0.90262 98:0.998632 99:-0.987165 100:0.998795 101:-0.931737 102:0.998632 103:-0.989247 104:0.998795 105:-0.965457 106:0.999273 107:-0.995563 108:0.999698 109:-0.91123 110:0.999338 111:-0.980845 112:0.999667 113:-0.87522 114:0.999404 115:-0.979933 116:0.999705 117:-0.915924 118:0.999422 119:-0.990043 120:0.999651 121:-0.942364 122:0.998895 123:-0.994027 124:0.99857 125:-0.931403 126:0.999304 127:-0.995049 128:0.998874 129:-0.951103 130:0.998576 131:-0.996445 132:0.995857 133:-0.856856 134:0.997174 135:-0.988148 136:0.994516 137:-0.797764 138:0.995068 139:-0.979525 140:0.994675 141:-0.734509 142:0.995068 143:-0.961519 144:0.994675 145:-0.734509 146:0.996896 147:-0.961519 148:0.997419 149:-0.600556 150:0.996768 151:-0.946769 152:0.997123 153:-0.707722 154:0.994985 155:-0.952801 156:0.995966 157:-0.810662 158:0.995368 159:-0.981095 160:0.995762 161:-0.836197 162:0.950943 163:-0.986778 164:0.92794 165:-0.731922 166:0.950943 167:-0.978161 168:0.92794 169:-0.578983 170:0.945257 171:-0.959327 172:0.932264 173:0.574355 174:0.878123 175:-0.914697 176:0.827939 177:0.520336 178:0.789046 179:-0.909286 180:0.809304 181:-0.568816 182:0.654371 183:-0.889068 184:0.783609 185:-0.652969 186:0.671503 187:-0.914518 188:0.766961 189:-0.775804 190:0.760666 191:-0.964115 192:0.879903 193:0.560429 194:0.5708 195:-0.845352 196:0.72408 197:0.574691 198:-0.637139 199:-0.840439 200:0.52626 201:-0.734773 202:-0.614444 203:-0.9583 204:0.574826 205:-0.818741 206:-0.705675 207:-0.96703 208:-0.560668 209:-0.710454 210:0.520506 211:-0.928041 212:0.638926 213:-0.614085 214:0.74281 215:-0.847033 216:0.804744 217:0.684385 218:0.658033 219:-0.524412 220:0.683489 221:0.710802 222:0.725975 223:0.517165 224:0.802434 225:-0.566015 226:0.772732 227:-0.714517 228:0.879892 229:-0.69779 230:-0.757027 231:-0.848381 232:-0.706294 233:-0.667354 234:-0.798957 235:-0.829417 236:-0.806282 237:-0.667354 238:-0.898773 239:-0.829417 240:-0.938246 
0 0.03817703225635605 1:0.576024 2:0.831574 3:-0.717716 4:0.867915 5:-0.730232 6:0.950941 7:-0.870616 8:0.982409 9:-0.671342 10:0.985249 11:-0.862021 12:0.997098 13:-0.569694 14:0.994813 15:-0.783682 16:0.99936 17:-0.788348 18:0.996702 19:-0.928189 20:0.999658 21:-0.790619 22:0.992806 23:-0.938865 24:0.999002 25:-0.871843 26:0.995126 27:-0.976041 28:0.999414 29:-0.917394 30:0.996545 31:-0.989305 32:0.999626 33:-0.943554 34:0.99839 35:-0.994613 36:0.999877 37:-0.93356 38:0.998763 39:-0.994351 40:0.999912 41:-0.895631 42:0.99902 43:-0.987333 44:0.999933 45:-0.881989 46:0.999203 47:-0.987203 48:0.999946 49:-0.907342 50:0.999322 51:-0.992736 52:0.999942 53:-0.89099 54:0.999405 55:-0.993094 56:0.999933 57:-0.827013 58:0.998843 59:-0.987305 60:0.99984 61:-0.865355 62:0.993216 63:-0.993386 64:0.998998 65:-0.894021 66:0.963606 67:-0.996279 68:0.994092 69:-0.83932 70:0.981872 71:-0.99324 72:0.996056 73:-0.764407 74:0.981872 75:-0.987202 76:0.996056 77:-0.581239 78:0.97086 79:-0.953941 80:0.987834 81:-0.708621 82:0.979982 83:-0.955248 84:0.992701 85:-0.883805 86:0.979982 87:-0.980343 88:0.992701 89:-0.938887 90:0.958639 91:-0.991443 92:0.986727 93:-0.947714 94:0.897765 95:-0.993761 96:0.96902 97:-0.844144 98:0.856776 99:-0.98179 100:0.940528 101:-0.924565 102:0.818632 103:-0.990271 104:0.899483 105:-0.90597 106:0.904611 107:-0.986226 108:0.95112 109:-0.90597 110:0.827832 111:-0.986226 112:0.940031 113:-0.913502 114:0.718372 115:-0.981255 116:0.897643 117:-0.866585 118:0.864712 119:-0.966168 120:0.960897 121:-0.75384 122:0.827914 123:-0.905123 124:0.947124 125:-0.638489 126:-0.531302 127:-0.826209 128:0.788316 129:-0.766517 130:-0.519675 131:-0.898575 132:0.762572 133:-0.766517 134:-0.634554 135:-0.898575 136:0.709119 137:-0.772966 138:-0.755928 139:-0.899204 140:-0.533209 141:-0.886992 142:-0.918362 143:-0.941099 144:-0.837876 145:-0.891815 146:-0.940399 147:-0.890608 148:-0.91321 149:-0.83204 150:-0.951443 151:-0.784867 152:-0.938954 153:-0.754331 154:-0.967236 155:-0.631324 156:-0.949639 157:-0.758595 158:-0.951665 159:-0.609292 160:-0.89734 161:-0.897215 162:-0.97775 163:-0.800994 164:-0.95781 165:-0.941649 166:-0.999987 167:-0.912419 168:-0.999986 169:-0.951841 170:-0.999998 171:-0.945894 172:-0.999997 173:-0.927768 174:-0.999999 175:-0.924293 176:-0.999999 177:-0.924789 178:-1 179:-0.96104 180:-1 181:-0.870469 182:-1 183:-0.913543 184:-0.999999 185:-0.857725 186:-1 187:-0.861999 188:-1 189:-0.952259 190:-1 191:-0.960635 192:-1 193:-0.919672 194:-0.999999 195:-0.942848 196:-0.999995 197:-0.940513 198:-0.999999 199:-0.972398 200:-0.999995 201:-0.860824 202:-0.999999 203:-0.938423 204:-0.999995 205:-0.811404 206:-1 207:-0.92621 208:-0.999996 209:-0.890555 210:-1 211:-0.940717 212:-0.999996 213:-0.962061 214:-1 215:-0.982197 216:-0.999996 217:-0.97929 218:-1 219:-0.982825 220:-0.999994 221:-0.936888 222:-1 223:-0.943073 224:-0.999989 225:-0.953001 226:-0.999999 227:-0.971242 228:-0.999982 229:-0.941714 230:-1 231:-0.95692 232:-0.999996 233:-0.946533 234:-1 235:-0.955936 236:-0.999999 237:-0.960224 238:-1 239:-0.979667 240:-1 
0 0.1808613620537796 1:0.511521 2:0.860322 3:-0.892986 4:0.995176 5:0.626934 6:0.928939 7:-0.778454 8:0.997707 9:-0.602109 10:0.964506 11:-0.939365 12:0.999148 13:-0.761484 14:0.905223 15:-0.980601 16:0.996497 17:-0.898659 18:0.933684 19:-0.993057 20:0.996496 21:-0.903231 22:0.930818 23:-0.994438 24:0.994102 25:-0.919564 26:0.972156 27:-0.996192 28:0.9986 29:-0.906977 30:0.919088 31:-0.996026 32:0.993984 33:-0.856332 34:0.865195 35:-0.991298 36:0.989372 37:-0.76747 38:0.921379 39:-0.983786 40:0.99499 41:-0.704413 42:0.93222 43:-0.971207 44:0.994664 45:-0.794573 46:0.957188 47:-0.986335 48:0.997176 49:-0.920382 50:0.959197 51:-0.995048 52:0.996841 53:-0.868421 54:0.974064 55:-0.989534 56:0.998171 57:-0.894875 58:0.947316 59:-0.994072 60:0.995656 61:-0.948828 62:0.919467 63:-0.997298 64:0.994202 65:-0.940385 66:0.866805 67:-0.997087 68:0.990897 69:-0.945345 70:0.883134 71:-0.999986 72:0.99419 73:-0.888775 74:0.647803 75:-0.996202 76:0.976101 77:-0.867167 78:0.769041 79:-0.994106 80:0.987203 81:-0.955651 82:0.793226 83:-0.99999 84:0.986862 85:-0.959281 86:0.694042 87:-0.997152 88:0.98311 89:-0.965156 90:-0.530947 91:-0.996864 92:0.966459 93:-0.964857 94:-0.541661 95:-0.994547 96:0.955926 97:-0.987505 98:-0.666439 99:-0.999991 100:0.929107 101:-0.978541 102:-0.666439 103:-0.995205 104:0.929107 105:-0.93231 106:-0.801931 107:-0.976461 108:0.785873 109:-0.880146 110:-0.888501 111:-0.933874 112:0.544024 113:-0.936822 114:-0.888501 115:-0.959223 116:0.544024 117:-0.85853 118:-0.792796 119:-0.880765 120:0.820011 121:-0.819485 122:-0.879862 123:-0.836922 124:0.559363 125:-0.798692 126:-0.975617 127:-0.833486 128:-0.869803 129:-0.847259 130:-0.973905 131:-0.890573 132:-0.888322 133:-0.89767 134:-0.956017 135:-0.948042 136:-0.860709 137:-0.89767 138:-0.981465 139:-0.948042 140:-0.953195 141:-0.866073 142:-0.976107 143:-0.933376 144:-0.918729 145:-0.928728 146:-0.972419 147:-0.954076 148:-0.913176 149:-0.885137 150:-0.987858 151:-0.910828 152:-0.953851 153:-0.818559 154:-0.974828 155:-0.888448 156:-0.851151 157:-0.819939 158:-0.986455 159:-0.844584 160:-0.954323 161:-0.905138 162:-0.967107 163:-0.933001 164:-0.882113 165:-0.856212 166:-0.968499 167:-0.878337 168:-0.852648 169:-0.856212 170:-0.958961 171:-0.878337 172:-0.77119 173:-0.804609 174:-0.953387 175:-0.863915 176:-0.730585 177:-0.713562 178:-0.968162 179:-0.849596 180:-0.856133 181:0.549497 182:-0.981559 183:-0.654932 184:-0.912825 185:-0.65091 186:-0.988145 187:-0.872408 188:-0.954462 189:-0.636471 190:-0.976202 191:-0.892296 192:-0.933154 193:-0.544782 194:-0.961949 195:-0.877597 196:-0.926596 197:-0.757001 198:-0.931296 199:-0.942378 200:-0.887815 201:-0.619859 202:-0.894976 203:-0.918947 204:-0.885539 205:-0.545828 206:-0.889316 207:-0.886483 208:-0.900356 209:-0.666042 210:-0.833596 211:-0.938666 212:-0.816425 213:-0.722553 214:-0.939031 215:-0.950352 216:-0.915986 217:-0.729493 218:-0.899139 219:-0.958153 220:-0.871451 221:-0.722553 222:-0.945373 223:-0.950352 224:-0.940274 225:-0.835948 226:-0.83255 227:-0.960496 228:-0.803974 229:-0.743552 230:-0.937108 231:-0.920982 232:-0.932878 233:-0.766347 234:-0.91816 235:-0.911322 236:-0.87794 237:-0.699921 238:-0.899816 239:-0.911681 240:-0.854193 
0.4841095821679272 0.5153239792211735 1:0.746471 2:0.942117 3:-0.857879 4:0.942728 5:0.828762 6:0.970901 7:-0.773288 8:0.978655 9:0.900927 10:0.983958 11:-0.544799 12:0.990625 13:0.681784 14:0.984495 15:-0.854016 16:0.986012 17:0.801082 18:0.990549 19:-0.691504 20:0.993012 21:0.786411 22:0.981446 23:-0.779869 24:0.991292 25:0.77341 26:0.988236 27:-0.83725 28:0.995045 29:0.761874 30:0.992425 31:-0.874641 32:0.997213 33:0.802519 34:0.993537 35:-0.83832 36:0.996049 37:0.790091 38:0.994329 39:-0.873734 40:0.994171 41:0.624622 42:0.987438 43:-0.940999 44:0.991576 45:0.625127 46:0.987422 47:-0.94926 48:0.988825 49:-0.514744 50:0.978752 51:-0.978218 52:0.981694 53:0.55238 54:0.985222 55:-0.966059 56:0.988893 57:0.55238 58:0.974726 59:-0.966059 60:0.983088 61:0.529855 62:0.982209 63:-0.941254 64:0.989222 65:0.5 66:0.991251 67:-0.954783 68:0.997042 69:0.736293 70:0.992307 71:-0.878289 72:0.996851 73:0.6996 74:0.987058 75:-0.91153 76:0.995524 77:0.804411 78:0.988887 79:-0.817437 80:0.997506 81:0.804411 82:0.983348 83:-0.817437 84:0.993932 85:0.721551 86:0.9918 87:-0.898354 88:0.995965 89:0.710399 90:0.995808 91:-0.883113 92:0.995159 93:0.804965 94:0.989503 95:-0.726515 96:0.991386 97:0.789921 98:0.986936 99:-0.757549 100:0.986668 101:0.700896 102:0.984122 103:-0.862018 104:0.9738 105:0.850341 106:0.974214 107:-0.663558 108:0.970907 109:0.850341 110:0.942481 111:-0.663558 112:0.938965 113:0.82258 114:0.965581 115:-0.611668 116:0.938547 117:0.739237 118:0.942481 119:-0.639429 120:0.938965 121:0.822905 122:0.951924 123:0.545777 124:0.965638 125:0.679703 126:0.9779 127:-0.649988 128:0.981991 129:0.5 130:0.93856 131:-0.737394 132:0.966583 133:0.693853 134:0.864478 135:-0.539474 136:0.946683 137:0.655762 138:0.817822 139:-0.614035 140:0.908358 141:0.721534 142:0.647723 143:-0.541264 144:0.826067 145:0.548944 146:0.715326 147:-0.765907 148:0.879696 149:-0.603648 150:-0.609774 151:-0.821233 152:0.639044 153:-0.62409 154:0.531295 155:-0.863826 156:0.664976 157:-0.562013 158:0.531295 159:-0.793878 160:0.664976 161:-0.787149 162:-0.558272 163:-0.936068 164:0.532438 165:-0.844304 166:-0.595682 167:-0.954951 168:0.550669 169:-0.920984 170:-0.62751 171:-0.971125 172:0.530072 173:-0.949322 174:-0.593069 175:-0.974944 176:0.525525 177:-0.901186 178:-0.589791 179:-0.941486 180:-0.511915 181:-0.864839 182:-0.591893 183:-0.925075 184:0.5 185:-0.887662 186:-0.682326 187:-0.95074 188:-0.687444 189:-0.907659 190:-0.875806 191:-0.952185 192:-0.884431 193:-0.843012 194:-0.885224 195:-0.903338 196:-0.904723 197:-0.922058 198:-0.940744 199:-0.949608 200:-0.973115 201:-0.903327 202:-0.910506 203:-0.939136 204:-0.948899 205:-0.909432 206:-0.972789 207:-0.961945 208:-0.985876 209:-0.921807 210:-0.97521 211:-0.959844 212:-0.989221 213:-0.955682 214:-0.98173 215:-0.981499 216:-0.994906 217:-0.882275 218:-0.980103 219:-0.953233 220:-0.995112 221:-0.876838 222:-0.993356 223:-0.962025 224:-0.999987 225:-0.938355 226:-0.984061 227:-0.969444 228:-0.995571 229:-0.946848 230:-0.985417 231:-0.971355 232:-0.995459 233:-0.924785 234:-0.991243 235:-0.950057 236:-0.996464 237:-0.937835 238:-0.985859 239:-0.947599 240:-0.996393 
0.3347330417081638 0.317147527027184 1:0.938324 2:0.847169 3:0.906536 4:0.72888 5:0.96607 6:0.866713 7:0.958248 8:0.704008 9:0.854025 10:0.883598 11:0.788767 12:0.680503 13:0.887297 14:0.782442 15:0.862715 16:0.635941 17:0.883602 18:0.677362 19:0.79769 20:0.5 21:0.879373 22:0.878132 23:0.725095 24:0.890613 25:0.851228 26:0.928963 27:0.657451 28:0.946363 29:0.870199 30:0.871761 31:0.671178 32:0.913678 33:0.842234 34:0.947 35:0.549448 36:0.981992 37:0.875258 38:0.978404 39:0.661679 40:0.995802 41:0.773324 42:0.9799 43:-0.597553 44:0.994939 45:0.769645 46:0.939071 47:-0.655236 48:0.985826 49:0.803791 50:0.944488 51:-0.643132 52:0.98207 53:0.664324 54:0.900656 55:-0.817796 56:0.970034 57:0.506259 58:0.909294 59:-0.91337 60:0.961525 61:-0.734974 62:0.923891 63:-0.961673 64:0.959098 65:-0.806906 66:0.882414 67:-0.971172 68:0.923237 69:-0.815043 70:0.897191 71:-0.981097 72:0.934111 73:-0.893629 74:0.833452 75:-0.985409 76:0.922621 77:-0.917513 78:0.877417 79:-0.991069 80:0.953084 81:-0.891356 82:0.792799 83:-0.988423 84:0.925258 85:-0.806662 86:0.916011 87:-0.978904 88:0.973543 89:-0.58722 90:0.966206 91:-0.919575 92:0.985325 93:-0.78431 94:0.926449 95:-0.96663 96:0.959996 97:-0.853542 98:0.868628 99:-0.981691 100:0.939902 101:-0.658914 102:0.904862 103:-0.926064 104:0.968489 105:-0.732151 106:0.821204 107:-0.962226 108:0.953768 109:-0.743996 110:0.546418 111:-0.965111 112:0.801331 113:-0.614994 114:0.620873 115:-0.925198 116:0.865191 117:-0.54339 118:-0.542518 119:-0.863519 120:0.812705 121:-0.570797 122:0.597285 123:-0.862411 124:0.863995 125:-0.701149 126:0.611044 127:-0.860127 128:0.86996 129:-0.847001 130:0.520856 131:-0.932892 132:0.775968 133:-0.769458 134:-0.768753 135:-0.868003 136:-0.589026 137:-0.878513 138:-0.901235 139:-0.936272 140:-0.722368 141:-0.920566 142:-0.960641 143:-0.970381 144:-0.872075 145:-0.783278 146:-0.910152 147:-0.873909 148:-0.777071 149:-0.594265 150:-0.855816 151:-0.644994 152:-0.707984 153:-0.645815 154:-0.884958 155:-0.674483 156:-0.808285 157:-0.645815 158:-0.957457 159:-0.674483 160:-0.933198 161:-0.664814 162:-0.986726 163:-0.571114 164:-0.978512 165:-0.586944 166:-0.989818 167:-0.599789 168:-0.98767 169:-0.661958 170:-0.994942 171:-0.616084 172:-0.996768 173:-0.733223 174:-0.994979 175:-0.709434 176:-0.997143 177:-0.833666 178:-0.974199 179:-0.79014 180:-0.977004 181:-0.941488 182:-0.971281 183:-0.905811 184:-0.967904 185:-0.878773 186:-0.947635 187:-0.817404 188:-0.954188 189:-0.841666 190:-0.968629 191:-0.740238 192:-0.950753 193:-0.88587 194:-0.968629 195:-0.846835 196:-0.950753 197:-0.937683 198:-0.971525 199:-0.931645 200:-0.946192 201:-0.899133 202:-0.976573 203:-0.875947 204:-0.954001 205:-0.928637 206:-0.961744 207:-0.913638 208:-0.951775 209:-0.946977 210:-0.990598 211:-0.95956 212:-0.98932 213:-0.924793 214:-0.985569 215:-0.93294 216:-0.987083 217:-0.924793 218:-0.994771 219:-0.93294 220:-0.994825 221:-0.924793 222:-0.999989 223:-0.93294 224:-0.997356 225:-0.902889 226:-0.99999 227:-0.898679 228:-0.996886 229:-0.811658 230:-0.999999 231:-0.735393 232:-0.999997 233:-0.787593 234:-1 235:-0.669512 236:-0.999999 237:-0.946244 238:-0.999999 239:-0.910258 240:-1 
0.3404580700755407 0.9440063516805851 1:-0.783059 2:0.614593 3:-0.955497 4:0.510701 5:-0.78767 6:0.875006 7:-0.971262 8:0.916796 9:-0.91861 10:0.960386 11:-0.976545 12:0.987444 13:-0.810761 14:0.964157 15:-0.946576 16:0.985787 17:-0.924295 18:0.921118 19:-0.973247 20:0.968751 21:-0.931595 22:0.953915 23:-0.982386 24:0.986879 25:-0.952396 26:0.96331 27:-0.992324 28:0.983425 29:-0.964987 30:0.969822 31:-0.996189 32:0.977731 33:-0.945335 34:0.987761 35:-0.993673 36:0.994997 37:-0.896267 38:0.987897 39:-0.987157 40:0.993369 41:-0.885762 42:0.915302 43:-0.987758 44:0.944628 45:-0.81517 46:0.878139 47:-0.97509 48:0.917104 49:-0.772765 50:0.919132 51:-0.966822 52:0.954342 53:-0.86192 54:0.924357 55:-0.986815 56:0.94372 57:-0.914297 58:0.946165 59:-0.993852 60:0.968783 61:-0.913622 62:0.908215 63:-0.990149 64:0.952735 65:-0.839649 66:0.935852 67:-0.967236 68:0.972508 69:-0.719702 70:0.941044 71:-0.946785 72:0.974437 73:-0.820832 74:0.941044 75:-0.976044 76:0.974437 77:-0.876259 78:0.732801 79:-0.988006 80:0.882248 81:-0.846393 82:0.757414 83:-0.977897 84:0.890926 85:-0.775142 86:-0.548065 87:-0.960067 88:0.617665 89:-0.686062 90:-0.684724 91:-0.919424 92:0.5 93:-0.631164 94:-0.635832 95:-0.900743 96:0.619868 97:-0.751608 98:-0.762465 99:-0.900163 100:0.5 101:-0.599199 102:-0.79909 103:-0.889448 104:-0.618267 105:-0.817849 106:-0.93961 107:-0.953401 108:-0.905015 109:-0.786212 110:-0.961443 111:-0.94159 112:-0.937074 113:-0.786212 114:-0.962108 115:-0.94159 116:-0.929594 117:-0.55942 118:-0.964301 119:-0.792819 120:-0.941181 121:-0.566687 122:-0.843344 123:-0.68851 124:-0.743686 125:-0.729654 126:-0.871019 127:-0.742447 128:-0.787185 129:-0.808862 130:-0.588675 131:-0.794375 132:0.68984 133:-0.764979 134:-0.804065 135:-0.718053 136:-0.595595 137:-0.853973 138:-0.950695 139:-0.865257 140:-0.922548 141:-0.942785 142:-0.98397 143:-0.955581 144:-0.977046 145:-0.941934 146:-0.982689 147:-0.923272 148:-0.978365 149:-0.962362 150:-0.986519 151:-0.955219 152:-0.984978 153:-0.962967 154:-0.986519 155:-0.958972 156:-0.984978 157:-0.982358 158:-0.98833 159:-0.98076 160:-0.986236 161:-0.992093 162:-0.999988 163:-0.991079 164:-0.999984 165:-0.994845 166:-0.999999 167:-0.992479 168:-1 169:-0.996372 170:-1 171:-0.99279 172:-1 173:-0.994845 174:-0.999984 175:-0.992479 176:-0.999983 177:-0.993049 178:-0.99652 179:-0.990823 180:-0.996499 181:-0.999984 182:-0.999994 183:-0.995727 184:-0.999993 185:-0.999993 186:-0.997271 187:-0.995373 188:-0.994023 189:-0.997018 190:-0.999997 191:-0.993961 192:-0.999982 193:-0.996583 194:-0.999995 195:-0.991087 196:-0.995803 197:-0.997089 198:-0.999999 199:-0.994403 200:-0.999994 201:-0.999988 202:-0.999997 203:-0.997141 204:-0.999983 205:-0.999995 206:-0.999997 207:-0.999992 208:-0.999988 209:-1 210:-0.997335 211:-1 212:-0.99523 213:-1 214:-0.995906 215:-1 216:-0.991049 217:-0.999999 218:-0.990173 219:-0.999999 220:-0.978744 221:-0.999999 222:-0.987654 223:-0.999999 224:-0.973246 225:-1 226:-0.987654 227:-1 228:-0.973246 229:-1 230:-0.9917 231:-1 232:-0.986019 233:-0.999999 234:-0.993199 235:-0.999999 236:-0.990463 237:-0.999995 238:-0.987435 239:-0.999996 240:-0.983853 
-0.1145942397061779 0.4862157725475058 1:0.905761 2:-0.898838 3:0.888782 4:-0.997267 5:0.956058 6:-0.884077 7:0.955366 8:-0.997377 9:0.971329 10:-0.921202 11:0.977061 12:-0.999991 13:0.979532 14:-0.894782 15:0.986805 16:-0.999984 17:0.987716 18:-0.864417 19:0.9926 20:-0.99739 21:0.992134 22:-0.982547 23:0.995601 24:-1 25:0.993412 26:-0.990136 27:0.996639 28:-1 29:0.994114 30:-0.994164 31:0.99761 32:-1 33:0.993689 34:-0.991457 35:0.996929 36:-1 37:0.99137 38:-0.996476 39:0.994986 40:-1 41:0.978149 42:-0.994783 43:0.990388 44:-1 45:0.981481 46:-0.996099 47:0.992649 48:-1 49:0.981481 50:-0.997143 51:0.992649 52:-1 53:0.981481 54:-0.999985 55:0.992649 56:-1 57:0.986171 58:-0.999996 59:0.995321 60:-1 61:0.984993 62:-0.999992 63:0.992865 64:-1 65:0.962492 66:-0.999981 67:0.984373 68:-1 69:0.990097 70:-0.992981 71:0.996262 72:-0.999999 73:0.987749 74:-0.992891 75:0.995655 76:-0.999999 77:0.977288 78:-0.995982 79:0.993533 80:-0.999999 81:0.977288 82:-0.995982 83:0.993533 84:-0.999999 85:0.985254 86:-0.999992 87:0.996782 88:-1 89:0.978346 90:-0.997181 91:0.993901 92:-1 93:0.956806 94:-0.996391 95:0.986848 96:-1 97:0.932851 98:-0.999982 99:0.967098 100:-1 101:0.933628 102:-0.997305 103:0.967607 104:-1 105:0.815192 106:-0.996168 107:0.87224 108:-1 109:0.638223 110:-0.990448 111:0.741021 112:-0.999998 113:0.638223 114:-0.969818 115:0.741021 116:-0.994933 117:0.580466 118:-0.995028 119:0.718203 120:-0.999996 121:0.614653 122:-0.994321 123:0.739464 124:-0.999997 125:0.577903 126:-0.988601 127:0.650522 128:-0.999992 129:0.607822 130:-0.994458 131:0.642437 132:-0.999994 133:0.618254 134:-0.995614 135:-0.540986 136:-0.999994 137:-0.607781 138:-0.997268 139:-0.692418 140:-0.999998 141:-0.648938 142:-0.991465 143:-0.726252 144:-0.995906 145:-0.762128 146:-0.983471 147:-0.790936 148:-0.98473 149:-0.753938 150:-0.993959 151:-0.865986 152:-0.992594 153:-0.700788 154:-0.968298 155:-0.823077 156:-0.968633 157:0.5 158:-0.959446 159:-0.591085 160:-0.963012 161:-0.763648 162:-0.919071 163:-0.863119 164:-0.945233 165:-0.860345 166:-0.984404 167:-0.952532 168:-0.989311 169:-0.860345 170:-0.959683 171:-0.952532 172:-0.979879 173:-0.910001 174:-0.944753 175:-0.964975 176:-0.963133 177:-0.92364 178:-0.945508 179:-0.966171 180:-0.978617 181:-0.931849 182:-0.945508 183:-0.96658 184:-0.978617 185:-0.937357 186:-0.907689 187:-0.964476 188:-0.964216 189:-0.955569 190:-0.857196 191:-0.963038 192:-0.947489 193:-0.967948 194:-0.757609 195:-0.979419 196:-0.846412 197:-0.927826 198:-0.757609 199:-0.936986 200:-0.846412 201:-0.820651 202:-0.823013 203:-0.862036 204:-0.913097 205:-0.921081 206:-0.893068 207:-0.930461 208:-0.948383 209:-0.900388 210:-0.882123 211:-0.91598 212:-0.958953 213:-0.962527 214:-0.891049 215:-0.975446 216:-0.968662 217:-0.938165 218:-0.820564 219:-0.954914 220:-0.968839 221:-0.966014 222:-0.890952 223:-0.973514 224:-0.96894 225:-0.940281 226:-0.949753 227:-0.92714 228:-0.980323 229:-0.872623 230:-0.949753 231:-0.862031 232:-0.980323 233:-0.872623 234:-0.956673 235:-0.862031 236:-0.98124 237:-0.82372 238:-0.974344 239:-0.843533 240:-0.992092 
-0.005625483053213239 0 1:0.629744 2:0.798606 3:0.523994 4:-0.992515 5:0.815199 6:0.850306 7:0.730604 8:-0.994719 9:0.907599 10:0.858481 11:0.859415 12:-0.994021 13:0.94898 14:0.881404 15:0.926728 16:-0.991828 17:0.971169 18:0.906647 19:0.958984 20:-0.993995 21:0.982399 22:0.908657 23:0.976878 24:-0.993611 25:0.988513 26:0.945784 27:0.986186 28:-0.976368 29:0.988338 30:0.950905 31:0.988106 32:-0.972536 33:0.978516 34:0.968739 35:0.981521 36:-0.937779 37:0.98546 38:0.967395 39:0.988358 40:-0.917672 41:0.985265 42:0.967693 43:0.989712 44:-0.913106 45:0.982328 46:0.972333 47:0.98254 48:-0.933856 49:0.966533 50:0.956076 51:0.970744 52:-0.948468 53:0.971137 54:0.954459 55:0.959348 56:-0.936705 57:0.971141 58:0.957803 59:0.968927 60:-0.931865 61:0.98382 62:0.93898 63:0.989106 64:-0.947974 65:0.993287 66:0.899298 67:0.995514 68:-0.951597 69:0.995209 70:0.910236 71:0.997969 72:-0.921473 73:0.983424 74:0.790247 75:0.991705 76:-0.956559 77:0.969412 78:0.890615 79:0.985374 80:-0.920005 81:0.971326 82:0.89719 83:0.987987 84:-0.896194 85:0.951088 86:0.841374 87:0.962231 88:-0.890567 89:0.909221 90:0.780802 91:0.942136 92:-0.940671 93:0.8218 94:0.809569 95:0.885452 96:-0.857853 97:0.732634 98:0.88146 99:0.754115 100:-0.778166 101:-0.554769 102:0.926001 103:-0.552894 104:-0.687374 105:-0.816761 106:0.920195 107:-0.862127 108:-0.582293 109:-0.937126 110:0.78014 111:-0.958665 112:-0.860701 113:-0.960751 114:0.630467 115:-0.980989 116:-0.860004 117:-0.984017 118:-0.563751 119:-0.991635 120:-0.884692 121:-0.990651 122:-0.746203 123:-0.993856 124:-0.912944 125:-0.992859 126:-0.872583 127:-0.995762 128:-0.939957 129:-0.999985 130:-0.891855 131:-0.999993 132:-0.946313 133:-0.999989 134:-0.945466 135:-0.999996 136:-0.95303 137:-0.997419 138:-0.957469 139:-0.999985 140:-0.956872 141:-0.994789 142:-0.99173 143:-0.995149 144:-0.991342 145:-0.990767 146:-0.999993 147:-0.987037 148:-0.999987 149:-0.987134 150:-0.999998 151:-0.979553 152:-0.999994 153:-0.995595 154:-0.999998 155:-0.994233 156:-0.999994 157:-0.995704 158:-0.999999 159:-0.993817 160:-0.999998 161:-0.999992 162:-0.999999 163:-0.99715 164:-0.999997 165:-0.999988 166:-1 167:-0.995145 168:-0.999999 169:-0.994663 170:-0.999999 171:-0.987973 172:-0.999999 173:-0.995962 174:-0.999999 175:-0.992847 176:-0.999999 177:-0.995181 178:-0.999999 179:-0.990735 180:-0.999999 181:-0.989084 182:-0.999998 183:-0.982176 184:-0.999998 185:-0.992435 186:-0.999999 187:-0.989196 188:-0.999998 189:-0.990052 190:-0.999999 191:-0.982686 192:-0.999997 193:-0.982921 194:-0.999999 195:-0.973929 196:-0.999997 197:-0.966353 198:-1 199:-0.955638 200:-0.999998 201:-0.910201 202:-1 203:-0.87416 204:-0.999999 205:-0.954934 206:-0.999993 207:-0.921024 208:-0.999982 209:-0.90036 210:-0.999994 211:-0.836112 212:-0.999989 213:-0.911576 214:-0.996425 215:-0.846812 216:-0.995894 217:-0.895673 218:-0.99411 219:-0.80419 220:-0.99572 221:-0.870821 222:-0.990185 223:-0.773153 224:-0.991744 225:-0.854529 226:-0.996281 227:-0.737031 228:-0.996714 229:-0.903278 230:-0.999994 231:-0.870228 232:-0.999991 233:-0.928052 234:-0.999994 235:-0.928603 236:-0.999991 237:-0.932362 238:-0.999997 239:-0.942603 240:-0.999999 
-0.1978993977831198 0.0388467038651833 1:0.740053 2:0.997831 3:-0.695584 4:0.916762 5:0.80838 6:0.997501 7:-0.579445 8:0.870514 9:0.903235 10:0.993667 11:0.712866 12:0.684134 13:0.946804 14:0.991541 15:0.878276 16:0.610303 17:0.953279 18:0.992415 19:0.897923 20:0.516622 21:0.960212 22:0.983411 23:0.917903 24:-0.70905 25:0.965725 26:0.984135 27:0.933405 28:-0.702543 29:0.971773 30:0.983846 31:0.952071 32:-0.744581 33:0.972928 34:0.960515 35:0.955708 36:-0.797069 37:0.982782 38:0.961203 39:0.977629 40:-0.825055 41:0.984466 42:0.93267 43:0.982695 44:-0.79325 45:0.982617 46:0.934958 47:0.976274 48:-0.821207 49:0.981058 50:0.93747 51:0.975142 52:-0.770367 53:0.972001 54:0.901077 55:0.977289 56:-0.776021 57:0.963528 58:0.79309 59:0.96444 60:-0.84975 61:0.911168 62:0.811334 63:0.904858 64:-0.851756 65:0.925517 66:0.826855 67:0.938185 68:-0.857786 69:0.928387 70:0.902951 71:0.953879 72:-0.801499 73:0.946138 74:0.865014 75:0.971604 76:-0.913119 77:0.934916 78:0.857462 79:0.96458 80:-0.910265 81:0.966139 82:0.75916 83:0.974779 84:-0.934278 85:0.957518 86:0.720765 87:0.959846 88:-0.935689 89:0.901908 90:-0.582957 91:0.918175 92:-0.983475 93:0.875128 94:-0.745471 95:0.875756 96:-0.996842 97:0.740313 98:-0.786537 99:0.771457 100:-0.996344 101:0.700666 102:-0.705433 103:0.722671 104:-0.990809 105:0.635387 106:-0.705433 107:0.632703 108:-0.990809 109:-0.656261 110:-0.771524 111:-0.699008 112:-0.991472 113:-0.722502 114:-0.616377 115:-0.777534 116:-0.961689 117:-0.906353 118:-0.737687 119:-0.930509 120:-0.959555 121:-0.928173 122:-0.845611 123:-0.964721 124:-0.96817 125:-0.924708 126:-0.746497 127:-0.969491 128:-0.886873 129:-0.939451 130:-0.834419 131:-0.976884 132:-0.911815 133:-0.972204 134:-0.911216 135:-0.994028 136:-0.946469 137:-0.985937 138:-0.954232 139:-0.996306 140:-0.970192 141:-0.980785 142:-0.924536 143:-0.994841 144:-0.942146 145:-0.981314 146:-0.840197 147:-0.997072 148:-0.794295 149:-0.991235 150:-0.924763 151:-0.999989 152:-0.899649 153:-0.989685 154:-0.937754 155:-0.997458 156:-0.908266 157:-0.995073 158:-0.970373 159:-0.99999 160:-0.942393 161:-0.988735 162:-0.980259 163:-0.996291 164:-0.959846 165:-0.993164 166:-0.921889 167:-0.999988 168:-0.771124 169:-0.995217 170:-0.857629 171:-0.999995 172:-0.54838 173:-0.997065 174:-0.881005 175:-0.999996 176:-0.723014 177:-0.99999 178:-0.940333 179:-0.999996 180:-0.87584 181:-0.996419 182:-0.969652 183:-0.999983 184:-0.947179 185:-0.999984 186:-0.949596 187:-0.999995 188:-0.931178 189:-0.997449 190:-0.887462 191:-0.999997 192:-0.862268 193:-0.999996 194:-0.887462 195:-0.999999 196:-0.862268 197:-0.999998 198:-0.945728 199:-1 200:-0.923875 201:-0.999996 202:-0.977683 203:-0.999998 204:-0.966741 205:-0.999994 206:-0.979261 207:-0.999996 208:-0.960594 209:-0.999987 210:-0.972635 211:-0.999992 212:-0.935268 213:-0.997338 214:-0.969298 215:-0.99999 216:-0.913114 217:-0.999994 218:-0.969298 219:-0.999994 220:-0.913114 221:-0.999999 222:-0.978496 223:-0.999999 224:-0.947444 225:-0.999997 226:-0.991238 227:-0.999996 228:-0.974566 229:-0.999989 230:-0.985183 231:-0.999991 232:-0.977203 233:-0.999999 234:-0.995894 235:-1 236:-0.994815 237:-0.999999 238:-0.995313 239:-0.999998 240:-0.993984 
-0.3802467427468603 1 1:0.931609 2:-0.951898 3:0.906284 4:-0.992343 5:0.95132 6:-0.849769 7:0.93997 8:-0.966032 9:0.980718 10:-0.985861 11:0.976644 12:-0.996931 13:0.976187 14:-0.97826 15:0.980791 16:-0.995943 17:0.982854 18:-0.968746 19:0.986401 20:-0.995246 21:0.991106 22:-0.979174 23:0.993267 24:-0.994682 25:0.98914 26:-0.997238 27:0.98941 28:-0.999999 29:0.97481 30:-0.995141 31:0.982597 32:-0.999998 33:0.95223 34:-0.996802 35:0.969312 36:-0.999998 37:0.919705 38:-0.988876 39:0.949469 40:-0.993784 41:0.909089 42:-0.992173 43:0.925419 44:-0.99366 45:0.845066 46:-0.99395 47:0.898107 48:-0.994912 49:0.854686 50:-0.996203 51:0.88881 52:-0.996667 53:0.752643 54:-0.991436 55:0.852345 56:-0.991386 57:0.591745 58:-0.988605 59:0.689957 60:-0.990811 61:-0.689689 62:-0.97028 63:-0.607538 64:-0.959446 65:-0.522529 66:-0.948316 67:0.614813 68:-0.924545 69:0.550201 70:-0.902607 71:0.65557 72:-0.891973 73:0.550201 74:-0.900089 75:0.65557 76:-0.910542 77:-0.561504 78:-0.957699 79:0.591128 80:-0.966309 81:-0.631439 82:-0.973112 83:-0.581588 84:-0.980141 85:-0.758774 86:-0.98441 87:-0.75795 88:-0.987048 89:-0.864848 90:-0.921151 91:-0.850307 92:-0.897835 93:-0.891765 94:-0.966792 95:-0.901794 96:-0.963709 97:-0.860462 98:-0.975416 99:-0.862115 100:-0.980091 101:-0.917953 102:-0.987203 103:-0.914383 104:-0.986038 105:-0.944488 106:-0.993036 107:-0.946689 108:-0.990716 109:-0.978413 110:-0.995736 111:-0.984369 112:-0.994917 113:-0.978413 114:-0.993277 115:-0.984369 116:-0.989937 117:-0.966209 118:-0.992936 119:-0.975129 120:-0.991201 121:-0.932117 122:-0.999986 123:-0.957136 124:-0.997438 125:-0.941779 126:-0.999997 127:-0.959602 128:-0.999996 129:-0.915416 130:-1 131:-0.938209 132:-1 133:-0.956956 134:-1 135:-0.963511 136:-1 137:-0.933937 138:-1 139:-0.965357 140:-1 141:-0.975744 142:-1 143:-0.981637 144:-1 145:-0.97641 146:-1 147:-0.980252 148:-1 149:-0.977452 150:-1 151:-0.963401 152:-1 153:-0.945687 154:-1 155:-0.891309 156:-1 157:-0.963043 158:-0.999999 159:-0.909943 160:-1 161:-0.951831 162:-0.999999 163:-0.902683 164:-1 165:-0.972069 166:-0.999996 167:-0.9114 168:-0.999997 169:-0.959335 170:-1 171:-0.86206 172:-1 173:-0.959335 174:-0.999999 175:-0.86206 176:-1 177:-0.948405 178:-1 179:-0.767661 180:-1 181:-0.893147 182:-0.999999 183:-0.604029 184:-1 185:-0.856871 186:-1 187:-0.573817 188:-1 189:-0.923162 190:-1 191:-0.777573 192:-1 193:-0.947754 194:-1 195:-0.854655 196:-1 197:-0.960512 198:-1 199:-0.894736 200:-1 201:-0.933031 202:-1 203:-0.744134 204:-1 205:-0.971408 206:-1 207:-0.85956 208:-1 209:-0.985168 210:-1 211:-0.917723 212:-1 213:-0.989772 214:-1 215:-0.947975 216:-1 217:-0.98532 218:-1 219:-0.936517 220:-1 221:-0.98958 222:-1 223:-0.957941 224:-1 225:-0.97697 226:-1 227:-0.883977 228:-1 229:-0.978352 230:-1 231:-0.864856 232:-1 233:-0.962123 234:-1 235:-0.834084 236:-1 237:-0.92783 238:-1 239:-0.787362 240:-1 
-0.2546703646511256 0.335025839034832 1:0.949452 2:0.895085 3:0.953845 4:-0.974325 5:0.965174 6:0.899223 7:0.965994 8:-0.978369 9:0.971862 10:0.903228 11:0.974128 12:-0.981761 13:0.983806 14:0.907007 15:0.988197 16:-0.984571 17:0.986709 18:0.917067 19:0.990007 20:-0.979006 21:0.988785 22:0.92474 23:0.991423 24:-0.974578 25:0.990313 26:0.927811 27:0.992541 28:-0.977597 29:0.991466 30:0.812466 31:0.993432 32:-0.985065 33:0.992355 34:0.827404 35:0.99415 36:-0.986176 37:0.991422 38:0.890836 39:0.991562 40:-0.967277 41:0.990294 42:0.934595 43:0.987989 44:-0.909176 45:0.99141 46:0.93343 47:0.98942 48:-0.883427 49:0.984372 50:0.892504 51:0.981713 52:-0.93409 53:0.992939 54:0.906467 55:0.991401 56:-0.944243 57:0.993345 58:0.654482 59:0.992668 60:-0.985858 61:0.993345 62:0.563447 63:0.992668 64:-0.984619 65:0.983532 66:-0.577031 67:0.979831 68:-0.986722 69:0.99325 70:-0.588481 71:0.993448 72:-0.985416 73:0.994782 74:-0.7803 75:0.996044 76:-0.995301 77:0.981773 78:-0.710136 79:0.988245 80:-0.990327 81:0.964836 82:-0.710136 83:0.960392 84:-0.990327 85:0.930618 86:-0.816036 87:0.914994 88:-0.991353 89:0.848669 90:-0.752869 91:0.790243 92:-0.987175 93:0.65063 94:-0.725817 95:0.657358 96:-0.985186 97:-0.569567 98:-0.578208 99:-0.653783 100:-0.929308 101:-0.645664 102:-0.608179 103:-0.7815 104:-0.913249 105:-0.623505 106:0.541265 107:-0.825457 108:-0.860278 109:-0.710129 110:0.526173 111:-0.894912 112:-0.857317 113:-0.852739 114:-0.690405 115:-0.94058 116:-0.908953 117:-0.930275 118:-0.690405 119:-0.979381 120:-0.908953 121:-0.970821 122:-0.665614 123:-0.990913 124:-0.907334 125:-0.967864 126:-0.840201 127:-0.987753 128:-0.946414 129:-0.95584 130:-0.859542 131:-0.981805 132:-0.949605 133:-0.961595 134:-0.875968 135:-0.974335 136:-0.954054 137:-0.961595 138:-0.837942 139:-0.974335 140:-0.92867 141:-0.96997 142:-0.965836 143:-0.983816 144:-0.985375 145:-0.979856 146:-0.963179 147:-0.983921 148:-0.986101 149:-0.97059 150:-0.981411 151:-0.972853 152:-0.989694 153:-0.959977 154:-0.981636 155:-0.95942 156:-0.989475 157:-0.933135 158:-0.981564 159:-0.942966 160:-0.99104 161:-0.964038 162:-0.947039 163:-0.962617 164:-0.980184 165:-0.964038 166:-0.896351 167:-0.962617 168:-0.929549 169:-0.963233 170:-0.924185 171:-0.968131 172:-0.953264 173:-0.972504 174:-0.978065 175:-0.967159 176:-0.991141 177:-0.968819 178:-0.979159 179:-0.965966 180:-0.992287 181:-0.923035 182:-0.948995 183:-0.922006 184:-0.969736 185:-0.924023 186:-0.955635 187:-0.961357 188:-0.974199 189:-0.854693 190:-0.805125 191:-0.894308 192:-0.881902 193:-0.926231 194:-0.710805 195:-0.927444 196:-0.86939 197:-0.947357 198:0.551229 199:-0.945411 200:-0.664674 201:-0.943502 202:0.782387 203:-0.937073 204:0.603934 205:-0.943502 206:0.965448 207:-0.937073 208:0.937321 209:-0.882608 210:0.965448 211:-0.816183 212:0.937321 213:-0.757236 214:0.94698 215:-0.622704 216:0.875131 217:-0.839521 218:0.96524 219:-0.804689 220:0.887022 221:-0.862563 222:0.946357 223:-0.858289 224:0.804037 225:-0.854894 226:0.954206 227:-0.895208 228:0.810845 229:-0.927273 230:0.910208 231:-0.96174 232:-0.517092 233:-0.873017 234:0.940059 235:-0.945229 236:0.617948 237:-0.832583 238:0.735808 239:-0.934639 240:-0.719488 
-0 0.6839136813350781 1:0.961661 2:-1 3:0.969013 4:-1 5:0.896784 6:-1 7:0.917586 8:-1 9:0.888879 10:-1 11:0.872788 12:-1 13:0.839204 14:-1 15:0.788349 16:-1 17:0.84171 18:-1 19:0.735429 20:-1 21:0.846701 22:-1 23:0.831101 24:-1 25:0.888819 26:-1 27:0.877395 28:-1 29:0.781774 30:-1 31:0.815725 32:-1 33:0.7865 34:-1 35:0.875502 36:-1 37:0.868484 38:-1 39:0.926824 40:-1 41:0.726389 42:-1 43:0.805022 44:-1 45:0.789658 46:-1 47:0.849321 48:-1 49:0.789658 50:-1 51:0.849321 52:-1 53:0.764604 54:-1 55:0.828351 56:-1 57:0.739177 58:-1 59:0.861798 60:-1 61:0.562999 62:-1 63:0.702856 64:-1 65:0.751059 66:-1 67:0.836118 68:-1 69:0.76035 70:-1 71:0.850384 72:-1 73:0.573992 74:-1 75:0.722745 76:-1 77:0.573992 78:-1 79:0.722745 80:-1 81:0.643919 82:-0.999999 83:0.755689 84:-0.999999 85:0.657845 86:-0.999997 87:0.738423 88:-0.999999 89:0.5 90:-0.999999 91:0.589451 92:-1 93:-0.648707 94:-1 95:0.527386 96:-1 97:-0.74253 98:-1 99:-0.641747 100:-1 101:-0.858268 102:-0.999997 103:-0.809052 104:-1 105:-0.895895 106:-0.999999 107:-0.824537 108:-1 109:-0.948051 110:-1 111:-0.870356 112:-1 113:-0.940805 114:-0.999999 115:-0.866392 116:-1 117:-0.954868 118:-0.999995 119:-0.916143 120:-0.999998 121:-0.918048 122:-1 123:-0.90905 124:-1 125:-0.946828 126:-1 127:-0.938089 128:-1 129:-0.9825 130:-1 131:-0.974057 132:-1 133:-0.974163 134:-1 135:-0.950584 136:-1 137:-0.989281 138:-1 139:-0.985135 140:-1 141:-0.996151 142:-0.999995 143:-0.994629 144:-0.999998 145:-0.996356 146:-0.9969 147:-0.99356 148:-0.99999 149:-0.999988 150:-0.997127 151:-0.996317 152:-0.999996 153:-0.999988 154:-0.999987 155:-0.996729 156:-0.999999 157:-0.999998 158:-0.999998 159:-0.999993 160:-1 161:-0.999997 162:-0.999982 163:-0.999989 164:-0.999998 165:-0.999989 166:-0.995086 167:-0.996735 168:-0.997229 169:-0.999988 170:-0.995063 171:-0.995383 172:-0.995258 173:-0.999999 174:-0.992411 175:-0.999994 176:-0.990446 177:-0.999999 178:-0.995555 179:-0.999995 180:-0.995575 181:-0.999999 182:-0.995555 183:-0.999992 184:-0.995575 185:-0.999999 186:-0.999981 187:-0.999999 188:-0.995912 189:-0.999999 190:-0.999997 191:-0.999999 192:-0.999992 193:-0.999994 194:-0.999993 195:-0.997368 196:-0.999981 197:-0.999984 198:-0.997318 199:-0.99542 200:-0.994441 201:-0.994419 202:-0.999993 203:-0.991796 204:-0.994849 205:-0.999983 206:-0.999988 207:-0.997328 208:-0.993063 209:-0.999988 210:-0.992962 211:-0.999986 212:-0.971835 213:-0.999983 214:-0.99999 215:-0.997263 216:-0.994889 217:-0.994741 218:-0.999997 219:-0.996002 220:-0.995505 221:-0.99629 222:-0.999983 223:-0.999986 224:-0.989026 225:-0.991646 226:-0.995733 227:-0.994879 228:-0.980481 229:-0.991646 230:-0.999992 231:-0.994879 232:-0.992422 233:-0.975912 234:-0.999999 235:-0.985624 236:-0.997242 237:-0.979556 238:-0.996905 239:-0.992124 240:-0.988887 
-0.1647261415771366 0.2032021933785528 1:0.997478 2:-0.883815 3:0.998585 4:-0.995046 5:0.996592 6:-0.925335 7:0.996751 8:-0.992118 9:0.997589 10:-0.721349 11:0.997583 12:-0.890446 13:0.998161 14:-0.594057 15:0.998808 16:-0.88191 17:0.99855 18:0.511498 19:0.999369 20:-0.816293 21:0.998081 22:0.645652 23:0.998693 24:-0.649105 25:0.997101 26:0.854489 27:0.996179 28:0.808212 29:0.9926 30:0.892011 31:0.985108 32:0.785019 33:0.994404 34:0.517777 35:0.988699 36:-0.653796 37:0.992791 38:0.633179 39:0.982595 40:0.515889 41:0.991513 42:-0.787284 43:0.973347 44:-0.852329 45:0.982633 46:-0.95521 47:0.930458 48:-0.970677 49:0.986127 50:-0.991 51:0.937566 52:-0.994361 53:0.975301 54:-0.986397 55:0.940392 56:-0.991888 57:0.975301 58:-0.988633 59:0.940392 60:-0.991016 61:0.954179 62:-0.991411 63:0.939047 64:-0.99022 65:0.88878 66:-0.992893 67:0.888745 68:-0.991731 69:0.738016 70:-0.993849 71:0.780957 72:-0.994298 73:0.512021 74:-0.997193 75:0.535806 76:-0.999984 77:0.512021 78:-0.999987 79:0.535806 80:-0.999995 81:-0.622209 82:-0.999999 83:-0.701071 84:-1 85:-0.601688 86:-1 87:-0.700801 88:-1 89:-0.83652 90:-0.999999 91:-0.888038 92:-1 93:-0.811916 94:-0.999992 95:-0.877405 96:-0.999989 97:-0.781135 98:-0.999992 99:-0.826691 100:-0.999989 101:-0.921596 102:-0.999992 103:-0.930801 104:-0.999989 105:-0.932801 106:-0.999997 107:-0.939574 108:-0.999992 109:-0.967577 110:-1 111:-0.972159 112:-0.999999 113:-0.983055 114:-1 115:-0.987514 116:-0.999999 117:-0.990847 118:-1 119:-0.992325 120:-1 121:-0.976863 122:-1 123:-0.972157 124:-1 125:-0.986749 126:-1 127:-0.979196 128:-1 129:-0.991946 130:-1 131:-0.980431 132:-1 133:-0.99618 134:-1 135:-0.986612 136:-1 137:-0.996109 138:-1 139:-0.972649 140:-1 141:-0.996569 142:-1 143:-0.979698 144:-1 145:-0.994562 146:-1 147:-0.979052 148:-0.999999 149:-0.996199 150:-1 151:-0.98589 152:-0.999999 153:-0.990915 154:-1 155:-0.976192 156:-1 157:-0.986951 158:-1 159:-0.981025 160:-1 161:-0.980945 162:-1 163:-0.984512 164:-1 165:-0.984163 166:-1 167:-0.991587 168:-1 169:-0.956516 170:-1 171:-0.976406 172:-1 173:-0.939131 174:-1 175:-0.948459 176:-1 177:-0.949162 178:-0.999991 179:-0.954372 180:-0.999994 181:-0.916714 182:-0.986029 183:-0.913848 184:-0.985338 185:-0.975873 186:-0.985977 187:-0.974676 188:-0.986137 189:-0.975873 190:-0.984087 191:-0.974676 192:-0.988329 193:-0.929571 194:-0.972817 195:-0.940029 196:-0.985851 197:-0.960341 198:-0.976209 199:-0.969487 200:-0.987052 201:-0.943473 202:-0.977872 203:-0.966063 204:-0.984808 205:-0.918094 206:-0.94673 207:-0.932042 208:-0.959472 209:-0.785607 210:-0.94673 211:-0.776316 212:-0.959472 213:-0.80542 214:-0.863167 215:-0.832331 216:-0.90622 217:-0.856254 218:-0.697931 219:-0.890869 220:-0.792891 221:-0.796541 222:-0.704091 223:-0.851645 224:-0.809792 225:-0.70393 226:-0.922577 227:-0.840072 228:-0.97705 229:0.5 230:-0.922577 231:-0.760297 232:-0.97705 233:0.621968 234:-0.868095 235:-0.581252 236:-0.911239 237:-0.505431 238:-0.631478 239:-0.715441 240:-0.696056 
-0 0.02180503364531902 1:0.509666 2:-0.887509 3:-0.758233 4:-0.990571 5:0.715595 6:-0.809803 7:0.5 8:-0.99128 9:0.801823 10:-0.714407 11:0.680623 12:-0.992513 13:0.869792 14:0.506048 15:0.807556 16:-0.970269 17:0.925365 18:0.517585 19:0.882766 20:-0.974049 21:0.95293 22:-0.644749 23:0.935775 24:-0.98033 25:0.970374 26:0.561852 27:0.962565 28:-0.939946 29:0.980422 30:0.582479 31:0.978164 32:-0.940056 33:0.979375 34:0.590359 35:0.966575 36:-0.947643 37:0.983564 38:-0.577813 39:0.977226 40:-0.968508 41:0.98865 42:0.592473 43:0.984027 44:-0.921582 45:0.987855 46:0.609754 47:0.977459 48:-0.923077 49:0.984819 50:0.651292 51:0.966352 52:-0.903095 53:0.988133 54:0.545104 55:0.978662 56:-0.940006 57:0.995834 58:-0.566008 59:0.99435 60:-0.95289 61:0.994504 62:-0.658188 63:0.988855 64:-0.951063 65:0.994841 66:-0.737603 67:0.991304 68:-0.949973 69:0.991212 70:-0.585111 71:0.990212 72:-0.914276 73:0.991023 74:-0.565867 75:0.99144 76:-0.905484 77:0.997399 78:0.729108 79:0.99709 80:-0.665939 81:0.990602 82:0.62582 83:0.986507 84:-0.762879 85:0.994761 86:-0.616294 87:0.990892 88:-0.883595 89:0.989708 90:-0.722628 91:0.981314 92:-0.945955 93:0.982669 94:-0.616294 95:0.974511 96:-0.883595 97:0.944478 98:0.589246 99:0.888687 100:-0.776785 101:0.930094 102:0.557171 103:0.863624 104:-0.765685 105:0.888719 106:0.529565 107:0.712532 108:-0.79631 109:0.834441 110:-0.530681 111:0.603385 112:-0.802882 113:0.745641 114:-0.719103 115:-0.586596 116:-0.898948 117:0.651502 118:-0.836637 119:-0.702084 120:-0.944244 121:-0.603996 122:-0.895595 123:-0.841609 124:-0.969237 125:-0.723911 126:-0.739548 127:-0.862362 128:-0.900797 129:-0.854538 130:-0.532256 131:-0.923525 132:-0.75976 133:-0.956119 134:-0.765562 135:-0.973101 136:-0.893981 137:-0.948288 138:-0.875621 139:-0.951885 140:-0.949911 141:-0.951512 142:-0.932084 143:-0.941964 144:-0.966967 145:-0.963802 146:-0.957842 147:-0.96578 148:-0.981978 149:-0.975179 150:-0.972716 151:-0.983349 152:-0.986984 153:-0.986985 154:-0.957339 155:-0.987787 156:-0.982458 157:-0.987807 158:-0.971005 159:-0.985304 160:-0.992875 161:-0.976335 162:-0.973123 163:-0.975357 164:-0.992099 165:-0.988663 166:-0.961397 167:-0.990667 168:-0.984366 169:-0.988663 170:-0.96875 171:-0.990667 172:-0.990834 173:-0.968396 174:-0.978709 175:-0.972126 176:-0.996438 177:-0.977556 178:-0.978696 179:-0.970875 180:-0.99624 181:-0.980231 182:-0.987704 183:-0.9794 184:-0.999985 185:-0.970064 186:-0.987497 187:-0.978656 188:-0.996053 189:-0.972997 190:-0.988651 191:-0.968739 192:-0.995882 193:-0.985292 194:-0.961637 195:-0.982754 196:-0.982829 197:-0.978145 198:-0.946716 199:-0.96736 200:-0.980757 201:-0.980547 202:-0.956848 203:-0.962159 204:-0.979594 205:-0.991067 206:-0.966019 207:-0.981493 208:-0.979027 209:-0.993581 210:-0.987711 211:-0.98831 212:-0.995621 213:-0.994391 214:-0.982055 215:-0.993489 216:-0.991487 217:-0.992135 218:-0.974548 219:-0.992556 220:-0.990933 221:-0.988473 222:-0.981061 223:-0.991186 224:-0.992658 225:-0.979982 226:-0.991491 227:-0.987133 228:-0.999984 229:-0.98494 230:-0.994048 231:-0.992102 232:-0.999991 233:-0.988958 234:-0.996107 235:-0.995284 236:-0.999993 237:-0.991968 238:-0.993508 239:-0.995716 240:-0.999988 
-0.1051816082053728 0.09646701800627018 1:0.996682 2:0.962712 3:0.997865 4:-0.943475 5:0.997782 6:0.913465 7:0.998817 8:-0.953134 9:0.988533 10:0.928899 11:0.993088 12:-0.969868 13:0.985787 14:0.962494 15:0.985091 16:-0.890481 17:0.97996 18:0.967449 19:0.976677 20:-0.929285 21:0.982486 22:0.96674 23:0.979087 24:-0.934747 25:0.988947 26:0.966811 27:0.984234 28:-0.932402 29:0.992271 30:0.966867 31:0.990869 32:-0.932136 33:0.990552 34:0.900726 35:0.983895 36:-0.960973 37:0.993098 38:0.90608 39:0.990096 40:-0.959974 41:0.994192 42:0.909938 43:0.992557 44:-0.956298 45:0.99428 46:0.913257 47:0.99251 48:-0.954749 49:0.993905 50:0.911556 51:0.991631 52:-0.944995 53:0.99612 54:0.816196 55:0.99631 56:-0.973271 57:0.995138 58:0.843412 59:0.994287 60:-0.96673 61:0.995397 62:0.863492 63:0.995694 64:-0.9611 65:0.995397 66:0.741823 67:0.995694 68:-0.981177 69:0.985503 70:0.854123 71:0.982235 72:-0.978713 73:0.961614 74:0.825589 75:0.95537 76:-0.98436 77:0.922523 78:0.694733 79:0.920977 80:-0.984323 81:0.817749 82:-0.569063 83:0.804907 84:-0.994844 85:0.608243 86:-0.585721 87:0.62187 88:-0.994921 89:0.608243 90:-0.612759 91:0.62187 92:-0.994656 93:-0.639824 94:0.590718 95:-0.637799 96:-0.984943 97:-0.824669 98:0.583795 99:-0.828789 100:-0.983273 101:-0.800765 102:-0.607151 103:-0.771336 104:-0.987024 105:-0.740249 106:-0.741198 107:-0.650529 108:-0.9906 109:-0.740249 110:-0.865007 111:-0.650529 112:-0.994078 113:-0.802019 114:-0.823922 115:-0.751117 116:-0.986722 117:-0.939077 118:-0.776133 119:-0.913603 120:-0.972289 121:-0.976329 122:-0.833372 123:-0.966029 124:-0.978643 125:-0.9835 126:-0.88226 127:-0.966956 128:-0.990831 129:-0.99318 130:-0.871207 131:-0.986351 132:-0.988374 133:-0.995084 134:-0.804209 135:-0.991332 136:-0.974318 137:-0.996879 138:-0.838141 139:-0.994322 140:-0.981527 141:-0.995263 142:-0.92274 143:-0.990245 144:-0.990886 145:-0.996492 146:-0.92274 147:-0.993918 148:-0.990886 149:-0.995629 150:-0.934211 151:-0.990113 152:-0.991814 153:-0.995852 154:-0.966322 155:-0.989978 156:-0.995821 157:-0.997318 158:-0.964373 159:-0.990682 160:-0.996737 161:-0.996678 162:-0.962343 163:-0.984381 164:-0.999983 165:-0.994332 166:-0.910921 167:-0.97826 168:-0.996379 169:-0.98967 170:-0.952217 171:-0.97188 172:-0.999993 173:-0.990232 174:-0.97631 175:-0.969245 176:-0.999997 177:-0.982626 178:-0.964802 179:-0.96055 180:-0.997266 181:-0.988568 182:-0.926131 183:-0.979937 184:-0.990963 185:-0.981856 186:-0.839859 187:-0.979657 188:-0.980517 189:-0.981856 190:-0.79582 191:-0.979657 192:-0.96409 193:-0.981856 194:-0.797585 195:-0.979657 196:-0.961517 197:-0.98661 198:-0.78327 199:-0.98625 200:-0.962024 201:-0.991723 202:-0.729414 203:-0.992661 204:-0.937502 205:-0.994144 206:-0.729414 207:-0.9935 208:-0.937502 209:-0.990091 210:0.598868 211:-0.990341 212:-0.65558 213:-0.981476 214:0.813515 215:-0.986121 216:0.668579 217:-0.981476 218:0.801362 219:-0.986121 220:0.689924 221:-0.972713 222:0.646732 223:-0.985329 224:0.539215 225:-0.981476 226:-0.6337 227:-0.986121 228:-0.818443 229:-0.987495 230:0.547077 231:-0.992963 232:-0.614791 233:-0.994458 234:0.780054 235:-0.997349 236:0.717347 237:-0.987906 238:0.880743 239:-0.996085 240:0.869129 
-0 0.108546653645029 1:0.982831 2:0.623302 3:0.983969 4:-0.982991 5:0.977549 6:0.667717 7:0.972554 8:-0.983656 9:0.982791 10:0.701318 11:0.980046 12:-0.970951 13:0.983979 14:0.736358 15:0.984189 16:-0.972649 17:0.986432 18:0.752946 19:0.986837 20:-0.959499 21:0.987408 22:0.613644 23:0.988819 24:-0.960432 25:0.988841 26:0.590483 27:0.99009 28:-0.966775 29:0.971001 30:0.630639 31:0.970504 32:-0.967723 33:0.975539 34:-0.619314 35:0.975328 36:-0.987739 37:0.944862 38:-0.762057 39:0.938742 40:-0.989825 41:0.924896 42:-0.835394 43:0.888858 44:-0.990056 45:0.93119 46:-0.860748 47:0.902809 48:-0.990769 49:0.925388 50:-0.918035 51:0.893881 52:-0.992773 53:0.797043 54:-0.96061 55:0.756502 56:-0.996931 57:0.809942 58:-0.971494 59:0.845402 60:-0.99999 61:0.899626 62:-0.965847 63:0.913821 64:-0.999983 65:0.890855 66:-0.974957 67:0.90998 68:-0.999994 69:0.745995 70:-0.972737 71:0.760837 72:-0.99999 73:-0.532797 74:-0.969039 75:-0.511227 76:-0.997054 77:-0.551711 78:-0.977975 79:0.521035 80:-0.999993 81:-0.77689 82:-0.981409 83:-0.76516 84:-0.999997 85:-0.77689 86:-0.973306 87:-0.76516 88:-0.999982 89:-0.714288 90:-0.9881 91:-0.732792 92:-0.999992 93:-0.897562 94:-0.99573 95:-0.912319 96:-0.999999 97:-0.910852 98:-0.993842 99:-0.929246 100:-0.999994 101:-0.957695 102:-0.993842 103:-0.957867 104:-0.999994 105:-0.968289 106:-0.995658 107:-0.977848 108:-0.999994 109:-0.985394 110:-0.999983 111:-0.986146 112:-0.999997 113:-0.993866 114:-0.999986 115:-0.993075 116:-0.999998 117:-0.995426 118:-0.999988 119:-0.995129 120:-0.999998 121:-0.986911 122:-0.999996 123:-0.985862 124:-0.999998 125:-0.990437 126:-0.997181 127:-0.984216 128:-0.999985 129:-0.989079 130:-0.999992 131:-0.97615 132:-0.99999 133:-0.984755 134:-0.996568 135:-0.956502 136:-0.992808 137:-0.984755 138:-0.996555 139:-0.956502 140:-0.994291 141:-0.994215 142:-0.99603 143:-0.981428 144:-0.994298 145:-0.98851 146:-0.99641 147:-0.973346 148:-0.994966 149:-0.979969 150:-0.999992 151:-0.973172 152:-0.999989 153:-0.988306 154:-0.999992 155:-0.985447 156:-0.999995 157:-0.991755 158:-0.999997 159:-0.991955 160:-0.999998 161:-0.990525 162:-0.999997 163:-0.992275 164:-0.999999 165:-0.990948 166:-0.996993 167:-0.99399 168:-0.999985 169:-0.995583 170:-0.988552 171:-0.99698 172:-0.986916 173:-0.990525 174:-0.980611 175:-0.992275 176:-0.985435 177:-0.987564 178:-0.968298 179:-0.990091 180:-0.982371 181:-0.9943 182:-0.964977 183:-0.996007 184:-0.97622 185:-0.981185 186:-0.955869 187:-0.985376 188:-0.961151 189:-0.9894 190:-0.892297 191:-0.99331 192:-0.866281 193:-0.975226 194:-0.933742 195:-0.986529 196:-0.915371 197:-0.976795 198:-0.841539 199:-0.986173 200:-0.749827 201:-0.980364 202:-0.775083 203:-0.991496 204:-0.666216 205:-0.97836 206:-0.67021 207:-0.990506 208:-0.678787 209:-0.97836 210:-0.744545 211:-0.990506 212:-0.8215 213:-0.992728 214:-0.78345 215:-0.996085 216:-0.876727 217:-0.992033 218:-0.904981 219:-0.997178 220:-0.964436 221:-0.982687 222:-0.829263 223:-0.995832 224:-0.937548 225:-0.986368 226:-0.659671 227:-0.997455 228:-0.876529 229:-0.993439 230:-0.83659 231:-0.999995 232:-0.946417 233:-0.992687 234:-0.856454 235:-0.999989 236:-0.949058 237:-0.991067 238:-0.923007 239:-0.996733 240:-0.977244 
-0.5785222195922841 0.7113361120106003 1:0.960502 2:0.970653 3:0.956414 4:-0.96578 5:0.98005 6:0.96961 7:0.981631 8:-0.966329 9:0.988675 10:0.968704 11:0.991185 12:-0.968017 13:0.990758 14:0.967941 15:0.99253 16:-0.970332 17:0.993985 18:0.967313 19:0.995944 20:-0.972912 21:0.994318 22:0.973118 23:0.99629 24:-0.960014 25:0.99508 26:0.972151 27:0.996823 28:-0.964574 29:0.995648 30:0.974811 31:0.997231 32:-0.974594 33:0.996079 34:0.990992 35:0.997547 36:-0.795761 37:0.996412 38:0.991376 39:0.997795 40:-0.852979 41:0.9925 42:0.980298 43:0.995759 44:-0.872831 45:0.993104 46:0.956619 47:0.99618 48:-0.897939 49:0.994394 50:0.799231 51:0.997535 52:-0.975558 53:0.988057 54:0.807677 55:0.991165 56:-0.97697 57:0.992311 58:0.879866 59:0.996058 60:-0.938461 61:0.985698 62:0.845585 63:0.994306 64:-0.944466 65:0.985698 66:0.743994 67:0.994306 68:-0.95651 69:0.98157 70:0.8495 71:0.997073 72:-0.935539 73:0.97672 74:0.855152 75:0.995983 76:-0.936962 77:0.967351 78:0.853954 79:0.991647 80:-0.922305 81:0.974021 82:0.848888 83:0.996 84:-0.934611 85:0.932437 86:0.82751 87:0.98756 88:-0.943396 89:0.835209 90:0.82751 91:0.963006 92:-0.943396 93:0.796791 94:0.82751 95:0.944892 96:-0.943396 97:0.572277 98:0.738783 99:0.813152 100:-0.949883 101:0.520894 102:0.799857 103:0.743819 104:-0.901982 105:-0.606594 106:0.786319 107:0.646981 108:-0.892507 109:-0.804467 110:0.786319 111:-0.728956 112:-0.892507 113:-0.773529 114:0.667071 115:-0.678133 116:-0.875219 117:-0.732298 118:0.667071 119:-0.67208 120:-0.875219 121:-0.850043 122:0.667071 123:-0.862187 124:-0.875219 125:-0.850043 126:0.5 127:-0.862187 128:-0.900676 129:-0.815467 130:-0.633458 131:-0.80492 132:-0.870389 133:-0.761825 134:-0.839781 135:-0.8231 136:-0.943002 137:-0.716828 138:-0.78155 139:-0.763025 140:-0.875074 141:-0.716828 142:-0.710103 143:-0.763025 144:-0.75449 145:-0.730479 146:-0.629937 147:-0.654348 148:-0.584952 149:-0.914391 150:-0.538613 151:-0.911532 152:0.59693 153:-0.921013 154:0.5399 155:-0.898889 156:0.74344 157:-0.871709 158:0.550619 159:-0.892412 160:0.746853 161:-0.786985 162:0.681917 163:-0.902617 164:0.91942 165:-0.812094 166:0.60076 167:-0.929874 168:0.843117 169:-0.812094 170:0.576362 171:-0.929874 172:0.835807 173:-0.850671 174:0.733186 175:-0.961388 176:0.888826 177:-0.834016 178:0.91527 179:-0.959187 180:0.977321 181:-0.83666 182:0.982788 183:-0.976326 184:0.995344 185:-0.878757 186:0.982932 187:-0.985512 188:0.994919 189:-0.843962 190:0.940377 191:-0.977079 192:0.97999 193:-0.843962 194:0.958293 195:-0.977079 196:0.982155 197:-0.87396 198:0.961768 199:-0.989847 200:0.985193 201:-0.766611 202:0.908858 203:-0.969493 204:0.972809 205:-0.898074 206:0.641313 207:-0.986308 208:0.875342 209:-0.952187 210:0.649864 211:-0.992301 212:0.863992 213:-0.947083 214:0.649864 215:-0.985107 216:0.863992 217:-0.956147 218:0.724032 219:-0.990162 220:0.908038 221:-0.973742 222:0.567458 223:-0.992094 224:0.694636 225:-0.982067 226:0.513231 227:-0.990093 228:0.704225 229:-0.983873 230:0.6637 231:-0.991369 232:0.75659 233:-0.988977 234:0.534353 235:-0.994819 236:-0.565284 237:-0.988977 238:-0.698119 239:-0.994819 240:-0.747588 
-0.4894806786727118 0.6959532724386261 1:-0.832828 2:-0.566676 3:-0.970363 4:0.765763 5:-0.768733 6:0.564647 7:-0.962501 8:0.77655 9:-0.599631 10:0.667536 11:-0.923298 12:0.761137 13:0.63265 14:0.815298 15:-0.773608 16:0.884065 17:0.79428 18:0.83846 19:-0.530146 20:0.867606 21:0.847086 22:0.876214 23:0.630019 24:0.842773 25:0.900296 26:0.885456 27:0.725137 28:0.813873 29:0.933725 30:0.676696 31:0.802124 32:0.610618 33:0.935917 34:0.550953 35:0.783033 36:-0.546097 37:0.948409 38:-0.574948 39:0.846771 40:-0.688808 41:0.963778 42:-0.759537 43:0.888843 44:-0.85307 45:0.970587 46:-0.703017 47:0.919372 48:-0.820982 49:0.953299 50:-0.64877 51:0.884246 52:-0.79726 53:0.962154 54:-0.734757 55:0.932755 56:-0.867268 57:0.956607 58:-0.702301 59:0.938961 60:-0.867589 61:0.949023 62:-0.577697 63:0.954951 64:-0.764315 65:0.918475 66:-0.765799 67:0.940251 68:-0.872117 69:0.931199 70:-0.797803 71:0.934153 72:-0.913215 73:0.918207 74:-0.859166 75:0.936883 76:-0.95675 77:0.951905 78:-0.822844 79:0.966918 80:-0.918236 81:0.926754 82:-0.897695 83:0.934902 84:-0.976705 85:0.954657 86:-0.897695 87:0.973969 88:-0.976705 89:0.950749 90:-0.897695 91:0.983594 92:-0.976705 93:0.950749 94:-0.897695 95:0.983594 96:-0.976705 97:0.906961 98:-0.905475 99:0.959198 100:-0.979734 101:0.795391 102:-0.968938 103:0.908829 104:-0.994161 105:0.687314 106:-0.990181 107:0.818047 108:-0.999995 109:-0.603506 110:-0.999981 111:0.628642 112:-1 113:-0.5682 114:-0.999994 115:0.635471 116:-1 117:-0.8107 118:-0.999997 119:-0.613106 120:-1 121:-0.922188 122:-1 123:-0.776485 124:-1 125:-0.955107 126:-0.999999 127:-0.800351 128:-1 129:-0.959675 130:-1 131:-0.772184 132:-1 133:-0.985422 134:-1 135:-0.892605 136:-1 137:-0.984275 138:-1 139:-0.872534 140:-1 141:-0.989173 142:-1 143:-0.91261 144:-1 145:-0.991553 146:-1 147:-0.947215 148:-1 149:-0.995183 150:-1 151:-0.961585 152:-1 153:-0.985725 154:-1 155:-0.916711 156:-1 157:-0.972003 158:-1 159:-0.835519 160:-1 161:-0.964746 162:-1 163:-0.740353 164:-1 165:-0.964095 166:-1 167:-0.776324 168:-1 169:-0.975469 170:-1 171:-0.79798 172:-1 173:-0.987564 174:-1 175:-0.84528 176:-1 177:-0.98995 178:-1 179:-0.906391 180:-1 181:-0.98228 182:-1 183:-0.889818 184:-1 185:-0.987601 186:-1 187:-0.931801 188:-1 189:-0.978131 190:-1 191:-0.860579 192:-1 193:-0.9827 194:-1 195:-0.863338 196:-1 197:-0.991827 198:-1 199:-0.92555 200:-1 201:-0.993502 202:-1 203:-0.957378 204:-1 205:-0.993846 206:-0.999999 207:-0.966852 208:-1 209:-0.991059 210:-1 211:-0.967523 212:-1 213:-0.981423 214:-1 215:-0.953355 216:-1 217:-0.973949 218:-1 219:-0.952613 220:-1 221:-0.989596 222:-1 223:-0.985764 224:-1 225:-0.987859 226:-1 227:-0.985987 228:-1 229:-0.99188 230:-1 231:-0.992895 232:-1 233:-0.989059 234:-0.999996 235:-0.993711 236:-1 237:-0.987306 238:-0.995847 239:-0.989009 240:-0.999994 
-0.6676072363825345 0.7685963405930377 1:-0.688289 2:0.87516 3:-0.887384 4:-0.81616 5:0.558206 6:0.90487 7:-0.699208 8:-0.856908 9:0.75331 10:0.924652 11:0.558223 12:-0.894832 13:0.797445 14:0.93824 15:0.691118 16:-0.925692 17:0.888852 18:0.945721 19:0.838153 20:-0.948775 21:0.914669 22:0.954902 23:0.885236 24:-0.934326 25:0.947299 26:0.957712 27:0.939576 28:-0.908042 29:0.967482 30:0.731171 31:0.965786 32:-0.984725 33:0.978832 34:0.75154 35:0.98037 36:-0.983495 37:0.985538 38:0.83858 39:0.988092 40:-0.963606 41:0.97355 42:0.902425 43:0.980148 44:-0.893282 45:0.939771 46:0.957331 47:0.950162 48:-0.576357 49:0.860705 50:0.936336 51:0.915725 52:-0.544164 53:0.833709 54:0.942853 55:0.886752 56:-0.60787 57:0.846032 58:0.950204 59:0.900699 60:-0.668926 61:0.89164 62:0.955967 63:0.896083 64:-0.727504 65:0.888726 66:0.956127 67:0.824592 68:-0.70531 69:0.836087 70:0.938327 71:0.784285 72:-0.758573 73:0.895911 74:0.91747 75:0.888869 76:-0.717208 77:0.916506 78:0.963748 79:0.910727 80:-0.577361 81:0.963859 82:0.986751 83:0.979054 84:0.652781 85:0.911386 86:0.989363 87:0.937444 88:0.7382 89:0.796903 90:0.979996 91:0.857057 92:-0.604995 93:0.578819 94:0.979075 95:0.602353 96:-0.620258 97:-0.604092 98:0.980799 99:-0.667159 100:-0.600506 101:-0.71173 102:0.933497 103:-0.825696 104:-0.88988 105:-0.794064 106:0.937872 107:-0.907884 108:-0.887887 109:-0.897114 110:0.930236 111:-0.957614 112:-0.867409 113:-0.887227 114:0.952834 115:-0.952854 116:-0.808674 117:-0.946894 118:0.947079 119:-0.978347 120:-0.795905 121:-0.971158 122:0.940594 123:-0.992328 124:-0.796335 125:-0.98711 126:0.959431 127:-0.9963 128:-0.703785 129:-0.993152 130:0.892521 131:-0.99999 132:-0.814971 133:-0.991396 134:0.813896 135:-0.999989 136:-0.865677 137:-0.98467 138:0.84942 139:-0.996666 140:-0.737383 141:-0.974647 142:0.911414 143:-0.9963 144:0.598522 145:-0.98593 146:0.770414 147:-0.999987 148:-0.61777 149:-0.985011 150:0.62186 151:-0.996278 152:-0.682334 153:-0.990757 154:0.62186 155:-0.996791 156:-0.682334 157:-0.984799 158:0.645807 159:-0.993045 160:-0.706857 161:-0.980042 162:0.934812 163:-0.992999 164:0.807105 165:-0.988738 166:0.934812 167:-0.994427 168:0.807105 169:-0.991961 170:0.910723 171:-0.996891 172:0.678025 173:-0.996252 174:0.910723 175:-0.999991 176:0.678025 177:-0.995021 178:0.737731 179:-0.997092 180:-0.705447 181:-0.995481 182:0.731576 183:-0.999992 184:-0.73113 185:-0.990782 186:0.569529 187:-0.996543 188:-0.80583 189:-0.992595 190:0.53047 191:-0.995808 192:-0.868263 193:-0.992595 194:-0.533909 195:-0.995808 196:-0.89884 197:-0.990576 198:0.53047 199:-0.994461 200:-0.868263 201:-0.984595 202:0.724801 203:-0.993815 204:-0.751851 205:-0.987107 206:0.751029 207:-0.995527 208:-0.767204 209:-0.987107 210:-0.712416 211:-0.995527 212:-0.961794 213:-0.993916 214:-0.712416 215:-0.999984 216:-0.961794 217:-0.98624 218:-0.771607 219:-0.995985 220:-0.972474 221:-0.992687 222:-0.853192 223:-0.999984 224:-0.968695 225:-0.989219 226:-0.904475 227:-0.996003 228:-0.968654 229:-0.993138 230:-0.960406 231:-0.996201 232:-0.982068 233:-0.99286 234:-0.972334 235:-0.99625 236:-0.989546 237:-0.984604 238:-0.982173 239:-0.992844 240:-0.990405 
