svm_type c_svc
kernel_type rbf
gamma 100
nr_class 2
total_sv 35
rho -0.274846
label 0 1
probA -3.74898
probB 0.911069
nr_sv 25 10
SV
0.7699663218319536 1:0.040268456 2:0.10067114 3:0.073825503 4:0.073825503 5:0.060402685 6:0.053691275 7:0.033557047 8:0.067114094 9:0.040268456 10:0.0067114094 11:0.046979866 12:0.073825503 13:0.033557047 14:0.020134228 15:0.20134228 16:0.013422819 17:0.020134228 18:0.0067114094 19:0.0067114094 20:0.026845638 
0.5524216417879696 1:0.058962264 2:0.094339623 3:0.033018868 4:0.047169811 5:0.058962264 6:0.0070754717 7:0.0094339623 8:0.033018868 9:0.037735849 10:0.028301887 11:0.058962264 12:0.051886792 13:0.04009434 14:0.025943396 15:0.028301887 16:0.12971698 17:0.10377358 18:0.021226415 19:0.12028302 20:0.011792453 
1 1:0.089015152 2:0.053030303 3:0.0625 4:0.077651515 5:0.043560606 6:0.015151515 7:0.015151515 8:0.058712121 9:0.056818182 10:0.024621212 11:0.049242424 12:0.053030303 13:0.043560606 14:0.045454545 15:0.034090909 16:0.070075758 17:0.051136364 18:0.041666667 19:0.073863636 20:0.041666667 
1 1:0.06002401 2:0.043217287 3:0.051620648 4:0.093637455 5:0.06242497 6:0.0096038415 7:0.022809124 8:0.058823529 9:0.049219688 10:0.022809124 11:0.044417767 12:0.072028812 13:0.043217287 14:0.057623049 15:0.038415366 16:0.06242497 17:0.085234094 18:0.021608643 19:0.06122449 20:0.039615846 
0.8986658632930059 1:0.052427184 2:0.12621359 3:0.07184466 4:0.06407767 5:0.054368932 6:0.011650485 7:0.0097087379 8:0.034951456 9:0.042718447 10:0.0077669903 11:0.058252427 12:0.062135922 13:0.048543689 14:0.031067961 15:0.033009709 16:0.07961165 17:0.10097087 18:0.019417476 19:0.075728155 20:0.015533981 
0.8334257836220376 1:0.034591195 2:0.053459119 3:0.056603774 4:0.094339623 5:0.062893082 6:0.012578616 7:0.012578616 8:0.062893082 9:0.040880503 10:0.0094339623 11:0.050314465 12:0.097484277 13:0.040880503 14:0.059748428 15:0.022012579 16:0.066037736 17:0.037735849 18:0.018867925 19:0.12893082 20:0.037735849 
1 1:0.07771261 2:0.083577713 3:0.083577713 4:0.090909091 5:0.063049853 6:0.0014662757 7:0.013196481 8:0.036656891 9:0.026392962 10:0.0014662757 11:0.029325513 12:0.057184751 13:0.058651026 14:0.049853372 15:0.030791789 16:0.086510264 17:0.080645161 18:0.011730205 19:0.08797654 20:0.029325513 
1 1:0.096774194 2:0.11520737 3:0.10599078 4:0.059907834 5:0.055299539 6:0.0092165899 7:0.0092165899 8:0.023041475 9:0.023041475 10:0.0046082949 11:0.036866359 12:0.069124424 13:0.059907834 14:0.01843318 15:0.032258065 16:0.059907834 17:0.10138249 18:0.0092165899 19:0.082949309 20:0.02764977 
0.70207862651569 1:0.08401084 2:0.14092141 3:0.081300813 4:0.097560976 5:0.032520325 6:0.010840108 7:0.0027100271 8:0.043360434 9:0.027100271 10:0.0081300813 11:0.043360434 12:0.054200542 13:0.054200542 14:0.029810298 15:0.0081300813 16:0.059620596 17:0.075880759 18:0.0081300813 19:0.11382114 20:0.024390244 
0.3950031849248791 1:0.055813953 2:0.060465116 3:0.079069767 4:0.10697674 5:0.027906977 6:0.027906977 7:0.013953488 8:0.074418605 9:0.037209302 10:0.0046511628 11:0.018604651 12:0.08372093 13:0.088372093 14:0.018604651 15:0.046511628 16:0.055813953 17:0.065116279 18:0.023255814 19:0.055813953 20:0.055813953 
0.6602707549899707 1:0.071684588 2:0.075268817 3:0.046594982 4:0.14336918 5:0.039426523 6:0.021505376 7:0.021505376 8:0.028673835 9:0.017921147 10:0.028673835 11:0.10752688 12:0.093189964 13:0.0609319 14:0.017921147 15:0.035842294 16:0.046594982 17:0.039426523 18:0.017921147 19:0.014336918 20:0.071684588 
0.4831717781656114 1:0.036945813 2:0.056650246 3:0.0591133 4:0.091133005 5:0.064039409 6:0.017241379 7:0.022167488 8:0.064039409 9:0.034482759 10:0.0073891626 11:0.056650246 12:0.0591133 13:0.04679803 14:0.039408867 15:0.041871921 16:0.086206897 17:0.073891626 18:0.034482759 19:0.049261084 20:0.0591133 
1 1:0.058988764 2:0.04494382 3:0.06741573 4:0.12078652 5:0.061797753 6:0.019662921 7:0.011235955 8:0.061797753 9:0.042134831 10:0.0056179775 11:0.030898876 12:0.075842697 13:0.039325843 14:0.053370787 15:0.030898876 16:0.056179775 17:0.06741573 18:0.030898876 19:0.061797753 20:0.058988764 
1 1:0.052023121 2:0.10982659 3:0.080924855 4:0.098265896 5:0.057803468 6:0.01734104 7:0.01734104 8:0.034682081 9:0.046242775 10:0.01734104 11:0.034682081 12:0.10982659 13:0.063583815 14:0.028901734 15:0.040462428 16:0.040462428 17:0.052023121 18:0.023121387 19:0.028901734 20:0.046242775 
0.3635766986239325 1:0.039619651 2:0.10301109 3:0.088748019 4:0.11727417 5:0.047543582 6:0.0031695721 7:0.012678288 8:0.05229794 9:0.028526149 10:0.0063391442 11:0.039619651 12:0.085578447 13:0.082408875 14:0.041204437 15:0.047543582 16:0.041204437 17:0.061806656 18:0.025356577 19:0.045958796 20:0.030110935 
0.4787117950068155 1:0.05362776 2:0.066246057 3:0.041009464 4:0.11356467 5:0.03785489 6:0.0031545741 7:0.018927445 8:0.044164038 9:0.041009464 10:0.015772871 11:0.031545741 12:0.041009464 13:0.028391167 14:0.03785489 15:0.047318612 16:0.11987382 17:0.13249211 18:0.028391167 19:0.056782334 20:0.041009464 
1 1:0.069199457 2:0.048846676 3:0.078697422 4:0.081411126 5:0.059701493 6:0.017639077 7:0.020352782 8:0.056987788 9:0.046132972 10:0.018995929 11:0.048846676 12:0.042062415 13:0.043419267 14:0.063772049 15:0.029850746 16:0.067842605 17:0.061058345 18:0.029850746 19:0.070556309 20:0.044776119 
1 1:0.057731959 2:0.053608247 3:0.068041237 4:0.092783505 5:0.045360825 6:0.012371134 7:0.035051546 8:0.026804124 9:0.053608247 10:0.018556701 11:0.032989691 12:0.082474227 13:0.068041237 14:0.057731959 15:0.057731959 16:0.051546392 17:0.057731959 18:0.024742268 19:0.051546392 20:0.051546392 
0.07012361719063313 1:0.056074766 2:0.051401869 3:0.065420561 4:0.10747664 5:0.056074766 6:0.0093457944 7:0.023364486 8:0.046728972 9:0.03271028 10:0.023364486 11:0.023364486 12:0.051401869 13:0.060747664 14:0.023364486 15:0.079439252 16:0.03271028 17:0.098130841 18:0.03271028 19:0.056074766 20:0.070093458 
1 1:0.11512027 2:0.042955326 3:0.077319588 4:0.104811 5:0.046391753 6:0.015463918 7:0.027491409 8:0.036082474 9:0.041237113 10:0.0051546392 11:0.068728522 12:0.046391753 13:0.051546392 14:0.032646048 15:0.034364261 16:0.070446735 17:0.058419244 18:0.032646048 19:0.032646048 20:0.060137457 
1 1:0.079365079 2:0.081128748 3:0.070546737 4:0.11111111 5:0.042328042 6:0.0088183422 7:0.028218695 8:0.047619048 9:0.024691358 10:0.021164021 11:0.068783069 12:0.061728395 13:0.05643739 14:0.035273369 15:0.038800705 16:0.040564374 17:0.065255732 18:0.02292769 19:0.0670194 20:0.028218695 
0.3943215717963075 1:0.084291188 2:0.084291188 3:0.057471264 4:0.1302682 5:0.034482759 6:0.0038314176 7:0.022988506 8:0.045977011 9:0.042145594 10:0.0076628352 11:0.049808429 12:0.061302682 13:0.030651341 14:0.022988506 15:0.045977011 16:0.057471264 17:0.076628352 18:0.0076628352 19:0.10344828 20:0.030651341 
1 1:0.060352832 2:0.063138347 3:0.059424327 4:0.078922934 5:0.066852368 6:0.0064995357 7:0.019498607 8:0.038068709 9:0.023212628 10:0.0074280409 11:0.03992572 12:0.098421541 13:0.081708449 14:0.04363974 15:0.038068709 16:0.059424327 17:0.081708449 18:0.022284123 19:0.059424327 20:0.051996286 
1 1:0.068669528 2:0.058655222 3:0.054363376 4:0.1130186 5:0.035765379 6:0.0071530758 7:0.018597997 8:0.050071531 9:0.028612303 10:0.022889843 11:0.081545064 12:0.067238913 13:0.054363376 14:0.024320458 15:0.04434907 16:0.048640916 17:0.070100143 18:0.032904149 19:0.051502146 20:0.067238913 
1 1:0.028255528 2:0.052825553 3:0.056511057 4:0.1019656 5:0.085995086 6:0.015970516 7:0.014742015 8:0.062653563 9:0.034398034 10:0.011056511 11:0.054054054 12:0.085995086 13:0.047911548 14:0.054054054 15:0.049140049 16:0.041769042 17:0.076167076 18:0.020884521 19:0.038083538 20:0.067567568 
-1.480769845757046 1:0.050108932 2:0.047930283 3:0.058823529 4:0.10021786 5:0.05664488 6:0.0021786492 7:0.0087145969 8:0.052287582 9:0.019607843 10:0 11:0.041394336 12:0.089324619 13:0.030501089 14:0.076252723 15:0.074074074 16:0.052287582 17:0.098039216 18:0.017429194 19:0.067538126 20:0.05664488 
-0.8175137297780581 1:0.10176991 2:0.061946903 3:0.048672566 4:0.048672566 5:0.030973451 6:0.075221239 7:0.013274336 8:0.075221239 9:0.030973451 10:0.013274336 11:0.088495575 12:0.053097345 13:0.075221239 14:0.092920354 15:0.053097345 16:0.044247788 17:0.026548673 18:0.0044247788 19:0.022123894 20:0.039823009 
-2.200037500762982 1:0.081794195 2:0.060686016 3:0.050131926 4:0.079155673 5:0.055408971 6:0.015831135 7:0.015831135 8:0.036939314 9:0.047493404 10:0.026385224 11:0.026385224 12:0.09762533 13:0.047493404 14:0.042216359 15:0.044854881 16:0.060686016 17:0.071240106 18:0.034300792 19:0.068601583 20:0.036939314 
-3.3 1:0.069591528 2:0.059001513 3:0.074130106 4:0.08623298 5:0.046898638 6:0.0045385779 7:0.018154312 8:0.037821483 9:0.04387292 10:0.028744327 11:0.068078669 12:0.092284418 13:0.063540091 14:0.042360061 15:0.030257186 16:0.081694402 17:0.040847201 18:0.019667171 19:0.048411498 20:0.04387292 
-2.936452141206959 1:0.043280182 2:0.0523918 3:0.066059226 4:0.1070615 5:0.059225513 6:0.0022779043 7:0.0045558087 8:0.06833713 9:0.027334852 10:0 11:0.050113895 12:0.075170843 13:0.025056948 14:0.075170843 15:0.075170843 16:0.047835991 17:0.08428246 18:0.018223235 19:0.047835991 20:0.070615034 
-1.435736535776402 1:0.094444444 2:0.10833333 3:0.094444444 4:0.069444444 5:0.030555556 6:0.025 7:0.019444444 8:0.05 9:0.038888889 10:0.016666667 11:0.033333333 12:0.069444444 13:0.058333333 14:0.05 15:0.022222222 16:0.047222222 17:0.055555556 18:0.013888889 19:0.041666667 20:0.061111111 
-1.213382253215744 1:0.11811024 2:0.088582677 3:0.076771654 4:0.084645669 5:0.062992126 6:0.023622047 7:0.023622047 8:0.041338583 9:0.033464567 10:0.011811024 11:0.051181102 12:0.06496063 13:0.049212598 14:0.025590551 15:0.041338583 16:0.049212598 17:0.057086614 18:0.0098425197 19:0.059055118 20:0.027559055 
-1.658918899381296 1:0.093283582 2:0.125 3:0.072761194 4:0.061567164 5:0.055970149 6:0.01119403 7:0.013059701 8:0.029850746 9:0.031716418 10:0.01119403 11:0.026119403 12:0.083955224 13:0.054104478 14:0.039179104 15:0.018656716 16:0.067164179 17:0.057835821 18:0.037313433 19:0.082089552 20:0.027985075 
-1.83470354035775 1:0.074850299 2:0.050898204 3:0.033932136 4:0.058882236 5:0.033932136 6:0.012974052 7:0.036926148 8:0.052894212 9:0.033932136 10:0.0079840319 11:0.11377246 12:0.043912176 13:0.027944112 14:0.038922156 15:0.026946108 16:0.070858283 17:0.10778443 18:0.080838323 19:0.065868263 20:0.025948104 
-2.72422319151257 1:0.09382716 2:0.079012346 3:0.044444444 4:0.10123457 5:0.059259259 6:0.0098765432 7:0.0098765432 8:0.059259259 9:0.051851852 10:0.0098765432 11:0.04691358 12:0.064197531 13:0.069135802 14:0.044444444 15:0.02962963 16:0.064197531 17:0.066666667 18:0.022222222 19:0.059259259 20:0.014814815 
