svm_type c_svc
kernel_type rbf
gamma 0.5
nr_class 2
total_sv 141
rho -0.251032
label 0 1
probA -6.2514
probB 1.10986
nr_sv 93 48
SV
0.08447083696641593 1:0.119752 2:0.159973 3:0.0787698 4:0.641505 5:-0.953581 6:0.55057 7:0.610264 8:0.771409 9:0.0314489 10:0.328913 11:0.0116689 12:0.00664583 13:0.0141361 14:0.0101646 15:0.00190028 16:0.0388244 17:0.00572842 18:0 19:0 20:1 21:1 22:0 23:1 24:1 25:0.494073 26:0.122358 27:0.0219902 28:0.0679214 29:0.0784138 30:0.0160531 31:0.0102889 32:0.157336 33:0.022446 34:0.00911955 35:0.924263 36:0.0600567 37:0.00918158 38:0.000491491 39:0.00112914 40:0.000304775 41:0.0001969 42:0.00124791 43:0.000277377 44:0.00285112 
0.08625536400921399 1:0.799976 2:0.0176289 3:0.021172 4:0.161223 5:-0.961154 6:0.311063 7:0.695507 8:-0.695023 9:0.0514469 10:0.214601 11:0.053539 12:0.0158202 13:0.031936 14:0.0385623 15:0.0149229 16:0.216062 17:0.0520466 18:0 19:0 20:0 21:0 22:0 23:1 24:1 25:0.148525 26:0.14353 27:0.11785 28:0.462387 29:0.0573047 30:0.0310302 31:0.0128533 32:0.0114298 33:0.0098447 34:0.00524533 35:0.996048 36:0.000931933 37:0.000455919 38:0.000130814 39:8.68405e-05 40:5.57853e-05 41:0.000110309 42:4.07209e-05 43:0.00162569 44:0.000513935 
0.09801919158797863 1:0.000503657 2:0.00725121 3:0.0231565 4:0.969089 5:-0.70038 6:0.735592 7:0.787535 8:-0.984203 9:0.00530426 10:0.164585 11:0.0437266 12:0.00313635 13:0.0204665 14:0.00271196 15:0.00523544 16:0.00393038 17:0.0153112 18:1 19:0 20:0 21:1 22:0 23:0 24:0 25:0.0600655 26:0.491927 27:0.0983965 28:0.0912021 29:0.0659242 30:0.0927192 31:0.0643277 32:0.0163532 33:0.00805704 34:0.0110271 35:0.1 36:0.1 37:0.1 38:0.1 39:0.1 40:0.1 41:0.1 42:0.1 43:0.1 44:0.1 
0.3988903844312096 1:0.0151752 2:0.0117739 3:0.00660367 4:0.966447 5:-0.95838 6:0.057268 7:0.127769 8:0.766546 9:0.0143881 10:0.377334 11:0.11972 12:0.0159084 13:0.194849 14:0.0328373 15:0.0546728 16:0.108223 17:0.0247988 18:0 19:0 20:0 21:0 22:0 23:0 24:1 25:0.0119834 26:0.0339357 27:0.0125374 28:0.0136817 29:0.0187381 30:0.0198972 31:0.172253 32:0.710249 33:0.0034425 34:0.00328147 35:0.0142746 36:0.0446097 37:0.0114371 38:0.734989 39:0.0829522 40:0.0349673 41:0.0265151 42:0.0169308 43:0.0223987 44:0.0109254 
0.1297754090585928 1:0.00174862 2:0.0124587 3:0.00361518 4:0.982178 5:-0.95774 6:0.0363609 7:0.689935 8:-0.99599 9:0.0476446 10:0.0252884 11:0.0030113 12:0.00280509 13:0.00696637 14:0.819321 15:0.0153306 16:0.0301368 17:0.0131349 18:0 19:0 20:0 21:1 22:0 23:0 24:1 25:0.118494 26:0.104937 27:0.142391 28:0.0192948 29:0.00798466 30:0.253864 31:0.331927 32:0.0151712 33:0.0042214 34:0.00171424 35:0.780727 36:0.0689064 37:0.0178183 38:0.0261339 39:0.00680587 40:0.0171954 41:0.0362665 42:0.00951333 43:0.0178022 44:0.0188314 
0.8357742020354458 1:0.995309 2:0.00136946 3:0.000185129 4:0.00313603 5:0.942155 6:0.315197 7:0.350794 8:0.941536 9:0.0179567 10:0.470153 11:0.0106192 12:0.0190433 13:0.0407371 14:0.0634459 15:0.0117442 16:0.0315584 17:0.019545 18:1 19:0 20:0 21:1 22:0 23:1 24:0 25:0.303644 26:0.13276 27:0.00656882 28:0.0455807 29:0.260048 30:0.0120309 31:0.0545577 32:0.179515 33:0.00339726 34:0.00189835 35:0.987913 36:0.00281123 37:0.0012696 38:0.000477565 39:0.000282193 40:0.000357504 41:0.000283267 42:0.00021216 43:0.00486449 44:0.00152926 
0.4092352056910895 1:2.9049e-05 2:0.0030312 3:0.00228865 4:0.994651 5:-0.966676 6:0.0948855 7:0.134702 8:-0.61271 9:0.00381229 10:0.468781 11:0.0327718 12:0.0106112 13:0.060508 14:0.252371 15:0.0425234 16:0.0259397 17:0.00779677 18:0 19:0 20:0 21:0 22:0 23:0 24:1 25:0.0187269 26:0.097948 27:0.032951 28:0.0361279 29:0.46796 30:0.0198402 31:0.220946 32:0.0570402 33:0.0324648 34:0.0159955 35:0.1 36:0.1 37:0.1 38:0.1 39:0.1 40:0.1 41:0.1 42:0.1 43:0.1 44:0.1 
0.02889301481030952 1:0.00170875 2:0.000988748 3:0.00110829 4:0.996194 5:-0.959341 6:0.450919 7:0.592498 8:-0.98912 9:0.0236308 10:0.274918 11:0.060172 12:0.00577764 13:0.0235796 14:0.132776 15:0.00323228 16:0.0218098 17:0.00318532 18:0 19:0 20:0 21:1 22:0 23:0 24:1 25:0.903734 26:0.0273147 27:0.0105813 28:0.0327476 29:0.00594717 30:0.00974876 31:0.00651499 32:0.00234827 33:0.000889694 34:0.000173361 35:0.0795355 36:0.029148 37:0.0771238 38:0.0113004 39:0.0224806 40:0.0114511 41:0.00654396 42:0.0107676 43:0.0133161 44:0.738333 
0.121676579910612 1:0.00947458 2:0.00421354 3:0.0019509 4:0.984361 5:-0.954601 6:0.464397 7:0.723247 8:0.987748 9:0.00705902 10:0.128228 11:0.150324 12:0.116663 13:0.0651355 14:0.00951972 15:0.0238281 16:0.0137142 17:0.0211311 18:1 19:0 20:0 21:1 22:0 23:0 24:1 25:0.0799728 26:0.0477977 27:0.0100954 28:0.214795 29:0.487737 30:0.00554973 31:0.0690377 32:0.0696289 33:0.0121897 34:0.00319576 35:0.0275591 36:0.649123 37:0.0257692 38:0.0550128 39:0.0956436 40:0.0453036 41:0.0418404 42:0.0245161 43:0.0245505 44:0.0106817 
0.1462045370773055 1:0.997337 2:5.73739e-06 3:5.65204e-06 4:0.00265205 5:-0.955143 6:0.763738 7:0.891866 8:0.644871 9:0.0113816 10:0.0716489 11:0.0109161 12:0.00351356 13:0.0249702 14:0.0177313 15:0.00293985 16:0.0336544 17:0.0595059 18:0 19:0 20:0 21:0 22:0 23:1 24:1 25:0.149663 26:0.0709048 27:0.0133916 28:0.258164 29:0.239324 30:0.00800061 31:0.049238 32:0.204214 33:0.00538145 34:0.00171832 35:0.975732 36:0.0047786 37:0.00318599 38:0.00114284 39:0.000821995 40:0.000636546 41:0.000536855 42:0.000478017 43:0.00816155 44:0.00452608 
0.2806457341600536 1:0.00416944 2:0.629752 3:0.353753 4:0.0123255 5:-0.963128 6:0.348801 7:0.898016 8:0.734594 9:0.0349641 10:0.0491129 11:0.11877 12:0.322216 13:0.0371979 14:0.00427425 15:0.0382305 16:0.00801085 17:0.0384225 18:0 19:0 20:0 21:0 22:0 23:0 24:1 25:0.0500745 26:0.116684 27:0.0347831 28:0.0687719 29:0.159752 30:0.0527386 31:0.142322 32:0.370675 33:0.00217978 34:0.00201868 35:0.0216696 36:0.0591372 37:0.0169791 38:0.685739 39:0.007662 40:0.0455257 41:0.0573199 42:0.0165093 43:0.061306 44:0.028152 
0.02686845855261191 1:0.000427059 2:0.00350024 3:0.989313 4:0.00675989 5:-0.975547 6:0.181674 7:0.583121 8:-0.850424 9:0.0164118 10:0.147321 11:0.0222727 12:0.0341428 13:0.0538852 14:0.0280577 15:0.00555182 16:0.054615 17:0.456068 18:0 19:0 20:0 21:0 22:0 23:0 24:1 25:0.428418 26:0.113578 27:0.0436187 28:0.116591 29:0.175452 30:0.0196787 31:0.00625826 32:0.0826269 33:0.00905282 34:0.00472691 35:0.1 36:0.1 37:0.1 38:0.1 39:0.1 40:0.1 41:0.1 42:0.1 43:0.1 44:0.1 
0.2476149922359713 1:0.00380405 2:0.00110571 3:0.00146116 4:0.993629 5:-0.955976 6:0.907795 7:0.946645 8:-0.999998 9:0.00568252 10:0.0522319 11:0.00175594 12:0.00358583 13:0.00837365 14:0.000880721 15:0.0160395 16:0.00213946 17:0.00151535 18:0 19:0 20:1 21:0 22:0 23:1 24:0 25:0.278531 26:0.395454 27:0.00768499 28:0.0437738 29:0.192527 30:0.0132064 31:0.043861 32:0.0191583 33:0.00307456 34:0.0027286 35:0.910074 36:0.0765865 37:0.00783456 38:0.000761751 39:0.00106363 40:0.000253828 41:0.000299055 42:0.000593682 43:0.000169637 44:0.0023637 
0.2545985229869231 1:0.0535366 2:0.601454 3:0.0727131 4:0.272296 5:-0.960499 6:0.053072 7:0.544842 8:0.9833 9:0.0186281 10:0.0523657 11:0.118409 12:0.183726 13:0.326991 14:0.014941 15:0.0497613 16:0.0442511 17:0.137855 18:0 19:0 20:0 21:0 22:0 23:0 24:0 25:0.19079 26:0.511766 27:0.0151587 28:0.0224138 29:0.0250326 30:0.0259699 31:0.180847 32:0.0242581 33:0.00210118 34:0.00166279 35:0.0169442 36:0.524378 37:0.0600847 38:0.0259481 39:0.213385 40:0.0202058 41:0.0160629 42:0.0123586 43:0.0305663 44:0.0800658 
0.2595104726490869 1:0.00198319 2:0.00624105 3:0.00177123 4:0.990005 5:-0.956466 6:0.207673 7:0.76358 8:0.972465 9:0.166447 10:0.0993048 11:0.0318978 12:0.00940915 13:0.0146731 14:0.0139314 15:0.00317008 16:0.444568 17:0.00892508 18:0 19:0 20:0 21:0 22:0 23:0 24:0 25:0.0484703 26:0.142424 27:0.00870482 28:0.00336398 29:0.000519303 30:0.127504 31:0.648783 32:0.0180931 33:0.000947066 34:0.0011908 35:0.118384 36:0.63341 37:0.0347391 38:0.0444972 39:0.0198618 40:0.0566814 41:0.0284334 42:0.0161607 43:0.0158914 44:0.0319411 
0.4292145166551095 1:0.000252962 2:0.00350055 3:0.00497614 4:0.99127 5:-0.958373 6:0.0145407 7:0.122568 8:-0.882878 9:0.00852313 10:0.128378 11:0.166739 12:0.0419456 13:0.223967 14:0.183606 15:0.124627 16:0.00625889 17:0.101415 18:0 19:0 20:1 21:0 22:0 23:0 24:1 25:0.127025 26:0.114628 27:0.00341086 28:0.0101444 29:0.0311158 30:0.00222878 31:0.695074 32:0.00749915 33:0.00706302 34:0.00181109 35:0.99241 36:0.00259974 37:0.00117012 38:0.000492401 39:0.000221485 40:0.000227201 41:0.00145328 42:0.000212085 43:0.000619158 44:0.000595001 
0.1658477024877757 1:0.00329572 2:0.00663077 3:0.00312307 4:0.98695 5:-0.971217 6:0.172118 7:0.723194 8:0.695228 9:0.0444147 10:0.0909285 11:0.204954 12:0.0265299 13:0.0574257 14:0.0217396 15:0.299612 16:0.0688235 17:0.0134536 18:1 19:0 20:0 21:1 22:0 23:0 24:1 25:0.0589002 26:0.856776 27:0.008932 28:0.00668694 29:0.00706735 30:0.00297793 31:0.0307861 32:0.0231693 33:0.00268452 34:0.00202014 35:0.0538489 36:0.630576 37:0.0334268 38:0.0153429 39:0.146721 40:0.0145708 41:0.0451313 42:0.00900461 43:0.0218011 44:0.0295771 
0.352758577733847 1:0.00374112 2:0.197894 3:0.756757 4:0.0416078 5:-0.95682 6:0.129694 7:0.236879 8:-0.860908 9:0.0314253 10:0.264583 11:0.0369748 12:0.0804133 13:0.0306548 14:0.0270232 15:0.0103506 16:0.33917 17:0.0497106 18:0 19:0 20:0 21:1 22:0 23:0 24:1 25:0.0139955 26:0.0337131 27:0.341835 28:0.0404139 29:0.0113732 30:0.501749 31:0.0214663 32:0.0246585 33:0.00478187 34:0.00601284 35:0.0947367 36:0.0447239 37:0.0573931 38:0.0300388 39:0.0258356 40:0.0451038 41:0.0991804 42:0.0146839 43:0.554223 44:0.0340806 
0.2403910424030956 1:0.669982 2:0.089979 3:0.024001 4:0.216037 5:-0.95588 6:0.057827 7:0.576704 8:-0.541537 9:0.00379779 10:0.0880284 11:0.0250114 12:0.00383586 13:0.0633917 14:0.0647692 15:0.260593 16:0.101495 17:0.331251 18:0 19:0 20:0 21:1 22:0 23:1 24:0 25:0.0734456 26:0.236941 27:0.0327502 28:0.059057 29:0.224293 30:0.029906 31:0.0813439 32:0.255829 33:0.00389008 34:0.00254387 35:0.91932 36:0.0637392 37:0.00243341 38:0.00191979 39:0.00400008 40:0.000560615 41:0.000969812 42:0.000686801 43:0.00364633 44:0.00272406 
0.3147170234002532 1:0.000394201 2:0.0070969 3:0.00148853 4:0.99102 5:-0.808271 6:0.0573552 7:0.117692 8:-0.985206 9:0.00421266 10:0.328371 11:0.0246104 12:0.00317219 13:0.0893167 14:0.129343 15:0.310264 16:0.0424671 17:0.010888 18:1 19:0 20:0 21:1 22:0 23:0 24:1 25:0.21966 26:0.177122 27:0.0090194 28:0.00586561 29:0.0317493 30:0.00940168 31:0.484447 32:0.0562972 33:0.00240273 34:0.00403385 35:0.144624 36:0.737788 37:0.0207527 38:0.0217539 39:0.0241658 40:0.00969747 41:0.0291137 42:0.00353385 43:0.00482457 44:0.00374577 
0.1841443147645261 1:0.333539 2:0.51892 3:0.0559344 4:0.0916062 5:-0.962453 6:0.908994 7:0.944719 8:0.955932 9:0.00197278 10:0.0539843 11:0.00177714 12:0.00206333 13:0.0107141 14:0.00148459 15:0.00714291 16:0.00153422 17:0.0103323 18:1 19:0 20:0 21:0 22:0 23:1 24:1 25:0.117803 26:0.0851323 27:0.00668682 28:0.117085 29:0.551302 30:0.00958543 31:0.0363104 32:0.072983 33:0.00209697 34:0.00101535 35:0.924263 36:0.0600567 37:0.00918158 38:0.000491491 39:0.00112914 40:0.000304775 41:0.0001969 42:0.00124791 43:0.000277377 44:0.00285112 
0.1012889638432855 1:0.0145587 2:0.0529145 3:0.256358 4:0.676168 5:-0.957124 6:0.710655 7:0.802249 8:-0.999998 9:0.00426908 10:0.17769 11:0.0117984 12:0.00804225 13:0.0167773 14:0.0150767 15:0.0169395 16:0.0309243 17:0.00782806 18:1 19:0 20:1 21:1 22:0 23:1 24:1 25:0.188641 26:0.0679455 27:0.0112494 28:0.141724 29:0.143468 30:0.0300146 31:0.0418161 32:0.346997 33:0.024341 34:0.00380332 35:0.966717 36:0.0198346 37:0.00209622 38:0.000965769 39:0.00154973 40:0.000458251 41:0.000609247 42:0.000359194 43:0.00510825 44:0.00230177 
0.03930477020618672 1:0.00591115 2:0.00695236 3:0.0142046 4:0.972932 5:-0.972265 6:0.752064 7:0.887009 8:-0.762364 9:0.00527315 10:0.0863505 11:0.00619423 12:0.0219798 13:0.0246525 14:0.0170772 15:0.00969969 16:0.0572694 17:0.019439 18:1 19:0 20:0 21:0 22:0 23:1 24:0 25:0.0487917 26:0.0863992 27:0.00723521 28:0.0890717 29:0.646417 30:0.00610728 31:0.0706687 32:0.0406289 33:0.00329767 34:0.00138312 35:0.931894 36:0.0323277 37:0.0130493 38:0.00267872 39:0.00204429 40:0.00109209 41:0.00109363 42:0.000814638 43:0.00756484 44:0.00744128 
0.05224690651171787 1:0.00150196 2:0.0133626 3:0.942679 4:0.0424567 5:-0.955571 6:0.891175 7:0.93542 8:-0.958989 9:0.00756435 10:0.0601539 11:0.00659499 12:0.00153103 13:0.0120956 14:0.0051239 15:0.000882642 16:0.0113863 17:0.00349211 18:0 19:0 20:0 21:0 22:0 23:0 24:1 25:0.0372659 26:0.0760495 27:0.00790443 28:0.0709439 29:0.596643 30:0.0145282 31:0.00571044 32:0.184235 33:0.0055823 34:0.00113763 35:0.975475 36:0.00527407 37:0.00265235 38:0.00164251 39:0.00048479 40:0.000918322 41:0.00112616 42:0.000493092 43:0.00883764 44:0.0030958 
0.09296985633330893 1:0.000116093 2:0.00578115 3:0.0140232 4:0.98008 5:-0.954541 6:0.0925212 7:0.104192 8:-0.549164 9:0.00247112 10:0.745052 11:0.0417995 12:0.00311832 13:0.0326659 14:0.00845969 15:0.0265497 16:0.0422215 17:0.00514099 18:1 19:0 20:0 21:0 22:0 23:1 24:1 25:0.0646849 26:0.0563577 27:0.0223542 28:0.066671 29:0.491741 30:0.00600734 31:0.0732745 32:0.217199 33:0.00109451 34:0.000616041 35:0.941669 36:0.0355226 37:0.00839702 38:0.00200997 39:0.00145868 40:0.000430473 41:0.000428916 42:0.000473821 43:0.00186507 44:0.00774488 
0.06735607804036713 1:0.135653 2:0.0543661 3:0.0909005 4:0.71908 5:-0.949452 6:0.146333 7:0.45101 8:-0.78316 9:0.0429396 10:0.174319 11:0.0419065 12:0.0261715 13:0.0396093 14:0.0323417 15:0.00691926 16:0.451991 17:0.0374686 18:1 19:0 20:0 21:0 22:0 23:1 24:1 25:0.304164 26:0.520592 27:0.011553 28:0.0187401 29:0.0263785 30:0.0438916 31:0.0177446 32:0.0117816 33:0.0365576 34:0.00859778 35:0.0554043 36:0.580295 37:0.243834 38:0.00946684 39:0.0612615 40:0.0113361 41:0.0093399 42:0.00307739 43:0.0100764 44:0.0159089 
0.06678278133099733 1:0.000198685 2:0.00267036 3:0.00175267 4:0.995378 5:-0.960099 6:0.957937 7:0.978509 8:0.98871 9:0.000925856 10:0.0146078 11:0.00916223 12:0.00626994 13:0.00593564 14:0.0023945 15:0.00156507 16:0.000507629 17:0.000694661 18:1 19:0 20:0 21:1 22:0 23:0 24:1 25:0.825878 26:0.066052 27:0.0157509 28:0.00619935 29:0.00149928 30:0.0684262 31:0.0117486 32:0.00176543 33:0.000652258 34:0.00202777 35:0.898268 36:0.0463377 37:0.0185867 38:0.00284598 39:0.00239428 40:0.000886408 41:0.00370253 42:0.000334692 43:0.003257 44:0.0233869 
0.04548299062153019 1:0.00165745 2:0.00232162 3:0.00191733 4:0.994104 5:-0.971782 6:0.161799 7:0.5 8:0.788923 9:0.125842 10:0.205363 11:0.0751617 12:0.0253611 13:0.0423238 14:0.0421157 15:0.00968268 16:0.246846 17:0.0655045 18:1 19:0 20:1 21:0 22:0 23:0 24:1 25:0.0675996 26:0.524593 27:0.250142 28:0.00693448 29:0.00736725 30:0.049488 31:0.0423226 32:0.0422291 33:0.00594793 34:0.00337607 35:0.868385 36:0.0377535 37:0.00956174 38:0.00676104 39:0.00296545 40:0.00826934 41:0.00709245 42:0.00300394 43:0.0120391 44:0.0441689 
0.1083362077882649 1:0.823116 2:0.0834413 3:0.0214816 4:0.0719608 5:-0.954754 6:0.688493 7:0.860029 8:-0.970328 9:0.0171013 10:0.123395 11:0.00966324 12:0.007604 13:0.017834 14:0.0345986 15:0.00637358 16:0.0490787 17:0.0458591 18:1 19:0 20:0 21:0 22:0 23:1 24:1 25:0.39102 26:0.0440307 27:0.0422211 28:0.0349478 29:0.0141579 30:0.180471 31:0.148245 32:0.131189 33:0.00578838 34:0.00792949 35:0.982956 36:0.00600577 37:0.00321504 38:0.000839282 39:0.000588047 40:0.000209173 41:0.00021046 42:0.000176593 43:0.00173488 44:0.00406491 
0.4692042781319062 1:0.0487961 2:0.852596 3:0.0172523 4:0.0813552 5:-0.971964 6:0.177996 7:0.490497 8:0.658003 9:0.0034128 10:0.115801 11:0.162223 12:0.00421774 13:0.0850887 14:0.0939431 15:0.034766 16:0.0522717 17:0.27028 18:0 19:0 20:0 21:1 22:0 23:0 24:0 25:0.125977 26:0.0228211 27:0.00642526 28:0.0675379 29:0.661984 30:0.0111611 31:0.0249286 32:0.0745576 33:0.00367294 34:0.000934179 35:0.1 36:0.1 37:0.1 38:0.1 39:0.1 40:0.1 41:0.1 42:0.1 43:0.1 44:0.1 
0.1154800222303755 1:0.00265812 2:0.00199829 3:0.00574275 4:0.989601 5:-0.956418 6:0.886133 7:0.940387 8:-0.959634 9:0.020041 10:0.0526209 11:0.00309216 12:0.00339695 13:0.00541106 14:0.00340389 15:0.0123642 16:0.00529381 17:0.00824331 18:0 19:0 20:1 21:1 22:0 23:0 24:1 25:0.0590897 26:0.0231265 27:0.0054059 28:0.0872981 29:0.614895 30:0.0193873 31:0.047853 32:0.136999 33:0.00430811 34:0.0016374 35:0.93756 36:0.0268231 37:0.0054906 38:0.00514617 39:0.00150608 40:0.0038323 41:0.00464102 42:0.00135203 43:0.0054143 44:0.00823413 
0.08663738954650092 1:0.000591828 2:0.0068092 3:0.00232197 4:0.990277 5:-0.963433 6:0.954311 7:0.976844 8:-0.989275 9:0.000715223 10:0.0207952 11:0.0129572 12:0.0016029 13:0.00209727 14:0.00264123 15:0.00350699 16:0.000658424 17:0.000714949 18:1 19:0 20:0 21:1 22:0 23:0 24:1 25:0.0879661 26:0.13208 27:0.00797678 28:0.00379098 29:0.0428649 30:0.00826894 31:0.678109 32:0.0320573 33:0.00422847 34:0.00265708 35:0.1 36:0.1 37:0.1 38:0.1 39:0.1 40:0.1 41:0.1 42:0.1 43:0.1 44:0.1 
0.4749237659897332 1:0.41461 2:0.123136 3:0.0444686 4:0.417786 5:-0.672917 6:0.343086 7:0.564912 8:-0.948525 9:0.00729032 10:0.262609 11:0.0105983 12:0.00275348 13:0.062735 14:0.0151797 15:0.0191751 16:0.190986 17:0.0855868 18:0 19:0 20:0 21:0 22:0 23:0 24:1 25:0.430306 26:0.117302 27:0.021606 28:0.198309 29:0.0576242 30:0.0227963 31:0.0118526 32:0.0599058 33:0.0634376 34:0.0168602 35:0.1 36:0.1 37:0.1 38:0.1 39:0.1 40:0.1 41:0.1 42:0.1 43:0.1 44:0.1 
1 1:0.974358 2:0.00674454 3:0.000495968 4:0.0184014 5:0.669172 6:0.308139 7:0.518042 8:-0.708165 9:0.00883045 10:0.312773 11:0.0165873 12:0.00748266 13:0.0839436 14:0.0363021 15:0.081963 16:0.0735908 17:0.0703879 18:0 19:0 20:0 21:0 22:0 23:0 24:1 25:0.615324 26:0.0764418 27:0.0106027 28:0.0772873 29:0.0878602 30:0.0112503 31:0.00965359 32:0.0729624 33:0.0293335 34:0.00928444 35:0.1 36:0.1 37:0.1 38:0.1 39:0.1 40:0.1 41:0.1 42:0.1 43:0.1 44:0.1 
0.2260944541520511 1:0.0640685 2:0.613512 3:0.253471 4:0.0689489 5:-0.940253 6:0.265571 7:0.362018 8:-0.657878 9:0.00319183 10:0.416697 11:0.0400382 12:0.00329256 13:0.0499178 14:0.0309193 15:0.0776659 16:0.0532984 17:0.0594076 18:0 19:0 20:0 21:0 22:0 23:0 24:0 25:0.0459462 26:0.0349048 27:0.0084377 28:0.187567 29:0.470453 30:0.00568188 31:0.0418943 32:0.202494 33:0.00186197 34:0.000759628 35:0.1 36:0.1 37:0.1 38:0.1 39:0.1 40:0.1 41:0.1 42:0.1 43:0.1 44:0.1 
0.0410211539368586 1:0.0539424 2:0.0985207 3:0.238299 4:0.609238 5:-0.955389 6:0.182728 7:0.576879 8:-0.836996 9:0.0129493 10:0.275688 11:0.00913231 12:0.00934687 13:0.0334132 14:0.0260959 15:0.0794374 16:0.0649529 17:0.306256 18:0 19:0 20:0 21:0 22:0 23:0 24:0 25:0.0201992 26:0.0675483 27:0.0119736 28:0.0330307 29:0.837716 30:0.00564053 31:0.0044738 32:0.0162415 33:0.00275845 34:0.000418156 35:0.1 36:0.1 37:0.1 38:0.1 39:0.1 40:0.1 41:0.1 42:0.1 43:0.1 44:0.1 
0.3294639993571358 1:0.675664 2:0.0765155 3:0.0275738 4:0.220247 5:-0.597049 6:0.168704 7:0.289298 8:-0.845491 9:0.00537724 10:0.36984 11:0.111543 12:0.0370087 13:0.0972233 14:0.10828 15:0.0702846 16:0.0265706 17:0.0051683 18:1 19:0 20:0 21:1 22:0 23:0 24:1 25:0.339865 26:0.0938258 27:0.150664 28:0.0225207 29:0.0270647 30:0.317119 31:0.020326 32:0.0116635 33:0.00839562 34:0.00855548 35:0.822476 36:0.0397117 37:0.0261113 38:0.0121639 39:0.0264374 40:0.00785145 41:0.0116105 42:0.006213 43:0.0320671 44:0.0153578 
0.5222583067137705 1:0.00574816 2:0.945032 3:0.00988084 4:0.0393387 5:-0.975239 6:0.0183977 7:0.0983699 8:0.847548 9:0.311728 10:0.0560265 11:0.0282573 12:0.00855415 13:0.110706 14:0.0349766 15:0.0348854 16:0.378229 17:0.0182394 18:0 19:0 20:0 21:0 22:0 23:0 24:0 25:0.0819372 26:0.542981 27:0.132839 28:0.0159049 29:0.0140437 30:0.0253883 31:0.064799 32:0.096406 33:0.0139694 34:0.0117312 35:0.1 36:0.1 37:0.1 38:0.1 39:0.1 40:0.1 41:0.1 42:0.1 43:0.1 44:0.1 
0.08512631098613881 1:0.00211355 2:0.00653331 3:0.00125936 4:0.990094 5:-0.957585 6:0.925865 7:0.942355 8:0.890482 9:0.00261794 10:0.0545752 11:0.00121123 12:0.000996632 13:0.00991597 14:0.000510684 15:0.00172753 16:0.00118602 17:0.00139405 18:1 19:0 20:0 21:0 22:0 23:1 24:1 25:0.0992548 26:0.124719 27:0.00375351 28:0.11501 29:0.551135 30:0.0206171 31:0.0544049 32:0.0261824 33:0.00326006 34:0.00166399 35:0.910074 36:0.0765865 37:0.00783456 38:0.000761751 39:0.00106363 40:0.000253828 41:0.000299055 42:0.000593682 43:0.000169637 44:0.0023637 
0.1633998387920254 1:0.000606869 2:0.0119357 3:0.00121013 4:0.986247 5:-0.951636 6:0.0870951 7:0.5 8:-0.995934 9:0.0292342 10:0.0864808 11:0.254727 12:0.137665 13:0.325332 14:0.030725 15:0.00490935 16:0.0173746 17:0.0264569 18:0 19:0 20:0 21:0 22:0 23:0 24:1 25:0.0840456 26:0.227503 27:0.0529008 28:0.0261692 29:0.00896941 30:0.0750975 31:0.455819 32:0.0100856 33:0.036754 34:0.0226555 35:0.0212588 36:0.120595 37:0.0203287 38:0.196066 39:0.0575101 40:0.0239993 41:0.0261129 42:0.0401908 43:0.455471 44:0.0384671 
0.2093170464441362 1:0.00759721 2:0.017437 3:0.0933731 4:0.881593 5:-0.955428 6:0.418476 7:0.764247 8:-0.991698 9:0.0451021 10:0.149006 11:0.0235041 12:0.00758309 13:0.0233002 14:0.230553 15:0.0164868 16:0.0465606 17:0.0394285 18:1 19:0 20:0 21:0 22:0 23:0 24:1 25:0.0344675 26:0.543096 27:0.214901 28:0.0235831 29:0.0101203 30:0.0973383 31:0.0411091 32:0.00389491 33:0.00416284 34:0.0273266 35:0.00954624 36:0.0405541 37:0.0227622 38:0.0118159 39:0.00417162 40:0.0318804 41:0.807685 42:0.0115813 43:0.0278281 44:0.0321746 
0.1656544830409065 1:0.000870947 2:0.00140927 3:0.00289573 4:0.994824 5:-0.962165 6:0.00655124 7:0.0494634 8:-0.904206 9:0.121661 10:0.0735799 11:0.00840636 12:0.00345225 13:0.143974 14:0.549622 15:0.0510943 16:0.0242954 17:0.0173639 18:0 19:0 20:0 21:0 22:0 23:0 24:1 25:0.331853 26:0.120243 27:0.099901 28:0.0295526 29:0.013634 30:0.0274325 31:0.0362522 32:0.109643 33:0.221319 34:0.0101688 35:0.352969 36:0.542476 37:0.0115092 38:0.0210503 39:0.0208427 40:0.022582 41:0.0191681 42:0.00238406 43:0.00260155 44:0.00441698 
0.1498196204729611 1:0.00224389 2:0.00808748 3:0.00267747 4:0.986991 5:-0.959599 6:0.0496162 7:0.408178 8:0.988231 9:0.0152769 10:0.0697902 11:0.0168339 12:0.0151377 13:0.0646339 14:0.0868381 15:0.59132 16:0.059603 17:0.03095 18:0 19:0 20:0 21:0 22:0 23:0 24:0 25:0.146176 26:0.0203646 27:0.0384683 28:0.0112604 29:0.00421008 30:0.599157 31:0.108195 32:0.0359202 33:0.0324209 34:0.00382797 35:0.991076 36:0.0014936 37:0.000889674 38:0.000405469 39:0.000369122 40:0.000315066 41:0.000245412 42:0.000207103 43:0.004373 44:0.000625595 
0.2343956281670022 1:0.0144252 2:0.0488735 3:0.00794254 4:0.928759 5:-0.966219 6:0.0676795 7:0.559838 8:0.918307 9:0.0222841 10:0.130558 11:0.182794 12:0.0112463 13:0.1391 14:0.096379 15:0.0634418 16:0.271915 17:0.0146022 18:0 19:0 20:1 21:0 22:0 23:0 24:0 25:0.0286918 26:0.131974 27:0.453362 28:0.139532 29:0.0227234 30:0.10685 31:0.0431611 32:0.0125439 33:0.0297235 34:0.0314381 35:0.203527 36:0.11355 37:0.126431 38:0.0309692 39:0.00757715 40:0.382232 41:0.0208785 42:0.0185921 43:0.0496448 44:0.0465982 
0.003696628755067092 1:0.00118237 2:0.00592525 3:0.0135113 4:0.979381 5:-0.953548 6:0.453659 7:0.961653 8:-0.981619 9:0.0271698 10:0.0837343 11:0.213894 12:0.0180101 13:0.0362651 14:0.0556544 15:0.0135135 16:0.0842638 17:0.0138357 18:1 19:0 20:0 21:1 22:0 23:0 24:1 25:0.0601657 26:0.0124639 27:0.0272247 28:0.00495199 29:0.00156615 30:0.842457 31:0.0227338 32:0.00391863 33:0.0219788 34:0.00253897 35:0.1 36:0.1 37:0.1 38:0.1 39:0.1 40:0.1 41:0.1 42:0.1 43:0.1 44:0.1 
0.1848812157934524 1:0.00734595 2:0.843902 3:0.0370337 4:0.111719 5:-0.959799 6:0.190316 7:0.431981 8:0.987197 9:0.0146423 10:0.243829 11:0.0692005 12:0.00750141 13:0.04448 14:0.413773 15:0.00483947 16:0.00927978 17:0.00213891 18:1 19:0 20:0 21:0 22:0 23:0 24:1 25:0.0618976 26:0.445366 27:0.0585032 28:0.0205602 29:0.0191382 30:0.0956982 31:0.0631188 32:0.0283269 33:0.181619 34:0.0257725 35:0.832067 36:0.0745228 37:0.0176918 38:0.00751351 39:0.00437497 40:0.00610968 41:0.0102716 42:0.00565593 43:0.00341298 44:0.0383799 
0.123243822863739 1:0.00983552 2:0.226759 3:0.0437605 4:0.719645 5:-0.954092 6:0.157965 7:0.704444 8:0.885506 9:0.00782603 10:0.0497483 11:0.539209 12:0.110949 13:0.0696875 14:0.0208444 15:0.0383816 16:0.00211956 17:0.00326953 18:1 19:0 20:1 21:1 22:0 23:0 24:1 25:0.121811 26:0.26864 27:0.103409 28:0.015337 29:0.0143814 30:0.131848 31:0.174439 32:0.0568863 33:0.102548 34:0.0107009 35:0.785813 36:0.0997298 37:0.0295156 38:0.00636113 39:0.00615616 40:0.00627205 41:0.00297369 42:0.001298 43:0.0246962 44:0.0371847 
0.06891366358101358 1:0.000832196 2:0.0298134 3:0.0011215 4:0.968233 5:-0.954084 6:0.321523 7:0.505445 8:0.948309 9:0.0568038 10:0.332165 11:0.0161648 12:0.00857261 13:0.140624 14:0.0518521 15:0.0361175 16:0.0167823 17:0.019395 18:1 19:0 20:0 21:0 22:0 23:0 24:1 25:0.0406 26:0.0158278 27:0.127981 28:0.00705066 29:0.00253768 30:0.720302 31:0.0443635 32:0.0101083 33:0.0272287 34:0.00400018 35:0.1 36:0.1 37:0.1 38:0.1 39:0.1 40:0.1 41:0.1 42:0.1 43:0.1 44:0.1 
0.08364425917120505 1:0.0046952 2:0.00127358 3:0.00168647 4:0.992345 5:-0.955852 6:0.0406983 7:0.293056 8:-0.995138 9:0.0641643 10:0.0700865 11:0.0110703 12:0.00283828 13:0.0403142 14:0.741604 15:0.0195812 16:0.00725949 17:0.00238319 18:1 19:0 20:0 21:0 22:0 23:0 24:1 25:0.352586 26:0.258553 27:0.0542807 28:0.0216894 29:0.0196998 30:0.0169603 31:0.0581355 32:0.109441 33:0.0949575 34:0.0136973 35:0.228796 36:0.211655 37:0.0969909 38:0.0969329 39:0.104313 40:0.0407489 41:0.134516 42:0.0189733 43:0.0297754 44:0.0372999 
0.23954932263292 1:0.00589532 2:0.0251962 3:0.00541101 4:0.963497 5:-0.943168 6:0.150443 7:0.25498 8:-0.965658 9:0.0626482 10:0.398086 11:0.0280728 12:0.0110397 13:0.185431 14:0.0761127 15:0.0300295 16:0.0263179 17:0.0318194 18:0 19:0 20:0 21:0 22:0 23:0 24:1 25:0.272355 26:0.102021 27:0.0357753 28:0.00580216 29:0.00624618 30:0.0583941 31:0.447182 32:0.00887006 33:0.0573375 34:0.00601565 35:0.0095368 36:0.222039 37:0.639247 38:0.00931033 39:0.0188292 40:0.0390888 41:0.00488544 42:0.00275109 43:0.011529 44:0.0427843 
0.1061180533533245 1:0.000748069 2:0.00413051 3:0.000766801 4:0.994355 5:-0.954222 6:0.047822 7:0.137781 8:0.969789 9:0.0304482 10:0.295929 11:0.0312295 12:0.00726989 13:0.338109 14:0.108583 15:0.0365241 16:0.0918392 17:0.0122466 18:1 19:0 20:0 21:1 22:0 23:0 24:1 25:0.0436316 26:0.0167973 27:0.0226986 28:0.033576 29:0.00616121 30:0.570712 31:0.0804019 32:0.174912 33:0.0464612 34:0.00464864 35:0.773242 36:0.176899 37:0.0158827 38:0.00660795 39:0.00623482 40:0.00361552 41:0.00229305 42:0.00277428 43:0.00470117 44:0.00774984 
0.01362238277712868 1:0.00319487 2:0.0107326 3:0.191435 4:0.794638 5:-0.957311 6:0.0130061 7:0.275546 8:-0.660915 9:0.00094129 10:0.0124085 11:0.745332 12:0.0645481 13:0.0565295 14:0.01563 15:0.0626714 16:0.00842971 17:0.0205038 18:0 19:0 20:0 21:0 22:0 23:0 24:0 25:0.0671654 26:0.0158099 27:0.0771386 28:0.00576175 29:0.00522978 30:0.0511767 31:0.0125028 32:0.00946047 33:0.0652037 34:0.690551 35:0.326348 36:0.120706 37:0.232264 38:0.0281293 39:0.0107516 40:0.111196 41:0.0156069 42:0.00775715 43:0.0322679 44:0.114974 
0.4094142320232024 1:0.034049 2:0.203764 3:0.736378 4:0.0258095 5:0.954023 6:0.490361 7:0.823383 8:-0.614216 9:0.0250748 10:0.0947641 11:0.130206 12:0.0644902 13:0.0655606 14:0.0275772 15:0.0774933 16:0.00333502 17:0.0211383 18:0 19:0 20:0 21:0 22:0 23:0 24:1 25:0.116284 26:0.0306644 27:0.0227526 28:0.0203067 29:0.0237965 30:0.0577029 31:0.0899178 32:0.00421713 33:0.0395173 34:0.594841 35:0.959608 36:0.00933181 37:0.00910112 38:0.0015607 39:0.00336295 40:0.000882907 41:0.00085462 42:0.00109558 43:0.00850784 44:0.00569437 
1 1:0.00566177 2:0.0137693 3:0.0025551 4:0.978014 5:0.797649 6:0.0787947 7:0.341514 8:0.692471 9:0.235088 10:0.0801729 11:0.0171686 12:0.00929101 13:0.0966542 14:0.0443951 15:0.0205413 16:0.36023 17:0.0576636 18:0 19:0 20:0 21:0 22:0 23:0 24:0 25:0.0303398 26:0.0861347 27:0.088346 28:0.592411 29:0.0228455 30:0.0271071 31:0.0208851 32:0.00730055 33:0.0463309 34:0.0782992 35:0.1 36:0.1 37:0.1 38:0.1 39:0.1 40:0.1 41:0.1 42:0.1 43:0.1 44:0.1 
0.08959339172109659 1:0.000405047 2:0.00299577 3:0.00132215 4:0.995277 5:-0.962471 6:0.937656 7:0.963727 8:-0.974112 9:0.0008672 10:0.0349467 11:0.00442917 12:0.00730259 13:0.0109453 14:0.00060976 15:0.000291437 16:0.00212896 17:0.00082238 18:1 19:0 20:0 21:1 22:0 23:1 24:1 25:0.127928 26:0.0262914 27:0.00464506 28:0.0213076 29:0.0022518 30:0.00710859 31:0.0198182 32:0.00932899 33:0.767888 34:0.0134327 35:0.900374 36:0.0616461 37:0.00885742 38:0.00320516 39:0.00247572 40:0.00230714 41:0.00376479 42:0.00129241 43:0.0080019 44:0.0080752 
0.06859775753437623 1:0.00822096 2:0.0151073 3:0.00809021 4:0.968582 5:-0.97706 6:0.0178807 7:0.144713 8:-0.67304 9:0.0451854 10:0.130337 11:0.0405629 12:0.0440347 13:0.0590671 14:0.434917 15:0.114139 16:0.0112707 17:0.102606 18:0 19:0 20:0 21:0 22:0 23:0 24:0 25:0.610567 26:0.0324054 27:0.0098165 28:0.0144555 29:0.00476831 30:0.0369423 31:0.198122 32:0.00392662 33:0.0495071 34:0.0394894 35:0.037953 36:0.536572 37:0.0352155 38:0.0513071 39:0.0146245 40:0.0868042 41:0.0341295 42:0.118584 43:0.0619918 44:0.022818 
0.3097268941329598 1:0.00537178 2:0.0106563 3:0.0686335 4:0.915338 5:-0.961874 6:0.0280428 7:0.477535 8:-0.694381 9:0.0817645 10:0.0304941 11:0.0162918 12:0.0131481 13:0.032537 14:0.0950243 15:0.617995 16:0.0740478 17:0.010654 18:0 19:0 20:0 21:0 22:0 23:0 24:0 25:0.120705 26:0.0460931 27:0.016945 28:0.00696469 29:0.0256588 30:0.163466 31:0.0262588 32:0.514672 33:0.0660195 34:0.0132164 35:0.0152949 36:0.0471565 37:0.0354307 38:0.0263462 39:0.00464644 40:0.777456 41:0.0215791 42:0.0128377 43:0.03407 44:0.0251828 
0.1334198904052212 1:0.00146553 2:0.118587 3:0.876093 4:0.00385448 5:-0.950978 6:0.118429 7:0.53592 8:0.640946 9:0.010092 10:0.0735847 11:0.160654 12:0.389429 13:0.153814 14:0.0463833 15:0.0374088 16:0.00309427 17:0.00711045 18:0 19:0 20:0 21:1 22:0 23:0 24:1 25:0.830998 26:0.130749 27:0.00589542 28:0.00125881 29:0.00194285 30:0.0134453 31:0.00623195 32:0.00203011 33:0.00384361 34:0.00360515 35:0.125403 36:0.149172 37:0.244961 38:0.0314931 39:0.0325233 40:0.0224985 41:0.0561876 42:0.0134462 43:0.031631 44:0.292685 
0.2109267317244997 1:0.000440343 2:0.00728478 3:0.983997 4:0.00827824 5:-0.956437 6:0.874548 7:0.956871 8:-0.978071 9:0.00309025 10:0.0462728 11:0.036877 12:0.0276389 13:0.00407019 14:0.00125986 15:0.00269299 16:0.00254116 17:0.0010089 18:0 19:0 20:0 21:1 22:0 23:1 24:1 25:0.78954 26:0.0198762 27:0.0677174 28:0.0195177 29:0.0048655 30:0.00611895 31:0.0186903 32:0.00301635 33:0.0445551 34:0.0261025 35:0.976228 36:0.00652426 37:0.006006 38:0.00114324 39:0.00097201 40:0.000839238 41:0.000829998 42:0.000341348 43:0.00331233 44:0.00380398 
1 1:0.000964589 2:0.00215526 3:0.00494352 4:0.991937 5:0.89919 6:0.118225 7:0.346249 8:-0.961437 9:0.0513119 10:0.215021 11:0.0441186 12:0.0294309 13:0.0287579 14:0.0235871 15:0.00721387 16:0.453171 17:0.0291621 18:0 19:0 20:0 21:0 22:0 23:0 24:0 25:0.106993 26:0.267065 27:0.0754975 28:0.170422 29:0.0315901 30:0.11971 31:0.0592021 32:0.0159277 33:0.029431 34:0.124162 35:0.979731 36:0.00791758 37:0.00306409 38:0.00195352 39:0.000821511 40:0.00070548 41:0.000884737 42:0.000454033 43:0.00177373 44:0.00269461 
1 1:0.00376503 2:0.0100923 3:0.0276779 4:0.958465 5:0.890493 6:0.101481 7:0.302145 8:-0.937078 9:0.0507819 10:0.235791 11:0.0703323 12:0.0651015 13:0.0329458 14:0.0232498 15:0.00826541 16:0.389694 17:0.0223579 18:0 19:0 20:0 21:0 22:0 23:0 24:0 25:0.10468 26:0.284647 27:0.102699 28:0.121091 29:0.0205001 30:0.159421 31:0.0463363 32:0.0135657 33:0.0524681 34:0.0945921 35:0.1 36:0.1 37:0.1 38:0.1 39:0.1 40:0.1 41:0.1 42:0.1 43:0.1 44:0.1 
0.07168633770907874 1:0.0057839 2:0.0289015 3:0.921864 4:0.0434501 5:-0.971496 6:0.880431 7:0.899972 8:-0.812434 9:0.00133951 10:0.0981648 11:0.00320575 12:0.00192411 13:0.00317348 14:0.000986697 15:0.00738315 16:0.00222424 17:0.00116698 18:1 19:0 20:0 21:0 22:0 23:1 24:1 25:0.775716 26:0.0160977 27:0.0156136 28:0.0105003 29:0.0256649 30:0.0128439 31:0.0449513 32:0.00533108 33:0.0685495 34:0.0247317 35:0.975907 36:0.00288907 37:0.00432162 38:0.00116712 39:0.00120597 40:0.000908561 41:0.000907439 42:0.000730218 43:0.0081896 44:0.00377358 
0.1445801564834507 1:0.0114656 2:0.00903346 3:0.0194912 4:0.96001 5:-0.955859 6:0.720212 7:0.878974 8:-1 9:0.00632283 10:0.0558429 11:0.00775338 12:0.0148593 13:0.045232 14:0.0134468 15:0.00324245 16:0.0763193 17:0.0567694 18:0 19:0 20:0 21:1 22:0 23:1 24:0 25:0.0284053 26:0.00572695 27:0.00907377 28:0.00938848 29:0.00417891 30:0.0107596 31:0.0177057 32:0.00199533 33:0.0636471 34:0.849119 35:0.900374 36:0.0616461 37:0.00885742 38:0.00320516 39:0.00247572 40:0.00230714 41:0.00376479 42:0.00129241 43:0.0080019 44:0.0080752 
0.1736931223888116 1:0.00822643 2:0.0545707 3:0.0058914 4:0.931312 5:-0.710701 6:0.0549437 7:0.867465 8:0.81482 9:0.0049231 10:0.0351497 11:0.766806 12:0.0091426 13:0.00701257 14:0.0116722 15:0.0236187 16:0.0738032 17:0.0129282 18:1 19:0 20:0 21:0 22:0 23:1 24:1 25:0.64482 26:0.197127 27:0.0172532 28:0.00585155 29:0.00308582 30:0.0740575 31:0.0113244 32:0.00244196 33:0.00598152 34:0.0380575 35:0.996266 36:0.000943934 37:0.000920668 38:0.000166798 39:0.000115166 40:4.52371e-05 41:6.05703e-05 42:3.99072e-05 43:0.000228565 44:0.00121275 
0.09156661668235451 1:0.00807066 2:0.0216355 3:0.147915 4:0.822379 5:-0.954226 6:0.950804 7:0.981773 8:-0.947037 9:0.00260542 10:0.0203738 11:0.00111166 12:0.00218134 13:0.00149975 14:0.00387068 15:0.0134616 16:0.00177221 17:0.00232009 18:1 19:0 20:0 21:0 22:0 23:1 24:1 25:0.0533971 26:0.023531 27:0.00380746 28:0.0118325 29:0.00266302 30:0.0061308 31:0.0151774 32:0.0129319 33:0.854908 34:0.0156211 35:0.997531 36:0.000554141 37:0.000224816 38:6.62871e-05 39:8.47329e-05 40:1.77591e-05 41:1.90012e-05 42:1.27055e-05 43:0.00111904 44:0.000370901 
0.01908405618782995 1:0.00138107 2:0.00875263 3:0.00216769 4:0.987699 5:-0.959304 6:0.0125251 7:0.156882 8:-0.969355 9:0.00352743 10:0.0545722 11:0.492497 12:0.179507 13:0.0388525 14:0.03516 15:0.176389 16:0.00340805 17:0.00356112 18:0 19:0 20:0 21:0 22:0 23:0 24:1 25:0.623756 26:0.10322 27:0.0157002 28:0.00727296 29:0.00806797 30:0.01579 31:0.150851 32:0.00533119 33:0.0419897 34:0.0280216 35:0.0582677 36:0.646893 37:0.0221473 38:0.0140221 39:0.0283822 40:0.0172877 41:0.130291 42:0.0105967 43:0.0254128 44:0.0466998 
0.2431903799532542 1:0.00264498 2:0.0193161 3:0.950367 4:0.0276717 5:-0.96627 6:0.169254 7:0.5 8:-0.988219 9:0.0420857 10:0.216615 11:0.0591149 12:0.0118381 13:0.11301 14:0.0344675 15:0.0558671 16:0.267661 17:0.0300877 18:0 19:0 20:0 21:0 22:0 23:0 24:0 25:0.183435 26:0.00885628 27:0.0695141 28:0.0132781 29:0.00641976 30:0.0163291 31:0.0117673 32:0.00939264 33:0.0518703 34:0.629137 35:0.1 36:0.1 37:0.1 38:0.1 39:0.1 40:0.1 41:0.1 42:0.1 43:0.1 44:0.1 
0.06834059835703307 1:0.00108361 2:0.00512617 3:0.00873174 4:0.985058 5:-0.953291 6:0.822149 7:0.972219 8:-0.985494 9:0.0128757 10:0.0269448 11:0.0648929 12:0.00962812 13:0.0153677 14:0.0102539 15:0.0069789 16:0.0277912 17:0.00311787 18:1 19:0 20:0 21:1 22:0 23:0 24:0 25:0.0588317 26:0.0235698 27:0.00202513 28:0.0104972 29:0.00496645 30:0.00456896 31:0.0125398 32:0.00599144 33:0.475108 34:0.401902 35:0.988508 36:0.002829 37:0.000925029 38:0.00145469 39:0.000212491 40:0.000733819 41:0.00315783 42:0.000368416 43:0.00103872 44:0.000771662 
0.01989693087642534 1:0.00380619 2:0.875916 3:0.0296125 4:0.0906653 5:-0.957143 6:0.111754 7:0.452091 8:0.779016 9:0.0208765 10:0.106266 11:0.034836 12:0.0558902 13:0.100835 14:0.467742 15:0.0142196 16:0.027481 17:0.0600997 18:0 19:0 20:0 21:0 22:0 23:0 24:0 25:0.342323 26:0.0864701 27:0.145519 28:0.0158294 29:0.0058302 30:0.0268467 31:0.074512 32:0.00508413 33:0.0354583 34:0.262127 35:0.215211 36:0.143829 37:0.0729748 38:0.101955 39:0.0267871 40:0.142673 41:0.0847092 42:0.0643516 43:0.0772695 44:0.0702393 
0.7478674748078122 1:0.00102985 2:0.0308479 3:0.960196 4:0.00792644 5:0.513931 6:0.654388 7:0.789363 8:-0.965512 9:0.024002 10:0.165405 11:0.0144335 12:0.0259595 13:0.0244334 14:0.0386565 15:0.00496588 16:0.0413609 17:0.00639493 18:1 19:0 20:0 21:0 22:0 23:0 24:1 25:0.366434 26:0.0358967 27:0.0134773 28:0.0190868 29:0.00366694 30:0.0282768 31:0.0292371 32:0.00292608 33:0.489506 34:0.0114919 35:0.231532 36:0.204094 37:0.186074 38:0.0546082 39:0.0302437 40:0.0752145 41:0.0413555 42:0.0448668 43:0.0573136 44:0.074697 
0.1062170157983364 1:0.0362518 2:0.266457 3:0.0304294 4:0.666862 5:-0.952856 6:0.0294983 7:0.541514 8:0.80206 9:0.00476844 10:0.0490251 11:0.0329888 12:0.0140092 13:0.0283876 14:0.0306115 15:0.00212295 16:0.0392577 17:0.76933 18:0 19:0 20:0 21:0 22:0 23:1 24:0 25:0.685953 26:0.02293 27:0.00434735 28:0.011733 29:0.00471888 30:0.0231181 31:0.0151636 32:0.00258206 33:0.201867 34:0.0275879 35:0.809521 36:0.0344427 37:0.0223171 38:0.0268449 39:0.00409757 40:0.014403 41:0.0294951 42:0.0072158 43:0.0247621 44:0.0269008 
0.05042369509456276 1:0.00284723 2:0.0197497 3:0.937754 4:0.0396493 5:-0.957009 6:0.791047 7:0.9353 8:-0.976021 9:0.0214693 10:0.0629132 11:0.0177799 12:0.0138342 13:0.00831333 14:0.0260246 15:0.0018067 16:0.0530957 17:0.0037156 18:1 19:0 20:0 21:1 22:0 23:0 24:1 25:0.742725 26:0.0222857 27:0.0103878 28:0.00911264 29:0.009627 30:0.00542969 31:0.0391516 32:0.101054 33:0.0547028 34:0.00552338 35:0.1 36:0.1 37:0.1 38:0.1 39:0.1 40:0.1 41:0.1 42:0.1 43:0.1 44:0.1 
1 1:0.999694 2:2.07513e-07 3:1.27498e-07 4:0.000305293 5:0.909038 6:0.00172229 7:0.0459906 8:0.821664 9:0.660618 10:0.019921 11:0.0429882 12:0.0334978 13:0.150703 14:0.019495 15:0.0139536 16:0.0391463 17:0.0179549 18:0 19:0 20:0 21:0 22:0 23:0 24:0 25:0.118921 26:0.0405698 27:0.0233857 28:0.0548604 29:0.0181809 30:0.0753786 31:0.0656087 32:0.00749907 33:0.543019 34:0.0525764 35:0.0292455 36:0.527521 37:0.0320147 38:0.0971856 39:0.0132382 40:0.0627102 41:0.112593 42:0.0268409 43:0.0762521 44:0.0223993 
1 1:0.0384526 2:0.0458426 3:0.0251466 4:0.890558 5:0.95644 6:0.313988 7:0.825893 8:-0.959131 9:0.0254035 10:0.0679577 11:0.110058 12:0.226556 13:0.0636569 14:0.0412498 15:0.0263055 16:0.0895628 17:0.0352618 18:0 19:0 20:0 21:0 22:0 23:0 24:1 25:0.248495 26:0.0441238 27:0.016909 28:0.0217413 29:0.0192941 30:0.0259368 31:0.0800626 32:0.0965826 33:0.411514 34:0.035341 35:0.374503 36:0.117597 37:0.275045 38:0.0588375 39:0.0116934 40:0.0234218 41:0.036927 42:0.013501 43:0.0307963 44:0.0576791 
0.622000346952998 1:0.962535 2:0.00871577 3:0.000949759 4:0.0277992 5:-0.962735 6:0.498923 7:0.817824 8:0.965639 9:0.0124847 10:0.13763 11:0.0190892 12:0.0279432 13:0.0101734 14:0.177512 15:0.0324416 16:0.0173932 17:0.0664097 18:0 19:0 20:0 21:0 22:0 23:0 24:0 25:0.80719 26:0.125979 27:0.0122744 28:0.00201386 29:0.00259754 30:0.0253667 31:0.00732832 32:0.00641906 33:0.00127957 34:0.0095511 35:0.841638 36:0.0529257 37:0.0267866 38:0.0141844 39:0.00702205 40:0.00761501 41:0.010176 42:0.00421954 43:0.00672033 44:0.0287121 
0.1087849125601557 1:0.849645 2:0.0171662 3:0.00543276 4:0.127756 5:-0.974691 6:0.539952 7:0.735798 8:0.98726 9:0.0144986 10:0.152042 11:0.0180064 12:0.0296516 13:0.0572129 14:0.10567 15:0.0300332 16:0.00958923 17:0.0433447 18:0 19:0 20:0 21:1 22:0 23:0 24:0 25:0.806854 26:0.129933 27:0.00609974 28:0.00173854 29:0.00219378 30:0.011942 31:0.0189557 32:0.00942224 33:0.00480639 34:0.00805488 35:0.826647 36:0.0518791 37:0.027182 38:0.0174668 39:0.00582118 40:0.00960274 41:0.0195333 42:0.00559565 43:0.0157012 44:0.0205708 
0.2503193479986983 1:0.00331523 2:0.00439635 3:0.00492776 4:0.987361 5:-0.924612 6:0.0259211 7:0.104437 8:0.7627 9:0.056553 10:0.163346 11:0.0277772 12:0.0637718 13:0.0629114 14:0.547512 15:0.0146467 16:0.00962009 17:0.0279401 18:0 19:0 20:0 21:0 22:0 23:0 24:0 25:0.654297 26:0.0572665 27:0.0883824 28:0.027777 29:0.0107199 30:0.0644124 31:0.0295057 32:0.00699759 33:0.0154437 34:0.0451981 35:0.1 36:0.1 37:0.1 38:0.1 39:0.1 40:0.1 41:0.1 42:0.1 43:0.1 44:0.1 
0.3160385242993776 1:0.000444397 2:0.98804 3:0.00639123 4:0.00512418 5:-0.958709 6:0.0496823 7:0.308086 8:0.92151 9:0.0379491 10:0.155552 11:0.119757 12:0.0662833 13:0.213713 14:0.258168 15:0.0215394 16:0.0164783 17:0.0608773 18:0 19:0 20:0 21:0 22:0 23:0 24:0 25:0.325711 26:0.148698 27:0.139595 28:0.0645081 29:0.0302876 30:0.097519 31:0.0474444 32:0.0179001 33:0.081409 34:0.046927 35:0.1 36:0.1 37:0.1 38:0.1 39:0.1 40:0.1 41:0.1 42:0.1 43:0.1 44:0.1 
0.004744894908749607 1:4.03268e-05 2:0.00590571 3:0.0012402 4:0.992814 5:-0.963418 6:0.00734199 7:0.0140444 8:-0.844757 9:0.0211949 10:0.400639 11:0.0171319 12:0.0036812 13:0.330415 14:0.0974481 15:0.0286332 16:0.0833663 17:0.0101479 18:0 19:0 20:0 21:0 22:0 23:0 24:0 25:0.33492 26:0.418149 27:0.063395 28:0.0253493 29:0.012388 30:0.069007 31:0.0288494 32:0.00898571 33:0.00541461 34:0.0335411 35:0.0243535 36:0.79626 37:0.047225 38:0.0357784 39:0.0445475 40:0.00758956 41:0.00892874 42:0.0057863 43:0.0100469 44:0.0194843 
0.2860351269076055 1:0.00888821 2:0.952665 3:0.0223711 4:0.0160758 5:-0.973506 6:0.00870896 7:0.150779 8:0.982099 9:0.0077513 10:0.0937304 11:0.202268 12:0.360493 13:0.0781206 14:0.197594 15:0.0103735 16:0.0064951 17:0.0344645 18:0 19:0 20:0 21:0 22:0 23:0 24:1 25:0.627222 26:0.197494 27:0.0174942 28:0.00880342 29:0.011276 30:0.0520207 31:0.042754 32:0.00355672 33:0.0273665 34:0.0120121 35:0.070811 36:0.221541 37:0.0843452 38:0.0894999 39:0.0190029 40:0.346612 41:0.0551282 42:0.0197711 43:0.038351 44:0.0549375 
0.2113032068680909 1:0.008399 2:0.00687059 3:0.00563374 4:0.979097 5:0.514188 6:0.0912495 7:0.918174 8:0.877888 9:0.0117881 10:0.0256994 11:0.0122726 12:0.00443342 13:0.0127384 14:0.00630318 15:0.00375961 16:0.802248 17:0.029508 18:0 19:0 20:0 21:0 22:0 23:0 24:0 25:0.483604 26:0.139104 27:0.0929416 28:0.0587551 29:0.0166264 30:0.0864845 31:0.043588 32:0.0124575 33:0.00832445 34:0.0581152 35:0.960487 36:0.00388458 37:0.0118689 38:0.0031481 39:0.00179433 40:0.00171285 41:0.00311702 42:0.000971931 43:0.00248451 44:0.0105311 
0.2262472249228311 1:0.0409086 2:0.117032 3:0.00964241 4:0.832417 5:-0.971016 6:0.0581252 7:0.153133 8:0.550218 9:0.0114716 10:0.279354 11:0.15991 12:0.069168 13:0.290025 14:0.050598 15:0.00462724 16:0.0721251 17:0.00459637 18:0 19:0 20:0 21:0 22:0 23:0 24:0 25:0.107734 26:0.0990853 27:0.111149 28:0.0201334 29:0.00745963 30:0.22461 31:0.333719 32:0.00664593 33:0.0599957 34:0.0294674 35:0.0279348 36:0.63105 37:0.0259033 38:0.0810017 39:0.0441373 40:0.0376101 41:0.108363 42:0.0144617 43:0.018497 44:0.0110412 
0.4394257520397513 1:0.156914 2:0.0505919 3:0.0261321 4:0.766362 5:0.955158 6:0.439626 7:0.714434 8:-0.988378 9:0.0270461 10:0.182856 11:0.068396 12:0.0244471 13:0.0420934 14:0.0440747 15:0.009127 16:0.140027 17:0.0223069 18:0 19:0 20:0 21:1 22:0 23:0 24:1 25:0.0598476 26:0.0497106 27:0.0298784 28:0.0225698 29:0.047027 30:0.0277841 31:0.0391205 32:0.594138 33:0.0577775 34:0.0721463 35:0.993983 36:0.00138308 37:0.000584559 38:0.000505713 39:0.000170882 40:0.000317686 41:0.00153738 42:0.000212805 43:0.000828912 44:0.000475898 
1 1:0.991067 2:0.00328299 3:0.000750726 4:0.00489903 5:0.949976 6:0.267905 7:0.720411 8:0.907559 9:0.0362638 10:0.133412 11:0.0733309 12:0.0393027 13:0.0706887 14:0.0335361 15:0.028475 16:0.267413 17:0.0496725 18:0 19:0 20:0 21:1 22:0 23:0 24:1 25:0.103398 26:0.354401 27:0.0974966 28:0.08576 29:0.0196 30:0.0967904 31:0.0589017 32:0.0153577 33:0.0132314 34:0.155064 35:0.996387 36:0.00114408 37:0.000262877 38:0.00018827 39:0.000116135 40:0.00012109 41:0.000679232 42:7.79778e-05 43:0.000282415 44:0.000741084 
0.06847441386027324 1:0.326411 2:0.110685 3:0.0547148 4:0.508189 5:0.939615 6:0.416716 7:0.864571 8:-0.985219 9:0.00623549 10:0.0400808 11:0.323211 12:0.0418011 13:0.0666503 14:0.0114644 15:0.0199624 16:0.0595248 17:0.0143543 18:0 19:0 20:0 21:1 22:0 23:0 24:1 25:0.0580758 26:0.0920985 27:0.149032 28:0.130102 29:0.039535 30:0.0665747 31:0.150891 32:0.0207007 33:0.133903 34:0.159087 35:0.990046 36:0.00155045 37:0.000951162 38:0.0010183 39:0.000295868 40:0.000520817 41:0.00354979 42:0.000341503 43:0.000810671 44:0.000915414 
0.5020006066907827 1:0.91892 2:0.0160939 3:0.00469383 4:0.0602921 5:0.936677 6:0.623358 7:0.885063 8:-0.924465 9:0.0143935 10:0.0737113 11:0.0439321 12:0.0285134 13:0.0763341 14:0.0233233 15:0.00634222 16:0.0850091 17:0.0250833 18:0 19:0 20:0 21:1 22:0 23:0 24:1 25:0.102873 26:0.104918 27:0.0189051 28:0.0814744 29:0.0581755 30:0.035565 31:0.0469814 32:0.157523 33:0.12761 34:0.265974 35:0.996462 36:0.000698138 37:0.000202348 38:0.000218001 39:3.01155e-05 40:8.28335e-05 41:0.00128583 42:9.05356e-05 43:0.000647898 44:0.000282466 
0.004505812063970447 1:0.137127 2:0.0933478 3:0.18034 4:0.589185 5:-0.970534 6:0.0165667 7:0.191465 8:-0.999996 9:0.0431753 10:0.0266174 11:0.14877 12:0.0885772 13:0.3256 14:0.0246214 15:0.0389611 16:0.073482 17:0.213629 18:0 19:0 20:0 21:0 22:0 23:0 24:0 25:0.852808 26:0.0311335 27:0.00965908 28:0.00619053 29:0.00494078 30:0.00459812 31:0.0683698 32:0.00613076 33:0.0120892 34:0.00408061 35:0.1 36:0.1 37:0.1 38:0.1 39:0.1 40:0.1 41:0.1 42:0.1 43:0.1 44:0.1 
0.1344579381126124 1:0.0093447 2:0.00831162 3:0.00596687 4:0.976377 5:-0.972987 6:0.784681 7:0.835476 8:0.872495 9:0.0168283 10:0.125909 11:0.0340951 12:0.00402373 13:0.00583533 14:0.002024 15:0.00423719 16:0.0170939 17:0.00527267 18:0 19:0 20:0 21:1 22:0 23:0 24:1 25:0.0237314 26:0.00674052 27:0.0251344 28:0.00681869 29:0.000703577 30:0.00390371 31:0.00923042 32:0.000271566 33:0.0325137 34:0.890952 35:0.990191 36:0.00231869 37:0.00098301 38:0.00104924 39:0.000244397 40:0.000641035 41:0.00295656 42:0.000441607 43:0.000712625 44:0.000461512 
1 1:0.936684 2:0.0527941 3:0.00346042 4:0.00706138 5:-0.701492 6:0.501167 7:0.572066 8:0.710581 9:0.00255135 10:0.370654 11:0.0374646 12:0.0163298 13:0.0473219 14:0.00574821 15:0.00725551 16:0.00236802 17:0.00914008 18:0 19:0 20:0 21:0 22:0 23:0 24:1 25:0.528954 26:0.0483995 27:0.0119691 28:0.016995 29:0.0187618 30:0.0145304 31:0.0415649 32:0.180302 33:0.128544 34:0.00997986 35:0.363653 36:0.118608 37:0.0604608 38:0.0873864 39:0.0195756 40:0.117108 41:0.0699792 42:0.0616256 43:0.0538704 44:0.0477328 
0.7657257756079615 1:0.0916853 2:0.839642 3:0.0175591 4:0.0511139 5:0.596288 6:0.471147 7:0.88812 8:0.840391 9:0.014996 10:0.145318 11:0.110023 12:0.0495517 13:0.0449177 14:0.0369097 15:0.027199 16:0.0226256 17:0.0773124 18:0 19:0 20:0 21:1 22:0 23:0 24:1 25:0.7635 26:0.0336116 27:0.00869005 28:0.0140869 29:0.00559113 30:0.00703529 31:0.0527056 32:0.0227965 33:0.0850528 34:0.00693043 35:0.313668 36:0.116599 37:0.0649514 38:0.0912808 39:0.0221031 40:0.128291 41:0.0765026 42:0.0563202 43:0.0689056 44:0.0613788 
0.07793176067216495 1:0.00504804 2:0.0227177 3:0.75872 4:0.213515 5:-0.956936 6:0.531428 7:0.876412 8:-0.556356 9:0.0113557 10:0.120214 11:0.0785229 12:0.0362383 13:0.0444421 14:0.0312892 15:0.0183899 16:0.047651 17:0.0804694 18:0 19:0 20:0 21:1 22:0 23:1 24:0 25:0.0755085 26:0.0183539 27:0.00235502 28:0.00929042 29:0.00255316 30:0.00463231 31:0.0174394 32:0.00806579 33:0.815548 34:0.0462538 35:0.900374 36:0.0616461 37:0.00885742 38:0.00320516 39:0.00247572 40:0.00230714 41:0.00376479 42:0.00129241 43:0.0080019 44:0.0080752 
0.06707723695402634 1:0.000990797 2:0.0160132 3:0.0505084 4:0.932488 5:-0.950057 6:0.106729 7:0.175957 8:-0.871781 9:0.0047247 10:0.512739 11:0.0518236 12:0.00579399 13:0.157043 14:0.0273396 15:0.013176 16:0.0503617 17:0.0702694 18:0 19:0 20:0 21:1 22:0 23:1 24:0 25:0.162182 26:0.0287876 27:0.00381078 28:0.0159781 29:0.00429439 30:0.0054912 31:0.0324602 32:0.0169611 33:0.6771 34:0.0529348 35:0.905959 36:0.04776 37:0.0084125 38:0.00295488 39:0.00223901 40:0.00344408 41:0.00295303 42:0.00165011 43:0.017052 44:0.00757531 
0.09806685311872818 1:0.0459818 2:0.0702131 3:0.524357 4:0.359448 5:-0.974332 6:0.00859955 7:0.386898 8:-0.982111 9:0.136371 10:0.0101362 11:0.0122005 12:0.042701 13:0.0191141 14:0.0491789 15:0.087319 16:0.335262 17:0.299117 18:1 19:0 20:0 21:0 22:0 23:0 24:0 25:0.657322 26:0.0345956 27:0.0154997 28:0.0214277 29:0.00966319 30:0.00551679 31:0.0589511 32:0.136334 33:0.0508859 34:0.00980419 35:0.1 36:0.1 37:0.1 38:0.1 39:0.1 40:0.1 41:0.1 42:0.1 43:0.1 44:0.1 
-0.2815966958603605 1:0.997706 2:0.00124386 3:3.88913e-05 4:0.00101172 5:0.962095 6:0.00910503 7:0.216611 8:0.924427 9:0.0301027 10:0.0786616 11:0.0350019 12:0.0105121 13:0.095292 14:0.126352 15:0.00745176 16:0.505672 17:0.101849 18:0 19:0 20:0 21:0 22:0 23:0 24:1 25:0.233852 26:0.0267532 27:0.0642115 28:0.015215 29:0.012954 30:0.359625 31:0.0506289 32:0.00844609 33:0.110121 34:0.118193 35:0.1 36:0.1 37:0.1 38:0.1 39:0.1 40:0.1 41:0.1 42:0.1 43:0.1 44:0.1 
-0.3478856073068983 1:0.995284 2:0.000735507 3:0.000289234 4:0.00369116 5:0.953598 6:0.0655398 7:0.490106 8:0.97521 9:0.622547 10:0.0758039 11:0.0131586 12:0.01322 13:0.0555969 14:0.0239975 15:0.0201656 16:0.0917054 17:0.0182651 18:0 19:1 20:0 21:0 22:0 23:0 24:0 25:0.0289739 26:0.0282295 27:0.0052168 28:0.00385622 29:0.00297074 30:0.00860111 31:0.0613633 32:0.00698541 33:0.850044 34:0.00375917 35:0.00988356 36:0.0113378 37:0.005599 38:0.0207384 39:0.0078738 40:0.00641445 41:0.598912 42:0.00867775 43:0.323078 44:0.00748472 
-1.067571271117059 1:0.128405 2:0.826366 3:0.0286677 4:0.0165619 5:-0.929779 6:0.215923 7:0.695431 8:0.947165 9:0.0123903 10:0.116735 11:0.0560004 12:0.0185104 13:0.0265939 14:0.504087 15:0.0316256 16:0.0133069 17:0.00482685 18:0 19:1 20:0 21:0 22:0 23:0 24:1 25:0.206572 26:0.221648 27:0.0315021 28:0.0260827 29:0.0205359 30:0.0317427 31:0.261223 32:0.00667197 33:0.0674599 34:0.126562 35:0.000201722 36:0.00482009 37:0.0252271 38:0.000175287 39:0.00077511 40:0.000386787 41:0.933565 42:0.000151901 43:0.00111364 44:0.0335829 
-0.6510783282170929 1:0.995646 2:0.00257707 3:9.54885e-05 4:0.00168169 5:0.963706 6:0.0169909 7:0.187307 8:-0.649526 9:0.739447 10:0.0422274 11:0.00963526 12:0.0270947 13:0.09733 14:0.0152917 15:0.0131963 16:0.018215 17:0.0205719 18:0 19:1 20:0 21:0 22:0 23:0 24:1 25:0.0178577 26:0.0390204 27:0.00375016 28:0.00568284 29:0.00217159 30:0.00513133 31:0.0708236 32:0.0110612 33:0.838496 34:0.00600514 35:0.00747802 36:0.00590669 37:0.00327735 38:0.0116171 39:0.00340392 40:0.00408891 41:0.612841 42:0.00754866 43:0.338215 44:0.00562336 
-0.4997969551487766 1:0.998264 2:0.00131832 3:7.18669e-05 4:0.000345464 5:0.908601 6:0.0321661 7:0.396911 8:0.629958 9:0.365775 10:0.0715848 11:0.0299637 12:0.0118229 13:0.135735 14:0.169293 15:0.0242312 16:0.0519658 17:0.107463 18:0 19:0 20:0 21:0 22:0 23:0 24:0 25:0.218245 26:0.0269378 27:0.00594005 28:0.0164172 29:0.0103882 30:0.0061629 31:0.0448602 32:0.264757 33:0.382269 34:0.0240227 35:0.0013714 36:0.00571204 37:0.00118141 38:0.0211297 39:0.00082465 40:0.00178324 41:0.0350375 42:0.00298718 43:0.927371 44:0.00260158 
-0.3480364571358029 1:0.992643 2:0.00153404 3:0.000413955 4:0.00540875 5:0.912244 6:0.0401158 7:0.711673 8:-0.814782 9:0.0531404 10:0.0504385 11:0.00505133 12:0.00587132 13:0.0342776 14:0.727941 15:0.0318157 16:0.0387089 17:0.0126397 18:0 19:1 20:0 21:0 22:0 23:0 24:1 25:0.0233166 26:0.0692318 27:0.0156465 28:0.0192277 29:0.00358226 30:0.0218222 31:0.799812 32:0.014971 33:0.0178832 34:0.0145068 35:0.0003526 36:0.00384267 37:0.00761933 38:0.00062369 39:0.0225647 40:0.000694742 41:0.96204 42:0.000639398 43:0.000402556 44:0.00122018 
-0.34344300289832 1:0.999098 2:9.00219e-07 3:9.39634e-07 4:0.0008997 5:0.902011 6:0.0424603 7:0.354721 8:-0.793587 9:0.155272 10:0.132199 11:0.0225998 12:0.00924434 13:0.08407 14:0.217855 15:0.0177733 16:0.198011 17:0.120516 18:0 19:0 20:0 21:0 22:0 23:0 24:0 25:0.19328 26:0.0326942 27:0.009315 28:0.0263295 29:0.0102169 30:0.00826285 31:0.0527744 32:0.235104 33:0.356762 34:0.0752607 35:0.00147759 36:0.00543161 37:0.00132447 38:0.0212671 39:0.000877645 40:0.00187921 41:0.0266939 42:0.00551476 43:0.93294 44:0.0025938 
-0.5179974484214598 1:0.990257 2:0.00539982 3:0.000643295 4:0.00370033 5:0.978014 6:0.0997415 7:0.540983 8:0.974071 9:0.053396 10:0.123265 11:0.0754389 12:0.0299038 13:0.0579643 14:0.456801 15:0.0563323 16:0.0250027 17:0.0221545 18:1 19:1 20:0 21:1 22:0 23:0 24:1 25:0.00681012 26:0.0303602 27:0.00408218 28:0.00884982 29:0.000773785 30:0.00719377 31:0.927194 32:0.00346982 33:0.00786214 34:0.00340387 35:0.000254319 36:0.00327075 37:0.0154974 38:0.000652113 39:0.00120874 40:0.000423894 41:0.97578 42:0.00136417 43:0.000847814 44:0.000701165 
-0.3930847497801079 1:0.112328 2:0.723222 3:0.114093 4:0.0503571 5:-0.601117 6:0.0202796 7:0.121703 8:0.680546 9:0.0114897 10:0.103241 11:0.211975 12:0.0492623 13:0.245085 14:0.131217 15:0.11557 16:0.0134459 17:0.0984354 18:0 19:1 20:0 21:0 22:0 23:0 24:0 25:0.0378135 26:0.0613657 27:0.0616459 28:0.0403788 29:0.0203423 30:0.055411 31:0.458412 32:0.0130742 33:0.154219 34:0.097338 35:0.00371852 36:0.0167055 37:0.0144099 38:0.00775523 39:0.0431535 40:0.00772227 41:0.883762 42:0.00590065 43:0.00580264 44:0.0110703 
-0.621547901694032 1:0.997646 2:0.0019213 3:2.48332e-05 4:0.000408055 5:0.970474 6:0.0019728 7:0.0189212 8:0.974365 9:0.453669 10:0.0513177 11:0.0174888 12:0.00657531 13:0.119912 14:0.103723 15:0.186575 16:0.0538314 17:0.00493552 18:1 19:1 20:0 21:0 22:0 23:0 24:0 25:0.0749915 26:0.0167829 27:0.0127537 28:0.00760219 29:0.0038789 30:0.0342328 31:0.0817683 32:0.0142695 33:0.737724 34:0.0159959 35:0.0275099 36:0.0621962 37:0.0676363 38:0.0817792 39:0.107048 40:0.0617958 41:0.251951 42:0.0343644 43:0.225044 44:0.0806743 
-2.075001977926118 1:0.0210845 2:0.0248991 3:0.0172952 4:0.936721 5:0.96919 6:0.288856 7:0.601722 8:-0.849487 9:0.0847581 10:0.214795 11:0.0363532 12:0.0238024 13:0.0577539 14:0.0483 15:0.0372614 16:0.195467 17:0.0126526 18:0 19:0 20:0 21:0 22:0 23:0 24:0 25:0.075113 26:0.0571263 27:0.527283 28:0.00639449 29:0.00360354 30:0.244974 31:0.047929 32:0.0203702 33:0.0146188 34:0.00258815 35:0.1 36:0.1 37:0.1 38:0.1 39:0.1 40:0.1 41:0.1 42:0.1 43:0.1 44:0.1 
-0.4370966041813623 1:0.996604 2:0.00247109 3:4.7678e-05 4:0.000876888 5:0.973049 6:0.00533144 7:0.0406362 8:0.997477 9:0.198391 10:0.0351023 11:0.00366003 12:0.00234714 13:0.0217535 14:0.299105 15:0.407858 16:0.00984642 17:0.0166056 18:0 19:0 20:1 21:0 22:0 23:0 24:0 25:0.0801768 26:0.111798 27:0.069433 28:0.0176752 29:0.013393 30:0.018134 31:0.324144 32:0.0672521 33:0.292065 34:0.00592966 35:0.0355167 36:0.0653542 37:0.0715964 38:0.0296037 39:0.0117506 40:0.130758 41:0.523183 42:0.0175522 43:0.0765445 44:0.0381401 
-0.4143235236655291 1:0.978256 2:0.000307595 3:0.000305912 4:0.0211305 5:-0.842219 6:0.0274899 7:0.264188 8:0.773741 9:0.00612326 10:0.103624 11:0.093568 12:0.0751001 13:0.0377878 14:0.630795 15:0.00954857 16:0.00668948 17:0.0092738 18:0 19:1 20:0 21:0 22:0 23:0 24:1 25:0.00199773 26:0.0101386 27:0.113049 28:0.00741576 29:0.00122091 30:0.831875 31:0.00831182 32:0.00118255 33:0.0204488 34:0.00435951 35:0.00220552 36:0.0254002 37:0.00212988 38:0.0252814 39:0.0216976 40:0.00253868 41:0.915536 42:0.000887694 43:0.00285645 44:0.00146683 
-0.5957040806575041 1:0.131877 2:0.255293 3:0.0215348 4:0.591295 5:-0.968947 6:0.018816 7:0.111666 8:0.653767 9:0.0428841 10:0.132702 11:0.0194754 12:0.0134156 13:0.114513 14:0.563652 15:0.0115444 16:0.0759972 17:0.00700014 18:0 19:1 20:0 21:0 22:0 23:0 24:0 25:0.0166459 26:0.0755296 27:0.04544 28:0.00726563 29:0.00393988 30:0.0460032 31:0.620866 32:0.0107293 33:0.162562 34:0.0110184 35:1.08654e-05 36:2.57103e-05 37:2.54784e-05 38:1.3153e-05 39:8.04549e-06 40:1.29239e-05 41:0.998507 42:7.85663e-05 43:0.00127262 44:4.5267e-05 
-0.001601110611624956 1:0.998353 2:2.08049e-06 3:2.04949e-06 4:0.00164276 5:0.729735 6:0.0974319 7:0.559968 8:0.952996 9:0.0849034 10:0.0825891 11:0.284023 12:0.0243213 13:0.122107 14:0.0994754 15:0.0761262 16:0.116304 17:0.0127186 18:0 19:1 20:0 21:1 22:0 23:0 24:1 25:0.0269479 26:0.0230347 27:0.465358 28:0.0133696 29:0.00859687 30:0.193749 31:0.226533 32:0.00769755 33:0.0272522 34:0.00746022 35:6.38148e-05 36:0.000207436 37:0.000104924 38:0.000113838 39:3.46257e-05 40:0.000180989 41:0.994707 42:0.000157468 43:0.00176524 44:0.00266516 
-0.6006792500483417 1:0.978587 2:0.00914537 3:0.00286951 4:0.00939783 5:0.96197 6:0.036034 7:0.0963507 8:0.866714 9:0.119237 10:0.162328 11:0.0207475 12:0.0071284 13:0.153195 14:0.317497 15:0.147866 16:0.0217506 17:0.0142168 18:0 19:1 20:0 21:1 22:1 23:0 24:1 25:0.148683 26:0.138255 27:0.0535337 28:0.0322585 29:0.0134881 30:0.25283 31:0.0420808 32:0.236074 33:0.0689103 34:0.0138874 35:0.00104622 36:0.00328453 37:0.000350141 38:0.000864068 39:0.000294917 40:0.000874915 41:0.989596 42:0.0015298 43:0.00155616 44:0.000603146 
-0.3314951744387107 1:0.844315 2:0.131514 3:0.0100102 4:0.0141608 5:0.970782 6:0.138665 7:0.259168 8:0.998783 9:0.0839162 10:0.239544 11:0.059309 12:0.0442722 13:0.0887572 14:0.173472 15:0.134139 16:0.0150717 17:0.0228538 18:0 19:0 20:0 21:1 22:0 23:0 24:1 25:0.102346 26:0.273169 27:0.0173485 28:0.0186537 29:0.0116697 30:0.076641 31:0.356049 32:0.082706 33:0.0541933 34:0.00722324 35:0.0726479 36:0.238373 37:0.145751 38:0.0243777 39:0.0652465 40:0.0252373 41:0.140728 42:0.012829 43:0.0286483 44:0.24616 
-0.2286047059757647 1:0.66485 2:0.12069 3:0.0430898 4:0.17137 5:0.963751 6:0.0162866 7:0.395557 8:-0.844298 9:0.0324751 10:0.0187347 11:0.119415 12:0.0987248 13:0.0960145 14:0.0438777 15:0.0151869 16:0.492553 17:0.0667317 18:0 19:0 20:0 21:0 22:0 23:0 24:0 25:0.0184101 26:0.122925 27:0.0511223 28:0.471799 29:0.0589196 30:0.0301231 31:0.0696739 32:0.166202 33:0.00606192 34:0.00476315 35:0.0570048 36:0.290255 37:0.124488 38:0.112984 39:0.031406 40:0.0942948 41:0.0585392 42:0.0595267 43:0.0665984 44:0.104903 
-0.8300190032713889 1:0.748908 2:0.204297 3:0.0120088 4:0.0347861 5:-0.976533 6:0.00523383 7:0.105382 8:0.947502 9:0.011578 10:0.0157335 11:0.143881 12:0.00832463 13:0.0610962 14:0.245186 15:0.451107 16:0.0155179 17:0.0423417 18:0 19:0 20:0 21:0 22:0 23:0 24:0 25:0.0379763 26:0.109726 27:0.0918333 28:0.0147507 29:0.0156602 30:0.23493 31:0.253225 32:0.231148 33:0.00567619 34:0.0050748 35:0.00182188 36:0.00793789 37:0.00288106 38:0.00821599 39:0.288263 40:0.0164015 41:0.0443666 42:0.610706 43:0.016099 44:0.00330684 
-0.813001218181434 1:0.987718 2:0.00753149 3:0.00106456 4:0.00368621 5:-0.951827 6:0.0405086 7:0.624323 8:0.977725 9:0.0259563 10:0.0629058 11:0.0253937 12:0.0102971 13:0.0293454 14:0.382078 15:0.0439085 16:0.276784 17:0.102822 18:0 19:0 20:0 21:0 22:0 23:0 24:0 25:0.0143078 26:0.0282182 27:0.0330821 28:0.0686094 29:0.65485 30:0.00231228 31:0.00943549 32:0.18699 33:0.00146639 34:0.000728303 35:0.1 36:0.1 37:0.1 38:0.1 39:0.1 40:0.1 41:0.1 42:0.1 43:0.1 44:0.1 
-0.1718971009185745 1:0.204662 2:0.698647 3:0.0533265 4:0.0433644 5:0.76147 6:0.0160343 7:0.0692709 8:0.798703 9:0.00660384 10:0.141189 11:0.0782494 12:0.0066171 13:0.229114 14:0.252258 15:0.256311 16:0.0106979 17:0.00292618 18:0 19:1 20:0 21:0 22:0 23:0 24:1 25:0.0260802 26:0.0667472 27:0.00629536 28:0.0102878 29:0.0111223 30:0.0175477 31:0.829547 32:0.0243687 33:0.00629036 34:0.00171377 35:3.12599e-06 36:9.37349e-06 37:5.01877e-06 38:4.6321e-06 39:2.89121e-06 40:4.23838e-06 41:0.999062 42:0.00033125 43:0.000572077 44:5.19376e-06 
-0.1966948777563127 1:0.970075 2:0.0149061 3:0.00392839 4:0.0110905 5:0.963645 6:0.0435812 7:0.626504 8:-0.528242 9:0.074017 10:0.0410826 11:0.104821 12:0.0735134 13:0.079139 14:0.0124256 15:0.0115835 16:0.448964 17:0.110873 18:0 19:0 20:0 21:0 22:0 23:0 24:0 25:0.00937259 26:0.0855582 27:0.38194 28:0.259494 29:0.057022 30:0.0276271 31:0.13832 32:0.0291808 33:0.00538233 34:0.00610236 35:0.0258648 36:0.0764367 37:0.0176 38:0.142849 39:0.629155 40:0.0338092 41:0.0307635 42:0.012394 43:0.0202071 44:0.0109202 
-0.1257078425378906 1:0.996237 2:0.00220995 3:0.000153834 4:0.00139872 5:0.963191 6:0.00710565 7:0.101087 8:-0.933367 9:0.0337371 10:0.0339836 11:0.0455453 12:0.0605616 13:0.0878289 14:0.426696 15:0.0146059 16:0.234761 17:0.0551744 18:0 19:0 20:0 21:0 22:0 23:0 24:0 25:0.0178625 26:0.0351291 27:0.00527891 28:0.00483984 29:0.025419 30:0.0157021 31:0.0962477 32:0.79667 33:0.00240368 34:0.000447193 35:0.0193396 36:0.0638511 37:0.066449 38:0.0229467 39:0.0124179 40:0.0403819 41:0.674844 42:0.0145378 43:0.0243937 44:0.0608386 
-0.48658570450768 1:0.987438 2:0.00988684 3:0.00104564 4:0.00162947 5:-0.687567 6:0.00504432 7:0.0708775 8:0.971316 9:0.0122214 10:0.0648603 11:0.0289205 12:0.00497325 13:0.136401 14:0.202541 15:0.413367 16:0.0306484 17:0.101022 18:0 19:0 20:0 21:0 22:0 23:0 24:0 25:0.115077 26:0.0830784 27:0.00574678 28:0.0806685 29:0.112548 30:0.0250178 31:0.089128 32:0.484118 33:0.00277875 34:0.00183964 35:0.00874414 36:0.042844 37:0.0372841 38:0.773399 39:0.0488911 40:0.0206226 41:0.0136991 42:0.0137703 43:0.0190592 44:0.021686 
-0.7533530746186151 1:0.998153 2:0.00136881 3:6.33584e-05 4:0.00041515 5:-0.888272 6:0.0129438 7:0.174731 8:0.906435 9:0.00357409 10:0.044769 11:0.0374719 12:0.00546938 13:0.0764025 14:0.0470899 15:0.0578611 16:0.10051 17:0.613908 18:0 19:0 20:0 21:0 22:0 23:0 24:0 25:0.14699 26:0.0610651 27:0.0118057 28:0.0998532 29:0.432644 30:0.0118249 31:0.0565731 32:0.17321 33:0.00425993 34:0.00177404 35:0.0292025 36:0.627123 37:0.0286282 38:0.0539905 39:0.100027 40:0.045015 41:0.0581974 42:0.0199375 43:0.0256429 44:0.0122362 
-0.6340011920736895 1:0.939387 2:0.0283041 3:0.00365122 4:0.0286576 5:0.960647 6:0.0828143 7:0.115783 8:0.981122 9:0.00274032 10:0.641716 11:0.073612 12:0.0590924 13:0.0113923 14:0.0892916 15:0.0220301 16:0.00952542 17:0.00778558 18:0 19:0 20:0 21:1 22:0 23:0 24:1 25:0.0278681 26:0.0457451 27:0.222364 28:0.0380165 29:0.012727 30:0.0354904 31:0.562906 32:0.0498722 33:0.0027223 34:0.00228822 35:0.0177864 36:0.137297 37:0.0504245 38:0.0119969 39:0.00682726 40:0.0361715 41:0.0555549 42:0.00737024 43:0.0274449 44:0.649127 
-0.490687263421618 1:0.985699 2:0.00452953 3:0.00162259 4:0.00814863 5:0.717301 6:0.0330906 7:0.323626 8:0.807908 9:0.013202 10:0.0937262 11:0.37708 12:0.0833443 13:0.0728648 14:0.136088 15:0.132934 16:0.0515473 17:0.00612253 18:0 19:1 20:0 21:1 22:0 23:0 24:0 25:0.00616709 26:0.0127513 27:0.0210554 28:0.805851 29:0.0169801 30:0.00492415 31:0.122162 32:0.00718858 33:0.00221096 34:0.000708871 35:0.00270589 36:0.0250679 37:0.00462305 38:0.0315249 39:0.0209906 40:0.00553937 41:0.894126 42:0.00704146 43:0.00499433 44:0.00338678 
-0.2787151658896348 1:0.988876 2:0.0056804 3:0.00103798 4:0.00440561 5:0.959481 6:0.0152663 7:0.217187 8:0.959275 9:0.00684634 10:0.0473012 11:0.0898972 12:0.00292952 13:0.293396 14:0.0869727 15:0.431657 16:0.0122952 17:0.0134384 18:0 19:0 20:0 21:0 22:0 23:0 24:0 25:0.0413752 26:0.0435444 27:0.549746 28:0.0365686 29:0.0343018 30:0.166296 31:0.109235 32:0.0139556 33:0.00269974 34:0.00227808 35:0.0054857 36:0.233873 37:0.0586477 38:0.011914 39:0.0323352 40:0.0144912 41:0.00276408 42:0.0103999 43:0.00554387 44:0.624545 
-0.1019473579312868 1:0.993375 2:3.17648e-05 3:3.01337e-05 4:0.00656304 5:0.867538 6:0.0243794 7:0.0393713 8:0.989396 9:0.0153919 10:0.40919 11:0.0816973 12:0.00539767 13:0.190712 14:0.127729 15:0.0892663 16:0.0376075 17:0.0186293 18:0 19:0 20:0 21:0 22:0 23:0 24:0 25:0.0290264 26:0.0442539 27:0.0143521 28:0.00417399 29:0.0159634 30:0.00582233 31:0.0620388 32:0.812737 33:0.00800536 34:0.00362707 35:0.0035076 36:0.00795858 37:0.00815407 38:0.00564383 39:0.0074926 40:0.0537208 41:0.855458 42:0.0424608 43:0.00464491 44:0.0109587 
-0.01040275692430655 1:0.991476 2:0.00271331 3:0.000393131 4:0.00541715 5:0.957362 6:0.0431847 7:0.0686989 8:0.990009 9:0.0139285 10:0.669755 11:0.00968667 12:0.0008063 13:0.0191671 14:0.181244 15:0.0413376 16:0.0178415 17:0.00304916 18:0 19:1 20:0 21:0 22:0 23:0 24:0 25:0.0575976 26:0.290275 27:0.305373 28:0.13579 29:0.0179516 30:0.0670178 31:0.100823 32:0.00868129 33:0.0090157 34:0.00747489 35:5.7037e-05 36:7.28359e-05 37:0.000127723 38:7.0845e-05 39:0.000709494 40:7.14699e-05 41:0.997376 42:0.00100483 43:0.000398224 44:0.000112034 
-0.0224429325245157 1:0.98277 2:0.0134771 3:0.00112495 4:0.00262796 5:0.958646 6:0.0600234 7:0.208613 8:-0.881803 9:0.0205069 10:0.237191 11:0.0443658 12:0.0596461 13:0.0769801 14:0.351479 15:0.0179248 16:0.0533592 17:0.0785233 18:0 19:1 20:0 21:0 22:0 23:0 24:0 25:0.0203431 26:0.0672528 27:0.0151609 28:0.0112973 29:0.0225355 30:0.0515987 31:0.788551 32:0.0132883 33:0.00871655 34:0.00125609 35:2.54622e-06 36:1.52341e-05 37:6.88761e-06 38:4.89034e-06 39:9.57631e-06 40:3.75978e-06 41:0.998692 42:0.000985765 43:0.00027518 44:4.38993e-06 
-2.083366071617929 1:0.608631 2:0.0156297 3:0.014531 4:0.361208 5:-0.68785 6:0.00927791 7:0.103063 8:-0.691053 9:0.0171359 10:0.0641787 11:0.0343057 12:0.0211344 13:0.0399871 14:0.457258 15:0.110808 16:0.0311994 17:0.214715 18:0 19:0 20:0 21:0 22:0 23:0 24:1 25:0.0293982 26:0.0358437 27:0.0672298 28:0.0307637 29:0.0819608 30:0.0572731 31:0.651999 32:0.0373176 33:0.00555588 34:0.00265817 35:0.1 36:0.1 37:0.1 38:0.1 39:0.1 40:0.1 41:0.1 42:0.1 43:0.1 44:0.1 
-0.1490874203412128 1:0.309542 2:0.629037 3:0.021361 4:0.0400597 5:0.519752 6:0.00323487 7:0.0364235 8:0.875131 9:0.00841464 10:0.12444 11:0.106076 12:0.101903 13:0.140676 14:0.444564 15:0.0372941 16:0.0225399 17:0.0108582 18:0 19:0 20:0 21:0 22:0 23:0 24:1 25:0.0165232 26:0.0412341 27:0.0292132 28:0.02479 29:0.18904 30:0.0908436 31:0.567531 32:0.0292708 33:0.00913565 34:0.00241838 35:0.1 36:0.1 37:0.1 38:0.1 39:0.1 40:0.1 41:0.1 42:0.1 43:0.1 44:0.1 
-0.02232874292206752 1:0.998242 2:2.43949e-06 3:2.45222e-06 4:0.00175342 5:0.882986 6:0.13588 7:0.696051 8:0.983526 9:0.0105584 10:0.142102 11:0.0286062 12:0.0124859 13:0.00985472 14:0.543455 15:0.0774756 16:0.0283965 17:0.0111858 18:0 19:1 20:0 21:0 22:0 23:0 24:1 25:0.0981047 26:0.675442 27:0.0794514 28:0.0140758 29:0.00994017 30:0.00914184 31:0.0827797 32:0.0125008 33:0.00382728 34:0.0147362 35:0.000235516 36:0.00832077 37:0.0191539 38:0.000202301 39:0.000673362 40:0.000354934 41:0.955496 42:0.000135308 43:0.00125664 44:0.0141714 
-1.010140640432301 1:0.649088 2:0.24218 3:0.0417392 4:0.0669927 5:0.974296 6:0.304581 7:0.708555 8:0.848058 9:0.00829271 10:0.134266 11:0.0242901 12:0.354106 13:0.0341713 14:0.0329406 15:0.0553336 16:0.00254437 17:0.0494746 18:0 19:0 20:0 21:0 22:0 23:0 24:1 25:0.0895778 26:0.411556 27:0.0114628 28:0.0237996 29:0.276194 30:0.0678874 31:0.0858605 32:0.0270198 33:0.0038053 34:0.00283729 35:0.119383 36:0.650394 37:0.0310051 38:0.0153936 39:0.0442215 40:0.0189627 41:0.0472976 42:0.00998686 43:0.0117482 44:0.0516068 
-1.697446236972138 1:0.317066 2:0.0676523 3:0.0225195 4:0.592763 5:0.592507 6:0.225916 7:0.356985 8:-0.802206 9:0.0270565 10:0.348165 11:0.0102145 12:0.00574252 13:0.0941522 14:0.166672 15:0.0347046 16:0.00881295 17:0.0785641 18:0 19:0 20:0 21:0 22:0 23:0 24:1 25:0.137736 26:0.0798706 27:0.0220687 28:0.156292 29:0.318077 30:0.0928124 31:0.0604603 32:0.0579809 33:0.0549843 34:0.0197176 35:0.0966162 36:0.262589 37:0.103096 38:0.0300793 39:0.069423 40:0.0378658 41:0.218599 42:0.0195277 43:0.0348708 44:0.127333 
-0.2110579986665139 1:0.997397 2:0.00107703 3:4.22854e-05 4:0.00148397 5:0.970602 6:0.0897324 7:0.134213 8:-0.798686 9:0.0121969 10:0.455009 11:0.0310341 12:0.00843831 13:0.0345614 14:0.348743 15:0.0114526 16:0.00307181 17:0.00576015 18:0 19:0 20:0 21:0 22:0 23:0 24:0 25:0.0457659 26:0.50205 27:0.242811 28:0.0273568 29:0.00835451 30:0.0396274 31:0.110197 32:0.00825832 33:0.00538581 34:0.010193 35:0.0122237 36:0.106559 37:0.692397 38:0.00769039 39:0.0103138 40:0.0288007 41:0.0617251 42:0.0103471 43:0.0138063 44:0.0561364 
-0.2558327389815486 1:0.978979 2:0.00228109 3:0.00125917 4:0.0174804 5:0.776027 6:0.0492653 7:0.658373 8:-0.772357 9:0.0327201 10:0.0753589 11:0.00727238 12:0.00633994 13:0.0185761 14:0.764431 15:0.0213427 16:0.0145851 17:0.0101081 18:0 19:1 20:0 21:0 22:0 23:0 24:0 25:0.0180524 26:0.105468 27:0.00234034 28:0.0129961 29:0.00150226 30:0.00578734 31:0.833206 32:0.00549315 33:0.0124698 34:0.00268476 35:0.000254319 36:0.00327075 37:0.0154974 38:0.000652113 39:0.00120874 40:0.000423894 41:0.97578 42:0.00136417 43:0.000847814 44:0.000701165 
-0.592217363325546 1:0.92219 2:0.00446641 3:0.00112258 4:0.0722207 5:-0.912594 6:0.0316737 7:0.296197 8:0.996909 9:0.153362 10:0.0820579 11:0.00500593 12:0.0220822 13:0.0803375 14:0.542626 15:0.0352345 16:0.0147876 17:0.0328327 18:0 19:0 20:0 21:1 22:0 23:0 24:0 25:0.0251273 26:0.031142 27:0.0360822 28:0.0159772 29:0.00902228 30:0.0700065 31:0.677731 32:0.108178 33:0.0192984 34:0.00743497 35:0.000797738 36:0.00891417 37:0.0187775 38:0.00141099 39:0.0360377 40:0.000927366 41:0.927437 42:0.00383654 43:0.00110667 44:0.000754127 
-0.5810930184505304 1:0.995537 2:0.00132227 3:5.25543e-05 4:0.00308855 5:-0.817751 6:0.045723 7:0.556539 8:0.774849 9:0.0223138 10:0.0823007 11:0.0057858 12:0.00484514 13:0.0132499 14:0.73769 15:0.038969 16:0.0410806 17:0.00804181 18:0 19:0 20:0 21:0 22:0 23:0 24:1 25:0.011998 26:0.0902597 27:0.00491998 28:0.00279251 29:0.00117522 30:0.00982928 31:0.792017 32:0.0838087 33:0.00257346 34:0.000626311 35:0.022064 36:0.567296 37:0.0350626 38:0.0639589 39:0.070256 40:0.04911 41:0.049073 42:0.0749207 43:0.0412061 44:0.0270523 
-0.203145243968586 1:0.999346 2:1.25697e-06 3:1.319e-06 4:0.000651663 5:0.858491 6:0.0330171 7:0.5 8:0.91068 9:0.0184199 10:0.045405 11:0.0068904 12:0.00543138 13:0.0343807 14:0.819058 15:0.0194911 16:0.00804049 17:0.00986619 18:1 19:0 20:0 21:0 22:0 23:0 24:1 25:0.00631175 26:0.0301433 27:0.0029327 28:0.00279655 29:0.0015782 30:0.0219215 31:0.900855 32:0.0297698 33:0.00237093 34:0.00132069 35:0.000254319 36:0.00327075 37:0.0154974 38:0.000652113 39:0.00120874 40:0.000423894 41:0.97578 42:0.00136417 43:0.000847814 44:0.000701165 
-0.3469156585669176 1:0.999128 2:9.37251e-07 3:9.30988e-07 4:0.000870454 5:0.713657 6:0.0136781 7:0.5 8:0.99657 9:0.00478727 10:0.0192572 11:0.00362451 12:0.00222753 13:0.0153022 14:0.92864 15:0.00306571 16:0.0047597 17:0.00465723 18:1 19:0 20:0 21:0 22:0 23:0 24:0 25:0.0128348 26:0.124909 27:0.0107501 28:0.01052 29:0.00593224 30:0.0136864 31:0.719502 32:0.0942686 33:0.00519327 34:0.00240363 35:0.0003526 36:0.00384267 37:0.00761933 38:0.00062369 39:0.0225647 40:0.000694742 41:0.96204 42:0.000639398 43:0.000402556 44:0.00122018 
-0.1755788656457327 1:0.950374 2:0.0307162 3:0.00677184 4:0.0121378 5:0.944301 6:0.00265551 7:0.0814974 8:-0.686157 9:0.00822852 10:0.0293738 11:0.209794 12:0.0069857 13:0.436126 14:0.108745 15:0.01623 16:0.161515 17:0.0203469 18:0 19:0 20:0 21:0 22:0 23:0 24:0 25:0.0342425 26:0.147171 27:0.107251 28:0.0142152 29:0.00499429 30:0.0751952 31:0.597396 32:0.0055245 33:0.00658797 34:0.00742244 35:0.000697805 36:0.0307308 37:0.216335 38:0.000694048 39:0.000851054 40:0.719572 41:0.000624338 42:9.60531e-05 43:0.000406533 44:0.029993 
-0.362372522258463 1:0.0482225 2:0.0420672 3:0.068184 4:0.841526 5:0.850127 6:0.0116772 7:0.14599 8:-0.728318 9:0.00278821 10:0.0781093 11:0.126591 12:0.00697142 13:0.0385629 14:0.380752 15:0.338048 16:0.0051663 17:0.0113339 18:0 19:0 20:0 21:0 22:0 23:0 24:0 25:0.0214457 26:0.0447661 27:0.28986 28:0.0183574 29:0.00982783 30:0.148343 31:0.330092 32:0.110204 33:0.017406 34:0.00969757 35:0.00446183 36:0.0134793 37:0.00934707 38:0.0229997 39:0.0750576 40:0.00923805 41:0.0462614 42:0.802278 43:0.00866744 44:0.00820971 
-0.6281748271010241 1:0.338342 2:0.0190646 3:0.0132945 4:0.629299 5:0.965514 6:0.123435 7:0.354765 8:-0.9216 9:0.035854 10:0.182885 11:0.0401183 12:0.0303629 13:0.0451758 14:0.376835 15:0.0294916 16:0.110945 17:0.0248963 18:1 19:0 20:0 21:1 22:0 23:0 24:1 25:0.233179 26:0.434487 27:0.011159 28:0.101268 29:0.0908169 30:0.0312191 31:0.0428264 32:0.0482381 33:0.00389166 34:0.00291433 35:0.1 36:0.1 37:0.1 38:0.1 39:0.1 40:0.1 41:0.1 42:0.1 43:0.1 44:0.1 
-1.025351505392486 1:0.680132 2:0.0178915 3:0.00861285 4:0.293363 5:0.96894 6:0.119605 7:0.444818 8:-0.957471 9:0.0430327 10:0.154203 11:0.0739724 12:0.0321329 13:0.0445482 14:0.355341 15:0.0227112 16:0.127375 17:0.0270795 18:1 19:0 20:0 21:1 22:0 23:0 24:1 25:0.680991 26:0.110515 27:0.00951824 28:0.108248 29:0.0313473 30:0.0182133 31:0.0134473 32:0.0213704 33:0.0044353 34:0.00191424 35:0.132622 36:0.143603 37:0.078789 38:0.0492831 39:0.0165386 40:0.283335 41:0.0501233 42:0.0388342 43:0.126805 44:0.0800663 
-0.392999864291062 1:0.284937 2:0.0897536 3:0.0428344 4:0.582475 5:0.960095 6:0.00273726 7:0.0924288 8:-0.952611 9:0.00261649 10:0.00737646 11:0.0703184 12:0.00972825 13:0.0164592 14:0.010112 15:0.870991 16:0.00186492 17:0.00779631 18:0 19:0 20:0 21:0 22:0 23:0 24:0 25:0.0554448 26:0.0580797 27:0.0600019 28:0.0466823 29:0.0203402 30:0.440591 31:0.118866 32:0.118413 33:0.0614324 34:0.0201495 35:0.0303018 36:0.0674063 37:0.045582 38:0.0277573 39:0.0148614 40:0.0871465 41:0.641231 42:0.0161631 43:0.0381342 44:0.0314161 
-0.4979962470156509 1:0.389631 2:0.183972 3:0.0417145 4:0.384683 5:0.96663 6:0.00852726 7:0.0677813 8:0.728866 9:0.00712367 10:0.0797782 11:0.0430937 12:0.0104606 13:0.0617265 14:0.1831 15:0.479587 16:0.00974193 17:0.116861 18:0 19:0 20:0 21:0 22:0 23:0 24:0 25:0.0178821 26:0.0602802 27:0.006023 28:0.0310164 29:0.214365 30:0.00788987 31:0.144115 32:0.515913 33:0.0016007 34:0.000914609 35:0.00195938 36:0.00524633 37:0.0043417 38:0.025759 39:0.30087 40:0.0243401 41:0.0403904 42:0.577311 43:0.0149777 44:0.00480411 
