svm_type c_svc
kernel_type rbf
gamma 0.01
nr_class 3
total_sv 108
rho 0.103852 -0.0195572 -0.200497
label 0 1 2
probA -5.58993 -4.5395 -5.36352
probB -0.0660462 0.926074 0.960867
nr_sv 44 36 28
SV
0.03861769159115771 0.03206281930642948 1:0.999451 2:-0.631539 3:0.940447 4:-0.541272 5:0.998997 6:0.638804 7:0.905121 8:0.761379 9:0.998126 10:0.897653 11:0.860506 12:0.841693 13:0.990788 14:0.852703 15:0.894628 16:0.771792 17:0.964942 18:0.914529 19:0.522738 20:0.894779 21:0.904304 22:0.944362 23:-0.619399 24:0.871863 25:0.774657 26:0.932677 27:-0.897784 28:0.862922 29:0.880429 30:0.924931 31:-0.794286 32:0.885411 33:0.784632 34:0.94855 35:-0.801404 36:0.857286 37:0.640094 38:0.965449 39:-0.941043 40:0.809471 41:0.810585 42:0.976045 43:-0.870068 44:0.736727 45:0.72424 46:0.968073 47:-0.880758 48:0.737182 49:-0.569048 50:0.957136 51:-0.946624 52:0.722491 53:0.622108 54:0.969546 55:-0.895431 56:0.839145 57:0.776936 58:0.966733 59:-0.802305 60:0.844564 61:0.875531 62:0.985482 63:-0.656483 64:0.871008 65:0.862468 66:0.983403 67:-0.639532 68:0.853902 69:0.749165 70:0.993512 71:-0.714055 72:0.886487 73:-0.508969 74:0.994691 75:-0.932308 76:0.926815 77:0.547128 78:0.992739 79:-0.891487 80:0.929896 81:0.640427 82:0.992935 83:-0.889519 84:0.951233 85:0.505369 86:0.992058 87:-0.923997 88:0.938751 89:-0.515074 90:0.989649 91:-0.949474 92:0.930584 93:-0.664649 94:0.987795 95:-0.988281 96:0.961573 97:-0.817956 98:0.985487 99:-0.994236 100:0.941375 101:-0.910015 102:0.985703 103:-0.999994 104:0.949331 105:-0.823574 106:0.979329 107:-0.99999 108:0.956214 109:0.526704 110:0.97537 111:-0.986866 112:0.959442 113:0.628326 114:0.974994 115:-0.986433 116:0.962096 117:0.586074 118:0.972194 119:-0.967326 120:0.968788 121:-0.627684 122:0.962223 123:-0.971074 124:0.976316 125:-0.619609 126:0.973284 127:-0.959311 128:0.984339 129:0.592511 130:0.971538 131:-0.861721 132:0.966142 133:-0.645506 134:0.985583 135:-0.932911 136:0.975241 137:-0.619677 138:0.982549 139:-0.936749 140:0.977417 141:-0.648258 142:0.962212 143:-0.958415 144:0.968051 145:-0.89679 146:0.978423 147:-0.991415 148:0.975188 149:-0.932194 150:0.973464 151:-0.993805 152:0.939419 153:-0.970676 154:0.96816 155:-0.997039 156:0.937971 157:-0.974052 158:0.945987 159:-0.999992 160:0.929511 161:-0.97182 162:0.936588 163:-0.999983 164:0.935863 165:-0.914058 166:0.910012 167:-0.98709 168:0.938202 169:-0.875138 170:0.717585 171:-0.979305 172:0.859449 173:-0.890144 174:0.578133 175:-0.978551 176:0.730476 177:-0.947251 178:0.626316 179:-0.991879 180:0.741902 181:-0.97876 182:0.702021 183:-0.997301 184:0.766386 185:-0.980467 186:0.702021 187:-0.996422 188:0.766386 189:-0.985268 190:0.69246 191:-0.995612 192:0.744817 193:-0.969586 194:-0.530712 195:-0.984078 196:0.654412 197:-0.954758 198:-0.557973 199:-0.97651 200:0.755488 201:-0.972324 202:-0.736461 203:-0.979817 204:0.677255 205:-0.958809 206:-0.69589 207:-0.980749 208:0.571884 209:-0.939224 210:-0.700952 211:-0.971453 212:0.695077 213:-0.84634 214:-0.761363 215:-0.945014 216:0.664478 217:-0.877818 218:-0.714184 219:-0.976503 220:0.706536 221:-0.92482 222:-0.727946 223:-0.982023 224:0.708348 225:-0.877818 226:-0.65262 227:-0.976503 228:0.614239 229:-0.922942 230:-0.710689 231:-0.980105 232:0.586222 233:-0.945954 234:-0.710689 235:-0.977809 236:0.586222 237:-0.7608 238:-0.722561 239:-0.906826 240:0.543975 
1 0.8651804270442425 1:0.554178 2:-0.566814 3:0.683548 4:-0.602788 5:-0.637118 6:-0.555581 7:0.531572 8:-0.560077 9:-0.723219 10:0.627741 11:-0.652897 12:-0.637397 13:-0.812483 14:0.611216 15:-0.752212 16:-0.605802 17:-0.852573 18:0.620239 19:-0.795855 20:-0.650686 21:-0.653201 22:0.59858 23:0.506729 24:-0.628423 25:-0.674781 26:0.593836 27:-0.58812 28:-0.677249 29:0.579202 30:0.58336 31:0.695665 32:-0.646622 33:0.618324 34:0.701373 35:0.696234 36:-0.623798 37:0.731493 38:0.664066 39:0.741876 40:-0.623657 41:0.666698 42:0.629446 43:0.64444 44:-0.654323 45:0.745435 46:0.718684 47:0.69455 48:-0.645043 49:0.693628 50:0.801203 51:0.589793 52:-0.675109 53:0.851041 54:0.772762 55:0.790362 56:-0.672265 57:0.836762 58:0.899627 59:0.768671 60:-0.586375 61:0.950683 62:0.896587 63:0.929053 64:-0.551104 65:0.972452 66:0.926092 67:0.966431 68:-0.590038 69:0.972452 70:0.957922 71:0.966431 72:0.65601 73:0.936485 74:0.957033 75:0.926674 76:0.54938 77:0.938751 78:0.966434 79:0.932501 80:0.520304 81:0.97312 82:0.979134 83:0.926255 84:-0.643511 85:0.995191 86:0.973863 87:0.976598 88:-0.670464 89:0.96885 90:0.955712 91:0.797751 92:-0.65396 93:0.971175 94:0.974205 95:0.861206 96:-0.647152 97:0.983629 98:0.976714 99:0.920377 100:-0.554489 101:0.992949 102:0.990511 103:0.961992 104:0.753992 105:0.989708 106:0.98964 107:0.952965 108:0.763614 109:0.994531 110:0.98194 111:0.969168 112:0.871972 113:0.994531 114:0.982981 115:0.969168 116:0.880103 117:0.995125 118:0.986186 119:0.978924 120:0.908664 121:0.964675 122:0.983863 123:0.874685 124:0.932923 125:0.945197 126:0.984738 127:0.837839 128:0.930901 129:0.887357 130:0.979737 131:0.568977 132:0.910625 133:0.904942 134:0.972428 135:0.666389 136:0.921413 137:0.860713 138:0.935428 139:-0.510853 140:0.782171 141:0.748007 142:0.918017 143:-0.748988 144:0.794106 145:0.688118 146:0.805934 147:-0.825327 148:0.669222 149:0.664942 150:0.813946 151:-0.816019 152:0.736742 153:-0.572823 154:0.651436 155:-0.910043 156:0.613448 157:-0.819913 158:0.646594 159:-0.957841 160:0.630349 161:-0.933834 162:0.644872 163:-0.986598 164:0.677018 165:-0.968679 166:0.549722 167:-0.987759 168:0.575989 169:-0.987273 170:0.657769 171:-0.994244 172:0.595404 173:-0.993078 174:0.651437 175:-0.994419 176:0.59737 177:-0.996016 178:-0.691696 179:-0.997243 180:-0.729877 181:-0.995885 182:-0.75948 183:-0.995955 184:-0.702737 185:-0.995209 186:-0.75948 187:-0.993834 188:-0.702737 189:-0.99297 190:-0.956808 191:-0.98766 192:-0.879396 193:-0.997033 194:-0.949223 195:-0.995442 196:-0.889395 197:-0.999994 198:-0.970682 199:-0.995962 200:-0.849717 201:-0.999999 202:-0.978934 203:-0.999994 204:-0.922055 205:-1 206:-0.984109 207:-1 208:-0.94422 209:-1 210:-0.983736 211:-1 212:-0.941715 213:-1 214:-0.98837 215:-0.999999 216:-0.953872 217:-1 218:-0.985923 219:-1 220:-0.954979 221:-1 222:-0.98053 223:-0.999991 224:-0.910592 225:-0.999998 226:-0.992281 227:-0.995238 228:-0.946513 229:-0.999987 230:-0.999982 231:-0.983827 232:-0.988799 233:-0.993352 234:-0.995924 235:-0.951564 236:-0.992213 237:-0.98745 238:-0.997061 239:-0.914084 240:-0.990268 
0.1314037248991492 0.8762999151559678 1:-0.705979 2:0.939575 3:-0.999988 4:0.8906 5:0.549409 6:0.914373 7:-0.983626 8:0.75917 9:0.5 10:0.859578 11:-0.978513 12:0.646147 13:-0.520285 14:0.885049 15:-0.982465 16:0.6812 17:-0.764218 18:0.849747 19:-0.992188 20:0.816422 21:-0.788836 22:0.830362 23:-0.989038 24:0.799115 25:-0.647474 26:0.78833 27:-0.964305 28:0.771597 29:-0.691539 30:0.728362 31:-0.975136 32:0.850725 33:-0.760193 34:0.772108 35:-0.97504 36:0.857594 37:-0.87205 38:0.782312 39:-0.987535 40:0.848863 41:-0.711231 42:0.720488 43:-0.972574 44:0.892162 45:-0.789123 46:0.74237 47:-0.98015 48:0.876166 49:-0.943877 50:0.766473 51:-0.99507 52:0.925203 53:-0.9582 54:0.781849 55:-0.993532 56:0.913004 57:-0.933694 58:0.810035 59:-0.992945 60:0.913585 61:-0.955461 62:0.818384 63:-0.997288 64:0.940866 65:-0.940453 66:0.859418 67:-0.991525 68:0.947963 69:-0.95928 70:0.870142 71:-0.99543 72:0.941372 73:-0.967522 74:0.876264 75:-0.992488 76:0.931728 77:-0.9663 78:0.693707 79:-0.993616 80:0.807234 81:-0.967921 82:0.686705 83:-0.996546 84:0.851944 85:-0.948382 86:0.679119 87:-0.993439 88:0.767512 89:-0.929378 90:0.691811 91:-0.979262 92:0.709739 93:-0.885969 94:0.695428 95:-0.966278 96:0.61123 97:-0.966488 98:0.61755 99:-0.988162 100:0.717338 101:-0.972613 102:0.662033 103:-0.992916 104:0.753192 105:-0.971026 106:0.728991 107:-0.991998 108:0.791773 109:-0.886477 110:0.58757 111:-0.950327 112:0.604759 113:-0.75622 114:-0.709508 115:-0.903357 116:0.586469 117:-0.870722 118:-0.657646 119:-0.975578 120:0.809864 121:-0.877074 122:-0.766022 123:-0.975888 124:0.860505 125:-0.833644 126:-0.71692 127:-0.962203 128:0.868761 129:-0.880155 130:-0.608922 131:-0.954779 132:0.837931 133:-0.961824 134:-0.510629 135:-0.989029 136:0.883774 137:-0.97245 138:0.572291 139:-0.994158 140:0.924125 141:-0.97245 142:0.540503 143:-0.994158 144:0.903709 145:-0.97245 146:-0.759865 147:-0.994158 148:0.683878 149:-0.988155 150:-0.645714 151:-0.996583 152:0.619048 153:-0.967179 154:-0.547748 155:-0.984236 156:0.60279 157:-0.954171 158:-0.547748 159:-0.983184 160:0.60279 161:-0.92467 162:-0.505288 163:-0.961689 164:0.512417 165:-0.981584 166:0.558637 167:-0.983726 168:0.540493 169:-0.977956 170:0.541594 171:-0.981426 172:0.549791 173:-0.878479 174:0.613814 175:-0.886031 176:-0.594084 177:-0.971512 178:0.607713 179:-0.971364 180:-0.516442 181:-0.989996 182:-0.724217 183:-0.989769 184:-0.896879 185:-0.993748 186:-0.756246 187:-0.993443 188:-0.923122 189:-0.976224 190:-0.768817 191:-0.986395 192:-0.93842 193:-0.953796 194:-0.746021 195:-0.965085 196:-0.974232 197:-0.958728 198:-0.746021 199:-0.964727 200:-0.974232 201:-0.994695 202:-0.687277 203:-0.992736 204:-0.93443 205:-0.996146 206:-0.749832 207:-0.995091 208:-0.927555 209:-0.99153 210:0.630454 211:-0.982034 212:-0.778829 213:-0.972426 214:0.630454 215:-0.937149 216:-0.778829 217:-0.956733 218:0.628525 219:-0.917045 220:-0.810244 221:-0.960059 222:0.532977 223:-0.937873 224:-0.762173 225:-0.878608 226:-0.513137 227:-0.820239 228:-0.61901 229:0.5 230:0.571289 231:0.643166 232:-0.709561 233:0.606239 234:0.518193 235:0.76876 236:-0.614956 237:0.704296 238:-0.647956 239:0.823459 240:-0.692063 
0.3574870664616626 0.7049314896063971 1:-0.95182 2:0.972883 3:-0.9697 4:0.950588 5:-0.773756 6:0.96142 7:-0.802178 8:0.931343 9:-0.784679 10:0.979826 11:-0.856518 12:0.938246 13:-0.855898 14:0.994626 15:-0.960075 16:0.960597 17:-0.881878 18:0.992339 19:-0.961774 20:0.984384 21:-0.900625 22:0.99199 23:-0.963645 24:0.982029 25:-0.746667 26:0.99157 27:-0.889002 28:0.979178 29:-0.633016 30:0.964069 31:-0.789909 32:0.946597 33:0.53627 34:0.957927 35:-0.733728 36:0.94211 37:-0.589169 38:0.958526 39:-0.873087 40:0.967804 41:-0.644611 42:0.859376 43:-0.878469 44:0.853094 45:-0.685775 46:0.846935 47:-0.884431 48:0.844278 49:-0.927921 50:0.810505 51:-0.968861 52:0.904037 53:-0.918087 54:0.785295 55:-0.961153 56:0.886005 57:-0.914023 58:0.800403 59:-0.973842 60:0.874534 61:-0.963573 62:0.810093 63:-0.976864 64:0.853244 65:-0.976824 66:0.765094 67:-0.988577 68:0.825864 69:-0.980741 70:0.578693 71:-0.991301 72:0.726599 73:-0.946119 74:0.631399 75:-0.981973 76:0.713794 77:-0.922002 78:0.666263 79:-0.978672 80:0.740565 81:-0.891713 82:0.5 83:-0.970146 84:0.649357 85:-0.971717 86:0.519158 87:-0.99241 88:0.662012 89:-0.986768 90:-0.556038 91:-0.989715 92:0.603311 93:-0.974925 94:0.5 95:-0.98005 96:0.607012 97:-0.989105 98:0.569247 99:-0.994525 100:0.587483 101:-0.992362 102:0.637163 103:-0.994429 104:0.55532 105:-0.983794 106:0.5 107:-0.980549 108:0.550864 109:-0.987706 110:0.542509 111:-0.985629 112:-0.650084 113:-0.971025 114:0.61836 115:-0.958098 116:-0.708267 117:-0.968535 118:-0.508187 119:-0.939271 120:-0.674417 121:-0.96088 122:0.562567 123:-0.905542 124:-0.622891 125:-0.987617 126:0.5 127:-0.95913 128:-0.735951 129:-0.938177 130:-0.550965 131:-0.765645 132:-0.760521 133:-0.851564 134:0.5 135:-0.519493 136:-0.613406 137:-0.884696 138:0.579373 139:-0.597285 140:0.589192 141:-0.744639 142:0.5 143:-0.572208 144:0.5734 145:-0.741215 146:-0.692275 147:-0.577352 148:-0.512223 149:-0.660452 150:-0.616489 151:0.620507 152:-0.595966 153:-0.530808 154:-0.51675 155:-0.570283 156:-0.630797 157:-0.623767 158:-0.527106 159:-0.749907 160:-0.604421 161:-0.548302 162:0.707047 163:-0.606974 164:0.626547 165:-0.786533 166:0.682629 167:-0.783051 168:0.572765 169:-0.84169 170:0.571961 171:-0.846003 172:-0.579916 173:-0.779529 174:0.773764 175:-0.756228 176:0.819899 177:-0.748088 178:0.783256 179:-0.774253 180:0.789589 181:-0.615592 182:0.791565 183:-0.803628 184:0.70952 185:-0.765229 186:0.871358 187:-0.875305 188:0.699507 189:-0.804682 190:0.854602 191:-0.882087 192:0.711838 193:-0.724005 194:0.85937 195:-0.938942 196:0.771539 197:-0.723035 198:0.921841 199:-0.928813 200:0.716196 201:-0.749642 202:0.966648 203:-0.935557 204:0.853067 205:-0.749642 206:0.938305 207:-0.935557 208:0.83477 209:-0.882276 210:0.938776 211:-0.981228 212:0.823788 213:-0.940585 214:0.970337 215:-0.995338 216:0.88884 217:-0.8687 218:0.938999 219:-0.980895 220:0.888467 221:-0.939273 222:0.939989 223:-0.995369 224:0.87643 225:-0.968937 226:0.913625 227:-0.999995 228:0.904394 229:-0.979527 230:0.874782 231:-0.999994 232:0.907973 233:-0.943909 234:0.803889 235:-0.994129 236:0.862095 237:-0.946549 238:0.844733 239:-0.995687 240:0.861522 
0.8618913895713863 0.3873292424211721 1:0.999511 2:0.991396 3:0.9744 4:0.549304 5:0.998561 6:0.989288 7:0.939162 8:0.643629 9:0.99794 10:0.986799 11:0.904224 12:0.721271 13:0.994151 14:0.983914 15:0.787351 16:0.778375 17:0.998293 18:0.920492 19:0.913319 20:-0.509612 21:0.99539 22:0.915469 23:0.812515 24:0.564502 25:0.993746 26:0.97474 27:0.751017 28:0.63358 29:0.991349 30:0.99176 31:0.685831 32:0.687174 33:0.987918 34:0.995527 35:0.619569 36:0.881779 37:0.95318 38:0.992717 39:0.65331 40:0.891126 41:0.930328 42:0.995203 43:0.622821 44:0.953415 45:0.955511 46:0.994682 47:0.75316 48:0.956535 49:0.954364 50:0.979789 51:0.80059 52:0.83828 53:0.952327 54:0.978829 55:0.531205 56:0.853977 57:0.80741 58:0.985218 59:-0.689841 60:0.924842 61:0.5 62:0.984685 63:-0.948099 64:0.930148 65:0.590096 66:0.982224 67:-0.844213 68:0.927117 69:-0.645513 70:0.984644 71:-0.86913 72:0.940003 73:-0.542684 74:0.987579 75:-0.789414 76:0.941521 77:-0.817533 78:0.987579 79:-0.96518 80:0.941521 81:-0.816803 82:0.987579 83:-0.969983 84:0.941521 85:-0.914859 86:0.979617 87:-0.982839 88:0.907416 89:-0.923788 90:0.986538 91:-0.98461 92:0.943857 93:-0.97421 94:0.99129 95:-0.996069 96:0.931901 97:-0.923788 98:0.987217 99:-0.98461 100:0.938852 101:-0.844303 102:0.986151 103:-0.969182 104:0.927478 105:-0.842023 106:0.986151 107:-0.9643 108:0.927478 109:-0.93716 110:0.984355 111:-0.994616 112:0.916114 113:-0.864967 114:0.974805 115:-0.982723 116:0.909439 117:-0.887008 118:0.977658 119:-0.986559 120:0.909908 121:-0.857533 122:0.977658 123:-0.985302 124:0.909908 125:-0.783103 126:0.979541 127:-0.972582 128:0.906805 129:-0.631789 130:0.973672 131:-0.974328 132:0.922089 133:-0.525948 134:0.973672 135:-0.947715 136:0.922089 137:-0.641046 138:0.979541 139:-0.962687 140:0.906805 141:-0.750569 142:0.975456 143:-0.976201 144:0.882265 145:-0.588897 146:0.975456 147:-0.918534 148:0.882265 149:0.542105 150:0.989779 151:-0.898088 152:0.934968 153:0.627204 154:0.988509 155:-0.796611 156:0.901155 157:0.830148 158:0.971553 159:-0.628766 160:0.899398 161:0.881547 162:0.936376 163:-0.587546 164:0.886809 165:0.881547 166:0.89168 167:-0.587546 168:0.790204 169:0.965014 170:0.919967 171:0.793193 172:0.797251 173:0.939574 174:0.865805 175:0.789801 176:0.729309 177:0.928149 178:0.854425 179:0.667949 180:0.729287 181:0.953729 182:0.932708 183:0.657736 184:0.905337 185:0.94515 186:0.924411 187:0.743201 188:0.878771 189:0.850322 190:0.859414 191:0.539337 192:0.808296 193:0.566588 194:0.731817 195:-0.764318 196:0.66732 197:-0.50991 198:0.792656 199:-0.798044 200:0.655766 201:-0.519272 202:0.803516 203:-0.687329 204:0.694726 205:-0.837694 206:0.816671 207:-0.840304 208:0.771653 209:-0.864672 210:0.788672 211:-0.916203 212:0.797104 213:-0.961431 214:0.702223 215:-0.952971 216:0.800093 217:-0.961431 218:0.780203 219:-0.952971 220:0.786489 221:-0.954095 222:0.654191 223:-0.956881 224:0.649704 225:-0.989217 226:0.548563 227:-0.988636 228:0.655338 229:-0.99018 230:0.5 231:-0.990098 232:0.61645 233:-0.993914 234:0.549692 235:-0.995144 236:0.685677 237:-0.981504 238:-0.607004 239:-0.98684 240:0.655951 
0.3206021001085884 0.4065102658805239 1:0.557178 2:0.676642 3:-0.662926 4:0.5 5:-0.691808 6:0.835107 7:-0.894797 8:0.5 9:-0.714559 10:0.832822 11:-0.93896 12:0.555431 13:0.592932 14:0.791404 15:-0.707509 16:-0.621269 17:-0.71056 18:0.778318 19:-0.903798 20:-0.64189 21:-0.815669 22:0.742684 23:-0.921198 24:-0.646508 25:-0.579002 26:0.683923 27:-0.731491 28:-0.558818 29:-0.643023 30:0.64167 31:-0.778545 32:-0.590427 33:0.52721 34:-0.527604 35:-0.656386 36:-0.685649 37:0.618636 38:0.627594 39:-0.526348 40:-0.676719 41:0.652502 42:0.836505 43:0.512261 44:-0.577157 45:0.559091 46:0.793268 47:-0.596537 48:-0.632483 49:-0.607048 50:0.77282 51:-0.799435 52:-0.646879 53:-0.706078 54:0.838096 55:-0.859795 56:0.585395 57:0.599472 58:0.738018 59:-0.637644 60:0.512764 61:-0.51524 62:0.61104 63:-0.766109 64:-0.555037 65:-0.546079 66:0.7255 67:-0.781882 68:-0.51093 69:-0.647723 70:0.825461 71:-0.846438 72:0.5 73:-0.647932 74:0.904235 75:-0.903016 76:0.523823 77:-0.7269 78:0.888063 79:-0.933766 80:-0.520226 81:-0.848059 82:0.832197 83:-0.974072 84:0.505788 85:-0.718575 86:0.865985 87:-0.942192 88:0.682307 89:-0.645401 90:0.840978 91:-0.924835 92:0.689029 93:0.553977 94:0.932347 95:-0.842007 96:0.772838 97:0.666179 98:0.939405 99:-0.749394 100:0.766592 101:0.698568 102:0.939405 103:-0.727606 104:0.766592 105:-0.615689 106:0.942058 107:-0.944054 108:0.857043 109:0.630418 110:0.967954 111:-0.785223 112:0.919676 113:0.833637 114:0.967954 115:-0.70861 116:0.919676 117:0.820051 118:0.973784 119:-0.735947 120:0.853005 121:0.820051 122:0.933202 123:-0.735947 124:0.728821 125:0.684186 126:0.821749 127:-0.932338 128:0.679591 129:0.577507 130:0.871004 131:-0.942238 132:0.609455 133:-0.552433 134:0.909114 135:-0.973321 136:0.664256 137:0.582921 138:0.832034 139:-0.953543 140:0.75896 141:-0.569888 142:0.834297 143:-0.943575 144:0.765784 145:-0.569888 146:0.869618 147:-0.943575 148:0.833411 149:-0.560563 150:0.88333 151:-0.944678 152:0.845309 153:-0.575384 154:0.91539 155:-0.921025 156:0.881246 157:-0.628412 158:0.933772 159:-0.946276 160:0.933719 161:-0.828429 162:0.963005 163:-0.98115 164:0.943492 165:-0.696191 166:0.983666 167:-0.921726 168:0.954581 169:-0.610023 170:0.969023 171:-0.890792 172:0.947067 173:0.706814 174:0.938175 175:-0.685412 176:0.920983 177:-0.590495 178:0.938116 179:-0.922964 180:0.95994 181:-0.590495 182:0.950094 183:-0.922964 184:0.964314 185:-0.590495 186:0.935614 187:-0.922964 188:0.919373 189:-0.590495 190:0.935614 191:-0.922964 192:0.919373 193:0.506746 194:0.962675 195:-0.853205 196:0.937157 197:-0.505268 198:0.859568 199:-0.808726 200:0.778283 201:-0.505268 202:0.799289 203:-0.808726 204:0.761463 205:-0.767902 206:0.505686 207:-0.901034 208:0.570728 209:-0.932455 210:0.518983 211:-0.972529 212:0.630958 213:-0.932455 214:0.615796 215:-0.972529 216:0.63915 217:-0.94148 218:0.521238 219:-0.946093 220:0.609564 221:-0.975304 222:-0.677195 223:-0.979412 224:0.522679 225:-0.986032 226:-0.935396 227:-0.97882 228:-0.752598 229:-0.993196 230:-0.978777 231:-0.993166 232:-0.926476 233:-0.963547 234:-0.971414 235:-0.972043 236:-0.930348 237:-0.961043 238:-0.966065 239:-0.976493 240:-0.966853 
0 0.4509687365549127 1:-0.636331 2:0.984347 3:-0.995407 4:0.994768 5:-0.77758 6:0.985206 7:-0.997317 8:0.993981 9:-0.860364 10:0.990868 11:-0.999999 12:0.992012 13:-0.913138 14:0.988174 15:-1 16:0.993297 17:-0.81154 18:0.982219 19:-0.999991 20:0.997022 21:-0.879861 22:0.978682 23:-0.999995 24:0.995621 25:-0.844912 26:0.956056 27:-0.999988 28:0.992749 29:-0.781108 30:0.968005 31:-0.994858 32:0.992392 33:-0.82933 34:0.95633 35:-0.995585 36:0.990974 37:-0.894668 38:0.976734 39:-0.997211 40:0.992054 41:-0.871837 42:0.972766 43:-0.999982 44:0.989499 45:-0.928968 46:0.974221 47:-0.999993 48:0.993896 49:-0.967263 50:0.973388 51:-0.999995 52:0.996016 53:-0.984567 54:0.968768 55:-1 56:0.995333 57:-0.9619 58:0.981887 59:-0.999994 60:0.995801 61:-0.933309 62:0.976302 63:-0.996336 64:0.994812 65:-0.95372 66:0.973867 67:-0.999992 68:0.993684 69:-0.95372 70:0.974221 71:-0.999992 72:0.990854 73:-0.966741 74:0.950146 75:-0.999999 76:0.987787 77:-0.951686 78:0.974221 79:-0.999997 80:0.990854 81:-0.944274 82:0.9784 83:-0.999996 84:0.98522 85:-0.915359 86:0.976358 87:-0.997231 88:0.98605 89:-0.844932 90:0.969516 91:-0.994921 92:0.97134 93:-0.903483 94:0.954149 95:-0.999985 96:0.970538 97:-0.788757 98:0.94719 99:-0.991855 100:0.969843 101:-0.626827 102:0.957102 103:-0.952378 104:0.967765 105:-0.679184 106:0.939538 107:-0.953663 108:0.940347 109:-0.855702 110:0.844932 111:-0.988427 112:0.82855 113:-0.871407 114:0.774392 115:-0.988286 116:0.812846 117:-0.90532 118:0.821089 119:-0.993693 120:0.883238 121:-0.962387 122:0.745045 123:-0.996463 124:0.87519 125:-0.956606 126:0.718871 127:-0.996239 128:0.806043 129:-0.967655 130:0.611176 131:-0.992015 132:0.743229 133:-0.959249 134:0.554319 135:-0.991287 136:0.614518 137:-0.934806 138:0.54611 139:-0.993365 140:0.657365 141:-0.96577 142:-0.692563 143:-0.999993 144:-0.50545 145:-0.943229 146:-0.639775 147:-0.996568 148:0.528297 149:-0.967744 150:-0.585014 151:-0.99999 152:-0.585692 153:-0.942887 154:-0.560907 155:-0.994773 156:-0.572623 157:-0.910341 158:0.691166 159:-0.988873 160:0.590421 161:-0.938401 162:-0.523371 163:-0.985948 164:-0.536946 165:-0.938401 166:0.517364 167:-0.985948 168:-0.574405 169:-0.969122 170:-0.552276 171:-0.996211 172:0.518502 173:-0.953893 174:0.580045 175:-0.991924 176:0.604774 177:-0.886839 178:0.641477 179:-0.964003 180:0.514524 181:-0.969013 182:0.641477 183:-0.991566 184:0.514524 185:-0.960566 186:0.660714 187:-0.983188 188:0.520373 189:-0.99123 190:0.582238 191:-0.99999 192:-0.512754 193:-0.988983 194:0.61246 195:-0.999991 196:-0.548955 197:-0.973707 198:0.65243 199:-0.995284 200:-0.539169 201:-0.985022 202:0.748866 203:-0.999986 204:0.588503 205:-0.982318 206:0.705307 207:-0.996868 208:0.690256 209:-0.983687 210:-0.665731 211:-0.99572 212:-0.68881 213:-0.965247 214:-0.895935 215:-0.991902 216:-0.906958 217:-0.935728 218:-0.869153 219:-0.985088 220:-0.906268 221:-0.833905 222:-0.876165 223:-0.965205 224:-0.929641 225:-0.906281 226:-0.851112 227:-0.974331 228:-0.930319 229:-0.902797 230:-0.825134 231:-0.943374 232:-0.929165 233:-0.905206 234:-0.856326 235:-0.913673 236:-0.880698 237:-0.93898 238:-0.829178 239:-0.947351 240:-0.88736 
0 0.4487859958489975 1:-0.80834 2:0.796457 3:-0.830008 4:0.855636 5:-0.910712 6:0.896807 7:-0.968475 8:0.88801 9:-0.924929 10:0.940293 11:-0.958993 12:0.884884 13:-0.944861 14:0.91519 15:-0.965336 16:0.883764 17:-0.968101 18:0.892884 19:-0.978683 20:0.941587 21:-0.923481 22:0.906151 23:-0.966783 24:0.932928 25:-0.884 26:0.893717 27:-0.931092 28:0.934592 29:-0.712436 30:0.857541 31:-0.812497 32:0.958957 33:-0.832405 34:0.870489 35:-0.883714 36:0.966897 37:-0.901632 38:0.915113 39:-0.952349 40:0.96508 41:-0.845035 42:0.940803 43:-0.934052 44:0.958509 45:-0.856429 46:0.961238 47:-0.94368 48:0.958311 49:-0.964782 50:0.960406 51:-0.98766 52:0.954417 53:-0.920746 54:0.960788 55:-0.990655 56:0.94721 57:-0.810735 58:0.948235 59:-0.978442 60:0.944934 61:-0.678195 62:0.909803 63:-0.961958 64:0.925395 65:-0.656525 66:0.926913 67:-0.957892 68:0.925436 69:-0.572006 70:0.924838 71:-0.88401 72:0.928261 73:0.682274 74:0.962634 75:-0.625621 76:0.977498 77:-0.546798 78:0.955853 79:-0.836597 80:0.976752 81:-0.664515 82:0.94691 83:-0.869469 84:0.977279 85:-0.686647 86:0.864423 87:-0.859192 88:0.952732 89:-0.874249 90:0.853792 91:-0.962327 92:0.916088 93:-0.917214 94:0.808347 95:-0.980883 96:0.851869 97:-0.727848 98:0.765129 99:-0.910742 100:0.83864 101:-0.67924 102:0.744445 103:-0.913144 104:0.875811 105:-0.829811 106:0.631132 107:-0.896963 108:0.880363 109:-0.648148 110:0.542 111:-0.753417 112:0.872214 113:-0.758497 114:0.5 115:-0.841544 116:0.84517 117:-0.807635 118:0.5 119:-0.880703 120:0.84517 121:-0.936198 122:0.510908 123:-0.98043 124:0.851636 125:-0.915857 126:0.554202 127:-0.979179 128:0.846753 129:-0.867246 130:0.617112 131:-0.9368 132:0.87932 133:-0.89838 134:0.632221 135:-0.96175 136:0.886861 137:-0.897986 138:0.537897 139:-0.977823 140:0.899897 141:-0.86772 142:-0.545742 143:-0.940238 144:0.885586 145:-0.824843 146:0.517878 147:-0.893819 148:0.891892 149:-0.919826 150:0.5 151:-0.965422 152:0.837325 153:-0.966482 154:0.570819 155:-0.985954 156:0.832741 157:-0.9793 158:0.535652 159:-0.994713 160:0.830809 161:-0.967337 162:-0.511339 163:-0.991132 164:0.739761 165:-0.967337 166:0.5 167:-0.991132 168:0.684393 169:-0.967337 170:-0.606181 171:-0.991132 172:0.73557 173:-0.899042 174:-0.850883 175:-0.975382 176:-0.513598 177:-0.945098 178:-0.885894 179:-0.990042 180:-0.552361 181:-0.956759 182:-0.904009 183:-0.992756 184:-0.555094 185:-0.921904 186:-0.920987 187:-0.977687 188:-0.591474 189:-0.97742 190:-0.890607 191:-0.994848 192:-0.550784 193:-0.99543 194:-0.890607 195:-0.999985 196:-0.550784 197:-0.992316 198:-0.965371 199:-0.999982 200:-0.710376 201:-0.994681 202:-0.964261 203:-0.999995 204:-0.598788 205:-0.993662 206:-0.98495 207:-0.999995 208:-0.829046 209:-0.993662 210:-0.983738 211:-0.999995 212:-0.760007 213:-0.995452 214:-0.978547 215:-0.99999 216:-0.753365 217:-0.997244 218:-0.941406 219:-0.999993 220:-0.574511 221:-0.999995 222:-0.953308 223:-0.999999 224:0.5 225:-0.999998 226:-0.945065 227:-0.999999 228:0.507043 229:-0.999998 230:-0.945065 231:-1 232:0.507043 233:-0.999998 234:-0.93173 235:-1 236:-0.560923 237:-0.999998 238:-0.944617 239:-1 240:-0.589007 
0 0.2410061176231139 1:0.955753 2:0.999839 3:-0.936723 4:0.995368 5:0.882014 6:0.999867 7:-0.990914 8:0.995057 9:0.876591 10:0.999812 11:-0.987667 12:0.997577 13:0.860634 14:0.999639 15:-0.991868 16:0.997799 17:0.936027 18:0.999159 19:-0.977087 20:0.998525 21:0.96951 22:0.99854 23:-0.94702 24:0.997463 25:0.976913 26:0.998172 27:-0.862845 28:0.997152 29:0.945244 30:0.99886 31:-0.965087 32:0.996126 33:0.879958 34:0.998392 35:-0.968705 36:0.994872 37:0.744597 38:0.992262 39:-0.981975 40:0.971079 41:0.685526 42:0.994953 43:-0.97678 44:0.96232 45:0.678564 46:0.993245 47:-0.966857 48:0.953671 49:0.574803 50:0.992307 51:-0.964322 52:0.949021 53:-0.655257 54:0.969996 55:-0.985431 56:0.816831 57:-0.919864 58:0.966194 59:-0.994547 60:0.802756 61:-0.875791 62:0.966062 63:-0.990623 64:0.838233 65:-0.82337 66:0.968433 67:-0.976504 68:0.842732 69:-0.909007 70:0.982745 71:-0.983313 72:0.845903 73:-0.97564 74:0.930771 75:-0.993174 76:0.729363 77:-0.990006 78:0.89233 79:-0.995586 80:0.712077 81:-0.983564 82:0.878602 83:-0.98989 84:0.713142 85:-0.961157 86:0.833561 87:-0.964687 88:-0.543974 89:-0.905911 90:0.829777 91:-0.891225 92:0.519992 93:-0.984358 94:0.79109 95:-0.968586 96:0.509391 97:-0.977307 98:0.544507 99:-0.941847 100:-0.688937 101:-0.984904 102:-0.566095 103:-0.956623 104:-0.871563 105:-0.973122 106:-0.668638 107:-0.923066 108:-0.932352 109:-0.988872 110:-0.7454 111:-0.976462 112:-0.949221 113:-0.991657 114:-0.7454 115:-0.976195 116:-0.949221 117:-0.999986 118:-0.842357 119:-0.991528 120:-0.97847 121:-0.994415 122:-0.882231 123:-0.970453 124:-0.983284 125:-0.984646 126:-0.872117 127:-0.896036 128:-0.981219 129:-0.980819 130:-0.920288 131:-0.858336 132:-0.968803 133:-0.937323 134:-0.974152 135:-0.589944 136:-0.982643 137:-0.951467 138:-0.986429 139:-0.657882 140:-0.98813 141:-0.984017 142:-0.992584 143:-0.885393 144:-0.993886 145:-0.97987 146:-0.989903 147:-0.845134 148:-0.993014 149:-0.968982 150:-0.988785 151:-0.884154 152:-0.995868 153:-0.988914 154:-0.983237 155:-0.968851 156:-0.99477 157:-0.988932 158:-0.991489 159:-0.959548 160:-0.996804 161:-0.991001 162:-0.997098 163:-0.973319 164:-0.99999 165:-0.975389 166:-0.995115 167:-0.961822 168:-0.999989 169:-0.975389 170:-0.991477 171:-0.961822 172:-0.994666 173:-0.963848 174:-0.994386 175:-0.933537 176:-0.995761 177:-0.988011 178:-0.994277 179:-0.98282 180:-0.996196 181:-0.999981 182:-0.999989 183:-0.999986 184:-0.99999 185:-0.985503 186:-0.999987 187:-0.988039 188:-0.996904 189:-0.990699 190:-0.999989 191:-0.991923 192:-0.994723 193:-0.987722 194:-0.996827 195:-0.984433 196:-0.994434 197:-0.98891 198:-0.996827 199:-0.985494 200:-0.994434 201:-0.994951 202:-0.999999 203:-0.988389 204:-0.999985 205:-0.999994 206:-0.999988 207:-0.995839 208:-0.994704 209:-0.999993 210:-0.999988 211:-0.997103 212:-0.992954 213:-0.997472 214:-0.999999 215:-0.994529 216:-0.997358 217:-0.999986 218:-0.999998 219:-0.994967 220:-0.992948 221:-0.999993 222:-0.999999 223:-0.994767 224:-0.994914 225:-0.999998 226:-1 227:-0.997142 228:-0.999995 229:-0.999999 230:-0.999999 231:-0.999993 232:-0.99725 233:-0.999999 234:-0.999998 235:-0.999994 236:-0.993923 237:-1 238:-0.999998 239:-0.999999 240:-0.99382 
0.03946771937666379 0.08491004258159671 1:0.918366 2:0.967831 3:0.738605 4:0.831253 5:0.75403 6:0.978544 7:-0.666467 8:0.945046 9:0.803458 10:0.964361 11:-0.646275 12:0.947311 13:0.934974 14:0.960341 15:0.666608 16:0.936976 17:0.898679 18:0.941991 19:0.555404 20:0.909563 21:0.933179 22:0.935755 23:0.641373 24:0.870562 25:0.810375 26:0.935871 27:-0.766597 28:0.880328 29:0.651097 30:0.939648 31:-0.836945 32:0.907099 33:0.512021 34:0.934684 35:-0.869796 36:0.872736 37:-0.581313 38:0.954067 39:-0.879397 40:0.839838 41:-0.524444 42:0.9671 43:-0.843159 44:0.849881 45:0.556717 46:0.953013 47:-0.83076 48:0.853225 49:-0.665948 50:0.963585 51:-0.918854 52:0.92458 53:-0.673773 54:0.962911 55:-0.905436 56:0.92684 57:0.676743 58:0.954205 59:-0.700239 60:0.950131 61:0.814837 62:0.949467 63:0.508111 64:0.937111 65:0.714362 66:0.9495 67:0.5 68:0.938519 69:-0.770279 70:0.9495 71:-0.918456 72:0.938519 73:-0.857522 74:0.952625 75:-0.965861 76:0.945282 77:-0.937112 78:0.947438 79:-0.988301 80:0.924452 81:-0.927704 82:0.965385 83:-0.985574 84:0.930597 85:-0.787635 86:0.898914 87:-0.944202 88:0.823 89:-0.813631 90:0.850471 91:-0.968496 92:0.857529 93:-0.72946 94:0.745948 95:-0.966191 96:0.816804 97:-0.660906 98:0.5 99:-0.932904 100:0.689389 101:-0.685685 102:-0.509101 103:-0.895103 104:0.666736 105:-0.933062 106:-0.617469 107:-0.963163 108:-0.615328 109:-0.936648 110:-0.659457 111:-0.968978 112:-0.505105 113:-0.960213 114:-0.617139 115:-0.979236 116:-0.518391 117:-0.970474 118:-0.81783 119:-0.958005 120:-0.869992 121:-0.962373 122:-0.752899 123:-0.948328 124:-0.8569 125:-0.91722 126:-0.752899 127:-0.861447 128:-0.8569 129:-0.9223 130:-0.894006 131:-0.923007 132:-0.934917 133:-0.947863 134:-0.910461 135:-0.950813 136:-0.890809 137:-0.987424 138:-0.956989 139:-0.979395 140:-0.952567 141:-0.97292 142:-0.957281 143:-0.934459 144:-0.971337 145:-0.955368 146:-0.986201 147:-0.872719 148:-0.992055 149:-0.98922 150:-0.986469 151:-0.961828 152:-0.994502 153:-0.995872 154:-0.986469 155:-0.990726 156:-0.994502 157:-0.996685 158:-0.984731 159:-0.992656 160:-0.989515 161:-0.991222 162:-0.990216 163:-0.970066 164:-0.988287 165:-0.99999 166:-0.990467 167:-0.990704 168:-0.98025 169:-0.993268 170:-0.990467 171:-0.957473 172:-0.98025 173:-0.993268 174:-0.995938 175:-0.957473 176:-0.986785 177:-0.997453 178:-0.995177 179:-0.986943 180:-0.978373 181:-0.999999 182:-0.995249 183:-0.999981 184:-0.98523 185:-1 186:-0.993554 187:-0.999994 188:-0.983062 189:-0.999998 190:-0.990657 191:-0.995568 192:-0.98704 193:-1 194:-0.986281 195:-0.999997 196:-0.986325 197:-1 198:-0.984872 199:-0.999998 200:-0.979458 201:-1 202:-0.994593 203:-0.999998 204:-0.990884 205:-0.999998 206:-0.996852 207:-0.999989 208:-0.99017 209:-0.999987 210:-0.997301 211:-0.997149 212:-0.993254 213:-0.992919 214:-0.999991 215:-0.992735 216:-0.9954 217:-0.995652 218:-0.994685 219:-0.996553 220:-0.989999 221:-0.996392 222:-0.994406 223:-0.99301 224:-0.989021 225:-0.997016 226:-0.994406 227:-0.996268 228:-0.989021 229:-0.986084 230:-0.97392 231:-0.987465 232:-0.976429 233:-0.992475 234:-0.99185 235:-0.992081 236:-0.993593 237:-0.999985 238:-0.996768 239:-0.997282 240:-0.997236 
0.2200485196186147 0 1:0.989269 2:0.997179 3:-0.709389 4:0.982582 5:0.986676 6:0.994478 7:-0.70705 8:0.917545 9:0.981896 10:0.996197 11:-0.711229 12:0.903665 13:0.962299 14:0.994718 15:-0.831952 16:0.867987 17:0.901649 18:0.99636 19:-0.8671 20:0.94746 21:0.964353 22:0.995438 23:-0.680775 24:0.937068 25:0.981512 26:0.996795 27:0.596837 28:0.924392 29:0.987768 30:0.994593 31:0.757693 32:0.924829 33:0.99126 34:0.993822 35:0.796962 36:0.920223 37:0.97642 38:0.994846 39:-0.542362 40:0.91072 41:0.957846 42:0.993239 43:-0.576204 44:0.911795 45:0.966635 46:0.984648 47:0.606173 48:0.877405 49:0.86329 50:0.981994 51:-0.605936 52:0.848825 53:0.822269 54:0.972951 55:-0.613554 56:0.8043 57:0.799314 58:0.969252 59:-0.535185 60:0.768666 61:0.6595 62:0.978333 63:-0.665838 64:0.762625 65:-0.753635 66:0.974673 67:-0.911809 68:0.841898 69:-0.753635 70:0.975329 71:-0.911809 72:0.862704 73:-0.923427 74:0.969626 75:-0.972747 76:0.909185 77:-0.84376 78:0.967099 79:-0.889041 80:0.904523 81:-0.622721 82:0.962796 83:-0.720461 84:0.888912 85:-0.868977 86:0.95698 87:-0.905183 88:0.892187 89:-0.906787 90:0.97176 91:-0.908581 92:0.919746 93:-0.902797 94:0.970232 95:-0.894833 96:0.92401 97:-0.954889 98:0.958693 99:-0.939173 100:0.853175 101:-0.973103 102:0.952663 103:-0.933613 104:0.84002 105:-0.962715 106:0.899809 107:-0.884194 108:0.806629 109:-0.889095 110:0.879734 111:-0.718222 112:0.793817 113:-0.932309 114:0.893609 115:-0.808227 116:0.713914 117:-0.973441 118:0.871975 119:-0.904479 120:0.825632 121:-0.97883 122:0.859455 123:-0.951063 124:0.837915 125:-0.985115 126:0.895839 127:-0.979699 128:0.867054 129:-0.975385 130:0.89242 131:-0.967194 132:0.851457 133:-0.93932 134:0.83542 135:-0.921922 136:0.834583 137:-0.978265 138:0.840545 139:-0.983679 140:0.863514 141:-0.975313 142:0.776475 143:-0.981321 144:0.843228 145:-0.974302 146:0.879191 147:-0.987533 148:0.889681 149:-0.983681 150:0.907208 151:-0.994536 152:0.853038 153:-0.983873 154:0.895823 155:-0.995941 156:0.912448 157:-0.973322 158:0.871216 159:-0.994811 160:0.89122 161:-0.97983 162:0.907227 163:-0.999988 164:0.904205 165:-0.943325 166:0.898514 167:-0.995451 168:0.891823 169:-0.892156 170:0.876379 171:-0.991075 172:0.876717 173:-0.951529 174:0.917435 175:-0.999997 176:0.882098 177:-0.948249 178:0.940906 179:-0.996756 180:0.914805 181:-0.937677 182:0.936652 183:-0.994078 184:0.923045 185:-0.885613 186:0.939406 187:-0.973447 188:0.934162 189:-0.816553 190:0.925744 191:-0.939402 192:0.903916 193:-0.706766 194:0.900237 195:-0.889446 196:0.888212 197:-0.826678 198:0.891244 199:-0.959893 200:0.821481 201:-0.91753 202:0.926034 203:-0.981959 204:0.833519 205:-0.962253 206:0.926034 207:-0.994143 208:0.833519 209:-0.929886 210:0.948918 211:-0.988099 212:0.852724 213:-0.888738 214:0.951892 215:-0.973857 216:0.886845 217:-0.91037 218:0.829431 219:-0.980162 220:0.650425 221:-0.833647 222:0.736228 223:-0.946637 224:0.5 225:-0.929554 226:0.630675 227:-0.98763 228:-0.531348 229:-0.764091 230:-0.576066 231:-0.906898 232:-0.693004 233:-0.742243 234:-0.609676 235:-0.907536 236:-0.690846 237:-0.897106 238:-0.660291 239:-0.929213 240:-0.823982 
1 0.4165539457059346 1:0.873787 2:0.781317 3:-0.68149 4:0.853155 5:0.842449 6:0.694614 7:-0.711204 8:0.822478 9:0.576386 10:0.711214 11:-0.883911 12:0.872916 13:0.526331 14:0.715597 15:-0.883164 16:0.885942 17:0.731912 18:0.797436 19:-0.837594 20:0.851639 21:0.929668 22:0.856426 23:-0.589586 24:0.788241 25:0.839921 26:0.912723 27:-0.751479 28:0.776267 29:0.738656 30:0.956723 31:-0.773613 32:0.916322 33:0.713423 34:0.950903 35:-0.78294 36:0.922058 37:0.899248 38:0.983914 39:-0.566305 40:0.9393 41:0.965582 42:0.942863 43:0.654881 44:0.850542 45:0.979821 46:0.935967 47:0.77987 48:0.819518 49:0.921778 50:0.947799 51:-0.591935 52:0.764631 53:0.876705 54:0.940032 55:-0.625783 56:0.780264 57:0.815077 58:0.9394 59:-0.672723 60:0.795192 61:0.801855 62:0.92167 63:0.521025 64:0.757223 65:0.801855 66:0.807738 67:0.521025 68:0.584037 69:0.91733 70:0.806328 71:0.729061 72:0.562627 73:0.884262 74:0.805212 75:0.612146 76:0.578408 77:0.829276 78:0.760793 79:0.508596 80:0.67114 81:0.762757 82:0.845085 83:-0.518267 84:0.717266 85:0.644989 86:0.752744 87:0.566441 88:0.657012 89:0.775984 90:0.709716 91:0.701688 92:0.5 93:0.64442 94:0.782766 95:0.613833 96:-0.513457 97:0.560634 98:0.788906 99:0.524869 100:0.554712 101:0.60434 102:0.564561 103:-0.53543 104:-0.644527 105:-0.675227 106:0.52488 107:-0.729579 108:-0.64765 109:-0.621081 110:0.532106 111:-0.704077 112:-0.680433 113:-0.731149 114:-0.531112 115:-0.787963 116:-0.78889 117:-0.711133 118:-0.553664 119:-0.785978 120:-0.773697 121:-0.783203 122:-0.559335 123:-0.760876 124:-0.859173 125:-0.900433 126:-0.560178 127:-0.874751 128:-0.823144 129:-0.961965 130:-0.553851 131:-0.959382 132:-0.824273 133:-0.970365 134:-0.657423 135:-0.973262 136:-0.732975 137:-0.983757 138:-0.645883 139:-0.990167 140:-0.7586 141:-0.982027 142:-0.61841 143:-0.985147 144:-0.727057 145:-0.975876 146:-0.632141 147:-0.982423 148:-0.703472 149:-0.98248 150:-0.67192 151:-0.980248 152:-0.629586 153:-0.983962 154:-0.801536 155:-0.988376 156:-0.749359 157:-0.990828 158:-0.834091 159:-0.994023 160:-0.744071 161:-0.996314 162:-0.854507 163:-0.999994 164:-0.820796 165:-0.996314 166:-0.838776 167:-0.999994 168:-0.81598 169:-0.999983 170:-0.937089 171:-0.999999 172:-0.878543 173:-0.999983 174:-0.871576 175:-0.999999 176:-0.851714 177:-0.996399 178:-0.887312 179:-0.999999 180:-0.847298 181:-0.996399 182:-0.92981 183:-0.999999 184:-0.897571 185:-0.996585 186:-0.971525 187:-0.999999 188:-0.967077 189:-0.990427 190:-0.974503 191:-0.999983 192:-0.967312 193:-0.980894 194:-0.972825 195:-0.991456 196:-0.971067 197:-0.971217 198:-0.941266 199:-0.987742 200:-0.95227 201:-0.985581 202:-0.947984 203:-0.995546 204:-0.952842 205:-0.996583 206:-0.977224 207:-0.999991 208:-0.973745 209:-0.999981 210:-0.968362 211:-0.999994 212:-0.965351 213:-0.990772 214:-0.979543 215:-0.996228 216:-0.980833 217:-0.991397 218:-0.943298 219:-0.996484 220:-0.960202 221:-0.990041 222:-0.945361 223:-0.996827 224:-0.952184 225:-0.997249 226:-0.963567 227:-0.999995 228:-0.963638 229:-0.992695 230:-0.970851 231:-0.99553 232:-0.951274 233:-0.978771 234:-0.922193 235:-0.987543 236:-0.895301 237:-0.953801 238:-0.899193 239:-0.959663 240:-0.890987 
0.9558058983290083 0 1:0.912345 2:0.988363 3:-0.921255 4:0.80923 5:0.967254 6:0.985481 7:-0.8295 8:0.853069 9:0.935657 10:0.991098 11:-0.844676 12:0.712973 13:0.983648 14:0.988827 15:-0.589422 16:0.777316 17:0.963003 18:0.98473 19:-0.646643 20:0.824179 21:0.989138 22:0.979908 23:0.634057 24:0.752786 25:0.984679 26:0.977534 27:0.569743 28:0.783785 29:0.994875 30:0.969974 31:0.774601 32:0.586676 33:0.992613 34:0.984315 35:0.720645 36:0.831377 37:0.984064 38:0.981055 39:0.669962 40:0.859466 41:0.992646 42:0.976403 43:0.745373 44:0.876808 45:0.99106 46:0.985292 47:0.770969 48:0.945915 49:0.992797 50:0.98962 51:0.864139 52:0.945652 53:0.982193 54:0.992335 55:0.608022 56:0.974644 57:0.977486 58:0.990359 59:0.655811 60:0.972613 61:0.98449 62:0.98697 63:0.866827 64:0.941271 65:0.896579 66:0.983034 67:-0.639283 68:0.945045 69:0.843607 70:0.98434 71:-0.695719 72:0.953368 73:0.73522 74:0.989206 75:-0.858781 76:0.944435 77:0.865769 78:0.992772 79:-0.834519 80:0.971854 81:0.930282 82:0.983923 83:-0.64164 84:0.934335 85:0.76214 86:0.973454 87:-0.854777 88:0.942691 89:0.76214 90:0.971391 91:-0.854777 92:0.938344 93:0.810212 94:0.971433 95:-0.77173 96:0.944038 97:0.570627 98:0.969967 99:-0.941905 100:0.911339 101:-0.518161 102:0.9658 103:-0.956384 104:0.913672 105:-0.772827 106:0.979035 107:-0.987269 108:0.936968 109:-0.608674 110:0.985805 111:-0.962398 112:0.935137 113:-0.824571 114:0.983678 115:-0.989438 116:0.924796 117:-0.881776 118:0.988701 119:-0.995071 120:0.936353 121:-0.953422 122:0.98404 123:-0.999995 124:0.922804 125:-0.932167 126:0.974972 127:-0.999996 128:0.922288 129:-0.868678 130:0.961398 131:-0.996779 132:0.902964 133:-0.924963 134:0.943428 135:-0.999991 136:0.875339 137:-0.834647 138:0.944464 139:-0.995536 140:0.884573 141:-0.959243 142:0.908508 143:-0.999998 144:0.853151 145:-0.947734 146:0.900129 147:-0.999984 148:0.833226 149:-0.960743 150:0.900129 151:-0.999991 152:0.833226 153:-0.93757 154:0.818651 155:-0.995486 156:0.802454 157:-0.801643 158:0.782929 159:-0.9723 160:0.734931 161:-0.864074 162:0.777928 163:-0.990426 164:0.776751 165:-0.812992 166:0.711374 167:-0.978489 168:0.767796 169:-0.841408 170:0.5 171:-0.980808 172:0.636494 173:-0.955999 174:-0.617064 175:-0.996038 176:0.586391 177:-0.941396 178:-0.69182 179:-0.995334 180:-0.61563 181:-0.963188 182:-0.7996 183:-0.999989 184:-0.706396 185:-0.989312 186:-0.907274 187:-0.999999 188:-0.876337 189:-0.992504 190:-0.89912 191:-0.999994 192:-0.728357 193:-0.992504 194:-0.906247 195:-0.999994 196:-0.675813 197:-0.992504 198:-0.855448 199:-0.999994 200:0.514174 201:-0.99743 202:-0.835318 203:-0.999999 204:0.550512 205:-0.99999 206:-0.895582 207:-1 208:-0.51807 209:-0.999996 210:-0.935808 211:-1 212:-0.68335 213:-0.999991 214:-0.871368 215:-0.999999 216:-0.626947 217:-0.999999 218:-0.880956 219:-1 220:-0.605391 221:-1 222:-0.928505 223:-1 224:-0.718139 225:-1 226:-0.928505 227:-1 228:-0.718139 229:-1 230:-0.931072 231:-1 232:-0.58046 233:-1 234:-0.920148 235:-1 236:-0.592655 237:-1 238:-0.987117 239:-1 240:-0.826171 
1 0.5217963242737218 1:0.998299 2:0.999 3:0.947756 4:0.973339 5:0.998766 6:0.999208 7:0.932118 8:0.975168 9:0.99093 10:0.998551 11:-0.523246 12:0.974088 13:0.989165 14:0.999064 15:0.556181 16:0.948647 17:0.986475 18:0.998697 19:-0.528474 20:0.958556 21:0.968762 22:0.998471 23:-0.645727 24:0.959046 25:0.970423 26:0.998937 27:0.523002 28:0.928302 29:0.947044 30:0.998676 31:-0.541999 32:0.938197 33:0.978744 34:0.997913 35:0.686041 36:0.939032 37:0.959364 38:0.99744 39:0.577503 40:0.946131 41:0.964344 42:0.996178 43:0.563753 44:0.942982 45:0.984068 46:0.997276 47:0.746058 48:0.920313 49:0.968354 50:0.997986 51:0.54576 52:0.879771 53:0.968787 54:0.997003 55:0.581731 56:0.876674 57:0.910356 58:0.996187 59:-0.716673 60:0.893481 61:0.731418 62:0.99713 63:-0.882305 64:0.848146 65:0.939518 66:0.996082 67:0.574417 68:0.879874 69:0.983645 70:0.996563 71:0.828523 72:0.899231 73:0.932761 74:0.996902 75:0.620268 76:0.901854 77:0.956573 78:0.996902 79:0.815127 80:0.901854 81:0.956573 82:0.994451 83:0.815127 84:0.923829 85:0.920629 86:0.994171 87:0.700563 88:0.79806 89:0.810599 90:0.996263 91:-0.537209 92:0.679365 93:0.654782 94:0.993202 95:-0.748489 96:0.80258 97:0.844042 98:0.987751 99:-0.518947 100:0.671015 101:0.87832 102:0.977974 103:0.736466 104:0.739636 105:0.962367 106:0.959415 107:0.886003 108:0.770851 109:0.988485 110:0.926575 111:0.965867 112:0.830802 113:0.987265 114:0.971306 115:0.967502 116:0.88031 117:0.973364 118:0.96623 119:0.929447 120:0.84641 121:0.973364 122:0.940554 123:0.929447 124:0.711418 125:0.914003 126:0.964389 127:0.7902 128:0.718909 129:0.893497 130:0.955656 131:0.773595 132:0.638499 133:0.939409 134:0.955656 135:0.837168 136:0.638499 137:0.839965 138:0.939618 139:0.55964 140:0.659903 141:0.809824 142:0.943351 143:0.578385 144:0.695027 145:0.862122 146:0.963818 147:0.704142 148:0.76911 149:0.825663 150:0.978585 151:0.635701 152:0.707502 153:0.821924 154:0.978251 155:0.639932 156:0.72716 157:0.647912 158:0.962184 159:-0.661311 160:0.778595 161:-0.612221 162:0.959884 163:-0.905944 164:0.781694 165:0.548713 166:0.962628 167:-0.827021 168:0.795348 169:0.785737 170:0.955977 171:0.507944 172:0.807271 173:0.548713 174:0.965935 175:-0.827021 176:0.885366 177:0.576401 178:0.881368 179:-0.81082 180:0.812036 181:0.576401 182:0.881368 183:-0.81082 184:0.812036 185:-0.520116 186:0.932157 187:-0.853112 188:0.76567 189:-0.783918 190:0.938113 191:-0.97024 192:0.730867 193:-0.85894 194:0.902279 195:-0.980362 196:0.853092 197:-0.971216 198:0.94349 199:-0.995028 200:0.814888 201:-0.971216 202:0.966047 203:-0.995028 204:0.909745 205:-0.929081 206:0.97671 207:-0.970828 208:0.954401 209:-0.823716 210:0.955344 211:-0.918368 212:0.976859 213:-0.88164 214:0.964342 215:-0.940578 216:0.977157 217:-0.71204 218:0.94185 219:-0.748464 220:0.977127 221:-0.737526 222:0.927379 223:-0.861659 224:0.975601 225:-0.890388 226:0.935226 227:-0.962732 228:0.977367 229:-0.900989 230:0.956969 231:-0.976995 232:0.977195 233:-0.900989 234:0.956457 235:-0.976995 236:0.958934 237:-0.930832 238:0.937999 239:-0.989366 240:0.943188 
0.2345075617961661 0 1:0.961902 2:0.992825 3:0.639081 4:0.969726 5:0.890761 6:0.996003 7:-0.848045 8:0.942521 9:0.973202 10:0.997555 11:-0.554679 12:0.887811 13:0.993109 14:0.997127 15:0.74249 16:0.905721 17:0.974003 18:0.995361 19:-0.729629 20:0.913343 21:0.947307 22:0.994321 23:-0.841967 24:0.93456 25:0.982279 26:0.993622 27:-0.638682 28:0.938045 29:0.993535 30:0.992807 31:0.604586 32:0.943579 33:0.992452 34:0.991236 35:0.548388 36:0.944113 37:0.985044 38:0.989585 39:-0.605978 40:0.950841 41:0.973864 42:0.996317 43:-0.624953 44:0.959874 45:0.969805 46:0.995403 47:-0.658684 48:0.963257 49:0.937784 50:0.996833 51:-0.777548 52:0.983959 53:0.939452 54:0.997617 55:-0.706734 56:0.977231 57:0.918449 58:0.996976 59:-0.737068 60:0.977189 61:0.87135 62:0.996616 63:-0.794627 64:0.977526 65:0.926323 66:0.997391 67:-0.708743 68:0.988093 69:0.859817 70:0.99753 71:-0.905187 72:0.990476 73:0.859817 74:0.998178 75:-0.905187 76:0.988085 77:0.742823 78:0.998531 79:-0.94153 80:0.993552 81:0.799537 82:0.993877 83:-0.918409 84:0.987417 85:0.749636 86:0.994678 87:-0.961378 88:0.975202 89:0.623287 90:0.993493 91:-0.986982 92:0.967182 93:0.737811 94:0.972588 95:-0.961306 96:0.937676 97:0.737811 98:0.975612 99:-0.961306 100:0.950013 101:-0.663577 102:0.968415 103:-0.979406 104:0.945068 105:-0.753069 106:0.920712 107:-0.987302 108:0.881775 109:-0.575714 110:0.885721 111:-0.944055 112:0.883065 113:-0.697722 114:0.871181 115:-0.915929 116:0.917933 117:-0.868142 118:0.851069 119:-0.962306 120:0.872333 121:-0.960049 122:0.806592 123:-0.98911 124:0.880709 125:-0.982319 126:0.708033 127:-0.992873 128:0.798718 129:-0.982319 130:0.603405 131:-0.992873 132:0.560637 133:-0.989709 134:-0.639742 135:-0.995633 136:-0.644793 137:-0.993354 138:-0.723127 139:-0.997104 140:-0.658096 141:-0.995952 142:-0.747922 143:-0.99999 144:-0.593168 145:-0.991873 146:-0.813368 147:-0.996184 148:-0.712309 149:-0.986108 150:-0.780899 151:-0.990509 152:-0.691501 153:-0.995663 154:-0.775444 155:-0.995323 156:-0.723314 157:-0.997058 158:-0.772725 159:-0.996275 160:-0.688057 161:-0.997058 162:-0.778217 163:-0.996275 164:-0.652216 165:-0.999985 166:-0.827006 167:-0.999983 168:-0.573622 169:-0.997326 170:-0.942928 171:-0.996966 172:-0.796476 173:-0.997326 174:-0.972311 175:-0.996966 176:-0.821655 177:-0.996984 178:-0.974038 179:-0.995797 180:-0.851384 181:-0.99707 182:-0.987973 183:-0.995706 184:-0.93193 185:-0.999999 186:-0.990444 187:-0.999997 188:-0.948393 189:-0.999999 190:-0.990444 191:-0.999998 192:-0.948393 193:-0.999998 194:-0.995893 195:-0.999994 196:-0.964972 197:-0.999999 198:-0.996141 199:-0.999999 200:-0.97672 201:-1 202:-0.99559 203:-1 204:-0.970809 205:-1 206:-0.997387 207:-1 208:-0.978714 209:-1 210:-0.999992 211:-1 212:-0.988692 213:-1 214:-0.993791 215:-1 216:-0.976698 217:-1 218:-0.994451 219:-1 220:-0.979377 221:-0.999999 222:-0.995992 223:-1 224:-0.987446 225:-0.999999 226:-0.986056 227:-0.999999 228:-0.97583 229:-0.999999 230:-0.985715 231:-1 232:-0.966527 233:-0.999993 234:-0.953789 235:-0.999999 236:-0.93889 237:-0.999997 238:-0.943286 239:-1 240:-0.92784 
0 0.02424166013577555 1:0.712421 2:0.567785 3:-0.916987 4:0.868062 5:0.813193 6:0.58507 7:-0.877854 8:0.835354 9:0.787386 10:0.877473 11:-0.886573 12:0.907976 13:0.858077 14:0.93158 15:-0.846588 16:0.958436 17:0.844816 18:0.913046 19:-0.856593 20:0.956247 21:0.808796 22:0.909292 23:-0.955475 24:0.961925 25:0.844617 26:0.937208 27:-0.942401 28:0.978191 29:0.928693 30:0.914437 31:-0.856441 32:0.970437 33:0.89575 34:0.942053 35:-0.952814 36:0.974866 37:0.855389 38:0.924455 39:-0.944503 40:0.966638 41:0.812002 42:0.939781 43:-0.957966 44:0.980089 45:0.762494 46:0.943312 47:-0.984468 48:0.978156 49:-0.539113 50:0.927939 51:-0.99398 52:0.971398 53:0.748779 54:0.949017 55:-0.98336 56:0.975121 57:0.748779 58:0.940974 59:-0.98336 60:0.973315 61:0.725375 62:0.958765 63:-0.992415 64:0.974414 65:0.656854 66:0.970556 67:-0.99005 68:0.973133 69:0.746012 70:0.981039 71:-0.987561 72:0.986873 73:0.715628 74:0.989666 75:-0.984644 76:0.985675 77:0.596801 78:0.993674 79:-0.983038 80:0.982582 81:0.576877 82:0.99247 83:-0.978849 84:0.98012 85:0.745053 86:0.99247 87:-0.950947 88:0.98012 89:0.566708 90:0.995 91:-0.989998 92:0.98223 93:0.714371 94:0.99526 95:-0.977865 96:0.985958 97:0.842268 98:0.996333 99:-0.964408 100:0.981233 101:0.781071 102:0.997194 103:-0.974463 104:0.985523 105:0.785636 106:0.99727 107:-0.982485 108:0.990449 109:0.634062 110:0.998439 111:-0.995032 112:0.992405 113:0.720518 114:0.997855 115:-0.988141 116:0.989802 117:0.8285 118:0.998 119:-0.982679 120:0.991303 121:0.748873 122:0.997136 123:-0.989976 124:0.987994 125:0.748873 126:0.997395 127:-0.989976 128:0.993496 129:0.843459 130:0.998668 131:-0.983165 132:0.994419 133:0.851962 134:0.998358 135:-0.972541 136:0.992299 137:0.887018 138:0.998017 139:-0.914888 140:0.994039 141:0.895871 142:0.993786 143:-0.85276 144:0.993046 145:0.669537 146:0.991215 147:-0.975925 148:0.989319 149:0.808855 150:0.989444 151:-0.946266 152:0.986325 153:0.806053 154:0.991748 155:-0.873525 156:0.984499 157:0.69743 158:0.99185 159:-0.922686 160:0.977371 161:0.557335 162:0.993213 163:-0.930953 164:0.979875 165:-0.754049 166:0.993213 167:-0.980187 168:0.979875 169:-0.773531 170:0.980506 171:-0.975486 172:0.924746 173:-0.863655 174:0.928879 175:-0.9858 176:0.626085 177:-0.927407 178:0.91798 179:-0.996202 180:0.726751 181:-0.899485 182:0.90957 183:-0.992747 184:0.698242 185:-0.899485 186:0.821673 187:-0.992747 188:0.718661 189:-0.983341 190:0.883594 191:-0.99999 192:0.736198 193:-0.995429 194:0.799201 195:-0.999994 196:0.72529 197:-0.999984 198:0.693701 199:-1 200:0.709372 201:-0.996011 202:0.652353 203:-0.999999 204:0.580159 205:-0.999986 206:0.534236 207:-1 208:0.567626 209:-0.999994 210:-0.587684 211:-1 212:0.5 213:-0.999993 214:-0.766769 215:-1 216:-0.677431 217:-0.997459 218:-0.712628 219:-1 220:-0.661782 221:-0.997363 222:-0.79451 223:-1 224:-0.851261 225:-0.996137 226:-0.922515 227:-1 228:-0.957716 229:-0.996583 230:-0.956162 231:-0.999999 232:-0.950714 233:-0.999988 234:-0.933205 235:-0.999999 236:-0.932026 237:-0.99593 238:-0.979118 239:-0.999986 240:-0.981501 
0.5690353879346129 0.08254624243342747 1:0.806205 2:0.998961 3:-0.876777 4:0.983396 5:0.821372 6:0.998384 7:-0.871928 8:0.974701 9:0.815804 10:0.998907 11:-0.869923 12:0.971346 13:0.708663 14:0.99911 15:-0.973097 16:0.988516 17:0.780627 18:0.999107 19:-0.92933 20:0.994135 21:0.8906 22:0.998785 23:-0.855238 24:0.992364 25:0.910887 26:0.997942 27:-0.804011 28:0.988719 29:0.96479 30:0.998601 31:-0.577945 32:0.987526 33:0.923562 34:0.998551 35:-0.861048 36:0.986988 37:0.854399 38:0.998466 39:-0.959267 40:0.986513 41:0.796703 42:0.998351 43:-0.956586 44:0.98609 45:0.91635 46:0.997818 47:-0.912837 48:0.985746 49:0.889753 50:0.997052 51:-0.902426 52:0.984508 53:0.889753 54:0.997402 55:-0.902426 56:0.990368 57:0.889753 58:0.996681 59:-0.902426 60:0.987294 61:0.930772 62:0.995985 63:-0.856608 64:0.985129 65:0.908876 66:0.99563 67:-0.925065 68:0.98381 69:0.908876 70:0.996816 71:-0.925065 72:0.987333 73:0.911718 74:0.996816 75:-0.97578 76:0.987333 77:0.911718 78:0.995997 79:-0.97578 80:0.986389 81:0.926697 82:0.99616 83:-0.914493 84:0.985374 85:0.826064 86:0.998373 87:-0.945241 88:0.988773 89:0.720258 90:0.999001 91:-0.969156 92:0.988368 93:0.80081 94:0.999314 95:-0.950142 96:0.988274 97:0.720258 98:0.999531 99:-0.969156 100:0.994173 101:0.720258 102:0.99935 103:-0.969156 104:0.991227 105:0.885729 106:0.998734 107:-0.841987 108:0.991833 109:0.929199 110:0.997601 111:-0.82016 112:0.993764 113:0.939855 114:0.997798 115:-0.803964 116:0.993125 117:0.878833 118:0.998134 119:-0.948853 120:0.992297 121:0.686156 122:0.993955 123:-0.984812 124:0.972077 125:0.635351 126:0.993666 127:-0.960813 128:0.956642 129:0.635351 130:0.991913 131:-0.960813 132:0.966452 133:0.667637 134:0.978297 135:-0.953607 136:0.950733 137:0.535028 138:0.977802 139:-0.949974 140:0.947887 141:-0.859123 142:0.986996 143:-0.982001 144:0.953755 145:-0.859123 146:0.984528 147:-0.982001 148:0.936472 149:-0.886563 150:0.984241 151:-0.988295 152:0.904059 153:-0.914262 154:0.994112 155:-0.98929 156:0.930636 157:-0.903296 158:0.994868 159:-0.983371 160:0.942116 161:-0.779224 162:0.995084 163:-0.959544 164:0.964851 165:-0.663384 166:0.993998 167:-0.866487 168:0.961911 169:-0.557442 170:0.993142 171:-0.798526 172:0.952911 173:0.666507 174:0.993142 175:-0.692147 176:0.952911 177:0.633716 178:0.99203 179:-0.791695 180:0.916487 181:0.511127 182:0.99203 183:-0.935072 184:0.916487 185:-0.592576 186:0.987838 187:-0.96164 188:0.869465 189:-0.543996 190:0.984637 191:-0.945866 192:0.876926 193:-0.543996 194:0.993757 195:-0.945866 196:0.907781 197:-0.600932 198:0.995497 199:-0.937093 200:0.94385 201:-0.804273 202:0.994369 203:-0.982707 204:0.939485 205:-0.919929 206:0.995375 207:-0.995778 208:0.938779 209:-0.932456 210:0.998151 211:-0.992124 212:0.951331 213:-0.832458 214:0.994446 215:-0.979869 216:0.905281 217:-0.806216 218:0.989147 219:-0.988867 220:0.885638 221:-0.832662 222:0.983816 223:-0.981954 224:0.877988 225:-0.720838 226:0.974686 227:-0.97085 228:0.853021 229:-0.625822 230:0.974686 231:-0.974337 232:0.853021 233:-0.604068 234:0.974686 235:-0.97308 236:0.853021 237:-0.604068 238:0.979257 239:-0.97308 240:0.848767 
0.5951155445769071 0 1:0.992749 2:0.999726 3:-0.727102 4:0.989134 5:0.997505 6:0.999488 7:0.540188 8:0.982144 9:0.999083 10:0.999406 11:0.763185 12:0.982573 13:0.997596 14:0.999077 15:0.598459 16:0.984959 17:0.994306 18:0.999224 19:0.608441 20:0.980764 21:0.984914 22:0.998784 23:-0.786556 24:0.98105 25:0.988589 26:0.99916 27:-0.693911 28:0.973391 29:0.987189 30:0.999236 31:-0.713192 32:0.96683 33:0.975782 34:0.998986 35:-0.811337 36:0.964194 37:0.979617 38:0.998213 39:-0.678944 40:0.965728 41:0.962073 42:0.997522 43:-0.78639 44:0.966373 45:0.983309 46:0.997322 47:-0.622592 48:0.965744 49:0.968475 50:0.99787 51:-0.625716 52:0.982691 53:0.947254 54:0.997741 55:-0.620836 56:0.982035 57:0.896941 58:0.996697 59:-0.62582 60:0.987112 61:0.689328 62:0.996574 63:-0.865912 64:0.986486 65:0.801589 66:0.996411 67:-0.802968 68:0.985909 69:0.649592 70:0.996191 71:-0.958904 72:0.973723 73:0.649592 74:0.995788 75:-0.958904 76:0.97165 77:0.586035 78:0.995282 79:-0.940491 80:0.970949 81:-0.616868 82:0.993614 83:-0.973748 84:0.969501 85:0.519008 86:0.996074 87:-0.919204 88:0.968004 89:0.5 90:0.994453 91:-0.913909 92:0.966877 93:-0.583516 94:0.994453 95:-0.923635 96:0.966877 97:-0.818614 98:0.978265 99:-0.9637 100:0.835098 101:-0.918913 102:0.92548 103:-0.983538 104:0.695454 105:-0.73278 106:0.897957 107:-0.931214 108:0.571588 109:-0.73278 110:0.784839 111:-0.931214 112:0.523909 113:-0.632793 114:0.715909 115:-0.81633 116:0.5 117:-0.868016 118:0.651434 119:-0.898023 120:-0.507908 121:-0.939683 122:0.564716 123:-0.922455 124:-0.589014 125:-0.907115 126:0.564716 127:-0.854298 128:-0.589014 129:-0.949703 130:0.586902 131:-0.888712 132:-0.540085 133:-0.951272 134:-0.574947 135:-0.877772 136:-0.666697 137:-0.979813 138:-0.555529 139:-0.930864 140:-0.670693 141:-0.992578 142:-0.592592 143:-0.962978 144:-0.677812 145:-0.993602 146:-0.776619 147:-0.975337 148:-0.88009 149:-0.992218 150:-0.740408 151:-0.958206 152:-0.784332 153:-0.992218 154:-0.637113 155:-0.958206 156:-0.715127 157:-0.993007 158:-0.638572 159:-0.96667 160:-0.710343 161:-0.994713 162:-0.649513 163:-0.960341 164:-0.625945 165:-0.996979 166:-0.592884 167:-0.974633 168:0.5 169:-0.99468 170:-0.523973 171:-0.971268 172:0.573433 173:-0.995104 174:0.577188 175:-0.988941 176:0.639398 177:-0.995543 178:-0.692977 179:-0.995827 180:-0.583591 181:-0.997372 182:-0.879022 183:-0.999997 184:-0.811729 185:-0.99731 186:-0.857123 187:-1 188:-0.785645 189:-0.996857 190:-0.839308 191:-1 192:-0.864964 193:-0.994951 194:-0.836216 195:-1 196:-0.838234 197:-0.999991 198:-0.807012 199:-1 200:-0.819794 201:-0.999997 202:-0.751156 203:-1 204:-0.654366 205:-0.999995 206:-0.796952 207:-0.999999 208:-0.611458 209:-0.996702 210:-0.718397 211:-0.999999 212:-0.578682 213:-0.99428 214:-0.733821 215:-1 216:-0.520537 217:-0.991969 218:-0.752101 219:-1 220:-0.555779 221:-0.992958 222:-0.681128 223:-1 224:-0.508257 225:-0.992958 226:-0.725139 227:-1 228:-0.54333 229:-0.990173 230:-0.550689 231:-0.999999 232:0.743625 233:-0.992021 234:0.732544 235:-1 236:0.877862 237:-0.991377 238:0.760405 239:-1 240:0.879274 
0 0.5169447776006175 1:0.919051 2:0.989748 3:-0.507419 4:0.887971 5:0.846325 6:0.982048 7:-0.648605 8:0.912431 9:0.721551 10:0.978728 11:-0.714297 12:0.874157 13:0.54006 14:0.959729 15:-0.752455 16:0.932874 17:0.7888 18:0.804445 19:0.518841 20:0.773263 21:0.554911 22:0.829661 23:-0.838344 24:0.84247 25:-0.646759 26:0.84008 27:-0.903923 28:0.881833 29:-0.532307 30:0.829543 31:-0.840395 32:0.885199 33:-0.697016 34:0.82977 35:-0.936678 36:0.901792 37:-0.882219 38:0.854866 39:-0.943682 40:0.95034 41:-0.891395 42:0.912164 43:-0.95117 44:0.940508 45:-0.903402 46:0.893766 47:-0.958613 48:0.892802 49:-0.951136 50:0.868329 51:-0.979807 52:0.897384 53:-0.980865 54:0.837092 55:-0.994428 56:0.898924 57:-0.980865 58:0.851294 59:-0.994428 60:0.939829 61:-0.96566 62:0.903373 63:-0.98791 64:0.933259 65:-0.88561 66:0.936119 67:-0.945784 68:0.91804 69:-0.847768 70:0.929459 71:-0.921418 72:0.906625 73:-0.847768 74:0.86612 75:-0.921418 76:0.921656 77:-0.959399 78:0.813221 79:-0.991217 80:0.864104 81:-0.939213 82:0.772789 83:-0.982459 84:0.865124 85:-0.939213 86:0.774939 87:-0.982459 88:0.820068 89:-0.976803 90:0.903794 91:-0.994983 92:0.848688 93:-0.98362 94:0.909117 95:-0.996164 96:0.805617 97:-0.989631 98:0.833851 99:-0.996585 100:0.830368 101:-0.991434 102:0.520959 103:-0.999984 104:0.641269 105:-0.985113 106:0.605498 107:-0.999989 108:0.705615 109:-0.985113 110:-0.506328 111:-0.999989 112:0.700929 113:-0.981055 114:-0.515542 115:-0.995751 116:0.649869 117:-0.968935 118:0.632575 119:-0.994915 120:0.652665 121:-0.990105 122:0.696162 123:-0.997357 124:0.725471 125:-0.969027 126:0.643182 127:-0.991647 128:0.803638 129:-0.907398 130:-0.516719 131:-0.985541 132:0.851848 133:-0.892975 134:-0.641394 135:-0.97454 136:0.755578 137:-0.803494 138:0.530354 139:-0.915901 140:0.756869 141:-0.781994 142:-0.548241 143:-0.883428 144:0.825721 145:-0.874327 146:0.509533 147:-0.94059 148:0.790307 149:-0.876113 150:0.685073 151:-0.936531 152:0.923828 153:-0.963255 154:0.534835 155:-0.98792 156:0.860249 157:-0.94719 158:-0.519407 159:-0.978045 160:0.818694 161:-0.94119 162:-0.743539 163:-0.984005 164:0.622407 165:-0.913289 166:-0.911847 167:-0.97391 168:-0.781253 169:-0.902746 170:-0.897954 171:-0.97393 172:-0.880177 173:-0.981265 174:-0.944281 175:-0.996115 176:-0.925891 177:-0.989843 178:-0.855482 179:-0.999998 180:-0.844311 181:-0.995538 182:-0.855512 183:-0.999998 184:-0.871582 185:-0.999985 186:-0.823906 187:-0.999998 188:-0.866124 189:-0.993348 190:-0.874085 191:-0.996385 192:-0.925052 193:-0.987013 194:-0.964516 195:-0.989982 196:-0.962338 197:-0.969739 198:-0.975236 199:-0.975145 200:-0.956286 201:-0.989551 202:-0.973904 203:-0.992981 204:-0.967035 205:-0.986447 206:-0.96249 207:-0.990379 208:-0.948454 209:-0.986447 210:-0.963269 211:-0.990379 212:-0.96856 213:-0.986447 214:-0.965071 215:-0.990379 216:-0.954794 217:-0.995624 218:-0.965071 219:-0.995643 220:-0.954794 221:-0.994822 222:-0.965071 223:-0.995303 224:-0.954794 225:-0.995484 226:-0.95068 227:-0.997164 228:-0.939657 229:-0.9971 230:-0.946138 231:-0.999991 232:-0.923135 233:-0.999992 234:-0.901243 235:-1 236:-0.805615 237:-0.999986 238:-0.945787 239:-0.999999 240:-0.755631 
0 0.1786039848469688 1:0.557537 2:0.987663 3:-0.999992 4:0.978405 5:-0.523787 6:0.985675 7:-0.999991 8:0.966405 9:0.79286 10:0.987113 11:-0.990088 12:0.983157 13:0.702309 14:0.985969 15:-0.991969 16:0.989535 17:0.790011 18:0.979837 19:-0.990398 20:0.985265 21:0.7474 22:0.983089 23:-0.993101 24:0.986504 25:0.614946 26:0.982921 27:-0.992408 28:0.985823 29:-0.560822 30:0.981469 31:-0.999989 32:0.984381 33:-0.697286 34:0.987301 35:-0.999999 36:0.982665 37:-0.742941 38:0.984874 39:-0.999999 40:0.982305 41:-0.681198 42:0.983157 43:-0.999999 44:0.977673 45:-0.713095 46:0.979649 47:-0.999999 48:0.975984 49:-0.90781 50:0.974848 51:-1 52:0.972137 53:-0.865734 54:0.968413 55:-0.999999 56:0.965683 57:-0.899533 58:0.962512 59:-0.999999 60:0.960285 61:-0.823824 62:0.964389 63:-0.999987 64:0.961248 65:-0.874254 66:0.952936 67:-0.999992 68:0.960191 69:-0.907576 70:0.956237 71:-0.999995 72:0.95962 73:-0.885358 74:0.955038 75:-0.995775 76:0.954507 77:-0.914103 78:0.96179 79:-0.999988 80:0.962081 81:-0.914103 82:0.890493 83:-0.999988 84:0.897572 85:-0.964576 86:0.928129 87:-0.999997 88:0.925862 89:-0.974354 90:0.945098 91:-1 92:0.932836 93:-0.961658 94:0.945098 95:-0.999991 96:0.932836 97:-0.951353 98:0.875799 99:-0.996858 100:0.82012 101:-0.989104 102:0.875799 103:-0.999996 104:0.82012 105:-0.971223 106:0.738511 107:-0.995374 108:0.762437 109:-0.941745 110:0.732296 111:-0.989279 112:0.77814 113:-0.95933 114:0.667243 115:-0.994738 116:0.692365 117:-0.970792 118:-0.527363 119:-0.994469 120:0.533182 121:-0.952739 122:-0.809015 123:-0.980937 124:-0.697775 125:-0.943334 126:-0.913869 127:-0.942322 128:-0.832519 129:-0.943334 130:-0.913869 131:-0.942322 132:-0.832519 133:-0.943334 134:-0.908513 135:-0.942322 136:-0.852287 137:-0.972759 138:-0.803693 139:-0.941652 140:-0.792893 141:-0.987047 142:-0.849039 143:-0.94902 144:-0.85403 145:-0.995674 146:-0.897588 147:-0.980571 148:-0.903747 149:-0.993016 150:-0.888151 151:-0.969748 152:-0.90802 153:-0.996497 154:-0.956036 155:-0.983351 156:-0.957931 157:-0.990898 158:-0.92848 159:-0.962172 160:-0.942007 161:-0.986601 162:-0.89773 163:-0.941345 164:-0.927247 165:-0.980156 166:-0.94308 167:-0.913343 168:-0.937303 169:-0.969565 170:-0.94308 171:-0.875764 172:-0.937303 173:-0.984847 174:-0.939004 175:-0.924073 176:-0.924989 177:-0.981005 178:-0.95603 179:-0.949535 180:-0.9254 181:-0.979067 182:-0.942887 183:-0.964321 184:-0.928874 185:-0.964149 186:-0.94525 187:-0.945031 188:-0.916395 189:-0.977583 190:-0.945438 191:-0.966415 192:-0.926538 193:-0.972801 194:-0.933316 195:-0.970686 196:-0.925565 197:-0.990693 198:-0.884632 199:-0.990957 200:-0.921146 201:-0.99135 202:-0.835384 203:-0.993282 204:-0.932068 205:-0.992428 206:-0.826196 207:-0.99031 208:-0.923328 209:-0.975944 210:-0.8367 211:-0.980847 212:-0.911406 213:-0.961432 214:-0.696587 215:-0.962997 216:-0.818041 217:-0.906581 218:-0.771803 219:-0.894945 220:-0.810419 221:-0.829221 222:-0.829838 223:-0.78021 224:-0.810153 225:-0.892408 226:-0.903247 227:-0.870368 228:-0.892564 229:-0.848037 230:-0.77391 231:-0.868754 232:-0.715402 233:-0.810953 234:-0.787536 235:-0.8869 236:-0.739471 237:-0.708233 238:-0.816925 239:-0.89856 240:-0.754407 
0 0.1225228181273016 1:0.699617 2:0.99695 3:-0.99729 4:0.995866 5:0.544105 6:0.994851 7:-0.999999 8:0.996951 9:0.583299 10:0.995121 11:-0.999997 12:0.997956 13:0.642084 14:0.997627 15:-0.996487 16:0.997384 17:0.772645 18:0.996438 19:-0.990861 20:0.995743 21:0.684117 22:0.99426 23:-0.992561 24:0.992645 25:0.534796 26:0.988651 27:-0.999987 28:0.995243 29:0.563425 30:0.984167 31:-0.999988 32:0.992381 33:0.694274 34:0.983496 35:-0.995091 36:0.990442 37:0.64843 38:0.977205 39:-0.992301 40:0.987432 41:0.609568 42:0.980319 43:-0.988547 44:0.987118 45:-0.575236 46:0.988204 47:-0.993563 48:0.984981 49:-0.843335 50:0.986634 51:-0.997425 52:0.989473 53:-0.902443 54:0.983935 55:-0.999993 56:0.99196 57:-0.626291 58:0.94861 59:-0.990129 60:0.978307 61:-0.626291 62:0.863115 63:-0.990129 64:0.92413 65:0.651885 66:0.864899 67:-0.973247 68:0.915041 69:0.651885 70:0.814514 71:-0.973247 72:0.907995 73:0.581226 74:0.769067 75:-0.990135 76:0.911086 77:-0.541055 78:0.889295 79:-0.963293 80:0.90409 81:-0.879172 82:0.691186 83:-0.987062 84:0.782147 85:-0.901469 86:0.729479 87:-0.986498 88:0.830401 89:-0.929339 90:0.729479 91:-0.981892 92:0.830401 93:-0.95156 94:0.786169 95:-0.990429 96:0.861838 97:-0.861877 98:0.774555 99:-0.958855 100:0.786223 101:-0.956344 102:0.774555 103:-0.969876 104:0.786223 105:-0.97696 106:0.774555 107:-0.993797 108:0.786223 109:-0.990016 110:0.745291 111:-0.999996 112:0.668976 113:-0.985143 114:0.588397 115:-0.999988 116:0.748976 117:-0.983334 118:0.506498 119:-0.996123 120:0.599788 121:-0.966942 122:-0.589314 123:-0.990035 124:-0.559555 125:-0.974559 126:-0.734082 127:-0.993664 128:0.5 129:-0.971238 130:-0.811488 131:-0.993954 132:0.510335 133:-0.978062 134:-0.866376 135:-0.996917 136:-0.707241 137:-0.971238 138:-0.871333 139:-0.993954 140:-0.768777 141:-0.948064 142:-0.902466 143:-0.984648 144:-0.740393 145:-0.974744 146:-0.902466 147:-0.99414 148:-0.740393 149:-0.993765 150:-0.880167 151:-0.999988 152:-0.651333 153:-0.992424 154:-0.850332 155:-0.997038 156:-0.598406 157:-0.996202 158:-0.850332 159:-0.999993 160:-0.598406 161:-0.99739 162:-0.846381 163:-0.999995 164:-0.606907 165:-0.993176 166:-0.793894 167:-0.993702 168:-0.57927 169:-0.987783 170:-0.821742 171:-0.99441 172:-0.721514 173:-0.976264 174:-0.871046 175:-0.992524 176:-0.730102 177:-0.987821 178:-0.907393 179:-0.999984 180:-0.744203 181:-0.966991 182:-0.897305 183:-0.993146 184:-0.755281 185:-0.942079 186:-0.950626 187:-0.988282 188:-0.881547 189:-0.958635 190:-0.856379 191:-0.9857 192:-0.671589 193:-0.920629 194:-0.647104 195:-0.98856 196:0.740428 197:-0.901886 198:-0.628268 199:-0.98249 200:0.738057 201:-0.847392 202:-0.550351 203:-0.964513 204:0.665267 205:-0.943887 206:-0.648296 207:-0.989422 208:0.623917 209:-0.956235 210:-0.929397 211:-0.992881 212:-0.759408 213:-0.987417 214:-0.883964 215:-0.999996 216:-0.539419 217:-0.987417 218:-0.954677 219:-0.999996 220:-0.787973 221:-0.977387 222:-0.956867 223:-0.996464 224:-0.854549 225:-0.968907 226:-0.95772 227:-0.993655 228:-0.848971 229:-0.985479 230:-0.954622 231:-0.995053 232:-0.79502 233:-0.994558 234:-0.965405 235:-0.999996 236:-0.836715 237:-0.996636 238:-0.972278 239:-0.999988 240:-0.829051 
1 0.3076542737163722 1:0.996346 2:0.969714 3:0.926649 4:0.840753 5:0.987221 6:0.969235 7:0.881805 8:0.818299 9:0.989844 10:0.981575 11:0.944285 12:0.940479 13:0.964373 14:0.991187 15:0.878297 16:0.927533 17:0.929168 18:0.995314 19:0.83735 20:0.897615 21:0.865295 22:0.994485 23:0.744445 24:0.862885 25:0.790205 26:0.990782 27:0.691434 28:0.872345 29:0.663986 30:0.988788 31:-0.676617 32:0.88494 33:0.816557 34:0.986315 35:0.558761 36:0.896585 37:0.906658 38:0.989788 39:0.752146 40:0.952504 41:0.939636 42:0.984747 43:0.79421 44:0.934652 45:0.913609 46:0.979842 47:0.72433 48:0.873913 49:0.851564 50:0.976868 51:0.561921 52:0.883797 53:0.771696 54:0.967755 55:-0.545205 56:0.892503 57:0.689702 58:0.963841 59:-0.763087 60:0.888076 61:-0.576902 62:0.959689 63:-0.865176 64:0.884763 65:-0.612813 66:0.955317 67:-0.888451 68:0.882451 69:-0.818414 70:0.957218 71:-0.969783 72:0.937192 73:-0.896108 74:0.960401 75:-0.985641 76:0.927733 77:-0.818414 78:0.89046 79:-0.969783 80:0.745567 81:-0.662286 82:0.900261 83:-0.882928 84:0.733524 85:-0.802262 86:0.676695 87:-0.944772 88:0.547637 89:-0.904649 90:0.660164 91:-0.979997 92:0.527134 93:-0.906317 94:-0.625782 95:-0.985644 96:-0.77703 97:-0.956423 98:-0.566864 99:-0.985509 100:-0.79219 101:-0.95681 102:-0.857476 103:-0.989239 104:-0.966598 105:-0.974065 106:-0.909179 107:-0.984916 108:-0.971717 109:-0.942311 110:-0.911821 111:-0.96606 112:-0.967171 113:-0.97542 114:-0.901284 115:-0.970556 116:-0.964515 117:-0.97542 118:-0.916213 119:-0.970556 120:-0.971669 121:-0.980638 122:-0.947953 123:-0.946493 124:-0.958049 125:-0.993594 126:-0.929935 127:-0.985898 128:-0.953391 129:-0.999985 130:-0.965617 131:-0.996507 132:-0.970764 133:-0.996377 134:-0.968606 135:-0.992539 136:-0.978959 137:-0.991065 138:-0.9699 139:-0.980853 140:-0.975153 141:-0.994077 142:-0.979899 143:-0.989154 144:-0.98642 145:-0.994712 146:-0.985396 147:-0.987571 148:-0.985205 149:-0.996427 150:-0.98554 151:-0.98215 152:-0.978325 153:-0.990795 154:-0.985389 155:-0.963076 156:-0.97325 157:-0.995795 158:-0.988323 159:-0.98643 160:-0.977323 161:-0.997356 162:-0.995132 163:-0.9882 164:-0.98848 165:-0.996596 166:-0.993623 167:-0.985905 168:-0.988897 169:-0.999993 170:-0.99598 171:-0.995288 172:-0.994207 173:-0.999996 174:-0.995563 175:-0.997135 176:-0.988637 177:-0.999999 178:-0.995719 179:-0.999995 180:-0.982561 181:-1 182:-0.994628 183:-0.999988 184:-0.98565 185:-0.999999 186:-0.996462 187:-0.995823 188:-0.989917 189:-0.996667 190:-0.997313 191:-0.984427 192:-0.994103 193:-0.999988 194:-0.999988 195:-0.995922 196:-0.996378 197:-0.996972 198:-0.999993 199:-0.996208 200:-0.996574 201:-0.995933 202:-0.999997 203:-0.992997 204:-0.999993 205:-0.99476 206:-0.999997 207:-0.994717 208:-0.999992 209:-0.988614 210:-0.999996 211:-0.988983 212:-0.997099 213:-0.954369 214:-0.999996 215:-0.971883 216:-0.997022 217:-0.964903 218:-0.996547 219:-0.980579 220:-0.993703 221:-0.983037 222:-0.999991 223:-0.988865 224:-0.995985 225:-0.988388 226:-0.991203 227:-0.993577 228:-0.979839 229:-0.997443 230:-0.986567 231:-0.999985 232:-0.974906 233:-0.99325 234:-0.944457 235:-0.991175 236:-0.90092 237:-0.989883 238:-0.966275 239:-0.983509 240:-0.927152 
0.04753043867213887 0.2866008912349827 1:0.784063 2:0.974871 3:-0.934445 4:0.908913 5:0.919094 6:0.954385 7:-0.807309 8:0.900579 9:0.874088 10:0.989427 11:-0.762362 12:0.940128 13:0.921152 14:0.983949 15:-0.665841 16:0.849544 17:0.818999 18:0.971379 19:-0.752913 20:0.835227 21:0.730031 22:0.967785 23:-0.785375 24:0.802337 25:0.567624 26:0.979599 27:-0.859932 28:0.911254 29:0.736979 30:0.946613 31:-0.767716 32:0.849898 33:0.831891 34:0.936076 35:-0.620538 36:0.829957 37:0.706824 38:0.933923 39:-0.754576 40:0.826662 41:0.738302 42:0.93531 43:-0.675957 44:0.813843 45:0.607756 46:0.954735 47:-0.882161 48:0.829416 49:-0.758204 50:0.950312 51:-0.957324 52:0.892649 53:-0.657725 54:0.843004 55:-0.961046 56:0.63922 57:-0.59872 58:0.808812 59:-0.932874 60:-0.516506 61:-0.537602 62:0.817732 63:-0.808448 64:-0.513924 65:0.642632 66:0.856148 67:-0.646662 68:0.646509 69:0.542483 70:0.89293 71:-0.772692 72:0.782103 73:-0.763299 74:0.886794 75:-0.893455 76:0.787464 77:-0.74862 78:0.84796 79:-0.873666 80:0.800876 81:-0.737096 82:0.841187 83:-0.853095 84:0.75217 85:-0.917963 86:0.792875 87:-0.976887 88:0.614874 89:-0.945155 90:0.774272 91:-0.987277 92:0.700632 93:-0.927218 94:0.636808 95:-0.97981 96:0.653285 97:-0.975523 98:0.550775 99:-0.993621 100:0.513364 101:-0.970503 102:0.51043 103:-0.995348 104:-0.516222 105:-0.958197 106:-0.648444 107:-0.993668 108:0.527484 109:-0.954352 110:-0.759909 111:-0.994235 112:-0.725723 113:-0.975709 114:-0.76473 115:-0.996592 116:-0.698607 117:-0.934083 118:-0.913019 119:-0.986195 120:-0.726982 121:-0.978896 122:-0.900506 123:-0.994687 124:-0.645297 125:-0.991621 126:-0.918173 127:-0.999996 128:-0.634655 129:-0.977874 130:-0.934191 131:-0.994948 132:-0.547132 133:-0.980848 134:-0.930495 135:-0.995863 136:-0.560062 137:-0.982279 138:-0.90504 139:-0.996066 140:-0.53138 141:-0.963573 142:-0.952149 143:-0.991101 144:-0.660014 145:-0.963573 146:-0.929382 147:-0.991101 148:-0.518259 149:-0.977333 150:-0.908903 151:-0.997444 152:-0.507837 153:-0.932208 154:-0.949741 155:-0.994589 156:0.541111 157:-0.960946 158:-0.948405 159:-0.997052 160:-0.593087 161:-0.937651 162:-0.905144 163:-0.990119 164:-0.553095 165:-0.813926 166:-0.893201 167:-0.974841 168:0.577681 169:-0.848034 170:-0.893201 171:-0.984581 172:0.577681 173:-0.867371 174:-0.964809 175:-0.99273 176:-0.655595 177:-0.859486 178:-0.975682 179:-0.985987 180:-0.617782 181:-0.806799 182:-0.985925 183:-0.95756 184:-0.809614 185:-0.912633 186:-0.94172 187:-0.990969 188:0.522321 189:-0.881687 190:-0.950693 191:-0.974374 192:0.730254 193:-0.936431 194:-0.959211 195:-0.973446 196:0.707927 197:-0.964279 198:-0.951196 199:-0.994646 200:0.614112 201:-0.975126 202:-0.951196 203:-0.989916 204:0.614112 205:-0.907298 206:-0.958867 207:-0.956912 208:0.574589 209:-0.958267 210:-0.937521 211:-0.991333 212:0.515714 213:-0.946141 214:-0.950629 215:-0.9902 216:-0.569367 217:-0.921549 218:-0.927109 219:-0.974859 220:0.616409 221:-0.954656 222:-0.909843 223:-0.995506 224:0.562828 225:-0.94316 226:-0.825417 227:-0.995911 228:0.716096 229:-0.929438 230:-0.720509 231:-0.99346 232:0.862832 233:-0.937633 234:-0.654686 235:-0.994749 236:0.874425 237:-0.976003 238:0.5 239:-0.996919 240:0.852953 
0 1 1:0.9884 2:0.940563 3:-0.512089 4:0.662101 5:0.990373 6:0.90241 7:0.612511 8:0.589996 9:0.996066 10:0.779202 11:0.845686 12:0.59083 13:0.977208 14:0.869911 15:-0.591398 16:0.623239 17:0.917494 18:0.856935 19:-0.847804 20:0.616157 21:0.871459 22:0.842212 23:-0.888633 24:0.527724 25:0.76125 26:0.871195 27:-0.896067 28:0.769695 29:0.525084 30:0.76451 31:-0.962233 32:0.761004 33:0.703455 34:0.846032 35:-0.909802 36:0.782712 37:0.779566 38:0.859452 39:-0.85615 40:0.891418 41:0.823179 42:0.894554 43:-0.759541 44:0.900832 45:0.687193 46:0.876635 47:-0.909263 48:0.887861 49:-0.631962 50:0.844695 51:-0.974574 52:0.878703 53:-0.676303 54:0.807342 55:-0.971799 56:0.857755 57:-0.889141 58:0.88601 59:-0.995423 60:0.853202 61:-0.764491 62:0.855964 63:-0.979553 64:0.846766 65:-0.903517 66:0.774755 67:-0.992194 68:0.827482 69:-0.920024 70:0.738141 71:-0.985363 72:0.878141 73:-0.972051 74:0.608461 75:-0.993976 76:0.847846 77:-0.972051 78:-0.558862 79:-0.993976 80:0.807024 81:-0.993608 82:0.705162 83:-0.99999 84:0.843374 85:-0.993608 86:0.508542 87:-0.99999 88:0.876411 89:-0.993489 90:-0.562335 91:-0.999993 92:0.766378 93:-0.99543 94:0.512921 95:-0.999991 96:0.91304 97:-0.999992 98:-0.842928 99:-0.999998 100:0.670929 101:-0.999982 102:-0.842928 103:-0.999997 104:0.670929 105:-0.999985 106:-0.643367 107:-0.999996 108:0.760157 109:-0.995739 110:-0.517981 111:-0.999988 112:0.790666 113:-0.996873 114:0.592016 115:-0.999998 116:0.811245 117:-0.999993 118:-0.518342 119:-0.999998 120:0.863736 121:-0.992326 122:-0.7423 123:-0.99618 124:0.798236 125:-0.987404 126:-0.662527 127:-0.994299 128:0.720341 129:-0.994204 130:-0.545499 131:-0.996386 132:0.755547 133:-0.987489 134:-0.545499 135:-0.994691 136:0.755547 137:-0.984715 138:-0.734634 139:-0.993734 140:0.625353 141:-0.984715 142:-0.824329 143:-0.993734 144:-0.520136 145:-0.984715 146:-0.900103 147:-0.993734 148:-0.684972 149:-0.964098 150:-0.927432 151:-0.979143 152:-0.627371 153:-0.979906 154:-0.923484 155:-0.990399 156:-0.580672 157:-0.991285 158:-0.931015 159:-0.99222 160:-0.723168 161:-0.994251 162:-0.834628 163:-0.991914 164:-0.674746 165:-0.988607 166:-0.780831 167:-0.980827 168:-0.664069 169:-0.999984 170:-0.736921 171:-0.9972 172:-0.833885 173:-0.99689 174:-0.758244 175:-0.996256 176:-0.809071 177:-0.986458 178:-0.736287 179:-0.983772 180:-0.821763 181:-0.941932 182:-0.886291 183:-0.902345 184:-0.948783 185:-0.930103 186:-0.839638 187:-0.912684 188:-0.969966 189:-0.73176 190:-0.917806 191:-0.722577 192:-0.94451 193:-0.88571 194:-0.85782 195:-0.870377 196:-0.935085 197:-0.735833 198:-0.751838 199:-0.662714 200:-0.839503 201:-0.875442 202:-0.713253 203:-0.70998 204:-0.926432 205:-0.579067 206:-0.793643 207:0.729744 208:-0.880795 209:0.55036 210:-0.793643 211:0.659456 212:-0.880795 213:0.509171 214:-0.904262 215:0.593859 216:-0.818515 217:-0.821845 218:-0.858103 219:-0.813367 220:-0.843009 221:-0.732091 222:-0.944771 223:-0.697433 224:-0.93076 225:-0.915543 226:-0.948506 227:-0.929585 228:-0.963386 229:-0.920542 230:-0.788773 231:-0.912111 232:-0.894792 233:-0.901805 234:-0.840033 235:-0.910216 236:-0.832275 237:-0.960352 238:-0.840033 239:-0.963896 240:-0.832275 
0.2972920130073527 1 1:0.692745 2:0.955288 3:-0.867194 4:0.936426 5:0.583766 6:0.945483 7:-0.939344 8:0.926424 9:-0.545095 10:0.924747 11:-0.970761 12:0.913551 13:-0.670974 14:0.911908 15:-0.984841 16:0.90706 17:-0.774768 18:0.875558 19:-0.991542 20:0.89149 21:-0.829869 22:0.859546 23:-0.990108 24:0.888856 25:-0.780822 26:0.869682 27:-0.984177 28:0.952693 29:-0.85725 30:0.862001 31:-0.990713 32:0.977624 33:-0.830177 34:0.851239 35:-0.986074 36:0.952154 37:-0.889485 38:0.830614 39:-0.991272 40:0.905278 41:-0.875041 42:0.864049 43:-0.987547 44:0.900322 45:-0.916882 46:0.842287 47:-0.992169 48:0.938111 49:-0.975996 50:0.801269 51:-0.999985 52:0.916413 53:-0.94973 54:0.834629 55:-0.994655 56:0.910571 57:-0.935169 58:0.857519 59:-0.991677 60:0.914113 61:-0.935169 62:0.876394 63:-0.991677 64:0.905811 65:-0.943709 66:0.854586 67:-0.994891 68:0.84148 69:-0.950735 70:0.827815 71:-0.990036 72:0.81289 73:-0.917323 74:0.795972 75:-0.980933 76:0.779772 77:-0.960927 78:0.66087 79:-0.991763 80:0.704515 81:-0.97493 82:0.716337 83:-0.995149 84:0.775963 85:-0.919669 86:0.668027 87:-0.958931 88:0.744184 89:-0.913002 90:0.524254 91:-0.963625 92:0.510348 93:-0.953902 94:0.546231 95:-0.982909 96:0.5103 97:-0.958326 98:-0.631 99:-0.987399 100:-0.581203 101:-0.860818 102:-0.657902 103:-0.947522 104:-0.690586 105:-0.711343 106:-0.768457 107:-0.887574 108:-0.829146 109:-0.782344 110:-0.789742 111:-0.926726 112:-0.844155 113:-0.712709 114:-0.789742 115:-0.908485 116:-0.844155 117:-0.829915 118:-0.797684 119:-0.96166 120:-0.854879 121:-0.749034 122:-0.806166 123:-0.922157 124:-0.867094 125:-0.749034 126:-0.815086 127:-0.922157 128:-0.880325 129:-0.842242 130:-0.805041 131:-0.940555 132:-0.891041 133:-0.867257 134:-0.86449 135:-0.933982 136:-0.916446 137:-0.662569 138:-0.897109 139:-0.829973 140:-0.937126 141:0.649396 142:-0.897508 143:-0.646544 144:-0.943514 145:0.573122 146:-0.897433 147:-0.731866 148:-0.951247 149:-0.609458 150:-0.914171 151:-0.821922 152:-0.965359 153:-0.805405 154:-0.885241 155:-0.934203 156:-0.961265 157:-0.657366 158:-0.8837 159:-0.872149 160:-0.97803 161:-0.645632 162:-0.956851 163:-0.863087 164:-0.996119 165:-0.645632 166:-0.956966 167:-0.863087 168:-0.993728 169:-0.52089 170:-0.944471 171:-0.812804 172:-0.989048 173:0.714506 174:-0.97473 175:-0.681882 176:-0.992744 177:0.663314 178:-0.991896 179:-0.697557 180:-0.999996 181:0.607227 182:-0.991013 183:-0.616146 184:-0.999998 185:0.599107 186:-0.986404 187:-0.53236 188:-0.999996 189:0.700824 190:-0.987117 191:0.596528 192:-0.999995 193:-0.805655 194:-0.985196 195:-0.73844 196:-0.999982 197:-0.946333 198:-0.97865 199:-0.869278 200:-0.994282 201:-0.855284 202:-0.973379 203:-0.712511 204:-0.989954 205:-0.715385 206:-0.968947 207:-0.508536 208:-0.98343 209:-0.50501 210:-0.968947 211:0.645941 212:-0.98343 213:-0.829824 214:-0.981837 215:-0.699905 216:-0.991923 217:-0.885624 218:-0.992677 219:-0.788661 220:-0.99597 221:-0.906419 222:-0.996684 223:-0.848539 224:-0.999987 225:-0.970564 226:-0.996344 227:-0.948028 228:-0.997374 229:-0.986098 230:-0.99435 231:-0.973508 232:-0.997168 233:-0.984806 234:-0.988889 235:-0.966518 236:-0.988394 237:-0.996341 238:-0.991106 239:-0.985991 240:-0.984248 
1 0.2726044227820637 1:0.992601 2:0.991566 3:0.913039 4:0.828671 5:0.995757 6:0.988981 7:0.974699 8:0.84193 9:0.982402 10:0.984235 11:0.939891 12:0.863664 13:0.96581 14:0.979901 15:0.853292 16:0.867832 17:0.990961 18:0.976113 19:0.936978 20:0.874423 21:0.981258 22:0.969285 23:0.854479 24:0.860125 25:0.974343 26:0.980102 27:0.825581 28:0.823255 29:0.948986 30:0.986525 31:0.660356 32:0.759839 33:0.904959 34:0.979336 35:0.631615 36:0.797407 37:0.883517 38:0.975144 39:0.602206 40:0.829159 41:0.809399 42:0.982912 43:0.577445 44:0.774155 45:0.921862 46:0.987834 47:0.744872 48:0.694503 49:0.94923 50:0.992825 51:0.806353 52:0.860389 53:0.929973 54:0.990598 55:0.77999 56:0.854936 57:0.907973 58:0.992937 59:0.679693 60:0.801113 61:0.968115 62:0.991046 63:0.842222 64:0.87457 65:0.989956 66:0.990156 67:0.914587 68:0.882055 69:0.939145 70:0.989189 71:0.538736 72:0.910123 73:0.804879 74:0.989189 75:-0.692987 76:0.910123 77:0.954435 78:0.992365 79:0.793778 80:0.865023 81:0.907926 82:0.991098 83:0.577198 84:0.851222 85:0.911146 86:0.990618 87:0.529996 88:0.81602 89:0.899237 90:0.990618 91:0.529816 92:0.81602 93:0.753086 94:0.99088 95:-0.690579 96:0.873033 97:0.852179 98:0.99088 99:-0.59745 100:0.873033 101:0.8316 102:0.990242 103:-0.587475 104:0.888879 105:0.923246 106:0.993735 107:0.646292 108:0.846428 109:0.923246 110:0.994592 111:0.646292 112:0.851449 113:0.96365 114:0.990659 115:0.8282 116:0.865159 117:0.914852 118:0.962457 119:0.562269 120:0.76288 121:0.914852 122:0.96324 123:0.562269 124:0.738453 125:0.974673 126:0.958447 127:0.776073 128:0.775998 129:0.974673 130:0.929873 131:0.776073 132:0.873482 133:0.989513 134:0.931346 135:0.874226 136:0.852364 137:0.911893 138:0.932672 139:0.738228 140:0.852893 141:0.821523 142:0.926836 143:0.542727 144:0.788907 145:0.774171 146:0.946405 147:-0.636793 148:0.876861 149:0.677747 150:0.842288 151:-0.759351 152:0.638039 153:-0.546633 154:0.798488 155:-0.863069 156:0.69431 157:-0.828067 158:0.734682 159:-0.948908 160:0.766145 161:-0.60018 162:0.625473 163:-0.809621 164:0.768203 165:-0.71294 166:0.661535 167:-0.906563 168:0.736306 169:-0.948004 170:0.528672 171:-0.975619 172:0.627066 173:-0.948004 174:-0.562555 175:-0.975619 176:0.627559 177:-0.971156 178:-0.655217 179:-0.985321 180:0.66433 181:-0.968336 182:-0.691024 183:-0.983058 184:0.536973 185:-0.97549 186:-0.730042 187:-0.982388 188:-0.62637 189:-0.995853 190:-0.80906 191:-0.996479 192:-0.625222 193:-0.994116 194:-0.811971 195:-0.993335 196:-0.75004 197:-0.996239 198:-0.83114 199:-0.996167 200:-0.786211 201:-0.999994 202:-0.924276 203:-0.999994 204:-0.929084 205:-0.999993 206:-0.944916 207:-0.999993 208:-0.947068 209:-0.999991 210:-0.965861 211:-0.999981 212:-0.954278 213:-0.99999 214:-0.975383 215:-0.997194 216:-0.947329 217:-0.999999 218:-0.972837 219:-0.999995 220:-0.935961 221:-1 222:-0.978319 223:-0.999999 224:-0.945023 225:-1 226:-0.97891 227:-1 228:-0.941158 229:-1 230:-0.981935 231:-1 232:-0.966581 233:-1 234:-0.97661 235:-1 236:-0.961352 237:-1 238:-0.980766 239:-1 240:-0.964636 
0.4887586692133528 0.4052769347708068 1:0.910991 2:0.994612 3:-0.676433 4:0.983745 5:0.979003 6:0.990926 7:0.652518 8:0.984277 9:0.936371 10:0.990562 11:-0.840578 12:0.984913 13:0.851207 14:0.984928 15:-0.973452 16:0.984423 17:0.716104 18:0.983048 19:-0.980811 20:0.983624 21:0.776471 22:0.976496 23:-0.943284 24:0.985789 25:0.626683 26:0.943771 27:-0.961617 28:0.976223 29:0.595917 30:0.883336 31:-0.945861 32:0.961765 33:-0.57016 34:0.877674 35:-0.964857 36:0.960846 37:-0.567054 38:0.86869 39:-0.957899 40:0.978377 41:-0.645358 42:0.878323 43:-0.965653 44:0.972494 45:-0.771899 46:0.874536 47:-0.979298 48:0.971433 49:-0.934782 50:0.880031 51:-0.993805 52:0.96402 53:-0.971582 54:0.917342 55:-0.996765 56:0.960258 57:-0.979624 58:0.906646 59:-0.997393 60:0.955168 61:-0.965796 62:0.902283 63:-0.997155 64:0.955247 65:-0.984505 66:0.887114 67:-0.999993 68:0.955454 69:-0.977306 70:0.88014 71:-0.999992 72:0.954744 73:-0.895149 74:0.807279 75:-0.985678 76:0.942438 77:-0.879938 78:0.810043 79:-0.986969 80:0.899379 81:-0.927289 82:0.783414 83:-0.989299 84:0.875854 85:-0.927289 86:0.650831 87:-0.989299 88:0.848882 89:-0.944139 90:0.632659 91:-0.99409 92:0.848644 93:-0.958952 94:0.632543 95:-0.996785 96:0.783605 97:-0.967431 98:0.629739 99:-0.997113 100:0.765722 101:-0.96319 102:0.728497 103:-0.994535 104:0.819864 105:-0.957686 106:0.824368 107:-0.986345 108:0.824766 109:-0.965242 110:0.884634 111:-0.98583 112:0.81121 113:-0.941703 114:0.872619 115:-0.979127 116:0.868531 117:-0.941703 118:0.714175 119:-0.979127 120:0.827572 121:-0.811383 122:0.596195 123:-0.938436 124:0.685751 125:-0.563776 126:-0.565612 127:-0.810708 128:0.520005 129:0.699806 130:0.566143 131:-0.619761 132:0.5 133:0.584445 134:-0.571977 135:-0.774263 136:-0.56435 137:0.584445 138:-0.571977 139:-0.774263 140:-0.56435 141:0.751504 142:0.563932 143:-0.665388 144:0.63973 145:0.676838 146:0.671262 147:-0.741269 148:0.587423 149:0.939436 150:0.676546 151:0.728069 152:0.578109 153:0.939436 154:0.790692 155:0.728069 156:0.5 157:0.927306 158:0.887323 159:0.669476 160:0.588829 161:0.775275 162:0.814641 163:-0.77729 164:-0.65097 165:0.775275 166:0.793797 167:-0.77729 168:-0.766195 169:0.774022 170:0.813726 171:-0.700388 172:-0.841464 173:0.896873 174:0.809482 175:0.515706 176:-0.822701 177:0.84999 178:0.813083 179:0.535694 180:-0.816651 181:0.679711 182:0.811461 183:0.515469 184:-0.741164 185:0.795505 186:0.723773 187:0.694099 188:-0.701471 189:0.752625 190:0.726276 191:0.61596 192:-0.751098 193:0.663305 194:0.726276 195:0.590935 196:-0.751098 197:0.765319 198:0.71599 199:0.687754 200:-0.775898 201:0.765319 202:-0.53836 203:0.687754 204:-0.933508 205:0.513627 206:0.561309 207:-0.597957 208:-0.953749 209:0.709183 210:0.602871 211:0.57762 212:-0.906308 213:0.527968 214:0.559806 215:-0.61004 216:-0.930911 217:-0.668466 218:0.573212 219:-0.768876 220:-0.961781 221:-0.939761 222:-0.645445 223:-0.932384 224:-0.983214 225:-0.699208 226:-0.724003 227:-0.666035 228:-0.974805 229:-0.607129 230:-0.755348 231:-0.572731 232:-0.966492 233:-0.642023 234:-0.813595 235:-0.555164 236:-0.95694 237:0.628391 238:-0.859786 239:0.68156 240:-0.948462 
0.01823489673104234 0 1:0.963396 2:0.995315 3:0.76059 4:0.980386 5:0.926354 6:0.993607 7:0.57199 8:0.981757 9:0.787646 10:0.996359 11:-0.854425 12:0.971102 13:0.925956 14:0.99598 15:-0.627998 16:0.963708 17:0.855414 18:0.993832 19:-0.710553 20:0.956846 21:0.877749 22:0.994415 23:-0.547341 24:0.980758 25:0.830987 26:0.994121 27:-0.677728 28:0.989605 29:0.932649 30:0.995781 31:0.567282 32:0.988964 33:0.937427 34:0.996763 35:0.578659 36:0.988034 37:0.892826 38:0.996391 39:0.5 40:0.989123 41:0.795866 42:0.996039 43:-0.786738 44:0.987713 45:0.666958 46:0.995265 47:-0.923225 48:0.987903 49:0.517514 50:0.995067 51:-0.936926 52:0.987432 53:0.775067 54:0.992301 55:-0.778275 56:0.992075 57:0.529767 58:0.989896 59:-0.927674 60:0.985251 61:0.5 62:0.993082 63:-0.918335 64:0.98334 65:-0.594198 66:0.992557 67:-0.956112 68:0.981424 69:0.57461 70:0.992163 71:-0.838875 72:0.983743 73:-0.652815 74:0.989692 75:-0.949038 76:0.964457 77:-0.626284 78:0.984272 79:-0.940719 80:0.964189 81:-0.543908 82:0.960756 83:-0.918155 84:0.933331 85:-0.653939 86:0.960756 87:-0.937164 88:0.933331 89:-0.868125 90:0.9712 91:-0.982419 92:0.884301 93:-0.926246 94:0.963924 95:-0.987542 96:0.899188 97:-0.919355 98:0.951525 99:-0.979528 100:0.906783 101:-0.935919 102:0.917224 103:-0.962332 104:0.937131 105:-0.962781 106:0.939723 107:-0.978592 108:0.937707 109:-0.875661 110:0.932571 111:-0.920449 112:0.937846 113:-0.944482 114:0.938037 115:-0.971796 116:0.942366 117:-0.941595 118:0.930083 119:-0.969955 120:0.937202 121:-0.985448 122:0.944558 123:-0.994964 124:0.89367 125:-0.977733 126:0.900749 127:-0.994091 128:0.890752 129:-0.937942 130:0.887199 131:-0.980994 132:0.925381 133:-0.900192 134:0.856342 135:-0.963804 136:0.909869 137:-0.862883 138:0.85437 139:-0.949373 140:0.90442 141:-0.849811 142:0.85437 143:-0.918251 144:0.90442 145:-0.950603 146:0.834655 147:-0.97487 148:0.916284 149:-0.965613 150:0.834655 151:-0.987359 152:0.916284 153:-0.950305 154:0.702745 155:-0.974193 156:0.81255 157:-0.890668 158:0.646753 159:-0.943542 160:0.724951 161:-0.77947 162:0.646753 163:-0.858867 164:0.724951 165:-0.737183 166:-0.505358 167:-0.799047 168:0.699935 169:-0.864138 170:-0.527007 171:-0.921895 172:0.651941 173:-0.968159 174:-0.603181 175:-0.986967 176:0.743293 177:-0.962981 178:-0.557784 179:-0.986638 180:0.731945 181:-0.910191 182:-0.582633 183:-0.960038 184:0.707426 185:-0.882148 186:0.571257 187:-0.952385 188:0.630424 189:-0.879699 190:0.571257 191:-0.961215 192:0.630424 193:-0.804656 194:-0.515534 195:-0.981616 196:0.626662 197:-0.744485 198:-0.573203 199:-0.977402 200:0.609035 201:-0.860614 202:-0.554979 203:-0.988618 204:0.599785 205:-0.723026 206:0.55097 207:-0.967801 208:0.657117 209:-0.567003 210:0.55097 211:-0.916011 212:0.657117 213:0.523903 214:0.712163 215:-0.773267 216:0.765735 217:-0.678126 218:0.801962 219:-0.895074 220:0.799206 221:-0.830106 222:0.670529 223:-0.956892 224:0.746866 225:-0.876235 226:0.663375 227:-0.964165 228:0.825457 229:-0.869725 230:0.605182 231:-0.950204 232:0.778714 233:-0.966976 234:0.635681 235:-0.98984 236:0.692383 237:-0.872748 238:0.565376 239:-0.956851 240:0.682358 
1 1 1:-0.995508 2:-0.574966 3:-0.995154 4:-0.509045 5:-0.996446 6:-0.59153 7:-0.999993 8:-0.558907 9:-0.993636 10:-0.855103 11:-0.997002 12:-0.773987 13:-0.994349 14:-0.958504 15:-0.999983 16:-0.902947 17:-0.975808 18:-0.907515 19:-0.986788 20:-0.843001 21:-0.960204 22:-0.82438 23:-0.977633 24:-0.773429 25:-0.965776 26:-0.857588 27:-0.981524 28:-0.780923 29:-0.987528 30:-0.760494 31:-0.989306 32:-0.711377 33:-0.994504 34:-0.640531 35:-0.99357 36:-0.712246 37:-0.989196 38:-0.607058 39:-0.989308 40:-0.683408 41:-0.978626 42:-0.608306 43:-0.982491 44:-0.68053 45:-0.984074 46:-0.648346 47:-0.98725 48:-0.539852 49:-0.964432 50:-0.615643 51:-0.972586 52:-0.525384 53:-0.921544 54:-0.615888 55:-0.953932 56:0.505898 57:-0.928802 58:-0.607199 59:-0.94579 60:-0.509631 61:-0.928802 62:-0.575466 63:-0.94579 64:0.5 65:-0.983165 66:-0.588653 67:-0.992747 68:0.509871 69:-0.978974 70:-0.588653 71:-0.987219 72:0.509871 73:-0.965523 74:-0.56608 75:-0.985789 76:0.543703 77:-0.945436 78:-0.57608 79:-0.96549 80:0.505665 81:-0.924263 82:0.506157 83:-0.944016 84:-0.530565 85:-0.924263 86:-0.622688 87:-0.944016 88:-0.53688 89:-0.904404 90:-0.624078 91:-0.908852 92:-0.577324 93:-0.935101 94:0.561205 95:-0.957096 96:0.555977 97:-0.862936 98:0.707559 99:-0.856561 100:0.617536 101:-0.828893 102:0.703387 103:-0.764435 104:0.535775 105:-0.828893 106:0.80018 107:-0.764435 108:0.513754 109:-0.938905 110:0.833373 111:-0.912237 112:-0.601493 113:-0.975088 114:0.888764 115:-0.95464 116:-0.589957 117:-0.889636 118:0.896176 119:-0.807492 120:-0.801087 121:-0.640807 122:0.868788 123:-0.608464 124:-0.790143 125:0.850851 126:0.861078 127:0.794502 128:-0.703002 129:0.640957 130:0.613163 131:0.609192 132:-0.781326 133:0.743751 134:0.613163 135:0.726865 136:-0.781326 137:0.944673 138:0.611281 139:0.917104 140:-0.821485 141:0.879238 142:0.80344 143:0.826871 144:-0.745198 145:-0.506432 146:0.899289 147:-0.630969 148:-0.704422 149:-0.683847 150:0.85938 151:-0.682758 152:-0.714014 153:0.544677 154:0.794455 155:0.5 156:-0.692188 157:0.65772 158:0.638765 159:0.647906 160:-0.801358 161:0.754958 162:0.539248 163:0.751129 164:-0.812238 165:0.891824 166:0.590604 167:0.87622 168:-0.749278 169:0.838383 170:0.61623 171:0.816042 172:-0.708927 173:0.737558 174:0.602214 175:0.751855 176:-0.777448 177:0.583045 178:0.563337 179:0.719256 180:-0.910228 181:0.72987 182:0.577399 183:0.791698 184:-0.904823 185:0.906937 186:0.623384 187:0.913946 188:-0.894443 189:0.834582 190:0.568069 191:0.864384 192:-0.921227 193:0.707691 194:0.522883 195:0.766964 196:-0.928754 197:0.865291 198:0.652503 199:0.904871 200:-0.923562 201:0.848594 202:0.721311 203:0.912574 204:-0.954112 205:0.8637 206:0.691587 207:0.929385 208:-0.964922 209:0.807296 210:0.721311 211:0.900176 212:-0.954112 213:0.622862 214:0.573893 215:0.742421 216:-0.966702 217:0.602898 218:0.594133 219:0.655689 220:-0.973409 221:0.849287 222:0.542566 223:0.886406 224:-0.960472 225:0.74368 226:0.522478 227:0.784271 228:-0.938472 229:-0.55686 230:-0.545457 231:-0.542959 232:-0.924883 233:0.646931 234:0.510784 235:0.657672 236:-0.869757 237:0.870373 238:-0.577438 239:0.848397 240:-0.880516 
1 0.808808918922529 1:0.832304 2:0.972598 3:0.664103 4:-0.609222 5:0.940367 6:0.947492 7:0.890197 8:0.652421 9:0.981056 10:0.946277 11:0.962154 12:0.594583 13:0.981905 14:0.915346 15:0.977333 16:0.618105 17:0.920899 18:0.907334 19:0.893315 20:0.546999 21:0.971913 22:0.89913 23:0.95494 24:-0.508918 25:0.930263 26:0.885142 27:0.831375 28:0.532142 29:0.944024 30:0.928979 31:0.898968 32:0.565962 33:0.903673 34:0.898098 35:0.819337 36:0.716895 37:0.926952 38:0.819495 39:0.854461 40:0.67759 41:0.939928 42:0.824503 43:0.876444 44:0.683685 45:0.912834 46:0.82874 47:0.82478 48:0.64722 49:0.925564 50:0.777252 51:0.838002 52:0.753647 53:0.696959 54:0.792553 55:-0.578091 56:0.794798 57:-0.654764 58:0.764958 59:-0.85901 60:0.778807 61:-0.55561 62:0.834929 63:-0.773416 64:0.754186 65:-0.62042 66:0.808708 67:-0.785023 68:0.645776 69:-0.72845 70:0.87025 71:-0.889142 72:0.604922 73:-0.835272 74:0.788337 75:-0.941539 76:0.646909 77:-0.805703 78:0.821947 79:-0.888648 80:0.788023 81:0.643191 82:0.818811 83:-0.578849 84:0.653966 85:0.699442 86:0.752796 87:-0.55715 88:0.672606 89:0.796988 90:0.631662 91:0.524971 92:0.578972 93:0.796988 94:-0.661051 95:0.524971 96:-0.755136 97:0.518402 98:-0.607088 99:-0.750466 100:-0.852913 101:-0.631058 102:0.552807 103:-0.815783 104:-0.816935 105:-0.748453 106:-0.571433 107:-0.912407 108:-0.852528 109:-0.748453 110:-0.787625 111:-0.912407 112:-0.897367 113:-0.953497 114:-0.668524 115:-0.977847 116:-0.906318 117:-0.864873 118:-0.762526 119:-0.915056 120:-0.898001 121:-0.929844 122:-0.830664 123:-0.955442 124:-0.910147 125:-0.938208 126:-0.952094 127:-0.953563 128:-0.961177 129:-0.976792 130:-0.973455 131:-0.985214 132:-0.986453 133:-0.953717 134:-0.956273 135:-0.971432 136:-0.979713 137:-0.916966 138:-0.9595 139:-0.9416 140:-0.992356 141:-0.933887 142:-0.968137 143:-0.951781 144:-0.99304 145:-0.937489 146:-0.990185 147:-0.917718 148:-0.999995 149:-0.952791 150:-0.992236 151:-0.894318 152:-0.999997 153:-0.918835 154:-0.992005 155:-0.828476 156:-0.999996 157:-0.90762 158:-0.994751 159:-0.805603 160:-0.999997 161:-0.869752 162:-0.995026 163:-0.720506 164:-0.999998 165:-0.952762 166:-0.99999 167:-0.813008 168:-1 169:-0.969622 170:-0.997097 171:-0.845443 172:-1 173:-0.981734 174:-0.997424 175:-0.90243 176:-1 177:-0.994729 178:-0.999981 179:-0.97557 180:-0.999999 181:-0.994729 182:-0.997259 183:-0.97557 184:-1 185:-0.995832 186:-0.996369 187:-0.972492 188:-1 189:-0.996551 190:-0.993703 191:-0.974925 192:-1 193:-0.999998 194:-0.993703 195:-0.994009 196:-1 197:-0.999999 198:-0.983238 199:-0.995909 200:-0.999999 201:-0.999993 202:-0.983648 203:-0.985263 204:-0.999994 205:-0.98836 206:-0.988568 207:-0.920755 208:-0.999996 209:-0.984696 210:-0.988568 211:-0.912457 212:-0.999996 213:-0.947549 214:-0.987337 215:-0.74539 216:-0.999988 217:-0.855539 218:-0.989072 219:-0.5835 220:-0.999991 221:-0.839509 222:-0.980438 223:-0.608691 224:-0.999988 225:-0.963853 226:-0.938362 227:-0.904173 228:-0.99293 229:-0.977194 230:-0.946854 231:-0.94433 232:-0.99473 233:-0.984415 234:-0.951739 235:-0.976202 236:-0.994532 237:-0.964289 238:-0.918287 239:-0.962806 240:-0.98547 
0.1058219755519046 0 1:0.921442 2:0.940081 3:-0.820836 4:0.963035 5:0.867236 6:0.971688 7:-0.803238 8:0.949772 9:0.808578 10:0.977518 11:-0.766524 12:0.955113 13:0.770772 14:0.95988 15:-0.859673 16:0.929976 17:0.630948 18:0.947945 19:-0.969418 20:0.905184 21:0.732016 22:0.970961 23:-0.964138 24:0.880814 25:0.852125 26:0.967505 27:-0.909179 28:0.881706 29:0.885504 30:0.967832 31:-0.902669 32:0.931185 33:0.830589 34:0.972269 35:-0.895082 36:0.93671 37:0.773916 38:0.970584 39:-0.897917 40:0.930206 41:0.868647 42:0.973537 43:-0.799026 44:0.935067 45:0.844409 46:0.965658 47:-0.765819 48:0.961324 49:0.554596 50:0.88859 51:-0.954804 52:0.853035 53:-0.565153 54:0.887728 55:-0.975664 56:0.835704 57:-0.566239 58:0.860185 59:-0.936994 60:0.891527 61:-0.688859 62:0.905765 63:-0.966843 64:0.897031 65:-0.75262 66:0.903641 67:-0.983118 68:0.912278 69:-0.895576 70:0.926696 71:-0.99027 72:0.924655 73:-0.895576 74:0.739677 75:-0.99027 76:0.769988 77:-0.966031 78:0.732891 79:-0.999988 80:0.692902 81:-0.937447 82:0.695369 83:-0.989872 84:0.769358 85:-0.917035 86:0.741991 87:-0.98849 88:0.802765 89:-0.964623 90:0.800188 91:-0.992719 92:0.81027 93:-0.974875 94:0.769915 95:-0.985362 96:0.806986 97:-0.960727 98:0.769915 99:-0.977363 100:0.806986 101:-0.985532 102:0.68346 103:-0.993341 104:0.723961 105:-0.979366 106:0.721341 107:-0.988964 108:0.742323 109:-0.920224 110:0.751516 111:-0.938667 112:0.742448 113:-0.838833 114:-0.58503 115:-0.916543 116:-0.701187 117:-0.838833 118:0.511328 119:-0.916543 120:-0.730654 121:-0.916398 122:0.615625 123:-0.951617 124:-0.717856 125:-0.91975 126:0.617789 127:-0.959477 128:-0.74883 129:-0.83632 130:-0.754837 131:-0.943424 132:-0.959843 133:-0.97268 134:-0.754837 135:-0.983146 136:-0.959843 137:-0.940472 138:-0.825071 139:-0.969787 140:-0.961234 141:-0.759533 142:-0.825071 143:-0.814801 144:-0.961234 145:-0.759533 146:-0.841796 147:-0.814801 148:-0.974046 149:-0.871162 150:-0.800496 151:-0.856448 152:-0.967638 153:-0.871162 154:-0.855441 155:-0.856448 156:-0.966005 157:-0.614 158:-0.878451 159:-0.628282 160:-0.965826 161:0.702137 162:-0.919645 163:-0.521986 164:-0.980188 165:0.702137 166:-0.934406 167:-0.521986 168:-0.975256 169:0.872128 170:-0.947105 171:0.735622 172:-0.976311 173:0.869275 174:-0.927037 175:0.592883 176:-0.955633 177:0.869275 178:-0.906774 179:0.592883 180:-0.9675 181:0.769989 182:-0.769628 183:0.610618 184:-0.905793 185:0.80935 186:-0.788262 187:-0.509631 188:-0.935344 189:0.690657 190:-0.804747 191:-0.595421 192:-0.976976 193:0.690657 194:-0.943009 195:-0.595421 196:-0.988517 197:0.609532 198:-0.948297 199:-0.551075 200:-0.98937 201:-0.585137 202:-0.945338 203:-0.700035 204:-0.987159 205:-0.609719 206:-0.684144 207:-0.680603 208:-0.932643 209:-0.757658 210:-0.728192 211:-0.776843 212:-0.936653 213:-0.820534 214:-0.785383 215:-0.767051 216:-0.962647 217:-0.847473 218:-0.79232 219:-0.755238 220:-0.954804 221:-0.876063 222:-0.853325 223:-0.823303 224:-0.927036 225:-0.592841 226:-0.844102 227:-0.634543 228:-0.932668 229:-0.860725 230:-0.866681 231:-0.885519 232:-0.931897 233:-0.941879 234:-0.852921 235:-0.966167 236:-0.888197 237:-0.965729 238:-0.938675 239:-0.979358 240:-0.966099 
