svm_type c_svc
kernel_type rbf
gamma 5
nr_class 2
total_sv 19
rho 2.15498
label 0 1
probA -0.600397
probB -0.0641762
nr_sv 10 9
SV
16.80112132241717 1:0.070850202 2:0.052631579 3:0.068825911 4:0.08097166 5:0.060728745 6:0.018218623 7:0.026315789 8:0.05465587 9:0.042510121 10:0.016194332 11:0.028340081 12:0.078947368 13:0.028340081 14:0.032388664 15:0.038461538 16:0.076923077 17:0.08097166 18:0.018218623 19:0.087044534 20:0.038461538 
47.62184100475998 1:0.098654709 2:0.096412556 3:0.080717489 4:0.076233184 5:0.062780269 6:0.0089686099 7:0.022421525 8:0.029147982 9:0.031390135 10:0.011210762 11:0.033632287 12:0.065022422 13:0.047085202 14:0.056053812 15:0.033632287 16:0.058295964 17:0.071748879 18:0.0089686099 19:0.080717489 20:0.02690583 
37.58938054821168 1:0.082608696 2:0.1 3:0.10869565 4:0.069565217 5:0.056521739 6:0.0086956522 7:0.034782609 8:0.026086957 9:0.02173913 10:0.0086956522 11:0.052173913 12:0.086956522 13:0.034782609 14:0.034782609 15:0.034782609 16:0.056521739 17:0.060869565 18:0.030434783 19:0.047826087 20:0.043478261 
60 1:0.06175772 2:0.070071259 3:0.064133017 4:0.10213777 5:0.055819477 6:0.0083135392 7:0.017814727 8:0.043942993 9:0.039192399 10:0.022565321 11:0.042755344 12:0.066508314 13:0.047505938 14:0.048693587 15:0.043942993 16:0.057007126 17:0.076009501 18:0.01543943 19:0.060570071 20:0.055819477 
38.71453482298894 1:0.10136986 2:0.063013699 3:0.087671233 4:0.087671233 5:0.054794521 6:0.024657534 7:0.030136986 8:0.038356164 9:0.024657534 10:0.0082191781 11:0.046575342 12:0.063013699 13:0.060273973 14:0.035616438 15:0.010958904 16:0.060273973 17:0.060273973 18:0.032876712 19:0.071232877 20:0.038356164 
60 1:0.075060533 2:0.099273608 3:0.05811138 4:0.08716707 5:0.065375303 6:0.014527845 7:0.021791768 8:0.046004843 9:0.033898305 10:0.01937046 11:0.026634383 12:0.053268765 13:0.065375303 14:0.031476998 15:0.016949153 16:0.060532688 17:0.079903148 18:0.01937046 19:0.084745763 20:0.041162228 
5.390806521537506 1:0.067092652 2:0.047923323 3:0.057507987 4:0.083067093 5:0.063897764 6:0.03514377 7:0.028753994 8:0.047923323 9:0.044728435 10:0.012779553 11:0.054313099 12:0.047923323 13:0.054313099 14:0.047923323 15:0.051118211 16:0.076677316 17:0.060702875 18:0.028753994 19:0.028753994 20:0.060702875 
11.86199848097035 1:0.066298343 2:0.044198895 3:0.11049724 4:0.055248619 5:0.049723757 6:0.011049724 7:0.033149171 8:0.066298343 9:0.022099448 10:0.0055248619 11:0.071823204 12:0.077348066 13:0.066298343 14:0.044198895 15:0.022099448 16:0.055248619 17:0.044198895 18:0.038674033 19:0.044198895 20:0.071823204 
60 1:0.10441767 2:0.076305221 3:0.084337349 4:0.082329317 5:0.068273092 6:0.012048193 7:0.018072289 8:0.042168675 9:0.018072289 10:0.0080321285 11:0.044176707 12:0.062248996 13:0.054216867 14:0.048192771 15:0.02811245 16:0.048192771 17:0.072289157 18:0.010040161 19:0.068273092 20:0.050200803 
18.43019263567169 1:0.054794521 2:0.047945205 3:0.04109589 4:0.075342466 5:0.095890411 6:0 7:0.01369863 8:0.04109589 9:0.034246575 10:0 11:0.1369863 12:0.095890411 13:0.095890411 14:0.020547945 15:0.047945205 16:0.054794521 17:0.034246575 18:0.04109589 19:0.02739726 20:0.04109589 
-50 1:0.084200568 2:0.098391675 3:0.061494797 4:0.08230842 5:0.055818354 6:0.013245033 7:0.035950804 8:0.036896878 9:0.030274361 10:0.0075685904 11:0.057710501 12:0.069063387 13:0.065279092 14:0.044465468 15:0.031220435 16:0.04730369 17:0.052034059 18:0.028382214 19:0.057710501 20:0.040681173 
-49.23089794550057 1:0.082524272 2:0.048543689 3:0.11650485 4:0.053398058 5:0.077669903 6:0.0097087379 7:0.04368932 8:0.014563107 9:0.019417476 10:0.0097087379 11:0.029126214 12:0.087378641 13:0.067961165 14:0.029126214 15:0.053398058 16:0.048543689 17:0.058252427 18:0.024271845 19:0.063106796 20:0.063106796 
-50 1:0.11764706 2:0.078431373 3:0.06372549 4:0.090686275 5:0.056372549 6:0.019607843 7:0.022058824 8:0.039215686 9:0.029411765 10:0.0098039216 11:0.044117647 12:0.053921569 13:0.051470588 14:0.029411765 15:0.026960784 16:0.051470588 17:0.06127451 18:0.026960784 19:0.078431373 20:0.049019608 
-18.03345032001956 1:0.041666667 2:0.0625 3:0.078125 4:0.13020833 5:0.083333333 6:0.036458333 7:0.03125 8:0.057291667 9:0.015625 10:0 11:0.020833333 12:0.083333333 13:0.052083333 14:0.041666667 15:0.046875 16:0.020833333 17:0.0625 18:0 19:0.057291667 20:0.078125 
-2.875164347734178 1:0.025974026 2:0.034632035 3:0.038961039 4:0.0995671 5:0.060606061 6:0.025974026 7:0.03030303 8:0.038961039 9:0.064935065 10:0.0043290043 11:0.017316017 12:0.11688312 13:0.086580087 14:0.086580087 15:0.043290043 16:0.034632035 17:0.043290043 18:0.0086580087 19:0.11255411 20:0.025974026 
-50 1:0.10562181 2:0.090289608 3:0.06132879 4:0.074957411 5:0.078364566 6:0.018739353 7:0.02725724 8:0.044293015 9:0.028960818 10:0.0068143101 11:0.045996593 12:0.06132879 13:0.045996593 14:0.035775128 15:0.030664395 16:0.044293015 17:0.063032368 18:0.015332198 19:0.056218058 20:0.064735945 
-50 1:0.041916168 2:0.077844311 3:0.053892216 4:0.05988024 5:0.05988024 6:0 7:0.011976048 8:0.041916168 9:0.047904192 10:0.017964072 11:0.035928144 12:0.053892216 13:0.041916168 14:0.023952096 15:0.02994012 16:0.095808383 17:0.11976048 18:0.005988024 19:0.13173653 20:0.047904192 
-36.27036272330304 1:0.090680101 2:0.088161209 3:0.052896725 4:0.088161209 5:0.037783375 6:0.020151134 7:0.0302267 8:0.042821159 9:0.040302267 10:0.0050377834 11:0.042821159 12:0.085642317 13:0.060453401 14:0.0302267 15:0.017632242 16:0.062972292 17:0.055415617 18:0.025188917 19:0.062972292 20:0.060453401 
-50 1:0.081300813 2:0.10162602 3:0.075203252 4:0.089430894 5:0.048780488 6:0.018292683 7:0.024390244 8:0.034552846 9:0.016260163 10:0.0040650407 11:0.042682927 12:0.069105691 13:0.075203252 14:0.054878049 15:0.032520325 16:0.030487805 17:0.071138211 18:0.024390244 19:0.056910569 20:0.048780488 
