svm_type c_svc
kernel_type rbf
gamma 0.01
nr_class 2
total_sv 76
rho 2.93945
label 0 1
probA -2.02659
probB 0.00720216
nr_sv 45 31
SV
75.48161566436511 1:0.00558667 2:0.324423 3:0.66999 4:-0.961978 5:0.0199163 6:0.100094 7:0.0212354 8:0.103699 9:0.0533663 10:0.39355 11:0.134702 12:0.218626 13:0.020078 14:0.0348271 15:0 16:0 17:0 18:0 19:0 20:0 21:1 22:0.357109 23:0.541768 24:0.0480405 25:0.00616792 26:0.00706552 27:0.0203836 28:0.00680095 29:0.00866115 30:0.00400268 31:0.0670261 32:0.458501 33:0.227615 34:0.0562815 35:0.0188495 36:0.0528391 37:0.0482789 38:0.0217441 39:0.0488646 
26.9949263516043 1:0.0022236 2:0.00958382 3:0.988193 4:-0.967902 5:0.189899 6:0.694295 7:0.0548225 8:0.0594763 9:0.496878 10:0.0375611 11:0.0216919 12:0.00428518 13:0.114272 14:0.0211136 15:0 16:0 17:0 18:0 19:0 20:0 21:0 22:0.371377 23:0.128034 24:0.0268336 25:0.0142502 26:0.00516904 27:0.0280711 28:0.357843 29:0.0625606 30:0.00586184 31:0.0721076 32:0.49438 33:0.160604 34:0.0591714 35:0.0117449 36:0.0556592 37:0.0436259 38:0.0416042 39:0.061103 
100 1:0.00183563 2:0.0383195 3:0.959845 4:-0.951489 5:0.100605 6:0.193761 7:0.00851993 8:0.396781 9:0.273291 10:0.056473 11:0.0771855 12:0.0496413 13:0.0312893 14:0.00621306 15:0 16:0 17:0 18:1 19:0 20:0 21:1 22:0.0185346 23:0.0343537 24:0.131821 25:0.00766857 26:0.00486453 27:0.750867 28:0.0426533 29:0.007572 30:0.0016654 31:0.842912 32:0.0658548 33:0.00692755 34:0.0172556 35:0.00588247 36:0.014635 37:0.0263629 38:0.00557289 39:0.0145967 
100 1:0.00230793 2:0.908433 3:0.0892589 4:-0.950692 5:0.847398 6:0.906348 7:0.00284063 8:0.080329 9:0.0364785 10:0.00742286 11:0.0144433 12:0.00245388 13:0.00507258 14:0.00356142 15:0 16:0 17:0 18:1 19:0 20:0 21:1 22:0.181719 23:0.190016 24:0.0594487 25:0.032042 26:0.171065 27:0.101286 28:0.0206402 29:0.236344 30:0.00743877 31:0.11 32:0.11 33:0.11 34:0.11 35:0.11 36:0.11 37:0.11 38:0.11 39:0.11 
100 1:0.0068062 2:0.925532 3:0.0676614 4:-0.957566 5:0.63933 6:0.898016 7:0.0514724 8:0.0657072 9:0.130351 10:0.0365126 11:0.0040451 12:0.0385878 13:0.00784811 14:0.0261455 15:0 16:0 17:0 18:0 19:0 20:0 21:1 22:0.0501654 23:0.116908 24:0.0348494 25:0.068905 26:0.160057 27:0.0528392 28:0.142591 29:0.371385 30:0.00230004 31:0.0211195 32:0.0608489 33:0.0168894 34:0.700289 35:0.00868345 36:0.0462252 37:0.058712 38:0.0159848 39:0.0712475 
100 1:0.00138717 2:0.976661 3:0.0219516 4:-0.973217 5:0.184766 6:0.583121 7:0.01865 8:0.148312 9:0.0211826 10:0.0585948 11:0.0315972 12:0.00559081 13:0.053737 14:0.47757 15:0 16:0 17:0 18:0 19:0 20:0 21:1 22:0.43012 23:0.114082 24:0.0438118 25:0.117048 26:0.176136 27:0.0197502 28:0.00630077 29:0.0829473 30:0.00980351 31:0.11 32:0.11 33:0.11 34:0.11 35:0.11 36:0.11 37:0.11 38:0.11 39:0.11 
100 1:0.0149981 2:0.808816 3:0.176185 4:-0.950902 5:0.0664579 6:0.544842 7:0.0264169 8:0.0735655 9:0.123897 10:0.417694 11:0.0208839 12:0.0599674 13:0.0541067 14:0.157011 15:0 16:0 17:0 18:0 19:0 20:0 21:0 22:0.191203 23:0.512498 24:0.0151786 25:0.0224431 26:0.0250623 27:0.0260042 28:0.181112 29:0.0242846 30:0.00221378 31:0.0205638 32:0.570854 33:0.0587 34:0.0295784 35:0.22412 36:0.0271494 37:0.019409 38:0.0149881 39:0.0346368 
100 1:0.017575 2:0.75051 3:0.231915 4:-0.966613 5:0.300055 6:0.447809 7:0.00211372 8:0.268033 9:0.368855 10:0.00907216 11:0.0391985 12:0.00725585 13:0.00392665 14:0.00149121 15:1 16:0 17:0 18:0 19:0 20:0 21:1 22:0.0787834 23:0.35194 24:0.398213 25:0.0259163 26:0.00730514 27:0.0357276 28:0.0786522 29:0.0121538 30:0.011308 31:0.857085 32:0.0651251 33:0.0147743 34:0.00492579 35:0.00509815 36:0.00348232 37:0.0356799 38:0.00212515 39:0.0117043 
100 1:0.000709049 2:0.976527 3:0.0227643 4:-0.945256 5:0.153215 6:0.236879 7:0.0320152 8:0.287988 9:0.0407782 10:0.0313554 11:0.0277644 12:0.00938297 13:0.355147 14:0.062354 15:0 16:0 17:0 18:1 19:0 20:0 21:1 22:0.0140866 23:0.0338824 24:0.343845 25:0.0406599 26:0.0114441 27:0.504716 28:0.0215801 29:0.0247674 30:0.00501857 31:0.0950301 32:0.0443483 33:0.0610928 34:0.0303542 35:0.0278148 36:0.0537725 37:0.102646 38:0.0165726 39:0.568369 
18.04458841723373 1:0.194435 2:0.629517 3:0.176048 4:-0.959281 5:0.0580214 6:0.576704 7:0.00428881 8:0.0883258 9:0.0250735 10:0.0635939 11:0.0649759 12:0.261497 13:0.101837 14:0.332386 15:0 16:0 17:0 18:1 19:0 20:1 21:0 22:0.0736103 23:0.237494 24:0.0328214 25:0.0591939 26:0.224815 27:0.0299725 28:0.081537 29:0.256425 30:0.00413099 31:0.921932 32:0.0638376 33:0.00240207 34:0.00182979 35:0.00391307 36:0.00056108 37:0.000950179 38:0.000684592 39:0.00388985 
100 1:0.00220336 2:0.934288 3:0.063509 4:-0.966801 5:0.660563 6:0.94393 7:0.0138415 8:0.0633649 9:0.0557089 10:0.0209234 11:0.0136366 12:0.16023 13:0.0056203 14:0.00611126 15:0 16:0 17:0 18:0 19:0 20:0 21:1 22:0.0839091 23:0.16772 24:0.0212755 25:0.0165098 26:0.0127584 27:0.647276 28:0.00939699 29:0.010974 30:0.0301801 31:0.75347 32:0.0888245 33:0.0661576 34:0.0138937 35:0.00991498 36:0.0143137 37:0.0112017 38:0.00443428 39:0.0377898 
100 1:0.00105496 2:0.905721 3:0.0932238 4:-0.955279 5:0.521824 6:0.918417 7:0.00268865 8:0.0487908 9:0.319259 10:0.020345 11:0.00736657 12:0.0587877 13:0.0155089 14:0.00542976 15:0 16:0 17:0 18:0 19:0 20:0 21:1 22:0.46036 23:0.0974522 24:0.121165 25:0.0138826 26:0.00650932 27:0.0454573 28:0.203205 29:0.0470052 30:0.00496256 31:0.675953 32:0.0723721 33:0.161536 34:0.0135478 35:0.0165111 36:0.0213596 37:0.0236064 38:0.00172521 39:0.0133892 
48.45543061553372 1:0.0435133 2:0.530177 3:0.42631 4:-0.946496 5:0.325756 6:0.557894 7:0.0034563 8:0.261165 9:0.118682 10:0.117839 11:0.0825984 12:0.0216546 13:0.0189885 14:0.0498604 15:0 16:0 17:0 18:1 19:0 20:0 21:0 22:0.250746 23:0.41365 24:0.0115752 25:0.0762794 26:0.102551 27:0.0124967 28:0.0517629 29:0.0770026 30:0.00393696 31:0.11 32:0.11 33:0.11 34:0.11 35:0.11 36:0.11 37:0.11 38:0.11 39:0.11 
100 1:0.0132625 2:0.913822 3:0.0729157 4:-0.967541 5:0.178557 6:0.490497 7:0.00384728 8:0.116271 9:0.162878 10:0.0855641 11:0.0942754 12:0.0348929 13:0.0524722 14:0.271242 15:0 16:0 17:0 18:1 19:0 20:0 21:0 22:0.126069 23:0.0228554 24:0.00642747 25:0.0675792 26:0.662289 27:0.0111677 28:0.0249655 29:0.0746019 30:0.00404492 31:0.11 32:0.11 33:0.11 34:0.11 35:0.11 36:0.11 37:0.11 38:0.11 39:0.11 
100 1:0.0184589 2:0.437121 3:0.544421 4:-0.952864 5:0.109663 6:0.149414 7:0.0541757 8:0.349135 9:0.0521195 10:0.0375411 11:0.0247564 12:0.0126656 13:0.318937 14:0.0410066 15:0 16:0 17:0 18:0 19:0 20:0 21:1 22:0.0449756 23:0.11707 24:0.0565312 25:0.466504 26:0.0274846 27:0.167114 28:0.0181649 29:0.00692081 30:0.0952345 31:0.11 32:0.11 33:0.11 34:0.11 35:0.11 36:0.11 37:0.11 38:0.11 39:0.11 
30.82040491595086 1:0.751836 2:0.100037 3:0.148127 4:-0.732428 5:0.34384 6:0.564912 7:0.00759921 8:0.263265 9:0.0106266 10:0.0630009 11:0.0152174 12:0.0192067 13:0.19146 14:0.0857848 15:0 16:0 17:0 18:0 19:0 20:0 21:1 22:0.435222 23:0.118162 24:0.0214604 25:0.199181 26:0.0574114 27:0.0228875 28:0.0120656 29:0.0602703 30:0.0733397 31:0.11 32:0.11 33:0.11 34:0.11 35:0.11 36:0.11 37:0.11 38:0.11 39:0.11 
41.81463711462306 1:0.956172 2:0.0237784 3:0.0200499 4:0.729055 5:0.309701 6:0.518042 7:0.00946732 8:0.314368 9:0.0167629 10:0.0860815 11:0.0364698 12:0.0824559 13:0.0739779 14:0.070716 15:0 16:0 17:0 18:0 19:0 20:0 21:1 22:0.618321 23:0.0770326 24:0.0105947 25:0.0774789 26:0.0879273 27:0.011275 28:0.010178 29:0.0731785 30:0.0340144 31:0.11 32:0.11 33:0.11 34:0.11 35:0.11 36:0.11 37:0.11 38:0.11 39:0.11 
100 1:0.00613571 2:0.980009 3:0.0138548 4:-0.962271 5:0.266125 6:0.362018 7:0.00359101 8:0.41775 9:0.0401408 10:0.0500927 11:0.0309926 12:0.0783168 13:0.0534305 14:0.0595611 15:0 16:0 17:0 18:0 19:0 20:0 21:0 22:0.0459675 23:0.0349338 24:0.00844455 25:0.187686 26:0.470755 27:0.00568455 28:0.0419276 29:0.202621 30:0.0019803 31:0.11 32:0.11 33:0.11 34:0.11 35:0.11 36:0.11 37:0.11 38:0.11 39:0.11 
100 1:0.00945374 2:0.968434 3:0.0221123 4:-0.959081 5:0.308559 6:0.493475 7:0.00863432 8:0.246435 9:0.155329 10:0.0364707 11:0.0527372 12:0.0609546 13:0.0819557 14:0.0489243 15:0 16:0 17:0 18:0 19:0 20:0 21:0 22:0.0585823 23:0.0497747 24:0.0292249 25:0.0813805 26:0.394798 27:0.038398 28:0.0583803 29:0.28459 30:0.0048711 31:0.11 32:0.11 33:0.11 34:0.11 35:0.11 36:0.11 37:0.11 38:0.11 39:0.11 
90.44944305391562 1:0.0164295 2:0.462228 3:0.521343 4:-0.953665 5:0.184145 6:0.576879 7:0.0140186 8:0.277776 9:0.00937813 10:0.0339579 11:0.0263225 12:0.080405 13:0.0654971 14:0.308499 15:0 16:0 17:0 18:0 19:0 20:0 21:0 22:0.020209 23:0.06758 24:0.0119775 25:0.0330416 26:0.837895 27:0.00564194 28:0.00448063 29:0.0162463 30:0.00292781 31:0.11 32:0.11 33:0.11 34:0.11 35:0.11 36:0.11 37:0.11 38:0.11 39:0.11 
100 1:0.00459301 2:0.876167 3:0.11924 4:-0.960368 5:0.574009 6:0.789011 7:0.00148435 8:0.110266 9:0.274632 10:0.0242782 11:0.00468716 12:0.00627409 13:0.00174835 14:0.002621 15:0 16:0 17:0 18:0 19:0 20:0 21:1 22:0.109332 23:0.151868 24:0.0106547 25:0.0689432 26:0.0624192 27:0.0344784 28:0.0890625 29:0.470578 30:0.00266438 31:0.832793 32:0.0593304 33:0.0210574 34:0.0160225 35:0.0136142 36:0.00631779 37:0.0394558 38:0.00311586 39:0.00829282 
100 1:0.00179348 2:0.950015 3:0.048192 4:-0.969037 5:0.0188488 6:0.0983699 7:0.314376 8:0.0564007 9:0.028379 10:0.111574 11:0.0352014 12:0.0354524 13:0.381492 14:0.0182753 15:0 16:0 17:0 18:0 19:0 20:0 21:0 22:0.0823303 23:0.546977 24:0.133733 25:0.0158899 26:0.0164871 27:0.0253874 28:0.0650067 29:0.0988294 30:0.0153595 31:0.11 32:0.11 33:0.11 34:0.11 35:0.11 36:0.11 37:0.11 38:0.11 39:0.11 
38.23755658662353 1:0.00386829 2:0.00584 3:0.990292 4:-0.94481 5:0.416649 6:0.730042 7:0.0414896 8:0.151446 9:0.0329398 10:0.258752 11:0.0180542 12:0.00974084 13:0.0564593 14:0.0144688 15:0 16:0 17:0 18:0 19:0 20:0 21:0 22:0.0267222 23:0.010718 24:0.737565 25:0.00564232 26:0.00322178 27:0.0913158 28:0.119711 29:0.00145296 30:0.00365022 31:0.837621 32:0.0573545 33:0.0106235 34:0.019383 35:0.00561286 36:0.0170546 37:0.0274346 38:0.0105469 39:0.0143689 
52.17564176986265 1:0.00846718 2:0.0102401 3:0.981293 4:-0.938053 5:0.0688578 6:0.559838 7:0.0229394 8:0.131764 9:0.184654 10:0.140753 11:0.0974427 12:0.0640889 13:0.274881 14:0.0146196 15:0 16:0 17:1 18:0 19:0 20:0 21:0 22:0.0374043 23:0.134064 24:0.457972 25:0.141781 26:0.0272811 27:0.109015 28:0.0452259 29:0.0137541 30:0.0335036 31:0.209528 32:0.117802 33:0.130662 34:0.0297441 35:0.00835443 36:0.404965 37:0.0216091 38:0.0214783 39:0.0558575 
100 1:0.000388395 2:0.00804231 3:0.991569 4:-0.963245 5:0.472263 6:0.784178 7:0.283003 8:0.0950658 9:0.00748623 10:0.068831 11:0.0102301 12:0.00685028 13:0.0282719 14:0.0279982 15:0 16:0 17:0 18:0 19:0 20:0 21:1 22:0.0312722 23:0.038211 24:0.232249 25:0.00496624 26:0.00211641 27:0.543518 28:0.0983875 29:0.0147778 30:0.0345014 31:0.11 32:0.11 33:0.11 34:0.11 35:0.11 36:0.11 37:0.11 38:0.11 39:0.11 
24.81175010135113 1:0.00288624 2:0.00681727 3:0.990296 4:-0.943292 5:0.460924 6:0.961653 7:0.0273762 8:0.0850106 9:0.217249 10:0.0377018 11:0.0565308 12:0.013759 13:0.0853394 14:0.0161092 15:1 16:0 17:0 18:1 19:0 20:0 21:1 22:0.0601758 23:0.0125166 24:0.0272684 25:0.00498803 26:0.00161223 27:0.843553 28:0.0227026 29:0.0039545 30:0.0232288 31:0.11 32:0.11 33:0.11 34:0.11 35:0.11 36:0.11 37:0.11 38:0.11 39:0.11 
93.71287226366533 1:0.000593522 2:0.0111322 3:0.988274 4:-0.961231 5:0.078472 6:0.286188 7:0.0431405 8:0.186774 9:0.0897858 10:0.177064 11:0.122726 12:0.256731 13:0.014224 14:0.0310826 15:0 16:0 17:0 18:0 19:0 20:0 21:1 22:0.0356086 23:0.188907 24:0.0229359 25:0.0206519 26:0.0212807 27:0.0139501 28:0.0651743 29:0.260246 30:0.371245 31:0.101281 32:0.618601 33:0.0933857 34:0.0265827 35:0.0111901 36:0.0403818 37:0.0371699 38:0.0288118 39:0.042596 
100 1:0.000811618 2:0.00774619 3:0.991442 4:-0.943418 5:0.322246 6:0.505445 7:0.0636066 8:0.331349 9:0.0161743 10:0.140885 11:0.0521809 12:0.0372423 13:0.0168571 14:0.0194581 15:1 16:0 17:0 18:0 19:0 20:0 21:1 22:0.0406408 23:0.0158722 24:0.12835 25:0.00709002 26:0.00271439 27:0.722283 28:0.0443935 29:0.0101646 30:0.0284908 31:0.11 32:0.11 33:0.11 34:0.11 35:0.11 36:0.11 37:0.11 38:0.11 39:0.11 
100 1:0.00262925 2:0.0107032 3:0.986668 4:-0.943793 5:0.151313 6:0.25498 7:0.0631528 8:0.401297 9:0.0280856 10:0.187652 11:0.0766639 12:0.0331731 13:0.0264231 14:0.0322397 15:0 16:0 17:0 18:0 19:0 20:0 21:1 22:0.274347 23:0.102542 24:0.0358717 25:0.00609136 26:0.00618365 27:0.0586894 28:0.449741 29:0.00888045 30:0.0576532 31:0.0118013 32:0.229904 33:0.664883 34:0.0116272 35:0.0202316 36:0.0386843 37:0.00563584 38:0.0031765 39:0.0140562 
100 1:0.00274143 2:0.0197226 3:0.977536 4:-0.952264 5:0.0152454 6:0.275546 7:0.00111029 8:0.0141382 9:0.778689 10:0.0603502 11:0.0186161 12:0.0726934 13:0.00938995 14:0.0297675 15:0 16:0 17:0 18:0 19:0 20:0 21:0 22:0.38824 23:0.0412066 24:0.100513 25:0.0124527 26:0.00600013 27:0.0660131 28:0.0298731 29:0.0174107 30:0.338291 31:0.393209 32:0.136629 33:0.25086 34:0.0279927 35:0.0119511 36:0.117198 37:0.0174003 38:0.00840054 39:0.0363587 
44.89158077475192 1:0.12508 2:0.803739 3:0.071181 4:0.915434 5:0.513026 6:0.823383 7:0.0257822 8:0.11001 9:0.142801 10:0.0686753 11:0.0323816 12:0.0812528 13:0.00384652 14:0.0222246 15:0 16:0 17:0 18:0 19:0 20:0 21:1 22:0.329637 23:0.0799407 24:0.0509679 25:0.0452147 26:0.0224397 27:0.0824355 28:0.315552 29:0.00680148 30:0.0670104 31:0.962956 32:0.00913586 33:0.00857667 34:0.00200666 35:0.00353742 36:0.00116234 37:0.00107336 38:0.00131579 39:0.0102354 
100 1:0.00425295 2:0.00696033 3:0.988787 4:-0.513341 5:0.0795024 6:0.341514 7:0.237378 8:0.08085 9:0.0171987 10:0.0977707 11:0.0447808 12:0.0206244 13:0.363785 14:0.0581102 15:0 16:0 17:0 18:0 19:0 20:0 21:0 22:0.046088 23:0.124954 24:0.136113 25:0.560785 26:0.0239246 27:0.0294415 28:0.0192779 29:0.00613493 30:0.0532809 31:0.11 32:0.11 33:0.11 34:0.11 35:0.11 36:0.11 37:0.11 38:0.11 39:0.11 
100 1:0.00187366 2:0.504644 3:0.493482 4:-0.96188 5:0.353897 6:0.570118 7:0.00802404 8:0.163072 9:0.290509 10:0.0536044 11:0.0590706 12:0.0499958 13:0.0160425 14:0.00578451 15:0 16:0 17:0 18:0 19:0 20:0 21:1 22:0.35627 23:0.115563 24:0.0383948 25:0.054677 26:0.014432 27:0.0819439 28:0.198425 29:0.00688532 30:0.133409 31:0.11 32:0.11 33:0.11 34:0.11 35:0.11 36:0.11 37:0.11 38:0.11 39:0.11 
100 1:0.00101327 2:0.796253 3:0.202734 4:-0.957847 5:0.029125 6:0.477535 7:0.0826768 8:0.0306003 9:0.0163573 10:0.0329376 11:0.0959159 12:0.62616 13:0.0749883 14:0.0112385 15:0 16:0 17:0 18:0 19:0 20:0 21:0 22:0.121344 23:0.0464422 24:0.0196942 25:0.00803292 26:0.0261286 27:0.1645 28:0.0293711 29:0.517067 30:0.0674197 31:0.0156131 32:0.0488967 33:0.0359812 34:0.0258797 35:0.00551507 36:0.791243 37:0.0215287 38:0.0151221 39:0.0402199 
100 1:0.0150241 2:0.954863 3:0.0301126 4:-0.956014 5:0.187788 6:0.53592 7:0.0174503 8:0.159473 9:0.22331 10:0.2362 11:0.0828913 12:0.074892 13:0.00528312 14:0.0127127 15:0 16:0 17:0 18:1 19:0 20:0 21:1 22:0.827303 23:0.13103 24:0.00648681 25:0.00168232 26:0.00228924 27:0.0179495 28:0.00660837 29:0.00229709 30:0.00435365 31:0.247702 32:0.194054 33:0.263752 34:0.0496385 35:0.0360209 36:0.0351792 37:0.105978 38:0.0179844 39:0.0496904 
34.87792250543574 1:0.00229632 2:0.00847756 3:0.989226 4:0.783785 5:0.114096 6:0.302145 7:0.0517631 8:0.253543 9:0.0771687 10:0.0345268 11:0.0243145 12:0.00837051 13:0.411221 14:0.0249965 15:0 16:0 17:0 18:0 19:0 20:0 21:0 22:0.105556 23:0.301367 24:0.124653 25:0.149018 26:0.0239049 27:0.173406 28:0.0483762 29:0.0160516 30:0.0576669 31:0.11 32:0.11 33:0.11 34:0.11 35:0.11 36:0.11 37:0.11 38:0.11 39:0.11 
84.60671362494899 1:0.00134616 2:0.495607 3:0.503047 4:-0.962159 5:0.170067 6:0.5 7:0.0501872 8:0.216144 9:0.0592719 10:0.113792 11:0.034951 12:0.0569251 13:0.268661 14:0.0300002 15:0 16:0 17:0 18:0 19:0 20:0 21:0 22:0.519812 23:0.0352492 24:0.124303 25:0.0443965 26:0.0259615 27:0.0503241 28:0.0486787 29:0.0365877 30:0.114687 31:0.11 32:0.11 33:0.11 34:0.11 35:0.11 36:0.11 37:0.11 38:0.11 39:0.11 
100 1:0.00354098 2:0.73693 3:0.259529 4:-0.918618 5:0.116725 6:0.452091 7:0.0239165 8:0.115589 9:0.0406266 10:0.106177 11:0.487462 12:0.0162481 13:0.0288179 14:0.0644377 15:0 16:0 17:0 18:0 19:0 20:0 21:0 22:0.390814 23:0.197495 24:0.188412 25:0.0212077 26:0.00791044 27:0.0430516 28:0.101073 29:0.00592262 30:0.0441143 31:0.225863 32:0.153837 33:0.0821611 34:0.10722 35:0.0309927 36:0.153418 37:0.088855 38:0.0669855 39:0.0906679 
92.12476290096915 1:0.00388706 2:0.973208 3:0.022905 4:0.583122 5:0.668837 6:0.789363 7:0.0242791 8:0.171802 9:0.0152493 10:0.0257673 11:0.0404005 12:0.00556814 13:0.0410375 14:0.00705928 15:1 16:0 17:0 18:0 19:0 20:0 21:1 22:0.35574 23:0.0469213 24:0.0163395 25:0.0238836 26:0.00399615 27:0.0372079 28:0.0377552 29:0.00297535 30:0.475181 31:0.245424 32:0.222231 33:0.203906 34:0.0555992 35:0.0316738 36:0.0846971 37:0.0416034 38:0.0473011 39:0.0675641 
100 1:0.995154 2:2.22552e-05 3:0.00482354 4:0.947831 5:0.00198076 6:0.0459906 7:0.674402 8:0.023194 9:0.0453565 10:0.155545 11:0.0194911 12:0.0162156 13:0.0413227 14:0.0224925 15:0 16:0 17:0 18:0 19:0 20:0 21:0 22:0.121563 23:0.0448493 24:0.026145 25:0.055072 26:0.0186734 27:0.0859904 28:0.0902324 29:0.00787378 30:0.549601 31:0.0292549 32:0.538742 33:0.0333474 34:0.0978754 35:0.0142376 36:0.0636171 37:0.114079 38:0.0269601 39:0.0818865 
100 1:0.000433207 2:0.97529 3:0.0242766 4:-0.954982 5:0.0518054 6:0.308086 7:0.0440865 8:0.162155 9:0.13629 10:0.225974 11:0.277343 12:0.0236591 13:0.0171416 14:0.0615451 15:0 16:0 17:0 18:0 19:0 20:0 21:0 22:0.332771 23:0.149385 24:0.138908 25:0.0769115 26:0.0362673 27:0.0969001 28:0.0506354 29:0.0199138 30:0.098308 31:0.11 32:0.11 33:0.11 34:0.11 35:0.11 36:0.11 37:0.11 38:0.11 39:0.11 
100 1:0.0132088 2:0.958375 3:0.028416 4:-0.972289 5:0.0177693 6:0.150779 7:0.014473 8:0.160503 9:0.29531 10:0.129171 11:0.286948 12:0.016001 13:0.00907429 14:0.0707499 15:0 16:0 17:0 18:0 19:0 20:0 21:1 22:0.631282 23:0.199619 24:0.0179257 25:0.0102407 26:0.0112892 27:0.0522492 28:0.0431035 29:0.00402627 30:0.0302645 31:0.0705373 32:0.237507 33:0.0875736 34:0.0924832 35:0.0231642 36:0.357445 37:0.0608188 38:0.0235898 39:0.0468815 
100 1:0.00891052 2:0.0174457 3:0.973644 4:-0.966656 5:0.066365 6:0.153133 7:0.0096384 8:0.300708 9:0.161587 10:0.331622 11:0.0496968 12:0.00364899 13:0.0727131 14:0.00402176 15:0 16:0 17:0 18:0 19:0 20:0 21:0 22:0.109901 23:0.10185 24:0.112475 25:0.0243872 26:0.00833399 27:0.226243 28:0.338725 29:0.00743319 30:0.0706517 31:0.0280244 32:0.63898 33:0.0260265 34:0.0815021 35:0.0444284 36:0.0378711 37:0.109175 38:0.0144219 39:0.0195705 
35.04643645329837 1:0.992198 2:0.00355809 3:0.00424371 4:0.91174 5:0.282917 6:0.720411 7:0.036638 8:0.137618 9:0.0751691 10:0.0727986 11:0.0335605 12:0.0296535 13:0.2753 14:0.0563448 15:0 16:0 17:0 18:1 19:0 20:0 21:1 22:0.157136 23:0.378405 24:0.153479 25:0.106355 26:0.0240526 27:0.0950855 28:0.0608679 29:0.0160205 30:0.00859897 31:0.996894 32:0.00132571 33:0.000308483 34:0.000169002 35:0.000112405 36:0.000113526 37:0.0007366 38:6.89064e-05 39:0.000271463 
100 1:0.936718 2:0.00728445 3:0.0559972 4:-0.961694 5:0.0021841 6:0.0857451 7:0.0133843 8:0.0209831 9:0.708737 10:0.249145 11:0.00286586 12:0.000710474 13:0.0011173 14:0.000872579 15:0 16:0 17:0 18:0 19:0 20:0 21:0 22:0.629702 23:0.102402 24:0.0649407 25:0.0457887 26:0.0203161 27:0.0670242 28:0.043676 29:0.021737 30:0.00441287 31:0.985168 32:0.00797327 33:0.00225856 34:0.000642401 35:0.00228532 36:0.000206179 37:0.000170532 38:0.000100282 39:0.00119496 
-160 1:0.998786 2:6.3576e-06 3:0.00120765 4:0.94724 5:0.215455 6:0.485886 7:0.0101762 8:0.149858 9:0.0398754 10:0.0414014 11:0.0298165 12:0.0057482 13:0.00854419 14:0.499126 15:0 16:0 17:0 18:0 19:0 20:0 21:1 22:0.0299862 23:0.050973 24:0.0046741 25:0.0903216 26:0.713279 27:0.00424406 28:0.0383459 29:0.0659139 30:0.00226225 31:0.601212 32:0.230834 33:0.112428 34:0.00935382 35:0.00445967 36:0.00764145 37:0.00957287 38:0.0132482 39:0.0112494 
-43.62685078329551 1:0.94879 2:0.0456542 3:0.00555614 4:0.952081 5:0.0674473 6:0.53803 7:0.0100238 8:0.0285975 9:0.0079248 10:0.0164125 11:0.0172246 12:0.00151194 13:0.0045112 14:0.846346 15:0 16:0 17:0 18:0 19:0 20:0 21:1 22:0.0939704 23:0.0184973 24:0.00373513 25:0.0863205 26:0.650677 27:0.0223865 28:0.0352951 29:0.0866969 30:0.00242134 31:0.467862 32:0.298319 33:0.131534 34:0.0223325 35:0.018448 36:0.0165727 37:0.0154486 38:0.0134712 39:0.0160129 
-86.17358126152796 1:0.852898 2:0.0369344 3:0.110168 4:-0.946955 5:0.0886077 6:0.230081 7:0.00586829 8:0.285464 9:0.152002 10:0.0805777 11:0.0189835 12:0.0417843 13:0.289216 14:0.0374963 15:0 16:0 17:0 18:0 19:0 20:0 21:0 22:0.0375135 23:0.13359 24:0.21158 25:0.262283 26:0.0824293 27:0.0175546 28:0.0346023 29:0.214932 30:0.00551483 31:0.11 32:0.11 33:0.11 34:0.11 35:0.11 36:0.11 37:0.11 38:0.11 39:0.11 
-0.8087339095096566 1:0.906346 2:0.0841419 3:0.00951222 4:-0.913598 5:0.0043648 6:0.107594 7:0.0104361 8:0.0306572 9:0.0927069 10:0.0897796 11:0.200655 12:0.318487 13:0.0740463 14:0.178867 15:0 16:0 17:0 18:0 19:0 20:0 21:0 22:0.0278762 23:0.621392 24:0.163202 25:0.0262217 26:0.0112268 27:0.088806 28:0.0335396 29:0.0181683 30:0.00956707 31:0.00271485 32:0.0259486 33:0.101295 34:0.00151339 35:0.0025895 36:0.848789 37:0.0125869 38:0.00179015 39:0.00277241 
-160 1:0.00496117 2:0.00614233 3:0.988897 4:-0.964289 5:0.180435 6:0.43734 7:0.0145118 8:0.356468 9:0.122179 10:0.0817697 11:0.0804891 12:0.131098 13:0.0191881 14:0.0138615 15:0 16:0 17:0 18:1 19:0 20:0 21:0 22:0.0415555 23:0.379893 24:0.311999 25:0.0460667 26:0.0195901 27:0.120459 28:0.0543555 29:0.00823138 30:0.017851 31:0.0430611 32:0.506357 33:0.0845722 34:0.0706948 35:0.0213277 36:0.0983932 37:0.0588537 38:0.0350973 39:0.0816435 
-160 1:0.0301723 2:0.842139 3:0.127688 4:-0.954935 5:0.0407346 6:0.459555 7:0.0508144 8:0.0659659 9:0.196396 10:0.371513 11:0.0331413 12:0.0254021 13:0.152041 14:0.0639912 15:0 16:0 17:0 18:0 19:0 20:0 21:1 22:0.115314 23:0.033798 24:0.00948762 25:0.162736 26:0.145912 27:0.00944493 28:0.0296576 29:0.491986 30:0.00166304 31:0.11 32:0.11 33:0.11 34:0.11 35:0.11 36:0.11 37:0.11 38:0.11 39:0.11 
-160 1:0.00063074 2:0.981445 3:0.0179247 4:-0.967987 5:0.884453 6:0.937576 7:0.00251289 8:0.0619847 9:0.00740875 10:0.00824169 11:0.00185957 12:0.0165399 13:0.0106404 14:0.00635929 15:0 16:0 17:0 18:0 19:0 20:0 21:0 22:0.0328404 23:0.417837 24:0.0514644 25:0.353833 26:0.0782589 27:0.0186887 28:0.0180393 29:0.0179637 30:0.0110751 31:0.11 32:0.11 33:0.11 34:0.11 35:0.11 36:0.11 37:0.11 38:0.11 39:0.11 
-9.640849344428851 1:0.0312035 2:0.955277 3:0.013519 4:-0.965837 5:0.0235254 6:0.413517 7:0.556609 8:0.056095 9:0.109031 10:0.0473653 11:0.0125827 12:0.0187272 13:0.132339 14:0.0437257 15:0 16:0 17:0 18:0 19:0 20:0 21:0 22:0.0492902 23:0.437067 24:0.0888266 25:0.0205931 26:0.0115342 27:0.0702293 28:0.30705 29:0.0105186 30:0.00489015 31:0.0162516 32:0.0397984 33:0.0284326 34:0.00829779 35:0.00935364 36:0.0273396 37:0.843565 38:0.0173177 39:0.00964317 
-138.6859880382935 1:0.00361225 2:0.984724 3:0.0116637 4:-0.973673 5:0.385285 6:0.729639 7:0.00613467 8:0.111254 9:0.455179 10:0.00763546 11:0.00254594 12:0.0144239 13:0.0142245 14:0.00331673 15:1 16:0 17:0 18:0 19:0 20:0 21:1 22:0.0601727 23:0.192269 24:0.0700109 25:0.493489 26:0.0555485 27:0.0220821 28:0.0653146 29:0.0371082 30:0.00400443 31:0.11 32:0.11 33:0.11 34:0.11 35:0.11 36:0.11 37:0.11 38:0.11 39:0.11 
-18.29502446154801 1:0.000814426 2:0.974466 3:0.0247194 4:-0.962941 5:0.0447511 6:0.203816 7:0.00149291 8:0.101904 9:0.205556 10:0.139293 11:0.0182356 12:0.458042 13:0.0237115 14:0.00701497 15:0 16:0 17:0 18:1 19:0 20:0 21:1 22:0.110109 23:0.0568005 24:0.601298 25:0.0182461 26:0.0471788 27:0.0979901 28:0.0512553 29:0.0100374 30:0.00708507 31:0.945139 32:0.0136086 33:0.00906509 34:0.00660969 35:0.00372549 36:0.00499423 37:0.0115686 38:0.0019651 39:0.0033244 
-116.8833627626002 1:0.0105964 2:0.972026 3:0.0173781 4:-0.969991 5:0.147294 6:0.834554 7:0.00982496 8:0.0720281 9:0.638144 10:0.0348621 11:0.03504 12:0.0524736 13:0.00572335 14:0.00461008 15:0 16:0 17:0 18:1 19:0 20:0 21:1 22:0.151637 23:0.066656 24:0.0144264 25:0.0956874 26:0.225647 27:0.00970618 28:0.0197279 29:0.411619 30:0.004893 31:0.11 32:0.11 33:0.11 34:0.11 35:0.11 36:0.11 37:0.11 38:0.11 39:0.11 
-2.101544294548347 1:0.078248 2:0.0370522 3:0.8847 4:-0.941182 5:0.00726897 6:0.110204 7:0.0186702 8:0.0536349 9:0.0720939 10:0.127109 11:0.21544 12:0.0243371 13:0.0311014 14:0.450345 15:0 16:0 17:0 18:0 19:0 20:0 21:0 22:0.00434049 23:0.0258013 24:0.0192048 25:0.0043879 26:0.00188986 27:0.0336402 28:0.66673 29:0.241166 30:0.00283936 31:0.0211997 32:0.410227 33:0.239206 34:0.0633911 35:0.0206914 36:0.126085 37:0.0737557 38:0.0174652 39:0.0279785 
-160 1:0.0179587 2:0.964979 3:0.0170626 4:-0.936492 5:0.256582 6:0.921824 7:0.00686095 8:0.0610967 9:0.630357 10:0.00701692 11:0.00377655 12:0.00754754 13:0.0133285 14:0.0134338 15:0 16:0 17:0 18:1 19:0 20:0 21:1 22:0.425998 23:0.297081 24:0.027544 25:0.130996 26:0.021939 27:0.0373161 28:0.050441 29:0.0037525 30:0.00493315 31:0.869852 32:0.0563759 33:0.0136175 34:0.0173678 35:0.00207734 36:0.010747 37:0.014605 38:0.00408794 39:0.01127 
-160 1:0.00231098 2:0.00633117 3:0.991358 4:-0.889682 5:0.0996142 6:0.42217 7:0.131795 8:0.178093 9:0.0259216 10:0.0231458 11:0.0258398 12:0.0068812 13:0.477501 14:0.0312085 15:0 16:0 17:0 18:0 19:0 20:0 21:0 22:0.0339275 23:0.258099 24:0.410397 25:0.010994 26:0.00325462 27:0.155666 28:0.11321 29:0.0110335 30:0.00341832 31:0.0802487 32:0.3155 33:0.136743 34:0.135502 35:0.0277103 36:0.0947689 37:0.0779701 38:0.0340357 39:0.0975217 
-160 1:0.000561128 2:0.975773 3:0.0236659 4:-0.946172 5:0.163683 6:0.187526 7:0.0047301 8:0.648159 9:0.04281 10:0.00670247 11:0.0719028 12:0.00720763 13:0.0519733 14:0.00283206 15:0 16:0 17:0 18:0 19:0 20:0 21:0 22:0.513453 23:0.0419653 24:0.0498213 25:0.017227 26:0.0274611 27:0.122429 28:0.0911758 29:0.01313 30:0.123337 31:0.11 32:0.11 33:0.11 34:0.11 35:0.11 36:0.11 37:0.11 38:0.11 39:0.11 
-160 1:0.000820156 2:0.976494 3:0.0226861 4:-0.976545 5:0.0156545 6:0.106835 7:0.166218 8:0.110926 9:0.0437148 10:0.0996906 11:0.0894145 12:0.0452506 13:0.0426697 14:0.386461 15:0 16:0 17:0 18:0 19:0 20:0 21:0 22:0.308457 23:0.0493949 24:0.106024 25:0.038695 26:0.178537 27:0.0602979 28:0.0335891 29:0.0122597 30:0.212745 31:0.0409182 32:0.515629 33:0.0473437 34:0.0820004 35:0.0161117 36:0.0900723 37:0.0694338 38:0.0417146 39:0.0967766 
-7.34469611019139 1:0.000637371 2:0.984135 3:0.0152274 4:-0.973147 5:0.0057215 6:0.0618069 7:0.31577 8:0.0270482 9:0.223035 10:0.244011 11:0.0434503 12:0.0108091 13:0.118684 14:0.0114703 15:0 16:0 17:0 18:1 19:0 20:0 21:0 22:0.0677059 23:0.510756 24:0.133166 25:0.062925 26:0.0135567 27:0.0768943 28:0.0622123 29:0.00516076 30:0.0676239 31:0.0264248 32:0.498708 33:0.0444425 34:0.120915 35:0.0218106 36:0.0939976 37:0.0790917 38:0.0289131 39:0.0856969 
-160 1:0.0404887 2:0.866037 3:0.0934739 4:-0.955693 5:0.32625 6:0.604186 7:0.0766817 8:0.202482 9:0.0258588 10:0.0380136 11:0.0380346 12:0.00781667 13:0.226718 14:0.0581446 15:0 16:0 17:0 18:0 19:0 20:0 21:0 22:0.438761 23:0.214834 24:0.224371 25:0.00702076 26:0.00558111 27:0.0497356 28:0.050598 29:0.00485168 30:0.00424712 31:0.876061 32:0.0602101 33:0.0119495 34:0.00897188 35:0.00784565 36:0.0141023 37:0.0102666 38:0.00360895 39:0.00698412 
-160 1:0.0047076 2:0.25821 3:0.737083 4:-0.948793 5:0.173151 6:0.260646 7:0.0178088 8:0.429055 9:0.115416 10:0.149855 11:0.0205989 12:0.00832835 13:0.0119612 14:0.0738258 15:0 16:0 17:0 18:0 19:0 20:0 21:0 22:0.107421 23:0.148927 24:0.0847043 25:0.0144661 26:0.00775845 27:0.368326 28:0.219337 29:0.00429137 30:0.0447691 31:0.11 32:0.11 33:0.11 34:0.11 35:0.11 36:0.11 37:0.11 38:0.11 39:0.11 
-160 1:0.0030715 2:0.978104 3:0.018825 4:-0.968099 5:0.0873528 6:0.524449 7:0.0168756 8:0.0584511 9:0.676011 10:0.119385 11:0.0320603 12:0.00609512 13:0.0013666 14:0.00240291 15:0 16:0 17:0 18:0 19:0 20:0 21:0 22:0.508117 23:0.018127 24:0.043422 25:0.00773174 26:0.0139782 27:0.0117683 28:0.0675856 29:0.0360617 30:0.293208 31:0.11 32:0.11 33:0.11 34:0.11 35:0.11 36:0.11 37:0.11 38:0.11 39:0.11 
-150.0184183604175 1:0.00240425 2:0.00921357 3:0.988382 4:-0.965854 5:0.0155789 6:0.0555219 7:0.0824502 8:0.267128 9:0.0752131 10:0.353983 11:0.14108 12:0.0310209 13:0.00764304 14:0.0259031 15:0 16:0 17:0 18:0 19:0 20:0 21:0 22:0.0240046 23:0.187073 24:0.387349 25:0.0254047 26:0.0113092 27:0.282356 28:0.0466876 29:0.00970594 30:0.0261096 31:0.000482545 32:0.0365143 33:0.268681 34:0.00102663 35:0.000688521 36:0.683477 37:0.00522273 38:0.00172993 39:0.00217788 
-160 1:0.00139462 2:0.967586 3:0.0310197 4:-0.967665 5:0.12061 6:0.411056 7:0.0931565 8:0.223762 9:0.0680711 10:0.131811 11:0.0708139 12:0.226911 13:0.0286151 14:0.0362491 15:0 16:0 17:0 18:0 19:0 20:0 21:1 22:0.806239 23:0.0653806 24:0.00956089 25:0.00471108 26:0.00498692 27:0.0182481 28:0.0624605 29:0.0222832 30:0.00612988 31:0.0135424 32:0.744236 33:0.101829 34:0.0408438 35:0.00637242 36:0.042445 37:0.0243573 38:0.00980733 39:0.0165669 
-160 1:0.0020038 2:0.0169717 3:0.981024 4:-0.950533 5:0.476243 6:0.829594 7:0.0253758 8:0.107637 9:0.0430471 10:0.146899 11:0.0922619 12:0.00615068 13:0.0954892 14:0.00689651 15:0 16:0 17:0 18:0 19:0 20:0 21:1 22:0.0966598 23:0.0262009 24:0.097135 25:0.00902087 26:0.00236725 27:0.688287 28:0.025664 29:0.0298429 30:0.0248225 31:0.11 32:0.11 33:0.11 34:0.11 35:0.11 36:0.11 37:0.11 38:0.11 39:0.11 
-160 1:0.00504512 2:0.0342569 3:0.960698 4:-0.967668 5:0.0899346 6:0.25822 7:0.00602448 8:0.290331 9:0.277842 10:0.101278 11:0.029844 12:0.0942718 13:0.0237351 14:0.0867391 15:0 16:0 17:0 18:0 19:0 20:0 21:1 22:0.366102 23:0.0326748 24:0.0359234 25:0.00621025 26:0.00276366 27:0.468174 28:0.0799831 29:0.00265063 30:0.00551793 31:0.942456 32:0.012303 33:0.0106031 34:0.00382926 35:0.00362675 36:0.00461927 37:0.00261814 38:0.00205298 39:0.0178918 
-160 1:0.00621689 2:0.0507649 3:0.943018 4:-0.973485 5:0.0304411 6:0.0557426 7:0.0298032 8:0.239489 9:0.0405264 10:0.1158 11:0.122971 12:0.134947 13:0.267221 14:0.0188015 15:0 16:0 17:0 18:0 19:0 20:0 21:0 22:0.114332 23:0.0554792 24:0.0329856 25:0.209999 26:0.0156373 27:0.174015 28:0.0381852 29:0.028186 30:0.331181 31:0.00944116 32:0.0647004 33:0.749749 34:0.00961694 35:0.00448566 36:0.11796 37:0.0181588 38:0.00943647 39:0.0164514 
-90.6684336337923 1:0.0125115 2:0.968082 3:0.0194069 4:-0.954656 5:0.777335 6:0.924476 7:0.00328482 8:0.0563498 9:0.0965847 10:0.0375184 11:0.00541924 12:0.0144485 13:0.00647433 14:0.00258515 15:0 16:0 17:0 18:0 19:0 20:0 21:1 22:0.0599742 23:0.0183918 24:0.353114 25:0.0161654 26:0.00245027 27:0.440731 28:0.0610381 29:0.0258782 30:0.0222571 31:0.11 32:0.11 33:0.11 34:0.11 35:0.11 36:0.11 37:0.11 38:0.11 39:0.11 
-160 1:0.000630934 2:0.971797 3:0.0275724 4:-0.948538 5:0.055719 6:0.202309 7:0.258119 8:0.107449 9:0.029805 10:0.291134 11:0.086987 12:0.0637009 13:0.0908169 14:0.0162679 15:0 16:0 17:0 18:0 19:0 20:0 21:1 22:0.0709344 23:0.119717 24:0.0257942 25:0.0139505 26:0.00944456 27:0.0457048 28:0.0726426 29:0.606341 30:0.0354714 31:0.11 32:0.11 33:0.11 34:0.11 35:0.11 36:0.11 37:0.11 38:0.11 39:0.11 
-160 1:0.250185 2:0.667245 3:0.0825705 4:0.653623 5:0.0965552 6:0.483084 7:0.0300067 8:0.0874343 9:0.17106 10:0.0977109 11:0.0929466 12:0.398958 13:0.0112649 14:0.0140631 15:0 16:0 17:0 18:0 19:0 20:0 21:1 22:0.0337941 23:0.148961 24:0.0867099 25:0.015955 26:0.0100511 27:0.104528 28:0.417677 29:0.0296715 30:0.152653 31:0.688357 32:0.0894537 33:0.0373347 34:0.0113353 35:0.012931 36:0.0109284 37:0.122483 38:0.00734381 39:0.019833 
-28.29880015397981 1:0.00315306 2:0.175142 3:0.821705 4:-0.972192 5:0.0564366 6:0.445327 7:0.07558 8:0.0892503 9:0.112531 10:0.0967862 11:0.0583022 12:0.42185 13:0.0340021 14:0.0552622 15:0 16:0 17:0 18:0 19:0 20:0 21:1 22:0.0217944 23:0.200897 24:0.592409 25:0.0249226 26:0.013242 27:0.0563097 28:0.0452006 29:0.0182484 30:0.0269764 31:0.035392 32:0.495277 33:0.330629 34:0.017682 35:0.0100385 36:0.0686946 37:0.0259842 38:0.00290293 39:0.0133995 
-160 1:0.000799688 2:0.91773 3:0.0814699 4:-0.951894 5:0.874444 6:0.933995 7:0.00263555 8:0.055143 9:0.058706 10:0.00248616 11:0.00304044 12:0.000937517 13:0.00158613 14:0.00102129 15:1 16:0 17:0 18:1 19:0 20:0 21:1 22:0.0906597 23:0.0426023 24:0.0899901 25:0.0123652 26:0.00262476 27:0.638729 28:0.024162 29:0.051174 30:0.0476928 31:0.11 32:0.11 33:0.11 34:0.11 35:0.11 36:0.11 37:0.11 38:0.11 39:0.11 
-160 1:0.00362996 2:0.00468038 3:0.99169 4:-0.858263 5:0.00766582 6:0.101343 7:0.0712006 8:0.0508756 9:0.115857 10:0.331921 11:0.179089 12:0.0557821 13:0.034251 14:0.153357 15:0 16:0 17:0 18:0 19:0 20:0 21:1 22:0.0278897 23:0.052339 24:0.124081 25:0.0320463 26:0.0122521 27:0.0340863 28:0.453358 29:0.0503845 30:0.213563 31:0.0178026 32:0.0329784 33:0.400174 34:0.0340106 35:0.10603 36:0.142015 37:0.115401 38:0.129963 39:0.021625 
